hidden1.weight_weight_0,hidden1.weight_weight_1,hidden1.weight_weight_2,hidden1.weight_weight_3,hidden1.weight_weight_4,hidden1.weight_weight_5,hidden1.weight_weight_6,hidden1.weight_weight_7,hidden1.weight_weight_8,hidden1.weight_weight_9,hidden1.weight_weight_10,hidden1.weight_weight_11,hidden1.weight_weight_12,hidden1.weight_weight_13,hidden1.weight_weight_14,hidden1.weight_weight_15,hidden1.weight_weight_16,hidden1.weight_weight_17,hidden1.weight_weight_18,hidden1.weight_weight_19,hidden1.weight_weight_20,hidden1.weight_weight_21,hidden1.weight_weight_22,hidden1.weight_weight_23,hidden1.weight_weight_24,hidden1.weight_weight_25,hidden1.weight_weight_26,hidden1.weight_weight_27,hidden1.weight_weight_28,hidden1.weight_weight_29,hidden1.weight_weight_30,hidden1.weight_weight_31,hidden1.weight_weight_32,hidden1.weight_weight_33,hidden1.weight_weight_34,hidden1.weight_weight_35,hidden1.weight_weight_36,hidden1.weight_weight_37,hidden1.weight_weight_38,hidden1.weight_weight_39,hidden1.weight_weight_40,hidden1.weight_weight_41,hidden1.weight_weight_42,hidden1.weight_weight_43,hidden1.weight_weight_44,hidden1.weight_weight_45,hidden1.weight_weight_46,hidden1.weight_weight_47,hidden1.weight_weight_48,hidden1.weight_weight_49,hidden1.bias_weight_0,hidden1.bias_weight_1,hidden1.bias_weight_2,hidden1.bias_weight_3,hidden1.bias_weight_4,hidden1.bias_weight_5,hidden1.bias_weight_6,hidden1.bias_weight_7,hidden1.bias_weight_8,hidden1.bias_weight_9,bn1.weight_weight_0,bn1.weight_weight_1,bn1.weight_weight_2,bn1.weight_weight_3,bn1.weight_weight_4,bn1.weight_weight_5,bn1.weight_weight_6,bn1.weight_weight_7,bn1.weight_weight_8,bn1.weight_weight_9,bn1.bias_weight_0,bn1.bias_weight_1,bn1.bias_weight_2,bn1.bias_weight_3,bn1.bias_weight_4,bn1.bias_weight_5,bn1.bias_weight_6,bn1.bias_weight_7,bn1.bias_weight_8,bn1.bias_weight_9,hidden2.weight_weight_0,hidden2.weight_weight_1,hidden2.weight_weight_2,hidden2.weight_weight_3,hidden2.weight_weight_4,hidden2.weight_weight_5,hidden2.weight_weight_6,hidden2.weight_weight_7,hidden2.weight_weight_8,hidden2.weight_weight_9,hidden2.weight_weight_10,hidden2.weight_weight_11,hidden2.weight_weight_12,hidden2.weight_weight_13,hidden2.weight_weight_14,hidden2.weight_weight_15,hidden2.weight_weight_16,hidden2.weight_weight_17,hidden2.weight_weight_18,hidden2.weight_weight_19,hidden2.weight_weight_20,hidden2.weight_weight_21,hidden2.weight_weight_22,hidden2.weight_weight_23,hidden2.weight_weight_24,hidden2.weight_weight_25,hidden2.weight_weight_26,hidden2.weight_weight_27,hidden2.weight_weight_28,hidden2.weight_weight_29,hidden2.weight_weight_30,hidden2.weight_weight_31,hidden2.weight_weight_32,hidden2.weight_weight_33,hidden2.weight_weight_34,hidden2.weight_weight_35,hidden2.weight_weight_36,hidden2.weight_weight_37,hidden2.weight_weight_38,hidden2.weight_weight_39,hidden2.weight_weight_40,hidden2.weight_weight_41,hidden2.weight_weight_42,hidden2.weight_weight_43,hidden2.weight_weight_44,hidden2.weight_weight_45,hidden2.weight_weight_46,hidden2.weight_weight_47,hidden2.weight_weight_48,hidden2.weight_weight_49,hidden2.bias_weight_0,hidden2.bias_weight_1,hidden2.bias_weight_2,hidden2.bias_weight_3,hidden2.bias_weight_4,bn2.weight_weight_0,bn2.weight_weight_1,bn2.weight_weight_2,bn2.weight_weight_3,bn2.weight_weight_4,bn2.bias_weight_0,bn2.bias_weight_1,bn2.bias_weight_2,bn2.bias_weight_3,bn2.bias_weight_4,output.weight_weight_0,output.weight_weight_1,output.weight_weight_2,output.weight_weight_3,output.weight_weight_4,output.bias_weight_0
-0.4945032000541687,0.4035540223121643,-0.6086848974227905,-0.12377265095710754,-0.3899708092212677,0.2719590961933136,-0.3878720700740814,0.7862250208854675,-0.42101967334747314,-0.6301649212837219,0.9870789051055908,-0.803453803062439,0.6585108041763306,-1.0233838558197021,0.6237266659736633,0.9310035705566406,0.6412700414657593,0.9864832758903503,0.2644723653793335,0.8578296303749084,0.9721202254295349,0.4497019350528717,-1.038540244102478,0.7211160063743591,-0.7848631143569946,0.947638988494873,0.07937489449977875,-0.9510406851768494,-0.7683632969856262,-0.2706297039985657,-0.9552375078201294,-0.22816555202007294,-0.3479246497154236,-0.5262568593025208,0.715097188949585,0.8898540735244751,0.5051226019859314,-1.074079155921936,0.9754999279975891,0.4202980101108551,0.25085750222206116,0.6426419019699097,0.617756187915802,-0.5649563670158386,0.06596493721008301,-1.0061408281326294,-0.5110828280448914,0.9988242387771606,0.9789839386940002,0.16673476994037628,0.303430438041687,0.008169978857040405,0.12719367444515228,-0.026926804333925247,-0.36393648386001587,0.006784455850720406,-0.42402809858322144,-0.026966216042637825,-0.23728656768798828,0.21221227943897247,0.9898999929428101,1.0098999738693237,1.0098999738693237,1.0098999738693237,1.0098999738693237,0.9898999929428101,0.9898999929428101,0.9898999929428101,1.0098999738693237,1.0098999738693237,0.009999978356063366,0.00999999325722456,0.009999978356063366,0.009999996051192284,0.009999996051192284,-0.009999995119869709,-0.009999997913837433,-0.009999996982514858,0.009999997913837433,0.009999998845160007,0.1805950254201889,-0.10447295010089874,0.285040944814682,0.5264484882354736,0.49289947748184204,-0.6759257316589355,-0.6501224637031555,0.22742852568626404,0.1355634331703186,0.49774396419525146,0.11636748164892197,-0.25271931290626526,-0.07944582402706146,0.6912468075752258,-0.18604926764965057,0.7065466046333313,-0.35412153601646423,0.5792073607444763,0.11882590502500534,0.12928643822669983,-0.5471692681312561,-0.14628730714321136,0.19262942671775818,-0.388305127620697,-0.691558301448822,0.6755771040916443,-0.6668556928634644,-0.7237266302108765,0.45824387669563293,-0.6960119009017944,0.4390996992588043,-0.4042885899543762,0.06019279360771179,0.17356252670288086,-0.21652470529079437,0.2042744904756546,-0.254794716835022,0.607135534286499,-0.382387638092041,0.5265195965766907,0.4536983370780945,-0.5365310907363892,0.5739803910255432,0.7037038207054138,-0.16612038016319275,0.2215680181980133,0.06327733397483826,0.7118520736694336,0.2375258505344391,0.025146856904029846,0.2526317536830902,-0.12355294078588486,-0.008873535320162773,0.18213912844657898,-0.13782812654972076,0.9898999929428101,0.9898999929428101,0.9898999929428101,0.9898999929428101,1.0098999738693237,-0.009999999776482582,-0.009999999776482582,-0.009999997913837433,-0.010000000707805157,0.009999998845160007,0.6187081933021545,0.6811830997467041,0.3986551761627197,0.6353511214256287,-0.6479324698448181,0.3363935947418213
-0.5037388801574707,0.3938833475112915,-0.5991900563240051,-0.12810370326042175,-0.38113662600517273,0.28103968501091003,-0.37797966599464417,0.7765141725540161,-0.42929622530937195,-0.6400207281112671,0.9932621121406555,-0.8124956488609314,0.6485220193862915,-1.032620906829834,0.6137252449989319,0.9209516048431396,0.6311984062194824,0.9963492155075073,0.27444788813591003,0.8676838874816895,0.962023138999939,0.4397071301937103,-1.048388957977295,0.7111168503761292,-0.7947409749031067,0.937582790851593,0.06937625259160995,-0.9609418511390686,-0.7781963348388672,-0.2796698808670044,-0.9452261924743652,-0.23807895183563232,-0.3578592538833618,-0.5361610651016235,0.7050313353538513,0.8798384070396423,0.5106946229934692,-1.0647512674331665,0.9850683808326721,0.43002861738204956,0.26073116064071655,0.6525800228118896,0.6116178035736084,-0.5554786324501038,0.06875661760568619,-1.0160529613494873,-0.5210444331169128,0.9887109994888306,0.9688795804977417,0.1567094475030899,0.3040897846221924,0.009116170927882195,0.1298799216747284,-0.02727443166077137,-0.3641684353351593,0.0077711595222353935,-0.4233798384666443,-0.028360288590192795,-0.23559685051441193,0.21377317607402802,0.9805251359939575,1.0189471244812012,1.019763469696045,1.017485499382019,1.0198030471801758,0.9799377918243408,0.9798556566238403,0.9797905087471008,1.0197914838790894,1.0197428464889526,0.019262222573161125,0.019875308498740196,0.01956259459257126,0.018937695771455765,0.019968181848526,-0.019985586404800415,-0.01989040896296501,-0.020011000335216522,0.01996677741408348,0.01993788778781891,0.17063941061496735,-0.11444815248250961,0.2950127124786377,0.5164858102798462,0.48290133476257324,-0.6857653856277466,-0.6400843262672424,0.2174493819475174,0.12554368376731873,0.5076500177383423,0.10694262385368347,-0.26247724890708923,-0.08901289850473404,0.7010019421577454,-0.19602438807487488,0.6966155171394348,-0.34558624029159546,0.5885230302810669,0.11894361674785614,0.13921590149402618,-0.5571262836456299,-0.15623247623443604,0.20261965692043304,-0.37833088636398315,-0.7015026807785034,0.6654964685440063,-0.6568349003791809,-0.7142984867095947,0.46817678213119507,-0.7056031823158264,0.4291580319404602,-0.4134651720523834,0.05452641099691391,0.16353699564933777,-0.22635099291801453,0.19470898807048798,-0.24486854672431946,0.5970935225486755,-0.3923349380493164,0.5363981127738953,0.44371044635772705,-0.5265607833862305,0.5837223529815674,0.711983323097229,-0.1561325192451477,0.23150889575481415,0.05331037566065788,0.7217175364494324,0.24742379784584045,0.015343794599175453,0.25212469696998596,-0.12843243777751923,-0.014886772260069847,0.17995770275592804,-0.14156951010227203,0.9798166155815125,0.9798316359519958,0.9798088669776917,0.9798383712768555,1.0197927951812744,-0.019988153129816055,-0.019967423751950264,-0.019990192726254463,-0.0199916809797287,0.01999642327427864,0.6086639165878296,0.6711487174034119,0.3886207044124603,0.6253288984298706,-0.6578627824783325,0.3263590633869171
-0.5120236873626709,0.38443630933761597,-0.5900501608848572,-0.13530758023262024,-0.3761225938796997,0.2899029552936554,-0.3680998980998993,0.7677308917045593,-0.43087345361709595,-0.6498145461082458,1.0011718273162842,-0.8207080364227295,0.638844907283783,-1.037158727645874,0.605148434638977,0.9112764000892639,0.6215577721595764,1.0058497190475464,0.28401029109954834,0.877087414264679,0.9519148468971252,0.42974382638931274,-1.058222770690918,0.7013229727745056,-0.8044154047966003,0.9276828169822693,0.05951870232820511,-0.9703815579414368,-0.7880083322525024,-0.28849342465400696,-0.9355409145355225,-0.24598568677902222,-0.36716586351394653,-0.5457493662834167,0.6953426003456116,0.869904637336731,0.5122072100639343,-1.0561013221740723,0.9943487048149109,0.4395540654659271,0.2705279290676117,0.662503182888031,0.6076264977455139,-0.5457421541213989,0.0749073177576065,-1.0259660482406616,-0.5310240983963013,0.9785897731781006,0.9587507843971252,0.14667557179927826,0.30378538370132446,0.008103087544441223,0.13113856315612793,-0.027288028970360756,-0.3643052875995636,0.008106658235192299,-0.42321616411209106,-0.02870100364089012,-0.2349391132593155,0.21389377117156982,0.9741131663322449,1.0216448307037354,1.02956223487854,1.0207895040512085,1.0297242403030396,0.9704101085662842,0.9698694944381714,0.9696626663208008,1.0296884775161743,1.0293915271759033,0.028677955269813538,0.02880442887544632,0.02861269935965538,0.02425021305680275,0.029883231967687607,-0.029390960931777954,-0.029678426682949066,-0.02993123047053814,0.02992182970046997,0.029581965878605843,0.1609000414609909,-0.12443774938583374,0.3049955368041992,0.506471574306488,0.4729706943035126,-0.6954496502876282,-0.6300122737884521,0.2076035737991333,0.11550938338041306,0.5174766182899475,0.10034094750881195,-0.26996931433677673,-0.09488286077976227,0.7104537487030029,-0.20590868592262268,0.6872628331184387,-0.3364344835281372,0.5939872860908508,0.12115279585123062,0.14839793741703033,-0.5671036839485168,-0.16617944836616516,0.21259377896785736,-0.3683636486530304,-0.7114673852920532,0.6553950309753418,-0.6468666195869446,-0.7047739624977112,0.4781273305416107,-0.7069463133811951,0.43290239572525024,-0.4204244613647461,0.054217394441366196,0.15351778268814087,-0.23605825006961823,0.18569618463516235,-0.23504431545734406,0.5870972871780396,-0.4022473096847534,0.5461050868034363,0.4336908757686615,-0.5167032480239868,0.5933154225349426,0.7198871970176697,-0.14618344604969025,0.24135439097881317,0.04337381199002266,0.7315155267715454,0.2572422921657562,0.006612056866288185,0.2557453513145447,-0.12933921813964844,-0.013512828387320042,0.1765548139810562,-0.13926789164543152,0.9697679281234741,0.9698198437690735,0.969734251499176,0.9698356986045837,1.029665470123291,-0.02995617501437664,-0.02985183335840702,-0.02997972071170807,-0.02996506541967392,0.029973942786455154,0.5986583232879639,0.6611757874488831,0.37859854102134705,0.6153731346130371,-0.6677752137184143,0.31632569432258606
-0.5184162259101868,0.3757292330265045,-0.582930326461792,-0.1435825377702713,-0.3753575384616852,0.2930210828781128,-0.3596058487892151,0.758569061756134,-0.43405476212501526,-0.6596933007240295,1.0089889764785767,-0.8202285170555115,0.6306710243225098,-1.0386121273040771,0.5969966650009155,0.9024292230606079,0.6129441261291504,1.0145843029022217,0.2926251292228699,0.8855704665184021,0.9418047070503235,0.4197116792201996,-1.0681178569793701,0.6914533376693726,-0.814208447933197,0.918307363986969,0.050042860209941864,-0.97884601354599,-0.7975957989692688,-0.2942768633365631,-0.926408588886261,-0.252007395029068,-0.3760334551334381,-0.5550642609596252,0.685828685760498,0.8602570295333862,0.5083774924278259,-1.0493088960647583,1.002892255783081,0.44849666953086853,0.27847161889076233,0.6724363565444946,0.6080320477485657,-0.5358626842498779,0.08259472250938416,-1.035864233970642,-0.5410103797912598,0.9684807062149048,0.948591411113739,0.13668584823608398,0.304324746131897,0.007984991185367107,0.1324600875377655,-0.027488918974995613,-0.3643934726715088,0.007933051325380802,-0.42308545112609863,-0.028395511209964752,-0.23422691226005554,0.2144167274236679,0.9663539528846741,1.0203275680541992,1.0393773317337036,1.0211982727050781,1.0396523475646973,0.96110999584198,0.9600236415863037,0.9596068859100342,1.0395712852478027,1.0386255979537964,0.03829420357942581,0.03739289194345474,0.037754327058792114,0.02784179151058197,0.03972317650914192,-0.03848608583211899,-0.039166517555713654,-0.03991974517703056,0.03969378024339676,0.03871758282184601,0.15159347653388977,-0.1344379484653473,0.3149949908256531,0.4965273439884186,0.46313348412513733,-0.7048823237419128,-0.6199080944061279,0.19805771112442017,0.10546839237213135,0.5271167159080505,0.09661034494638443,-0.27599918842315674,-0.0969112440943718,0.7195912003517151,-0.21574506163597107,0.6783784031867981,-0.3272571861743927,0.596635103225708,0.12161646783351898,0.15703001618385315,-0.5771051049232483,-0.17606708407402039,0.22258566319942474,-0.35842636227607727,-0.7214338779449463,0.645263135433197,-0.6369892954826355,-0.6953466534614563,0.48809513449668884,-0.7017618417739868,0.42789530754089355,-0.42714861035346985,0.05857003480195999,0.14370286464691162,-0.2452862709760666,0.17687563598155975,-0.22557882964611053,0.577576756477356,-0.4119158983230591,0.5554603338241577,0.4236249327659607,-0.5067495703697205,0.6029630899429321,0.7285575270652771,-0.13624170422554016,0.2512253522872925,0.033433664590120316,0.7408460974693298,0.2664860486984253,-0.0023657167330384254,0.2599395215511322,-0.1304914504289627,-0.01337705459445715,0.1766386777162552,-0.13631737232208252,0.9597798585891724,0.9598990678787231,0.9596869349479675,0.9599181413650513,1.039494276046753,-0.03989247977733612,-0.039643216878175735,-0.03997240215539932,-0.03986206650733948,0.03994579240679741,0.5887200832366943,0.6513015031814575,0.3685978651046753,0.6055121421813965,-0.6776482462882996,0.30629560351371765
-0.5227825045585632,0.367647647857666,-0.5827996730804443,-0.1523364782333374,-0.37617039680480957,0.291867733001709,-0.35238826274871826,0.7490743398666382,-0.43943822383880615,-0.6695987582206726,1.0175070762634277,-0.8168036341667175,0.6218476295471191,-1.0429965257644653,0.5891060829162598,0.8945980072021484,0.6052649021148682,1.021621584892273,0.30040451884269714,0.8930903673171997,0.9316456317901611,0.40962398052215576,-1.0780593156814575,0.6815271377563477,-0.8239986300468445,0.9093068838119507,0.04098418354988098,-0.9865676164627075,-0.8069554567337036,-0.29894882440567017,-0.9178526401519775,-0.2572001814842224,-0.38447535037994385,-0.5641382932662964,0.6764236688613892,0.8508673906326294,0.5020076036453247,-1.0461113452911377,1.0103784799575806,0.4564853012561798,0.28457626700401306,0.6823440790176392,0.6114611029624939,-0.5258893370628357,0.09106069803237915,-1.0457525253295898,-0.5510066747665405,0.9583614468574524,0.9384016394615173,0.1270177811384201,0.3049182891845703,0.007893137633800507,0.13365598022937775,-0.027425479143857956,-0.36465832591056824,0.007457551546394825,-0.42316558957099915,-0.02844000607728958,-0.2331242710351944,0.2144351303577423,0.9585849046707153,1.01893150806427,1.0492749214172363,1.0187245607376099,1.0495736598968506,0.9518928527832031,0.9502562880516052,0.9496572017669678,1.0494589805603027,1.0472347736358643,0.04807440564036369,0.045930713415145874,0.04717664793133736,0.028752291575074196,0.04956568777561188,-0.04740627482533455,-0.04825769364833832,-0.049931615591049194,0.04934140294790268,0.0473116897046566,0.14296860992908478,-0.14446403086185455,0.32503944635391235,0.4871087968349457,0.4533977508544922,-0.7139933109283447,-0.6097602248191833,0.1889839768409729,0.09544099122285843,0.5364868640899658,0.09430074691772461,-0.28098559379577637,-0.09744129329919815,0.7286560535430908,-0.2255295217037201,0.6696341633796692,-0.3178116977214813,0.5981600880622864,0.12324574589729309,0.1650576889514923,-0.5871238112449646,-0.18600718677043915,0.23231174051761627,-0.3484428822994232,-0.7314395904541016,0.635108470916748,-0.6270442008972168,-0.6856763362884521,0.49808019399642944,-0.6948184370994568,0.4211019277572632,-0.4337991774082184,0.0646989643573761,0.13401775062084198,-0.25385165214538574,0.16834406554698944,-0.21638378500938416,0.5685429573059082,-0.4214235246181488,0.5643736720085144,0.4138534665107727,-0.4968246519565582,0.6127546429634094,0.7273117899894714,-0.12631899118423462,0.26118478178977966,0.02361663430929184,0.7492194175720215,0.2759760618209839,-0.01170276664197445,0.26264122128486633,-0.13249529898166656,-0.015053129754960537,0.17657241225242615,-0.13308387994766235,0.9498785138130188,0.950110912322998,0.9496831893920898,0.9501005411148071,1.0492521524429321,-0.04978068172931671,-0.04931407794356346,-0.0499676838517189,-0.049655817449092865,0.04990978538990021,0.5788784623146057,0.6415704488754272,0.3586336076259613,0.5957629084587097,-0.687457799911499,0.2962722182273865
-0.524680495262146,0.3609163463115692,-0.5852555632591248,-0.16150547564029694,-0.37914711236953735,0.2888774871826172,-0.34551042318344116,0.7396134734153748,-0.4453209638595581,-0.6793861389160156,1.0264850854873657,-0.8113716840744019,0.6127320528030396,-1.0472749471664429,0.5832422375679016,0.8879824876785278,0.5982589721679688,1.026093602180481,0.3072277903556824,0.8997321724891663,0.9214743971824646,0.3995263874530792,-1.0879909992218018,0.6715244650840759,-0.8338250517845154,0.9008471965789795,0.03255645930767059,-0.9941148161888123,-0.8155542016029358,-0.30037620663642883,-0.910317599773407,-0.26051488518714905,-0.3919377624988556,-0.5728380680084229,0.6672990322113037,0.8418079614639282,0.4944467544555664,-1.0465419292449951,1.0164886713027954,0.4631674289703369,0.2888714671134949,0.6919865608215332,0.6168345212936401,-0.5159015655517578,0.10000544041395187,-1.0555139780044556,-0.5609521269798279,0.9483230113983154,0.928230345249176,0.11812935024499893,0.30582037568092346,0.007975333370268345,0.13519129157066345,-0.027823584154248238,-0.36551862955093384,0.0066640013828873634,-0.42322099208831787,-0.02780258283019066,-0.23207460343837738,0.21477322280406952,0.9514589309692383,1.0187451839447021,1.0592352151870728,1.0137073993682861,1.0592955350875854,0.9429952502250671,0.9406713247299194,0.9398783445358276,1.059288740158081,1.0550470352172852,0.05793330445885658,0.054069384932518005,0.056819431483745575,0.025944652035832405,0.05916796252131462,-0.0558144636452198,-0.05680267512798309,-0.05994594097137451,0.05879725515842438,0.05529732257127762,0.13528606295585632,-0.15453627705574036,0.3351389169692993,0.47957727313041687,0.443756639957428,-0.7227265238761902,-0.5995616316795349,0.18062441051006317,0.08547165244817734,0.545462429523468,0.09485965222120285,-0.28576353192329407,-0.09741328656673431,0.7372763156890869,-0.23502925038337708,0.6614065170288086,-0.30819472670555115,0.5986672639846802,0.12239838391542435,0.17181143164634705,-0.5971856117248535,-0.1960107982158661,0.24128358066082,-0.3383801579475403,-0.7414937615394592,0.6249216794967651,-0.6171789169311523,-0.6758388876914978,0.5081230998039246,-0.686855673789978,0.4132544696331024,-0.43950751423835754,0.0720587894320488,0.1245792955160141,-0.26154908537864685,0.16041947901248932,-0.20773163437843323,0.5602070689201355,-0.4306550621986389,0.5727608799934387,0.40444353222846985,-0.4870467483997345,0.6226511001586914,0.7225384712219238,-0.1164579689502716,0.2712051570415497,0.01397653017193079,0.7565171718597412,0.2855232059955597,-0.021162962540984154,0.2660835087299347,-0.13280193507671356,-0.015051363967359066,0.1770997792482376,-0.1320463865995407,0.940093994140625,0.9405052661895752,0.9397474527359009,0.9403965473175049,1.0589017868041992,-0.05960143730044365,-0.058804940432310104,-0.05995495989918709,-0.05934055149555206,0.05983405560255051,0.5691672563552856,0.6320342421531677,0.34872883558273315,0.5861421227455139,-0.6971688270568848,0.2862604558467865
-0.5243276357650757,0.3553592264652252,-0.5898374319076538,-0.17097264528274536,-0.38380277156829834,0.2841200828552246,-0.3396179974079132,0.7305119037628174,-0.4509640038013458,-0.6888847351074219,1.035764455795288,-0.8047427535057068,0.6036850810050964,-1.048396348953247,0.5819052457809448,0.8827943801879883,0.5922247171401978,1.0287349224090576,0.3130316436290741,0.9051538705825806,0.9113779664039612,0.3894297480583191,-1.0978270769119263,0.661538302898407,-0.8436031937599182,0.8931786417961121,0.02551712840795517,-1.0012521743774414,-0.8231480121612549,-0.299527645111084,-0.9038015007972717,-0.2622794806957245,-0.3979555368423462,-0.5809811353683472,0.6587832570075989,0.8332861661911011,0.486204594373703,-1.0491701364517212,1.0212370157241821,0.46832799911499023,0.2920178771018982,0.7013786435127258,0.6230714321136475,-0.5059871673583984,0.10919993370771408,-1.0650254487991333,-0.5707501769065857,0.9384666681289673,0.9181699752807617,0.11066824942827225,0.30625593662261963,0.008324673399329185,0.13587753474712372,-0.028227560222148895,-0.3660598695278168,0.006015448831021786,-0.42310553789138794,-0.027712279930710793,-0.23099039494991302,0.2149714082479477,0.9435033798217773,1.019463300704956,1.069175124168396,1.0072773694992065,1.0687655210494995,0.9348565936088562,0.9312825202941895,0.9303817749023438,1.0689561367034912,1.0619757175445557,0.06791158020496368,0.06060483679175377,0.06637903302907944,0.02088971436023712,0.06856779009103775,-0.06328548491001129,-0.06474177539348602,-0.06976775825023651,0.06796212494373322,0.06300914287567139,0.12882328033447266,-0.16467253863811493,0.34529978036880493,0.47624415159225464,0.4342033565044403,-0.731032133102417,-0.5893071293830872,0.1733047366142273,0.0756472647190094,0.5538406372070312,0.09803828597068787,-0.2894163131713867,-0.09679557383060455,0.7451381683349609,-0.24371711909770966,0.6542978286743164,-0.2984068691730499,0.5982789397239685,0.12008508294820786,0.176749125123024,-0.60695880651474,-0.20608986914157867,0.2478983849287033,-0.3282344341278076,-0.7516069412231445,0.6147621870040894,-0.6072213053703308,-0.6658509373664856,0.5182069540023804,-0.6782852411270142,0.4047226309776306,-0.4441660940647125,0.0802379846572876,0.11562427878379822,-0.2685241103172302,0.15287216007709503,-0.19970563054084778,0.5527119636535645,-0.43943461775779724,0.5806093811988831,0.39531129598617554,-0.47742360830307007,0.6325531601905823,0.716296374797821,-0.10664717108011246,0.28122076392173767,0.004500639624893665,0.7627449631690979,0.2951803207397461,-0.030717311426997185,0.269503116607666,-0.1334497183561325,-0.014656935818493366,0.17658096551895142,-0.13049936294555664,0.9304655194282532,0.9311413764953613,0.9299160242080688,0.9308142066001892,1.0683845281600952,-0.0693276897072792,-0.06804151087999344,-0.06986372917890549,-0.06892209500074387,0.06969515979290009,0.5596297979354858,0.6227526664733887,0.33891576528549194,0.5766615867614746,-0.706727147102356,0.27626755833625793
-0.5226691365242004,0.3498333692550659,-0.5958331823348999,-0.18066008388996124,-0.38931235671043396,0.27782517671585083,-0.3360593914985657,0.7211252450942993,-0.4556274116039276,-0.6985974907875061,1.0444854497909546,-0.7971124053001404,0.596493661403656,-1.051753282546997,0.5827574133872986,0.8795887231826782,0.5886540412902832,1.0326727628707886,0.3151322901248932,0.9086623787879944,0.9012653231620789,0.3793935179710388,-1.1074841022491455,0.6516975164413452,-0.8534076809883118,0.8875905275344849,0.02081417664885521,-1.006205439567566,-0.8295325040817261,-0.29553642868995667,-0.8983413577079773,-0.263236939907074,-0.4027075171470642,-0.5886280536651611,0.6507343053817749,0.8258919715881348,0.47833240032196045,-1.0530062913894653,1.0242507457733154,0.47207000851631165,0.2932637929916382,0.7097620964050293,0.6285558342933655,-0.49752113223075867,0.11837027966976166,-1.0740182399749756,-0.580244779586792,0.9289979934692383,0.9084506034851074,0.10554493963718414,0.3064786493778229,0.008224518038332462,0.13663674890995026,-0.028562167659401894,-0.36664363741874695,0.005619610659778118,-0.4228616952896118,-0.02792985364794731,-0.23011919856071472,0.21533799171447754,0.9351609349250793,1.0174565315246582,1.079088568687439,1.0003407001495361,1.0779746770858765,0.9274324774742126,0.9222332239151001,0.9211359620094299,1.0785106420516968,1.0677374601364136,0.07757546007633209,0.06494054943323135,0.07580486685037613,0.015781745314598083,0.07791992276906967,-0.07001388072967529,-0.07163537293672562,-0.07923588901758194,0.07691262662410736,0.07059042155742645,0.12384696304798126,-0.17488417029380798,0.35552793741226196,0.4774051904678345,0.4247290790081024,-0.7388648986816406,-0.5789953470230103,0.16740860044956207,0.06609725952148438,0.5613493919372559,0.10245917737483978,-0.2918146252632141,-0.09250353276729584,0.7524341940879822,-0.2517612874507904,0.6483187675476074,-0.28863948583602905,0.5964804291725159,0.12183915823698044,0.17942428588867188,-0.6165456175804138,-0.21625860035419464,0.25261154770851135,-0.3180476427078247,-0.7617151141166687,0.6047396063804626,-0.5973868370056152,-0.6557439565658569,0.5282053351402283,-0.6692324280738831,0.3957143723964691,-0.4480346143245697,0.08898299187421799,0.10740922391414642,-0.27490994334220886,0.14550107717514038,-0.19237640500068665,0.5462058782577515,-0.4475676715373993,0.587902843952179,0.385855495929718,-0.46760329604148865,0.6421518921852112,0.7092053890228271,-0.09709826856851578,0.2908690571784973,-0.00504343444481492,0.7675271034240723,0.3048260807991028,-0.040374450385570526,0.2713114619255066,-0.13384895026683807,-0.014289586804807186,0.1765878051519394,-0.12948082387447357,0.9210392236709595,0.9220882058143616,0.9202278852462769,0.921366274356842,1.077622890472412,-0.07892470061779022,-0.0769406259059906,-0.07968055456876755,-0.07838355004787445,0.07945627719163895,0.5503166913986206,0.6137937903404236,0.3292328715324402,0.5673363208770752,-0.7160606384277344,0.2663037180900574
-0.5196991562843323,0.3439253568649292,-0.6028688549995422,-0.19048987329006195,-0.39592188596725464,0.27069756388664246,-0.33333826065063477,0.7115314602851868,-0.45779135823249817,-0.7084473967552185,1.0530295372009277,-0.7889037728309631,0.5894607901573181,-1.0571036338806152,0.5829329490661621,0.8785194754600525,0.5873607993125916,1.0374424457550049,0.3145608603954315,0.9100750088691711,0.8912388682365417,0.36950820684432983,-1.1168830394744873,0.6420000791549683,-0.8631590604782104,0.8836145401000977,0.01779518648982048,-1.0096333026885986,-0.8348606824874878,-0.2898566722869873,-0.8936435580253601,-0.26372405886650085,-0.4065728187561035,-0.5958452224731445,0.6430723667144775,0.8195497393608093,0.4709530472755432,-1.0571824312210083,1.0266088247299194,0.47444069385528564,0.29300743341445923,0.7171729207038879,0.6328874826431274,-0.49074459075927734,0.1271476000547409,-1.0821149349212646,-0.5891740322113037,0.9202136397361755,0.8994928002357483,0.1042351946234703,0.3066621422767639,0.008471067063510418,0.13793224096298218,-0.0287383534014225,-0.36726051568984985,0.005419396795332432,-0.4227815270423889,-0.028295960277318954,-0.22918881475925446,0.21532189846038818,0.9263152480125427,1.0135018825531006,1.0890878438949585,0.9934462308883667,1.0870357751846313,0.9206112623214722,0.9133789539337158,0.9121228456497192,1.0879210233688354,1.0719226598739624,0.08697058260440826,0.06613686680793762,0.08511533588171005,0.01064204704016447,0.0873047411441803,-0.07622344046831131,-0.07773742824792862,-0.08861750364303589,0.08565322309732437,0.07796861976385117,0.12047019600868225,-0.18517762422561646,0.36582663655281067,0.48157957196235657,0.415333092212677,-0.7461777925491333,-0.5686420202255249,0.16328133642673492,0.057023804634809494,0.5676280856132507,0.10776124894618988,-0.2930789291858673,-0.08640658855438232,0.7593450546264648,-0.25924935936927795,0.6432467103004456,-0.27884748578071594,0.5939209461212158,0.12609614431858063,0.18005959689617157,-0.6259706616401672,-0.22651523351669312,0.2556878626346588,-0.3078855276107788,-0.7718135714530945,0.5948053002357483,-0.5875063538551331,-0.6455671787261963,0.5380622148513794,-0.6598114967346191,0.38646337389945984,-0.4512740671634674,0.09811882674694061,0.09998152405023575,-0.28093576431274414,0.1384444534778595,-0.18550090491771698,0.5406655073165894,-0.4550528824329376,0.5942994952201843,0.3761450946331024,-0.45761048793792725,0.6518522500991821,0.7013141512870789,-0.08759483695030212,0.3004300594329834,-0.014644015580415726,0.7706182599067688,0.31466180086135864,-0.050167299807071686,0.27273261547088623,-0.13443200290203094,-0.013114324770867825,0.1769004762172699,-0.1277623027563095,0.9118635058403015,0.9134142994880676,0.9107275605201721,0.9120704531669617,1.0865259170532227,-0.0883541852235794,-0.08547655493021011,-0.08943447470664978,-0.08763927221298218,0.08912485092878342,0.5412805676460266,0.6052290201187134,0.3197297155857086,0.5581778287887573,-0.7250897884368896,0.2563815116882324
-0.5157467722892761,0.337538480758667,-0.6102510094642639,-0.20046095550060272,-0.403432697057724,0.2632905840873718,-0.3299267590045929,0.702053427696228,-0.45626500248908997,-0.7184023857116699,1.0595287084579468,-0.7817180156707764,0.5815260410308838,-1.0638374090194702,0.5811294317245483,0.8792964816093445,0.5878678560256958,1.0424120426177979,0.3120182752609253,0.9097856283187866,0.8815048336982727,0.360300749540329,-1.1256855726242065,0.6326427459716797,-0.8727049827575684,0.8809266686439514,0.01571584679186344,-1.0119454860687256,-0.8392894268035889,-0.283026784658432,-0.8901926875114441,-0.26397451758384705,-0.41000881791114807,-0.6021794080734253,0.6360689401626587,0.8140919804573059,0.4638614058494568,-1.0616815090179443,1.0283528566360474,0.4757346510887146,0.29141566157341003,0.7236492037773132,0.6364865899085999,-0.4853946268558502,0.13567005097866058,-1.0890092849731445,-0.5974295735359192,0.912318766117096,0.8916059136390686,0.10664789378643036,0.30705133080482483,0.008852140977978706,0.1392522156238556,-0.02882210537791252,-0.36774954199790955,0.005123985931277275,-0.4227692782878876,-0.029001804068684578,-0.2282409369945526,0.21489213407039642,0.9171000123023987,1.008032202720642,1.0991160869598389,0.9863699674606323,1.095954418182373,0.9144576191902161,0.9046989679336548,0.9032803177833557,1.0970593690872192,1.074429988861084,0.09634162485599518,0.0648789033293724,0.09450680762529373,0.004941387567669153,0.09676551073789597,-0.08185093849897385,-0.08350352197885513,-0.09796369075775146,0.09404025971889496,0.08504859358072281,0.11868695169687271,-0.19554516673088074,0.3761982321739197,0.4875766336917877,0.406023770570755,-0.7529208660125732,-0.558276355266571,0.16106930375099182,0.04867497459053993,0.5723404884338379,0.11369569599628448,-0.2932719886302948,-0.07914673537015915,0.7659887075424194,-0.26621192693710327,0.6389367580413818,-0.2690453827381134,0.5910261273384094,0.1320113241672516,0.17889268696308136,-0.6351355314254761,-0.23684334754943848,0.257393479347229,-0.29775768518447876,-0.7818400263786316,0.5850743651390076,-0.577594518661499,-0.6353313326835632,0.5477402210235596,-0.6501083374023438,0.3770480155944824,-0.45417076349258423,0.10755513608455658,0.09344705194234848,-0.2867160439491272,0.1316675841808319,-0.17903205752372742,0.5361284613609314,-0.4618247449398041,0.5996924638748169,0.36627063155174255,-0.4474603533744812,0.6616069674491882,0.6928750276565552,-0.0783420130610466,0.3100227117538452,-0.024165760725736618,0.7716781497001648,0.32457882165908813,-0.06004013866186142,0.2731574475765228,-0.1349106878042221,-0.012010103091597557,0.17727245390415192,-0.12516817450523376,0.9029866456985474,0.905186653137207,0.9014750123023987,0.9029397964477539,1.0949957370758057,-0.09757452458143234,-0.09361613541841507,-0.09904021769762039,-0.09665124118328094,0.09868254512548447,0.532572865486145,0.5971267819404602,0.3104645013809204,0.5491966605186462,-0.7337278127670288,0.24651579558849335
-0.513211190700531,0.3343506455421448,-0.613909125328064,-0.20553499460220337,-0.40756678581237793,0.25951918959617615,-0.3277515769004822,0.6976674795150757,-0.45429474115371704,-0.7233514189720154,1.0614871978759766,-0.7794044017791748,0.577336311340332,-1.0676060914993286,0.5788404941558838,0.880479097366333,0.5888236165046692,1.0448154211044312,0.3100248873233795,0.9089010953903198,0.8768791556358337,0.3561287522315979,-1.1297022104263306,0.6282123327255249,-0.877304196357727,0.8800777792930603,0.015011114999651909,-1.0125032663345337,-0.8413018584251404,-0.2791992127895355,-0.8890897035598755,-0.26391199231147766,-0.41137808561325073,-0.6048970818519592,0.6329674124717712,0.8117523193359375,0.46040984988212585,-1.064142107963562,1.0288991928100586,0.4758777916431427,0.2900165319442749,0.726338803768158,0.6382068991661072,-0.4833333194255829,0.13984687626361847,-1.0918973684310913,-0.6011845469474792,0.9087972640991211,0.8882424235343933,0.10888493061065674,0.30723804235458374,0.009084159508347511,0.13939915597438812,-0.028904398903250694,-0.3679271638393402,0.004997044801712036,-0.42284971475601196,-0.029195787385106087,-0.2276405692100525,0.21490269899368286,0.9125122427940369,1.0046347379684448,1.1041566133499146,0.9826036691665649,1.1003668308258057,0.9117034673690796,0.9005132913589478,0.8989180326461792,1.1014515161514282,1.0747637748718262,0.10108008980751038,0.06323986500501633,0.09934009611606598,0.001677085179835558,0.10151202231645584,-0.08457858115434647,-0.08610992133617401,-0.10264408588409424,0.09799649566411972,0.08849488198757172,0.1187782883644104,-0.20075741410255432,0.38142892718315125,0.4911412298679352,0.4016624689102173,-0.7557515501976013,-0.5531973838806152,0.16099946200847626,0.044871870428323746,0.5736727714538574,0.11688628792762756,-0.2928553521633148,-0.07510147243738174,0.7692195773124695,-0.26943376660346985,0.6371107697486877,-0.26415738463401794,0.5895529389381409,0.13555322587490082,0.17752869427204132,-0.6395964026451111,-0.24203309416770935,0.25767672061920166,-0.2927148640155792,-0.7867829203605652,0.5803351402282715,-0.5726682543754578,-0.6301851272583008,0.552494466304779,-0.6451425552368164,0.37241843342781067,-0.45569470524787903,0.11236067861318588,0.09063106030225754,-0.28941357135772705,0.12842676043510437,-0.17602397501468658,0.5343682765960693,-0.4648558795452118,0.6018083691596985,0.3613131642341614,-0.44232675433158875,0.6665282845497131,0.6884859800338745,-0.07372787594795227,0.31492793560028076,-0.028904622420668602,0.7711825966835022,0.3294139504432678,-0.06503824144601822,0.27363526821136475,-0.13503499329090118,-0.011356626637279987,0.17749647796154022,-0.12438392639160156,0.8987259864807129,0.9013311266899109,0.8970056176185608,0.8984663486480713,1.0989618301391602,-0.10204006731510162,-0.09746772795915604,-0.10373841971158981,-0.10100345313549042,0.10338858515024185,0.5284103155136108,0.593342125415802,0.3059851825237274,0.5448008179664612,-0.7378040552139282,0.24161989986896515
-0.5102721452713013,0.3311884105205536,-0.6175820231437683,-0.2106807827949524,-0.41195979714393616,0.25569242238998413,-0.3252149820327759,0.693587601184845,-0.4515548050403595,-0.7282659411430359,1.062518835067749,-0.77804034948349,0.5728603601455688,-1.0717482566833496,0.5757755041122437,0.8822999000549316,0.5903455018997192,1.0470476150512695,0.30747881531715393,0.907411515712738,0.872424304485321,0.3522542417049408,-1.1334645748138428,0.623936653137207,-0.8817542195320129,0.8797101378440857,0.014696869067847729,-1.0125083923339844,-0.843065619468689,-0.27511441707611084,-0.8885414004325867,-0.26375988125801086,-0.41242802143096924,-0.6072105765342712,0.6302230954170227,0.8097501993179321,0.4571015536785126,-1.066793441772461,1.0291616916656494,0.4755522310733795,0.2881019115447998,0.7286083102226257,0.6396030187606812,-0.4819391071796417,0.14387191832065582,-1.0941685438156128,-0.6045055389404297,0.9057533144950867,0.8855933547019958,0.11186320334672928,0.3073013424873352,0.009043484926223755,0.13933712244033813,-0.028990184888243675,-0.367992103099823,0.004872861318290234,-0.42297303676605225,-0.02925891801714897,-0.22716446220874786,0.21454490721225739,0.9079092741012573,1.0008196830749512,1.1092751026153564,0.978702187538147,1.1046745777130127,0.9092703461647034,0.8965310454368591,0.8946866393089294,1.1056236028671265,1.0743207931518555,0.10581216216087341,0.06095007807016373,0.10430651903152466,-0.001906408229842782,0.10621681809425354,-0.0871875062584877,-0.0883520245552063,-0.10728401690721512,0.10167304426431656,0.09192482382059097,0.11966121941804886,-0.20598915219306946,0.3867069184780121,0.49512240290641785,0.3975549042224884,-0.7580856084823608,-0.548214852809906,0.1617896854877472,0.04148799926042557,0.5740726590156555,0.12030196934938431,-0.29201027750968933,-0.07074863463640213,0.7723544239997864,-0.2723451554775238,0.6356062889099121,-0.2593109607696533,0.5882064700126648,0.139505535364151,0.17551302909851074,-0.6439309120178223,-0.24722075462341309,0.25740453600883484,-0.2877034544944763,-0.7916261553764343,0.575731635093689,-0.5678983926773071,-0.6250231862068176,0.5571579337120056,-0.6401070952415466,0.3677765429019928,-0.457425594329834,0.11718624085187912,0.08834464102983475,-0.2919609844684601,0.12525992095470428,-0.17326201498508453,0.5331412553787231,-0.4674646854400635,0.6034046411514282,0.35636740922927856,-0.437116801738739,0.6715558767318726,0.6838676333427429,-0.06913087517023087,0.3199129104614258,-0.03360724076628685,0.7699027061462402,0.33410215377807617,-0.07013481110334396,0.27383941411972046,-0.1350606083869934,-0.010730989277362823,0.17758499085903168,-0.12391447275876999,0.8946409821510315,0.8977321982383728,0.892697811126709,0.8940808773040771,1.1026531457901,-0.10636279731988907,-0.10110263526439667,-0.10830974578857422,-0.10520273447036743,0.10800886899232864,0.5244364738464355,0.5898209810256958,0.30166342854499817,0.5404940843582153,-0.7416310906410217,0.2367614060640335
-0.5069357752799988,0.32815346121788025,-0.6212199926376343,-0.21588853001594543,-0.4165811240673065,0.25174176692962646,-0.3224872648715973,0.6901835203170776,-0.4481452703475952,-0.7330716848373413,1.0630956888198853,-0.7773669362068176,0.5682092905044556,-1.0761586427688599,0.5720999836921692,0.8846377730369568,0.5923311710357666,1.0490224361419678,0.30449679493904114,0.9054254293441772,0.8681185245513916,0.34863319993019104,-1.136946201324463,0.6198046803474426,-0.8861314058303833,0.8798447847366333,0.014851038344204426,-1.0120222568511963,-0.844519853591919,-0.2707689106464386,-0.8885861039161682,-0.26373493671417236,-0.4130982458591461,-0.6091278195381165,0.6278184056282043,0.8080344200134277,0.4539306163787842,-1.0695888996124268,1.0291844606399536,0.47484877705574036,0.28593909740448,0.7306139469146729,0.6400574445724487,-0.48132580518722534,0.1474670022726059,-1.0958962440490723,-0.6074289083480835,0.9031429886817932,0.8835636377334595,0.11537829041481018,0.3073413074016571,0.00895827729254961,0.1393730789422989,-0.029050089418888092,-0.36830607056617737,0.004723373334854841,-0.4230775833129883,-0.029364239424467087,-0.22664476931095123,0.2142554372549057,0.9033780097961426,0.996678352355957,1.1144685745239258,0.9746092557907104,1.1088284254074097,0.9072695374488831,0.8927537798881531,0.8905227780342102,1.1095417737960815,1.0732380151748657,0.1105649545788765,0.05814279243350029,0.10938900709152222,-0.0058133709244430065,0.11081935465335846,-0.08963242173194885,-0.09023392200469971,-0.11191511154174805,0.10512049496173859,0.09536442160606384,0.12119108438491821,-0.21123065054416656,0.39203402400016785,0.4994221031665802,0.3936689794063568,-0.7599577307701111,-0.543321967124939,0.1632857769727707,0.038564860820770264,0.573644757270813,0.12388243526220322,-0.29077041149139404,-0.0661543682217598,0.7754161953926086,-0.2749749422073364,0.6343834400177002,-0.25451070070266724,0.5869876742362976,0.14377376437187195,0.17296908795833588,-0.6481175422668457,-0.2524186074733734,0.25658395886421204,-0.2827145457267761,-0.7963432669639587,0.5712941288948059,-0.563286304473877,-0.6198296546936035,0.5617411136627197,-0.6350502371788025,0.36309462785720825,-0.4593583047389984,0.12203492969274521,0.08657577633857727,-0.29439112544059753,0.12213695049285889,-0.17074301838874817,0.5324066877365112,-0.4696548283100128,0.6045410633087158,0.35159242153167725,-0.43183526396751404,0.6766812801361084,0.6790662407875061,-0.06440503150224686,0.3250082731246948,-0.038307465612888336,0.7679229378700256,0.3384988605976105,-0.07531861215829849,0.2739289402961731,-0.1351098269224167,-0.01036416832357645,0.17725443840026855,-0.12326126545667648,0.8907313942909241,0.8943881988525391,0.8885588049888611,0.8897808194160461,1.106058955192566,-0.1105426475405693,-0.10452672094106674,-0.11272890865802765,-0.10925769805908203,0.11255183815956116,0.5206505060195923,0.5865612030029297,0.2975057363510132,0.536273717880249,-0.7452012300491333,0.2319415956735611
-0.5032454133033752,0.32502126693725586,-0.6250400543212891,-0.22115589678287506,-0.4213937520980835,0.24765145778656006,-0.3193449079990387,0.6876660585403442,-0.4442605972290039,-0.7377722859382629,1.06283438205719,-0.7781264781951904,0.5634799599647522,-1.0807746648788452,0.5680118799209595,0.8874022364616394,0.5946932435035706,1.0506134033203125,0.3011689782142639,0.9030284285545349,0.8639506697654724,0.34528180956840515,-1.1401646137237549,0.6157839298248291,-0.8904458284378052,0.8804270029067993,0.015308835543692112,-1.0111639499664307,-0.8456307053565979,-0.2662145793437958,-0.889158308506012,-0.2637771964073181,-0.4134124517440796,-0.6106820106506348,0.6257320046424866,0.8065636157989502,0.4508529603481293,-1.0724992752075195,1.0290039777755737,0.4738346338272095,0.2835845649242401,0.732360303401947,0.6397027373313904,-0.4814086854457855,0.15060728788375854,-1.0971089601516724,-0.6099648475646973,0.9009521007537842,0.8821253776550293,0.11930734664201736,0.30738720297813416,0.008931932039558887,0.13922744989395142,-0.02906724065542221,-0.36860406398773193,0.004673715680837631,-0.42323240637779236,-0.029407154768705368,-0.22608864307403564,0.21381597220897675,0.8990281224250793,0.9922534227371216,1.1197339296340942,0.970266580581665,1.1128261089324951,0.9057549238204956,0.8891722559928894,0.8863672018051147,1.113160490989685,1.0716131925582886,0.11537639051675797,0.05490744858980179,0.11457488685846329,-0.010045768693089485,0.11532991379499435,-0.09183844178915024,-0.09177805483341217,-0.11658095568418503,0.10826843976974487,0.09882894158363342,0.1232505813241005,-0.2164738029241562,0.3974127173423767,0.5039702653884888,0.389977365732193,-0.761399507522583,-0.5384955406188965,0.16535541415214539,0.03612823411822319,0.5724982023239136,0.12758181989192963,-0.2891695499420166,-0.06136469170451164,0.7784199714660645,-0.2773449122905731,0.6334103941917419,-0.24976250529289246,0.5858875513076782,0.14829233288764954,0.16999293863773346,-0.6521780490875244,-0.25761938095092773,0.25525400042533875,-0.27775266766548157,-0.8009380102157593,0.5670062303543091,-0.5588272213935852,-0.6146143078804016,0.5662515759468079,-0.629969596862793,0.3583570718765259,-0.46147894859313965,0.12690548598766327,0.08530353754758835,-0.296730101108551,0.1190357357263565,-0.1684628278017044,0.5321228504180908,-0.47143474221229553,0.605271577835083,0.34715721011161804,-0.42648544907569885,0.6818962693214417,0.6741201877593994,-0.059533488005399704,0.3302018940448761,-0.0429849848151207,0.7653043270111084,0.34233418107032776,-0.08057291060686111,0.27383139729499817,-0.13496489822864532,-0.010222353041172028,0.17700503766536713,-0.12307927012443542,0.8869978785514832,0.8912971615791321,0.884594202041626,0.8855654001235962,1.1091684103012085,-0.11457769572734833,-0.10774490982294083,-0.11699661612510681,-0.11317498236894608,0.11703494191169739,0.5170523524284363,0.583560049533844,0.29351988434791565,0.5321387648582458,-0.7485079169273376,0.2271622121334076
-0.49928808212280273,0.32183557748794556,-0.6289336681365967,-0.2264637053012848,-0.42635151743888855,0.24331125617027283,-0.3158412575721741,0.6855838894844055,-0.4400990307331085,-0.7424811720848083,1.0618799924850464,-0.780021071434021,0.558568000793457,-1.085594654083252,0.5635807514190674,0.8905170559883118,0.5973631143569946,1.0517339706420898,0.2975650131702423,0.9002907872200012,0.8599140644073486,0.3422272205352783,-1.1431450843811035,0.6118665337562561,-0.8946782350540161,0.8814666867256165,0.015981826931238174,-1.0098909139633179,-0.8463948965072632,-0.26149970293045044,-0.8901784420013428,-0.26389792561531067,-0.41339704394340515,-0.6119107007980347,0.6239396929740906,0.8053027391433716,0.44786471128463745,-1.075485348701477,1.028667688369751,0.4725610911846161,0.281266987323761,0.7335367202758789,0.6387044787406921,-0.48218098282814026,0.15317851305007935,-1.0978182554244995,-0.6121008396148682,0.8991817235946655,0.88128662109375,0.12356255948543549,0.3075736165046692,0.008920514024794102,0.1393125206232071,-0.02901444397866726,-0.3689374327659607,0.004571630619466305,-0.4233136773109436,-0.029444726184010506,-0.22552533447742462,0.21365997195243835,0.8947089910507202,0.9875811338424683,1.1250717639923096,0.9656845331192017,1.1166808605194092,0.9046797752380371,0.8857927918434143,0.8821950554847717,1.1164158582687378,1.0695284605026245,0.12015248090028763,0.05136488750576973,0.11985757946968079,-0.014559520408511162,0.11978301405906677,-0.09376741200685501,-0.09298506379127502,-0.12129668146371841,0.11117981374263763,0.10233656316995621,0.12576119601726532,-0.221709206700325,0.4028434455394745,0.5087167024612427,0.3864646553993225,-0.7624270915985107,-0.5337333679199219,0.16789549589157104,0.03419596329331398,0.5707293152809143,0.13136467337608337,-0.28724175691604614,-0.056413061916828156,0.7813745141029358,-0.2794715464115143,0.632661759853363,-0.2450726330280304,0.5848903059959412,0.15301309525966644,0.16666042804718018,-0.6561247110366821,-0.26281508803367615,0.2534709572792053,-0.2728254497051239,-0.8054107427597046,0.562859833240509,-0.5545129776000977,-0.6093878149986267,0.5706885457038879,-0.6248663663864136,0.35354554653167725,-0.46380940079689026,0.13178159296512604,0.08452248573303223,-0.2990022897720337,0.11592917144298553,-0.16642509400844574,0.5322598814964294,-0.47279423475265503,0.6056464314460754,0.34288960695266724,-0.4210691452026367,0.6871978044509888,0.6690372824668884,-0.05454873666167259,0.33548831939697266,-0.04768314212560654,0.7621444463729858,0.345377653837204,-0.08589944988489151,0.2737143039703369,-0.13486158847808838,-0.010254832915961742,0.17677000164985657,-0.12303122878074646,0.8834409117698669,0.8884557485580444,0.8808100819587708,0.8814360499382019,1.111973762512207,-0.11846736073493958,-0.11076201498508453,-0.12111199647188187,-0.11695468425750732,0.12146808952093124,0.5136419534683228,0.580813467502594,0.2897142469882965,0.5280898213386536,-0.7515466809272766,0.22242532670497894
-0.495161771774292,0.31870073080062866,-0.6323229074478149,-0.23184573650360107,-0.431380957365036,0.23878292739391327,-0.31208524107933044,0.6837327480316162,-0.4358167052268982,-0.7471855878829956,1.060533881187439,-0.7826154828071594,0.5534865260124207,-1.0905638933181763,0.5588752627372742,0.8938824534416199,0.6003044247627258,1.052224040031433,0.2937554717063904,0.8973169922828674,0.855987012386322,0.3394276201725006,-1.1460037231445312,0.6080080270767212,-0.8987601399421692,0.8828765153884888,0.016823112964630127,-1.008296251296997,-0.8468410968780518,-0.2566746771335602,-0.8915571570396423,-0.2641623616218567,-0.41308462619781494,-0.6128584146499634,0.6224092841148376,0.8041899800300598,0.4451744854450226,-1.0784568786621094,1.0282479524612427,0.4711103141307831,0.27907267212867737,0.7341550588607788,0.637194037437439,-0.48356717824935913,0.15485769510269165,-1.0979795455932617,-0.6137520670890808,0.8978946208953857,0.8811441659927368,0.12808625400066376,0.30778437852859497,0.008875630795955658,0.13930337131023407,-0.028915314003825188,-0.36925336718559265,0.004500859882682562,-0.4233700633049011,-0.02947770431637764,-0.22488825023174286,0.21336857974529266,0.8904057145118713,0.9827204346656799,1.1304686069488525,0.9609633088111877,1.1203433275222778,0.903967022895813,0.8826143741607666,0.8780746459960938,1.1192946434020996,1.0670931339263916,0.12495339661836624,0.04761737585067749,0.12523092329502106,-0.019275078549981117,0.12412788718938828,-0.0955469086766243,-0.09388041496276855,-0.12598241865634918,0.11387396603822708,0.10587049275636673,0.12865842878818512,-0.22692720592021942,0.40832674503326416,0.5136204361915588,0.3831222951412201,-0.7630506753921509,-0.52903151512146,0.1708189696073532,0.032771073281764984,0.5684258341789246,0.135186567902565,-0.2850455045700073,-0.05132823437452316,0.7842701077461243,-0.2813779413700104,0.6321074366569519,-0.240460604429245,0.5839789509773254,0.1578877866268158,0.16305236518383026,-0.6599642038345337,-0.26794880628585815,0.2512873113155365,-0.2679929733276367,-0.8096976280212402,0.5588501691818237,-0.5503504872322083,-0.6041999459266663,0.5750065445899963,-0.6198912858963013,0.3486635088920593,-0.466316819190979,0.1366620808839798,0.0841902643442154,-0.30122238397598267,0.11281108111143112,-0.1646195948123932,0.5327715873718262,-0.4737586975097656,0.605708658695221,0.33880552649497986,-0.41560691595077515,0.6925672888755798,0.6638156175613403,-0.04948345944285393,0.3408469557762146,-0.052382323890924454,0.7585926055908203,0.34768930077552795,-0.09130830317735672,0.273579865694046,-0.13486073911190033,-0.010373885743319988,0.1766381859779358,-0.12317639589309692,0.8800598382949829,0.8858585953712463,0.8772135376930237,0.8773940205574036,1.1144764423370361,-0.12221179902553558,-0.11357880383729935,-0.1250692754983902,-0.12060218304395676,0.1258329451084137,0.5104180574417114,0.5783145427703857,0.28609782457351685,0.524128258228302,-0.7543162107467651,0.21773307025432587
-0.49082329869270325,0.31601905822753906,-0.635140061378479,-0.2372659146785736,-0.4365120530128479,0.23409539461135864,-0.30825310945510864,0.6824442744255066,-0.4314459264278412,-0.7517220973968506,1.0597516298294067,-0.7854952812194824,0.5482561588287354,-1.0956690311431885,0.5539447665214539,0.897448718547821,0.6034296751022339,1.0526221990585327,0.2897971272468567,0.8940982818603516,0.8522287607192993,0.3368908166885376,-1.1487363576889038,0.604128360748291,-0.9027063250541687,0.884638249874115,0.017896849662065506,-1.0064607858657837,-0.8468414545059204,-0.25187429785728455,-0.893198549747467,-0.2643217146396637,-0.4124878942966461,-0.6136121153831482,0.6210809946060181,0.8035156726837158,0.4432887136936188,-1.081581950187683,1.0274252891540527,0.4692302644252777,0.2774554193019867,0.7346122860908508,0.634868860244751,-0.48548558354377747,0.15518365800380707,-1.0977091789245605,-0.6150087714195251,0.8969863057136536,0.8815406560897827,0.13280941545963287,0.3080395758152008,0.008745190687477589,0.1389569789171219,-0.0288180410861969,-0.36953046917915344,0.004469610750675201,-0.42339253425598145,-0.02941444143652916,-0.22439627349376678,0.2129107564687729,0.8864463567733765,0.9776984453201294,1.1358953714370728,0.9561004042625427,1.1237622499465942,0.9036393761634827,0.879610002040863,0.8740025758743286,1.12187922000885,1.0643492937088013,0.129842609167099,0.04360129311680794,0.13069158792495728,-0.024199191480875015,0.12833598256111145,-0.0971759557723999,-0.09458892047405243,-0.13057327270507812,0.11642918735742569,0.10940666496753693,0.13188880681991577,-0.23211775720119476,0.41386306285858154,0.5186446309089661,0.37994828820228577,-0.7632767558097839,-0.5243851542472839,0.1740519255399704,0.03183891251683235,0.5656663179397583,0.13905154168605804,-0.2826017141342163,-0.0461697094142437,0.7871444225311279,-0.2830689251422882,0.6316822171211243,-0.2358841449022293,0.5832909345626831,0.16286170482635498,0.15923063457012177,-0.663722574710846,-0.27302175760269165,0.24878953397274017,-0.26324668526649475,-0.8138007521629333,0.5549718737602234,-0.5463668704032898,-0.5990322828292847,0.5792059898376465,-0.6150436997413635,0.34383624792099,-0.4690397381782532,0.14149102568626404,0.08421095460653305,-0.30336853861808777,0.10969686508178711,-0.1629929095506668,0.5335840582847595,-0.4744130074977875,0.6054449081420898,0.33508405089378357,-0.4100979268550873,0.697969377040863,0.6584702134132385,-0.04427223280072212,0.34628939628601074,-0.057106588035821915,0.7547368407249451,0.3494911789894104,-0.09679863601922989,0.2734866440296173,-0.13491150736808777,-0.01046932302415371,0.17659804224967957,-0.12318064272403717,0.8768523931503296,0.8834940195083618,0.8738102316856384,0.8734444379806519,1.1166772842407227,-0.12581206858158112,-0.11621544510126114,-0.12885832786560059,-0.124103844165802,0.13013215363025665,0.5073777437210083,0.5760526657104492,0.2826775312423706,0.5202563405036926,-0.7568179965019226,0.2130875140428543
-0.48633432388305664,0.3137582242488861,-0.6373415589332581,-0.24270181357860565,-0.44170594215393066,0.229294553399086,-0.3043839931488037,0.6816258430480957,-0.42702385783195496,-0.7560909390449524,1.0590819120407104,-0.7887387275695801,0.5428940057754517,-1.1009039878845215,0.5488181114196777,0.901185929775238,0.6067129969596863,1.0528018474578857,0.28571411967277527,0.8906765580177307,0.848626434803009,0.3346191644668579,-1.1513447761535645,0.6002479791641235,-0.9065172076225281,0.8866838216781616,0.019167210906744003,-1.0044373273849487,-0.8464539647102356,-0.2471144199371338,-0.8950589299201965,-0.2644044756889343,-0.4116351902484894,-0.6141976714134216,0.6199318170547485,0.8032149076461792,0.4420982599258423,-1.0848122835159302,1.0262770652770996,0.4670063853263855,0.2763480246067047,0.7349331974983215,0.6319543123245239,-0.4878199100494385,0.15450894832611084,-1.0970646142959595,-0.6159166097640991,0.896403431892395,0.8824013471603394,0.1376916617155075,0.30813440680503845,0.008540647104382515,0.13860896229743958,-0.02873186394572258,-0.36982059478759766,0.004380808677524328,-0.42336729168891907,-0.02922360971570015,-0.2239590436220169,0.2125028520822525,0.8827744126319885,0.9725850224494934,1.1413205862045288,0.9511765837669373,1.1269514560699463,0.903637170791626,0.8767693042755127,0.8700213432312012,1.124192237854004,1.0613435506820679,0.1347832828760147,0.039394911378622055,0.13620169460773468,-0.029271790757775307,0.13241833448410034,-0.09872151166200638,-0.09513415396213531,-0.13503733277320862,0.11885786056518555,0.1129344180226326,0.13540782034397125,-0.23727180063724518,0.4194515347480774,0.5237528085708618,0.37694695591926575,-0.7631099224090576,-0.5197890400886536,0.17753158509731293,0.031366728246212006,0.5625218749046326,0.14292789995670319,-0.2799329161643982,-0.040932539850473404,0.7899912595748901,-0.2845495939254761,0.6313852667808533,-0.2313665747642517,0.5827544927597046,0.1679365634918213,0.1552216112613678,-0.6673857569694519,-0.2780245542526245,0.24610257148742676,-0.25860369205474854,-0.8177120685577393,0.5512387752532959,-0.5425275564193726,-0.5939077734947205,0.5832638144493103,-0.6103230118751526,0.33904895186424255,-0.47192105650901794,0.14627060294151306,0.0845382958650589,-0.30544963479042053,0.1065867468714714,-0.1615338772535324,0.5346571207046509,-0.47478920221328735,0.6049011945724487,0.33170589804649353,-0.40457236766815186,0.7033572793006897,0.6530328392982483,-0.038948699831962585,0.35178929567337036,-0.06183725595474243,0.7506739497184753,0.3508587181568146,-0.1023515909910202,0.27328944206237793,-0.13498228788375854,-0.010566112585365772,0.17665086686611176,-0.12317138910293579,0.873814582824707,0.8813496828079224,0.8706030249595642,0.8695899248123169,1.118585228919983,-0.12927007675170898,-0.1186772957444191,-0.1324823945760727,-0.1274663358926773,0.13435044884681702,0.5045162439346313,0.5740142464637756,0.27945876121520996,0.5164774656295776,-0.7590572834014893,0.20849063992500305
-0.48175594210624695,0.3118174076080322,-0.6390406489372253,-0.24812942743301392,-0.4469033479690552,0.22449898719787598,-0.30032020807266235,0.6815103888511658,-0.42244675755500793,-0.760253369808197,1.0579335689544678,-0.7924568057060242,0.5374080538749695,-1.1062697172164917,0.5435212850570679,0.9050953984260559,0.6101406216621399,1.052480936050415,0.2815256714820862,0.8870665431022644,0.8451897501945496,0.3327445983886719,-1.1537840366363525,0.596477746963501,-0.9101279973983765,0.8889204859733582,0.020500224083662033,-1.0023117065429688,-0.8457637429237366,-0.24240632355213165,-0.8971189260482788,-0.2643127143383026,-0.41053685545921326,-0.6146214008331299,0.6189687252044678,0.8032386898994446,0.4413082003593445,-1.088186264038086,1.0248199701309204,0.46447262167930603,0.27577683329582214,0.7351346611976624,0.6285614967346191,-0.49049806594848633,0.15301580727100372,-1.0961015224456787,-0.6165158748626709,0.8960956931114197,0.8836549520492554,0.1427002102136612,0.3081997334957123,0.008228998631238937,0.13853225111961365,-0.028545357286930084,-0.3701671063899994,0.0042689498513937,-0.42331549525260925,-0.02883976139128208,-0.22360429167747498,0.21202661097049713,0.8795871734619141,0.9673659801483154,1.146733045578003,0.946144163608551,1.1298779249191284,0.9040269255638123,0.8740681409835815,0.8661308288574219,1.1261779069900513,1.0581380128860474,0.1397758424282074,0.034972138702869415,0.14177052676677704,-0.034483302384614944,0.13634426891803741,-0.10004089027643204,-0.09556082636117935,-0.1394074559211731,0.12107545882463455,0.1164851114153862,0.13918010890483856,-0.24238167703151703,0.4250901937484741,0.5289067029953003,0.37412816286087036,-0.7625528573989868,-0.5152361392974854,0.18120181560516357,0.031307533383369446,0.5590563416481018,0.14679042994976044,-0.2770678997039795,-0.03561710566282272,0.7927983403205872,-0.2858235538005829,0.6312175393104553,-0.22692781686782837,0.5823000073432922,0.1731066256761551,0.15105171501636505,-0.6708974242210388,-0.2829118072986603,0.2436598390340805,-0.25410357117652893,-0.8213856816291809,0.5477222204208374,-0.538822591304779,-0.5888723731040955,0.5871065855026245,-0.6057848930358887,0.33429381251335144,-0.4749038815498352,0.15099923312664032,0.08512312173843384,-0.30747100710868835,0.10348452627658844,-0.1602294147014618,0.5359501242637634,-0.47492310404777527,0.6041214466094971,0.3290427625179291,-0.39903438091278076,0.7087089419364929,0.6475034356117249,-0.03353395685553551,0.3573496639728546,-0.06646426022052765,0.7464424967765808,0.35159826278686523,-0.10797981917858124,0.27316737174987793,-0.13505803048610687,-0.010664205066859722,0.17656323313713074,-0.12368565797805786,0.870941162109375,0.8794105648994446,0.8675946593284607,0.8658341765403748,1.1202090978622437,-0.1325886845588684,-0.12097163498401642,-0.13592934608459473,-0.13069570064544678,0.1384907066822052,0.5018274784088135,0.5721830725669861,0.27644452452659607,0.5127958655357361,-0.7610422372817993,0.2039443850517273
-0.47712650895118713,0.31043097376823425,-0.640038251876831,-0.25352075695991516,-0.452057808637619,0.21986131370067596,-0.2961609363555908,0.6821995377540588,-0.41765204071998596,-0.7641034722328186,1.056423306465149,-0.7965072393417358,0.5318256616592407,-1.1117312908172607,0.5380850434303284,0.9091436266899109,0.6136854290962219,1.0516068935394287,0.277253657579422,0.8833088874816895,0.8420392274856567,0.33124110102653503,-1.1559638977050781,0.5929228663444519,-0.9134894013404846,0.891227662563324,0.021841278299689293,-1.0002243518829346,-0.8448618650436401,-0.2377537339925766,-0.8993211388587952,-0.26435479521751404,-0.40919482707977295,-0.6148952841758728,0.6181918978691101,0.8035991191864014,0.4410178065299988,-1.091618299484253,1.0231058597564697,0.46168234944343567,0.27566662430763245,0.7352243661880493,0.6248389482498169,-0.4934106469154358,0.1509387344121933,-1.094888687133789,-0.6168665885925293,0.8959971070289612,0.8852136135101318,0.14779694378376007,0.3082561492919922,0.007783904206007719,0.1383497416973114,-0.02834334224462509,-0.3704732358455658,0.004252912942320108,-0.42327749729156494,-0.028412971645593643,-0.223144993185997,0.21148085594177246,0.8771451711654663,0.9621334671974182,1.1520813703536987,0.9410843849182129,1.1325315237045288,0.9047375321388245,0.8714655637741089,0.8623485565185547,1.127930760383606,1.054742693901062,0.14481264352798462,0.030351724475622177,0.1473664790391922,-0.039778728038072586,0.14008711278438568,-0.10115082561969757,-0.09592820703983307,-0.14366166293621063,0.12317432463169098,0.11996028572320938,0.14317657053470612,-0.2474404275417328,0.43077677488327026,0.5340631008148193,0.37150809168815613,-0.7616070508956909,-0.510718822479248,0.1850111037492752,0.031603697687387466,0.5553265810012817,0.15061748027801514,-0.27403682470321655,-0.030225500464439392,0.7955492734909058,-0.2868928015232086,0.6311818957328796,-0.22258666157722473,0.5818589925765991,0.17836466431617737,0.14674538373947144,-0.6742475032806396,-0.2876802086830139,0.2415618598461151,-0.24976277351379395,-0.8248204588890076,0.5444282293319702,-0.5352085828781128,-0.5839494466781616,0.590713381767273,-0.6014272570610046,0.32984232902526855,-0.478005588054657,0.15558061003684998,0.08585187047719955,-0.3093903660774231,0.10050401836633682,-0.15899811685085297,0.5373858213424683,-0.47492715716362,0.6030643582344055,0.32697996497154236,-0.3935222923755646,0.7139580845832825,0.6419355273246765,-0.028068577870726585,0.3629292845726013,-0.07099005579948425,0.7421348690986633,0.35187554359436035,-0.11364994198083878,0.272972971200943,-0.1349833607673645,-0.010774710215628147,0.1764165759086609,-0.12390205264091492,0.8682246208190918,0.8776582479476929,0.8647831678390503,0.8621856570243835,1.1215620040893555,-0.13577216863632202,-0.12310782074928284,-0.13920822739601135,-0.1337703913450241,0.14254078269004822,0.4993031919002533,0.5705397725105286,0.2736354172229767,0.5092159509658813,-0.7627822160720825,0.19945058226585388
-0.4747965335845947,0.3099558353424072,-0.6402601003646851,-0.25619038939476013,-0.4546073377132416,0.21764516830444336,-0.29401156306266785,0.6829314231872559,-0.4151522219181061,-0.7658654451370239,1.0554523468017578,-0.7986901998519897,0.5289894938468933,-1.1145089864730835,0.5353007912635803,0.9112231135368347,0.6155027151107788,1.0508705377578735,0.27508535981178284,0.8813753128051758,0.8406335711479187,0.330650269985199,-1.156921625137329,0.5912703275680542,-0.9150254726409912,0.8923419713973999,0.02250741980969906,-0.999291181564331,-0.8443421721458435,-0.23551791906356812,-0.9004795551300049,-0.26444533467292786,-0.4084126651287079,-0.6149587035179138,0.6179002523422241,0.803917646408081,0.44108933210372925,-1.0933409929275513,1.0221527814865112,0.46019116044044495,0.2758020758628845,0.7351938486099243,0.6228612661361694,-0.49496176838874817,0.14966793358325958,-1.0941941738128662,-0.6169500350952148,0.8960149884223938,0.8861019015312195,0.15037165582180023,0.3082081973552704,0.007628187537193298,0.1381981372833252,-0.02825492061674595,-0.3705858588218689,0.0042923446744680405,-0.42327991127967834,-0.02818072959780693,-0.22302472591400146,0.21126213669776917,0.8763046264648438,0.9594963192939758,1.1547212600708008,0.9385442137718201,1.133731722831726,0.9052245020866394,0.8702113032341003,0.8605175018310547,1.1286965608596802,1.0529710054397583,0.1473398208618164,0.027948038652539253,0.1501726359128952,-0.04245886951684952,0.14187082648277283,-0.10164336115121841,-0.09610377252101898,-0.14572829008102417,0.12416599690914154,0.12165363132953644,0.1452549546957016,-0.24989712238311768,0.43366095423698425,0.5365978479385376,0.3703113794326782,-0.7608773708343506,-0.5085011124610901,0.1869478076696396,0.03186223655939102,0.5533459782600403,0.1525038778781891,-0.2724531888961792,-0.02749328315258026,0.7968865633010864,-0.2873256206512451,0.6312323212623596,-0.22047396004199982,0.581612765789032,0.18103349208831787,0.14453542232513428,-0.6758167743682861,-0.289993554353714,0.24074944853782654,-0.24768716096878052,-0.8264187574386597,0.5429025292396545,-0.5334336161613464,-0.5815635323524475,0.5923802256584167,-0.5993550419807434,0.32775744795799255,-0.47958388924598694,0.15779829025268555,0.08626364916563034,-0.3102998435497284,0.09907449036836624,-0.15841291844844818,0.5381568670272827,-0.4748838543891907,0.6024223566055298,0.3263265788555145,-0.3907835781574249,0.7165018320083618,0.6391511559486389,-0.025318052619695663,0.36572587490081787,-0.07318897545337677,0.7399656772613525,0.35179805755615234,-0.11650063842535019,0.27287107706069946,-0.13501375913619995,-0.010802090167999268,0.1763724684715271,-0.12395194172859192,0.8669412136077881,0.8768648505210876,0.8634745478630066,0.8604167699813843,1.1221072673797607,-0.13729432225227356,-0.12410245835781097,-0.14076417684555054,-0.135234534740448,0.1445268839597702,0.4981183707714081,0.5698009729385376,0.2723326086997986,0.507479190826416,-0.763534426689148,0.1972307562828064
-0.47247880697250366,0.3095036745071411,-0.6400885581970215,-0.2588481903076172,-0.4571657180786133,0.21556180715560913,-0.29177621006965637,0.6838818192481995,-0.4125860929489136,-0.7675368785858154,1.0540950298309326,-0.8010361790657043,0.5261262059211731,-1.117333173751831,0.5324536561965942,0.9133445024490356,0.6173150539398193,1.0498229265213013,0.272903710603714,0.8794142603874207,0.8393574953079224,0.33018094301223755,-1.1577799320220947,0.5897102355957031,-0.9164454340934753,0.893397331237793,0.02310321480035782,-0.9983872771263123,-0.843842625617981,-0.23346996307373047,-0.9016866087913513,-0.2645300328731537,-0.407543808221817,-0.6149491667747498,0.6177060604095459,0.8043470978736877,0.4412638545036316,-1.095062017440796,1.0211365222930908,0.4586277902126312,0.2760917544364929,0.7350808382034302,0.6207879185676575,-0.4966004490852356,0.14820803701877594,-1.0934053659439087,-0.6169393062591553,0.8961034417152405,0.8871094584465027,0.15297028422355652,0.30820298194885254,0.007457944564521313,0.13800694048404694,-0.028170153498649597,-0.37069642543792725,0.004333237186074257,-0.4232671558856964,-0.028015820309519768,-0.2228425294160843,0.21104615926742554,0.8757312297821045,0.9567777514457703,1.157369613647461,0.9359648823738098,1.134832739830017,0.9058125019073486,0.8690081834793091,0.8587484359741211,1.129321813583374,1.0511409044265747,0.1498933881521225,0.025461258366703987,0.1529984325170517,-0.045169297605752945,0.14357665181159973,-0.10207067430019379,-0.0962783470749855,-0.1477406919002533,0.12506435811519623,0.12332593649625778,0.14740312099456787,-0.25228020548820496,0.43658456206321716,0.539074182510376,0.3692292869091034,-0.7599077820777893,-0.5063191056251526,0.18890221416950226,0.03220468759536743,0.5512694120407104,0.15433616936206818,-0.2708323001861572,-0.024734359234571457,0.7981656789779663,-0.2876724600791931,0.631339967250824,-0.21844331920146942,0.5813726186752319,0.18372096121311188,0.14229436218738556,-0.6772833466529846,-0.292239248752594,0.24019528925418854,-0.2457057237625122,-0.8279035091400146,0.5414940714836121,-0.5316773653030396,-0.5792553424835205,0.5939107537269592,-0.5973842740058899,0.3257769048213959,-0.48121416568756104,0.15993627905845642,0.08674178272485733,-0.3111703395843506,0.09768764674663544,-0.15786394476890564,0.5389899611473083,-0.4747749865055084,0.601676344871521,0.3259935975074768,-0.3880137801170349,0.7190253734588623,0.6363607048988342,-0.022580178454518318,0.36851969361305237,-0.0753512978553772,0.7377707958221436,0.351463258266449,-0.11937645077705383,0.2727926969528198,-0.13507282733917236,-0.010837908834218979,0.1763155311346054,-0.12397301197052002,0.8657261729240417,0.8761451840400696,0.8622567057609558,0.8587018847465515,1.122528314590454,-0.1387520581483841,-0.12502537667751312,-0.14224401116371155,-0.1366245001554489,0.14648960530757904,0.49700409173965454,0.5691350102424622,0.27112558484077454,0.5057933330535889,-0.7641775608062744,0.1950363665819168
-0.47018155455589294,0.3090801239013672,-0.6395687460899353,-0.2614878714084625,-0.4597223401069641,0.21358443796634674,-0.28950151801109314,0.6849698424339294,-0.4099951982498169,-0.7691271901130676,1.052457332611084,-0.8035025596618652,0.5232521295547485,-1.1201868057250977,0.529556155204773,0.9155040383338928,0.619152307510376,1.0485732555389404,0.2707144021987915,0.877405047416687,0.8382595181465149,0.3298862874507904,-1.1584597826004028,0.5883124470710754,-0.9177531599998474,0.8943773508071899,0.02362910471856594,-0.997534453868866,-0.8433733582496643,-0.2316123992204666,-0.9029324054718018,-0.26462239027023315,-0.40660279989242554,-0.6148773431777954,0.6175937056541443,0.8048794865608215,0.4415763020515442,-1.0967566967010498,1.0200815200805664,0.4570024013519287,0.2765290439128876,0.7348597645759583,0.618670642375946,-0.49829065799713135,0.1466154158115387,-1.0925278663635254,-0.6168270707130432,0.8962698578834534,0.8882322311401367,0.15557000041007996,0.3081649839878082,0.007410384714603424,0.1377324014902115,-0.028118127956986427,-0.3708270788192749,0.0043725729919970036,-0.4232589304447174,-0.027787383645772934,-0.22267915308475494,0.21078428626060486,0.875359296798706,0.9539970755577087,1.1600085496902466,0.9333893656730652,1.1358596086502075,0.9064835906028748,0.8678621053695679,0.857056200504303,1.12983238697052,1.0492557287216187,0.15245477855205536,0.0229081679135561,0.15582877397537231,-0.047882020473480225,0.14519862830638885,-0.102439284324646,-0.09644517302513123,-0.14968161284923553,0.12589719891548157,0.12498562037944794,0.14957627654075623,-0.25454261898994446,0.43954211473464966,0.5414980053901672,0.3682960569858551,-0.7587404847145081,-0.5042223930358887,0.19084712862968445,0.03267882391810417,0.549100935459137,0.1561160534620285,-0.2691804766654968,-0.02195117436349392,0.7993850708007812,-0.28793594241142273,0.6315050721168518,-0.21649259328842163,0.58111971616745,0.1864258199930191,0.14002682268619537,-0.678648829460144,-0.29441919922828674,0.23992407321929932,-0.24381911754608154,-0.8292796611785889,0.5402001142501831,-0.5299272537231445,-0.577028214931488,0.5953028202056885,-0.5955115556716919,0.3238943815231323,-0.4828779101371765,0.16199839115142822,0.08726942539215088,-0.3120030164718628,0.09634296596050262,-0.15734493732452393,0.5398727655410767,-0.474615216255188,0.600841760635376,0.3259136378765106,-0.3852291405200958,0.7215058207511902,0.6335897445678711,-0.019868597388267517,0.371293842792511,-0.077482208609581,0.7355799078941345,0.3509463965892792,-0.12226150184869766,0.27268001437187195,-0.1351192444562912,-0.010830992832779884,0.17619961500167847,-0.12399169057607651,0.8645746111869812,0.8754891157150269,0.86112380027771,0.8570386171340942,1.122835636138916,-0.14014245569705963,-0.12588411569595337,-0.14365465939044952,-0.13794632256031036,0.14842762053012848,0.49595358967781067,0.56853187084198,0.2700086236000061,0.5041564702987671,-0.7647203207015991,0.1928659975528717
-0.4679158329963684,0.30869629979133606,-0.6387568712234497,-0.2641104757785797,-0.4622483551502228,0.2117067575454712,-0.28720492124557495,0.6861615180969238,-0.40739333629608154,-0.7706437110900879,1.0506165027618408,-0.8060538172721863,0.5203844308853149,-1.1230515241622925,0.5266238451004028,0.9176928400993347,0.6210117936134338,1.0471352338790894,0.2685205042362213,0.8753583431243896,0.8373293280601501,0.3297548294067383,-1.1589714288711548,0.5870734453201294,-0.9189538955688477,0.8952661156654358,0.024085605517029762,-0.9967538714408875,-0.8429440259933472,-0.2299472689628601,-0.9042039513587952,-0.26473695039749146,-0.4056045114994049,-0.6147551536560059,0.6175474524497986,0.8054999113082886,0.4420257806777954,-1.0984119176864624,1.0190038681030273,0.4553302228450775,0.27709686756134033,0.7345361709594727,0.616537868976593,-0.5000064969062805,0.144930899143219,-1.0915865898132324,-0.6166366338729858,0.896489143371582,0.889439582824707,0.15816138684749603,0.3080715537071228,0.007448781281709671,0.1374148428440094,-0.02806287631392479,-0.3709647059440613,0.004404864739626646,-0.42325687408447266,-0.027582863345742226,-0.22251132130622864,0.21053938567638397,0.8751441836357117,0.9511772990226746,1.1626232862472534,0.9308493733406067,1.1368179321289062,0.9072064757347107,0.866764485836029,0.8554583787918091,1.1302536725997925,1.0473265647888184,0.15499849617481232,0.020309044048190117,0.15865403413772583,-0.050577495247125626,0.1467430591583252,-0.10280146449804306,-0.09661747515201569,-0.15153668820858002,0.12668226659297943,0.1266254484653473,0.15177251398563385,-0.25668543577194214,0.4425319731235504,0.5438492298126221,0.36751219630241394,-0.7573853731155396,-0.5022004246711731,0.19277016818523407,0.03325038403272629,0.5468581914901733,0.1578453928232193,-0.2675037682056427,-0.019146084785461426,0.8005422949790955,-0.28811827301979065,0.6317282319068909,-0.21461980044841766,0.580836296081543,0.1891465038061142,0.13773715496063232,-0.6799142956733704,-0.29653477668762207,0.23995597660541534,-0.24202865362167358,-0.83055180311203,0.5390186309814453,-0.5281714797019958,-0.57488614320755,0.5965535640716553,-0.5937342643737793,0.3221055865287781,-0.4845576286315918,0.16398775577545166,0.08782993257045746,-0.3127983808517456,0.09504076838493347,-0.15684962272644043,0.5407937169075012,-0.4744192063808441,0.5999326705932617,0.3260234296321869,-0.38244524598121643,0.7239192128181458,0.6308676600456238,-0.01719793863594532,0.37403029203414917,-0.07958762347698212,0.7334234118461609,0.3503192961215973,-0.12513941526412964,0.2725640535354614,-0.13519281148910522,-0.010835942812263966,0.1761338710784912,-0.1241932362318039,0.8634799718856812,0.8748866319656372,0.860069990158081,0.8554249405860901,1.1230388879776,-0.14147122204303741,-0.12668614089488983,-0.1450028121471405,-0.13920554518699646,0.15034011006355286,0.49496015906333923,0.5679814219474792,0.2689761817455292,0.5025670528411865,-0.7651709914207458,0.1907183825969696
-0.46568748354911804,0.3083372116088867,-0.6376663446426392,-0.26671528816223145,-0.46474674344062805,0.20994070172309875,-0.2848864197731018,0.6874295473098755,-0.40478718280792236,-0.7720971703529358,1.0486643314361572,-0.8086494207382202,0.5175549983978271,-1.1258963346481323,0.5236759185791016,0.9199033379554749,0.622890293598175,1.0455197095870972,0.26632457971572876,0.8732839226722717,0.8365537524223328,0.32973742485046387,-1.1593389511108398,0.5859565734863281,-0.9200696349143982,0.8960241675376892,0.0244336798787117,-0.9960739612579346,-0.8425904512405396,-0.22852452099323273,-0.9054896831512451,-0.26487094163894653,-0.40456289052963257,-0.6145914196968079,0.6175566911697388,0.8061953186988831,0.44260892271995544,-1.1000163555145264,1.0179170370101929,0.453624963760376,0.27769652009010315,0.7340824604034424,0.6144459247589111,-0.5017299652099609,0.1432494819164276,-1.0906059741973877,-0.6163905262947083,0.8967364430427551,0.8907029628753662,0.16073516011238098,0.30798181891441345,0.007473131641745567,0.13707639276981354,-0.028019215911626816,-0.3710428774356842,0.004450589418411255,-0.4232546091079712,-0.027379315346479416,-0.22238169610500336,0.21037884056568146,0.8750607967376709,0.9483239054679871,1.1652107238769531,0.9283593893051147,1.137709379196167,0.9079585075378418,0.8657063841819763,0.8539609909057617,1.1305989027023315,1.0453652143478394,0.15751828253269196,0.017673151567578316,0.16145816445350647,-0.05324644222855568,0.14824074506759644,-0.10321403294801712,-0.09681112319231033,-0.15330219268798828,0.1274605393409729,0.12824319303035736,0.15399032831192017,-0.2587094306945801,0.44555240869522095,0.5461057424545288,0.36687859892845154,-0.7558530569076538,-0.5002425909042358,0.19465915858745575,0.033885657787323,0.544556736946106,0.1595265120267868,-0.2658078670501709,-0.01632135920226574,0.8016343116760254,-0.2882215082645416,0.632010281085968,-0.21282291412353516,0.5805062055587769,0.19188106060028076,0.13542956113815308,-0.6810801029205322,-0.29858705401420593,0.24030360579490662,-0.24033601582050323,-0.8317239880561829,0.537947952747345,-0.5263993144035339,-0.5728334188461304,0.5976594686508179,-0.5920505523681641,0.3204071521759033,-0.48623618483543396,0.16590549051761627,0.08840768784284592,-0.3135562837123871,0.09378115832805634,-0.15637221932411194,0.5417420268058777,-0.474200576543808,0.598962664604187,0.3262939453125,-0.37966489791870117,0.7262555360794067,0.6282153129577637,-0.014586099423468113,0.3767167329788208,-0.08167006075382233,0.7313197255134583,0.3496215343475342,-0.12800461053848267,0.27243128418922424,-0.13530364632606506,-0.010851627215743065,0.17613860964775085,-0.12433984130620956,0.8624356985092163,0.8743277192115784,0.8590896129608154,0.8538591265678406,1.1231459379196167,-0.14274394512176514,-0.12743882834911346,-0.1462949961423874,-0.14040756225585938,0.15223178267478943,0.49401724338531494,0.5674737691879272,0.26802268624305725,0.5010237693786621,-0.7655370235443115,0.1885923147201538
-0.46343541145324707,0.3081051707267761,-0.6362056732177734,-0.26933813095092773,-0.46729257702827454,0.20824924111366272,-0.28268715739250183,0.688673734664917,-0.402177631855011,-0.7735087275505066,1.0467054843902588,-0.8111649751663208,0.5147899389266968,-1.1287609338760376,0.5206888318061829,0.9221301078796387,0.6247838139533997,1.0437318086624146,0.26412832736968994,0.8711907863616943,0.8359247446060181,0.3298279345035553,-1.1595691442489624,0.5849708318710327,-0.9210976958274841,0.8966825008392334,0.024799033999443054,-0.9953579902648926,-0.8423646688461304,-0.2274331897497177,-0.9067790508270264,-0.26504331827163696,-0.40349143743515015,-0.6143972873687744,0.6176053285598755,0.8069542050361633,0.4433125853538513,-1.101564645767212,1.0168287754058838,0.4518986940383911,0.27823004126548767,0.7334948182106018,0.6122838854789734,-0.5035858154296875,0.14142198860645294,-1.089620590209961,-0.6161217093467712,0.8969758749008179,0.8919819593429565,0.1632770597934723,0.30781790614128113,0.007474963087588549,0.1366528570652008,-0.027977215126156807,-0.3711440861225128,0.00444674352183938,-0.4232381284236908,-0.027217207476496696,-0.2223283052444458,0.21019570529460907,0.8750941157341003,0.9454038739204407,1.167768120765686,0.9258804321289062,1.1385362148284912,0.9087494611740112,0.8646895885467529,0.8525330424308777,1.13093900680542,1.0433865785598755,0.1600799709558487,0.014985598623752594,0.16426093876361847,-0.055909112095832825,0.14969056844711304,-0.10362711548805237,-0.09702689200639725,-0.1550074964761734,0.12829935550689697,0.12983056902885437,0.15622864663600922,-0.26061519980430603,0.4486018419265747,0.5482433438301086,0.36639633774757385,-0.7541543841362,-0.4983381927013397,0.19650202989578247,0.03455117344856262,0.5422105193138123,0.16116197407245636,-0.2640979588031769,-0.01347909402102232,0.8026575446128845,-0.2882474362850189,0.6323521137237549,-0.21109996736049652,0.5801145434379578,0.19462741911411285,0.13310788571834564,-0.6821457743644714,-0.3005763292312622,0.24097050726413727,-0.238743394613266,-0.8327997326850891,0.5369873046875,-0.5246016383171082,-0.570874810218811,0.5986175537109375,-0.5904594659805298,0.31879809498786926,-0.4878986179828644,0.1677560657262802,0.08898638188838959,-0.3142765164375305,0.0925663486123085,-0.15590623021125793,0.5427070260047913,-0.4739740192890167,0.5979424715042114,0.3267526626586914,-0.37685495615005493,0.7285103797912598,0.6256198883056641,-0.012019007466733456,0.3793652653694153,-0.08377844840288162,0.7292510867118835,0.34911730885505676,-0.13087913393974304,0.27231791615486145,-0.13535170257091522,-0.010871401987969875,0.17612841725349426,-0.12437854707241058,0.8614355325698853,0.873802661895752,0.858177125453949,0.8523396849632263,1.1231615543365479,-0.14396607875823975,-0.1281493902206421,-0.14753736555576324,-0.1415567696094513,0.15412060916423798,0.4931184649467468,0.5669991374015808,0.26714274287223816,0.49952563643455505,-0.7658262848854065,0.18648682534694672
-0.46117424964904785,0.30799904465675354,-0.6344515681266785,-0.27196699380874634,-0.46986687183380127,0.20666919648647308,-0.2805999219417572,0.6899257898330688,-0.3995521366596222,-0.7748609781265259,1.044804573059082,-0.8135634064674377,0.5121097564697266,-1.1316254138946533,0.5176780819892883,0.924365758895874,0.6266903877258301,1.0417884588241577,0.2619345486164093,0.869087278842926,0.8354361653327942,0.33002525568008423,-1.1596659421920776,0.5841211676597595,-0.9220384359359741,0.8972266912460327,0.02517848275601864,-0.9946339130401611,-0.8422683477401733,-0.22665727138519287,-0.9080597162246704,-0.2652735114097595,-0.4024032652378082,-0.6141842603683472,0.6176779270172119,0.8077654242515564,0.4441402852535248,-1.1030433177947998,1.0157530307769775,0.4501628875732422,0.27869901061058044,0.7327819466590881,0.6100861430168152,-0.5055357217788696,0.13949528336524963,-1.0886528491973877,-0.6158503293991089,0.8971846103668213,0.8932514786720276,0.16577798128128052,0.307680606842041,0.007456690073013306,0.13615521788597107,-0.027956722304224968,-0.3712230622768402,0.0044432878494262695,-0.4232173562049866,-0.02705160155892372,-0.22231104969978333,0.20993681252002716,0.8751922249794006,0.9424401521682739,1.1702791452407837,0.9234530925750732,1.1393018960952759,0.9095474481582642,0.8637065291404724,0.8511988520622253,1.1312956809997559,1.041398286819458,0.1626613885164261,0.01224993634968996,0.16704712808132172,-0.05854083225131035,0.15109288692474365,-0.10409559309482574,-0.0972779169678688,-0.15663190186023712,0.1292097419500351,0.13137897849082947,0.15848661959171295,-0.26240313053131104,0.4516785442829132,0.5502358675003052,0.36606642603874207,-0.7523005604743958,-0.49647724628448486,0.19828659296035767,0.035214003175497055,0.5398320555686951,0.16275441646575928,-0.2623788118362427,-0.010621260851621628,0.803608238697052,-0.288197785615921,0.6327547430992126,-0.20944921672344208,0.5796473622322083,0.1973835825920105,0.13077574968338013,-0.6831102967262268,-0.30250248312950134,0.2419508993625641,-0.237253338098526,-0.8337817788124084,0.5361360907554626,-0.5227708220481873,-0.5690154433250427,0.5994247794151306,-0.5889609456062317,0.3172784149646759,-0.4895307719707489,0.16954325139522552,0.08955036848783493,-0.3149585723876953,0.09139871597290039,-0.15544547140598297,0.5436786413192749,-0.4737536311149597,0.5968820452690125,0.32733097672462463,-0.37403497099876404,0.7306535840034485,0.6231236457824707,-0.009515108540654182,0.38195252418518066,-0.08591397106647491,0.7272548675537109,0.34886643290519714,-0.1337430477142334,0.2722429037094116,-0.1354140341281891,-0.010911866091191769,0.1761075109243393,-0.12441319227218628,0.8604732751846313,0.8733017444610596,0.8573272824287415,0.8508654832839966,1.1230946779251099,-0.14514288306236267,-0.1288248747587204,-0.14873573184013367,-0.14265722036361694,0.15600435435771942,0.49225762486457825,0.5665480494499207,0.26633119583129883,0.4980718195438385,-0.7660459876060486,0.1844010204076767
-0.45890116691589355,0.30802661180496216,-0.6324399709701538,-0.27461332082748413,-0.47246384620666504,0.20530274510383606,-0.278522253036499,0.6912904381752014,-0.396861732006073,-0.7761303782463074,1.0427360534667969,-0.8159569501876831,0.5094587206840515,-1.1345185041427612,0.5146425366401672,0.9266048669815063,0.6286071538925171,1.039699673652649,0.25974491238594055,0.8669813871383667,0.835100531578064,0.3303259611129761,-1.15961754322052,0.5833988785743713,-0.9229070544242859,0.8975793719291687,0.025499215349555016,-0.9940053224563599,-0.8423469066619873,-0.22616858780384064,-0.9093489050865173,-0.2655133008956909,-0.40131279826164246,-0.6139400601387024,0.6177799105644226,0.8086286187171936,0.44509372115135193,-1.1044338941574097,1.0146998167037964,0.44842860102653503,0.27910757064819336,0.7319478988647461,0.607882022857666,-0.5075491070747375,0.13750891387462616,-1.0877114534378052,-0.6155891418457031,0.897362470626831,0.8944864869117737,0.1682339459657669,0.3075592517852783,0.0073810904286801815,0.13589711487293243,-0.027941135689616203,-0.3712821900844574,0.004478660877794027,-0.4232032299041748,-0.026882842183113098,-0.22232598066329956,0.20971332490444183,0.8754452466964722,0.9394491910934448,1.1727350950241089,0.9210754632949829,1.1400123834609985,0.9103444814682007,0.862740695476532,0.8499355912208557,1.1316652297973633,1.0394072532653809,0.1652778685092926,0.009458150714635849,0.1698364019393921,-0.06114157289266586,0.1524457484483719,-0.10462681204080582,-0.09756430238485336,-0.15819495916366577,0.13017484545707703,0.13288162648677826,0.16075754165649414,-0.264047771692276,0.4547854959964752,0.5520977973937988,0.36589446663856506,-0.7502874732017517,-0.49467602372169495,0.19998113811016083,0.03589269146323204,0.5374224185943604,0.16430658102035522,-0.2606545388698578,-0.007749719545245171,0.8044824600219727,-0.28807416558265686,0.6332190036773682,-0.20786911249160767,0.5790918469429016,0.20014767348766327,0.12843653559684753,-0.6839730143547058,-0.3043653964996338,0.2432299107313156,-0.2358681857585907,-0.8346728086471558,0.5353937149047852,-0.5209004878997803,-0.5672602653503418,0.6000789403915405,-0.587554931640625,0.31584835052490234,-0.4911198914051056,0.17127031087875366,0.09008512645959854,-0.3156018555164337,0.09028065204620361,-0.1549842208623886,0.5446476340293884,-0.47355249524116516,0.5957903265953064,0.32813236117362976,-0.3712207078933716,0.732664942741394,0.6207243204116821,-0.0071024214848876,0.3844853937625885,-0.08800347149372101,0.7253233790397644,0.34881529211997986,-0.13661089539527893,0.2721467912197113,-0.13544410467147827,-0.010931351222097874,0.17605145275592804,-0.12464912235736847,0.8595415949821472,0.8728158473968506,0.856535017490387,0.8494353294372559,1.1229499578475952,-0.14628642797470093,-0.12947194278240204,-0.14989562332630157,-0.14371269941329956,0.1578962653875351,0.4914289116859436,0.5661115050315857,0.26558297872543335,0.49666160345077515,-0.7662031650543213,0.18233411014080048
-0.4566221833229065,0.3084103465080261,-0.6302371025085449,-0.27718645334243774,-0.4750761389732361,0.20405733585357666,-0.2764577865600586,0.6928473711013794,-0.3941579759120941,-0.7772296667098999,1.0405452251434326,-0.8182986974716187,0.5068131685256958,-1.1374564170837402,0.5115748047828674,0.9288573861122131,0.6306344270706177,1.037412405014038,0.2575453519821167,0.8648502230644226,0.8349105715751648,0.3307284414768219,-1.159429907798767,0.5828061699867249,-0.9237037897109985,0.8977932929992676,0.025792362168431282,-0.9935401678085327,-0.8424419164657593,-0.22601543366909027,-0.9106347560882568,-0.2657957077026367,-0.4002293050289154,-0.6136738061904907,0.6178995966911316,0.8095371127128601,0.445941686630249,-1.1060419082641602,1.0134992599487305,0.44652998447418213,0.2794411778450012,0.7310767769813538,0.6055828332901001,-0.509656548500061,0.135426327586174,-1.086820363998413,-0.6153731346130371,0.8974786996841431,0.895652711391449,0.17064262926578522,0.307384729385376,0.007458910811692476,0.13563092052936554,-0.027945484966039658,-0.3713129162788391,0.004526763688772917,-0.4232005476951599,-0.026771720498800278,-0.22229769825935364,0.2094929963350296,0.8759450316429138,0.9364387392997742,1.1751010417938232,0.9186546802520752,1.1406655311584473,0.9111724495887756,0.8617916107177734,0.8488338589668274,1.1320505142211914,1.0374361276626587,0.16790369153022766,0.006594685837626457,0.1725597381591797,-0.06375740468502045,0.1537492871284485,-0.10512840002775192,-0.09789145737886429,-0.1596522331237793,0.13114745914936066,0.13433288037776947,0.16304592788219452,-0.2655473053455353,0.45792075991630554,0.5538039803504944,0.3658825755119324,-0.7481279373168945,-0.4929291605949402,0.20157493650913239,0.03655608743429184,0.534990668296814,0.1658204048871994,-0.25892961025238037,-0.004866265691816807,0.8052768111228943,-0.2878788709640503,0.6337453126907349,-0.20635905861854553,0.5784332752227783,0.20291654765605927,0.1260949969291687,-0.6847330331802368,-0.3061647117137909,0.24478699266910553,-0.23459026217460632,-0.835474967956543,0.5347596406936646,-0.5189855694770813,-0.5656142234802246,0.6005784273147583,-0.5862419605255127,0.31450751423835754,-0.4926522970199585,0.17294088006019592,0.09057775139808655,-0.3162054717540741,0.08921444416046143,-0.1545180380344391,0.5456053614616394,-0.4733826220035553,0.5946762561798096,0.32921743392944336,-0.36841830611228943,0.734474241733551,0.6183652281761169,-0.0046439385041594505,0.3869948387145996,-0.09007246047258377,0.7235797643661499,0.3489304780960083,-0.13954178988933563,0.27205944061279297,-0.1355096995830536,-0.010960334911942482,0.17605146765708923,-0.12486200034618378,0.8586356043815613,0.8723364472389221,0.8557954430580139,0.848048985004425,1.1227344274520874,-0.14740149676799774,-0.1300966441631317,-0.15102222561836243,-0.14472633600234985,0.15979883074760437,0.4906274676322937,0.565680980682373,0.26489314436912537,0.4952950179576874,-0.7663045525550842,0.18028543889522552
-0.4543520510196686,0.309114933013916,-0.6278749704360962,-0.2796804904937744,-0.4776878356933594,0.20292028784751892,-0.2744223177433014,0.694549024105072,-0.3914553225040436,-0.7781774997711182,1.0383179187774658,-0.8205373287200928,0.5042062997817993,-1.1404091119766235,0.5084977149963379,0.9311155676841736,0.6327522397041321,1.0349631309509277,0.25534018874168396,0.8627040386199951,0.8348589539527893,0.3312307894229889,-1.159108281135559,0.5823485255241394,-0.9244275093078613,0.8978598713874817,0.026059910655021667,-0.9932491779327393,-0.8425633311271667,-0.22617016732692719,-0.911906361579895,-0.2661435902118683,-0.39916229248046875,-0.6133952140808105,0.618024468421936,0.810482382774353,0.4467066526412964,-1.1078184843063354,1.0121816396713257,0.4444998502731323,0.27970147132873535,0.7301679253578186,0.6032230854034424,-0.5118273496627808,0.13328638672828674,-1.0859981775283813,-0.6152179837226868,0.8975153565406799,0.8967300653457642,0.17299486696720123,0.3072420060634613,0.007538416888564825,0.13539093732833862,-0.02796829678118229,-0.37136074900627136,0.004569907207041979,-0.4231860041618347,-0.02667183056473732,-0.22231265902519226,0.20925667881965637,0.8766201138496399,0.9334282875061035,1.1773639917373657,0.9162369966506958,1.1412653923034668,0.9119957089424133,0.8608542084693909,0.8479140996932983,1.1324737071990967,1.0354902744293213,0.17051643133163452,0.003680016379803419,0.17520341277122498,-0.06635952740907669,0.15500439703464508,-0.10566620528697968,-0.09826909750699997,-0.1609836220741272,0.13214467465877533,0.1357240229845047,0.16535519063472748,-0.26690149307250977,0.4610821306705475,0.5553256273269653,0.36603158712387085,-0.7458345890045166,-0.4912262558937073,0.20305591821670532,0.03716978803277016,0.5325470566749573,0.16729985177516937,-0.25720664858818054,-0.001972286496311426,0.8059877753257751,-0.2876132130622864,0.6343344449996948,-0.2049170732498169,0.5776606202125549,0.20568743348121643,0.12375474721193314,-0.6853891611099243,-0.30790039896965027,0.2465982884168625,-0.23342153429985046,-0.8361909985542297,0.5342331528663635,-0.5170215964317322,-0.5640817284584045,0.6009217500686646,-0.5850218534469604,0.3132563531398773,-0.4941152036190033,0.17455832660198212,0.09101630747318268,-0.3167683184146881,0.0882025882601738,-0.15404276549816132,0.5465438961982727,-0.4732551574707031,0.5935479998588562,0.33049705624580383,-0.3656447231769562,0.7360530495643616,0.6160968542098999,-0.002167648868635297,0.3894527852535248,-0.09213018417358398,0.722061812877655,0.34927791357040405,-0.14251235127449036,0.27192428708076477,-0.13556858897209167,-0.011003675870597363,0.17604820430278778,-0.12507706880569458,0.8577505350112915,0.8718554377555847,0.8551037311553955,0.8467061519622803,1.1224555969238281,-0.14849229156970978,-0.1307050734758377,-0.1521206945180893,-0.14570114016532898,0.161708801984787,0.48984867334365845,0.5652484893798828,0.26425689458847046,0.4939720928668976,-0.766356348991394,0.1782544106245041
-0.4532281756401062,0.309610515832901,-0.6266270279884338,-0.2808853089809418,-0.47898635268211365,0.20239666104316711,-0.27343103289604187,0.6954479813575745,-0.3901148736476898,-0.7785851955413818,1.0372101068496704,-0.8215900659561157,0.5029348731040955,-1.1418813467025757,0.506963312625885,0.9322448968887329,0.6338378190994263,1.0336967706680298,0.25423821806907654,0.8616214990615845,0.8349039554595947,0.3315373957157135,-1.1588759422302246,0.5821943283081055,-0.9247526526451111,0.8978156447410583,0.02618122287094593,-0.9931948184967041,-0.8426423072814941,-0.2263885736465454,-0.9125301241874695,-0.2663615345954895,-0.3986414968967438,-0.613254189491272,0.6180835366249084,0.8109826445579529,0.44703105092048645,-1.1087746620178223,1.0114730596542358,0.4434259235858917,0.27980920672416687,0.7296749949455261,0.6020346879959106,-0.5129324793815613,0.13219694793224335,-1.0856306552886963,-0.6151747703552246,0.8974872827529907,0.8972152471542358,0.17413952946662903,0.3072045147418976,0.007569359615445137,0.13526590168476105,-0.027989674359560013,-0.3713817298412323,0.004567512311041355,-0.4231871962547302,-0.02663693018257618,-0.2223292738199234,0.20915015041828156,0.8770196437835693,0.9319288730621338,1.1784394979476929,0.9150456786155701,1.141545295715332,0.9123902320861816,0.8603914976119995,0.8475446701049805,1.1327099800109863,1.0345335006713867,0.17180845141410828,0.0022036193404346704,0.17648740112781525,-0.06764035671949387,0.15561401844024658,-0.10597632080316544,-0.09848444908857346,-0.1615886390209198,0.1326599270105362,0.1363847851753235,0.16651645302772522,-0.26749610900878906,0.4626738429069519,0.5559873580932617,0.3661915063858032,-0.7446289658546448,-0.4904009699821472,0.20373296737670898,0.03745028004050255,0.5313217043876648,0.16801287233829498,-0.2563554644584656,-0.0005233993288129568,0.806300699710846,-0.28745055198669434,0.6346569657325745,-0.20424005389213562,0.5771910548210144,0.20706932246685028,0.1225987896323204,-0.6856649518013,-0.3087365925312042,0.24761775135993958,-0.2328924536705017,-0.8365073800086975,0.5340230464935303,-0.5160136222839355,-0.5633740425109863,0.6010152101516724,-0.5844577550888062,0.31267547607421875,-0.4948064386844635,0.17534151673316956,0.09120332449674606,-0.3170289397239685,0.08772479742765427,-0.1537988781929016,0.5470001101493835,-0.4732173979282379,0.5929803848266602,0.331208199262619,-0.3642778992652893,0.7367200255393982,0.6150248646736145,-0.0009302457328885794,0.39064520597457886,-0.09315221011638641,0.7214281558990479,0.34957918524742126,-0.1440104842185974,0.2718629837036133,-0.13560150563716888,-0.01102325040847063,0.17605222761631012,-0.1251625269651413,0.8573166131973267,0.8716107606887817,0.8547794222831726,0.846056342124939,1.122288465499878,-0.1490262746810913,-0.13100183010101318,-0.15265822410583496,-0.14617042243480682,0.1626638025045395,0.48946845531463623,0.5650275945663452,0.26396316289901733,0.49333250522613525,-0.7663601636886597,0.17724744975566864
-0.4521176218986511,0.3102317154407501,-0.6253232955932617,-0.2820490896701813,-0.4802749752998352,0.20191307365894318,-0.27246779203414917,0.6963841915130615,-0.38878729939460754,-0.7789337038993835,1.0361193418502808,-0.8225717544555664,0.5016998052597046,-1.1433442831039429,0.5054373741149902,0.9333730340003967,0.6349461674690247,1.0323938131332397,0.25313735008239746,0.8605324625968933,0.835014820098877,0.3318961262702942,-1.1585772037506104,0.5821121335029602,-0.9250423312187195,0.897696316242218,0.02629094570875168,-0.9932284355163574,-0.8427411317825317,-0.22673308849334717,-0.9131401777267456,-0.2666269540786743,-0.39813485741615295,-0.6131136417388916,0.6181366443634033,0.8115067481994629,0.4473060965538025,-1.1097856760025024,1.0107232332229614,0.44230374693870544,0.2798953354358673,0.729145348072052,0.6008448600769043,-0.5140504837036133,0.13109718263149261,-1.0853087902069092,-0.6151673793792725,0.8974109888076782,0.8976452946662903,0.17525266110897064,0.3071752190589905,0.007611495442688465,0.1351701021194458,-0.02803090400993824,-0.3713948130607605,0.004553216975182295,-0.4231822192668915,-0.026595566421747208,-0.22237418591976166,0.20907318592071533,0.8774639368057251,0.930439293384552,1.1794588565826416,0.9138810634613037,1.141806960105896,0.9127607941627502,0.8599333167076111,0.8472661972045898,1.132974624633789,1.0335928201675415,0.17308218777179718,0.0007138041546568274,0.17773450911045074,-0.0688958466053009,0.15620681643486023,-0.10633917152881622,-0.09872740507125854,-0.16213081777095795,0.13319483399391174,0.13701081275939941,0.16768530011177063,-0.26801273226737976,0.4642747938632965,0.5565478205680847,0.36643239855766296,-0.7433717846870422,-0.48959773778915405,0.2043471783399582,0.0376974418759346,0.5300951600074768,0.16870222985744476,-0.2555137574672699,0.0009267905843444169,0.8065720796585083,-0.2872593104839325,0.6350066065788269,-0.20360392332077026,0.5766434669494629,0.2084474116563797,0.12145601958036423,-0.6858906149864197,-0.3095429241657257,0.24873410165309906,-0.23241639137268066,-0.8367847800254822,0.5338634848594666,-0.514980673789978,-0.56272292137146,0.6010341048240662,-0.5839371085166931,0.31213709712028503,-0.4954570531845093,0.17610114812850952,0.09135722368955612,-0.31726953387260437,0.08727413415908813,-0.1535482108592987,0.547442615032196,-0.4732065796852112,0.5924109220504761,0.3319697380065918,-0.36293351650238037,0.7372648119926453,0.6140244603157043,0.0003004629397764802,0.39179661870002747,-0.09417016059160233,0.7209219336509705,0.35001054406166077,-0.14551551640033722,0.27182838320732117,-0.13562454283237457,-0.011042376980185509,0.17606714367866516,-0.12525121867656708,0.8568897843360901,0.8713603019714355,0.854474663734436,0.8454269170761108,1.122096061706543,-0.14955049753189087,-0.1312929391860962,-0.1531858742237091,-0.14662308990955353,0.1636185497045517,0.4890959560871124,0.5648005604743958,0.26369163393974304,0.49271368980407715,-0.7663440704345703,0.17624828219413757
