hidden1.weight_weight_0,hidden1.weight_weight_1,hidden1.weight_weight_2,hidden1.weight_weight_3,hidden1.weight_weight_4,hidden1.weight_weight_5,hidden1.weight_weight_6,hidden1.weight_weight_7,hidden1.weight_weight_8,hidden1.weight_weight_9,hidden1.weight_weight_10,hidden1.weight_weight_11,hidden1.weight_weight_12,hidden1.weight_weight_13,hidden1.weight_weight_14,hidden1.weight_weight_15,hidden1.weight_weight_16,hidden1.weight_weight_17,hidden1.weight_weight_18,hidden1.weight_weight_19,hidden1.weight_weight_20,hidden1.weight_weight_21,hidden1.weight_weight_22,hidden1.weight_weight_23,hidden1.weight_weight_24,hidden1.weight_weight_25,hidden1.weight_weight_26,hidden1.weight_weight_27,hidden1.weight_weight_28,hidden1.weight_weight_29,hidden1.weight_weight_30,hidden1.weight_weight_31,hidden1.weight_weight_32,hidden1.weight_weight_33,hidden1.weight_weight_34,hidden1.weight_weight_35,hidden1.weight_weight_36,hidden1.weight_weight_37,hidden1.weight_weight_38,hidden1.weight_weight_39,hidden1.weight_weight_40,hidden1.weight_weight_41,hidden1.weight_weight_42,hidden1.weight_weight_43,hidden1.weight_weight_44,hidden1.weight_weight_45,hidden1.weight_weight_46,hidden1.weight_weight_47,hidden1.weight_weight_48,hidden1.weight_weight_49,hidden1.bias_weight_0,hidden1.bias_weight_1,hidden1.bias_weight_2,hidden1.bias_weight_3,hidden1.bias_weight_4,hidden1.bias_weight_5,hidden1.bias_weight_6,hidden1.bias_weight_7,hidden1.bias_weight_8,hidden1.bias_weight_9,bn1.weight_weight_0,bn1.weight_weight_1,bn1.weight_weight_2,bn1.weight_weight_3,bn1.weight_weight_4,bn1.weight_weight_5,bn1.weight_weight_6,bn1.weight_weight_7,bn1.weight_weight_8,bn1.weight_weight_9,bn1.bias_weight_0,bn1.bias_weight_1,bn1.bias_weight_2,bn1.bias_weight_3,bn1.bias_weight_4,bn1.bias_weight_5,bn1.bias_weight_6,bn1.bias_weight_7,bn1.bias_weight_8,bn1.bias_weight_9,hidden2.weight_weight_0,hidden2.weight_weight_1,hidden2.weight_weight_2,hidden2.weight_weight_3,hidden2.weight_weight_4,hidden2.weight_weight_5,hidden2.weight_weight_6,hidden2.weight_weight_7,hidden2.weight_weight_8,hidden2.weight_weight_9,hidden2.weight_weight_10,hidden2.weight_weight_11,hidden2.weight_weight_12,hidden2.weight_weight_13,hidden2.weight_weight_14,hidden2.weight_weight_15,hidden2.weight_weight_16,hidden2.weight_weight_17,hidden2.weight_weight_18,hidden2.weight_weight_19,hidden2.weight_weight_20,hidden2.weight_weight_21,hidden2.weight_weight_22,hidden2.weight_weight_23,hidden2.weight_weight_24,hidden2.weight_weight_25,hidden2.weight_weight_26,hidden2.weight_weight_27,hidden2.weight_weight_28,hidden2.weight_weight_29,hidden2.weight_weight_30,hidden2.weight_weight_31,hidden2.weight_weight_32,hidden2.weight_weight_33,hidden2.weight_weight_34,hidden2.weight_weight_35,hidden2.weight_weight_36,hidden2.weight_weight_37,hidden2.weight_weight_38,hidden2.weight_weight_39,hidden2.weight_weight_40,hidden2.weight_weight_41,hidden2.weight_weight_42,hidden2.weight_weight_43,hidden2.weight_weight_44,hidden2.weight_weight_45,hidden2.weight_weight_46,hidden2.weight_weight_47,hidden2.weight_weight_48,hidden2.weight_weight_49,hidden2.bias_weight_0,hidden2.bias_weight_1,hidden2.bias_weight_2,hidden2.bias_weight_3,hidden2.bias_weight_4,bn2.weight_weight_0,bn2.weight_weight_1,bn2.weight_weight_2,bn2.weight_weight_3,bn2.weight_weight_4,bn2.bias_weight_0,bn2.bias_weight_1,bn2.bias_weight_2,bn2.bias_weight_3,bn2.bias_weight_4,output.weight_weight_0,output.weight_weight_1,output.weight_weight_2,output.weight_weight_3,output.weight_weight_4,output.bias_weight_0
0.9324392080307007,-0.22844158113002777,0.06710118055343628,-1.0456855297088623,-0.19707895815372467,0.04636385291814804,-0.9233920574188232,-0.9271280765533447,-0.8636303544044495,-0.6664822697639465,0.6050766110420227,0.9804947376251221,-0.3844715356826782,-0.3536275625228882,-0.9010424017906189,0.2849805951118469,0.3364318311214447,-0.14617450535297394,0.7649189829826355,-0.3624919056892395,-0.7220478653907776,-1.0195679664611816,0.24939624965190887,0.6162862181663513,-0.8766279220581055,-0.7356590628623962,0.31388938426971436,-0.9197370409965515,1.0478627681732178,0.09011618793010712,-0.33028316497802734,0.5145857334136963,0.3956562280654907,1.0918241739273071,-0.13872909545898438,0.6834846138954163,-0.8525349497795105,0.18995249271392822,-0.18568368256092072,0.7380475997924805,-0.826740026473999,0.5537545680999756,0.4911566376686096,-1.073759913444519,0.8335065841674805,0.37537625432014465,0.34679457545280457,-0.7276427745819092,-0.5768328309059143,-0.1939714401960373,0.3771824240684509,0.37124210596084595,0.15025568008422852,0.39959442615509033,0.17798122763633728,0.2525099515914917,0.4448254406452179,-0.12391360849142075,0.1028561070561409,-0.0705902948975563,0.9898999929428101,1.0098999738693237,0.9898999929428101,0.9898999929428101,0.9899000525474548,0.9898999929428101,1.0098999738693237,1.0098999738693237,0.9899002909660339,1.0098999738693237,-0.009999998845160007,0.009999997913837433,-0.009999999776482582,-0.009999999776482582,-0.009999990463256836,-0.009999998845160007,0.009999997913837433,0.009999987669289112,0.009999992325901985,0.009999997913837433,0.14907598495483398,0.015995480120182037,0.6579868793487549,0.06841287016868591,0.6684489250183105,-0.6163762807846069,0.17580029368400574,0.2861117720603943,-0.7077445983886719,-0.6892738342285156,-0.39229223132133484,0.5406382083892822,0.4763202965259552,0.04966625198721886,-0.5440995097160339,-0.05980578809976578,-0.1960044652223587,0.06282399594783783,-0.4542974829673767,0.10071965306997299,-0.3591974973678589,-0.44959399104118347,-0.6913056969642639,-0.43294432759284973,-0.2762167751789093,-0.5110417604446411,0.7143710851669312,0.4388728141784668,-0.44356074929237366,0.6310633420944214,0.5415017008781433,0.18455059826374054,0.6291143894195557,-0.6159841418266296,-0.6102320551872253,-0.1673862189054489,0.6215535402297974,-0.08253144472837448,0.077281154692173,-0.31209424138069153,-0.37367454171180725,-0.3871437609195709,-0.04212908446788788,0.23082123696804047,-0.48080042004585266,0.5844835638999939,-0.46494728326797485,0.19394037127494812,-0.5565667748451233,-0.5013383626937866,0.002331302734091878,-0.014466995373368263,0.2541312873363495,0.00331716425716877,0.1204097792506218,0.9898999929428101,1.0098999738693237,0.9898999929428101,0.9898999929428101,0.9898999929428101,-0.009999996982514858,0.009999995119869709,-0.009999997913837433,-0.009999998845160007,-0.009999998845160007,0.8013261556625366,-0.5095424652099609,-0.29621875286102295,0.6847940683364868,-0.7211031317710876,-0.1639530211687088
0.9224509596824646,-0.23812814056873322,0.057085443288087845,-1.0555787086486816,-0.20610179007053375,0.05535260960459709,-0.9143311381340027,-0.9170877933502197,-0.8735487461090088,-0.6594944596290588,0.6149888634681702,0.9903853535652161,-0.3744644224643707,-0.34362033009529114,-0.8909474611282349,0.29496172070503235,0.32648777961730957,-0.1561359465122223,0.754863440990448,-0.372443288564682,-0.7319328784942627,-1.029453992843628,0.25866255164146423,0.6259417533874512,-0.866664707660675,-0.7455747127532959,0.3038448393344879,-0.9296414256095886,1.0377602577209473,0.08010171353816986,-0.3401925265789032,0.504530131816864,0.38560813665390015,1.1016896963119507,-0.12870706617832184,0.6934294700622559,-0.8424535989761353,0.19994701445102692,-0.17580202221870422,0.7415909767150879,-0.8365126848220825,0.5442051291465759,0.4812295436859131,-1.0746897459030151,0.8264316916465759,0.3673296570777893,0.33681637048721313,-0.7176084518432617,-0.586743175983429,-0.20392882823944092,0.37286967039108276,0.3716188669204712,0.15024064481258392,0.39955446124076843,0.17438533902168274,0.25012481212615967,0.4492066204547882,-0.12161979079246521,0.10540668666362762,-0.07320889830589294,0.9798113703727722,1.0194597244262695,0.979854166507721,0.9799649715423584,0.9967196583747864,0.9798901677131653,1.0198109149932861,1.0197652578353882,0.9820328950881958,1.0198009014129639,-0.019994579255580902,0.019741922616958618,-0.01998518407344818,-0.019982684403657913,-0.014175521209836006,-0.019998926669359207,0.02000315859913826,0.020009849220514297,0.017195463180541992,0.020006712526082993,0.13907048106193542,0.00599933136254549,0.6479302644729614,0.07835187017917633,0.6584137082099915,-0.6067628264427185,0.18578143417835236,0.2960822284221649,-0.6992748379707336,-0.6991949677467346,-0.3823641836643219,0.5503107905387878,0.48607760667800903,0.03974005579948425,-0.5345907211303711,-0.06857317686080933,-0.2058672308921814,0.052949585020542145,-0.44426360726356506,0.11054662615060806,-0.3491487503051758,-0.4395592212677002,-0.6812267899513245,-0.422887921333313,-0.26808011531829834,-0.5209953784942627,0.7072575688362122,0.42881640791893005,-0.453409880399704,0.6410137414932251,0.5314340591430664,0.17452487349510193,0.6191562414169312,-0.605976402759552,-0.6201149225234985,-0.1575184017419815,0.6315039396286011,-0.07276508212089539,0.08727805316448212,-0.322053998708725,-0.3636283874511719,-0.397102952003479,-0.03211230784654617,0.24081173539161682,-0.4907657206058502,0.574418842792511,-0.47483760118484497,0.18392272293567657,-0.5665245652198792,-0.5111562013626099,0.006446836516261101,-0.012595714069902897,0.2554643452167511,-0.001211024122312665,0.11626354604959488,0.9803128242492676,1.0198122262954712,0.979823648929596,0.9798725247383118,0.9798167943954468,-0.01985933631658554,0.019658219069242477,-0.019973739981651306,-0.01975887641310692,-0.019994059577584267,0.7917693257331848,-0.5195044279098511,-0.2862054705619812,0.6747965216636658,-0.7110488414764404,-0.15392304956912994
0.9124841690063477,-0.2478301227092743,0.04705345258116722,-1.0654866695404053,-0.2152828723192215,0.06068643927574158,-0.9091734290122986,-0.9070131182670593,-0.8834571242332458,-0.651261031627655,0.6241618394851685,1.0001450777053833,-0.36654379963874817,-0.3337312638759613,-0.880954384803772,0.30495578050613403,0.3165621757507324,-0.16613321006298065,0.7447767853736877,-0.3824267089366913,-0.7417175769805908,-1.039363145828247,0.2654152810573578,0.6349098086357117,-0.8569732308387756,-0.7554464340209961,0.29379376769065857,-0.9395251274108887,1.0276691913604736,0.07010127604007721,-0.35013747215270996,0.4944553077220917,0.37562745809555054,1.1115669012069702,-0.11866198480129242,0.7033140659332275,-0.8323824405670166,0.20990686118602753,-0.16587764024734497,0.7471964955329895,-0.846371054649353,0.5344616770744324,0.4712362289428711,-1.078372836112976,0.8188173174858093,0.36606013774871826,0.32694047689437866,-0.7076210975646973,-0.5966141223907471,-0.2138662189245224,0.37064749002456665,0.3720063865184784,0.14841815829277039,0.39951449632644653,0.1729183793067932,0.25026243925094604,0.4542156755924225,-0.11958945542573929,0.10723108053207397,-0.0728641077876091,0.9697510004043579,1.0287487506866455,0.9697718024253845,0.9703184962272644,1.0049309730529785,0.9698615074157715,1.029725432395935,1.0296425819396973,0.97404545545578,1.029664397239685,-0.029979102313518524,0.029266357421875,-0.02999672293663025,-0.02992497943341732,-0.009894763119518757,-0.030017655342817307,0.030004262924194336,0.029855262488126755,0.024980558082461357,0.029995648190379143,0.12911489605903625,-0.003932005260139704,0.6379107236862183,0.08813698589801788,0.6484665870666504,-0.5970457196235657,0.19573387503623962,0.30600598454475403,-0.6901477575302124,-0.7090431451797485,-0.37262365221977234,0.5597119927406311,0.49551671743392944,0.02991124428808689,-0.5254791378974915,-0.07598766684532166,-0.21558059751987457,0.04317966476082802,-0.4342857003211975,0.12013906985521317,-0.3390805125236511,-0.4295412302017212,-0.6711384057998657,-0.4128228724002838,-0.26439207792282104,-0.5309388041496277,0.7116283178329468,0.41873854398727417,-0.46327754855155945,0.6509855389595032,0.5213468670845032,0.16450732946395874,0.6091492772102356,-0.5960697531700134,-0.629883348941803,-0.14757484197616577,0.6414706110954285,-0.06317144632339478,0.09713739901781082,-0.3320440649986267,-0.3535763621330261,-0.407035768032074,-0.022081661969423294,0.2508229911327362,-0.500750720500946,0.5643337965011597,-0.4842347204685211,0.17391985654830933,-0.5765038728713989,-0.5204442739486694,0.008837657980620861,-0.012874647043645382,0.25627946853637695,-0.00633579958230257,0.1105227917432785,0.9721419215202332,1.0297268629074097,0.9697893857955933,0.9700219631195068,0.9697621464729309,-0.029000800102949142,0.02945447340607643,-0.029912777245044708,-0.029207028448581696,-0.02998388186097145,0.7836495637893677,-0.5294672250747681,-0.27622321248054504,0.6649742722511292,-0.701026976108551,-0.14387156069278717
0.9024344086647034,-0.2576572000980377,0.03698998689651489,-1.0754145383834839,-0.22476975619792938,0.05990111455321312,-0.9096325039863586,-0.8972041606903076,-0.8933064937591553,-0.6425634026527405,0.6329915523529053,1.009818196296692,-0.3612595796585083,-0.32388317584991455,-0.8709966540336609,0.31498318910598755,0.30706244707107544,-0.17609091103076935,0.734666109085083,-0.39244329929351807,-0.7509408593177795,-1.0489988327026367,0.269081175327301,0.6425293684005737,-0.8476417064666748,-0.7652027010917664,0.2837500274181366,-0.9494354724884033,1.01755690574646,0.06006210669875145,-0.35994043946266174,0.484432190656662,0.36702051758766174,1.1214680671691895,-0.10862357169389725,0.7130731344223022,-0.8224256038665771,0.21979863941669464,-0.15599051117897034,0.7506825923919678,-0.8562813401222229,0.5245916247367859,0.4612340033054352,-1.0846930742263794,0.8102735877037048,0.36321720480918884,0.3171495795249939,-0.6975672841072083,-0.606494665145874,-0.2237710952758789,0.368460476398468,0.37227270007133484,0.15012182295322418,0.4017689824104309,0.17327667772769928,0.24827566742897034,0.45926326513290405,-0.11832668632268906,0.10914818197488785,-0.07526097446680069,0.959699809551239,1.0374118089675903,0.9596619009971619,0.9613418579101562,1.0135797262191772,0.9598900675773621,1.039657711982727,1.0394935607910156,0.9655147790908813,1.0394964218139648,-0.039972446858882904,0.03804762661457062,-0.04003391042351723,-0.03982938081026077,-0.0031074071303009987,-0.040069349110126495,0.04004521295428276,0.0393667109310627,0.033200670033693314,0.03998798877000809,0.11925284564495087,-0.01380672212690115,0.6279502511024475,0.09754031151533127,0.638606607913971,-0.5873136520385742,0.20562124252319336,0.3159571886062622,-0.680941104888916,-0.7187963724136353,-0.36318957805633545,0.5686619877815247,0.504448413848877,0.02038399875164032,-0.517075777053833,-0.08324764668941498,-0.22493070363998413,0.03367479890584946,-0.4244537055492401,0.1293485164642334,-0.32902368903160095,-0.4197693467140198,-0.6610202789306641,-0.4027405083179474,-0.26486045122146606,-0.5408048033714294,0.7181677222251892,0.40862998366355896,-0.47317102551460266,0.6609435677528381,0.5112298130989075,0.15444813668727875,0.5991389751434326,-0.5864168405532837,-0.6396036744117737,-0.1392708271741867,0.6514685153961182,-0.05358912795782089,0.10689296573400497,-0.34204375743865967,-0.3434933125972748,-0.41692227125167847,-0.012031244114041328,0.2608617842197418,-0.5107659101486206,0.5542171001434326,-0.4933624267578125,0.16394229233264923,-0.5865132808685303,-0.5279201865196228,0.011742871254682541,-0.014078170992434025,0.2562403082847595,-0.009363221935927868,0.10618835687637329,0.9666893482208252,1.0396076440811157,0.959822952747345,0.9605148434638977,0.9597514271736145,-0.03506696596741676,0.03935188055038452,-0.039795782417058945,-0.036503881216049194,-0.03996014595031738,0.7782150506973267,-0.5393946170806885,-0.2662923336029053,0.6554823517799377,-0.691055178642273,-0.1337897926568985
0.8923154473304749,-0.2675861120223999,0.02688700333237648,-1.0853660106658936,-0.234365776181221,0.056759338825941086,-0.9139147400856018,-0.887725293636322,-0.9031895399093628,-0.6333894729614258,0.6415602564811707,1.0192359685897827,-0.3589695692062378,-0.31419727206230164,-0.8611903786659241,0.32490304112434387,0.2973564863204956,-0.1859246790409088,0.7245506644248962,-0.4024539887905121,-0.7600811719894409,-1.0587577819824219,0.2697688341140747,0.6499058604240417,-0.8382909297943115,-0.77500319480896,0.2738162577152252,-0.9592574834823608,1.0074554681777954,0.05001576244831085,-0.3698137104511261,0.4743499159812927,0.35817062854766846,1.1314243078231812,-0.09855271130800247,0.722211480140686,-0.8131384253501892,0.22911803424358368,-0.14605899155139923,0.7525050640106201,-0.8661803007125854,0.5146908760070801,0.45124101638793945,-1.089032769203186,0.8026485443115234,0.36336466670036316,0.30760347843170166,-0.6874575018882751,-0.6163197755813599,-0.23351925611495972,0.36800405383110046,0.3724660575389862,0.15025396645069122,0.4038179814815521,0.17355482280254364,0.24720318615436554,0.46237874031066895,-0.11845716834068298,0.10921598970890045,-0.07622722536325455,0.9496715068817139,1.0456386804580688,0.949497640132904,0.9533054232597351,1.0225812196731567,0.9499238133430481,1.0495531558990479,1.049318552017212,0.967678427696228,1.0492318868637085,-0.049939896911382675,0.04634123668074608,-0.05011763796210289,-0.04933152720332146,0.004756594076752663,-0.05016355216503143,0.05010703206062317,0.04899073392152786,0.041406724601984024,0.049946852028369904,0.10955816507339478,-0.023495938628911972,0.6180373430252075,0.10622620582580566,0.6290079951286316,-0.5780590176582336,0.21537987887859344,0.3259255290031433,-0.6715967059135437,-0.7283785343170166,-0.3539097011089325,0.5771689414978027,0.512755274772644,0.01124030351638794,-0.509556770324707,-0.09111598879098892,-0.23385654389858246,0.024904940277338028,-0.4149995446205139,0.13808473944664001,-0.3190089762210846,-0.4102818965911865,-0.6508598923683167,-0.3926129937171936,-0.26852235198020935,-0.5505377650260925,0.7258814573287964,0.3985050320625305,-0.4830855429172516,0.670862078666687,0.5010820031166077,0.14437562227249146,0.589057445526123,-0.5771204829216003,-0.6491661667823792,-0.13044226169586182,0.6614665389060974,-0.04385127127170563,0.11657141894102097,-0.3520925045013428,-0.3333888053894043,-0.4267491400241852,-0.001972382888197899,0.270924836397171,-0.520819902420044,0.5440592169761658,-0.4999789595603943,0.1540404111146927,-0.5965525507926941,-0.5319319367408752,0.014311172999441624,-0.014070953242480755,0.25696703791618347,-0.01317952387034893,0.10144136846065521,0.9649326205253601,1.049362301826477,0.9499638080596924,0.9515905976295471,0.9498089551925659,-0.035095155239105225,0.04932323098182678,-0.04957622289657593,-0.04095479100942612,-0.04991014301776886,0.7763391137123108,-0.5491997003555298,-0.2564457952976227,0.6465503573417664,-0.6811606287956238,-0.12367051094770432
0.882157564163208,-0.27757349610328674,0.01676928997039795,-1.0952190160751343,-0.244127556681633,0.05170424282550812,-0.9199832677841187,-0.8780308961868286,-0.9130676984786987,-0.6239022016525269,0.648271381855011,1.0281720161437988,-0.36115530133247375,-0.30489084124565125,-0.8517884016036987,0.3342665433883667,0.288714736700058,-0.19541515409946442,0.7146291732788086,-0.41226479411125183,-0.7691212296485901,-1.0686008930206299,0.26957792043685913,0.6574950218200684,-0.8288503885269165,-0.7848050594329834,0.2640542685985565,-0.9689326286315918,0.9974018335342407,0.039984408766031265,-0.3797864317893982,0.4642021656036377,0.3489648997783661,1.141424536705017,-0.08842283487319946,0.7301688194274902,-0.8048407435417175,0.23764437437057495,-0.1362011879682541,0.756664514541626,-0.8761043548583984,0.5047362446784973,0.44120508432388306,-1.0931212902069092,0.7946031093597412,0.36429306864738464,0.29822179675102234,-0.6772857904434204,-0.6261191964149475,-0.24305962026119232,0.3682731091976166,0.37232768535614014,0.15106824040412903,0.4052124321460724,0.17377708852291107,0.24511007964611053,0.4627685844898224,-0.11871187388896942,0.10912728309631348,-0.07797874510288239,0.9397361874580383,1.0536468029022217,0.9392932057380676,0.9466186165809631,1.0319005250930786,0.9398574233055115,1.0593189001083374,1.0592172145843506,0.972268283367157,1.0588202476501465,-0.059814129024744034,0.054300010204315186,-0.06024547666311264,-0.05783148109912872,0.013310612179338932,-0.060294292867183685,0.06012561917304993,0.05876527354121208,0.05010596290230751,0.05982538312673569,0.10005593299865723,-0.03302507847547531,0.6082438826560974,0.11402316391468048,0.6197108626365662,-0.568587601184845,0.2249537706375122,0.33586248755455017,-0.6620237231254578,-0.7377759218215942,-0.34487515687942505,0.5852632522583008,0.520270049571991,0.0025101304054260254,-0.5029284954071045,-0.09953998029232025,-0.24227933585643768,0.01712038554251194,-0.40594470500946045,0.1463148146867752,-0.30910658836364746,-0.40131568908691406,-0.6406614184379578,-0.38246139883995056,-0.27422836422920227,-0.5601150989532471,0.7337844967842102,0.3884972035884857,-0.49283942580223083,0.6806740164756775,0.4909510910511017,0.13437682390213013,0.578924298286438,-0.5683208703994751,-0.6583904027938843,-0.12121777981519699,0.6713966131210327,-0.0339864082634449,0.1258619874715805,-0.36215490102767944,-0.3233098089694977,-0.43644291162490845,0.008052664808928967,0.2810039222240448,-0.5309111475944519,0.5338572859764099,-0.49939602613449097,0.14431200921535492,-0.6066167950630188,-0.5327158570289612,0.01767367124557495,-0.014122579246759415,0.2577337622642517,-0.013875083066523075,0.09774947166442871,0.9662858843803406,1.0588332414627075,0.940276563167572,0.9435000419616699,0.9399681687355042,-0.03171112760901451,0.05936738848686218,-0.05915987491607666,-0.04262504354119301,-0.059833116829395294,0.7775242924690247,-0.5587319135665894,-0.24674008786678314,0.6384223699569702,-0.671381950378418,-0.11351227760314941
0.8720784783363342,-0.2874900698661804,0.006697101518511772,-1.1047766208648682,-0.25402870774269104,0.04535621404647827,-0.9272173643112183,-0.8682127594947815,-0.9229118824005127,-0.6142223477363586,0.6529089212417603,1.036475419998169,-0.36583375930786133,-0.29607123136520386,-0.8429486155509949,0.3431168794631958,0.2840023338794708,-0.20431546866893768,0.7048436999320984,-0.4219237267971039,-0.7782074809074402,-1.0783915519714355,0.26807042956352234,0.6649175882339478,-0.8194515705108643,-0.7945016026496887,0.2547245919704437,-0.978245198726654,0.987547755241394,0.03013250231742859,-0.38982853293418884,0.4539945423603058,0.33950674533843994,1.1514854431152344,-0.0782439112663269,0.7368191480636597,-0.7976375818252563,0.24534952640533447,-0.12663574516773224,0.7623929977416992,-0.8859345316886902,0.49489834904670715,0.4313275218009949,-1.0920168161392212,0.7907907962799072,0.36447659134864807,0.2889263927936554,-0.667098343372345,-0.6358959078788757,-0.2522627115249634,0.36859196424484253,0.37220826745033264,0.15231844782829285,0.4056369364261627,0.17420358955860138,0.24263040721416473,0.46420663595199585,-0.11850447952747345,0.11023592203855515,-0.07832615077495575,0.9299535155296326,1.0617717504501343,0.9291003942489624,0.9415006637573242,1.0414437055587769,0.9296931624412537,1.0688331127166748,1.0691735744476318,0.9785441756248474,1.0681504011154175,-0.06953484565019608,0.06223996728658676,-0.0703430324792862,-0.06555301696062088,0.02228790521621704,-0.07043138891458511,0.07004189491271973,0.06861699372529984,0.05903768911957741,0.06952416896820068,0.09085552394390106,-0.04221981018781662,0.598717212677002,0.12077925354242325,0.6111049652099609,-0.5588771104812622,0.2341298609972,0.3456350266933441,-0.6523833274841309,-0.7467940449714661,-0.33606696128845215,0.5932145118713379,0.5267876386642456,-0.005773321259766817,-0.4966024160385132,-0.1084468737244606,-0.25017547607421875,0.010284130461513996,-0.3974938690662384,0.15409192442893982,-0.29937732219696045,-0.3929084837436676,-0.6304376125335693,-0.37227433919906616,-0.2812540531158447,-0.5695154666900635,0.7419522404670715,0.37860429286956787,-0.5024148225784302,0.6903145909309387,0.48089733719825745,0.1244998648762703,0.5687845349311829,-0.5601782202720642,-0.6671547293663025,-0.1117095872759819,0.6811916828155518,-0.024016443639993668,0.13433246314525604,-0.37218478322029114,-0.31334352493286133,-0.445968896150589,0.017967773601412773,0.2910739481449127,-0.5410358905792236,0.5236149430274963,-0.49463266134262085,0.13498437404632568,-0.616690456867218,-0.5314033031463623,0.01962905563414097,-0.013668934814631939,0.2586304247379303,-0.014561284333467484,0.09371239691972733,0.9696969985961914,1.0677522420883179,0.9308514595031738,0.936454713344574,0.9302791357040405,-0.026419658213853836,0.06946774572134018,-0.06847479939460754,-0.04158780351281166,-0.06970340013504028,0.7807749509811401,-0.5677478313446045,-0.237260639667511,0.6313015818595886,-0.6617746949195862,-0.10332299768924713
0.8622273206710815,-0.29719969630241394,-0.003254464827477932,-1.1138428449630737,-0.2639625072479248,0.03805242106318474,-0.9351805448532104,-0.8584609627723694,-0.9328047037124634,-0.6047583222389221,0.6537983417510986,1.0437352657318115,-0.3721502721309662,-0.2882938086986542,-0.8353036046028137,0.3515310287475586,0.2818710207939148,-0.21197740733623505,0.6953275799751282,-0.4313224256038666,-0.7873951196670532,-1.0880404710769653,0.26532354950904846,0.6726003289222717,-0.8099798560142517,-0.8041050434112549,0.2457345575094223,-0.9871564507484436,0.9779149293899536,0.020496416836977005,-0.39991164207458496,0.4437842071056366,0.3298395574092865,1.161547064781189,-0.06805169582366943,0.7419490814208984,-0.7919090390205383,0.25191909074783325,-0.11795198172330856,0.7687275409698486,-0.8956550359725952,0.48544999957084656,0.42165520787239075,-1.0872514247894287,0.7924810647964478,0.36076101660728455,0.2795873284339905,-0.6570121049880981,-0.645688533782959,-0.2611447274684906,0.3694967031478882,0.3721800446510315,0.1533842235803604,0.4066134989261627,0.175217866897583,0.24165447056293488,0.46598464250564575,-0.11889166384935379,0.11094584316015244,-0.07812310010194778,0.9204094409942627,1.0701476335525513,0.9190390706062317,0.9382229447364807,1.0510563850402832,0.9194594025611877,1.077934741973877,1.079135775566101,0.9857608675956726,1.0771149396896362,-0.07903596758842468,0.07054217159748077,-0.08033232390880585,-0.07241614162921906,0.0314335860311985,-0.08055831491947174,0.07977008819580078,0.07837488502264023,0.06769902259111404,0.07895582914352417,0.08204496651887894,-0.05103306472301483,0.5896539688110352,0.1265469193458557,0.6032916307449341,-0.5490255951881409,0.2427414357662201,0.35512980818748474,-0.6427202820777893,-0.7553091049194336,-0.32743462920188904,0.6011745929718018,0.5322995781898499,-0.01365179754793644,-0.49017223715782166,-0.11772441864013672,-0.2576437294483185,0.00416689133271575,-0.3896329998970032,0.161455899477005,-0.2898627519607544,-0.38497424125671387,-0.620221734046936,-0.3620564639568329,-0.2891371548175812,-0.5786916613578796,0.7501519918441772,0.3688218295574188,-0.5118688941001892,0.6997801661491394,0.47104641795158386,0.11488194018602371,0.5587448477745056,-0.5529210567474365,-0.6753296852111816,-0.1019812524318695,0.6907072067260742,-0.014029975049197674,0.14185121655464172,-0.382049560546875,-0.30361130833625793,-0.45524924993515015,0.027664363384246826,0.30109333992004395,-0.5511654615402222,0.5133413076400757,-0.488118052482605,0.1265862137079239,-0.6267029047012329,-0.5290979146957397,0.020636940374970436,-0.01289496012032032,0.2593446373939514,-0.01610885187983513,0.09125363826751709,0.9742785692214966,1.0757479667663574,0.9218054413795471,0.9305782914161682,0.9208122491836548,-0.020073797553777695,0.07958918809890747,-0.07741937041282654,-0.03857684135437012,-0.0794704258441925,0.7852163314819336,-0.5759156346321106,-0.2281239628791809,0.6253196001052856,-0.6524147391319275,-0.09312526136636734
0.8528283834457397,-0.3065035343170166,-0.012980299070477486,-1.1221357583999634,-0.27386218309402466,0.03016328439116478,-0.9434940814971924,-0.8485321998596191,-0.9427241683006287,-0.5958114266395569,0.6519268751144409,1.0499087572097778,-0.37951651215553284,-0.2817547917366028,-0.8289093375205994,0.35945460200309753,0.2819380760192871,-0.21815308928489685,0.6863398551940918,-0.4401875138282776,-0.796662449836731,-1.0975662469863892,0.26290208101272583,0.6807799935340881,-0.8003270626068115,-0.8137261867523193,0.23699329793453217,-0.9956892728805542,0.9684308171272278,0.010951251722872257,-0.4100019037723541,0.43364211916923523,0.31996026635169983,1.1714686155319214,-0.05792488157749176,0.7447642683982849,-0.7884968519210815,0.2559504508972168,-0.11118287593126297,0.7761470675468445,-0.9052507281303406,0.4767383933067322,0.4122602939605713,-1.0807913541793823,0.7964236736297607,0.3548465669155121,0.27012041211128235,-0.6472819447517395,-0.6554977893829346,-0.26967042684555054,0.37065452337265015,0.37232765555381775,0.15532539784908295,0.40683409571647644,0.1762876808643341,0.2408117651939392,0.467783659696579,-0.11898398399353027,0.11195487529039383,-0.07778962701559067,0.9112511277198792,1.0787594318389893,0.9092367887496948,0.9369664192199707,1.0605525970458984,0.9091785550117493,1.086379885673523,1.0891575813293457,0.9934133887290955,1.0856448411941528,-0.08819456398487091,0.07907288521528244,-0.09016932547092438,-0.07810935378074646,0.04062477499246597,-0.0906710997223854,0.08921052515506744,0.08809725940227509,0.07626773416996002,0.08804653584957123,0.07360456138849258,-0.059594836086034775,0.5811023116111755,0.13140971958637238,0.5962501168251038,-0.5390146970748901,0.2506232261657715,0.36436718702316284,-0.6329814195632935,-0.7634391188621521,-0.31908008456230164,0.609108567237854,0.5367950797080994,-0.021043594926595688,-0.48370620608329773,-0.12728847563266754,-0.2646138370037079,-0.0011974372901022434,-0.38230830430984497,0.16831697523593903,-0.2808895409107208,-0.3779289722442627,-0.6101846694946289,-0.35182228684425354,-0.2971768081188202,-0.5874981880187988,0.7585090398788452,0.3594358563423157,-0.5210484862327576,0.7086149454116821,0.46159499883651733,0.10574322938919067,0.5490021109580994,-0.546822190284729,-0.6827487349510193,-0.09213358908891678,0.6997342109680176,-0.004443792626261711,0.1486262083053589,-0.3915005028247833,-0.29422080516815186,-0.4641532301902771,0.03701893612742424,0.311016321182251,-0.5612629055976868,0.5030784010887146,-0.4805397093296051,0.11931006610393524,-0.6366034746170044,-0.5264055132865906,0.02104371227324009,-0.012187887914478779,0.2600057125091553,-0.01680644415318966,0.08939899504184723,0.9793051481246948,1.0823522806167603,0.9132780432701111,0.9257994890213013,0.911657989025116,-0.012884756550192833,0.08964044600725174,-0.08585464209318161,-0.034379810094833374,-0.08907254785299301,0.7901028990745544,-0.5828097462654114,-0.21947717666625977,0.6204246282577515,-0.6433983445167542,-0.08295273035764694
0.8442848920822144,-0.31505173444747925,-0.02231932431459427,-1.1292811632156372,-0.28360265493392944,0.021740440279245377,-0.9520416259765625,-0.838416337966919,-0.952601969242096,-0.5873662233352661,0.6478487849235535,1.0547829866409302,-0.3876587450504303,-0.2767966389656067,-0.8240506052970886,0.36686933040618896,0.2839042842388153,-0.22257669270038605,0.6781628131866455,-0.4482480585575104,-0.8059371113777161,-1.1068557500839233,0.26127317547798157,0.6893888711929321,-0.790534257888794,-0.8232656121253967,0.22862137854099274,-1.0037630796432495,0.9591840505599976,0.0016146767884492874,-0.4200570285320282,0.42366963624954224,0.30990177392959595,1.1810184717178345,-0.04795776307582855,0.7454469799995422,-0.7872775793075562,0.257686585187912,-0.10673582553863525,0.7843289971351624,-0.9145883321762085,0.4690011739730835,0.40320509672164917,-1.0732558965682983,0.8019861578941345,0.3478294610977173,0.2604590952396393,-0.6384772062301636,-0.6653366088867188,-0.27772602438926697,0.37206801772117615,0.3723970949649811,0.15687379240989685,0.4070186913013458,0.1777714639902115,0.24007804691791534,0.46867039799690247,-0.11949516087770462,0.11212614923715591,-0.077347531914711,0.9026062488555908,1.0877330303192139,0.8998594284057617,0.9375492930412292,1.069706916809082,0.8989346623420715,1.0939360857009888,1.099137306213379,1.001146912574768,1.0936110019683838,-0.09690224379301071,0.08794254809617996,-0.0997609868645668,-0.0824800506234169,0.04957462102174759,-0.10071268677711487,0.09816927462816238,0.09765408933162689,0.08416813611984253,0.09668182581663132,0.06559200584888458,-0.06787462532520294,0.5732395052909851,0.13548702001571655,0.5900559425354004,-0.528958797454834,0.2576374113559723,0.37321364879608154,-0.6231884956359863,-0.7711148262023926,-0.3110305964946747,0.6172371506690979,0.5401574373245239,-0.0280209481716156,-0.4767119288444519,-0.13704852759838104,-0.27122917771339417,-0.005981303285807371,-0.3753718435764313,0.17479774355888367,-0.2727337181568146,-0.37190020084381104,-0.6005053520202637,-0.34159064292907715,-0.3049369752407074,-0.5958996415138245,0.7669821381568909,0.3507791757583618,-0.5296619534492493,0.7163992524147034,0.45274168252944946,0.09726571291685104,0.539788007736206,-0.5420025587081909,-0.6893965601921082,-0.08228078484535217,0.7080736756324768,0.004182267934083939,0.1548515260219574,-0.40026184916496277,-0.28528347611427307,-0.4726850986480713,0.04589201137423515,0.3207833766937256,-0.5712896585464478,0.4928848147392273,-0.4722849726676941,0.11339797079563141,-0.6463527083396912,-0.5242164134979248,0.020246583968400955,-0.0126380305737257,0.2605675756931305,-0.017280181869864464,0.08756192773580551,0.9839347004890442,1.087105393409729,0.9054191708564758,0.9218799471855164,0.9029245376586914,-0.005281246267259121,0.0994681566953659,-0.0936209037899971,-0.029551181942224503,-0.09842784702777863,0.7945845127105713,-0.5879925489425659,-0.2114887237548828,0.6163911819458008,-0.6348379850387573,-0.07285778224468231
0.8407116532325745,-0.3187039792537689,-0.026654640212655067,-1.1320737600326538,-0.2883819043636322,0.01742781512439251,-0.9561030864715576,-0.8332940340042114,-0.9575191736221313,-0.5837599039077759,0.6449999809265137,1.0565096139907837,-0.3919929563999176,-0.2752281725406647,-0.8225424289703369,0.37032830715179443,0.28565266728401184,-0.2239394336938858,0.6745699048042297,-0.4517899751663208,-0.8104221224784851,-1.111294150352478,0.2609880268573761,0.693849503993988,-0.7856351137161255,-0.8279927372932434,0.22459465265274048,-1.007562518119812,0.9546855688095093,-0.002880675019696355,-0.4250473082065582,0.4188043773174286,0.30481037497520447,1.1855077743530273,-0.043091367930173874,0.7448849678039551,-0.7876602411270142,0.2574837803840637,-0.10582412034273148,0.7886652946472168,-0.9190758466720581,0.4658440947532654,0.3988335430622101,-1.0691044330596924,0.8053436875343323,0.3439289629459381,0.25554198026657104,-0.6353146433830261,-0.6702159643173218,-0.28118208050727844,0.37281906604766846,0.372455894947052,0.15727798640727997,0.40709611773490906,0.17850612103939056,0.2397564798593521,0.4693019688129425,-0.1197151318192482,0.11229148507118225,-0.07717243582010269,0.8986276388168335,1.0923688411712646,0.8954753279685974,0.9385582804679871,1.0741946697235107,0.8939002752304077,1.0971708297729492,1.1039971113204956,1.004506230354309,1.0972591638565063,-0.10092251002788544,0.09244991093873978,-0.10435960441827774,-0.08408550173044205,0.05383516475558281,-0.10563383251428604,0.10229568928480148,0.10220898687839508,0.0874856561422348,0.10069884359836578,0.061879757791757584,-0.07179554551839828,0.5697269439697266,0.1371358186006546,0.5875896215438843,-0.5240066051483154,0.2605637311935425,0.37735533714294434,-0.6183909773826599,-0.774651288986206,-0.30720141530036926,0.6213548183441162,0.5413148403167725,-0.031237823888659477,-0.4730245769023895,-0.1419966071844101,-0.2743256092071533,-0.008085384964942932,-0.37211471796035767,0.17780634760856628,-0.2691439688205719,-0.3694014251232147,-0.5959130525588989,-0.33647212386131287,-0.308526873588562,-0.5998673439025879,0.7714149951934814,0.3468233048915863,-0.5336902141571045,0.7196481227874756,0.4487196207046509,0.09342413395643234,0.53555828332901,-0.5402761101722717,-0.6923578977584839,-0.07741834223270416,0.7118039131164551,0.007698570843786001,0.15778300166130066,-0.40417173504829407,-0.28119930624961853,-0.47687143087387085,0.049980197101831436,0.32551833987236023,-0.5762262344360352,0.48786887526512146,-0.4678652584552765,0.11127536743879318,-0.6508967280387878,-0.5246326327323914,0.020055551081895828,-0.012770106084644794,0.26079434156417847,-0.01729302480816841,0.08664923906326294,0.9855100512504578,1.088426947593689,0.9018934965133667,0.9201884865760803,0.8988329768180847,-0.0014038300141692162,0.1041809618473053,-0.09710943698883057,-0.026986969634890556,-0.1028803288936615,0.7960725426673889,-0.58958899974823,-0.20790961384773254,0.6146448254585266,-0.630844235420227,-0.06788738816976547
0.8378211855888367,-0.32177507877349854,-0.030674109235405922,-1.1341444253921509,-0.29302510619163513,0.013005818240344524,-0.9600014090538025,-0.8281035423278809,-0.962435245513916,-0.580758810043335,0.6416156888008118,1.0576101541519165,-0.3965158462524414,-0.2744370102882385,-0.8218032717704773,0.37353670597076416,0.2879941463470459,-0.22460831701755524,0.6714321374893188,-0.4548915922641754,-0.8147727251052856,-1.1155180931091309,0.261174738407135,0.698447585105896,-0.7807292342185974,-0.8326619863510132,0.22073176503181458,-1.0111433267593384,0.9503085613250732,-0.007210020441561937,-0.4300035536289215,0.41405025124549866,0.29967692494392395,1.1896917819976807,-0.0383208692073822,0.7436054944992065,-0.7888405323028564,0.2564270496368408,-0.10603763908147812,0.7931306958198547,-0.923358142375946,0.46345335245132446,0.39465805888175964,-1.0646562576293945,0.8091551661491394,0.33968067169189453,0.25055986642837524,-0.6332472562789917,-0.6750572919845581,-0.28413254022598267,0.3734745979309082,0.37241289019584656,0.1575678288936615,0.4073350429534912,0.17914558947086334,0.23962341248989105,0.46954578161239624,-0.11990553885698318,0.11252368986606598,-0.07691099494695663,0.8949763178825378,1.0971362590789795,0.8913750052452087,0.940185546875,1.078526496887207,0.8889607787132263,1.099899411201477,1.108709692955017,1.0075187683105469,1.100582480430603,-0.104638010263443,0.09703198820352554,-0.10877561569213867,-0.08510353416204453,0.05780113860964775,-0.11044960469007492,0.10607463121414185,0.10650473088026047,0.09028618782758713,0.10442934185266495,0.05844349414110184,-0.07550885528326035,0.5666331648826599,0.13845378160476685,0.585716187953949,-0.5191429853439331,0.2629273235797882,0.38122084736824036,-0.6137025356292725,-0.7778992056846619,-0.30354100465774536,0.625551700592041,0.5419837236404419,-0.0341968908905983,-0.4691064655780792,-0.14700469374656677,-0.27725619077682495,-0.00996508076786995,-0.36902227997779846,0.1806221753358841,-0.2660406529903412,-0.3673928380012512,-0.5915789008140564,-0.33135226368904114,-0.311788409948349,-0.6036081910133362,0.7760342955589294,0.34322020411491394,-0.5374587774276733,0.7222489714622498,0.4450993835926056,0.09000104665756226,0.5316668152809143,-0.5392032265663147,-0.6949530243873596,-0.07261961698532104,0.7151263952255249,0.010459721088409424,0.1606556922197342,-0.40761756896972656,-0.277475506067276,-0.48097002506256104,0.05372495576739311,0.3301098346710205,-0.5810818076133728,0.4829358458518982,-0.46321409940719604,0.10992803424596786,-0.655155599117279,-0.5261185169219971,0.019887950271368027,-0.012377534061670303,0.26098939776420593,-0.01711619645357132,0.08605250716209412,0.986172616481781,1.0887930393218994,0.8987716436386108,0.918667733669281,0.8950228691101074,0.002422178629785776,0.10873102396726608,-0.10020560026168823,-0.024494247511029243,-0.10710601508617401,0.7966359853744507,-0.590272068977356,-0.20475365221500397,0.6130731701850891,-0.6271423101425171,-0.06300903111696243
0.8354843854904175,-0.32440534234046936,-0.034446392208337784,-1.1355654001235962,-0.2976405620574951,0.00853901170194149,-0.963647186756134,-0.8228643536567688,-0.9673567414283752,-0.5783640146255493,0.6378522515296936,1.0582078695297241,-0.40114864706993103,-0.2744295299053192,-0.8216243386268616,0.37651440501213074,0.2907964885234833,-0.22466304898262024,0.6687477231025696,-0.4575575888156891,-0.8189899325370789,-1.1195483207702637,0.26174208521842957,0.7031418681144714,-0.7758303284645081,-0.8372622132301331,0.21702422201633453,-1.0145148038864136,0.9460561871528625,-0.011374439112842083,-0.4349209666252136,0.4094196557998657,0.2945202589035034,1.1935299634933472,-0.0336470901966095,0.7417411208152771,-0.790662407875061,0.2546919286251068,-0.10715079307556152,0.7976681590080261,-0.9276015162467957,0.4615570902824402,0.3905448615550995,-1.059970498085022,0.8132957816123962,0.3351520299911499,0.2455444186925888,-0.6320366859436035,-0.6798744797706604,-0.2865263819694519,0.3738551437854767,0.372344046831131,0.15793311595916748,0.40762659907341003,0.1796145886182785,0.23950481414794922,0.46987634897232056,-0.12016803026199341,0.11326581239700317,-0.07662755250930786,0.8916268348693848,1.1019498109817505,0.8876162767410278,0.9423022270202637,1.082786202430725,0.8841331005096436,1.1021597385406494,1.113258957862854,1.009840965270996,1.1035871505737305,-0.10807211697101593,0.10154105722904205,-0.11298272013664246,-0.08561470359563828,0.061587534844875336,-0.11514581739902496,0.1095241978764534,0.11048541963100433,0.09233875572681427,0.10788749903440475,0.0552663616836071,-0.07902272045612335,0.5639504194259644,0.13948869705200195,0.5843983292579651,-0.5143769383430481,0.26475420594215393,0.38481763005256653,-0.6091272234916687,-0.7808731198310852,-0.29998189210891724,0.6297063827514648,0.542389452457428,-0.036944400519132614,-0.4651648700237274,-0.15207958221435547,-0.28011542558670044,-0.011540106497704983,-0.3658282458782196,0.18328045308589935,-0.2635054886341095,-0.3659609258174896,-0.5875374674797058,-0.3262259364128113,-0.3146640956401825,-0.6071213483810425,0.7808343172073364,0.3399676978588104,-0.5409542322158813,0.7240923643112183,0.44187164306640625,0.08698035776615143,0.528121292591095,-0.5387105941772461,-0.6972324848175049,-0.06789973378181458,0.7180523872375488,0.012470796704292297,0.1635052114725113,-0.4105989933013916,-0.2741091549396515,-0.48497244715690613,0.057125017046928406,0.3345523178577423,-0.5858277678489685,0.4780961573123932,-0.45837917923927307,0.10926147550344467,-0.659155547618866,-0.5284475684165955,0.01913873665034771,-0.011538426391780376,0.26118338108062744,-0.017021391540765762,0.08547227829694748,0.9858716726303101,1.0883214473724365,0.896048903465271,0.9172373414039612,0.8915019035339355,0.006076792720705271,0.1132245659828186,-0.10292621701955795,-0.022176217287778854,-0.11109023541212082,0.7962294816970825,-0.5901497006416321,-0.2020241916179657,0.6115953922271729,-0.6237373352050781,-0.058237239718437195
0.8337345719337463,-0.32653719186782837,-0.037943530827760696,-1.1363911628723145,-0.3021584153175354,0.004039064049720764,-0.9669932723045349,-0.8175957202911377,-0.9722839593887329,-0.5765224695205688,0.6338058114051819,1.0583877563476562,-0.4058500826358795,-0.27505505084991455,-0.8219043016433716,0.37928393483161926,0.29397401213645935,-0.2241748720407486,0.666504979133606,-0.4597991406917572,-0.8230889439582825,-1.1233593225479126,0.2627241611480713,0.7079150080680847,-0.7709408402442932,-0.8417726159095764,0.21348002552986145,-1.017694354057312,0.9419283866882324,-0.01537802442908287,-0.43980592489242554,0.4049040675163269,0.2893509864807129,1.1969941854476929,-0.02907199040055275,0.7393983006477356,-0.7930182218551636,0.2524009943008423,-0.10902755707502365,0.8021301627159119,-0.9317442774772644,0.4602341055870056,0.38653650879859924,-1.0550981760025024,0.8176978230476379,0.33040153980255127,0.24050423502922058,-0.6315650343894958,-0.6846657991409302,-0.2883991599082947,0.37409570813179016,0.3723098039627075,0.15836411714553833,0.40804383158683777,0.18019428849220276,0.23932711780071259,0.4699915945529938,-0.12039758265018463,0.11414206027984619,-0.07641097158193588,0.8885707259178162,1.1067657470703125,0.8841938376426697,0.9448069334030151,1.0870221853256226,0.8794183731079102,1.103971242904663,1.1176178455352783,1.0116345882415771,1.1062977313995361,-0.11121247708797455,0.10593551397323608,-0.11698523163795471,-0.08568546175956726,0.06522224843502045,-0.11972636729478836,0.11265011876821518,0.11404909193515778,0.09383457154035568,0.11109162122011185,0.05232345685362816,-0.08234351128339767,0.5616516470909119,0.14026111364364624,0.5836724042892456,-0.5096827149391174,0.26606160402297974,0.3881432116031647,-0.6046465039253235,-0.7836114168167114,-0.2965385913848877,0.6337892413139343,0.5425659418106079,-0.039468150585889816,-0.4612470269203186,-0.1571996659040451,-0.2828960418701172,-0.012837196700274944,-0.3625619113445282,0.1857641488313675,-0.26141631603240967,-0.36497703194618225,-0.5838108658790588,-0.32110434770584106,-0.3169739544391632,-0.6104131937026978,0.7857767939567566,0.3370523154735565,-0.5442392826080322,0.7252855896949768,0.4390219748020172,0.08434353023767471,0.5249226689338684,-0.5387289524078369,-0.6992391347885132,-0.06327071785926819,0.720598042011261,0.013766351155936718,0.1663573682308197,-0.4131259024143219,-0.2710817754268646,-0.488860547542572,0.060187190771102905,0.33884480595588684,-0.5904452800750732,0.47336041927337646,-0.4533979594707489,0.10919637233018875,-0.6629307866096497,-0.5313957929611206,0.01854304037988186,-0.01041940413415432,0.2614378333091736,-0.017236854881048203,0.08480764180421829,0.984666109085083,1.0871433019638062,0.8937170505523682,0.9158322215080261,0.8882752060890198,0.009499583393335342,0.11764800548553467,-0.10528048872947693,-0.020121967419981956,-0.1148260310292244,0.7949187159538269,-0.5893335342407227,-0.1997186839580536,0.6101453304290771,-0.620632529258728,-0.05358558148145676
0.8325327038764954,-0.32820162177085876,-0.04117360711097717,-1.1366779804229736,-0.3065831959247589,-0.0005159606225788593,-0.9700887203216553,-0.8123173713684082,-0.977210283279419,-0.5750660300254822,0.6296044588088989,1.058258056640625,-0.41057586669921875,-0.2761736214160919,-0.8224624395370483,0.38185957074165344,0.29743629693984985,-0.22321465611457825,0.6646855473518372,-0.4616376757621765,-0.827059268951416,-1.126923680305481,0.26410606503486633,0.7127475142478943,-0.7660741806030273,-0.846183717250824,0.21004919707775116,-1.0207165479660034,0.9379101991653442,-0.019245455041527748,-0.4446497857570648,0.4005119800567627,0.28418636322021484,1.2000620365142822,-0.024615731090307236,0.7366293668746948,-0.7958331108093262,0.2496553659439087,-0.11156931519508362,0.8064665794372559,-0.935774028301239,0.45945626497268677,0.3826606869697571,-1.0500783920288086,0.8223015666007996,0.3254719376564026,0.23544660210609436,-0.6317616701126099,-0.6894260048866272,-0.28976869583129883,0.37453797459602356,0.3722912073135376,0.15882256627082825,0.40856823325157166,0.1809438318014145,0.23930929601192474,0.4699198305606842,-0.12059896439313889,0.11491688340902328,-0.07647262513637543,0.8857880234718323,1.111607313156128,0.8810921311378479,0.9476314187049866,1.0912116765975952,0.8748143315315247,1.1053788661956787,1.12178635597229,1.0127774477005005,1.1087313890457153,-0.11408586800098419,0.11028888821601868,-0.1207602247595787,-0.08536680042743683,0.06865193694829941,-0.12421208620071411,0.11547663062810898,0.1170690730214119,0.09465229511260986,0.11405552178621292,0.04960013926029205,-0.08547569066286087,0.5597193241119385,0.1408071368932724,0.5834826827049255,-0.5050700306892395,0.2668905556201935,0.39120933413505554,-0.6002540588378906,-0.7861279249191284,-0.2931959927082062,0.6378545165061951,0.5424957275390625,-0.04188595339655876,-0.45727667212486267,-0.1623217910528183,-0.2856910824775696,-0.013861059211194515,-0.35913023352622986,0.1881403923034668,-0.25976258516311646,-0.36441922187805176,-0.5804006457328796,-0.3159947395324707,-0.31872203946113586,-0.6134909987449646,0.7908411622047424,0.3344528079032898,-0.5473196506500244,0.7258688807487488,0.43653106689453125,0.08207032084465027,0.5220648646354675,-0.539192259311676,-0.7010085582733154,-0.05874255672097206,0.7227841019630432,0.014399314299225807,0.16922849416732788,-0.41521766781806946,-0.26836445927619934,-0.4926363527774811,0.06292497366666794,0.34298914670944214,-0.5949346423149109,0.4687308669090271,-0.44829946756362915,0.10966433584690094,-0.6664997339248657,-0.534807026386261,0.017760636284947395,-0.009375983849167824,0.2616357207298279,-0.017927424982190132,0.08421439677476883,0.9826769828796387,1.0853818655014038,0.8917627930641174,0.9144032001495361,0.8853440880775452,0.012593074701726437,0.12194196879863739,-0.1072811484336853,-0.018402131274342537,-0.11831386387348175,0.7928293347358704,-0.5879303216934204,-0.19782744348049164,0.6086728572845459,-0.6178277730941772,-0.049064405262470245
0.8318096399307251,-0.3294525444507599,-0.0441557802259922,-1.1365007162094116,-0.3109206259250641,-0.005105477292090654,-0.9729263186454773,-0.8070435523986816,-0.9821291565895081,-0.5739454030990601,0.6252856850624084,1.0578587055206299,-0.41530656814575195,-0.2777007222175598,-0.8232593536376953,0.38425689935684204,0.30111604928970337,-0.22184906899929047,0.6632636189460754,-0.46309855580329895,-0.8308870196342468,-1.1302666664123535,0.26578792929649353,0.7175998687744141,-0.7612535357475281,-0.850477933883667,0.20674116909503937,-1.023579716682434,0.9340152740478516,-0.02296915277838707,-0.4494565427303314,0.3962373733520508,0.27902716398239136,1.2027283906936646,-0.020264584571123123,0.7335080504417419,-0.7990185618400574,0.24653732776641846,-0.11463381350040436,0.810664176940918,-0.9396802186965942,0.4591468274593353,0.3788989186286926,-1.0449618101119995,0.8270373940467834,0.320402055978775,0.2303863912820816,-0.6325297355651855,-0.694144070148468,-0.29065918922424316,0.3749641478061676,0.3723910450935364,0.15909253060817719,0.40918463468551636,0.18143972754478455,0.239430233836174,0.47007784247398376,-0.12059348076581955,0.11545170098543167,-0.07626444101333618,0.8832650780677795,1.116444706916809,0.8783021569252014,0.950705885887146,1.0953750610351562,0.8703364729881287,1.1064077615737915,1.1257625818252563,1.0132637023925781,1.1109050512313843,-0.1167086660861969,0.11459145694971085,-0.12431381642818451,-0.08471931517124176,0.07186402380466461,-0.12859728932380676,0.11804772168397903,0.11956046521663666,0.09480810910463333,0.11679313331842422,0.04708217829465866,-0.08842169493436813,0.5581308603286743,0.1411563605070114,0.5837769508361816,-0.500545859336853,0.2672843337059021,0.39402928948402405,-0.5959416627883911,-0.7884369492530823,-0.28996002674102783,0.6418662071228027,0.542216956615448,-0.04419092833995819,-0.45331937074661255,-0.16743317246437073,-0.2884923815727234,-0.014641624875366688,-0.35555213689804077,0.1903999149799347,-0.25852328538894653,-0.3642599582672119,-0.5773038864135742,-0.31090614199638367,-0.3199203610420227,-0.6163636445999146,0.7960072755813599,0.3321472704410553,-0.5502011775970459,0.7258941531181335,0.4343758225440979,0.08013901114463806,0.5195348262786865,-0.5400405526161194,-0.702567994594574,-0.05432046949863434,0.724635660648346,0.014433423988521099,0.17212751507759094,-0.41690143942832947,-0.2659457325935364,-0.4963250160217285,0.06534814834594727,0.3469792604446411,-0.5992875099182129,0.4642244875431061,-0.4430997967720032,0.11059049516916275,-0.6698521375656128,-0.5385982394218445,0.01726103387773037,-0.008119260892271996,0.26180875301361084,-0.018653633072972298,0.08373299241065979,0.9800382256507874,1.0831409692764282,0.890168309211731,0.9129168391227722,0.8827071785926819,0.015280643478035927,0.1260877251625061,-0.10894463956356049,-0.017063912004232407,-0.12154606729745865,0.7900973558425903,-0.5860364437103271,-0.1963341236114502,0.6071437001228333,-0.6153190732002258,-0.04468008130788803
0.8314912915229797,-0.3303490877151489,-0.04691239818930626,-1.135934591293335,-0.3151710033416748,-0.00966227613389492,-0.9753261804580688,-0.8017861247062683,-0.9870437979698181,-0.5733158588409424,0.6208889484405518,1.0572391748428345,-0.4200138449668884,-0.2795565128326416,-0.8242446780204773,0.38648903369903564,0.3049529492855072,-0.2201402336359024,0.6622080206871033,-0.46421223878860474,-0.8345879912376404,-1.1333975791931152,0.26760512590408325,0.7224282026290894,-0.7565034627914429,-0.8546484112739563,0.2035360187292099,-1.0262919664382935,0.930246114730835,-0.026543784886598587,-0.4542138874530792,0.3921026289463043,0.2738896608352661,1.2049695253372192,-0.016024749726057053,0.730089008808136,-0.8025134205818176,0.24310562014579773,-0.11813066899776459,0.814662754535675,-0.9434552192687988,0.4592864215373993,0.37522992491722107,-1.0397902727127075,0.8318415284156799,0.31522899866104126,0.22534213960170746,-0.6337702870368958,-0.6988056898117065,-0.2911032736301422,0.3755464553833008,0.3724251687526703,0.15942218899726868,0.4094923138618469,0.1818789392709732,0.23960477113723755,0.4702165722846985,-0.12067631632089615,0.11599929630756378,-0.07607844471931458,0.8809888958930969,1.1212395429611206,0.8758130073547363,0.9539672136306763,1.0995137691497803,0.8659920692443848,1.1070936918258667,1.1295627355575562,1.0131645202636719,1.1128385066986084,-0.11909493803977966,0.11877854913473129,-0.12764959037303925,-0.08380535989999771,0.07485157251358032,-0.13287557661533356,0.12036789208650589,0.1215430200099945,0.09435953944921494,0.11932117491960526,0.044755659997463226,-0.09118208289146423,0.5568591356277466,0.14133070409297943,0.5845107436180115,-0.4961133599281311,0.2672864496707916,0.39661842584609985,-0.5916975140571594,-0.790553092956543,-0.2868400514125824,0.6457682847976685,0.5417733788490295,-0.046365659683942795,-0.44945454597473145,-0.17252512276172638,-0.2912781834602356,-0.015187532640993595,-0.3518836796283722,0.19251909852027893,-0.25767025351524353,-0.3644660413265228,-0.5745154619216919,-0.3058481216430664,-0.32058441638946533,-0.6190407276153564,0.8012564182281494,0.33011168241500854,-0.5528908967971802,0.7254178524017334,0.4325307607650757,0.07852759212255478,0.5173144340515137,-0.5412195920944214,-0.7039387226104736,-0.05000807344913483,0.7261796593666077,0.013938200660049915,0.1750565618276596,-0.4182092547416687,-0.2638227045536041,-0.4999571144580841,0.06746578216552734,0.3508049249649048,-0.6034708023071289,0.459847629070282,-0.4378257393836975,0.11195617914199829,-0.6729782819747925,-0.5427154898643494,0.016879066824913025,-0.006635013967752457,0.26192522048950195,-0.018908701837062836,0.08330153673887253,0.9768725633621216,1.0805091857910156,0.8889117240905762,0.9113525748252869,0.8803606629371643,0.017511911690235138,0.13007688522338867,-0.11029120534658432,-0.016135089099407196,-0.12451113015413284,0.7868456840515137,-0.5837368369102478,-0.19521670043468475,0.6055366396903992,-0.6130989193916321,-0.04043474793434143
0.8315134048461914,-0.3309441804885864,-0.04946449026465416,-1.1350408792495728,-0.3193405568599701,-0.014077921397984028,-0.9773143529891968,-0.7965205311775208,-0.9919658899307251,-0.5731953382492065,0.6164474487304688,1.056444764137268,-0.4246722161769867,-0.2816735506057739,-0.8253723978996277,0.3885679244995117,0.3088941276073456,-0.21814323961734772,0.6614851355552673,-0.4650111198425293,-0.8381415009498596,-1.1363564729690552,0.26954588294029236,0.7272082567214966,-0.7518358826637268,-0.85867840051651,0.20045839250087738,-1.0288499593734741,0.926615834236145,-0.02996179834008217,-0.4589104652404785,0.3881168067455292,0.26879337430000305,1.2067829370498657,-0.011893858201801777,0.72642982006073,-0.806254506111145,0.239419087767601,-0.12197398394346237,0.8184122443199158,-0.9470879435539246,0.4597983956336975,0.3716525137424469,-1.0346026420593262,0.8366720080375671,0.30998724699020386,0.22033216059207916,-0.6353943943977356,-0.7033981680870056,-0.2911304533481598,0.37604647874832153,0.37250348925590515,0.15970119833946228,0.40976402163505554,0.1821892261505127,0.23986011743545532,0.4706099033355713,-0.121002197265625,0.11641357094049454,-0.07591195404529572,0.8789426684379578,1.125954031944275,0.8736079335212708,0.9573675990104675,1.1036452054977417,0.8617950081825256,1.107468843460083,1.133191704750061,1.012492299079895,1.1145493984222412,-0.12126311659812927,0.12291252613067627,-0.1307753324508667,-0.0826721340417862,0.07763434946537018,-0.1370408535003662,0.12245237082242966,0.12300939112901688,0.09334547817707062,0.1216551810503006,0.042607154697179794,-0.09375705569982529,0.5558748245239258,0.1413474977016449,0.5856425166130066,-0.491773784160614,0.2669399380683899,0.39899304509162903,-0.5875087380409241,-0.7924906015396118,-0.28384026885032654,0.6495233178138733,0.5411984324455261,-0.04840320348739624,-0.44574570655822754,-0.17759068310260773,-0.2940400540828705,-0.015516798943281174,-0.3481478989124298,0.19448688626289368,-0.257170170545578,-0.3650028109550476,-0.5720255374908447,-0.300831139087677,-0.32073915004730225,-0.6215327382087708,0.8065686821937561,0.3283216655254364,-0.5553973913192749,0.7244986891746521,0.4309689998626709,0.07721350342035294,0.5153820514678955,-0.5426794290542603,-0.7051373720169067,-0.04580746963620186,0.727444589138031,0.012983276508748531,0.17801162600517273,-0.41917645931243896,-0.2619740068912506,-0.5035448670387268,0.0692964643239975,0.35446488857269287,-0.6074833273887634,0.45561647415161133,-0.4324898421764374,0.11367926001548767,-0.6758676171302795,-0.5470909476280212,0.016293291002511978,-0.005331380292773247,0.2620384395122528,-0.01950063742697239,0.08286575227975845,0.9732846617698669,1.0775611400604248,0.8879684209823608,0.9097009301185608,0.8782953023910522,0.01926320046186447,0.13392212986946106,-0.1113433986902237,-0.015623915009200573,-0.1272122710943222,0.7831782102584839,-0.5811058878898621,-0.19444866478443146,0.6038417220115662,-0.611156165599823,-0.036326970905065536
0.8318089246749878,-0.3312959372997284,-0.051835641264915466,-1.1338785886764526,-0.32343652844429016,-0.01833490841090679,-0.9788997173309326,-0.7912557125091553,-0.996886670589447,-0.5735440850257874,0.6120332479476929,1.0555369853973389,-0.4292455315589905,-0.2839810848236084,-0.8265520930290222,0.39050355553627014,0.3128912150859833,-0.2159082591533661,0.6610593795776367,-0.46552979946136475,-0.8415665030479431,-1.1391459703445435,0.271549791097641,0.7319201231002808,-0.747258186340332,-0.862562894821167,0.1975017637014389,-1.0312635898590088,0.9231226444244385,-0.03322823345661163,-0.463537335395813,0.38428622484207153,0.26375097036361694,1.208176612854004,-0.007881099358201027,0.7226304411888123,-0.8101460933685303,0.23557671904563904,-0.1260673552751541,0.8217266201972961,-0.9505624771118164,0.4606516361236572,0.368193119764328,-1.029414176940918,0.8415155410766602,0.3047128915786743,0.21537837386131287,-0.6373168230056763,-0.7079073786735535,-0.29077139496803284,0.3765758275985718,0.37254592776298523,0.1599501669406891,0.40985339879989624,0.18226894736289978,0.2400534451007843,0.47090545296669006,-0.12153183668851852,0.11671051383018494,-0.07582664489746094,0.8771029710769653,1.1305713653564453,0.8716597557067871,0.9608792662620544,1.1077680587768555,0.8577398657798767,1.1075812578201294,1.1366539001464844,1.011269211769104,1.1160563230514526,-0.1232379674911499,0.127004012465477,-0.13367882370948792,-0.0813482478260994,0.08019019663333893,-0.14109542965888977,0.12432861328125,0.12407543510198593,0.09186773002147675,0.12381213903427124,0.04062375798821449,-0.0961465910077095,0.5551472902297974,0.14122295379638672,0.5871303677558899,-0.4875280559062958,0.26628783345222473,0.4011692702770233,-0.5833644866943359,-0.7942632436752319,-0.2809472680091858,0.6531266570091248,0.5404911041259766,-0.05038415640592575,-0.4421994388103485,-0.18261192739009857,-0.29682040214538574,-0.015624115243554115,-0.34432899951934814,0.1963323950767517,-0.25698578357696533,-0.3658336102962494,-0.5698211193084717,-0.2958679795265198,-0.32041266560554504,-0.6238508224487305,0.8119211196899414,0.3267538249492645,-0.5577297210693359,0.7231957316398621,0.4296626150608063,0.07617475837469101,0.5137103199958801,-0.5443757772445679,-0.7061735391616821,-0.04171624407172203,0.7284611463546753,0.01163426786661148,0.1809861958026886,-0.41984108090400696,-0.260362446308136,-0.5070788860321045,0.07086720317602158,0.35796621441841125,-0.6113315224647522,0.4515252411365509,-0.4271194636821747,0.1157011017203331,-0.6785373091697693,-0.5516493320465088,0.015769071877002716,-0.004490532912313938,0.26227128505706787,-0.019819356501102448,0.08252271264791489,0.9693627953529358,1.0743671655654907,0.8873110413551331,0.9079643487930298,0.8764960765838623,0.020535500720143318,0.13756708800792694,-0.11212655156850815,-0.015519578009843826,-0.12966737151145935,0.7791818976402283,-0.5782102346420288,-0.1939995288848877,0.6020611524581909,-0.6094759702682495,-0.03235067427158356
0.8323246836662292,-0.33145225048065186,-0.05404498055577278,-1.1324936151504517,-0.32746586203575134,-0.022307833656668663,-0.9800032377243042,-0.7859585285186768,-1.0018463134765625,-0.5744319558143616,0.6076200604438782,1.0544929504394531,-0.4337780177593231,-0.28647759556770325,-0.8278080821037292,0.3923063576221466,0.31690043210983276,-0.21347878873348236,0.6608944535255432,-0.46580302715301514,-0.8448528051376343,-1.1417845487594604,0.27365532517433167,0.7365242838859558,-0.7427921891212463,-0.8662806153297424,0.1946723610162735,-1.03354012966156,0.9197744131088257,-0.03634221479296684,-0.4681076407432556,0.3805849850177765,0.2587185204029083,1.2092193365097046,-0.003995864652097225,0.7187279462814331,-0.8141404986381531,0.23162084817886353,-0.13034555315971375,0.8246756196022034,-0.9538187384605408,0.46186697483062744,0.3649768531322479,-1.0242375135421753,0.8463606238365173,0.2994668781757355,0.210527241230011,-0.639381468296051,-0.7123239040374756,-0.29007405042648315,0.3770473301410675,0.37268978357315063,0.1601134091615677,0.41000479459762573,0.18241533637046814,0.240225151181221,0.4709506034851074,-0.12216070294380188,0.11711575090885162,-0.07571811228990555,0.875450074672699,1.1350796222686768,0.8699389696121216,0.9644502997398376,1.111810564994812,0.8538534045219421,1.1074795722961426,1.1399476528167725,1.009489893913269,1.1173866987228394,-0.12504033744335175,0.13104285299777985,-0.13638685643672943,-0.07989384233951569,0.08242542296648026,-0.1450292319059372,0.12612774968147278,0.12471500784158707,0.08976045995950699,0.12579716742038727,0.038793038576841354,-0.09835083037614822,0.5546453595161438,0.14097192883491516,0.588932454586029,-0.4833773672580719,0.2653721272945404,0.4031631648540497,-0.5792573690414429,-0.7958842515945435,-0.2781429588794708,0.656600832939148,0.5396647453308105,-0.05235878750681877,-0.43877163529396057,-0.18756261467933655,-0.2996462881565094,-0.01555661205202341,-0.3403943181037903,0.19810205698013306,-0.25712066888809204,-0.3669450581073761,-0.5678843259811401,-0.2909632623195648,-0.3196437656879425,-0.6260014772415161,0.8173143267631531,0.3253673315048218,-0.5598778128623962,0.721554696559906,0.42858263850212097,0.07538655400276184,0.5122736096382141,-0.5462620854377747,-0.7070577144622803,-0.037733044475317,0.7292599678039551,0.009951502084732056,0.18396545946598053,-0.4202422499656677,-0.2590031623840332,-0.5105000138282776,0.07218587398529053,0.36128875613212585,-0.6149485111236572,0.44761431217193604,-0.421773225069046,0.11792772263288498,-0.6809938549995422,-0.5563550591468811,0.015061269514262676,-0.0038188667967915535,0.2625102400779724,-0.020105453208088875,0.08228680491447449,0.965182363986969,1.0709909200668335,0.8869093060493469,0.90615314245224,0.8749499320983887,0.02135102078318596,0.14094774425029755,-0.11267683655023575,-0.015790505334734917,-0.13186022639274597,0.7749308347702026,-0.5751099586486816,-0.19383569061756134,0.6002054214477539,-0.6080402135848999,-0.028496481478214264
0.8326654434204102,-0.33145594596862793,-0.055079467594623566,-1.131712794303894,-0.32945188879966736,-0.02407560497522354,-0.9802632331848145,-0.7832808494567871,-1.0043591260910034,-0.5751919746398926,0.6054295301437378,1.0539274215698242,-0.43600624799728394,-0.2877912223339081,-0.8284517526626587,0.3931451737880707,0.31888657808303833,-0.21218807995319366,0.660923957824707,-0.4658351540565491,-0.8464170694351196,-1.1430305242538452,0.2747790813446045,0.738753080368042,-0.7406288981437683,-0.868046760559082,0.19332614541053772,-1.0346120595932007,0.9181773066520691,-0.0378175750374794,-0.47035133838653564,0.3788142800331116,0.25622543692588806,1.2095659971237183,-0.0021202554926276207,0.7167311906814575,-0.8161783814430237,0.22959177196025848,-0.13255883753299713,0.8260156512260437,-0.955348014831543,0.46261167526245117,0.3634916841983795,-1.021662712097168,0.8487741947174072,0.29689493775367737,0.20817649364471436,-0.6404019594192505,-0.7144812345504761,-0.2895927131175995,0.37726590037345886,0.3727467656135559,0.16024473309516907,0.41007140278816223,0.18238574266433716,0.24030143022537231,0.470836341381073,-0.12240056693553925,0.11727909743785858,-0.07572462409734726,0.8747093081474304,1.137253761291504,0.8691815137863159,0.9662387371063232,1.1137796640396118,0.8520118594169617,1.107344627380371,1.1415095329284668,1.0083284378051758,1.1179770231246948,-0.1258625090122223,0.13299106061458588,-0.13764886558055878,-0.07913186401128769,0.08336232602596283,-0.14692732691764832,0.1269901543855667,0.12485457211732864,0.08834560215473175,0.12670506536960602,0.037948016077280045,-0.09936060011386871,0.5544917583465576,0.14079056680202484,0.5899698138237,-0.48135045170783997,0.2648027539253235,0.40407684445381165,-0.5772202610969543,-0.7966251969337463,-0.2767864465713501,0.6582528948783875,0.5392088890075684,-0.053335901349782944,-0.4371522068977356,-0.19000351428985596,-0.3010737895965576,-0.015438967384397984,-0.33838334679603577,0.19894126057624817,-0.2573242783546448,-0.3676213026046753,-0.5670400261878967,-0.2885483205318451,-0.3190539479255676,-0.6269994378089905,0.8200166821479797,0.32475435733795166,-0.5608660578727722,0.7205936312675476,0.428141325712204,0.07510507106781006,0.5116591453552246,-0.5472778081893921,-0.7074284553527832,-0.03579483926296234,0.7295658588409424,0.008972049690783024,0.1854480803012848,-0.4203310012817383,-0.25845637917518616,-0.5121381282806396,0.07272416353225708,0.3628508448600769,-0.6166170835494995,0.4457700252532959,-0.41914108395576477,0.11910330504179001,-0.6820948719978333,-0.5587776303291321,0.014743787236511707,-0.0036243861541152,0.262610524892807,-0.020285623148083687,0.08221681416034698,0.9629960656166077,1.0692378282546997,0.8868207931518555,0.9052184224128723,0.8742951154708862,0.021549561992287636,0.1425260454416275,-0.11284949630498886,-0.016092682257294655,-0.13281899690628052,0.7727105617523193,-0.5734851956367493,-0.19387854635715485,0.5992483496665955,-0.6074338555335999,-0.026624217629432678
0.8330749273300171,-0.33139768242836,-0.056051868945360184,-1.130854845046997,-0.3314169943332672,-0.0256658848375082,-0.9802631735801697,-0.7805795669555664,-1.0069040060043335,-0.5761972069740295,0.6032611131668091,1.053336501121521,-0.4381858706474304,-0.28915131092071533,-0.8290972709655762,0.3939267694950104,0.3208458721637726,-0.21083390712738037,0.661051869392395,-0.46577557921409607,-0.8479100465774536,-1.144197702407837,0.27596551179885864,0.7409148216247559,-0.7385314106941223,-0.8697234392166138,0.19204401969909668,-1.0356216430664062,0.9166542291641235,-0.03921716660261154,-0.4725537896156311,0.3771214485168457,0.25375744700431824,1.2097491025924683,-0.00030550232622772455,0.7146911025047302,-0.8182562589645386,0.2275155484676361,-0.13483110070228577,0.8272016644477844,-0.9567917585372925,0.4634706377983093,0.36211639642715454,-1.0190999507904053,0.8511792421340942,0.29438069462776184,0.2058991938829422,-0.6414003968238831,-0.7165886759757996,-0.2889869511127472,0.37751901149749756,0.3728024363517761,0.16042038798332214,0.4102022647857666,0.1823401302099228,0.24035267531871796,0.47078564763069153,-0.12261466681957245,0.11735463887453079,-0.07576955854892731,0.8740437030792236,1.1393460035324097,0.8685144782066345,0.9680246710777283,1.1157056093215942,0.8502660989761353,1.1071367263793945,1.1429914236068726,1.006924033164978,1.1185039281845093,-0.12661558389663696,0.13487061858177185,-0.13882841169834137,-0.07834098488092422,0.08412622660398483,-0.14876028895378113,0.12782087922096252,0.12487448751926422,0.08665329962968826,0.12753905355930328,0.03716707602143288,-0.10028273612260818,0.5544237494468689,0.14055922627449036,0.5911259055137634,-0.4793694317340851,0.26413655281066895,0.4049151837825775,-0.5751977562904358,-0.7973026037216187,-0.2754722237586975,0.6598231792449951,0.5387161374092102,-0.05430440604686737,-0.43563637137413025,-0.19241416454315186,-0.30251723527908325,-0.015248054638504982,-0.3363198935985565,0.19973893463611603,-0.25760123133659363,-0.3683455288410187,-0.5662894248962402,-0.2861800193786621,-0.31831806898117065,-0.6279324293136597,0.8226849436759949,0.3242068290710449,-0.5617907047271729,0.7195611000061035,0.427787184715271,0.07492503523826599,0.5111370086669922,-0.5483523011207581,-0.7077330350875854,-0.03390643000602722,0.7297899127006531,0.007875478826463223,0.18691936135292053,-0.42032259702682495,-0.25802674889564514,-0.5137097835540771,0.07315470278263092,0.3643217384815216,-0.6181567311286926,0.4440276324748993,-0.41655203700065613,0.12033064663410187,-0.6830790638923645,-0.561250627040863,0.01448910217732191,-0.003399091772735119,0.262726366519928,-0.020421680063009262,0.0821777805685997,0.9607362747192383,1.067434310913086,0.8868324160575867,0.9042606949806213,0.873746931552887,0.02156134881079197,0.14401769638061523,-0.1129249632358551,-0.016541151329874992,-0.13365375995635986,0.7704179286956787,-0.5718023180961609,-0.19403141736984253,0.5982682108879089,-0.6069280505180359,-0.024799533188343048
0.833537757396698,-0.3312910497188568,-0.05697033181786537,-1.12993323802948,-0.33336442708969116,-0.027086177840828896,-0.9800277352333069,-0.7778607606887817,-1.0094730854034424,-0.5774140357971191,0.6011209487915039,1.0527323484420776,-0.44031110405921936,-0.2905435264110565,-0.8297343850135803,0.39465567469596863,0.32276928424835205,-0.20942801237106323,0.6612651348114014,-0.46563684940338135,-0.8493432402610779,-1.145294189453125,0.27718788385391235,0.7430071234703064,-0.7364975214004517,-0.8713158369064331,0.19082015752792358,-1.0365734100341797,0.91520094871521,-0.04054584726691246,-0.47471481561660767,0.375504732131958,0.25131651759147644,1.2097797393798828,0.0014534641522914171,0.7126175165176392,-0.82036292552948,0.2254025787115097,-0.13715048134326935,0.8282490372657776,-0.9581607580184937,0.4644215404987335,0.36083588004112244,-1.0165514945983887,0.8535731434822083,0.2919292747974396,0.20369566977024078,-0.6423665285110474,-0.7186465859413147,-0.2882689833641052,0.3777865767478943,0.3728216588497162,0.16063572466373444,0.4104578197002411,0.18240927159786224,0.24039804935455322,0.47081825137138367,-0.12276613712310791,0.11740466952323914,-0.0757940337061882,0.8734449744224548,1.1413516998291016,0.867928683757782,0.9698013663291931,1.1175944805145264,0.8486097455024719,1.1068671941757202,1.1444010734558105,1.0053184032440186,1.1189736127853394,-0.1273074597120285,0.13667769730091095,-0.13993167877197266,-0.07752904295921326,0.08473031967878342,-0.15053169429302216,0.12862637639045715,0.12478628009557724,0.08474264293909073,0.12830714881420135,0.03644450008869171,-0.10112157464027405,0.5544304847717285,0.140283465385437,0.592384397983551,-0.47743234038352966,0.26338717341423035,0.40568551421165466,-0.573188841342926,-0.7979221343994141,-0.27419793605804443,0.6613063812255859,0.5381949543952942,-0.055262625217437744,-0.43423452973365784,-0.1947965770959854,-0.3039723336696625,-0.014987628906965256,-0.3342154026031494,0.20049402117729187,-0.2579406499862671,-0.3691113293170929,-0.5656238198280334,-0.2838596701622009,-0.3174474239349365,-0.6288063526153564,0.8253152966499329,0.3237171173095703,-0.5626574754714966,0.7184687852859497,0.4275093674659729,0.07483584433794022,0.5106959939002991,-0.5494725108146667,-0.707976222038269,-0.03206469863653183,0.7299431562423706,0.006681034341454506,0.18837423622608185,-0.4202309846878052,-0.2576999366283417,-0.5152205228805542,0.07348983734846115,0.3657085597515106,-0.619577169418335,0.4423789083957672,-0.414008766412735,0.12159984558820724,-0.6839556694030762,-0.5637578964233398,0.014351497404277325,-0.0032694553956389427,0.26282915472984314,-0.020743416622281075,0.0821424201130867,0.9584231376647949,1.0655943155288696,0.8869317173957825,0.9032868146896362,0.873293936252594,0.021409546956419945,0.14543616771697998,-0.11291517317295074,-0.01711522601544857,-0.134377583861351,0.7680730223655701,-0.5700762867927551,-0.1942799836397171,0.5972720384597778,-0.6065121293067932,-0.023014875128865242
0.8340398669242859,-0.331148624420166,-0.057842373847961426,-1.1289598941802979,-0.33529728651046753,-0.028343142941594124,-0.9795793294906616,-0.7751295566558838,-1.0120600461959839,-0.5788140892982483,0.5989804863929749,1.052086591720581,-0.44241032004356384,-0.2919811010360718,-0.8304013013839722,0.39533594250679016,0.3246478736400604,-0.2079811543226242,0.6615513563156128,-0.4654309153556824,-0.8507274985313416,-1.1463282108306885,0.2784201204776764,0.7450268268585205,-0.7345254421234131,-0.872828483581543,0.18964914977550507,-1.0374714136123657,0.9138137102127075,-0.04180791974067688,-0.47683364152908325,0.3739631474018097,0.2489047795534134,1.2096691131591797,0.0031612215097993612,0.7105192542076111,-0.822488009929657,0.22326231002807617,-0.1395062953233719,0.8291749358177185,-0.9594643115997314,0.4654421806335449,0.35962817072868347,-1.014026165008545,0.8559456467628479,0.28954625129699707,0.2015666514635086,-0.6432903409004211,-0.7206553220748901,-0.28745028376579285,0.37800073623657227,0.37286096811294556,0.16085799038410187,0.4108206033706665,0.1825072020292282,0.24040530622005463,0.4707672595977783,-0.12290148437023163,0.11760103702545166,-0.07587822526693344,0.8729052543640137,1.143267035484314,0.8674120903015137,0.9715622663497925,1.1194510459899902,0.8470371961593628,1.1065466403961182,1.1457455158233643,1.0035426616668701,1.1193921566009521,-0.12794557213783264,0.1384088695049286,-0.14098350703716278,-0.07670382410287857,0.0851859524846077,-0.15224462747573853,0.12941314280033112,0.12460101395845413,0.08267322182655334,0.12901701033115387,0.03577502816915512,-0.10188116133213043,0.5545018315315247,0.1399686336517334,0.5937302112579346,-0.4755377173423767,0.2625672519207001,0.4063946306705475,-0.571193277835846,-0.7984886765480042,-0.27296119928359985,0.6626980304718018,0.5376527905464172,-0.05620948597788811,-0.43295571208000183,-0.19715246558189392,-0.30543529987335205,-0.014661227352917194,-0.33207952976226807,0.20120607316493988,-0.2583320140838623,-0.36991268396377563,-0.5650345087051392,-0.28158900141716003,-0.31645315885543823,-0.6296267509460449,0.8279032707214355,0.3232780694961548,-0.5634715557098389,0.7173276543617249,0.42729753255844116,0.07482736557722092,0.5103254318237305,-0.5506260991096497,-0.7081623673439026,-0.03026692010462284,0.7300360798835754,0.005406433716416359,0.1898069530725479,-0.4200695753097534,-0.2574627697467804,-0.5166752934455872,0.07374106347560883,0.3670177161693573,-0.6208871006965637,0.4408164620399475,-0.4115142524242401,0.12290161103010178,-0.6847327947616577,-0.5662855505943298,0.014197858050465584,-0.00313925975933671,0.26294174790382385,-0.021058449521660805,0.08212246000766754,0.9560753703117371,1.0637307167053223,0.8871065974235535,0.9023044109344482,0.8729249835014343,0.021117620170116425,0.14679434895515442,-0.1128317266702652,-0.017794180661439896,-0.13500304520130157,0.7656943202018738,-0.5683209896087646,-0.19461040198802948,0.5962676405906677,-0.6061756014823914,-0.021262768656015396
0.8345681428909302,-0.33098211884498596,-0.058674998581409454,-1.1279456615447998,-0.337218314409256,-0.029468774795532227,-0.9789658784866333,-0.772389829158783,-1.0146552324295044,-0.5803593397140503,0.5968475341796875,1.0514123439788818,-0.444475919008255,-0.2934500575065613,-0.831086277961731,0.39597129821777344,0.32647794485092163,-0.2064996063709259,0.6619014739990234,-0.46516671776771545,-0.8520731329917908,-1.1473076343536377,0.27963608503341675,0.7469704151153564,-0.7326139807701111,-0.8742656707763672,0.18852601945400238,-1.0383191108703613,0.9124891757965088,-0.04300719127058983,-0.4789089858531952,0.3724963665008545,0.24652449786663055,1.209428310394287,0.004821811802685261,0.7083761692047119,-0.8246248960494995,0.22109584510326385,-0.14188222587108612,0.8303053975105286,-0.9607117176055908,0.46651414036750793,0.3584810197353363,-1.011525273323059,0.8582955002784729,0.28723767399787903,0.19951316714286804,-0.6441618204116821,-0.7226150631904602,-0.28654175996780396,0.37808316946029663,0.37286630272865295,0.16102847456932068,0.41114532947540283,0.18266649544239044,0.24039483070373535,0.47058990597724915,-0.12302248924970627,0.11789223551750183,-0.07603106647729874,0.8724169731140137,1.1450904607772827,0.8669564127922058,0.9733009934425354,1.121278166770935,0.8455435633659363,1.1061851978302002,1.1470363140106201,1.0016239881515503,1.119765043258667,-0.12853695452213287,0.14003871381282806,-0.14198839664459229,-0.07586805522441864,0.08550292998552322,-0.15390178561210632,0.13018782436847687,0.12423887103796005,0.080474354326725,0.1296759694814682,0.035153791308403015,-0.1025652214884758,0.5546283721923828,0.139619842171669,0.5951492190361023,-0.4736843705177307,0.26168856024742126,0.4070488214492798,-0.5692113041877747,-0.7990067005157471,-0.2717594802379608,0.6639944911003113,0.5370962023735046,-0.05714450031518936,-0.43180766701698303,-0.19948336482048035,-0.30690282583236694,-0.014272536151111126,-0.3299204707145691,0.20187516510486603,-0.25876516103744507,-0.3707435429096222,-0.5645132660865784,-0.27937015891075134,-0.31534630060195923,-0.6303988099098206,0.8304436802864075,0.32288283109664917,-0.5642380118370056,0.716148316860199,0.42714181542396545,0.07488986849784851,0.5100151300430298,-0.5518011450767517,-0.7082953453063965,-0.02851068042218685,0.7300787568092346,0.004068314563483,0.19121137261390686,-0.4198512136936188,-0.25730305910110474,-0.5180788636207581,0.07391902059316635,0.36825495958328247,-0.6220946311950684,0.4393337070941925,-0.40907180309295654,0.1242271140217781,-0.685417652130127,-0.5688216686248779,0.014119649305939674,-0.0031131694559007883,0.263004332780838,-0.021137801930308342,0.08215277642011642,0.9537105560302734,1.0618553161621094,0.8873454928398132,0.9013214111328125,0.8726292848587036,0.020708996802568436,0.14810477197170258,-0.11268579214811325,-0.01855761744081974,-0.13554221391677856,0.763299286365509,-0.5665491223335266,-0.19500930607318878,0.5952631235122681,-0.6059083938598633,-0.019535928964614868
0.8351094126701355,-0.3308029770851135,-0.0594746395945549,-1.1269010305404663,-0.33913105726242065,-0.030476612970232964,-0.9782083630561829,-0.7696447372436523,-1.0172529220581055,-0.5820308327674866,0.5947301983833313,1.0507245063781738,-0.44649672508239746,-0.2949352562427521,-0.8317770957946777,0.3965650200843811,0.3282504379749298,-0.20499297976493835,0.6623041033744812,-0.46485528349876404,-0.8533897399902344,-1.148240089416504,0.28080955147743225,0.7488338947296143,-0.7307623028755188,-0.8756314516067505,0.18744590878486633,-1.0391196012496948,0.9112243056297302,-0.04414715617895126,-0.4809395968914032,0.3711039423942566,0.24417749047279358,1.2090681791305542,0.006439007818698883,0.7061997652053833,-0.8267644047737122,0.21891194581985474,-0.1442706137895584,0.8316160440444946,-0.961911678314209,0.46762049198150635,0.35738325119018555,-1.0090497732162476,0.8606215715408325,0.2850136160850525,0.19753830134868622,-0.6449691653251648,-0.7245251536369324,-0.2855511009693146,0.3780740201473236,0.37289848923683167,0.16112321615219116,0.4114011824131012,0.18268239498138428,0.2403848022222519,0.4703511893749237,-0.12316936254501343,0.11823534220457077,-0.0760904848575592,0.8719720840454102,1.1468172073364258,0.8665518164634705,0.9750121235847473,1.1230792999267578,0.8441257476806641,1.1057910919189453,1.148276686668396,0.9995877742767334,1.1201010942459106,-0.12908871471881866,0.14156338572502136,-0.14295172691345215,-0.07502812892198563,0.0856916680932045,-0.1555042266845703,0.13095539808273315,0.12371517717838287,0.07817311584949493,0.1302923560142517,0.03457629680633545,-0.10317736864089966,0.5548015236854553,0.13924220204353333,0.5966280698776245,-0.47187161445617676,0.2607620358467102,0.4076540172100067,-0.5672440528869629,-0.7994803190231323,-0.27059027552604675,0.6651932001113892,0.5365307331085205,-0.058067686855793,-0.4307962656021118,-0.20179051160812378,-0.30837196111679077,-0.013825242407619953,-0.3277451992034912,0.20250195264816284,-0.25919851660728455,-0.3715684115886688,-0.5640285015106201,-0.2772170901298523,-0.3141937851905823,-0.6311323642730713,0.8328872323036194,0.3225092887878418,-0.5649808049201965,0.7149801254272461,0.4270328879356384,0.07501394301652908,0.5097553133964539,-0.552986204624176,-0.7083790302276611,-0.026793956756591797,0.7300807237625122,0.002682287711650133,0.19258075952529907,-0.41958820819854736,-0.2572096288204193,-0.519435465335846,0.07403364032506943,0.36942553520202637,-0.6232067942619324,0.4379246234893799,-0.40668490529060364,0.12556804716587067,-0.6860167384147644,-0.5713557004928589,0.01390308141708374,-0.003198293037712574,0.2630808353424072,-0.02120932936668396,0.08216777443885803,0.9513456225395203,1.05997896194458,0.8876379132270813,0.900346040725708,0.8723962903022766,0.020207034423947334,0.14937926828861237,-0.11247982084751129,-0.019385237246751785,-0.13600677251815796,0.7609047889709473,-0.5647726058959961,-0.19546373188495636,0.594266951084137,-0.6057004928588867,-0.01782725378870964
0.8356531858444214,-0.33062082529067993,-0.06024700403213501,-1.125834584236145,-0.3410375118255615,-0.031369805335998535,-0.977319061756134,-0.766897439956665,-1.0198497772216797,-0.5838131308555603,0.5925976037979126,1.049981713294983,-0.4485004246234894,-0.29645854234695435,-0.8325271606445312,0.3971198499202728,0.3299553394317627,-0.20347054302692413,0.6627482771873474,-0.46450746059417725,-0.8546883463859558,-1.1491279602050781,0.28192248940467834,0.7506161332130432,-0.72896808385849,-0.8769289255142212,0.18640996515750885,-1.039871096611023,0.9100208878517151,-0.045226648449897766,-0.4829193651676178,0.3697909414768219,0.24186867475509644,1.2086029052734375,0.008015910163521767,0.704017162322998,-0.8288827538490295,0.2167394459247589,-0.14663541316986084,0.8330646753311157,-0.9630738496780396,0.46874767541885376,0.3563300371170044,-1.0065956115722656,0.8629276156425476,0.2828797399997711,0.19564302265644073,-0.6457038521766663,-0.7263858914375305,-0.2844882607460022,0.3780730366706848,0.3729263246059418,0.16125158965587616,0.4116643965244293,0.18271395564079285,0.24045664072036743,0.4700828492641449,-0.1232619434595108,0.11849327385425568,-0.07612057775259018,0.8715636134147644,1.1484436988830566,0.8661944270133972,0.9766875505447388,1.1248559951782227,0.8427829742431641,1.1053706407546997,1.1494693756103516,0.9974597096443176,1.1204067468643188,-0.1296074092388153,0.1429796665906906,-0.14385107159614563,-0.07419399917125702,0.08576125651597977,-0.15705221891403198,0.13172072172164917,0.1230965405702591,0.07579141110181808,0.13087396323680878,0.03403840586543083,-0.10372114926576614,0.5550132989883423,0.13884085416793823,0.5981539487838745,-0.47009924054145813,0.2597978115081787,0.4082154333591461,-0.5652936100959778,-0.799913227558136,-0.2694510817527771,0.6662923693656921,0.5359612107276917,-0.05897946655750275,-0.42992550134658813,-0.204074889421463,-0.30984005331993103,-0.013322966173291206,-0.3255595862865448,0.20308750867843628,-0.25961506366729736,-0.3723570704460144,-0.5635635256767273,-0.2751195430755615,-0.31304535269737244,-0.6318470239639282,0.835132360458374,0.3221571445465088,-0.565742552280426,0.7138469219207764,0.4269619286060333,0.07519049942493439,0.5095368027687073,-0.5541701316833496,-0.7084172964096069,-0.025115083903074265,0.7300509810447693,0.0012628637487068772,0.1939079463481903,-0.4192923307418823,-0.25717225670814514,-0.5207492113113403,0.07409416884183884,0.37053415179252625,-0.6242302656173706,0.43658381700515747,-0.40435707569122314,0.126916766166687,-0.6865357756614685,-0.5738785862922668,0.013678638264536858,-0.003141845343634486,0.2631487250328064,-0.021408820524811745,0.08215673267841339,0.9489967823028564,1.0581117868423462,0.8879721164703369,0.8993865847587585,0.8722156286239624,0.019634699448943138,0.15062880516052246,-0.11223366856575012,-0.020256981253623962,-0.13640792667865753,0.7585271000862122,-0.563002347946167,-0.19596116244792938,0.5932875871658325,-0.6055423617362976,-0.016129929572343826
0.8361898064613342,-0.3304443955421448,-0.06099723279476166,-1.1247539520263672,-0.3429394066333771,-0.032151710242033005,-0.9763097763061523,-0.7641505599021912,-1.0224424600601196,-0.5856926441192627,0.5904600024223328,1.0491993427276611,-0.45047736167907715,-0.2980060279369354,-0.8333208560943604,0.39763814210891724,0.33158302307128906,-0.20194076001644135,0.6632238626480103,-0.46413344144821167,-0.8559798002243042,-1.1499879360198975,0.28290706872940063,0.7523019313812256,-0.7272363305091858,-0.8781615495681763,0.18541385233402252,-1.0405763387680054,0.908876359462738,-0.046248581260442734,-0.4848460257053375,0.36855843663215637,0.23960056900978088,1.208042860031128,0.009555693715810776,0.7018362879753113,-0.8309725522994995,0.21458415687084198,-0.14897240698337555,0.8346421718597412,-0.9641985297203064,0.469896137714386,0.3553295433521271,-1.0041512250900269,0.865229606628418,0.28084132075309753,0.19382813572883606,-0.6463584303855896,-0.7281978130340576,-0.28336232900619507,0.3780711889266968,0.37289419770240784,0.16136689484119415,0.4119342565536499,0.18270641565322876,0.24053697288036346,0.4698658287525177,-0.12342080473899841,0.11876615881919861,-0.07616295665502548,0.871185302734375,1.1499688625335693,0.8658767938613892,0.978320837020874,1.126606822013855,0.8415117859840393,1.1049325466156006,1.1506189107894897,0.9952552914619446,1.120686650276184,-0.13009876012802124,0.14428795874118805,-0.1446922868490219,-0.0733734741806984,0.0857323482632637,-0.15854762494564056,0.13249027729034424,0.12239516526460648,0.07332498580217361,0.13142679631710052,0.03353629261255264,-0.10420015454292297,0.5552563071250916,0.13842099905014038,0.5997145771980286,-0.46836739778518677,0.2588053047657013,0.40873777866363525,-0.5633630156517029,-0.800308883190155,-0.26833951473236084,0.6672913432121277,0.5353918075561523,-0.05988064408302307,-0.42919766902923584,-0.20633722841739655,-0.31130456924438477,-0.012769222259521484,-0.32336878776550293,0.20363318920135498,-0.2600097358226776,-0.3731094002723694,-0.563113808631897,-0.27308014035224915,-0.3119005858898163,-0.6325453519821167,0.8371827602386475,0.3218223750591278,-0.5665223002433777,0.7127522230148315,0.42692065238952637,0.07541070878505707,0.5093508958816528,-0.5553422570228577,-0.70841383934021,-0.023472649976611137,0.7299980521202087,-0.00017657678108662367,0.19518572092056274,-0.41897478699684143,-0.2571815848350525,-0.5220239758491516,0.07410915195941925,0.37158510088920593,-0.625170886516571,0.4353064298629761,-0.40209174156188965,0.1282663643360138,-0.6869797706604004,-0.5763822793960571,0.01350593101233244,-0.003075991990044713,0.2632141411304474,-0.021601205691695213,0.08213434368371964,0.9466795921325684,1.0562632083892822,0.8883376121520996,0.8984511494636536,0.872077465057373,0.019014380872249603,0.15186354517936707,-0.11195751279592514,-0.021153094246983528,-0.13675636053085327,0.7561818361282349,-0.5612488389015198,-0.19648964703083038,0.5923332571983337,-0.6054246425628662,-0.01443750411272049
0.8367109298706055,-0.3302813768386841,-0.061729829758405685,-1.1236659288406372,-0.34483814239501953,-0.03282618895173073,-0.975191593170166,-0.761406421661377,-1.0250282287597656,-0.5876572132110596,0.5884577035903931,1.0484927892684937,-0.45227813720703125,-0.29946914315223694,-0.8340367674827576,0.3981221318244934,0.3331241309642792,-0.20041148364543915,0.6637213826179504,-0.4637427031993866,-0.8572708964347839,-1.1508259773254395,0.28374147415161133,0.7538877725601196,-0.7255666255950928,-0.8793325424194336,0.1844535619020462,-1.0412378311157227,0.9077883958816528,-0.04721558466553688,-0.48671773076057434,0.3673993647098541,0.2373763471841812,1.2074048519134521,0.011072165332734585,0.699664831161499,-0.8330263495445251,0.21245191991329193,-0.15127702057361603,0.8363410234451294,-0.9652926921844482,0.47105130553245544,0.3543715178966522,-1.0017197132110596,0.8675244450569153,0.278903067111969,0.19209416210651398,-0.6469267010688782,-0.7299612760543823,-0.2821817100048065,0.37814193964004517,0.3729032576084137,0.1614558845758438,0.4122101664543152,0.18278707563877106,0.24064120650291443,0.46961674094200134,-0.12360117584466934,0.11900322139263153,-0.07619320601224899,0.870831310749054,1.1513930559158325,0.8656012415885925,0.9799054861068726,1.1283307075500488,0.8403090238571167,1.1044859886169434,1.1517291069030762,0.9929862022399902,1.1209455728530884,-0.13056810200214386,0.14548909664154053,-0.14542250335216522,-0.0725741758942604,0.08560754358768463,-0.15999194979667664,0.1332596093416214,0.12162250280380249,0.07078966498374939,0.1319565773010254,0.03306639939546585,-0.104618139564991,0.5555236339569092,0.13798800110816956,0.6012980937957764,-0.4666767120361328,0.25779327750205994,0.409225195646286,-0.5614562630653381,-0.8006705641746521,-0.2672532796859741,0.6681903004646301,0.53482586145401,-0.060772303491830826,-0.4286131262779236,-0.20857802033424377,-0.3127632737159729,-0.012167452834546566,-0.32117733359336853,0.20414067804813385,-0.2603778541088104,-0.373825341463089,-0.5626744627952576,-0.2711016535758972,-0.3107600212097168,-0.6332299113273621,0.8390421867370605,0.32150161266326904,-0.5673189759254456,0.7116993069648743,0.42690128087997437,0.07566595822572708,0.5091891288757324,-0.556492269039154,-0.7083725929260254,-0.021865595132112503,0.7299299240112305,-0.0016236036317422986,0.19640691578388214,-0.4186462163925171,-0.25722914934158325,-0.5232632756233215,0.07408664375543594,0.37258225679397583,-0.6260342597961426,0.4340880215167999,-0.3998921811580658,0.12961065769195557,-0.6873534321784973,-0.5788597464561462,0.013291680254042149,-0.0030747789423912764,0.26329305768013,-0.021576806902885437,0.08205275982618332,0.9444088339805603,1.054442286491394,0.8887244462966919,0.8975473046302795,0.8719722628593445,0.018367519602179527,0.15309284627437592,-0.11166101694107056,-0.022054458037018776,-0.1370621919631958,0.7538838982582092,-0.5595219135284424,-0.19703780114650726,0.5914117693901062,-0.6053385734558105,-0.012744144536554813
0.8371977210044861,-0.3301472067832947,-0.06245188042521477,-1.1225872039794922,-0.34672948718070984,-0.03333624452352524,-0.9739403128623962,-0.7586700320243835,-1.0275933742523193,-0.5897427201271057,0.5865905284881592,1.0478681325912476,-0.45390257239341736,-0.3008435070514679,-0.8346701264381409,0.39857354760169983,0.33456844091415405,-0.19889041781425476,0.6642318367958069,-0.4633445739746094,-0.8585981726646423,-1.151620864868164,0.2844679057598114,0.7553884983062744,-0.7239393591880798,-0.880452573299408,0.18350060284137726,-1.041874885559082,0.9067359566688538,-0.04814362898468971,-0.4885372519493103,0.36631062626838684,0.2351953536272049,1.2066922187805176,0.012566529214382172,0.6974900364875793,-0.8350396156311035,0.2103528082370758,-0.15350893139839172,0.838276207447052,-0.9663587808609009,0.4721755087375641,0.3534066081047058,-0.9993376731872559,0.8697794675827026,0.2770765423774719,0.19044603407382965,-0.6473988890647888,-0.7316725850105286,-0.2809605598449707,0.3782372772693634,0.37288838624954224,0.16145554184913635,0.4125249683856964,0.18289421498775482,0.2407018542289734,0.46939074993133545,-0.12387342751026154,0.11918309330940247,-0.0762820690870285,0.8704962134361267,1.1526904106140137,0.865359902381897,0.9814311265945435,1.1300468444824219,0.8391634225845337,1.1040399074554443,1.152799129486084,0.9906624555587769,1.1211942434310913,-0.13101796805858612,0.1465577483177185,-0.14605143666267395,-0.07180911302566528,0.08542165905237198,-0.1613893210887909,0.13403430581092834,0.120819590985775,0.06819328665733337,0.13247399032115936,0.03262045979499817,-0.1049942821264267,0.5558023452758789,0.13753609359264374,0.6029045581817627,-0.4649967849254608,0.2567901611328125,0.4096805155277252,-0.5595219135284424,-0.8010155558586121,-0.2661896049976349,0.6689567565917969,0.5342763066291809,-0.061644479632377625,-0.4282166063785553,-0.21080158650875092,-0.31419727206230164,-0.011511486023664474,-0.31903454661369324,0.20459946990013123,-0.2607150673866272,-0.3745051622390747,-0.5622407793998718,-0.2691868245601654,-0.3096242845058441,-0.6339028477668762,0.8407149910926819,0.32119181752204895,-0.5681310892105103,0.7106910943984985,0.4268966019153595,0.07594796270132065,0.5090436935424805,-0.5576102137565613,-0.7082977294921875,-0.02029322274029255,0.7298539876937866,-0.0030665481463074684,0.19756436347961426,-0.4183165729045868,-0.2573072612285614,-0.5244704484939575,0.07403410226106644,0.3735291361808777,-0.6268253922462463,0.4329245686531067,-0.3977615237236023,0.13094395399093628,-0.6876608729362488,-0.5813049674034119,0.013128052465617657,-0.0031285311561077833,0.26334232091903687,-0.021566929295659065,0.08200345188379288,0.9421983361244202,1.0526596307754517,0.8891232013702393,0.8966820240020752,0.8718910813331604,0.017743967473506927,0.15429356694221497,-0.11135324835777283,-0.022942863404750824,-0.13733486831188202,0.7516475319862366,-0.5578306913375854,-0.19759488105773926,0.5905301570892334,-0.6052757501602173,-0.01104456651955843
0.8374214172363281,-0.3300967812538147,-0.0628090649843216,-1.1220545768737793,-0.3476719260215759,-0.03351207450032234,-0.9732533693313599,-0.7573062777519226,-1.0288654565811157,-0.5908379554748535,0.5856854319572449,1.0475667715072632,-0.45466214418411255,-0.30151137709617615,-0.8349818587303162,0.3987838625907898,0.33523792028427124,-0.19813735783100128,0.6644894480705261,-0.463145911693573,-0.8592812418937683,-1.1520003080368042,0.2847651243209839,0.7560938596725464,-0.7231475710868835,-0.8809881806373596,0.18302734196186066,-1.0421812534332275,0.9062274694442749,-0.04858845844864845,-0.4894191324710846,0.36580315232276917,0.2341279834508896,1.2063030004501343,0.013303146697580814,0.6964183449745178,-0.8360230326652527,0.20931974053382874,-0.15457038581371307,0.8392780423164368,-0.9668806195259094,0.47271719574928284,0.35291871428489685,-0.9981704950332642,0.870887815952301,0.2762199640274048,0.1896641105413437,-0.647586464881897,-0.7325025200843811,-0.28033313155174255,0.3782674968242645,0.3728647828102112,0.1614406406879425,0.4126661717891693,0.182950958609581,0.24071255326271057,0.4693146049976349,-0.12399569898843765,0.1193007379770279,-0.07630651444196701,0.8703358173370361,1.15327787399292,0.8652507662773132,0.9821610450744629,1.1308987140655518,0.8386179804801941,1.10382080078125,1.153314232826233,0.9894766211509705,1.121314525604248,-0.13123531639575958,0.14702892303466797,-0.14633411169052124,-0.07144772261381149,0.0852968767285347,-0.16206537187099457,0.1344285011291504,0.12044620513916016,0.0668695792555809,0.13272812962532043,0.03240825608372688,-0.10516250133514404,0.5559449195861816,0.13730376958847046,0.6037132143974304,-0.46416446566581726,0.25629571080207825,0.4098937213420868,-0.5585464835166931,-0.8011803030967712,-0.26566794514656067,0.6692761182785034,0.5340103507041931,-0.062071967869997025,-0.4281083941459656,-0.2119046300649643,-0.314901739358902,-0.011158742010593414,-0.31798723340034485,0.2048061341047287,-0.26087233424186707,-0.37483343482017517,-0.562028706073761,-0.26825812458992004,-0.3090367615222931,-0.6342325806617737,0.8414825201034546,0.3210466802120209,-0.5685370564460754,0.710202157497406,0.42689836025238037,0.07609841227531433,0.508975625038147,-0.5581483244895935,-0.7082456946372986,-0.019524255767464638,0.7298154234886169,-0.003780570812523365,0.19810758531093597,-0.41815581917762756,-0.2573581337928772,-0.5250594615936279,0.0739961564540863,0.37397903203964233,-0.6271871328353882,0.4323684573173523,-0.39673200249671936,0.13160264492034912,-0.687783420085907,-0.5825088620185852,0.013098707422614098,-0.0031494549475610256,0.2633536756038666,-0.021537961438298225,0.082011878490448,0.9411299228668213,1.0517911911010742,0.8893238306045532,0.8962717056274414,0.8718582391738892,0.017451951280236244,0.15488499402999878,-0.11120092868804932,-0.023372111842036247,-0.13745903968811035,0.7505668997764587,-0.5570072531700134,-0.19787292182445526,0.5901123881340027,-0.6052520275115967,-0.01018951740115881
0.8376208543777466,-0.3300672173500061,-0.0631643682718277,-1.1215323209762573,-0.34861186146736145,-0.03359156847000122,-0.9724950790405273,-0.7559500336647034,-1.0301272869110107,-0.5919861793518066,0.5848081707954407,1.0472776889801025,-0.45537060499191284,-0.30215954780578613,-0.8352872133255005,0.39897987246513367,0.3358551263809204,-0.1973927617073059,0.6647475957870483,-0.4629494845867157,-0.8599854111671448,-1.152366042137146,0.28499820828437805,0.7567532658576965,-0.7223765254020691,-0.8815034031867981,0.1825537532567978,-1.0424766540527344,0.9057344794273376,-0.04901584982872009,-0.4902738332748413,0.365331768989563,0.23308315873146057,1.2058840990066528,0.014030104503035545,0.6953630447387695,-0.836982786655426,0.20830349624156952,-0.1555800586938858,0.8403112888336182,-0.9673969745635986,0.4732297658920288,0.35241931676864624,-0.9970289468765259,0.871973991394043,0.27542105317115784,0.1889243721961975,-0.6477254033088684,-0.7333070635795593,-0.2796911597251892,0.37829017639160156,0.37285950779914856,0.16144156455993652,0.4128264784812927,0.18309003114700317,0.240738183259964,0.46923211216926575,-0.12413324415683746,0.11945892870426178,-0.07633621245622635,0.870181143283844,1.153795599937439,0.8651527166366577,0.9828578233718872,1.1317527294158936,0.8380988836288452,1.1036057472229004,1.1538108587265015,0.9882772564888,1.121431589126587,-0.13144554197788239,0.1474284678697586,-0.14658619463443756,-0.07110875099897385,0.08514658361673355,-0.16271910071372986,0.13482923805713654,0.12009929120540619,0.06552842259407043,0.1329781711101532,0.032205741852521896,-0.105312280356884,0.5560896992683411,0.13706672191619873,0.6045244932174683,-0.46334022283554077,0.2558090388774872,0.41009384393692017,-0.5575656890869141,-0.8013380169868469,-0.2651548683643341,0.6695220470428467,0.5337567329406738,-0.06248762086033821,-0.42811477184295654,-0.21300148963928223,-0.3155878186225891,-0.010776812210679054,-0.3169722855091095,0.20498858392238617,-0.2610178589820862,-0.3751507103443146,-0.5618202090263367,-0.2673572897911072,-0.3084304928779602,-0.6345564723014832,0.8421854972839355,0.32091012597084045,-0.568942666053772,0.7097282409667969,0.42690256237983704,0.07625619322061539,0.5089104771614075,-0.5586645007133484,-0.7081807851791382,-0.01877143792808056,0.7297777533531189,-0.004485304467380047,0.19861529767513275,-0.4180009961128235,-0.2574188709259033,-0.5256355404853821,0.0739484652876854,0.3744072914123535,-0.6275176405906677,0.4318358302116394,-0.3957369923591614,0.13225296139717102,-0.6878769397735596,-0.5836941003799438,0.013042866252362728,-0.0031299316324293613,0.2633479833602905,-0.021524054929614067,0.0820317417383194,0.9400994181632996,1.0509473085403442,0.8895239233970642,0.8958839774131775,0.8718309998512268,0.01718246564269066,0.15545812249183655,-0.11105187982320786,-0.023783264681696892,-0.13757359981536865,0.7495249509811401,-0.5562067031860352,-0.19814838469028473,0.5897179245948792,-0.6052339673042297,-0.009328333660960197
