hidden1.weight_weight_0,hidden1.weight_weight_1,hidden1.weight_weight_2,hidden1.weight_weight_3,hidden1.weight_weight_4,hidden1.weight_weight_5,hidden1.weight_weight_6,hidden1.weight_weight_7,hidden1.weight_weight_8,hidden1.weight_weight_9,hidden1.weight_weight_10,hidden1.weight_weight_11,hidden1.weight_weight_12,hidden1.weight_weight_13,hidden1.weight_weight_14,hidden1.weight_weight_15,hidden1.weight_weight_16,hidden1.weight_weight_17,hidden1.weight_weight_18,hidden1.weight_weight_19,hidden1.weight_weight_20,hidden1.weight_weight_21,hidden1.weight_weight_22,hidden1.weight_weight_23,hidden1.weight_weight_24,hidden1.weight_weight_25,hidden1.weight_weight_26,hidden1.weight_weight_27,hidden1.weight_weight_28,hidden1.weight_weight_29,hidden1.weight_weight_30,hidden1.weight_weight_31,hidden1.weight_weight_32,hidden1.weight_weight_33,hidden1.weight_weight_34,hidden1.weight_weight_35,hidden1.weight_weight_36,hidden1.weight_weight_37,hidden1.weight_weight_38,hidden1.weight_weight_39,hidden1.weight_weight_40,hidden1.weight_weight_41,hidden1.weight_weight_42,hidden1.weight_weight_43,hidden1.weight_weight_44,hidden1.weight_weight_45,hidden1.weight_weight_46,hidden1.weight_weight_47,hidden1.weight_weight_48,hidden1.weight_weight_49,hidden1.bias_weight_0,hidden1.bias_weight_1,hidden1.bias_weight_2,hidden1.bias_weight_3,hidden1.bias_weight_4,hidden1.bias_weight_5,hidden1.bias_weight_6,hidden1.bias_weight_7,hidden1.bias_weight_8,hidden1.bias_weight_9,bn1.weight_weight_0,bn1.weight_weight_1,bn1.weight_weight_2,bn1.weight_weight_3,bn1.weight_weight_4,bn1.weight_weight_5,bn1.weight_weight_6,bn1.weight_weight_7,bn1.weight_weight_8,bn1.weight_weight_9,bn1.bias_weight_0,bn1.bias_weight_1,bn1.bias_weight_2,bn1.bias_weight_3,bn1.bias_weight_4,bn1.bias_weight_5,bn1.bias_weight_6,bn1.bias_weight_7,bn1.bias_weight_8,bn1.bias_weight_9,hidden2.weight_weight_0,hidden2.weight_weight_1,hidden2.weight_weight_2,hidden2.weight_weight_3,hidden2.weight_weight_4,hidden2.weight_weight_5,hidden2.weight_weight_6,hidden2.weight_weight_7,hidden2.weight_weight_8,hidden2.weight_weight_9,hidden2.weight_weight_10,hidden2.weight_weight_11,hidden2.weight_weight_12,hidden2.weight_weight_13,hidden2.weight_weight_14,hidden2.weight_weight_15,hidden2.weight_weight_16,hidden2.weight_weight_17,hidden2.weight_weight_18,hidden2.weight_weight_19,hidden2.weight_weight_20,hidden2.weight_weight_21,hidden2.weight_weight_22,hidden2.weight_weight_23,hidden2.weight_weight_24,hidden2.weight_weight_25,hidden2.weight_weight_26,hidden2.weight_weight_27,hidden2.weight_weight_28,hidden2.weight_weight_29,hidden2.weight_weight_30,hidden2.weight_weight_31,hidden2.weight_weight_32,hidden2.weight_weight_33,hidden2.weight_weight_34,hidden2.weight_weight_35,hidden2.weight_weight_36,hidden2.weight_weight_37,hidden2.weight_weight_38,hidden2.weight_weight_39,hidden2.weight_weight_40,hidden2.weight_weight_41,hidden2.weight_weight_42,hidden2.weight_weight_43,hidden2.weight_weight_44,hidden2.weight_weight_45,hidden2.weight_weight_46,hidden2.weight_weight_47,hidden2.weight_weight_48,hidden2.weight_weight_49,hidden2.bias_weight_0,hidden2.bias_weight_1,hidden2.bias_weight_2,hidden2.bias_weight_3,hidden2.bias_weight_4,bn2.weight_weight_0,bn2.weight_weight_1,bn2.weight_weight_2,bn2.weight_weight_3,bn2.weight_weight_4,bn2.bias_weight_0,bn2.bias_weight_1,bn2.bias_weight_2,bn2.bias_weight_3,bn2.bias_weight_4,output.weight_weight_0,output.weight_weight_1,output.weight_weight_2,output.weight_weight_3,output.weight_weight_4,output.bias_weight_0
-0.8980963826179504,-0.9037861824035645,0.8901038765907288,-0.03762092441320419,0.8575801253318787,-0.5388953685760498,0.8077847957611084,-0.9083443284034729,-0.04392081871628761,0.33208778500556946,-0.36021319031715393,-0.21849633753299713,1.0114675760269165,-0.7899194359779358,-1.0794429779052734,-0.16512563824653625,0.9095311164855957,-1.0459738969802856,-0.026002828031778336,-0.19551017880439758,-0.6820563673973083,-0.11868485063314438,-0.12923341989517212,1.0339046716690063,0.8155022263526917,0.9930504560470581,1.006796956062317,1.009542465209961,0.7538206577301025,-0.15155565738677979,-0.23191869258880615,0.8184934854507446,0.9201600551605225,0.8216577172279358,-0.7333399057388306,0.6867278814315796,0.53614342212677,0.5050174593925476,0.5554780960083008,0.21767066419124603,-1.0622632503509521,0.3718830347061157,-0.6380165815353394,0.6939488053321838,0.6341829895973206,0.13747753202915192,0.7570149302482605,0.28180497884750366,0.572357177734375,-1.0943851470947266,-0.03170711174607277,0.31089815497398376,0.3498814105987549,0.0035188787151128054,0.09813076257705688,0.37006014585494995,0.2674452066421509,0.1485046148300171,-0.3121647834777832,-0.280449241399765,1.0098999738693237,1.0098999738693237,0.9898999929428101,0.9898999929428101,0.9898999929428101,1.0098999738693237,0.9898999929428101,1.0098999738693237,1.0098999738693237,0.9898999929428101,0.009999996982514858,0.009999986737966537,-0.009999998845160007,-0.009999971836805344,-0.009999999776482582,0.009999998845160007,-0.009999998845160007,0.009999997913837433,0.009999997913837433,-0.009999997913837433,-0.5882745385169983,-0.17945027351379395,-0.014928886666893959,-0.2686398923397064,0.367389440536499,-0.14071334898471832,0.05130169168114662,-0.2659931778907776,-0.3702486753463745,0.2388264685869217,-0.3388992249965668,-0.7156015038490295,-0.33372175693511963,0.040443237870931625,-0.6534428000450134,0.5272538065910339,-0.034300435334444046,-0.7100850343704224,-0.13089518249034882,-0.38783952593803406,0.28882884979248047,-0.1420271098613739,0.2817695736885071,-0.6514323353767395,-0.5212329626083374,-0.22046232223510742,0.6707532405853271,0.15379402041435242,-0.6808527708053589,-0.7504568696022034,0.37801140546798706,-0.22811445593833923,0.40350982546806335,0.2173137664794922,-0.18888244032859802,0.6267564296722412,-0.5940029621124268,0.7289385795593262,0.528584361076355,-0.24028965830802917,0.6684952974319458,-0.014223878271877766,0.056783877313137054,0.5909132957458496,0.34231528639793396,-0.5898838639259338,0.6138905882835388,-0.6400569677352905,0.49976977705955505,-0.4406778812408447,-0.12221098691225052,0.09526745229959488,-0.15884026885032654,-0.09152248501777649,-0.08204171806573868,1.0098999738693237,0.9898999929428101,0.9898999929428101,0.9898999929428101,0.9898999929428101,0.009999997913837433,-0.009999998845160007,-0.009999998845160007,-0.009999998845160007,-0.009999996982514858,-0.15179647505283356,0.5939483642578125,0.35152825713157654,0.7702422738075256,0.04870482534170151,0.12588746845722198
-0.8896064758300781,-0.8941704034805298,0.8987352252006531,-0.028042715042829514,0.8669588565826416,-0.5421136617660522,0.801025927066803,-0.9167588949203491,-0.0524844154715538,0.3234049677848816,-0.35131537914276123,-0.2085868865251541,1.001421332359314,-0.7991662621498108,-1.089169979095459,-0.17496421933174133,0.9049907326698303,-1.0555334091186523,-0.01648411527276039,-0.18590563535690308,-0.690554678440094,-0.12764392793178558,-0.13867267966270447,1.0246871709823608,0.8075143098831177,0.9830594658851624,1.0103261470794678,1.019020915031433,0.7633106708526611,-0.14229851961135864,-0.2218891829252243,0.828376829624176,0.928145170211792,0.8120689988136292,-0.7423064708709717,0.6769267916679382,0.5448192954063416,0.4950937032699585,0.5650070905685425,0.22691655158996582,-1.0531373023986816,0.381238728761673,-0.629713237285614,0.7027996182441711,0.641694962978363,0.13991376757621765,0.7475985288619995,0.2724297046661377,0.5628129243850708,-1.1035960912704468,-0.02894515171647072,0.30674508213996887,0.3489004373550415,0.0020174377132207155,0.09890059381723404,0.3699025809764862,0.2695263624191284,0.14710776507854462,-0.311103880405426,-0.28196120262145996,1.0195716619491577,1.0036457777023315,0.9811713695526123,0.9837562441825867,0.9801254868507385,1.0162996053695679,0.9859088063240051,1.0095301866531372,1.0196630954742432,0.980401873588562,0.020012322813272476,0.0071100275963544846,-0.018512550741434097,-0.003414795733988285,-0.01973719522356987,0.017978861927986145,-0.016239847987890244,0.018033446744084358,0.020005714148283005,-0.01894369348883629,-0.5966308116912842,-0.1893213987350464,-0.0049219150096178055,-0.2589932084083557,0.35748302936553955,-0.15070585906505585,0.04129750281572342,-0.27596184611320496,-0.3800649046897888,0.22883576154708862,-0.3291911482810974,-0.7250925302505493,-0.3435232937335968,0.03049822524189949,-0.6435960531234741,0.5369141101837158,-0.024543248116970062,-0.7002964019775391,-0.13917677104473114,-0.3784434497356415,0.2987748384475708,-0.15168702602386475,0.27197402715682983,-0.6610470414161682,-0.5113676190376282,-0.2107556015253067,0.6804180145263672,0.1634293496608734,-0.6874486207962036,-0.7406343221664429,0.3878469467163086,-0.21815049648284912,0.39454272389411926,0.20993264019489288,-0.17927303910255432,0.6298210024833679,-0.5866954922676086,0.7338275909423828,0.5384257435798645,-0.2490297108888626,0.6782646179199219,-0.00517423078417778,0.04708231985569,0.5810207724571228,0.3519192337989807,-0.5800911784172058,0.6234622001647949,-0.630283534526825,0.509485125541687,-0.43082770705223083,-0.11884219944477081,0.08979261666536331,-0.15254132449626923,-0.08464279770851135,-0.08150055259466171,1.0197679996490479,0.9798078536987305,0.9798247814178467,0.9798550009727478,0.9800212383270264,0.01998327672481537,-0.020002542063593864,-0.019994569942355156,-0.019903240725398064,-0.01983611285686493,-0.16176816821098328,0.5838983058929443,0.3415147662162781,0.7602218389511108,0.03879348561167717,0.1158657968044281
-0.882798433303833,-0.8851468563079834,0.9061252474784851,-0.018976561725139618,0.8756383061408997,-0.5406585931777954,0.7978590726852417,-0.9236187934875488,-0.059517502784729004,0.3159291446208954,-0.34403157234191895,-0.1991662085056305,0.9915357828140259,-0.8074473142623901,-1.0984894037246704,-0.18488867580890656,0.8976529240608215,-1.0650995969772339,-0.007655208930373192,-0.17695066332817078,-0.6983517408370972,-0.1356779783964157,-0.14801591634750366,1.015738844871521,0.8010738492012024,0.9732153415679932,1.0134737491607666,1.028456449508667,0.7725744843482971,-0.13373160362243652,-0.21197105944156647,0.8379987478256226,0.9369640946388245,0.8030144572257996,-0.7499160766601562,0.6674315333366394,0.5539796948432922,0.48536479473114014,0.5742115378379822,0.23529517650604248,-1.0455968379974365,0.3894122540950775,-0.6237751245498657,0.7101712226867676,0.6460675001144409,0.14588668942451477,0.7389239072799683,0.2633439302444458,0.5534768104553223,-1.1123671531677246,-0.027768220752477646,0.3036856949329376,0.3491919934749603,0.0010390881216153502,0.09776756167411804,0.3701179325580597,0.27037131786346436,0.14561420679092407,-0.3107278048992157,-0.2826971113681793,1.0291218757629395,0.996252715587616,0.9735577702522278,0.979871928691864,0.9706277251243591,1.0202112197875977,0.9858332872390747,1.005031704902649,1.0291553735733032,0.9714285135269165,0.03002241626381874,0.0015266919508576393,-0.025850024074316025,0.004681870341300964,-0.02931978553533554,0.024021677672863007,-0.019175266847014427,0.02385050244629383,0.02987581677734852,-0.026855308562517166,-0.6033916473388672,-0.1962742954492569,0.004999964032322168,-0.24933308362960815,0.34787440299987793,-0.1606827974319458,0.03134872019290924,-0.28589627146720886,-0.38930821418762207,0.21881365776062012,-0.3194316327571869,-0.7344068288803101,-0.3531968593597412,0.020540334284305573,-0.6337693929672241,0.5464268326759338,-0.014928190968930721,-0.6906500458717346,-0.14538495242595673,-0.3697686791419983,0.30873438715934753,-0.16107624769210815,0.2623617947101593,-0.6704899072647095,-0.501548707485199,-0.2013269066810608,0.689863920211792,0.1727539598941803,-0.6876285672187805,-0.731065571308136,0.3976227939128876,-0.2082350105047226,0.38636261224746704,0.20405837893486023,-0.17011739313602448,0.6286435127258301,-0.5814183950424194,0.7349713444709778,0.5480563044548035,-0.25830620527267456,0.6876440644264221,0.0021965522319078445,0.03779987245798111,0.5714016556739807,0.3609519898891449,-0.5707972049713135,0.6324288249015808,-0.621046781539917,0.5187627077102661,-0.42144089937210083,-0.11457616090774536,0.08429929614067078,-0.14929936826229095,-0.07709069550037384,-0.08100264519453049,1.0296458005905151,0.9697286486625671,0.9697884321212769,0.9698571562767029,0.9704863429069519,0.029990609735250473,-0.02999928966164589,-0.029975242912769318,-0.029713904485106468,-0.02934076637029648,-0.17176026105880737,0.5738656520843506,0.3315370976924896,0.7502515316009521,0.0290006585419178,0.10583435744047165
-0.8775140643119812,-0.8766485452651978,0.9123367667198181,-0.010325332172214985,0.8837195634841919,-0.5364080667495728,0.7977129817008972,-0.9292113184928894,-0.06544996052980423,0.30923107266426086,-0.33701255917549133,-0.18958966434001923,0.9820986986160278,-0.8150455951690674,-1.1074870824813843,-0.19481296837329865,0.8892784118652344,-1.0748180150985718,0.0007714759558439255,-0.1685168445110321,-0.7048733234405518,-0.14150254428386688,-0.15696704387664795,1.0075600147247314,0.7970921993255615,0.9635883569717407,1.0147336721420288,1.0377808809280396,0.7815959453582764,-0.12574362754821777,-0.20219534635543823,0.8476975560188293,0.9461996555328369,0.7943607568740845,-0.7559581398963928,0.6582783460617065,0.5632976293563843,0.4755515158176422,0.5830830931663513,0.24287723004817963,-1.0394854545593262,0.3964134752750397,-0.6202647686004639,0.7162377834320068,0.6476997137069702,0.15342959761619568,0.7314911484718323,0.254795104265213,0.5444174408912659,-1.120491623878479,-0.026227230206131935,0.30113375186920166,0.34956738352775574,4.5997672714293e-05,0.09693314880132675,0.3701317012310028,0.26964589953422546,0.14498932659626007,-0.31115901470184326,-0.2838316559791565,1.0385864973068237,0.9879957437515259,0.9667729139328003,0.9785303473472595,0.961389422416687,1.0211035013198853,0.9888450503349304,0.9984933733940125,1.0384567975997925,0.9636174440383911,0.03995551913976669,-0.005767411086708307,-0.03219018131494522,0.013458197005093098,-0.03875073790550232,0.027361787855625153,-0.01916675828397274,0.027045832946896553,0.03948960453271866,-0.03308875486254692,-0.6065744757652283,-0.20271490514278412,0.014505090191960335,-0.24020765721797943,0.33894622325897217,-0.17050257325172424,0.021607838571071625,-0.29562824964523315,-0.3971335291862488,0.20888003706932068,-0.30964940786361694,-0.7432479858398438,-0.36269471049308777,0.010583258233964443,-0.6240757703781128,0.5555786490440369,-0.005692419596016407,-0.6813478469848633,-0.1482471227645874,-0.3627612590789795,0.3187336027622223,-0.17014342546463013,0.25294870138168335,-0.6797667145729065,-0.4917617738246918,-0.19223709404468536,0.6990259289741516,0.18170709908008575,-0.6835931539535522,-0.7218387722969055,0.40740782022476196,-0.19836632907390594,0.37874743342399597,0.19969886541366577,-0.16128550469875336,0.6244655847549438,-0.5785670876502991,0.732930600643158,0.5575690269470215,-0.2678600251674652,0.6962881684303284,0.0078018405474722385,0.029158450663089752,0.5622332096099854,0.3692416250705719,-0.5622261762619019,0.6406016945838928,-0.612571656703949,0.5274115800857544,-0.4127524197101593,-0.11115407943725586,0.08059805631637573,-0.14757069945335388,-0.07311991602182388,-0.08065983653068542,1.0395607948303223,0.9596697688102722,0.959805965423584,0.9599155783653259,0.9614493250846863,0.040036074817180634,-0.03997693210840225,-0.03993511572480202,-0.039495766162872314,-0.038320064544677734,-0.18179067969322205,0.5638598203659058,0.3216097056865692,0.7403426170349121,0.019360126927495003,0.09579547494649887
-0.8739724159240723,-0.8688366413116455,0.917030394077301,-0.002221246249973774,0.891111433506012,-0.5307373404502869,0.7997034788131714,-0.9334220290184021,-0.07006020843982697,0.3034384846687317,-0.3297983407974243,-0.17987953126430511,0.9732341766357422,-0.8218715786933899,-1.1162469387054443,-0.20473675429821014,0.8803872466087341,-1.0845626592636108,0.00893563125282526,-0.16039296984672546,-0.7101648449897766,-0.1447976678609848,-0.16549737751483917,1.0002939701080322,0.7950645089149475,0.954225480556488,1.0126607418060303,1.0470207929611206,0.7904049158096313,-0.11823111772537231,-0.19266952574253082,0.8575180172920227,0.9556117653846741,0.7861405611038208,-0.7605305910110474,0.6495724320411682,0.5725469589233398,0.46570122241973877,0.5915656089782715,0.24954070150852203,-1.0346367359161377,0.40227773785591125,-0.6187804341316223,0.7210832834243774,0.6474277377128601,0.16121061146259308,0.7255622744560242,0.24676144123077393,0.535766065120697,-1.1278975009918213,-0.024395236745476723,0.29944801330566406,0.34960126876831055,7.915339665487409e-05,0.09664765000343323,0.37002503871917725,0.269032746553421,0.14409281313419342,-0.3120396137237549,-0.2844364643096924,1.0479117631912231,0.9792490601539612,0.9607858657836914,0.9783481955528259,0.9524573087692261,1.0198748111724854,0.9935302734375,0.9909031391143799,1.0475237369537354,0.957282304763794,0.04963763803243637,-0.013992005959153175,-0.03753126785159111,0.02247229591012001,-0.048045795410871506,0.028479078784585,-0.01728672906756401,0.028206994757056236,0.0487685427069664,-0.03781260550022125,-0.608394980430603,-0.2056274712085724,0.023419003933668137,-0.23100586235523224,0.3306138813495636,-0.1801225244998932,0.012130701914429665,-0.3051126301288605,-0.40385544300079346,0.19916276633739471,-0.2997680902481079,-0.7514805197715759,-0.37200942635536194,0.000741221010684967,-0.6145210862159729,0.5643229484558105,0.003083243500441313,-0.6724167466163635,-0.1483844816684723,-0.35796424746513367,0.3287581205368042,-0.17897629737854004,0.24394214153289795,-0.6884691119194031,-0.48220664262771606,-0.1838320940732956,0.7076132893562317,0.18994025886058807,-0.6780311465263367,-0.7130987644195557,0.417131632566452,-0.18861961364746094,0.3716169595718384,0.19675971567630768,-0.15282359719276428,0.6186413764953613,-0.5777629017829895,0.728922963142395,0.566889762878418,-0.27756229043006897,0.7039781808853149,0.011872109025716782,0.02158687822520733,0.5536943078041077,0.3765726387500763,-0.5547549724578857,0.6476903557777405,-0.6052187085151672,0.5351772904396057,-0.4050513803958893,-0.10867571830749512,0.08178606629371643,-0.14574044942855835,-0.06969290971755981,-0.08039043843746185,1.0495272874832153,0.9496389627456665,0.9498960971832275,0.9500514268875122,0.9530467987060547,0.05012563616037369,-0.04991845786571503,-0.049821022897958755,-0.04925084859132767,-0.0465000756084919,-0.19186490774154663,0.5538901686668396,0.3117483854293823,0.7305187582969666,0.009857536293566227,0.08575335144996643
-0.8722737431526184,-0.8618610501289368,0.9199236035346985,0.005241836421191692,0.8977615833282471,-0.5241320133209229,0.8030806183815002,-0.9366205930709839,-0.07351213693618774,0.298447847366333,-0.32227087020874023,-0.17005623877048492,0.9651689529418945,-0.8280022144317627,-1.1246951818466187,-0.2145514339208603,0.8712092041969299,-1.0942777395248413,0.016749773174524307,-0.15254981815814972,-0.7141530513763428,-0.14589932560920715,-0.1736685335636139,0.9944618344306946,0.7936564087867737,0.9451547861099243,1.0080150365829468,1.0561636686325073,0.7990257740020752,-0.11108646541833878,-0.18347476422786713,0.8674205541610718,0.965079665184021,0.7783789038658142,-0.7637048363685608,0.6413989663124084,0.5816478729248047,0.455800861120224,0.5996147394180298,0.25519296526908875,-1.0309702157974243,0.40698155760765076,-0.6190716028213501,0.7247424125671387,0.6457054615020752,0.16919934749603271,0.7209795713424683,0.23927277326583862,0.5274796485900879,-1.1346372365951538,-0.02284567803144455,0.29780712723731995,0.35040345788002014,0.00035235454561188817,0.09673348069190979,0.36925262212753296,0.2684965431690216,0.14314092695713043,-0.3117492198944092,-0.28479793667793274,1.056994915008545,0.9702798128128052,0.9554994702339172,0.9792054891586304,0.9438416361808777,1.0172805786132812,0.9992014169692993,0.982689380645752,1.056287407875061,0.9526540637016296,0.05905561521649361,-0.02266916073858738,-0.04203315079212189,0.03155112266540527,-0.05715474486351013,0.027931591495871544,-0.014133580029010773,0.02770889177918434,0.057585105299949646,-0.04112337529659271,-0.6081744432449341,-0.20879346132278442,0.031406790018081665,-0.22223706543445587,0.3230757713317871,-0.1893237978219986,0.003157917410135269,-0.31412819027900696,-0.4091813862323761,0.1899746060371399,-0.28977134823799133,-0.7590318918228149,-0.38111013174057007,-0.00890317838639021,-0.6050599217414856,0.5727477073669434,0.01145465299487114,-0.6637598872184753,-0.1470877081155777,-0.3556044399738312,0.3387935161590576,-0.18736925721168518,0.23542658984661102,-0.6964834928512573,-0.47285085916519165,-0.17618422210216522,0.7155606150627136,0.19740237295627594,-0.6713641881942749,-0.7050382494926453,0.42670750617980957,-0.17906445264816284,0.3649057447910309,0.19506700336933136,-0.14477084577083588,0.6118748784065247,-0.578477680683136,0.7237157225608826,0.5759527087211609,-0.28724372386932373,0.7108350396156311,0.014994438737630844,0.014931876212358475,0.5459170341491699,0.3830353915691376,-0.5482052564620972,0.6538758873939514,-0.5987895131111145,0.5420792698860168,-0.3982471823692322,-0.10618195682764053,0.08058902621269226,-0.144496351480484,-0.06707725673913956,-0.0801832303404808,1.0595510005950928,0.9396443963050842,0.940077543258667,0.9402967691421509,0.9454138278961182,0.06026531010866165,-0.05981750041246414,-0.059603385627269745,-0.05894368141889572,-0.05384150892496109,-0.20198160409927368,0.543967068195343,0.3019694685935974,0.7208139300346375,0.0004724860191345215,0.07571505755186081
-0.8720421195030212,-0.8556006550788879,0.9211695790290833,0.01216459833085537,0.9038671255111694,-0.5167927742004395,0.8076132535934448,-0.9388819336891174,-0.07585889101028442,0.2941838502883911,-0.3142347037792206,-0.16009649634361267,0.9571264386177063,-0.8342276215553284,-1.133266568183899,-0.22421497106552124,0.8618124127388,-1.1039785146713257,0.024064073339104652,-0.14507222175598145,-0.7172989845275879,-0.14560899138450623,-0.18167875707149506,0.9895408153533936,0.7924942970275879,0.9363262057304382,1.0017521381378174,1.0652451515197754,0.8075066208839417,-0.10413740575313568,-0.17463292181491852,0.8773228526115417,0.9745498299598694,0.7711414694786072,-0.7655969858169556,0.6338116526603699,0.5906985998153687,0.44583937525749207,0.6071585416793823,0.259806752204895,-1.0285224914550781,0.41046828031539917,-0.620953381061554,0.727147102355957,0.6427730321884155,0.1773347705602646,0.7174288034439087,0.23220181465148926,0.5194661617279053,-1.140856385231018,-0.021181238815188408,0.2967054843902588,0.3514705300331116,0.000426083046477288,0.09637773782014847,0.36881181597709656,0.26721450686454773,0.14235621690750122,-0.31096285581588745,-0.2846624553203583,1.065770149230957,0.9618886709213257,0.9505516290664673,0.9813387989997864,0.935531735420227,1.0135043859481812,1.0056298971176147,0.9740768074989319,1.0647026300430298,0.9500864148139954,0.06807999312877655,-0.03131726011633873,-0.04581838473677635,0.04072422534227371,-0.06607754528522491,0.025842765346169472,-0.0099396463483572,0.02598581090569496,0.06595105677843094,-0.042800892144441605,-0.6064951419830322,-0.21383148431777954,0.03815549612045288,-0.2142971009016037,0.31642451882362366,-0.1978207528591156,-0.005039254203438759,-0.3223952353000641,-0.413143515586853,0.18169887363910675,-0.2796748876571655,-0.7665181159973145,-0.38957521319389343,-0.01859559491276741,-0.5957531929016113,0.5807172656059265,0.01925531029701233,-0.6554756760597229,-0.1455148607492447,-0.3561769723892212,0.3488483428955078,-0.1953463852405548,0.22732144594192505,-0.7040085196495056,-0.4635646939277649,-0.16916456818580627,0.7229602932929993,0.20424619317054749,-0.6637604832649231,-0.6976574063301086,0.43608906865119934,-0.16972756385803223,0.3586050868034363,0.19457000494003296,-0.13713739812374115,0.6044648289680481,-0.5804822444915771,0.7176545262336731,0.584723711013794,-0.2968674898147583,0.716819167137146,0.0177017655223608,0.00911692064255476,0.539101779460907,0.38867852091789246,-0.5424782633781433,0.659269392490387,-0.5931678414344788,0.548106849193573,-0.39229702949523926,-0.10408717393875122,0.07778855413198471,-0.14288073778152466,-0.06456264853477478,-0.08001307398080826,1.0696330070495605,0.9297012090682983,0.9303708672523499,0.9306930303573608,0.9387191534042358,0.0704556480050087,-0.06962629407644272,-0.06927467882633209,-0.06855560839176178,-0.06026259437203407,-0.2121349275112152,0.5341050624847412,0.29229283332824707,0.7112728953361511,-0.008795687928795815,0.06569012254476547
-0.8726574182510376,-0.8499128222465515,0.921285092830658,0.018649263307452202,0.909568190574646,-0.5090395212173462,0.8129962682723999,-0.9400565028190613,-0.07686788588762283,0.2909364700317383,-0.30584627389907837,-0.1500655561685562,0.9492506980895996,-0.8404292464256287,-1.1418133974075317,-0.23374998569488525,0.8522751927375793,-1.1136102676391602,0.030819281935691833,-0.13795222342014313,-0.7199982404708862,-0.1444835662841797,-0.1896309107542038,0.9851583242416382,0.7910913228988647,0.9278224110603333,0.9946650266647339,1.0742535591125488,0.8156471848487854,-0.09739327430725098,-0.16624142229557037,0.886732816696167,0.98378586769104,0.7647727727890015,-0.7665855288505554,0.6268587708473206,0.5998189449310303,0.43599334359169006,0.6139650344848633,0.2636091411113739,-1.0270370244979858,0.4129638075828552,-0.623971164226532,0.7285541892051697,0.638985812664032,0.18524804711341858,0.7144105434417725,0.22544442117214203,0.5117794871330261,-1.1466699838638306,-0.020012017339468002,0.29543086886405945,0.3527092933654785,0.0010036027524620295,0.09640589356422424,0.36869001388549805,0.26595810055732727,0.14183057844638824,-0.3102996051311493,-0.284609854221344,1.0741139650344849,0.9539934396743774,0.9457463026046753,0.9841938018798828,0.9275882840156555,1.009137511253357,1.0123742818832397,0.9653643369674683,1.072698712348938,0.9491907954216003,0.07653626799583435,-0.04004842787981033,-0.049212746322155,0.049794431775808334,-0.07478410750627518,0.022750575095415115,-0.00524866720661521,0.023688621819019318,0.0737541913986206,-0.04319273307919502,-0.6040238738059998,-0.21966181695461273,0.04372867941856384,-0.20692548155784607,0.3103768527507782,-0.2056899517774582,-0.012508407235145569,-0.33001282811164856,-0.4161068797111511,0.17443279922008514,-0.26950910687446594,-0.7736777067184448,-0.39733946323394775,-0.028077788650989532,-0.586775541305542,0.5882061719894409,0.026484273374080658,-0.6476196050643921,-0.14495183527469635,-0.35870859026908875,0.3588721752166748,-0.20297656953334808,0.2195669263601303,-0.7109751105308533,-0.45442044734954834,-0.16281819343566895,0.7297320365905762,0.21043558418750763,-0.6556487679481506,-0.6910006403923035,0.4451000690460205,-0.16072885692119598,0.3526090383529663,0.1948888599872589,-0.12999774515628815,0.5968101024627686,-0.5832687616348267,0.7112000584602356,0.5931054353713989,-0.30630141496658325,0.7219341993331909,0.020470038056373596,0.004057084675878286,0.5334256291389465,0.3935661315917969,-0.5374441146850586,0.6640034914016724,-0.5882135629653931,0.553279459476471,-0.38710397481918335,-0.10124849528074265,0.07600386440753937,-0.1408117115497589,-0.0621316060423851,-0.07986550033092499,1.0797711610794067,0.9198278784751892,0.9208027720451355,0.9212967753410339,0.9331169128417969,0.08069601655006409,-0.07929733395576477,-0.07880996912717819,-0.07796274870634079,-0.06572691351175308,-0.2223171889781952,0.5243214964866638,0.2827438414096832,0.7019501328468323,-0.01792595535516739,0.0556911937892437
-0.8742989301681519,-0.8449298143386841,0.9201995730400085,0.02464132010936737,0.9147458672523499,-0.500869631767273,0.8191438913345337,-0.940180778503418,-0.07674390077590942,0.28868672251701355,-0.29726067185401917,-0.13997821509838104,0.9418181777000427,-0.845804750919342,-1.1502726078033447,-0.24309314787387848,0.8426851034164429,-1.1231131553649902,0.0371011421084404,-0.13120174407958984,-0.7228757739067078,-0.14317961037158966,-0.1977066695690155,0.9807648062705994,0.7885460257530212,0.9196115136146545,0.9869334697723389,1.0832033157348633,0.8234908580780029,-0.09067881107330322,-0.15828581154346466,0.8954983353614807,0.9927288293838501,0.7594277262687683,-0.7667619585990906,0.6206498146057129,0.6089905500411987,0.4264291524887085,0.6199192404747009,0.2665262818336487,-1.0266507863998413,0.4144091010093689,-0.6279881000518799,0.7289370894432068,0.6343306303024292,0.19254934787750244,0.7116125226020813,0.2188897430896759,0.5043047070503235,-1.1522507667541504,-0.018990706652402878,0.29392027854919434,0.3532963693141937,0.0014288785168901086,0.09654995799064636,0.3687633275985718,0.26528534293174744,0.14150744676589966,-0.3091185390949249,-0.28436240553855896,1.081946611404419,0.9469332098960876,0.94122713804245,0.9874914884567261,0.9199141263961792,1.0044021606445312,1.019287109375,0.9565336108207703,1.0802757740020752,0.950030505657196,0.08416725695133209,-0.04894166439771652,-0.05197965353727341,0.05870812013745308,-0.08338664472103119,0.018853385001420975,-0.0002003684639930725,0.020718157291412354,0.08095168322324753,-0.04231494665145874,-0.601222813129425,-0.22640976309776306,0.04800710454583168,-0.20025570690631866,0.3048907518386841,-0.21279366314411163,-0.019087092950940132,-0.33686158061027527,-0.41828274726867676,0.1684526652097702,-0.25925856828689575,-0.7806668281555176,-0.40467286109924316,-0.037456922233104706,-0.5777303576469421,0.5954055786132812,0.03328106179833412,-0.6399745345115662,-0.14344185590744019,-0.3629218339920044,0.3687964081764221,-0.2101047933101654,0.21225802600383759,-0.7172291874885559,-0.4455297589302063,-0.15724177658557892,0.7356774806976318,0.21590211987495422,-0.6475091576576233,-0.685200035572052,0.4537063241004944,-0.15211878716945648,0.3468933701515198,0.19584104418754578,-0.12338580936193466,0.5890004634857178,-0.5867526531219482,0.7044627070426941,0.6010793447494507,-0.3155910074710846,0.7261077165603638,0.023714376613497734,-0.00029240362346172333,0.529058039188385,0.3977433741092682,-0.5330144762992859,0.668175220489502,-0.5838325023651123,0.5576143264770508,-0.3825942873954773,-0.1005081906914711,0.07575877755880356,-0.1394757330417633,-0.05949190631508827,-0.0797472670674324,1.0899618864059448,0.9100399613380432,0.911400556564331,0.9121719598770142,0.9286928772926331,0.09098370373249054,-0.08883844316005707,-0.08819767832756042,-0.0870315283536911,-0.07022294402122498,-0.23251990973949432,0.5146355628967285,0.27335038781166077,0.6929057836532593,-0.026865694671869278,0.04573393985629082
-0.8767877817153931,-0.840610682964325,0.9181308746337891,0.030169149860739708,0.9194207191467285,-0.4925091564655304,0.8256953358650208,-0.9395134449005127,-0.07568720728158951,0.28741082549095154,-0.2885412275791168,-0.12993822991847992,0.9347626566886902,-0.8505532741546631,-1.1585962772369385,-0.25216084718704224,0.8332807421684265,-1.132226586341858,0.043019670993089676,-0.12475862354040146,-0.7262122631072998,-0.1422303169965744,-0.20594657957553864,0.9759601950645447,0.7849076390266418,0.9117199778556824,0.9787968993186951,1.0920504331588745,0.8309786915779114,-0.08410517126321793,-0.15078963339328766,0.9035947918891907,1.0014152526855469,0.7550227642059326,-0.7662146091461182,0.6151413917541504,0.6180461049079895,0.4171817898750305,0.6251188516616821,0.26871755719184875,-1.0272302627563477,0.41491204500198364,-0.6327701210975647,0.7284612655639648,0.6289722323417664,0.1993328183889389,0.7088629603385925,0.21250954270362854,0.4969923198223114,-1.1576652526855469,-0.01784393936395645,0.2927777171134949,0.35379528999328613,0.0019395863637328148,0.09644095599651337,0.36910417675971985,0.2647569477558136,0.14134642481803894,-0.30826878547668457,-0.2840310037136078,1.0891870260238647,0.9414719343185425,0.9370133280754089,0.9910786151885986,0.9124414920806885,0.9995611906051636,1.0261670351028442,0.9476464986801147,1.0874134302139282,0.9522534012794495,0.09105858206748962,-0.05791045352816582,-0.05412989482283592,0.06737072765827179,-0.0918896421790123,0.014441123232245445,0.004981180652976036,0.01708136685192585,0.0877242162823677,-0.040418703109025955,-0.5987321138381958,-0.23394477367401123,0.05095735937356949,-0.19435687363147736,0.2999476194381714,-0.21886467933654785,-0.024488287046551704,-0.3426998555660248,-0.42034706473350525,0.1641400009393692,-0.24892613291740417,-0.7877818942070007,-0.411655455827713,-0.04674532264471054,-0.5684950947761536,0.6024579405784607,0.03985325247049332,-0.6324397921562195,-0.14020489156246185,-0.3682207763195038,0.3785433769226074,-0.21677236258983612,0.20546090602874756,-0.7226835489273071,-0.4369266927242279,-0.15246468782424927,0.7407608032226562,0.22063685953617096,-0.6394496560096741,-0.6804157495498657,0.46185827255249023,-0.14394402503967285,0.34143295884132385,0.1972968578338623,-0.11727719753980637,0.5811877846717834,-0.590694785118103,0.6976190209388733,0.6086236238479614,-0.32461756467819214,0.7290172576904297,0.027809809893369675,-0.003964602015912533,0.5262619256973267,0.4012802243232727,-0.5290591716766357,0.6719184517860413,-0.5798968076705933,0.5611527562141418,-0.3786074221134186,-0.10129629075527191,0.0759136825799942,-0.13855299353599548,-0.05727014318108559,-0.0796607956290245,1.100200891494751,0.9003611207008362,0.9021986126899719,0.9033946990966797,0.9253965616226196,0.10130666196346283,-0.09822601079940796,-0.09737110882997513,-0.09567692130804062,-0.07383962720632553,-0.24273379147052765,0.5050720572471619,0.2641412615776062,0.6842139959335327,-0.03552703186869621,0.0358370766043663
-0.8782745003700256,-0.8386904001235962,0.916808009147644,0.03276129812002182,0.921557605266571,-0.48825952410697937,0.8290874361991882,-0.9389029741287231,-0.07482792437076569,0.2871703803539276,-0.28409650921821594,-0.12499022483825684,0.9312519431114197,-0.8525023460388184,-1.162791132926941,-0.2565172016620636,0.8287225365638733,-1.1365456581115723,0.0457698293030262,-0.12173166871070862,-0.7283207178115845,-0.14223654568195343,-0.21021489799022675,0.9731385707855225,0.7824152112007141,0.9079418182373047,0.9745548367500305,1.096431016921997,0.8345350623130798,-0.08087865263223648,-0.1472688764333725,0.9073246717453003,1.0056291818618774,0.7532540559768677,-0.765623927116394,0.6127342581748962,0.62251877784729,0.4127613306045532,0.6273515820503235,0.2694530487060547,-1.0278209447860718,0.41488173604011536,-0.6353613138198853,0.7279646992683411,0.6260807514190674,0.20249062776565552,0.7074041366577148,0.209385946393013,0.4934007227420807,-1.1603244543075562,-0.017348941415548325,0.2921474874019623,0.3539065420627594,0.0022018123418092728,0.0965031236410141,0.3692481219768524,0.26460298895835876,0.1412481665611267,-0.3078218996524811,-0.28381726145744324,1.0925027132034302,0.9396904706954956,0.9350340962409973,0.9930734038352966,0.9087608456611633,0.997185468673706,1.029499888420105,0.9432369470596313,1.0907411575317383,0.9539179801940918,0.09419718384742737,-0.062311168760061264,-0.054855380207300186,0.07158824056386948,-0.0961257591843605,0.012126023881137371,0.007536743767559528,0.015112828463315964,0.09086111932992935,-0.039193786680698395,-0.5978373885154724,-0.23796197772026062,0.0518052838742733,-0.19175377488136292,0.29770392179489136,-0.22139087319374084,-0.026594113558530807,-0.34512704610824585,-0.4214199483394623,0.16281378269195557,-0.2437240481376648,-0.7914403676986694,-0.4149519205093384,-0.05136770009994507,-0.5637757182121277,0.6059076189994812,0.04299994558095932,-0.628732442855835,-0.13775880634784698,-0.3713146150112152,0.3833714723587036,-0.21991221606731415,0.20226244628429413,-0.7251133918762207,-0.4326876997947693,-0.150411918759346,0.7429277300834656,0.22270604968070984,-0.6353076100349426,-0.6785176396369934,0.4656727910041809,-0.14009308815002441,0.3388321101665497,0.19823922216892242,-0.11445845663547516,0.5773597359657288,-0.592768132686615,0.6942309141159058,0.6121712327003479,-0.32891786098480225,0.7296642065048218,0.03040364384651184,-0.005452134646475315,0.5257529020309448,0.4027200937271118,-0.5273451209068298,0.6735621690750122,-0.5781773328781128,0.5625134110450745,-0.3768511414527893,-0.1022755429148674,0.07597645372152328,-0.13850180804729462,-0.056006453931331635,-0.07963138818740845,1.1053413152694702,0.895591139793396,0.8977173566818237,0.8992221355438232,0.9242213368415833,0.10648398846387863,-0.10282754898071289,-0.10183214396238327,-0.09976337105035782,-0.07523403316736221,-0.24784134328365326,0.5003666877746582,0.2596481442451477,0.6800867915153503,-0.03965181112289429,0.030930235981941223
-0.8798770904541016,-0.8369407057762146,0.9153153300285339,0.03523106127977371,0.9235462546348572,-0.48395925760269165,0.8325485587120056,-0.9381008744239807,-0.07372774928808212,0.2872280180454254,-0.27956539392471313,-0.12007135152816772,0.9278010725975037,-0.8540166616439819,-1.167007565498352,-0.26069942116737366,0.824306309223175,-1.1406391859054565,0.048326276242733,-0.11890193074941635,-0.7308365702629089,-0.14274859428405762,-0.21461468935012817,0.9699394702911377,0.7793657183647156,0.9043018221855164,0.9701585173606873,1.1007778644561768,0.8379408121109009,-0.07767710089683533,-0.14395840466022491,0.9107592701911926,1.0097236633300781,0.7518712878227234,-0.7647610306739807,0.6106488108634949,0.6269392967224121,0.40854889154434204,0.62924724817276,0.2698575556278229,-1.028625249862671,0.4146491289138794,-0.6380686163902283,0.7272947430610657,0.6230486035346985,0.20529739558696747,0.7056460976600647,0.20623601973056793,0.4897975027561188,-1.1630446910858154,-0.016970928758382797,0.2918924391269684,0.3539030849933624,0.0024630704429000616,0.0965300053358078,0.36922165751457214,0.2644307017326355,0.1411687582731247,-0.307456910610199,-0.2837238013744354,1.0955283641815186,0.9387593269348145,0.9331802129745483,0.9952276349067688,0.9051066637039185,0.9949225187301636,1.0326817035675049,0.9388808608055115,1.0938360691070557,0.9560412764549255,0.0970701277256012,-0.06659290939569473,-0.05525721609592438,0.07569639384746552,-0.10035856813192368,0.009767692536115646,0.010015193372964859,0.013050728477537632,0.09378287196159363,-0.03765412047505379,-0.597342848777771,-0.24211889505386353,0.05209958180785179,-0.18943080306053162,0.29565542936325073,-0.2234596163034439,-0.02815811149775982,-0.3471136689186096,-0.42256566882133484,0.16222116351127625,-0.2384861409664154,-0.7951850295066833,-0.4181043207645416,-0.05598611757159233,-0.5589509010314941,0.6093121767044067,0.046043843030929565,-0.6250542402267456,-0.13461269438266754,-0.3747747242450714,0.38816455006599426,-0.22287392616271973,0.19923681020736694,-0.7272917628288269,-0.4284871816635132,-0.1486513912677765,0.7447635531425476,0.22451934218406677,-0.631038248538971,-0.6770767569541931,0.46923837065696716,-0.1364741176366806,0.33633968234062195,0.19933663308620453,-0.11185049265623093,0.5736467242240906,-0.5948722958564758,0.6909182667732239,0.6155077815055847,-0.33298200368881226,0.7296568751335144,0.033460166305303574,-0.006626409012824297,0.5259783267974854,0.4038722813129425,-0.5258422493934631,0.6750291585922241,-0.5766575336456299,0.5635221004486084,-0.3752577602863312,-0.10354886204004288,0.07594984769821167,-0.13832946121692657,-0.05495200306177139,-0.07960940152406693,1.1104987859725952,0.8908912539482117,0.8933556079864502,0.8952720761299133,0.923410952091217,0.1116742193698883,-0.10734303295612335,-0.10616867244243622,-0.10359682142734528,-0.07629851251840591,-0.2529467046260834,0.495738685131073,0.2552667260169983,0.6761825084686279,-0.04354589059948921,0.02606687694787979
-0.8815694451332092,-0.8353273868560791,0.913634717464447,0.037596654146909714,0.9254459142684937,-0.47963330149650574,0.8360318541526794,-0.9371856451034546,-0.07247748970985413,0.2874850928783417,-0.2749471366405487,-0.11514751613140106,0.9244657754898071,-0.8550704121589661,-1.1712322235107422,-0.26472213864326477,0.8200221061706543,-1.1445311307907104,0.05072541534900665,-0.11621181666851044,-0.7336642742156982,-0.14366745948791504,-0.21910865604877472,0.9664788842201233,0.7758636474609375,0.9007918834686279,0.9656220078468323,1.1050925254821777,0.841215193271637,-0.0744662657380104,-0.14086836576461792,0.9138591885566711,1.0136854648590088,0.7508402466773987,-0.7636868357658386,0.6088813543319702,0.6313059329986572,0.4045252799987793,0.6308131217956543,0.26996174454689026,-1.0296415090560913,0.4142046272754669,-0.6409692764282227,0.7263944149017334,0.6198570728302002,0.2076493501663208,0.7035527229309082,0.20301705598831177,0.4861581027507782,-1.1658602952957153,-0.01654268614947796,0.2916331887245178,0.35394519567489624,0.0027038941625505686,0.09627977758646011,0.36912891268730164,0.264278382062912,0.14102725684642792,-0.3069925606250763,-0.28369203209877014,1.0982093811035156,0.9384301900863647,0.9314111471176147,0.9976353645324707,0.9014534950256348,0.9928066730499268,1.0357298851013184,0.9345841407775879,1.096724510192871,0.9585707783699036,0.09976174682378769,-0.07074283063411713,-0.055419061332941055,0.07972782850265503,-0.10461099445819855,0.007383384741842747,0.012433747760951519,0.010891679674386978,0.09652186930179596,-0.03584803268313408,-0.5972820520401001,-0.2462974190711975,0.05190853029489517,-0.18731136620044708,0.2937743365764618,-0.225125253200531,-0.02923724800348282,-0.34871193766593933,-0.42380914092063904,0.1622617095708847,-0.23321223258972168,-0.7990004420280457,-0.42115527391433716,-0.060612961649894714,-0.554021418094635,0.6126956939697266,0.04901434853672981,-0.6213822364807129,-0.13091790676116943,-0.3785399794578552,0.39293453097343445,-0.2256702035665512,0.19635193049907684,-0.7292665243148804,-0.4243021011352539,-0.14713524281978607,0.7463169693946838,0.22612223029136658,-0.6266246438026428,-0.6760464906692505,0.4725166857242584,-0.1329936683177948,0.33390602469444275,0.200677290558815,-0.1094440221786499,0.5700600743293762,-0.5969979763031006,0.6876976490020752,0.6186642050743103,-0.336877703666687,0.7289716005325317,0.036940764635801315,-0.007494847755879164,0.5269014239311218,0.4047396779060364,-0.5245674848556519,0.6763071417808533,-0.575354814529419,0.5641902685165405,-0.3738091289997101,-0.10511695593595505,0.07643937319517136,-0.13814346492290497,-0.05398420989513397,-0.0795973390340805,1.1156693696975708,0.8862645030021667,0.889115035533905,0.8915597796440125,0.9228646159172058,0.11687429249286652,-0.11177544295787811,-0.11038289964199066,-0.10708234459161758,-0.07707394659519196,-0.2580467760562897,0.49119138717651367,0.25099989771842957,0.6725082993507385,-0.04717940092086792,0.02124999463558197
-0.8833853006362915,-0.8338966369628906,0.9117127060890198,0.03986557573080063,0.9272422194480896,-0.4752848744392395,0.8395255208015442,-0.9361950159072876,-0.07115083187818527,0.28787165880203247,-0.27024516463279724,-0.11019816249608994,0.9212879538536072,-0.8556500673294067,-1.1754549741744995,-0.2686178386211395,0.8157789707183838,-1.1483241319656372,0.05297881364822388,-0.11366870254278183,-0.7367567420005798,-0.14493675529956818,-0.22367073595523834,0.9627910256385803,0.7720212936401367,0.8973917961120605,0.9609630703926086,1.109378457069397,0.8443822860717773,-0.07123241573572159,-0.13798315823078156,0.9166485071182251,1.0175347328186035,0.7501369714736938,-0.7624138593673706,0.6074133515357971,0.6356215476989746,0.4007033407688141,0.632071316242218,0.269784539937973,-1.0308787822723389,0.41347551345825195,-0.6440991163253784,0.7252684235572815,0.6164899468421936,0.20973022282123566,0.7012218236923218,0.1997561752796173,0.48249050974845886,-1.1687359809875488,-0.016436809673905373,0.2916153073310852,0.35400310158729553,0.0030401551630347967,0.09622903913259506,0.3691369891166687,0.2641546428203583,0.1409151405096054,-0.3067520558834076,-0.28387707471847534,1.1005769968032837,0.9386090636253357,0.9297053813934326,1.0002857446670532,0.8977810144424438,0.9908099174499512,1.0387022495269775,0.9303213953971863,1.0994294881820679,0.9614589214324951,0.10233458131551743,-0.07477165758609772,-0.05539136752486229,0.08372679352760315,-0.10888848453760147,0.00495961494743824,0.014846162870526314,0.008596538566052914,0.09913751482963562,-0.03383574262261391,-0.5976712703704834,-0.25035560131073,0.05129503086209297,-0.18531078100204468,0.292035847902298,-0.22644418478012085,-0.02989158034324646,-0.3499748408794403,-0.4251696467399597,0.16283564269542694,-0.2279028594493866,-0.802867591381073,-0.42413949966430664,-0.06525517255067825,-0.5489920973777771,0.6160754561424255,0.051935553550720215,-0.6177008152008057,-0.12680041790008545,-0.3825603127479553,0.39768967032432556,-0.2283087521791458,0.19358192384243011,-0.7310757637023926,-0.42011672258377075,-0.14582456648349762,0.7476287484169006,0.22755089402198792,-0.6220638155937195,-0.675385057926178,0.4755357503890991,-0.12964613735675812,0.33149972558021545,0.20224566757678986,-0.10721821337938309,0.5665635466575623,-0.5991803407669067,0.684536874294281,0.6216680407524109,-0.340668648481369,0.7275972366333008,0.04079975560307503,-0.008062305860221386,0.5284780859947205,0.4053196310997009,-0.5235457420349121,0.6773751974105835,-0.5742945671081543,0.5645270943641663,-0.37249067425727844,-0.10686171799898148,0.07627731561660767,-0.13779090344905853,-0.05311021953821182,-0.07957174628973007,1.1208492517471313,0.8817151784896851,0.8849993348121643,0.8881022334098816,0.922482430934906,0.1220812052488327,-0.11612587422132492,-0.11447502672672272,-0.11014816164970398,-0.07759851962327957,-0.2631382942199707,0.48672959208488464,0.24685245752334595,0.6690743565559387,-0.05052100121974945,0.01648310385644436
-0.8853582143783569,-0.8326714038848877,0.9095240831375122,0.04200693219900131,0.9289276599884033,-0.47096386551856995,0.8429135680198669,-0.9352653622627258,-0.06983783841133118,0.2883290946483612,-0.2655099630355835,-0.10527865588665009,0.9182092547416687,-0.8558329343795776,-1.1796607971191406,-0.27236032485961914,0.811634361743927,-1.151969075202942,0.05511637404561043,-0.11127404868602753,-0.7401177883148193,-0.1466531753540039,-0.22832408547401428,0.9588673114776611,0.7678549885749817,0.8941001296043396,0.9562122225761414,1.1136435270309448,0.8474328517913818,-0.06798011809587479,-0.13528816401958466,0.9191256165504456,1.021287202835083,0.7497459650039673,-0.7609583735466003,0.6062111854553223,0.6398886442184448,0.39702096581459045,0.6330613493919373,0.26935890316963196,-1.0322898626327515,0.4125165045261383,-0.6474089622497559,0.7239668965339661,0.6129767298698425,0.21158647537231445,0.6987096667289734,0.19649089872837067,0.47882458567619324,-1.1716378927230835,-0.016458656638860703,0.2919692099094391,0.35405203700065613,0.0033106268383562565,0.09627684205770493,0.369192510843277,0.26423001289367676,0.140849769115448,-0.3065384030342102,-0.2839721143245697,1.1026842594146729,0.9393642544746399,0.9280604124069214,1.003171682357788,0.894077479839325,0.9889582395553589,1.0415838956832886,0.9260724782943726,1.1019619703292847,0.9646401405334473,0.10479756444692612,-0.07843473553657532,-0.05517811328172684,0.08770023286342621,-0.11318378150463104,0.0026120473630726337,0.017210662364959717,0.00610293447971344,0.10160098224878311,-0.031640563160181046,-0.5984989404678345,-0.25410932302474976,0.050318825989961624,-0.18333537876605988,0.2904195487499237,-0.22747816145420074,-0.03018583171069622,-0.3509599268436432,-0.4266521632671356,0.16384847462177277,-0.2225605845451355,-0.8068373203277588,-0.4270549714565277,-0.0699186697602272,-0.5438672304153442,0.619490921497345,0.05486078932881355,-0.613983154296875,-0.12235937267541885,-0.3867550194263458,0.40246546268463135,-0.23076565563678741,0.19090114533901215,-0.7327683568000793,-0.41593286395072937,-0.14477303624153137,0.7486475706100464,0.2287522554397583,-0.6173458695411682,-0.6751359105110168,0.47831791639328003,-0.12642507255077362,0.3291265666484833,0.20401740074157715,-0.10515626519918442,0.5631415247917175,-0.6014259457588196,0.6814237236976624,0.6245319247245789,-0.34434980154037476,0.725555419921875,0.044987957924604416,-0.008332881145179272,0.5306532979011536,0.4056068956851959,-0.5228044390678406,0.6782081723213196,-0.5735045671463013,0.5645403265953064,-0.37129083275794983,-0.10880711674690247,0.07597813755273819,-0.1374531090259552,-0.052262626588344574,-0.07954177260398865,1.1260346174240112,0.8772499561309814,0.88101726770401,0.8849093317985535,0.9221670627593994,0.12729185819625854,-0.12038841843605042,-0.11841937154531479,-0.11281773447990417,-0.07790659368038177,-0.2682179808616638,0.48235949873924255,0.2428303211927414,0.6658914685249329,-0.0535404309630394,0.011769961565732956
-0.8873958587646484,-0.8315956592559814,0.9071622490882874,0.04407130181789398,0.9305362105369568,-0.46666237711906433,0.8461589217185974,-0.9345287680625916,-0.06858907639980316,0.288694828748703,-0.26072630286216736,-0.10033635050058365,0.9153823852539062,-0.855475902557373,-1.1838277578353882,-0.2759532630443573,0.8075854778289795,-1.155473232269287,0.057134270668029785,-0.10903982818126678,-0.743689239025116,-0.14875198900699615,-0.23305511474609375,0.9547790288925171,0.7634053230285645,0.8909010887145996,0.9513810873031616,1.117885947227478,0.8503870368003845,-0.06469696760177612,-0.13277147710323334,0.921294629573822,1.024945855140686,0.7496151328086853,-0.7593645453453064,0.6052590608596802,0.6441064476966858,0.39346882700920105,0.6338028311729431,0.26870396733283997,-1.0337907075881958,0.4114096760749817,-0.6508213877677917,0.7225809097290039,0.6093751192092896,0.21325990557670593,0.6959766745567322,0.1931815892457962,0.4751461446285248,-1.1745879650115967,-0.01641039177775383,0.2924008369445801,0.35431039333343506,0.0035672513768076897,0.09631849080324173,0.3692205846309662,0.2643771767616272,0.14068341255187988,-0.306193083524704,-0.2840191125869751,1.1045118570327759,0.9406974911689758,0.9264739751815796,1.0062540769577026,0.890333890914917,0.9872567057609558,1.0443302392959595,0.9218882322311401,1.104323387145996,0.9680547714233398,0.10713668912649155,-0.08176665753126144,-0.05472511798143387,0.09164969623088837,-0.11749844253063202,0.0003550555557012558,0.019482174888253212,0.003521036822348833,0.10393046587705612,-0.029379568994045258,-0.5997408032417297,-0.25734204053878784,0.04903474822640419,-0.18129374086856842,0.28890910744667053,-0.2282876819372177,-0.030184034258127213,-0.3517230153083801,-0.4282543659210205,0.16521404683589935,-0.2171706110239029,-0.8109300136566162,-0.4299125075340271,-0.07462450861930847,-0.5386555790901184,0.622887134552002,0.05772078037261963,-0.6102772355079651,-0.11765153706073761,-0.3911037743091583,0.4072558283805847,-0.2330525815486908,0.18830007314682007,-0.7343736290931702,-0.41174742579460144,-0.14394661784172058,0.7494106292724609,0.22975413501262665,-0.6124911308288574,-0.6752389073371887,0.48087045550346375,-0.1233394518494606,0.326779305934906,0.20593516528606415,-0.10324282199144363,0.5598289370536804,-0.6036770343780518,0.67839515209198,0.6272597312927246,-0.347888708114624,0.7228962779045105,0.049459151923656464,-0.008310480043292046,0.5333660840988159,0.4055943191051483,-0.5223730802536011,0.6787763833999634,-0.5730147957801819,0.5642368197441101,-0.37019920349121094,-0.11049102246761322,0.07602515071630478,-0.13707605004310608,-0.051520936191082,-0.07953397929668427,1.1312216520309448,0.8728774785995483,0.877173900604248,0.8819936513900757,0.9218253493309021,0.13250310719013214,-0.12455004453659058,-0.12221439927816391,-0.11507803946733475,-0.07802983373403549,-0.2732824683189392,0.47808822989463806,0.23893973231315613,0.6629698872566223,-0.05621006339788437,0.007114446721971035
-0.8894286155700684,-0.8306271433830261,0.9046732783317566,0.046079739928245544,0.9321097135543823,-0.46239975094795227,0.8492165207862854,-0.9340453743934631,-0.06746673583984375,0.28891757130622864,-0.25589150190353394,-0.09536999464035034,0.9128024578094482,-0.8546380400657654,-1.18795645236969,-0.2794134020805359,0.8036753535270691,-1.158778190612793,0.05906406790018082,-0.10695148259401321,-0.7474457025527954,-0.1512058973312378,-0.23784729838371277,0.950543224811554,0.7587241530418396,0.8877965211868286,0.9465083479881287,1.122079849243164,0.853248119354248,-0.06136820465326309,-0.13045160472393036,0.9230353832244873,1.028530478477478,0.749755859375,-0.7576543688774109,0.604565441608429,0.648303747177124,0.38994818925857544,0.6342846155166626,0.26783427596092224,-1.035379409790039,0.41015198826789856,-0.6543488502502441,0.7210744023323059,0.60570228099823,0.21473819017410278,0.6930577754974365,0.18986810743808746,0.4714811444282532,-1.17756187915802,-0.01647782325744629,0.2927423119544983,0.35453733801841736,0.0038765757344663143,0.09639959037303925,0.36926454305648804,0.2644519507884979,0.14045941829681396,-0.30579856038093567,-0.28414490818977356,1.1060456037521362,0.9424497485160828,0.9249805212020874,1.00951087474823,0.8865472078323364,0.985697865486145,1.0469855070114136,0.9177531599998474,1.1065243482589722,0.9716803431510925,0.10936366766691208,-0.0847974494099617,-0.05400584265589714,0.09557823836803436,-0.12182817608118057,-0.0017984523437917233,0.021661225706338882,0.0008490351028740406,0.10611750930547714,-0.027016034349799156,-0.601348876953125,-0.25982630252838135,0.04749616980552673,-0.17910175025463104,0.2874946594238281,-0.22893579304218292,-0.029952120035886765,-0.3523220121860504,-0.42995792627334595,0.16685321927070618,-0.21173755824565887,-0.8150961399078369,-0.4327426552772522,-0.0793672576546669,-0.533363938331604,0.6262785792350769,0.06054084375500679,-0.6065698862075806,-0.11272051930427551,-0.3955889344215393,0.4120437800884247,-0.23520225286483765,0.18578273057937622,-0.7358763813972473,-0.40757396817207336,-0.14334747195243835,0.7499175667762756,0.23055292665958405,-0.6075373291969299,-0.6756879091262817,0.48319217562675476,-0.12037254869937897,0.3244694769382477,0.20800375938415527,-0.1014702245593071,0.5565995573997498,-0.6059774160385132,0.6754314303398132,0.6298597455024719,-0.3512954115867615,0.719677209854126,0.054169293493032455,-0.007983009330928326,0.5365625023841858,0.40522500872612,-0.5223872661590576,0.6789443492889404,-0.5729548335075378,0.563591480255127,-0.36930158734321594,-0.11231759935617447,0.07615617662668228,-0.1367487609386444,-0.05089181289076805,-0.07951481640338898,1.1364070177078247,0.8686049580574036,0.8734767436981201,0.8793624043464661,0.9213849306106567,0.13771168887615204,-0.12861061096191406,-0.12584853172302246,-0.11696980148553848,-0.07792747020721436,-0.2783285677433014,0.47392377257347107,0.2351878434419632,0.6603195071220398,-0.05850452929735184,0.0025208303704857826
-0.8914157748222351,-0.8297408223152161,0.9021058082580566,0.048051536083221436,0.9336583614349365,-0.45821672677993774,0.8520168662071228,-0.9338914155960083,-0.06653488427400589,0.2889266014099121,-0.25101438164711,-0.09039241075515747,0.9103778600692749,-0.8531978130340576,-1.1921067237854004,-0.28272655606269836,0.799916684627533,-1.1618860960006714,0.06092603877186775,-0.1050010547041893,-0.7513635158538818,-0.15398699045181274,-0.24268832802772522,0.9461697340011597,0.7538560628890991,0.88479083776474,0.941631555557251,1.1262098550796509,0.8560051918029785,-0.05803443863987923,-0.12831415235996246,0.9244019389152527,1.0320336818695068,0.7501267194747925,-0.7558528780937195,0.6040928959846497,0.6524193286895752,0.3865029811859131,0.6345530152320862,0.26680585741996765,-1.0370101928710938,0.4087873101234436,-0.6579416990280151,0.7195071578025818,0.6019895076751709,0.21601952612400055,0.6899717450141907,0.18655315041542053,0.46783682703971863,-1.180552363395691,-0.016365163028240204,0.29274851083755493,0.35480013489723206,0.004308604635298252,0.0967666432261467,0.36938831210136414,0.2644849121570587,0.1402369737625122,-0.3053823709487915,-0.28425484895706177,1.1073124408721924,0.9445702433586121,0.9235877394676208,1.0129010677337646,0.8827222585678101,0.9843405485153198,1.049529790878296,0.9136707186698914,1.108575463294983,0.9754379987716675,0.1114964559674263,-0.08740878105163574,-0.05298595502972603,0.09946545213460922,-0.12616515159606934,-0.003763745538890362,0.023713720962405205,-0.0019074191804975271,0.10815509408712387,-0.02458401396870613,-0.6032724380493164,-0.2613735496997833,0.045752041041851044,-0.17668595910072327,0.2861683964729309,-0.22948303818702698,-0.02955341339111328,-0.35281214118003845,-0.43174445629119873,0.1686924397945404,-0.2062726765871048,-0.8193246722221375,-0.4355575144290924,-0.08415934443473816,-0.5280082821846008,0.6297045350074768,0.0634072795510292,-0.6028395295143127,-0.10760482400655746,-0.400122731924057,0.4168247580528259,-0.23720836639404297,0.18335872888565063,-0.7372622489929199,-0.40342065691947937,-0.14296728372573853,0.7501787543296814,0.23115460574626923,-0.6025064587593079,-0.6764629483222961,0.48529914021492004,-0.11752626299858093,0.3221942186355591,0.21018683910369873,-0.09982448071241379,0.5534657835960388,-0.6082972288131714,0.6725457906723022,0.6323389410972595,-0.35454848408699036,0.7159717082977295,0.05908568203449249,-0.0073571838438510895,0.5401805639266968,0.4044986665248871,-0.5228586196899414,0.6786918044090271,-0.5733375549316406,0.562616229057312,-0.3685818016529083,-0.11423108726739883,0.07601179927587509,-0.13643525540828705,-0.05027025192975998,-0.07948748767375946,1.1415868997573853,0.8644408583641052,0.8699324727058411,0.877025842666626,0.9207642674446106,0.14291395246982574,-0.1325635462999344,-0.12931400537490845,-0.11849423497915268,-0.07763222604990005,-0.28335264325141907,0.46987447142601013,0.23158171772956848,0.6579497456550598,-0.06040412560105324,-0.00200632237829268
-0.8932852149009705,-0.8288983106613159,0.899518609046936,0.05002463981509209,0.9352080225944519,-0.45417097210884094,0.8545719981193542,-0.9338604211807251,-0.06574733555316925,0.28902897238731384,-0.2460756003856659,-0.08536279946565628,0.9082174301147461,-0.851212203502655,-1.196251630783081,-0.28588762879371643,0.7963170409202576,-1.1647990942001343,0.062723308801651,-0.10318576544523239,-0.7554181814193726,-0.15706461668014526,-0.24756476283073425,0.9416699409484863,0.7488398551940918,0.8818604350090027,0.9367462992668152,1.130280613899231,0.8586848378181458,-0.054680489003658295,-0.1263432800769806,0.9254319071769714,1.0354517698287964,0.7506978511810303,-0.7539798617362976,0.6038296222686768,0.6564540863037109,0.38317716121673584,0.6346200108528137,0.26562339067459106,-1.0386183261871338,0.4073793888092041,-0.6615338921546936,0.7179518342018127,0.5982896089553833,0.2171337902545929,0.6867748498916626,0.18327227234840393,0.46423521637916565,-1.1835298538208008,-0.016370922327041626,0.29263848066329956,0.3550319969654083,0.00464623374864459,0.09705034643411636,0.36956316232681274,0.2644917368888855,0.1400272250175476,-0.3050319254398346,-0.28440651297569275,1.1083532571792603,0.9469885230064392,0.9222381114959717,1.0163722038269043,0.8788750171661377,0.9831425547599792,1.051935076713562,0.9096889495849609,1.1104841232299805,0.9793121814727783,0.11356677860021591,-0.08955954015254974,-0.051737457513809204,0.10329670459032059,-0.13049624860286713,-0.005575505085289478,0.025603393092751503,-0.004635329358279705,0.11005549132823944,-0.02209562249481678,-0.6054567694664001,-0.2618913948535919,0.04384931921958923,-0.1739884465932846,0.2849251627922058,-0.22998686134815216,-0.02904866822063923,-0.3532453775405884,-0.43359360098838806,0.17066338658332825,-0.20079687237739563,-0.8235923647880554,-0.43829336762428284,-0.08893520385026932,-0.5226203799247742,0.6330845952033997,0.06621100753545761,-0.5991522073745728,-0.10234488546848297,-0.4047238826751709,0.4215967655181885,-0.2390667200088501,0.1810126155614853,-0.7385457158088684,-0.3992847800254822,-0.14277519285678864,0.7502276301383972,0.23158644139766693,-0.5974029898643494,-0.677521824836731,0.48720893263816833,-0.11480351537466049,0.31994903087615967,0.21244609355926514,-0.09829213470220566,0.5504443645477295,-0.6106003522872925,0.6697556376457214,0.6347030401229858,-0.35762685537338257,0.7118489742279053,0.0641806423664093,-0.0064412811771035194,0.5441636443138123,0.40341895818710327,-0.5237884521484375,0.6780072450637817,-0.5741655826568604,0.5613254308700562,-0.36802130937576294,-0.1158427819609642,0.07610379904508591,-0.1362677365541458,-0.04961815103888512,-0.0794433131814003,1.1467573642730713,0.8603959083557129,0.8665462732315063,0.8749923706054688,0.9198941588401794,0.14810609817504883,-0.13639134168624878,-0.13261114060878754,-0.11964980512857437,-0.07717575132846832,-0.288350909948349,0.4659484326839447,0.22812853753566742,0.6558679342269897,-0.06189535930752754,-0.006462254095822573
-0.8949637413024902,-0.8280579447746277,0.8969760537147522,0.0520285926759243,0.9367835521697998,-0.45028531551361084,0.8568282723426819,-0.9340246915817261,-0.06516268104314804,0.2891555726528168,-0.241108700633049,-0.08034566044807434,0.9062461853027344,-0.8488771915435791,-1.200361967086792,-0.2889021337032318,0.7928529381752014,-1.1675479412078857,0.0644373670220375,-0.10151484608650208,-0.7595915794372559,-0.16041409969329834,-0.2524675726890564,0.9370534420013428,0.7437010407447815,0.8789983987808228,0.9318887591362,1.134268879890442,0.8612928986549377,-0.05133869871497154,-0.12452425062656403,0.926160454750061,1.038772463798523,0.7514362335205078,-0.7520628571510315,0.6037488579750061,0.6603598594665527,0.38005486130714417,0.6345106959342957,0.2643353343009949,-1.0401577949523926,0.4059757888317108,-0.665072500705719,0.7164665460586548,0.5946405529975891,0.21815438568592072,0.6834875345230103,0.18003159761428833,0.46066907048225403,-1.186489462852478,-0.016438623890280724,0.2925010323524475,0.3552159368991852,0.005002318415790796,0.09728173911571503,0.3696846067905426,0.2645483911037445,0.13978374004364014,-0.30463457107543945,-0.2844075858592987,1.1091971397399902,0.9496487379074097,0.9209373593330383,1.0198924541473389,0.8750105500221252,0.9821497797966003,1.054186463356018,0.9058189988136292,1.1122556924819946,0.9832359552383423,0.11558379232883453,-0.09118957817554474,-0.050296805799007416,0.10706475377082825,-0.1348155438899994,-0.007165082730352879,0.02730582095682621,-0.007320086006075144,0.11183598637580872,-0.019599922001361847,-0.607842743396759,-0.2613876163959503,0.04183089733123779,-0.17097003757953644,0.2837637662887573,-0.2305017113685608,-0.028494952246546745,-0.3536708652973175,-0.43547987937927246,0.1727047860622406,-0.19532087445259094,-0.8278800845146179,-0.4409722089767456,-0.0936904028058052,-0.5172145366668701,0.6364437341690063,0.06902340799570084,-0.5954940319061279,-0.09696519374847412,-0.4093182682991028,0.4263574779033661,-0.24076968431472778,0.1787308156490326,-0.7397350072860718,-0.3951656222343445,-0.1427445411682129,0.7500931620597839,0.23187215626239777,-0.5922319293022156,-0.6788311004638672,0.4889387786388397,-0.11220669746398926,0.3177294135093689,0.21474571526050568,-0.09686106443405151,0.5475510358810425,-0.6128535866737366,0.6670770049095154,0.6369573473930359,-0.36051344871520996,0.7073711156845093,0.06943060457706451,-0.005245216190814972,0.5484611392021179,0.4019938111305237,-0.5251676440238953,0.6768890619277954,-0.5754309296607971,0.5597350597381592,-0.36759859323501587,-0.11700505763292313,0.07611047476530075,-0.13615529239177704,-0.04909554496407509,-0.07940048724412918,1.1519140005111694,0.8564792275428772,0.8633238673210144,0.873267650604248,0.9187231063842773,0.15328378975391388,-0.14008644223213196,-0.1357402354478836,-0.12043679505586624,-0.07658799737691879,-0.29331913590431213,0.4621541202068329,0.22483640909194946,0.6540789008140564,-0.06297297775745392,-0.010841663926839828
-0.8956731557846069,-0.8276184797286987,0.8957568407058716,0.0530601441860199,0.93759685754776,-0.44845321774482727,0.8577932119369507,-0.9341996908187866,-0.06495122611522675,0.2892310321331024,-0.2386111468076706,-0.07783245295286179,0.9053617715835571,-0.8475636839866638,-1.2023942470550537,-0.2903491258621216,0.7911505699157715,-1.1688722372055054,0.06526018679141998,-0.10078547894954681,-0.7617316246032715,-0.16221486032009125,-0.25492924451828003,0.9346902370452881,0.7410786747932434,0.8775928616523743,0.929469883441925,1.1362251043319702,0.8625707030296326,-0.049666840583086014,-0.12368368357419968,0.9263894557952881,1.0403813123703003,0.7518755197525024,-0.751092255115509,0.6037924885749817,0.6622478365898132,0.3786122798919678,0.6343750953674316,0.26364243030548096,-1.040884017944336,0.40529248118400574,-0.6667969822883606,0.7157722115516663,0.5928516983985901,0.21861213445663452,0.6817986965179443,0.17842435836791992,0.45889756083488464,-1.187964677810669,-0.016560472548007965,0.2923923134803772,0.35530731081962585,0.00514975655823946,0.09735361486673355,0.3697046637535095,0.26454201340675354,0.13965269923210144,-0.3044002056121826,-0.28443971276283264,1.1095612049102783,0.9509225487709045,0.920314371585846,1.021614670753479,0.8730641603469849,0.9817766547203064,1.0552284717559814,0.903954267501831,1.1130815744400024,0.9852104187011719,0.11660029739141464,-0.09188783913850784,-0.049485526978969574,0.10889997333288193,-0.1369713544845581,-0.007823701947927475,0.02805270068347454,-0.008605659008026123,0.11270104348659515,-0.018366988748311996,-0.609360933303833,-0.26022544503211975,0.040739983320236206,-0.16914454102516174,0.283144474029541,-0.23084916174411774,-0.028282728046178818,-0.35395753383636475,-0.43669286370277405,0.17367224395275116,-0.19258373975753784,-0.830007791519165,-0.44229426980018616,-0.09605539590120316,-0.5145038962364197,0.6381138563156128,0.0704350695014,-0.5936782360076904,-0.09421979635953903,-0.4116147756576538,0.42873045802116394,-0.24154001474380493,0.17761674523353577,-0.7402857542037964,-0.39311543107032776,-0.14279848337173462,0.7499468922615051,0.23195181787014008,-0.5896164178848267,-0.6795948147773743,0.4897223114967346,-0.11097210645675659,0.31663018465042114,0.21589909493923187,-0.09619075059890747,0.5461755990982056,-0.613940417766571,0.6658006310462952,0.638032078742981,-0.3618546724319458,0.7049871683120728,0.07212337106466293,-0.004517755005508661,0.5507410168647766,0.4011216461658478,-0.5260586142539978,0.676132321357727,-0.5762603282928467,0.5588005781173706,-0.3674272894859314,-0.11776170134544373,0.07615964859724045,-0.13611143827438354,-0.04886207729578018,-0.07937334477901459,1.1544818878173828,0.8545889258384705,0.8617974519729614,0.872560977935791,0.9179685711860657,0.1558697372674942,-0.14186759293079376,-0.1372205913066864,-0.12064727395772934,-0.07625450938940048,-0.29578593373298645,0.4603272080421448,0.22327499091625214,0.6533317565917969,-0.06330640614032745,-0.012990227900445461
-0.8962464332580566,-0.8271520733833313,0.8945976495742798,0.05412644147872925,0.9384400248527527,-0.44673284888267517,0.8586441874504089,-0.9344080090522766,-0.06480324268341064,0.2893233001232147,-0.2360783964395523,-0.07535045593976974,0.9046519994735718,-0.8460878133773804,-1.2043931484222412,-0.2917376458644867,0.7894155383110046,-1.170224905014038,0.06602941453456879,-0.1001695767045021,-0.7639181017875671,-0.1641271859407425,-0.25739893317222595,0.9322783350944519,0.7384117841720581,0.8762055039405823,0.9270584583282471,1.138148307800293,0.8638292551040649,-0.0479891262948513,-0.1229042336344719,0.9264985918998718,1.0419344902038574,0.7523713111877441,-0.7501205205917358,0.603911817073822,0.6640735268592834,0.3772943317890167,0.6341663002967834,0.2629057466983795,-1.0414968729019165,0.4046242833137512,-0.6683995723724365,0.715229868888855,0.5911915898323059,0.21878063678741455,0.6800501346588135,0.17676569521427155,0.4570996165275574,-1.1894750595092773,-0.01663873717188835,0.29226648807525635,0.3553675711154938,0.00527574960142374,0.09732569754123688,0.3697271943092346,0.26449477672576904,0.1395576447248459,-0.30412960052490234,-0.28445959091186523,1.1099042892456055,0.9521932005882263,0.9196921586990356,1.0231530666351318,0.8711017966270447,0.9815554618835449,1.0561445951461792,0.9021785259246826,1.1138501167297363,0.9872013926506042,0.11766006052494049,-0.09256481379270554,-0.0486125722527504,0.11067337542772293,-0.1391247659921646,-0.008312523365020752,0.028649132698774338,-0.009787661954760551,0.11352184414863586,-0.01711546629667282,-0.6111267805099487,-0.258585125207901,0.0395798534154892,-0.16707734763622284,0.2824925482273102,-0.23128844797611237,-0.02813984639942646,-0.3543199896812439,-0.4381301999092102,0.1745789647102356,-0.189848393201828,-0.8321084976196289,-0.44360464811325073,-0.09840700775384903,-0.5117875337600708,0.6397750377655029,0.07185181230306625,-0.5918749570846558,-0.09142612665891647,-0.41391173005104065,0.43109580874443054,-0.24223150312900543,0.17652562260627747,-0.7407958507537842,-0.3910745084285736,-0.14291414618492126,0.7497301697731018,0.23197488486766815,-0.5869755148887634,-0.6804552674293518,0.4904630482196808,-0.10989175736904144,0.31551605463027954,0.21687844395637512,-0.0955512598156929,0.5448966026306152,-0.6149460077285767,0.6646109819412231,0.6390565633773804,-0.36312222480773926,0.7024682760238647,0.0748794823884964,-0.003652836661785841,0.5531469583511353,0.40008407831192017,-0.5271693468093872,0.6751539707183838,-0.577303946018219,0.5577110648155212,-0.3673362135887146,-0.11836408823728561,0.07606272399425507,-0.13606838881969452,-0.04866994172334671,-0.07934116572141647,1.1570388078689575,0.8527646064758301,0.8603525757789612,0.8719993233680725,0.9170584678649902,0.15845131874084473,-0.14358609914779663,-0.13862119615077972,-0.12071671336889267,-0.0758545994758606,-0.29823553562164307,0.4585685431957245,0.22179554402828217,0.652725100517273,-0.063447006046772,-0.015099022537469864
-0.8966783285140991,-0.8266531825065613,0.8935054540634155,0.05523074418306351,0.9393158555030823,-0.44513148069381714,0.8594162464141846,-0.934586226940155,-0.06467030197381973,0.28947824239730835,-0.23351603746414185,-0.0728796049952507,0.9041731357574463,-0.8444269895553589,-1.206349492073059,-0.2930764853954315,0.7876690030097961,-1.1715792417526245,0.06676475703716278,-0.09964834153652191,-0.7660946846008301,-0.1660749763250351,-0.2598485052585602,0.9298701882362366,0.735745370388031,0.8748317956924438,0.9246531128883362,1.1400408744812012,0.8650737404823303,-0.04630313068628311,-0.1221800446510315,0.9264997839927673,1.0434327125549316,0.7529151439666748,-0.749152660369873,0.6041011214256287,0.6658396124839783,0.3761048913002014,0.6338898539543152,0.2621282637119293,-1.0419951677322388,0.4039786159992218,-0.6698769330978394,0.714840829372406,0.5896599888801575,0.21870014071464539,0.6782554388046265,0.17506462335586548,0.45527923107147217,-1.1910134553909302,-0.01678803190588951,0.29218077659606934,0.35537996888160706,0.0053745354525744915,0.0973004698753357,0.3697742819786072,0.2644214928150177,0.1394505351781845,-0.3038867712020874,-0.284542441368103,1.1102334260940552,0.9534215331077576,0.9190595746040344,1.024499773979187,0.8691347241401672,0.981456995010376,1.056931495666504,0.9004994034767151,1.1145670413970947,0.9892164468765259,0.11876411736011505,-0.09331076592206955,-0.047698382288217545,0.11237769573926926,-0.14125975966453552,-0.008660606108605862,0.029091086238622665,-0.010844621807336807,0.11430975049734116,-0.015825949609279633,-0.6130842566490173,-0.2566189765930176,0.03836067020893097,-0.16482016444206238,0.28181371092796326,-0.23181883990764618,-0.028068574145436287,-0.3547578454017639,-0.4397560656070709,0.17541880905628204,-0.18712317943572998,-0.8341663479804993,-0.44488996267318726,-0.100715771317482,-0.509077250957489,0.6414008736610413,0.07323593646287918,-0.5901057720184326,-0.08860107511281967,-0.41622376441955566,0.43344953656196594,-0.24285374581813812,0.175460547208786,-0.7412629723548889,-0.389047235250473,-0.1430933177471161,0.749441921710968,0.23193904757499695,-0.5843199491500854,-0.6814080476760864,0.49116620421409607,-0.10895569622516632,0.31438714265823364,0.21769070625305176,-0.09493914991617203,0.543710470199585,-0.6158706545829773,0.6635048985481262,0.640034556388855,-0.3643198013305664,0.6998384594917297,0.07768838107585907,-0.0026621618308126926,0.5556564331054688,0.3988969027996063,-0.528472900390625,0.6739786267280579,-0.578536331653595,0.5564821362495422,-0.3673115372657776,-0.11881786584854126,0.07605551183223724,-0.1360519528388977,-0.048440445214509964,-0.07931692898273468,1.159584403038025,0.8510056138038635,0.8589868545532227,0.8715754747390747,0.9160021543502808,0.16102701425552368,-0.14523957669734955,-0.13994301855564117,-0.12065191566944122,-0.07539819926023483,-0.3006678521633148,0.45687636733055115,0.22039546072483063,0.6522517800331116,-0.06340872496366501,-0.017169184982776642
-0.8969671726226807,-0.8261178135871887,0.8924848437309265,0.056375086307525635,0.9402261972427368,-0.44364407658576965,0.8601055145263672,-0.9347496032714844,-0.06456220895051956,0.2896813154220581,-0.23092932999134064,-0.07041695713996887,0.9039131999015808,-0.842605471611023,-1.2082641124725342,-0.29436737298965454,0.7859129309654236,-1.1729356050491333,0.0674668475985527,-0.09921792894601822,-0.7682608962059021,-0.16805537045001984,-0.26227816939353943,0.9274651408195496,0.7330812811851501,0.873468279838562,0.9222530722618103,1.1419047117233276,0.86630779504776,-0.04460811987519264,-0.12150557339191437,0.9264033436775208,1.0448774099349976,0.7534995079040527,-0.7481924891471863,0.6043545603752136,0.6675480604171753,0.3750438690185547,0.6335515379905701,0.261313796043396,-1.0423794984817505,0.4033610224723816,-0.6712281107902527,0.7146041393280029,0.5882550477981567,0.21839532256126404,0.6764219403266907,0.1733258217573166,0.45343825221061707,-1.1925761699676514,-0.016911717131733894,0.2921307384967804,0.35541021823883057,0.005487173795700073,0.09733748435974121,0.3698402941226959,0.2643250823020935,0.13934896886348724,-0.3037198781967163,-0.28470292687416077,1.1105514764785767,0.9545897841453552,0.9184187054634094,1.0256654024124146,0.8671637773513794,0.9814746975898743,1.0575953722000122,0.8989128470420837,1.1152360439300537,0.9912508130073547,0.11990857869386673,-0.09412126988172531,-0.04674707353115082,0.1140182688832283,-0.1433771848678589,-0.008873604238033295,0.02938472293317318,-0.011778583750128746,0.11507005989551544,-0.014504119753837585,-0.6151906251907349,-0.25441083312034607,0.0370907336473465,-0.16241095960140228,0.2811133861541748,-0.2324378788471222,-0.028069423511624336,-0.35526907444000244,-0.4415418207645416,0.17618639767169952,-0.18440832197666168,-0.8361732959747314,-0.4461554288864136,-0.10298356413841248,-0.506373941898346,0.642993152141571,0.07458937913179398,-0.5883690714836121,-0.08574816584587097,-0.4185485541820526,0.4357915222644806,-0.24340830743312836,0.17441822588443756,-0.7416900992393494,-0.3870338201522827,-0.14332926273345947,0.7490898966789246,0.2318500280380249,-0.5816528797149658,-0.6824414730072021,0.4918363690376282,-0.10815431922674179,0.3132437467575073,0.21834351122379303,-0.09435145556926727,0.5426130294799805,-0.6167159676551819,0.6624786853790283,0.6409696936607361,-0.3654516935348511,0.6971168518066406,0.08054067194461823,-0.0015571432886645198,0.5582510232925415,0.3975754380226135,-0.5299445390701294,0.6726299524307251,-0.5799337029457092,0.5551283359527588,-0.3673396110534668,-0.1191582903265953,0.07602063566446304,-0.13604679703712463,-0.048242371529340744,-0.07929970324039459,1.162117838859558,0.849310040473938,0.857697069644928,0.8712819218635559,0.9148110151290894,0.16359542310237885,-0.14683152735233307,-0.14119024574756622,-0.12045998126268387,-0.07489421963691711,-0.30308273434638977,0.45524898171424866,0.21907223761081696,0.6519044041633606,-0.06320590525865555,-0.019201697781682014
-0.8970800042152405,-0.8255283832550049,0.8915647268295288,0.0575728565454483,0.9411823153495789,-0.4422678053379059,0.8607056140899658,-0.934914767742157,-0.06449016183614731,0.2899180054664612,-0.22831466794013977,-0.06794551759958267,0.9038944840431213,-0.8406248092651367,-1.2101373672485352,-0.295605331659317,0.7841593623161316,-1.1742857694625854,0.06814341247081757,-0.09887342900037766,-0.7704150676727295,-0.1700642704963684,-0.2646876275539398,0.9250638484954834,0.7304219603538513,0.872111439704895,0.9198575615882874,1.1437432765960693,0.8675343990325928,-0.04290376603603363,-0.12087465077638626,0.9262221455574036,1.0462671518325806,0.7541174292564392,-0.7472445368766785,0.6046659350395203,0.6692001223564148,0.37411797046661377,0.6331570148468018,0.2604663670063019,-1.0426298379898071,0.4027954041957855,-0.6724275946617126,0.7145450711250305,0.5869936943054199,0.21792873740196228,0.6745758652687073,0.17156851291656494,0.4515877664089203,-1.194146990776062,-0.017061803489923477,0.2920759618282318,0.3554762601852417,0.005593345500528812,0.09732086211442947,0.3698928654193878,0.26421305537223816,0.13926856219768524,-0.3036303222179413,-0.28483814001083374,1.1108697652816772,0.9556894302368164,0.9177675843238831,1.0266410112380981,0.8651893734931946,0.981609046459198,1.0581300258636475,0.8974205851554871,1.1158620119094849,0.9932965040206909,0.12108301371335983,-0.0949859544634819,-0.045769743621349335,0.11559388041496277,-0.14547795057296753,-0.00894829723984003,0.029523374512791634,-0.012579219415783882,0.11579933017492294,-0.013143285177648067,-0.6174126863479614,-0.25201526284217834,0.03577655926346779,-0.1598789244890213,0.28039661049842834,-0.23314116895198822,-0.02814091183245182,-0.3558498024940491,-0.4434646964073181,0.1768774390220642,-0.1817042976617813,-0.8381220698356628,-0.4474051296710968,-0.10521148890256882,-0.503679096698761,0.6445526480674744,0.07591287046670914,-0.5866642594337463,-0.08287083357572556,-0.42088380455970764,0.438121497631073,-0.2438969612121582,0.1733960062265396,-0.7420798540115356,-0.38503485918045044,-0.14361624419689178,0.7486808896064758,0.23171262443065643,-0.5789774656295776,-0.683544933795929,0.49248403310775757,-0.10748609900474548,0.31208306550979614,0.21882352232933044,-0.09378213435411453,0.5416077971458435,-0.6174721717834473,0.661535382270813,0.6418657302856445,-0.36650732159614563,0.6943190097808838,0.08342787623405457,-0.00034875317942351103,0.5609152913093567,0.3961341679096222,-0.5315614938735962,0.6711300015449524,-0.5814741253852844,0.553662896156311,-0.3674072325229645,-0.11950451135635376,0.07609060406684875,-0.13605746626853943,-0.04808211326599121,-0.07927803695201874,1.1646385192871094,0.8476762771606445,0.8564803004264832,0.8711097240447998,0.9134984612464905,0.16615521907806396,-0.1483650803565979,-0.14236688613891602,-0.12016027420759201,-0.07435036450624466,-0.30547991394996643,0.45368483662605286,0.2178233116865158,0.6516756415367126,-0.06285324692726135,-0.021197449415922165
-0.8970243334770203,-0.8248851895332336,0.8907429575920105,0.058822501450777054,0.9421831369400024,-0.4410047233104706,0.8612068891525269,-0.9350984692573547,-0.06446508318185806,0.29017484188079834,-0.22570034861564636,-0.06551364809274673,0.904065728187561,-0.8385912179946899,-1.2119346857070923,-0.29680484533309937,0.7823915481567383,-1.1756452322006226,0.06878124177455902,-0.09860531240701675,-0.7725520133972168,-0.17209407687187195,-0.26707419753074646,0.9226700663566589,0.7277737855911255,0.8707724809646606,0.9174830913543701,1.1455214023590088,0.8687559962272644,-0.041222404688596725,-0.12028180807828903,0.9259642362594604,1.0475938320159912,0.7547619342803955,-0.7463188767433167,0.6050198078155518,0.6707791090011597,0.37341710925102234,0.6327099800109863,0.2596171200275421,-1.0427522659301758,0.4022817611694336,-0.6734796166419983,0.7146549820899963,0.5858702659606934,0.21734915673732758,0.6727409362792969,0.16981163620948792,0.4497247338294983,-1.1957173347473145,-0.01715678907930851,0.2919805645942688,0.35553455352783203,0.00565603980794549,0.09731555730104446,0.36993345618247986,0.26409703493118286,0.139198899269104,-0.3034518361091614,-0.2849431335926056,1.11119544506073,0.956754744052887,0.9171152114868164,1.0274397134780884,0.8632183074951172,0.9818681478500366,1.0585486888885498,0.8960089087486267,1.116449236869812,0.995312511920929,0.12229263782501221,-0.09584248811006546,-0.04478510469198227,0.11710477620363235,-0.14755874872207642,-0.008875950239598751,0.029518967494368553,-0.013270929455757141,0.11650542169809341,-0.011765219271183014,-0.6197240948677063,-0.24947142601013184,0.03442218899726868,-0.15724773705005646,0.2796685993671417,-0.23392142355442047,-0.028278252109885216,-0.3564934730529785,-0.4455068111419678,0.1774912178516388,-0.1790192425251007,-0.8400307893753052,-0.44865280389785767,-0.10739786922931671,-0.5010042190551758,0.646102249622345,0.07725612074136734,-0.5849751234054565,-0.07998479902744293,-0.4231647849082947,0.4404390752315521,-0.24432168900966644,0.1723918318748474,-0.7424343824386597,-0.383051335811615,-0.1439494490623474,0.748220682144165,0.23153072595596313,-0.5762969255447388,-0.6847085356712341,0.4931122958660126,-0.10694126784801483,0.31090599298477173,0.21914200484752655,-0.09322929382324219,0.540688693523407,-0.6181442737579346,0.6606694459915161,0.6427258253097534,-0.3674933612346649,0.6914591789245605,0.08634188771247864,0.0009533842094242573,0.5636354088783264,0.3945852220058441,-0.5333062410354614,0.6694959998130798,-0.5831404328346252,0.5520963072776794,-0.3675073981285095,-0.11970045417547226,0.07613252848386765,-0.13610461354255676,-0.047963179647922516,-0.07924642413854599,1.167145848274231,0.8461039066314697,0.8553334474563599,0.8710513114929199,0.9120795726776123,0.16870518028736115,-0.1498374193906784,-0.14347676932811737,-0.11975923180580139,-0.07376940548419952,-0.3078591227531433,0.45218226313591003,0.21664609014987946,0.6515580415725708,-0.062365464866161346,-0.023157276213169098
-0.896808385848999,-0.8241890072822571,0.8900160789489746,0.06012207642197609,0.9432275891304016,-0.4398479759693146,0.8616114854812622,-0.9353068470954895,-0.06449025869369507,0.2904447913169861,-0.22308778762817383,-0.06311525404453278,0.9044159650802612,-0.8365061283111572,-1.2136600017547607,-0.2979666292667389,0.780612587928772,-1.1770129203796387,0.06938265264034271,-0.09840787947177887,-0.7746688723564148,-0.17413948476314545,-0.269436776638031,0.9202858209609985,0.7251399755477905,0.869448721408844,0.9151278138160706,1.1472443342208862,0.8699736595153809,-0.039561640471220016,-0.11972320824861526,0.9256366491317749,1.0488601922988892,0.7554280757904053,-0.7454171180725098,0.6054129004478455,0.6722880005836487,0.37292855978012085,0.6322149634361267,0.2587662637233734,-1.0427531003952026,0.40181949734687805,-0.6743897795677185,0.7149245738983154,0.5848788619041443,0.21666710078716278,0.6709223985671997,0.16805726289749146,0.4478519856929779,-1.1972841024398804,-0.017222357913851738,0.2919214367866516,0.35560575127601624,0.005733497906476259,0.09727134555578232,0.36997976899147034,0.26400718092918396,0.13911475241184235,-0.3032141923904419,-0.2850109040737152,1.1115299463272095,0.957771360874176,0.9164621233940125,1.0280741453170776,0.8612521290779114,0.9822372198104858,1.058861494064331,0.8946727514266968,1.1170012950897217,0.9973006248474121,0.12353450804948807,-0.09669424593448639,-0.04379503056406975,0.11855600029230118,-0.14961965382099152,-0.008670993149280548,0.029382145032286644,-0.013859379105269909,0.11719303578138351,-0.010370252653956413,-0.6221029758453369,-0.24680905044078827,0.03303002193570137,-0.1545371562242508,0.278934508562088,-0.2347695380449295,-0.02847439981997013,-0.35719171166419983,-0.44765418767929077,0.17802928388118744,-0.1763528734445572,-0.8418921232223511,-0.4498990774154663,-0.1095433384180069,-0.4983501136302948,0.6476384401321411,0.07861242443323135,-0.5833045244216919,-0.07709112763404846,-0.4253973364830017,0.4427437484264374,-0.24468474090099335,0.17140422761440277,-0.742755651473999,-0.3810846209526062,-0.14432483911514282,0.7477143406867981,0.23130744695663452,-0.5736146569252014,-0.6859232187271118,0.49372369050979614,-0.10651028901338577,0.30971357226371765,0.21931084990501404,-0.09269136190414429,0.539849042892456,-0.6187384128570557,0.6598747968673706,0.643552839756012,-0.36841675639152527,0.6885529160499573,0.0892762616276741,0.0023315842263400555,0.5663971304893494,0.3929472267627716,-0.5351496338844299,0.6677583456039429,-0.584904134273529,0.5504412055015564,-0.36761653423309326,-0.11996408551931381,0.07612153887748718,-0.13617277145385742,-0.047831740230321884,-0.07922244071960449,1.1696391105651855,0.844590961933136,0.8542535305023193,0.8710991144180298,0.9105668067932129,0.1712440699338913,-0.15125176310539246,-0.14452363550662994,-0.11926340311765671,-0.07316925376653671,-0.31022000312805176,0.4507395923137665,0.21553786098957062,0.6515442728996277,-0.061756931245326996,-0.025081932544708252
-0.8964030146598816,-0.8234245181083679,0.889412522315979,0.06148466840386391,0.9443255662918091,-0.4388013184070587,0.8619113564491272,-0.9355482459068298,-0.06457173079252243,0.29072701930999756,-0.22046874463558197,-0.06073202192783356,0.9049654006958008,-0.8343573808670044,-1.2153133153915405,-0.2990856170654297,0.7788334488868713,-1.1783818006515503,0.06995563954114914,-0.09827218949794769,-0.7767693400382996,-0.17620664834976196,-0.2717770040035248,0.9179023504257202,0.7225244045257568,0.8681375980377197,0.9127905368804932,1.148916482925415,0.8711885809898376,-0.03791920840740204,-0.11919475346803665,0.9252455830574036,1.0500683784484863,0.7561100721359253,-0.7445420026779175,0.6058416366577148,0.673729419708252,0.3726418912410736,0.631676435470581,0.25791460275650024,-1.0426223278045654,0.40141573548316956,-0.6751390695571899,0.7153609395027161,0.5840438008308411,0.21588487923145294,0.6691167950630188,0.16630084812641144,0.4459683299064636,-1.1988495588302612,-0.01721285842359066,0.29186755418777466,0.3556884825229645,0.005834633484482765,0.09724118560552597,0.37000125646591187,0.26389625668525696,0.13903361558914185,-0.3029153048992157,-0.285118967294693,1.1118625402450562,0.9587357640266418,0.9158052802085876,1.0285102128982544,0.8592961430549622,0.9827098846435547,1.0590747594833374,0.893416702747345,1.1175274848937988,0.9992517232894897,0.12479259073734283,-0.09752761572599411,-0.042807456105947495,0.11992955207824707,-0.1516597419977188,-0.008338077925145626,0.02911950834095478,-0.014331378042697906,0.11786338686943054,-0.00897421594709158,-0.6245311498641968,-0.24405159056186676,0.03160130977630615,-0.15176403522491455,0.27819904685020447,-0.23567518591880798,-0.028720708563923836,-0.3579351007938385,-0.4498957693576813,0.1784946471452713,-0.17370516061782837,-0.8436999320983887,-0.45114395022392273,-0.1116480603814125,-0.49571800231933594,0.6491573452949524,0.07997488230466843,-0.5816558599472046,-0.07419120520353317,-0.42758628726005554,0.4449986219406128,-0.2449788600206375,0.1704426258802414,-0.7430148124694824,-0.37916675209999084,-0.1447182446718216,0.7471876740455627,0.23106488585472107,-0.5709807872772217,-0.6871637105941772,0.49433010816574097,-0.1061948612332344,0.3085028827190399,0.21931315958499908,-0.09216342121362686,0.5390925407409668,-0.6192464828491211,0.6591546535491943,0.6443490386009216,-0.3692668676376343,0.685609757900238,0.09222404658794403,0.0037764916196465492,0.5691902041435242,0.3912326693534851,-0.5370743274688721,0.6659350395202637,-0.5867480039596558,0.5487083792686462,-0.36772286891937256,-0.12019895762205124,0.07615512609481812,-0.13622625172138214,-0.047691233456134796,-0.07920076698064804,1.1721177101135254,0.8431357145309448,0.8532354831695557,0.8712441325187683,0.9089751243591309,0.1737707406282425,-0.15261109173297882,-0.14551925659179688,-0.1186915934085846,-0.0725553035736084,-0.31256213784217834,0.4493550956249237,0.21449565887451172,0.6516268849372864,-0.06104191020131111,-0.026972126215696335
-0.895795464515686,-0.8226048350334167,0.8890013694763184,0.06289597600698471,0.9454389214515686,-0.43785667419433594,0.8621201515197754,-0.9358137249946594,-0.06469587981700897,0.2910216450691223,-0.21789014339447021,-0.0584525503218174,0.9057068228721619,-0.8321636319160461,-1.216858148574829,-0.3001537322998047,0.7770732641220093,-1.1797351837158203,0.07051649689674377,-0.0981958881020546,-0.7788475751876831,-0.17828699946403503,-0.274091899394989,0.9155253171920776,0.7199325561523438,0.8668573498725891,0.9104757308959961,1.150546908378601,0.872376024723053,-0.03632618859410286,-0.11870095878839493,0.9248169660568237,1.0512199401855469,0.7568419575691223,-0.7436570525169373,0.6062873601913452,0.6750902533531189,0.37248992919921875,0.631115734577179,0.2570870518684387,-1.042339563369751,0.4010965824127197,-0.6757011413574219,0.7159920930862427,0.5833748579025269,0.21504242718219757,0.6673532724380493,0.16456466913223267,0.444080114364624,-1.20039963722229,-0.01718490570783615,0.2918365001678467,0.3558010756969452,0.005909455008804798,0.09727225452661514,0.3699870705604553,0.263791024684906,0.13896046578884125,-0.30268481373786926,-0.2851695120334625,1.1122229099273682,0.9596468806266785,0.9151850938796997,1.028684377670288,0.8573523163795471,0.9832610487937927,1.05924391746521,0.8922193646430969,1.1180152893066406,1.0011718273162842,0.12608304619789124,-0.09830715507268906,-0.041817765682935715,0.1211831346154213,-0.15367820858955383,-0.007896660827100277,0.028780268505215645,-0.014744593761861324,0.11846455186605453,-0.007542083039879799,-0.6270588040351868,-0.24118980765342712,0.030155031010508537,-0.14890383183956146,0.2773892283439636,-0.23668430745601654,-0.02907286398112774,-0.3587673306465149,-0.4522256851196289,0.1788247525691986,-0.1710844486951828,-0.84547358751297,-0.452371209859848,-0.11372976750135422,-0.4931197762489319,0.6506696939468384,0.08136582374572754,-0.5800274014472961,-0.07130065560340881,-0.42969179153442383,0.44721731543540955,-0.24518804252147675,0.16946372389793396,-0.7431821227073669,-0.37728583812713623,-0.14512556791305542,0.7466349601745605,0.23081891238689423,-0.568372368812561,-0.6884773969650269,0.4949330985546112,-0.10600236058235168,0.30732837319374084,0.2191225290298462,-0.09165491908788681,0.5383808016777039,-0.6197207570075989,0.6584742665290833,0.6451019048690796,-0.3701030910015106,0.6826387643814087,0.09517860412597656,0.005279034376144409,0.5720052123069763,0.38945356011390686,-0.5390639901161194,0.664043128490448,-0.5886558890342712,0.5469080209732056,-0.36781516671180725,-0.12034277617931366,0.07616884261369705,-0.13625557720661163,-0.04757601395249367,-0.07916199415922165,1.1745795011520386,0.8417376279830933,0.8522741794586182,0.8714823722839355,0.9073190689086914,0.1762917935848236,-0.15391221642494202,-0.14647553861141205,-0.11801573634147644,-0.07193254679441452,-0.3148851692676544,0.4480269253253937,0.2135164439678192,0.6517983078956604,-0.06023399904370308,-0.028828557580709457
-0.8950117230415344,-0.8217358589172363,0.8887607455253601,0.06435105204582214,0.9465657472610474,-0.43700650334358215,0.862242579460144,-0.9361053109169006,-0.06486361473798752,0.29132476449012756,-0.21534943580627441,-0.056265249848365784,0.9066239595413208,-0.8299277424812317,-1.218300700187683,-0.30117496848106384,0.7753300666809082,-1.181074857711792,0.07106662541627884,-0.0981736108660698,-0.7808985710144043,-0.18037299811840057,-0.27637919783592224,0.9131595492362976,0.7173686623573303,0.8656054139137268,0.9081831574440002,1.1521378755569458,0.8735380172729492,-0.03477930277585983,-0.11823887377977371,0.9243530035018921,1.0523182153701782,0.7576183676719666,-0.7427648901939392,0.6067491173744202,0.6763746738433838,0.37246525287628174,0.6305345892906189,0.2562817633152008,-1.04192054271698,0.4008530080318451,-0.6760935187339783,0.7167961597442627,0.5828560590744019,0.2141510397195816,0.6656389832496643,0.16285206377506256,0.4421907663345337,-1.2019304037094116,-0.017102017998695374,0.2918800711631775,0.3558816611766815,0.005944902077317238,0.09729992598295212,0.37001901865005493,0.26370567083358765,0.1388944536447525,-0.3024577796459198,-0.28517886996269226,1.1126083135604858,0.9604969024658203,0.9145981669425964,1.0286275148391724,0.8554222583770752,0.9838741421699524,1.0593767166137695,0.8910751938819885,1.118468999862671,1.0030641555786133,0.12740381062030792,-0.09904100745916367,-0.040828168392181396,0.12232838571071625,-0.15567472577095032,-0.007363777607679367,0.028372609987854958,-0.015105080790817738,0.11900606006383896,-0.0060740066692233086,-0.6296616196632385,-0.2382451295852661,0.028687890619039536,-0.14597684144973755,0.2765176594257355,-0.23777742683887482,-0.029511990025639534,-0.3596707284450531,-0.45463547110557556,0.1790330708026886,-0.16849000751972198,-0.8472075462341309,-0.453581303358078,-0.1157861277461052,-0.4905560314655304,0.6521692872047424,0.08277487009763718,-0.5784236788749695,-0.06841915100812912,-0.4317217171192169,0.44940146803855896,-0.2453170269727707,0.16846893727779388,-0.7432631254196167,-0.3754424750804901,-0.14554618299007416,0.7460582852363586,0.23056866228580475,-0.565790057182312,-0.6898543834686279,0.49553239345550537,-0.10592100769281387,0.3061869144439697,0.21876072883605957,-0.09116450697183609,0.5377073287963867,-0.6201678514480591,0.6578277349472046,0.645815372467041,-0.37093085050582886,0.6796486377716064,0.09813348948955536,0.006830426864326,0.5748330950737,0.38762161135673523,-0.5411032438278198,0.6620990037918091,-0.5906123518943787,0.5450495481491089,-0.36788293719291687,-0.12035433948040009,0.07623536139726639,-0.13626979291439056,-0.04750065505504608,-0.07913441956043243,1.177024245262146,0.8403944969177246,0.8513665199279785,0.8718058466911316,0.9056121706962585,0.17880533635616302,-0.15515832602977753,-0.1473950296640396,-0.11724472790956497,-0.0713057592511177,-0.3171888589859009,0.4467531442642212,0.21259699761867523,0.6520510911941528,-0.05934590473771095,-0.030651874840259552
-0.8945435881614685,-0.8212800621986389,0.888715386390686,0.06509747356176376,0.947134256362915,-0.4366268515586853,0.8622568249702454,-0.9362679123878479,-0.06496601551771164,0.2914866507053375,-0.21411171555519104,-0.05518793687224388,0.9071311950683594,-0.8288005590438843,-1.2189818620681763,-0.30166223645210266,0.7745025157928467,-1.181697130203247,0.0713471919298172,-0.0981818363070488,-0.7819075584411621,-0.18141469359397888,-0.2775076627731323,0.9119850397109985,0.7161033749580383,0.8649934530258179,0.9070480465888977,1.152914047241211,0.8741064667701721,-0.03402874991297722,-0.11802297830581665,0.9241028428077698,1.0528455972671509,0.7580284476280212,-0.7423130869865417,0.6069883704185486,0.6769809722900391,0.37250983715057373,0.6302340030670166,0.25588881969451904,-1.0416836738586426,0.4007713496685028,-0.6762563586235046,0.7172291874885559,0.5826084613800049,0.21381504833698273,0.6648173332214355,0.1620417982339859,0.4412643313407898,-1.2026652097702026,-0.017069552093744278,0.2918902635574341,0.35590267181396484,0.005955556873232126,0.09732192754745483,0.370036244392395,0.2636694312095642,0.13886992633342743,-0.30232709646224976,-0.28519272804260254,1.1127934455871582,0.9608376622200012,0.9143344163894653,1.028583288192749,0.8544659614562988,0.984188973903656,1.0594524145126343,0.8905145525932312,1.1186820268630981,1.0039929151535034,0.12805761396884918,-0.09940297901630402,-0.04032200947403908,0.12286426872015,-0.15666118264198303,-0.0070759388618171215,0.02816237322986126,-0.01528686098754406,0.11926405876874924,-0.005335082300007343,-0.6309903860092163,-0.2367403656244278,0.027941789478063583,-0.14448891580104828,0.2760568857192993,-0.23835600912570953,-0.02976507507264614,-0.3601488471031189,-0.45587706565856934,0.17908424139022827,-0.16720513999462128,-0.8480507731437683,-0.45417842268943787,-0.11680077016353607,-0.4892911911010742,0.6529113054275513,0.08348575234413147,-0.5776351094245911,-0.06698198616504669,-0.43270343542099,0.45047688484191895,-0.24534380435943604,0.167964369058609,-0.7432630062103271,-0.37453997135162354,-0.14576295018196106,0.7457588315010071,0.2304408848285675,-0.5645124316215515,-0.6905698776245117,0.4958125650882721,-0.1058771088719368,0.30564454197883606,0.2185957133769989,-0.09093289822340012,0.5373710989952087,-0.6204033493995667,0.6575046181678772,0.6461557149887085,-0.37132295966148376,0.678151547908783,0.09960629045963287,0.007621119264513254,0.5762467384338379,0.3866870701313019,-0.5421357154846191,0.6611136198043823,-0.59160315990448,0.5440991520881653,-0.367890864610672,-0.12030162662267685,0.07625933736562729,-0.13628460466861725,-0.047502920031547546,-0.07912048697471619,1.178237795829773,0.8397492170333862,0.8509378433227539,0.8720080256462097,0.9047386646270752,0.18005743622779846,-0.15575575828552246,-0.14783765375614166,-0.11679935455322266,-0.07099832594394684,-0.31833088397979736,0.4461423456668854,0.2121654748916626,0.6522144079208374,-0.05886770039796829,-0.031547289341688156
-0.8940093517303467,-0.8208056688308716,0.8887361884117126,0.06586065888404846,0.9477071166038513,-0.4362887442111969,0.8622277975082397,-0.9364465475082397,-0.06508627533912659,0.2916577160358429,-0.2129036784172058,-0.05412499979138374,0.9076835513114929,-0.8276643753051758,-1.2196258306503296,-0.30212831497192383,0.7737148404121399,-1.1822762489318848,0.07163321226835251,-0.09820753335952759,-0.7828998565673828,-0.18245352804660797,-0.27862125635147095,0.9108195900917053,0.7148550152778625,0.8643942475318909,0.9059235453605652,1.153672456741333,0.8746634125709534,-0.0332992821931839,-0.11782090365886688,0.9238355159759521,1.053352952003479,0.7584584951400757,-0.7418562769889832,0.6072355508804321,0.6775539517402649,0.3726072311401367,0.6299240589141846,0.2555047869682312,-1.0414228439331055,0.4007253050804138,-0.6763899326324463,0.7176896333694458,0.5823701620101929,0.21358150243759155,0.6640308499336243,0.1612749695777893,0.4403550624847412,-1.2033709287643433,-0.01700230874121189,0.29189908504486084,0.3559454679489136,0.005954641383141279,0.09735606610774994,0.37005457282066345,0.2636537551879883,0.1388477236032486,-0.3021950125694275,-0.285184770822525,1.112971544265747,0.9610987901687622,0.9140977263450623,1.0285261869430542,0.8535182476043701,0.9845084547996521,1.0595382452011108,0.8899635076522827,1.1188828945159912,1.0049062967300415,0.12870608270168304,-0.09976189583539963,-0.039805807173252106,0.12336726486682892,-0.15763655304908752,-0.006770849693566561,0.027947144582867622,-0.01547132059931755,0.11951164901256561,-0.004590147640556097,-0.6323398947715759,-0.2352100908756256,0.027182387188076973,-0.1429828405380249,0.27557477355003357,-0.23896056413650513,-0.030045509338378906,-0.3606480062007904,-0.45715129375457764,0.17908869683742523,-0.1659318208694458,-0.8488706946372986,-0.45476818084716797,-0.1178022027015686,-0.48804259300231934,0.6536448001861572,0.08420071005821228,-0.5768600702285767,-0.06554844975471497,-0.4336552619934082,0.45153698325157166,-0.24533553421497345,0.1674530953168869,-0.7432250380516052,-0.373655766248703,-0.14598599076271057,0.7454490065574646,0.23031023144721985,-0.5632479190826416,-0.6913093328475952,0.49607473611831665,-0.1058296263217926,0.3051280379295349,0.2184465080499649,-0.0907137542963028,0.5370340347290039,-0.6206514835357666,0.6571805477142334,0.6464813351631165,-0.37169650197029114,0.6766546964645386,0.10107322782278061,0.008424578234553337,0.5776581764221191,0.38573727011680603,-0.5431773066520691,0.6601188778877258,-0.5926029086112976,0.5431304574012756,-0.36787155270576477,-0.12028469890356064,0.07626678794622421,-0.13629421591758728,-0.047503694891929626,-0.07911007851362228,1.179443120956421,0.8391283750534058,0.8505323529243469,0.8722469806671143,0.9038492441177368,0.18130476772785187,-0.15632960200309753,-0.14826470613479614,-0.11629986763000488,-0.07069724053144455,-0.31946367025375366,0.4455558657646179,0.2117599993944168,0.6524113416671753,-0.05835965275764465,-0.032427649945020676
