hidden1.weight_weight_0,hidden1.weight_weight_1,hidden1.weight_weight_2,hidden1.weight_weight_3,hidden1.weight_weight_4,hidden1.weight_weight_5,hidden1.weight_weight_6,hidden1.weight_weight_7,hidden1.weight_weight_8,hidden1.weight_weight_9,hidden1.weight_weight_10,hidden1.weight_weight_11,hidden1.weight_weight_12,hidden1.weight_weight_13,hidden1.weight_weight_14,hidden1.weight_weight_15,hidden1.weight_weight_16,hidden1.weight_weight_17,hidden1.weight_weight_18,hidden1.weight_weight_19,hidden1.weight_weight_20,hidden1.weight_weight_21,hidden1.weight_weight_22,hidden1.weight_weight_23,hidden1.weight_weight_24,hidden1.weight_weight_25,hidden1.weight_weight_26,hidden1.weight_weight_27,hidden1.weight_weight_28,hidden1.weight_weight_29,hidden1.weight_weight_30,hidden1.weight_weight_31,hidden1.weight_weight_32,hidden1.weight_weight_33,hidden1.weight_weight_34,hidden1.weight_weight_35,hidden1.weight_weight_36,hidden1.weight_weight_37,hidden1.weight_weight_38,hidden1.weight_weight_39,hidden1.weight_weight_40,hidden1.weight_weight_41,hidden1.weight_weight_42,hidden1.weight_weight_43,hidden1.weight_weight_44,hidden1.weight_weight_45,hidden1.weight_weight_46,hidden1.weight_weight_47,hidden1.weight_weight_48,hidden1.weight_weight_49,hidden1.bias_weight_0,hidden1.bias_weight_1,hidden1.bias_weight_2,hidden1.bias_weight_3,hidden1.bias_weight_4,hidden1.bias_weight_5,hidden1.bias_weight_6,hidden1.bias_weight_7,hidden1.bias_weight_8,hidden1.bias_weight_9,bn1.weight_weight_0,bn1.weight_weight_1,bn1.weight_weight_2,bn1.weight_weight_3,bn1.weight_weight_4,bn1.weight_weight_5,bn1.weight_weight_6,bn1.weight_weight_7,bn1.weight_weight_8,bn1.weight_weight_9,bn1.bias_weight_0,bn1.bias_weight_1,bn1.bias_weight_2,bn1.bias_weight_3,bn1.bias_weight_4,bn1.bias_weight_5,bn1.bias_weight_6,bn1.bias_weight_7,bn1.bias_weight_8,bn1.bias_weight_9,hidden2.weight_weight_0,hidden2.weight_weight_1,hidden2.weight_weight_2,hidden2.weight_weight_3,hidden2.weight_weight_4,hidden2.weight_weight_5,hidden2.weight_weight_6,hidden2.weight_weight_7,hidden2.weight_weight_8,hidden2.weight_weight_9,hidden2.weight_weight_10,hidden2.weight_weight_11,hidden2.weight_weight_12,hidden2.weight_weight_13,hidden2.weight_weight_14,hidden2.weight_weight_15,hidden2.weight_weight_16,hidden2.weight_weight_17,hidden2.weight_weight_18,hidden2.weight_weight_19,hidden2.weight_weight_20,hidden2.weight_weight_21,hidden2.weight_weight_22,hidden2.weight_weight_23,hidden2.weight_weight_24,hidden2.weight_weight_25,hidden2.weight_weight_26,hidden2.weight_weight_27,hidden2.weight_weight_28,hidden2.weight_weight_29,hidden2.weight_weight_30,hidden2.weight_weight_31,hidden2.weight_weight_32,hidden2.weight_weight_33,hidden2.weight_weight_34,hidden2.weight_weight_35,hidden2.weight_weight_36,hidden2.weight_weight_37,hidden2.weight_weight_38,hidden2.weight_weight_39,hidden2.weight_weight_40,hidden2.weight_weight_41,hidden2.weight_weight_42,hidden2.weight_weight_43,hidden2.weight_weight_44,hidden2.weight_weight_45,hidden2.weight_weight_46,hidden2.weight_weight_47,hidden2.weight_weight_48,hidden2.weight_weight_49,hidden2.bias_weight_0,hidden2.bias_weight_1,hidden2.bias_weight_2,hidden2.bias_weight_3,hidden2.bias_weight_4,bn2.weight_weight_0,bn2.weight_weight_1,bn2.weight_weight_2,bn2.weight_weight_3,bn2.weight_weight_4,bn2.bias_weight_0,bn2.bias_weight_1,bn2.bias_weight_2,bn2.bias_weight_3,bn2.bias_weight_4,output.weight_weight_0,output.weight_weight_1,output.weight_weight_2,output.weight_weight_3,output.weight_weight_4,output.bias_weight_0
-0.41768360137939453,-0.2241075485944748,0.5809452533721924,0.7888002991676331,-0.06377586722373962,0.4607471525669098,0.5415040254592896,-0.45624110102653503,-0.15174126625061035,0.18093731999397278,-0.7603143453598022,-0.18295985460281372,-0.21137957274913788,0.4737188220024109,-0.2932203412055969,-0.06366081535816193,-0.6907599568367004,0.3935711681842804,0.0024036364629864693,0.29649651050567627,-0.6323180198669434,0.3622114956378937,-0.7279828786849976,-0.16746215522289276,-0.03402525559067726,0.4824099838733673,-0.09062550961971283,0.18756631016731262,-0.333815336227417,-0.6967346668243408,-0.2251981794834137,-0.7445546388626099,0.6895928978919983,-0.4820188581943512,-0.1397753208875656,0.4878506362438202,-0.21094340085983276,0.30754366517066956,0.6408135890960693,-0.2147217094898224,0.9074264168739319,-0.22904783487319946,0.9753013849258423,-0.3346944749355316,-0.5610361695289612,-0.47286346554756165,-1.0187031030654907,-0.5930368304252625,0.7908878326416016,0.19334474205970764,-0.35556066036224365,0.049185268580913544,-0.03235635533928871,0.3789627254009247,-0.12720437347888947,-0.13833101093769073,-0.33733487129211426,0.4282020926475525,-0.03982820361852646,-0.42477744817733765,0.9898999929428101,0.9898999929428101,0.9898999929428101,0.9898999929428101,0.9898999929428101,1.0098999738693237,0.9898999929428101,1.0098999738693237,0.9899000525474548,1.0098999738693237,-0.009999987669289112,0.009999988600611687,-0.009999995119869709,-0.00999999139457941,-0.009999996051192284,0.009999996051192284,-0.009999982081353664,0.009999998845160007,-0.009999844245612621,0.009999987669289112,0.308664470911026,0.5050605535507202,0.7011035084724426,-0.022136297076940536,0.39898011088371277,-0.5475452542304993,0.050529997795820236,0.7114696502685547,-0.3401525318622589,-0.09186235070228577,0.6033493876457214,-0.6321918368339539,-0.1510833501815796,0.24109338223934174,-0.28488272428512573,0.28205448389053345,-0.2670315206050873,0.17844364047050476,-0.7551122903823853,0.5640037655830383,0.3538287878036499,-0.3639146685600281,0.3597823977470398,0.6190252900123596,0.6115974187850952,0.6855175495147705,-0.018375838175415993,-0.629372775554657,-0.08232896775007248,0.5195290446281433,0.2640216052532196,-0.7716464400291443,0.5704985857009888,0.5244935750961304,0.2623184323310852,-0.3896888196468353,0.3421834409236908,-0.6343645453453064,-0.6491572856903076,-0.19533266127109528,-0.1831970065832138,0.6830211877822876,-0.3252675533294678,-0.49144473671913147,-0.43127861618995667,0.0011525778099894524,0.06682995706796646,-0.6912174820899963,0.2649315595626831,0.5416416525840759,-0.06331948190927505,-0.31144803762435913,-0.12461036443710327,-0.2764934003353119,-0.22628329694271088,0.9898999929428101,1.0098999738693237,0.9898999929428101,0.9899000525474548,0.9898999929428101,-0.009999999776482582,0.009999997913837433,-0.009999998845160007,-0.009999901987612247,-0.00999999139457941,-0.5829796195030212,0.457510769367218,-0.8181124925613403,0.00751532893627882,-0.24304969608783722,-0.05101674795150757
-0.4076317846775055,-0.2340899109840393,0.5908522009849548,0.7788652181625366,-0.05379289761185646,0.4707118570804596,0.5502458214759827,-0.4462463855743408,-0.15860094130039215,0.1709483414888382,-0.7603087425231934,-0.1928022801876068,-0.22115176916122437,0.46367958188056946,-0.3029591143131256,-0.053678229451179504,-0.7002917528152466,0.4035194516181946,-0.007511453703045845,0.28656917810440063,-0.6223435401916504,0.35216522216796875,-0.7377766370773315,-0.17740829288959503,-0.04393026605248451,0.47240984439849854,-0.10058410465717316,0.1775873303413391,-0.3437383472919464,-0.7063037753105164,-0.21520069241523743,-0.7345700860023499,0.6992926001548767,-0.4919606149196625,-0.1496557742357254,0.4778599143028259,-0.20105381309986115,0.3175244629383087,0.6506921052932739,-0.20473098754882812,0.8973358869552612,-0.23902305960655212,0.9651903510093689,-0.3446742296218872,-0.5709821581840515,-0.46300411224365234,-1.0284491777420044,-0.6029902696609497,0.7808611989021301,0.1833382546901703,-0.35477784276008606,0.05063934624195099,-0.03283248469233513,0.3771514296531677,-0.12672168016433716,-0.13467079401016235,-0.33660888671875,0.42795631289482117,-0.03858613967895508,-0.42506587505340576,0.9799867868423462,0.9799072742462158,0.9798464179039001,0.9798676371574402,0.9798163771629333,1.0198057889938354,0.9845035076141357,1.0197547674179077,0.9797940254211426,1.019588828086853,-0.019331175833940506,0.012657891027629375,-0.019843125715851784,-0.020005669444799423,-0.019974173977971077,0.020008301362395287,-0.018395226448774338,0.019948182627558708,-0.009423132054507732,0.020007286220788956,0.3186075687408447,0.5056436657905579,0.6910951137542725,-0.02463645301759243,0.38897576928138733,-0.5574953556060791,0.041283100843429565,0.7212832570075989,-0.3310466408729553,-0.10165722668170929,0.5933486819267273,-0.6221326589584351,-0.14115014672279358,0.2508622109889984,-0.2749788463115692,0.2720327079296112,-0.2687883675098419,0.16864383220672607,-0.7509432435035706,0.5739062428474426,0.34384486079216003,-0.37368687987327576,0.3497506380081177,0.6089600920677185,0.60152268409729,0.6954507231712341,-0.008411322720348835,-0.6392595767974854,-0.07239766418933868,0.5094718337059021,0.26903092861175537,-0.7668676376342773,0.5752988457679749,0.5290371179580688,0.2671123445034027,-0.39502638578414917,0.337266743183136,-0.629328191280365,-0.6443896293640137,-0.1904982328414917,-0.19315744936466217,0.6729400753974915,-0.3226550817489624,-0.5003232359886169,-0.42123082280158997,0.01115285512059927,0.07683201134204865,-0.7011609673500061,0.274902880191803,0.5454545021057129,-0.06117089092731476,-0.30881989002227783,-0.12322704493999481,-0.2765086889266968,-0.22540874779224396,0.9798197746276855,1.0197888612747192,0.9798513650894165,0.9945535063743591,0.9799111485481262,-0.019978320226073265,0.020004434511065483,-0.01996283419430256,-0.00522569427266717,-0.019970236346125603,-0.5729419589042664,0.4674542248249054,-0.8080846071243286,0.017477383837103844,-0.2331182211637497,-0.041018787771463394
-0.39757102727890015,-0.24409699440002441,0.6007959842681885,0.7688466310501099,-0.04377388954162598,0.4799054265022278,0.5583167672157288,-0.4369155168533325,-0.16689151525497437,0.16118261218070984,-0.7637346386909485,-0.20268762111663818,-0.23061461746692657,0.4538848400115967,-0.31213605403900146,-0.04388394206762314,-0.7099684476852417,0.4113677740097046,-0.017459804192185402,0.2765752971172333,-0.612419068813324,0.3421977162361145,-0.7474278211593628,-0.18722736835479736,-0.053648341447114944,0.462404727935791,-0.11054354161024094,0.1675821840763092,-0.3536246418952942,-0.7158347368240356,-0.20517577230930328,-0.7245476245880127,0.7090368270874023,-0.5018917322158813,-0.15959462523460388,0.46959739923477173,-0.1919383853673935,0.32713133096694946,0.6599450707435608,-0.19493283331394196,0.8872213959693909,-0.24894730746746063,0.9550864100456238,-0.35464102029800415,-0.5809288620948792,-0.45311298966407776,-1.0382468700408936,-0.612962007522583,0.7707926630973816,0.17330391705036163,-0.3538140058517456,0.0514458604156971,-0.03522631525993347,0.3770769536495209,-0.12818925082683563,-0.1336035579442978,-0.3369993269443512,0.426313191652298,-0.03731710836291313,-0.42583635449409485,0.9700150489807129,0.9698486924171448,0.9698466658592224,0.9698125720024109,0.9697408080101013,1.0297191143035889,0.977625846862793,1.029518961906433,0.9765434861183167,1.0293474197387695,-0.028953272849321365,0.014353600330650806,-0.02955945022404194,-0.030019106343388557,-0.029940690845251083,0.03003155067563057,-0.027062304317951202,0.02982170879840851,-0.0030737011693418026,0.030036982148885727,0.32851487398147583,0.5011078715324402,0.6811636686325073,-0.022919489070773125,0.37903597950935364,-0.5674704909324646,0.032053958624601364,0.7309198379516602,-0.32317695021629333,-0.11118640005588531,0.5832984447479248,-0.6127887964248657,-0.1312059909105301,0.26050853729248047,-0.2650013267993927,0.26198241114616394,-0.2649608850479126,0.1588008552789688,-0.7514333128929138,0.5838015079498291,0.3339155912399292,-0.3827284574508667,0.3397369980812073,0.5988860130310059,0.5914376378059387,0.7053821086883545,0.001494511030614376,-0.6490458846092224,-0.06249363720417023,0.4994201958179474,0.2628040611743927,-0.7594607472419739,0.5826288461685181,0.5362902283668518,0.27446088194847107,-0.402500718832016,0.32984504103660583,-0.6218206882476807,-0.6370108127593994,-0.1831015646457672,-0.20293107628822327,0.6628512740135193,-0.3161957263946533,-0.5057280659675598,-0.41116002202033997,0.02112545073032379,0.08682261407375336,-0.7111144065856934,0.2847798764705658,0.5524264574050903,-0.0613379143178463,-0.30853167176246643,-0.12239722907543182,-0.2765198349952698,-0.22642110288143158,0.9697698354721069,1.0296581983566284,0.9698957800865173,1.0018073320388794,0.9703261852264404,-0.02992931939661503,0.0300213024020195,-0.029862213879823685,0.0021382258273661137,-0.029764585196971893,-0.5629376769065857,0.4773777723312378,-0.7981564402580261,0.027397697791457176,-0.2235579490661621,-0.03104054555296898
-0.38754507899284363,-0.2541068196296692,0.6104956865310669,0.7588198184967041,-0.03380664065480232,0.4884432554244995,0.5617666840553284,-0.4289712905883789,-0.1756565272808075,0.15141905844211578,-0.7644171714782715,-0.21249262988567352,-0.2393934428691864,0.444553405046463,-0.32080700993537903,-0.03493029624223709,-0.7191370725631714,0.40958625078201294,-0.027425497770309448,0.26655086874961853,-0.6025930047035217,0.332224577665329,-0.757018506526947,-0.19681060314178467,-0.06312432885169983,0.45246970653533936,-0.12043030560016632,0.15764176845550537,-0.3634147047996521,-0.7248255610466003,-0.1951105147600174,-0.7144714593887329,0.7188810110092163,-0.5117915272712708,-0.1694076508283615,0.4608832001686096,-0.183583602309227,0.3368608355522156,0.669006884098053,-0.18512432277202606,0.8770779967308044,-0.25879597663879395,0.9449877738952637,-0.3645937740802765,-0.5908793807029724,-0.4431362748146057,-1.0481160879135132,-0.6229329109191895,0.7606796622276306,0.163254052400589,-0.35241231322288513,0.052376195788383484,-0.035393692553043365,0.3771190941333771,-0.12916629016399384,-0.13262686133384705,-0.3372141122817993,0.4263034462928772,-0.03633999451994896,-0.4261908233165741,0.9599838852882385,0.9597476124763489,0.9600228667259216,0.959899365901947,0.9597477316856384,1.0396366119384766,0.9707478880882263,1.0390863418579102,0.9802436232566833,1.0379477739334106,-0.03874288126826286,0.013350220397114754,-0.03901045024394989,-0.03985759615898132,-0.0397421196103096,0.04008287936449051,-0.035876136273145676,0.03952053189277649,0.004500684328377247,0.03977399319410324,0.33832648396492004,0.4942708909511566,0.6714510321617126,-0.018339164555072784,0.36926382780075073,-0.5774357318878174,0.02318653091788292,0.7401766180992126,-0.31865349411964417,-0.12024125456809998,0.5732277631759644,-0.6056254506111145,-0.12124356627464294,0.26963818073272705,-0.254965603351593,0.25189799070358276,-0.258890837430954,0.14904537796974182,-0.7549803853034973,0.5936622619628906,0.3240073025226593,-0.3900284469127655,0.32973191142082214,0.5887783765792847,0.5813605785369873,0.7153189182281494,0.011320535093545914,-0.6587527990341187,-0.05261323228478432,0.4893759489059448,0.2550789415836334,-0.7511348724365234,0.5908809900283813,0.5445209741592407,0.2827613353729248,-0.41068950295448303,0.32157641649246216,-0.6134603023529053,-0.6287505030632019,-0.17475751042366028,-0.2124313861131668,0.6528273820877075,-0.32039588689804077,-0.5031769275665283,-0.40159738063812256,0.031123995780944824,0.09685222059488297,-0.720988392829895,0.2947239577770233,0.5491154193878174,-0.0620894618332386,-0.3096505105495453,-0.12208795547485352,-0.27650073170661926,-0.2261454313993454,0.9597582817077637,1.0394976139068604,0.9600951671600342,1.009993076324463,0.9615223407745361,-0.03985008969902992,0.04005628079175949,-0.039617106318473816,0.010437761433422565,-0.03965594619512558,-0.5529763698577881,0.48727211356163025,-0.7883924841880798,0.0372551754117012,-0.2147975116968155,-0.02109949290752411
-0.37894582748413086,-0.2640847861766815,0.6191661357879639,0.7487233281135559,-0.024234874173998833,0.496360182762146,0.5609355568885803,-0.4228156507015228,-0.18479561805725098,0.14158841967582703,-0.7624047994613647,-0.22222180664539337,-0.2479640394449234,0.4358314275741577,-0.3287416398525238,-0.02652328833937645,-0.7285836935043335,0.40483182668685913,-0.037323255091905594,0.256479412317276,-0.5928683876991272,0.3223498463630676,-0.7665419578552246,-0.20606154203414917,-0.07223216444253922,0.4431559145450592,-0.13000595569610596,0.14824405312538147,-0.37286847829818726,-0.7302886247634888,-0.18507970869541168,-0.7047911882400513,0.7274932861328125,-0.5216989517211914,-0.17932920157909393,0.4519074261188507,-0.17641420662403107,0.3466775715351105,0.6780193448066711,-0.1753968894481659,0.8668994903564453,-0.2686466872692108,0.9348344206809998,-0.37460774183273315,-0.6008800268173218,-0.433152973651886,-1.0580216646194458,-0.6328355073928833,0.750563383102417,0.1532387137413025,-0.3512308597564697,0.05457355082035065,-0.035525038838386536,0.37669140100479126,-0.13045932352542877,-0.132090762257576,-0.3374207019805908,0.42735418677330017,-0.03539459407329559,-0.4263467490673065,0.9503157734870911,0.9495899081230164,0.9505435228347778,0.9499216079711914,0.9500159025192261,1.0495355129241943,0.9681828618049622,1.0483191013336182,0.9859494566917419,1.042660117149353,-0.04851718619465828,0.008284298703074455,-0.04781598597764969,-0.049583692103624344,-0.048518404364585876,0.05017109215259552,-0.04192779213190079,0.0489778071641922,0.012601260095834732,0.049215734004974365,0.3480822741985321,0.48639607429504395,0.6621816158294678,-0.011935494840145111,0.3598126471042633,-0.5873603224754333,0.015042726881802082,0.7487095594406128,-0.319760262966156,-0.12838461995124817,0.5636017918586731,-0.5988253355026245,-0.1114756166934967,0.27827760577201843,-0.24517588317394257,0.24177239835262299,-0.2549608051776886,0.14047732949256897,-0.752684473991394,0.6032821536064148,0.31410887837409973,-0.39421918988227844,0.31975647807121277,0.5786265730857849,0.5713256001472473,0.7252398133277893,0.02094731479883194,-0.6684154272079468,-0.042661428451538086,0.4793832004070282,0.24749957025051117,-0.7422643303871155,0.599684476852417,0.5532901883125305,0.29163283109664917,-0.41929081082344055,0.3128298819065094,-0.6046715974807739,-0.6199990510940552,-0.16584350168704987,-0.22128444910049438,0.6429829001426697,-0.3268432915210724,-0.4983823895454407,-0.39277979731559753,0.041110023856163025,0.10691259801387787,-0.730595052242279,0.30473464727401733,0.5430586934089661,-0.06236554682254791,-0.31207552552223206,-0.12252827733755112,-0.2764424979686737,-0.22567503154277802,0.9497918486595154,1.049285888671875,0.9505326151847839,1.018723964691162,0.9542210102081299,-0.04973535239696503,0.05007726326584816,-0.04910675436258316,0.01928596943616867,-0.049394965171813965,-0.5430663228034973,0.4971156418323517,-0.7788770198822021,0.047016069293022156,-0.2076445072889328,-0.011218150146305561
-0.3716515302658081,-0.274070680141449,0.6267502307891846,0.7385565042495728,-0.015986748039722443,0.5035036206245422,0.556509792804718,-0.41981014609336853,-0.1940915584564209,0.131638765335083,-0.7576063275337219,-0.2320386916399002,-0.2565428912639618,0.4275723099708557,-0.33610615134239197,-0.017849069088697433,-0.737949013710022,0.3998469412326813,-0.04685059189796448,0.24640999734401703,-0.5834013819694519,0.31241273880004883,-0.7758792042732239,-0.2150203287601471,-0.08096690475940704,0.43568676710128784,-0.13865254819393158,0.1404917985200882,-0.38144201040267944,-0.7309714555740356,-0.17531560361385345,-0.6968984007835388,0.7310407757759094,-0.5316314101219177,-0.18924306333065033,0.4425797462463379,-0.16984641551971436,0.3566018342971802,0.6868929862976074,-0.16568921506404877,0.856692910194397,-0.2783978581428528,0.9246242642402649,-0.38468071818351746,-0.6109104752540588,-0.42336785793304443,-1.0677064657211304,-0.6421819925308228,0.7409740090370178,0.14356426894664764,-0.35019752383232117,0.05516795814037323,-0.035887110978364944,0.3762613534927368,-0.13175569474697113,-0.13165433704853058,-0.33768755197525024,0.4288429617881775,-0.03438814729452133,-0.4262334704399109,0.9423239827156067,0.9393783807754517,0.9417362809181213,0.9398593902587891,0.9407748579978943,1.0593438148498535,0.9704829454421997,1.056949257850647,0.9925803542137146,1.043233871459961,-0.05751819908618927,0.001529943197965622,-0.05540738254785538,-0.05909382551908493,-0.05547463893890381,0.06017223373055458,-0.04227626323699951,0.05794632062315941,0.020750392228364944,0.05726619437336922,0.35760727524757385,0.47799110412597656,0.6539496183395386,-0.00438572745770216,0.351318895816803,-0.5971115827560425,0.009777717292308807,0.755907416343689,-0.3243439793586731,-0.1345987468957901,0.5554606914520264,-0.5916194915771484,-0.10216157138347626,0.2864750027656555,-0.23627477884292603,0.2315986156463623,-0.2560063600540161,0.1350266933441162,-0.7471261620521545,0.6124096512794495,0.30450108647346497,-0.39564672112464905,0.30986616015434265,0.5685325264930725,0.5612730383872986,0.7350903749465942,0.030362561345100403,-0.6777011156082153,-0.03262271732091904,0.4695087969303131,0.24668742716312408,-0.7329972982406616,0.6088754534721375,0.562453031539917,0.30086615681648254,-0.4281976819038391,0.30372855067253113,-0.595609724521637,-0.6108963489532471,-0.1565716713666916,-0.22922754287719727,0.6332502365112305,-0.334218293428421,-0.4919703006744385,-0.3842734694480896,0.051046647131443024,0.11695095151662827,-0.7400178909301758,0.3147788345813751,0.53603595495224,-0.06472200900316238,-0.31397363543510437,-0.12257444858551025,-0.27636006474494934,-0.22529196739196777,0.9398801922798157,1.0589818954467773,0.9413090944290161,1.0278433561325073,0.9492253065109253,-0.059534408152103424,0.06003773584961891,-0.05821416527032852,0.02852233126759529,-0.05868746340274811,-0.5332162380218506,0.5068672299385071,-0.7697111964225769,0.05663197487592697,-0.20305821299552917,-0.0014293529093265533
-0.36904871463775635,-0.28411149978637695,0.6321731209754944,0.7283462882041931,-0.010627896524965763,0.5093010067939758,0.5501189231872559,-0.42088136076927185,-0.2035859227180481,0.12159279733896255,-0.7514720559120178,-0.24188072979450226,-0.26461106538772583,0.4199444055557251,-0.3426991105079651,-0.008778120391070843,-0.7449698448181152,0.3992557227611542,-0.055455248802900314,0.23671405017375946,-0.5741320848464966,0.3024679720401764,-0.7850657105445862,-0.22367048263549805,-0.08931989222764969,0.430664598941803,-0.14610671997070312,0.13552643358707428,-0.3887612223625183,-0.7283641695976257,-0.16577476263046265,-0.6912739276885986,0.7301322221755981,-0.5416560769081116,-0.1992475986480713,0.4330008327960968,-0.16419385373592377,0.3660805821418762,0.6956308484077454,-0.15611201524734497,0.8464468717575073,-0.28802892565727234,0.9143620133399963,-0.3948118984699249,-0.6209596991539001,-0.41342946887016296,-1.076836109161377,-0.6500037312507629,0.7327272295951843,0.13485538959503174,-0.34879156947135925,0.05545813962817192,-0.036068715155124664,0.37619441747665405,-0.1323954313993454,-0.13129116594791412,-0.3382446765899658,0.4301907420158386,-0.03405466675758362,-0.4259710907936096,0.9383000135421753,0.9291123151779175,0.9336628913879395,0.9298625588417053,0.9320278167724609,1.0690621137619019,0.975304365158081,1.064836025238037,0.9973523616790771,1.0402650833129883,-0.06273777782917023,-0.006242581643164158,-0.06170593947172165,-0.06829329580068588,-0.06052984669804573,0.07010163366794586,-0.039292313158512115,0.06626443564891815,0.02580110915005207,0.06134064123034477,0.36690205335617065,0.46907979249954224,0.6469003558158875,0.003908973187208176,0.3438841700553894,-0.6067503690719604,0.007088485173881054,0.7615653276443481,-0.3306436836719513,-0.13859888911247253,0.5504781603813171,-0.5845656394958496,-0.09352319687604904,0.29436182975769043,-0.2291668951511383,0.22137296199798584,-0.2601257562637329,0.13408580422401428,-0.7401729226112366,0.6207143068313599,0.29546302556991577,-0.39465445280075073,0.30005255341529846,0.5586085915565491,0.5511394143104553,0.7448683977127075,0.039536986500024796,-0.6864476799964905,-0.022523801773786545,0.45974552631378174,0.2510216534137726,-0.7234350442886353,0.6183350086212158,0.5719019770622253,0.31023967266082764,-0.4373626708984375,0.29433420300483704,-0.5863664150238037,-0.6015110015869141,-0.14723215997219086,-0.23593921959400177,0.6237297058105469,-0.3420417010784149,-0.48468902707099915,-0.37603408098220825,0.060869619250297546,0.12685425579547882,-0.7491410374641418,0.3247118592262268,0.5286546945571899,-0.06622836738824844,-0.3164738416671753,-0.12215440720319748,-0.27634474635124207,-0.2249041646718979,0.9300326108932495,1.0685317516326904,0.9325382113456726,1.0372521877288818,0.9470703601837158,-0.0692392885684967,0.0698554664850235,-0.0667223110795021,0.038039691746234894,-0.0665321871638298,-0.5234362483024597,0.5164713263511658,-0.7610021233558655,0.06604301184415817,-0.20155857503414154,0.00822463072836399
-0.3694854974746704,-0.29423388838768005,0.6355012655258179,0.71805739402771,-0.0078040617518126965,0.5135915875434875,0.5425962805747986,-0.4245285093784332,-0.21327057480812073,0.11145593225955963,-0.7445050477981567,-0.2516578733921051,-0.27193546295166016,0.4131802022457123,-0.34833547472953796,0.0006134351715445518,-0.7490488290786743,0.40187373757362366,-0.06296215951442719,0.22775425016880035,-0.5651382803916931,0.29254838824272156,-0.7940587401390076,-0.2319374978542328,-0.09722638875246048,0.42776820063591003,-0.1524917632341385,0.13285432755947113,-0.3949010372161865,-0.7238390445709229,-0.1564379334449768,-0.6879922151565552,0.7264425158500671,-0.5517629384994507,-0.20935821533203125,0.42320123314857483,-0.15975338220596313,0.37522441148757935,0.7042426466941833,-0.14665405452251434,0.836166501045227,-0.2978160083293915,0.9040365219116211,-0.4050144553184509,-0.6310563087463379,-0.4033551812171936,-1.085315227508545,-0.6561561226844788,0.7260955572128296,0.12723691761493683,-0.34747928380966187,0.0551297664642334,-0.03589048981666565,0.3759983479976654,-0.13317802548408508,-0.1312216818332672,-0.3386296331882477,0.43102511763572693,-0.03340057283639908,-0.4257088601589203,0.9379824995994568,0.9187989234924316,0.9263785481452942,0.9199771285057068,0.9238107204437256,1.0786539316177368,0.9816609025001526,1.071942687034607,1.0001624822616577,1.0351439714431763,-0.06404382735490799,-0.014699175953865051,-0.0666428655385971,-0.07733777910470963,-0.06380872428417206,0.07993537187576294,-0.034319501370191574,0.07391684502363205,0.03145817667245865,0.06182520091533661,0.3760160207748413,0.45977982878685,0.641096293926239,0.012726487591862679,0.337468683719635,-0.616334855556488,0.006137114483863115,0.7656110525131226,-0.33801373839378357,-0.14036813378334045,0.548905074596405,-0.5780788064002991,-0.08577500283718109,0.3018096685409546,-0.22425439953804016,0.2110813409090042,-0.26610448956489563,0.1365133672952652,-0.732280969619751,0.6279110312461853,0.2869848310947418,-0.39163920283317566,0.2903606593608856,0.5488983392715454,0.5409616827964783,0.754523515701294,0.048426248133182526,-0.6945794820785522,-0.012335015460848808,0.45017310976982117,0.25721606612205505,-0.71368408203125,0.6279443502426147,0.5815311670303345,0.3194611370563507,-0.4467657804489136,0.2846895456314087,-0.5769591331481934,-0.5918814539909363,-0.13839802145957947,-0.2412073016166687,0.6143894195556641,-0.34989914298057556,-0.47681528329849243,-0.3678821325302124,0.07054386287927628,0.13655756413936615,-0.7579919099807739,0.3344860374927521,0.5215576887130737,-0.0677046924829483,-0.3188181519508362,-0.12175314128398895,-0.2763899266719818,-0.22402645647525787,0.9202650189399719,1.0778727531433105,0.924323558807373,1.0468621253967285,0.9476739168167114,-0.07882916182279587,0.07947218418121338,-0.07454424351453781,0.04773567616939545,-0.07227497547864914,-0.5137428641319275,0.5258657336235046,-0.752849817276001,0.07518451660871506,-0.2029065638780594,0.017694279551506042
-0.3725503981113434,-0.30444517731666565,0.6363391876220703,0.7076835632324219,-0.00725186662748456,0.5164993405342102,0.5343097448348999,-0.42981451749801636,-0.22313278913497925,0.1012558788061142,-0.7372344732284546,-0.26132965087890625,-0.27814969420433044,0.407489538192749,-0.35279566049575806,0.010045460425317287,-0.750571072101593,0.40645816922187805,-0.06920168548822403,0.2197950780391693,-0.556496262550354,0.2826482653617859,-0.8028547763824463,-0.23976536095142365,-0.10461624711751938,0.4266318082809448,-0.15774798393249512,0.13202936947345734,-0.39976766705513,-0.718291163444519,-0.14734071493148804,-0.6863202452659607,0.7208707928657532,-0.5619670152664185,-0.21954864263534546,0.4132339358329773,-0.15740123391151428,0.3834758698940277,0.7127927541732788,-0.1373647302389145,0.8257964253425598,-0.3076411783695221,0.8936910033226013,-0.4152866303920746,-0.6411296725273132,-0.39322593808174133,-1.0927231311798096,-0.6607810854911804,0.7213360071182251,0.12044233083724976,-0.34663209319114685,0.05588911846280098,-0.03573798015713692,0.37582677602767944,-0.13410060107707977,-0.13138334453105927,-0.3392724096775055,0.4320965111255646,-0.03294632211327553,-0.42565661668777466,0.9404155611991882,0.9084688425064087,0.9199826121330261,0.9101447463035583,0.9162698984146118,1.0880917310714722,0.9890201091766357,1.078134298324585,1.0020173788070679,1.0285958051681519,-0.06225649639964104,-0.02364189922809601,-0.06999045610427856,-0.08642161637544632,-0.06498660892248154,0.08958921581506729,-0.02831396646797657,0.08073500543832779,0.037544600665569305,0.05904073640704155,0.3850122392177582,0.450177937746048,0.6365617513656616,0.021930884569883347,0.33203038573265076,-0.6258870363235474,0.006428733933717012,0.7680402994155884,-0.34611713886260986,-0.14009098708629608,0.5501136183738708,-0.5728269219398499,-0.07908690720796585,0.3086572587490082,-0.2215680330991745,0.20071810483932495,-0.2732754051685333,0.1411437690258026,-0.723720133304596,0.6337611079216003,0.2790704369544983,-0.38690218329429626,0.2808917760848999,0.5392302870750427,0.5308595299720764,0.7640143036842346,0.05693528801202774,-0.7019909024238586,-0.0020871534943580627,0.4409250020980835,0.2642688453197479,-0.7040696144104004,0.6374866366386414,0.5913432240486145,0.32761555910110474,-0.4563603103160858,0.2748250961303711,-0.5676165223121643,-0.5820513367652893,-0.13142353296279907,-0.24473345279693604,0.6053396463394165,-0.35775959491729736,-0.4693582355976105,-0.3599698543548584,0.08001191914081573,0.14591439068317413,-0.7663885354995728,0.3441663980484009,0.5143959522247314,-0.06947371363639832,-0.32119908928871155,-0.12162351608276367,-0.27639755606651306,-0.22293923795223236,0.9106023907661438,1.086931586265564,0.9167519211769104,1.056575059890747,0.950567364692688,-0.08827539533376694,0.08881839364767075,-0.08169446140527725,0.057465553283691406,-0.0751553401350975,-0.5041612982749939,0.5349777340888977,-0.7453415989875793,0.08398543298244476,-0.20647664368152618,0.02692154049873352
-0.3772309124469757,-0.31475627422332764,0.6349597573280334,0.6972737312316895,-0.008196886628866196,0.5176059007644653,0.5254747867584229,-0.43639615178108215,-0.23313893377780914,0.09095469117164612,-0.7299485206604004,-0.2707604169845581,-0.28302645683288574,0.40314698219299316,-0.35593894124031067,0.019554929807782173,-0.7496494650840759,0.41250577569007874,-0.07404772937297821,0.21325430274009705,-0.5482696294784546,0.2727818191051483,-0.8114399313926697,-0.24710766971111298,-0.11145991086959839,0.4269528090953827,-0.1619892716407776,0.13269153237342834,-0.40345239639282227,-0.7120417356491089,-0.13852643966674805,-0.6866042017936707,0.7140293717384338,-0.5722489356994629,-0.22984103858470917,0.40310150384902954,-0.1570890098810196,0.39104777574539185,0.7212430238723755,-0.12824292480945587,0.8153625726699829,-0.31754741072654724,0.8832978010177612,-0.4256337583065033,-0.6511107683181763,-0.38307666778564453,-1.0990006923675537,-0.6639587879180908,0.7183891534805298,0.11453821510076523,-0.3455580174922943,0.05613213777542114,-0.0359283946454525,0.37555575370788574,-0.13537554442882538,-0.13218021392822266,-0.340071439743042,0.4332123398780823,-0.03255848214030266,-0.42567136883735657,0.9448184967041016,0.8981523513793945,0.9144765734672546,0.9004547595977783,0.9093802571296692,1.0973223447799683,0.9970885515213013,1.0833743810653687,1.003565788269043,1.0210773944854736,-0.05817418545484543,-0.032973483204841614,-0.07197470963001251,-0.09554154425859451,-0.06443001329898834,0.09902240335941315,-0.021388985216617584,0.08666279911994934,0.04452453553676605,0.05428685247898102,0.39395672082901,0.4403391480445862,0.6332745552062988,0.03142804652452469,0.3275159001350403,-0.6353988647460938,0.0076748342253267765,0.768916130065918,-0.354747474193573,-0.13806027173995972,0.553356409072876,-0.5695042610168457,-0.0735580325126648,0.3148053288459778,-0.22087177634239197,0.1902884840965271,-0.28127381205558777,0.14725340902805328,-0.7146779894828796,0.6381286978721619,0.2717655301094055,-0.3809640407562256,0.27169400453567505,0.5296868085861206,0.5208531022071838,0.7732745409011841,0.06500989198684692,-0.7086247205734253,0.008154667913913727,0.4321129620075226,0.27184751629829407,-0.695328950881958,0.6466010808944702,0.6007202863693237,0.33345547318458557,-0.4661329984664917,0.26477137207984924,-0.5583479404449463,-0.5720276236534119,-0.1282523274421692,-0.24663399159908295,0.5965784192085266,-0.36529847979545593,-0.46254172921180725,-0.35213741660118103,0.08925076574087143,0.1548309624195099,-0.774322509765625,0.35370880365371704,0.507689893245697,-0.0713367834687233,-0.3242572546005249,-0.12149409204721451,-0.27621176838874817,-0.22228406369686127,0.901078999042511,1.0956218242645264,0.9098971486091614,1.0662637948989868,0.9552215933799744,-0.09754268079996109,0.09780720621347427,-0.08810202032327652,0.06712529808282852,-0.075093574821949,-0.4947262406349182,0.5437211990356445,-0.7385446429252625,0.0923694521188736,-0.2116856426000595,0.035840075463056564
-0.3801559507846832,-0.31996020674705505,0.6333927512168884,0.6920418739318848,-0.00932349544018507,0.5171675086021423,0.5208378434181213,-0.44016233086586,-0.23821809887886047,0.08575136214494705,-0.726510763168335,-0.2753630578517914,-0.2847678065299988,0.4017048478126526,-0.35679274797439575,0.024255182594060898,-0.7482807040214539,0.41601207852363586,-0.07577363401651382,0.2108304500579834,-0.5444126725196838,0.2678641676902771,-0.8156328201293945,-0.25050079822540283,-0.11457868665456772,0.42769280076026917,-0.1636655032634735,0.13360799849033356,-0.40476149320602417,-0.7086889743804932,-0.13422483205795288,-0.6874539256095886,0.710192084312439,-0.5773981809616089,-0.23502324521541595,0.39795783162117004,-0.15780803561210632,0.39465585350990295,0.7253769040107727,-0.12378312647342682,0.8101226687431335,-0.32249295711517334,0.8781059384346008,-0.4308263659477234,-0.6560314297676086,-0.37807419896125793,-1.101559042930603,-0.6649273633956909,0.7176892161369324,0.11204254627227783,-0.3451510965824127,0.056040700525045395,-0.03615213558077812,0.3753238618373871,-0.13589873909950256,-0.13262134790420532,-0.3404124677181244,0.433987557888031,-0.03239153325557709,-0.42570585012435913,0.9477109909057617,0.8930312991142273,0.9121860265731812,0.8957623243331909,0.9062548875808716,1.1018023490905762,1.0013891458511353,1.0855098962783813,1.0045289993286133,1.016953468322754,-0.05537746101617813,-0.037761107087135315,-0.07225386798381805,-0.100003182888031,-0.06341853737831116,0.10359534621238708,-0.017609670758247375,0.08913484960794449,0.04830043017864227,0.05128304287791252,0.39843446016311646,0.43533000349998474,0.6322191953659058,0.03628748282790184,0.32568424940109253,-0.6401142477989197,0.008683565072715282,0.768642008304596,-0.3592507839202881,-0.1363236904144287,0.5556948184967041,-0.5690680742263794,-0.07137774676084518,0.3174944818019867,-0.22133469581604004,0.1850496083498001,-0.28557339310646057,0.15082663297653198,-0.709992527961731,0.6395624876022339,0.26846256852149963,-0.37758514285087585,0.26725831627845764,0.5250247120857239,0.515905499458313,0.777750551700592,0.06879459321498871,-0.7115266919136047,0.013221463188529015,0.42799538373947144,0.27600806951522827,-0.6915909051895142,0.6508691906929016,0.6051809191703796,0.3355150520801544,-0.47112536430358887,0.25966668128967285,-0.5535736680030823,-0.5669278502464294,-0.12850229442119598,-0.2467491179704666,0.5923599004745483,-0.3690577745437622,-0.45971423387527466,-0.3483324944972992,0.09380419552326202,0.15913543105125427,-0.7780349254608154,0.35841622948646545,0.5042058825492859,-0.0720914751291275,-0.32522347569465637,-0.12133673578500748,-0.27615106105804443,-0.22210527956485748,0.8964093327522278,1.099731206893921,0.9068490862846375,1.0710161924362183,0.9582090973854065,-0.1020660251379013,0.10207169502973557,-0.09091150760650635,0.07178360968828201,-0.0739697590470314,-0.4901045560836792,0.5478577613830566,-0.7355192303657532,0.09631473571062088,-0.21489527821540833,0.040108755230903625
-0.383364737033844,-0.32519984245300293,0.6313170194625854,0.686788022518158,-0.010928990319371223,0.5160840749740601,0.5160316824913025,-0.4441893696784973,-0.2433767169713974,0.08051352947950363,-0.7234106063842773,-0.2798561453819275,-0.28568169474601746,0.4009303152561188,-0.3570059835910797,0.0288713276386261,-0.7463350296020508,0.41978996992111206,-0.07705532759428024,0.20908643305301666,-0.5408493876457214,0.2629566788673401,-0.8196957111358643,-0.2536326050758362,-0.11741409450769424,0.428786963224411,-0.1650463193655014,0.13481956720352173,-0.4056428372859955,-0.7053067088127136,-0.1300128847360611,-0.6887480616569519,0.7061154246330261,-0.582467257976532,-0.24023257195949554,0.39285603165626526,-0.1591475009918213,0.39835113286972046,0.7292252779006958,-0.11950477957725525,0.8048561215400696,-0.3274350166320801,0.872907817363739,-0.4360322058200836,-0.6609146595001221,-0.3730286657810211,-1.103527307510376,-0.6656036972999573,0.7175895571708679,0.10986633598804474,-0.3449074923992157,0.055523376911878586,-0.03651576116681099,0.3751751482486725,-0.13621702790260315,-0.13300469517707825,-0.3407750427722931,0.43484675884246826,-0.03228940814733505,-0.4257177412509918,0.9510385990142822,0.8879599571228027,0.9103038311004639,0.8912078142166138,0.9033727049827576,1.1061501502990723,1.0058872699737549,1.087199330329895,1.0062849521636963,1.0125762224197388,-0.05211198329925537,-0.042653270065784454,-0.07196613401174545,-0.10426977276802063,-0.06190984696149826,0.1080072745680809,-0.013647399842739105,0.09123294800519943,0.05246061831712723,0.04793938621878624,0.4029068350791931,0.4302705228328705,0.6316509246826172,0.04122106730937958,0.32418182492256165,-0.6448001861572266,0.00991970207542181,0.767806887626648,-0.3638373911380768,-0.13404178619384766,0.5584617853164673,-0.5693199038505554,-0.069742850959301,0.3196512460708618,-0.22230099141597748,0.17981113493442535,-0.29010775685310364,0.15473182499408722,-0.7053399085998535,0.6403629779815674,0.26551446318626404,-0.37391024827957153,0.2629851698875427,0.5204880833625793,0.5110101103782654,0.7820658087730408,0.07232636958360672,-0.7140330672264099,0.018208034336566925,0.4241831600666046,0.2804235517978668,-0.6889880299568176,0.6547340750694275,0.608744740486145,0.3366209864616394,-0.4762137532234192,0.25449272990226746,-0.5486649870872498,-0.5617867112159729,-0.1301005333662033,-0.24610862135887146,0.5883039832115173,-0.37286069989204407,-0.45746785402297974,-0.3447478413581848,0.09827499836683273,0.16319885849952698,-0.7814952731132507,0.36306360363960266,0.5006012916564941,-0.0724499300122261,-0.3259066045284271,-0.12110581994056702,-0.2760538160800934,-0.2219737023115158,0.8918365240097046,1.1035908460617065,0.9041575193405151,1.0756409168243408,0.9616842865943909,-0.10646840929985046,0.10614441335201263,-0.09334766119718552,0.07626575231552124,-0.07204574346542358,-0.485582172870636,0.5517501831054688,-0.7328430414199829,0.10001575201749802,-0.2185509204864502,0.0441848486661911
-0.38508519530296326,-0.3302871584892273,0.6296851634979248,0.6819453835487366,-0.01278204470872879,0.5141116976737976,0.5110830664634705,-0.44848114252090454,-0.24861128628253937,0.07522766292095184,-0.7207160592079163,-0.28424981236457825,-0.28580114245414734,0.4007594585418701,-0.35664495825767517,0.033556435257196426,-0.7437916994094849,0.4238610863685608,-0.07783018797636032,0.20808283984661102,-0.5375748872756958,0.25806599855422974,-0.8236375451087952,-0.2565130591392517,-0.11997293680906296,0.43027377128601074,-0.16608738899230957,0.136262446641922,-0.40609925985336304,-0.7018757462501526,-0.12586790323257446,-0.690424382686615,0.7018550038337708,-0.5874515771865845,-0.24545714259147644,0.38770949840545654,-0.16107448935508728,0.4023852050304413,0.7327984571456909,-0.11536905914545059,0.7995367646217346,-0.332492470741272,0.867635190486908,-0.44129547476768494,-0.6659092903137207,-0.36795806884765625,-1.1049154996871948,-0.6660366654396057,0.7180253267288208,0.10799654573202133,-0.3446405827999115,0.05523031949996948,-0.03672277182340622,0.37488844990730286,-0.136395663022995,-0.13358139991760254,-0.34101903438568115,0.4354602098464966,-0.03194211423397064,-0.4257108271121979,0.9548087120056152,0.8829094171524048,0.9088283181190491,0.8867325186729431,0.9007687568664551,1.110336184501648,1.010583758354187,1.0885454416275024,1.007883071899414,1.0079737901687622,-0.048350781202316284,-0.04763650894165039,-0.07110197842121124,-0.10840730369091034,-0.05985976755619049,0.11224858462810516,-0.0094227883964777,0.09295450896024704,0.05686822906136513,0.04419935494661331,0.40742483735084534,0.42513883113861084,0.6315521597862244,0.04622233659029007,0.3230215907096863,-0.6494224667549133,0.011468416079878807,0.7664992213249207,-0.36847057938575745,-0.13129542768001556,0.5617290735244751,-0.5699501037597656,-0.06873156130313873,0.320939838886261,-0.22383800148963928,0.17453181743621826,-0.29484957456588745,0.1589953452348709,-0.7005833387374878,0.6404547691345215,0.2629338502883911,-0.3700236678123474,0.2588757574558258,0.5160946249961853,0.5061631798744202,0.7862116098403931,0.07559999078512192,-0.7161630392074585,0.02308676578104496,0.4206971526145935,0.2849104106426239,-0.6874438524246216,0.6582370400428772,0.6114101409912109,0.33722224831581116,-0.4813780188560486,0.2492765188217163,-0.5436206459999084,-0.5565962791442871,-0.13262434303760529,-0.24480991065502167,0.5844131708145142,-0.37663164734840393,-0.4557286202907562,-0.3413509130477905,0.10266396403312683,0.1670115888118744,-0.7847041487693787,0.36765164136886597,0.4970131814479828,-0.07303891330957413,-0.32650667428970337,-0.12079787999391556,-0.27590060234069824,-0.22173623740673065,0.8873667120933533,1.1071833372116089,0.9017971158027649,1.0801085233688354,0.9655330777168274,-0.11076004058122635,0.1100916862487793,-0.09543368220329285,0.08050232380628586,-0.06951411813497543,-0.4811668395996094,0.5553908944129944,-0.7304900288581848,0.10347560048103333,-0.22254712879657745,0.04806356877088547
-0.3858225643634796,-0.3352746069431305,0.6283226609230042,0.6773964166641235,-0.015004284679889679,0.5115792751312256,0.5060115456581116,-0.45296189188957214,-0.25391435623168945,0.0698937475681305,-0.7184238433837891,-0.2885434925556183,-0.28511300683021545,0.401149719953537,-0.3557739853858948,0.03825455158948898,-0.7408098578453064,0.4281412363052368,-0.07825185358524323,0.2076122909784317,-0.5345746278762817,0.2531900405883789,-0.8274749517440796,-0.2591547667980194,-0.12227042764425278,0.43196892738342285,-0.16691984236240387,0.1377713680267334,-0.4062366485595703,-0.6985422968864441,-0.12176434695720673,-0.6923753023147583,0.6975270509719849,-0.5922739505767822,-0.25064364075660706,0.38252249360084534,-0.16355130076408386,0.40666714310646057,0.7361112236976624,-0.11135152727365494,0.794159471988678,-0.33760082721710205,0.8623058795928955,-0.4466070532798767,-0.6709445118904114,-0.3629569113254547,-1.1058695316314697,-0.6664895415306091,0.7187095284461975,0.10611598193645477,-0.3442089259624481,0.055076465010643005,-0.03690466657280922,0.37463510036468506,-0.13635021448135376,-0.1342373490333557,-0.34119027853012085,0.43601876497268677,-0.03174089267849922,-0.4257020950317383,0.9588804841041565,0.8779118657112122,0.9076735973358154,0.8822739124298096,0.8983355760574341,1.1143670082092285,1.0153930187225342,1.0896286964416504,1.009806513786316,1.0032182931900024,-0.04423702880740166,-0.05271454527974129,-0.06981053948402405,-0.11250728368759155,-0.05742326006293297,0.11636171489953995,-0.005060771480202675,0.09436998516321182,0.061129920184612274,0.04022938013076782,0.41201138496398926,0.41996490955352783,0.6318071484565735,0.05127871409058571,0.3220735490322113,-0.6539673209190369,0.013201664201915264,0.7648298740386963,-0.37308362126350403,-0.12820099294185638,0.5652902126312256,-0.5714892148971558,-0.06819912791252136,0.3213179409503937,-0.2256702184677124,0.1692577451467514,-0.29972776770591736,0.16351808607578278,-0.6958827376365662,0.6399661898612976,0.26067736744880676,-0.3659738600254059,0.254942923784256,0.5117905735969543,0.5013819932937622,0.790188729763031,0.07863178849220276,-0.717984139919281,0.02784591168165207,0.4175311028957367,0.28869834542274475,-0.6866247057914734,0.6612335443496704,0.6119678020477295,0.3375657796859741,-0.4865962564945221,0.24408233165740967,-0.5385968089103699,-0.5514011383056641,-0.135863795876503,-0.2429925501346588,0.5806573033332825,-0.38024118542671204,-0.45470091700553894,-0.3379833698272705,0.10695713013410568,0.1705550104379654,-0.787726104259491,0.37210318446159363,0.4935768246650696,-0.07387940585613251,-0.3271721601486206,-0.1206633448600769,-0.27579501271247864,-0.2214558720588684,0.8830094933509827,1.1104954481124878,0.8997410535812378,1.0843874216079712,0.9696782827377319,-0.11494315415620804,0.11392959207296371,-0.09720828384160995,0.08452289551496506,-0.06642220914363861,-0.4768694341182709,0.5587707757949829,-0.7284343242645264,0.10669814050197601,-0.22680985927581787,0.05173777788877487
-0.38482293486595154,-0.339700311422348,0.6280472874641418,0.6740737557411194,-0.017191562801599503,0.5085144639015198,0.5008140206336975,-0.45764991641044617,-0.25928884744644165,0.06449711322784424,-0.716526448726654,-0.29275012016296387,-0.2837728261947632,0.4020157754421234,-0.3544635772705078,0.04277946054935455,-0.7375884652137756,0.4324972629547119,-0.07848162204027176,0.20747824013233185,-0.5318369269371033,0.2483293116092682,-0.831216037273407,-0.2615715265274048,-0.124321348965168,0.43378299474716187,-0.16757629811763763,0.1392906904220581,-0.40612244606018066,-0.6953761577606201,-0.11767810583114624,-0.6945343017578125,0.6931706666946411,-0.5969255566596985,-0.2557816207408905,0.37739452719688416,-0.16644705832004547,0.41079533100128174,0.7391550540924072,-0.10759054869413376,0.7887198328971863,-0.3428197503089905,0.8568986058235168,-0.45198753476142883,-0.6760680079460144,-0.3580302894115448,-1.1063789129257202,-0.6669776439666748,0.7196356654167175,0.10424136370420456,-0.3438643217086792,0.054974231868982315,-0.0370861180126667,0.3742658197879791,-0.1363779753446579,-0.13479368388652802,-0.3412346839904785,0.4366331696510315,-0.03163838014006615,-0.4258757531642914,0.9632019400596619,0.8729591369628906,0.9068220853805542,0.8778131008148193,0.8961115479469299,1.1182045936584473,1.020323395729065,1.0905135869979858,1.0123472213745117,0.9983215928077698,-0.03982312232255936,-0.05785541608929634,-0.06812843680381775,-0.11653979867696762,-0.054587285965681076,0.12030257284641266,-0.0005234647542238235,0.09558679163455963,0.06444139033555984,0.036000028252601624,0.4166632294654846,0.4147758185863495,0.6323568820953369,0.056370094418525696,0.3212890923023224,-0.6584035158157349,0.015077948570251465,0.7628692388534546,-0.37762144207954407,-0.12483519315719604,0.569098174571991,-0.5732219815254211,-0.06817902624607086,0.32068178057670593,-0.2278466373682022,0.16395944356918335,-0.3047495186328888,0.16827383637428284,-0.6913816928863525,0.638889729976654,0.258781373500824,-0.3618098497390747,0.2512008845806122,0.507600724697113,0.49668440222740173,0.7939715385437012,0.08141106367111206,-0.719534158706665,0.03239786997437477,0.41472214460372925,0.29168736934661865,-0.6866505146026611,0.6637133359909058,0.6108785271644592,0.33784404397010803,-0.4918525815010071,0.2389269471168518,-0.5335376858711243,-0.5462419390678406,-0.13963431119918823,-0.2406913787126541,0.5770525932312012,-0.38380855321884155,-0.45442768931388855,-0.3348338007926941,0.11114329099655151,0.17370298504829407,-0.7905405163764954,0.3764384984970093,0.4901754856109619,-0.07474488765001297,-0.3275168836116791,-0.1204882264137268,-0.27571481466293335,-0.22108255326747894,0.8787776231765747,1.1135108470916748,0.8979600667953491,1.0884556770324707,0.9740591645240784,-0.11900918185710907,0.1177041232585907,-0.09871182590723038,0.08830780535936356,-0.06291910260915756,-0.4727027416229248,0.5618823766708374,-0.7266479134559631,0.10968960076570511,-0.23128344118595123,0.05519961938261986
-0.3827778100967407,-0.34363943338394165,0.6285812854766846,0.671795666217804,-0.01933875121176243,0.5050362944602966,0.4955134391784668,-0.4624907672405243,-0.2647148072719574,0.05905752629041672,-0.7148397564888,-0.2968657612800598,-0.28192102909088135,0.4032992124557495,-0.352784126996994,0.04703565314412117,-0.7342304587364197,0.4368542730808258,-0.0786176323890686,0.2075752317905426,-0.5293448567390442,0.24349038302898407,-0.8348720669746399,-0.2637706398963928,-0.1261434555053711,0.4356621205806732,-0.16809988021850586,0.14077654480934143,-0.40581014752388,-0.6923944354057312,-0.1135859414935112,-0.696837842464447,0.688849687576294,-0.6013621091842651,-0.26084771752357483,0.3723122775554657,-0.16974122822284698,0.4151121973991394,0.7418074011802673,-0.10411717742681503,0.7832130789756775,-0.34814080595970154,0.8514173626899719,-0.4574318528175354,-0.6812784671783447,-0.3531368672847748,-1.1066663265228271,-0.6675453782081604,0.7206324934959412,0.10241348296403885,-0.3436431288719177,0.055019084364175797,-0.03726727142930031,0.3740347623825073,-0.13638488948345184,-0.13559554517269135,-0.34132176637649536,0.4371327757835388,-0.03165644034743309,-0.42590954899787903,0.9676928520202637,0.8681193590164185,0.9062491059303284,0.8734151124954224,0.89406818151474,1.1218341588974,1.0252768993377686,1.0911937952041626,1.0153690576553345,0.9933355450630188,-0.03519821912050247,-0.06302618235349655,-0.06609423458576202,-0.120400071144104,-0.051418695598840714,0.12405840307474136,0.004064600914716721,0.09655611217021942,0.06761972606182098,0.03172142058610916,0.4213787615299225,0.4095913767814636,0.633147120475769,0.061480142176151276,0.32062387466430664,-0.6626970171928406,0.017066141590476036,0.7606844902038574,-0.38202810287475586,-0.12126070261001587,0.573014497756958,-0.5753450989723206,-0.06855043768882751,0.3192676603794098,-0.23021936416625977,0.15866832435131073,-0.30985450744628906,0.17320133745670319,-0.6872133016586304,0.6373549699783325,0.25726452469825745,-0.3575787842273712,0.24765406548976898,0.5035368800163269,0.49206721782684326,0.7975499629974365,0.08392402529716492,-0.7208354473114014,0.03670758008956909,0.4122895300388336,0.2930929362773895,-0.6872298121452332,0.6657987833023071,0.6085554957389832,0.33866459131240845,-0.49710264801979065,0.2337912917137146,-0.5285420417785645,-0.5412629246711731,-0.14381113648414612,-0.2380499690771103,0.5737218856811523,-0.38747239112854004,-0.45508843660354614,-0.332134485244751,0.11517637968063354,0.1762685924768448,-0.7930492162704468,0.3805398941040039,0.48663944005966187,-0.07547064125537872,-0.3278549611568451,-0.1204318255186081,-0.27573084831237793,-0.22070661187171936,0.8746854662895203,1.1162251234054565,0.896420955657959,1.0922962427139282,0.978630781173706,-0.12294992059469223,0.1213851049542427,-0.09997553378343582,0.09194852411746979,-0.05902046710252762,-0.4686814248561859,0.5647189021110535,-0.7250981330871582,0.11245999485254288,-0.2359229028224945,0.058441758155822754
-0.37999364733695984,-0.3471693992614746,0.6297882795333862,0.6703605055809021,-0.021451780572533607,0.5012747645378113,0.49015533924102783,-0.4673976004123688,-0.2701628804206848,0.05358045920729637,-0.7133160829544067,-0.3008960485458374,-0.27964064478874207,0.4049357771873474,-0.35079264640808105,0.05077429860830307,-0.7309216856956482,0.4410775601863861,-0.07879630476236343,0.20767717063426971,-0.5270902514457703,0.23867812752723694,-0.838444709777832,-0.2657618522644043,-0.12775114178657532,0.4375610649585724,-0.16852310299873352,0.142179474234581,-0.4053370952606201,-0.6896345019340515,-0.1094595268368721,-0.6992087960243225,0.684628963470459,-0.6055460572242737,-0.265823632478714,0.36731231212615967,-0.17334318161010742,0.4196012020111084,0.7440500259399414,-0.10093972086906433,0.7776361703872681,-0.3535568118095398,0.8458698987960815,-0.4629344046115875,-0.6865636706352234,-0.3483070731163025,-1.1067343950271606,-0.6682371497154236,0.7216619253158569,0.10060500353574753,-0.3433527946472168,0.054858557879924774,-0.037529390305280685,0.37387529015541077,-0.13642331957817078,-0.136265829205513,-0.34134745597839355,0.43749111890792847,-0.03187958523631096,-0.42581281065940857,0.9722787141799927,0.8634331226348877,0.9059204459190369,0.8691414594650269,0.8921608328819275,1.1252429485321045,1.0301368236541748,1.0916879177093506,1.0188430547714233,0.9883248209953308,-0.03043258748948574,-0.06815651059150696,-0.0637689158320427,-0.12396685779094696,-0.04799579083919525,0.1276233047246933,0.008582538925111294,0.09726130962371826,0.07115001976490021,0.02748939022421837,0.42615431547164917,0.40443113446235657,0.6341254711151123,0.06659387797117233,0.3200337290763855,-0.6668128967285156,0.01913183555006981,0.758340060710907,-0.38624104857444763,-0.11753210425376892,0.5769033432006836,-0.5779805779457092,-0.06919532269239426,0.31724250316619873,-0.2326422482728958,0.15341858565807343,-0.3149646520614624,0.17823633551597595,-0.6835489869117737,0.6354783177375793,0.2561454772949219,-0.3533211946487427,0.24430780112743378,0.4996127784252167,0.48752787709236145,0.8009134531021118,0.08615411818027496,-0.7219126224517822,0.040740013122558594,0.4102495312690735,0.2929977476596832,-0.6884264945983887,0.6675527095794678,0.6057323217391968,0.3402937352657318,-0.5023084878921509,0.22872555255889893,-0.5234777331352234,-0.5363332033157349,-0.14830909669399261,-0.23508784174919128,0.570675253868103,-0.39127814769744873,-0.4565582275390625,-0.32999756932258606,0.11904799193143845,0.1781407594680786,-0.7952470183372498,0.3844306170940399,0.48295196890830994,-0.07611817866563797,-0.3281874656677246,-0.12034711241722107,-0.27574047446250916,-0.22030647099018097,0.8707478642463684,1.11863112449646,0.8950870037078857,1.0959100723266602,0.9833516478538513,-0.12675656378269196,0.12494540959596634,-0.10103415697813034,0.0954473540186882,-0.054829999804496765,-0.4648207724094391,0.56727135181427,-0.7237493395805359,0.11502282321453094,-0.24068938195705414,0.06145835667848587
-0.3768210709095001,-0.35052353143692017,0.6314736008644104,0.6691018342971802,-0.02380351722240448,0.4973512887954712,0.4847675859928131,-0.4723077118396759,-0.2756004333496094,0.04808072745800018,-0.7120015025138855,-0.3049077093601227,-0.2768920361995697,0.4068090617656708,-0.3485725522041321,0.05351603403687477,-0.7280032634735107,0.4448700547218323,-0.07910927385091782,0.20762833952903748,-0.5250319838523865,0.23391330242156982,-0.8419400453567505,-0.2675562798976898,-0.129185751080513,0.43960464000701904,-0.1686757355928421,0.1434745490550995,-0.4046296179294586,-0.6871206760406494,-0.1052122563123703,-0.7012830972671509,0.6807217597961426,-0.6094741225242615,-0.2706080973148346,0.3623664379119873,-0.17720605432987213,0.4243093729019165,0.7458654642105103,-0.09804530441761017,0.7720250487327576,-0.3590086102485657,0.840304434299469,-0.4684317708015442,-0.6918545961380005,-0.3435888886451721,-1.10657799243927,-0.6691205501556396,0.7226750254631042,0.09874039143323898,-0.34304776787757874,0.05464911088347435,-0.037721775472164154,0.3736405372619629,-0.13651636242866516,-0.13693955540657043,-0.34130793809890747,0.4378073215484619,-0.032210830599069595,-0.42577335238456726,0.9768739938735962,0.8589117527008057,0.9058276414871216,0.865077793598175,0.8903235793113708,1.1284245252609253,1.0346616506576538,1.0919880867004395,1.0228266716003418,0.9834031462669373,-0.02565811760723591,-0.07322384417057037,-0.06115414947271347,-0.1267680674791336,-0.0444328635931015,0.13086795806884766,0.01273772120475769,0.09768673032522202,0.07493792474269867,0.023498011752963066,0.4309890568256378,0.39929497241973877,0.6353118419647217,0.07173413783311844,0.3195042908191681,-0.6707138419151306,0.021647416055202484,0.7558366656303406,-0.39022210240364075,-0.11367756128311157,0.5805895328521729,-0.581170916557312,-0.06993629783391953,0.31474483013153076,-0.2348654866218567,0.14827358722686768,-0.31989601254463196,0.1832837164402008,-0.6807323098182678,0.6334032416343689,0.2554384469985962,-0.349071741104126,0.24116821587085724,0.4958423376083374,0.4830656051635742,0.8040517568588257,0.08808141201734543,-0.7227907776832581,0.044462695717811584,0.4086140990257263,0.2912030816078186,-0.6895421147346497,0.6689817905426025,0.6022428274154663,0.3430993854999542,-0.5073351263999939,0.223892480134964,-0.5189041495323181,-0.5316829085350037,-0.1530444324016571,-0.23184716701507568,0.5679031014442444,-0.3950957953929901,-0.45874541997909546,-0.32835331559181213,0.12273640930652618,0.1792306751012802,-0.7971705198287964,0.3880755603313446,0.47929567098617554,-0.07643575966358185,-0.328416645526886,-0.12031880766153336,-0.2757360339164734,-0.219741553068161,0.8669823408126831,1.1207207441329956,0.8939200043678284,1.0993033647537231,0.9881871342658997,-0.1304030567407608,0.12835492193698883,-0.10192444920539856,0.09886413812637329,-0.050397925078868866,-0.4611358642578125,0.5695292353630066,-0.7225646376609802,0.11739373207092285,-0.24554859101772308,0.06424549967050552
-0.3732692003250122,-0.3535897135734558,0.6334871649742126,0.6684242486953735,-0.025781307369470596,0.49334442615509033,0.4793797433376312,-0.47716230154037476,-0.28100645542144775,0.042555149644613266,-0.7108026146888733,-0.3088828921318054,-0.273772269487381,0.4088762104511261,-0.3461730182170868,0.055047858506441116,-0.725621223449707,0.448115736246109,-0.07967815548181534,0.20731806755065918,-0.5231573581695557,0.22921538352966309,-0.8453535437583923,-0.2691594064235687,-0.13046646118164062,0.4417780935764313,-0.16854479908943176,0.14462636411190033,-0.4037250578403473,-0.684856116771698,-0.10083821415901184,-0.7029937505722046,0.6771751642227173,-0.6131289005279541,-0.2752086818218231,0.35734641551971436,-0.1813427358865738,0.42915937304496765,0.7473882436752319,-0.0953732281923294,0.7665607929229736,-0.364374577999115,0.83480304479599,-0.47384917736053467,-0.6969698667526245,-0.33901897072792053,-1.1061804294586182,-0.670202910900116,0.7236657738685608,0.09684604406356812,-0.3428434729576111,0.05446159094572067,-0.03787294030189514,0.37352097034454346,-0.13662515580654144,-0.13761648535728455,-0.34123536944389343,0.43808653950691223,-0.032415200024843216,-0.42565277218818665,0.9814175367355347,0.8545201420783997,0.9059578776359558,0.861191987991333,0.8885483741760254,1.1313755512237549,1.0387049913406372,1.0921351909637451,1.0272098779678345,0.9786015152931213,-0.02089656889438629,-0.07818304002285004,-0.05827804654836655,-0.12899906933307648,-0.04075365513563156,0.1337178647518158,0.016415096819400787,0.09778331220149994,0.07916411012411118,0.019753236323595047,0.4358890950679779,0.39418572187423706,0.6366732716560364,0.0768895074725151,0.3190271258354187,-0.674315333366394,0.02455715276300907,0.7532304525375366,-0.3939262926578522,-0.10972997546195984,0.5839134454727173,-0.5845699310302734,-0.0707131177186966,0.31183505058288574,-0.23681864142417908,0.14322738349437714,-0.3245874047279358,0.18831869959831238,-0.6792011260986328,0.631190299987793,0.25511085987091064,-0.3447561264038086,0.23823414742946625,0.49219799041748047,0.47866421937942505,0.806983470916748,0.08963889628648758,-0.7235332727432251,0.047943729907274246,0.40736159682273865,0.28829002380371094,-0.6903335452079773,0.6702954173088074,0.5982130765914917,0.34666988253593445,-0.5120466947555542,0.21947698295116425,-0.5152756571769714,-0.5272798538208008,-0.1579609364271164,-0.22841744124889374,0.5654498338699341,-0.399027556180954,-0.46154871582984924,-0.32739967107772827,0.12620455026626587,0.1794257014989853,-0.7987688779830933,0.3914886713027954,0.4755985140800476,-0.07682754844427109,-0.3291313946247101,-0.12000520527362823,-0.27573689818382263,-0.21940015256404877,0.8634014129638672,1.1224792003631592,0.8928861618041992,1.1024945974349976,0.9931049942970276,-0.1338917762041092,0.13161729276180267,-0.10265834629535675,0.10215271264314651,-0.045734938234090805,-0.45764103531837463,0.5714804530143738,-0.7215093374252319,0.11958853900432587,-0.25046685338020325,0.06680089980363846
-0.36926019191741943,-0.35597410798072815,0.6362282037734985,0.6684885621070862,-0.026442524045705795,0.48935380578041077,0.47402438521385193,-0.4819260239601135,-0.2863280773162842,0.03699411824345589,-0.7093484997749329,-0.3127765357494354,-0.2704492509365082,0.41112080216407776,-0.3436473608016968,0.05555427819490433,-0.7237758040428162,0.45080870389938354,-0.08053015172481537,0.20675645768642426,-0.5214376449584961,0.22460336983203888,-0.8487024307250977,-0.27056998014450073,-0.1316104680299759,0.4440038502216339,-0.16819451749324799,0.1455754190683365,-0.4026758372783661,-0.682905912399292,-0.09633716195821762,-0.7042912840843201,0.6740046739578247,-0.6165128946304321,-0.2796507477760315,0.3523450493812561,-0.18566317856311798,0.43417227268218994,0.7485525012016296,-0.09290416538715363,0.761236310005188,-0.36965739727020264,0.8293642997741699,-0.4791366159915924,-0.7019635438919067,-0.3346235752105713,-1.105570912361145,-0.6714736819267273,0.7246109843254089,0.09494777023792267,-0.3429253101348877,0.05429346486926079,-0.03806671127676964,0.3732379972934723,-0.13664689660072327,-0.13806083798408508,-0.34101957082748413,0.4385979473590851,-0.03259693458676338,-0.42556676268577576,0.9858568906784058,0.8502969145774841,0.9062878489494324,0.8574569225311279,0.886846661567688,1.1340655088424683,1.0422471761703491,1.0921903848648071,1.031914234161377,0.9739349484443665,-0.016133468598127365,-0.08294391632080078,-0.055207040160894394,-0.13059256970882416,-0.036976952105760574,0.13612262904644012,0.019657479599118233,0.0975964367389679,0.0836588442325592,0.01624901592731476,0.440837025642395,0.3891352713108063,0.6381548047065735,0.08200206607580185,0.3185819387435913,-0.6775541305541992,0.02765939012169838,0.7506060600280762,-0.39725735783576965,-0.10573971271514893,0.5867746472358704,-0.5881621837615967,-0.07151053845882416,0.3085396885871887,-0.23850195109844208,0.13824504613876343,-0.3290367126464844,0.19333361089229584,-0.6789457201957703,0.6288638710975647,0.25517186522483826,-0.3404204547405243,0.2355167120695114,0.488684743642807,0.4743349850177765,0.8096964359283447,0.09081576019525528,-0.7241552472114563,0.05113673582673073,0.40650179982185364,0.28462475538253784,-0.6905695796012878,0.6716625690460205,0.5937576293945312,0.3507791757583618,-0.5162875056266785,0.21569892764091492,-0.5130106806755066,-0.5230898261070251,-0.16301365196704865,-0.22481626272201538,0.5633212327957153,-0.4031536877155304,-0.46485117077827454,-0.3271998465061188,0.12945713102817535,0.17880062758922577,-0.8000440001487732,0.3946806490421295,0.47173526883125305,-0.07719285786151886,-0.3295517563819885,-0.11978277564048767,-0.27579230070114136,-0.21903276443481445,0.8600172996520996,1.1238934993743896,0.8919504284858704,1.105506181716919,0.9980723857879639,-0.13722121715545654,0.13476020097732544,-0.10327541083097458,0.10528048127889633,-0.040913328528404236,-0.45434990525245667,0.5731174945831299,-0.7205502390861511,0.12162359058856964,-0.2554125189781189,0.06912291049957275
-0.3671746253967285,-0.35706162452697754,0.6378103494644165,0.6684900522232056,-0.025999151170253754,0.48743966221809387,0.47137948870658875,-0.48422616720199585,-0.28892236948013306,0.03420719504356384,-0.7085505723953247,-0.31466448307037354,-0.2687067687511444,0.41234147548675537,-0.342309832572937,0.055327337235212326,-0.7231553792953491,0.45184943079948425,-0.08111564815044403,0.2063295990228653,-0.5206376910209656,0.22239239513874054,-0.8503429889678955,-0.27117156982421875,-0.13211654126644135,0.4451267123222351,-0.1678156554698944,0.1459016501903534,-0.4020715653896332,-0.6822522282600403,-0.09402390569448471,-0.704698920249939,0.6726384162902832,-0.6180571913719177,-0.2817908525466919,0.3498125374317169,-0.18790192902088165,0.4367595613002777,0.749011754989624,-0.091670922935009,0.7587215304374695,-0.3721557855606079,0.8267194032669067,-0.48163872957229614,-0.7043873071670532,-0.3325197398662567,-1.1052318811416626,-0.6722230911254883,0.7249981760978699,0.09391693025827408,-0.34295013546943665,0.05415354296565056,-0.03821137547492981,0.373241126537323,-0.13666148483753204,-0.13829699158668518,-0.3409055173397064,0.43884435296058655,-0.03274194151163101,-0.4254588186740875,0.9880029559135437,0.8482754826545715,0.9065440893173218,0.8556570410728455,0.8860256671905518,1.135290503501892,1.04359769821167,1.0921735763549805,1.0344022512435913,0.9717012047767639,-0.01384313777089119,-0.08520157635211945,-0.053586941212415695,-0.13110408186912537,-0.03503253310918808,0.13715879619121552,0.020905863493680954,0.0973900780081749,0.08604080975055695,0.014687544666230679,0.4433321952819824,0.38664710521698,0.6389452219009399,0.08453419059515,0.31837624311447144,-0.6789824962615967,0.029304588213562965,0.7492948174476624,-0.3987072706222534,-0.1037336215376854,0.5879300832748413,-0.5901198983192444,-0.07184045016765594,0.30677950382232666,-0.2390921711921692,0.1358136534690857,-0.33099716901779175,0.19577445089817047,-0.6793618202209473,0.627711296081543,0.2553611993789673,-0.3381728231906891,0.23425178229808807,0.4869629144668579,0.4722418487071991,0.8109551072120667,0.09116928279399872,-0.7244699597358704,0.052553337067365646,0.4062424898147583,0.28252077102661133,-0.6903214454650879,0.6724435091018677,0.5913602709770203,0.3530394434928894,-0.5180906057357788,0.21424058079719543,-0.5126475691795349,-0.5210692286491394,-0.16558828949928284,-0.2230006903409958,0.5624383687973022,-0.4053524136543274,-0.4666752219200134,-0.32743868231773376,0.13099579513072968,0.17815424501895905,-0.8005017042160034,0.3962160050868988,0.4696182608604431,-0.07735303789377213,-0.3297470211982727,-0.11969028413295746,-0.275816947221756,-0.21890458464622498,0.8584279417991638,1.12442946434021,0.891517162322998,1.106934666633606,1.0005643367767334,-0.138808935880661,0.13624560832977295,-0.10352277755737305,0.10675188153982162,-0.03848407045006752,-0.45281150937080383,0.5737758874893188,-0.7201032638549805,0.12256941199302673,-0.2578839659690857,0.070167176425457
-0.3650469481945038,-0.3581220209598541,0.6395496129989624,0.6683521270751953,-0.025076812133193016,0.48561111092567444,0.4687798023223877,-0.48644426465034485,-0.2914341688156128,0.031431179493665695,-0.7076642513275146,-0.3164985477924347,-0.26690879464149475,0.41364434361457825,-0.3409101068973541,0.05469105765223503,-0.7228297591209412,0.45259103178977966,-0.0818571075797081,0.20575731992721558,-0.5198733806610107,0.22029361128807068,-0.8519449830055237,-0.2716836929321289,-0.1325782686471939,0.44627645611763,-0.1671895533800125,0.14612731337547302,-0.4013846814632416,-0.6819058656692505,-0.09165948629379272,-0.7048835754394531,0.6714687943458557,-0.6194641590118408,-0.2838679552078247,0.3472647964954376,-0.19022566080093384,0.4394351541996002,0.7492878437042236,-0.09047798812389374,0.7563433051109314,-0.37451276183128357,0.8241475820541382,-0.48400381207466125,-0.7067451477050781,-0.33050084114074707,-1.1048471927642822,-0.6730619668960571,0.725324273109436,0.0928441658616066,-0.34295007586479187,0.05409258231520653,-0.038340646773576736,0.37318024039268494,-0.13666926324367523,-0.1385078877210617,-0.34080854058265686,0.4390057921409607,-0.03280665725469589,-0.4253111481666565,0.9900725483894348,0.8463380932807922,0.9068819880485535,0.8539340496063232,0.8852280974388123,1.136411190032959,1.0445234775543213,1.092130184173584,1.036997675895691,0.969551682472229,-0.011664004996418953,-0.0873405858874321,-0.05189665034413338,-0.13133330643177032,-0.03301596641540527,0.13805556297302246,0.021758178249001503,0.09708306193351746,0.0885222852230072,0.013279491104185581,0.44584283232688904,0.3841983675956726,0.639772891998291,0.0870387926697731,0.31817856431007385,-0.6802260875701904,0.031022781506180763,0.7479965090751648,-0.39993977546691895,-0.10172513872385025,0.588821530342102,-0.592202365398407,-0.07210566848516464,0.30494874715805054,-0.23945415019989014,0.13343648612499237,-0.33270370960235596,0.19814175367355347,-0.6802050471305847,0.6265748143196106,0.25567594170570374,-0.3358278274536133,0.23306448757648468,0.48525142669677734,0.4701921045780182,0.8121351599693298,0.09127195924520493,-0.7248311042785645,0.053839005529880524,0.4061274826526642,0.28020811080932617,-0.689712643623352,0.6733389496803284,0.5888276100158691,0.35546761751174927,-0.5195582509040833,0.21322685480117798,-0.5129294395446777,-0.5191006660461426,-0.1681991070508957,-0.22120563685894012,0.5617496371269226,-0.40768730640411377,-0.4686821699142456,-0.32804492115974426,0.13243083655834198,0.17718106508255005,-0.8007802963256836,0.39762869477272034,0.4673263728618622,-0.07751106470823288,-0.32984548807144165,-0.11967877298593521,-0.27586761116981506,-0.21877926588058472,0.8569380044937134,1.124803066253662,0.8911111354827881,1.1082959175109863,1.0030577182769775,-0.14032237231731415,0.1376381516456604,-0.10370463132858276,0.10813073813915253,-0.036015257239341736,-0.45137685537338257,0.5742807984352112,-0.7196805477142334,0.12345077842473984,-0.2603471577167511,0.071100614964962
-0.36288726329803467,-0.35916316509246826,0.641426682472229,0.6680581569671631,-0.02378622442483902,0.48387473821640015,0.466229110956192,-0.48857471346855164,-0.2938635051250458,0.028669048100709915,-0.7067270278930664,-0.31828799843788147,-0.2650832533836365,0.4150068163871765,-0.3394583761692047,0.05374675616621971,-0.72273188829422,0.4530904293060303,-0.08274511992931366,0.20507235825061798,-0.519137442111969,0.21830318868160248,-0.8535099029541016,-0.2721165716648102,-0.132999449968338,0.4474245607852936,-0.16636337339878082,0.14623276889324188,-0.40063315629959106,-0.681867778301239,-0.08925944566726685,-0.704895555973053,0.6704689264297485,-0.6207347512245178,-0.2858908176422119,0.3447178304195404,-0.1926138997077942,0.44218382239341736,0.7493833899497986,-0.08932781964540482,0.7541078925132751,-0.376715749502182,0.8216589689254761,-0.48622646927833557,-0.7090310454368591,-0.3285631835460663,-1.1044106483459473,-0.673980176448822,0.7256020903587341,0.0917324423789978,-0.34296494722366333,0.0539739653468132,-0.03850407525897026,0.37310412526130676,-0.13664481043815613,-0.13847072422504425,-0.34077730774879456,0.43914923071861267,-0.03275974094867706,-0.42523470520973206,0.9920634627342224,0.8444795608520508,0.9072783589363098,0.8522976636886597,0.8844388723373413,1.1374279260635376,1.0450372695922852,1.0920742750167847,1.0396732091903687,0.9675253033638,-0.009613385424017906,-0.0893702432513237,-0.05015780031681061,-0.13131944835186005,-0.03095126710832119,0.13882331550121307,0.02223646081984043,0.09669382870197296,0.09106813371181488,0.012073087505996227,0.4483623504638672,0.3817901313304901,0.6406280994415283,0.08951429277658463,0.317984402179718,-0.6812965869903564,0.03280278295278549,0.7467190623283386,-0.40095779299736023,-0.09972015768289566,0.5894519090652466,-0.5943999290466309,-0.07229455560445786,0.3030760884284973,-0.23958517611026764,0.13111642003059387,-0.33414000272750854,0.20042484998703003,-0.6813966035842896,0.6254682540893555,0.2561115324497223,-0.3334091901779175,0.23195604979991913,0.48354917764663696,0.46818944811820984,0.8132367134094238,0.09114356338977814,-0.7252345085144043,0.05498351901769638,0.40615367889404297,0.27772897481918335,-0.6887626647949219,0.6743537187576294,0.5861879587173462,0.3580341935157776,-0.5206828713417053,0.2126512974500656,-0.5137350559234619,-0.5171623826026917,-0.17083656787872314,-0.21946129202842712,0.5612245798110962,-0.41006025671958923,-0.4708440899848938,-0.328876793384552,0.1337508112192154,0.17593488097190857,-0.8009272813796997,0.39886391162872314,0.4649757742881775,-0.07764042168855667,-0.3298317492008209,-0.11962532252073288,-0.2758886516094208,-0.21862633526325226,0.8555444478988647,1.1250230073928833,0.8907249569892883,1.109598994255066,1.0055458545684814,-0.14176329970359802,0.13893738389015198,-0.10383290797472,0.10941749066114426,-0.033496323972940445,-0.45004239678382874,0.5746394395828247,-0.7192752361297607,0.12427425384521484,-0.2627953290939331,0.07192882150411606
-0.3607230484485626,-0.360220730304718,0.6433945894241333,0.6675858497619629,-0.022214986383914948,0.48223820328712463,0.4637312889099121,-0.4906114339828491,-0.29621028900146484,0.025923991575837135,-0.7057203054428101,-0.320036381483078,-0.2632508873939514,0.4164172410964966,-0.3379644751548767,0.05253447964787483,-0.7228531241416931,0.45335662364959717,-0.08377091586589813,0.2042751908302307,-0.5184270143508911,0.21641188859939575,-0.8550420999526978,-0.27247563004493713,-0.13338437676429749,0.44855067133903503,-0.16537606716156006,0.14620253443717957,-0.39983439445495605,-0.6821195483207703,-0.0868305191397667,-0.7047612071037292,0.6696104407310486,-0.6218830943107605,-0.287874311208725,0.3421856760978699,-0.19505056738853455,0.4449925124645233,0.7493024468421936,-0.08822254091501236,0.7520073652267456,-0.37877267599105835,0.8192487955093384,-0.48831188678741455,-0.7112514972686768,-0.32671043276786804,-1.1039179563522339,-0.6749565005302429,0.7258471846580505,0.09061085432767868,-0.3429458737373352,0.05393119528889656,-0.03862154483795166,0.3730350434780121,-0.13657397031784058,-0.13840124011039734,-0.3407650887966156,0.43925777077674866,-0.03275889530777931,-0.42516523599624634,0.9939791560173035,0.8426971435546875,0.9077255129814148,0.8507654070854187,0.8836596012115479,1.1383413076400757,1.04517662525177,1.0920122861862183,1.042405128479004,0.9656263589859009,-0.007686380762606859,-0.0912945345044136,-0.04838187247514725,-0.13105501234531403,-0.028848392888903618,0.1394602358341217,0.022367963567376137,0.09623023867607117,0.09366849064826965,0.011079327203333378,0.45088592171669006,0.379424124956131,0.6415014863014221,0.09195685386657715,0.3177874684333801,-0.6822015047073364,0.034628499299287796,0.7454715967178345,-0.4017629027366638,-0.09772522002458572,0.5898399353027344,-0.5966809988021851,-0.07241007685661316,0.3011951744556427,-0.23950719833374023,0.12884849309921265,-0.33531615138053894,0.20261956751346588,-0.6828699111938477,0.6243941783905029,0.2566624581813812,-0.330936461687088,0.23092752695083618,0.4818553924560547,0.4662380814552307,0.8142596483230591,0.09080374985933304,-0.7256761193275452,0.0559762567281723,0.406317800283432,0.2751142084598541,-0.6875022053718567,0.6754860281944275,0.5834652781486511,0.3607155680656433,-0.5214669108390808,0.21249037981033325,-0.5149608850479126,-0.5152333974838257,-0.1734933704137802,-0.2177673727273941,0.5608498454093933,-0.4124622941017151,-0.4731379747390747,-0.3299044668674469,0.13496093451976776,0.17445461452007294,-0.8009567856788635,0.39991629123687744,0.46258026361465454,-0.07784323394298553,-0.3297223150730133,-0.11957389861345291,-0.27586808800697327,-0.21867768466472626,0.8542437553405762,1.1250996589660645,0.890352189540863,1.110852599143982,1.0080217123031616,-0.14313443005084991,0.1401374787092209,-0.10391802340745926,0.11061292141675949,-0.03094075433909893,-0.44880443811416626,0.5748597979545593,-0.7188816666603088,0.12504592537879944,-0.265222430229187,0.0726572647690773
-0.3585718870162964,-0.3613211214542389,0.6454203724861145,0.666924238204956,-0.020426228642463684,0.48071423172950745,0.4612935185432434,-0.492544025182724,-0.2984723746776581,0.023199792951345444,-0.7046359181404114,-0.32174643874168396,-0.2614283263683319,0.4178657829761505,-0.33643609285354614,0.051091380417346954,-0.72318035364151,0.4534021317958832,-0.08492380380630493,0.2033693939447403,-0.5177410840988159,0.21461212635040283,-0.8565443158149719,-0.2727658450603485,-0.1337355077266693,0.4496314525604248,-0.1642627865076065,0.14602184295654297,-0.3990069031715393,-0.6826450824737549,-0.0843779668211937,-0.7044892907142639,0.6688827276229858,-0.6229186058044434,-0.2898215651512146,0.339682936668396,-0.19752101600170135,0.44785064458847046,0.7490483522415161,-0.08716650307178497,0.7500436305999756,-0.3806779980659485,0.8169230818748474,-0.4902592599391937,-0.7134029865264893,-0.32493850588798523,-1.1033724546432495,-0.6759819984436035,0.7260646224021912,0.08948483318090439,-0.3429279029369354,0.05401862785220146,-0.038801878690719604,0.37299272418022156,-0.1365254670381546,-0.13837428390979767,-0.34080246090888977,0.439278781414032,-0.0327376052737236,-0.4251129627227783,0.9958187341690063,0.8409919142723083,0.9082148671150208,0.8493490219116211,0.8828872442245483,1.1391527652740479,1.0449652671813965,1.0919500589370728,1.0451736450195312,0.9638676047325134,-0.0058868457563221455,-0.09311418980360031,-0.04658101871609688,-0.1305457502603531,-0.026719555258750916,0.13997027277946472,0.02216826193034649,0.09569922834634781,0.09630683064460754,0.010320995934307575,0.45340874791145325,0.3771023452281952,0.6423839926719666,0.09436213970184326,0.3175811171531677,-0.6829485893249512,0.03648382052779198,0.7442646026611328,-0.40235453844070435,-0.09574655443429947,0.5899963974952698,-0.5990340709686279,-0.0724451094865799,0.29933056235313416,-0.23922482132911682,0.12663564085960388,-0.33622732758522034,0.20471836626529694,-0.6845757961273193,0.6233617663383484,0.2573226988315582,-0.3284265995025635,0.2299802005290985,0.48016855120658875,0.46434277296066284,0.8152039051055908,0.09027161449193954,-0.726151704788208,0.056806594133377075,0.4066164195537567,0.2723878026008606,-0.6859645843505859,0.6767260432243347,0.5806821584701538,0.36349213123321533,-0.5219224095344543,0.21270926296710968,-0.5165234804153442,-0.5132955312728882,-0.1761641800403595,-0.21612471342086792,0.5606124401092529,-0.41488370299339294,-0.4755452871322632,-0.33109915256500244,0.13606630265712738,0.17277419567108154,-0.8008823394775391,0.40077921748161316,0.4601535201072693,-0.0780925452709198,-0.32952791452407837,-0.11952739208936691,-0.27584603428840637,-0.2186751663684845,0.8530323505401611,1.1250426769256592,0.8899877667427063,1.1120645999908447,1.010479211807251,-0.1444379985332489,0.1412382274866104,-0.10396899282932281,0.11171813309192657,-0.028359442949295044,-0.44765910506248474,0.5749502778053284,-0.7184951901435852,0.12577131390571594,-0.2676229774951935,0.07329131662845612
-0.3564533293247223,-0.36249279975891113,0.6474709510803223,0.6660625338554382,-0.01846623420715332,0.47931039333343506,0.45891955494880676,-0.4943668842315674,-0.30064940452575684,0.020498938858509064,-0.7034585475921631,-0.3234187960624695,-0.2596297860145569,0.41934722661972046,-0.33487874269485474,0.0494878776371479,-0.7236833572387695,0.453260213136673,-0.08616893738508224,0.202357679605484,-0.5170761942863464,0.21289964020252228,-0.8580213189125061,-0.27299055457115173,-0.13405470550060272,0.4506421387195587,-0.16305479407310486,0.14568039774894714,-0.3981681764125824,-0.6834294199943542,-0.081905297935009,-0.7040842771530151,0.66827791929245,-0.6238493323326111,-0.2917366623878479,0.33722007274627686,-0.20001442730426788,0.45074912905693054,0.7486271262168884,-0.08616049587726593,0.7482390999794006,-0.3824029564857483,0.8146981596946716,-0.49205514788627625,-0.7154747247695923,-0.3232601284980774,-1.1027944087982178,-0.6770545840263367,0.7262390851974487,0.08834315091371536,-0.3430131673812866,0.054159510880708694,-0.03898243233561516,0.372994601726532,-0.13643620908260345,-0.13838531076908112,-0.3408513069152832,0.43935200572013855,-0.03281903639435768,-0.4251087009906769,0.9975786209106445,0.8393661975860596,0.9087362885475159,0.8480718731880188,0.8821120858192444,1.1398639678955078,1.0444098711013794,1.0918924808502197,1.0479655265808105,0.9622725248336792,-0.0042265309020876884,-0.09482604265213013,-0.044768352061510086,-0.1297442615032196,-0.02458041161298752,0.14036187529563904,0.02164953574538231,0.09510862082242966,0.09895770251750946,0.009835769422352314,0.45592665672302246,0.3748255670070648,0.6432695388793945,0.09672695398330688,0.3173622488975525,-0.683546245098114,0.038358528167009354,0.743103563785553,-0.4027394950389862,-0.09378838539123535,0.5899251103401184,-0.601464569568634,-0.07238256931304932,0.29751452803611755,-0.23872877657413483,0.12448450922966003,-0.33683860301971436,0.20671015977859497,-0.6864790916442871,0.6223865151405334,0.25808578729629517,-0.3258948028087616,0.2291155457496643,0.47848713397979736,0.46250879764556885,0.8160693049430847,0.08956574648618698,-0.7266568541526794,0.057464323937892914,0.4070458710193634,0.2695693373680115,-0.6841828227043152,0.6780581474304199,0.5778605937957764,0.366347074508667,-0.5220680832862854,0.2132672518491745,-0.5183571577072144,-0.5113341212272644,-0.17884507775306702,-0.21454772353172302,0.5604946613311768,-0.41729536652565,-0.4780496656894684,-0.3324083983898163,0.1370716691017151,0.17093326151371002,-0.800727128982544,0.40142887830734253,0.45772314071655273,-0.07834521681070328,-0.3294185996055603,-0.11954652518033981,-0.2758212089538574,-0.21861532330513,0.8519063591957092,1.1248615980148315,0.8896274566650391,1.1132419109344482,1.012912631034851,-0.14567704498767853,0.1422451138496399,-0.10399365425109863,0.11273486912250519,-0.025753479450941086,-0.4466022849082947,0.5749196410179138,-0.718112051486969,0.12645532190799713,-0.26999184489250183,0.07383641600608826
-0.3543829619884491,-0.36375629901885986,0.6495193243026733,0.6649981141090393,-0.016370736062526703,0.4780060946941376,0.45659345388412476,-0.4961022138595581,-0.30274954438209534,0.01781764067709446,-0.7021877765655518,-0.3250569701194763,-0.25786927342414856,0.4208533763885498,-0.3332979083061218,0.047704409807920456,-0.7243931889533997,0.4529038965702057,-0.08750353008508682,0.20122265815734863,-0.516431987285614,0.21126550436019897,-0.8594753742218018,-0.2731548249721527,-0.1343434453010559,0.45152363181114197,-0.16180846095085144,0.14513131976127625,-0.3973396420478821,-0.6844952702522278,-0.07941877096891403,-0.7035595178604126,0.6677828431129456,-0.624684751033783,-0.2936212420463562,0.33480650186538696,-0.20252181589603424,0.4536800682544708,0.7480453848838806,-0.08520513772964478,0.7465959191322327,-0.38394638895988464,0.8125628232955933,-0.4936996102333069,-0.7174811363220215,-0.3216800391674042,-1.1021795272827148,-0.6781669855117798,0.7263785600662231,0.08718758821487427,-0.3431090712547302,0.05428618937730789,-0.039106566458940506,0.3729953169822693,-0.1363244205713272,-0.13853415846824646,-0.3409157395362854,0.4393427073955536,-0.03293175622820854,-0.4250929653644562,0.999259889125824,0.8378177881240845,0.9092841744422913,0.8469351530075073,0.8813338279724121,1.1404744386672974,1.0435529947280884,1.0918415784835815,1.0507649183273315,0.9608473777770996,-0.0027094401884824038,-0.09645217657089233,-0.0429513156414032,-0.12872497737407684,-0.02243858017027378,0.14067000150680542,0.020844100043177605,0.09446249157190323,0.10163775831460953,0.009633996523916721,0.45843565464019775,0.3725942373275757,0.644153356552124,0.09904851019382477,0.3171291947364807,-0.6840030550956726,0.04024479165673256,0.7419924139976501,-0.40292611718177795,-0.09185390174388885,0.5896407961845398,-0.6039612889289856,-0.07221856713294983,0.29576513171195984,-0.2380303144454956,0.12239427864551544,-0.337167888879776,0.20859013497829437,-0.6885470747947693,0.6214712858200073,0.25894519686698914,-0.3233548700809479,0.22833512723445892,0.4768097698688507,0.4607416093349457,0.8168556094169617,0.08870422840118408,-0.7271869778633118,0.057940635830163956,0.4076023995876312,0.26667535305023193,-0.682188868522644,0.6794618368148804,0.5750228762626648,0.36926546692848206,-0.5219279527664185,0.21412144601345062,-0.5204091668128967,-0.5093386173248291,-0.18153348565101624,-0.21303796768188477,0.5604845285415649,-0.4196886420249939,-0.48063838481903076,-0.33381038904190063,0.13798189163208008,0.1689552366733551,-0.8005027174949646,0.40186136960983276,0.4553006887435913,-0.07860279083251953,-0.32926085591316223,-0.11953341215848923,-0.2758113145828247,-0.21858000755310059,0.850861668586731,1.124566674232483,0.8892682194709778,1.1143900156021118,1.0153168439865112,-0.1468547135591507,0.14316046237945557,-0.10399864614009857,0.11366497725248337,-0.023131217807531357,-0.445629745721817,0.5747770071029663,-0.7177295684814453,0.12710215151309967,-0.27232441306114197,0.07429798692464828
-0.35237303376197815,-0.36512577533721924,0.6515435576438904,0.6637340784072876,-0.014168491587042809,0.47680771350860596,0.4543187916278839,-0.4977455139160156,-0.304772287607193,0.015158252790570259,-0.7008402943611145,-0.3266608417034149,-0.2561734914779663,0.4223717749118805,-0.3317010700702667,0.04576919600367546,-0.7252854704856873,0.45235475897789,-0.0889165848493576,0.19997575879096985,-0.5158125758171082,0.20970310270786285,-0.8609051704406738,-0.2732622027397156,-0.13460275530815125,0.452271431684494,-0.1605377495288849,0.14438770711421967,-0.39652663469314575,-0.6858075261116028,-0.07691041380167007,-0.7028429508209229,0.667401134967804,-0.6254540681838989,-0.2954997420310974,0.3324503004550934,-0.2050362229347229,0.45663613080978394,0.7473105788230896,-0.0843009352684021,0.7451095581054688,-0.38531041145324707,0.810518741607666,-0.49519622325897217,-0.719422459602356,-0.3201713263988495,-1.1015293598175049,-0.6792995929718018,0.7265015244483948,0.08603815734386444,-0.3432542383670807,0.05452275648713112,-0.039217982441186905,0.3729950189590454,-0.13624010980129242,-0.13859768211841583,-0.34100469946861267,0.4393148720264435,-0.03295304253697395,-0.4251260757446289,1.0008631944656372,0.836351215839386,0.9098633527755737,0.8459341526031494,0.8805678486824036,1.1409858465194702,1.042422890663147,1.0917905569076538,1.0535632371902466,0.9595852494239807,-0.0013403798220679164,-0.09798602759838104,-0.041127339005470276,-0.1275153011083603,-0.02029101736843586,0.14089614152908325,0.019808191806077957,0.09375331550836563,0.10434594750404358,0.009699068032205105,0.4609319865703583,0.3704086244106293,0.6450322270393372,0.1013244092464447,0.31688162684440613,-0.6843276619911194,0.04213683679699898,0.7409331798553467,-0.4029240906238556,-0.08994533121585846,0.5891628861427307,-0.6065077781677246,-0.07195672392845154,0.2941020429134369,-0.23714715242385864,0.12036661803722382,-0.3372313380241394,0.2103574275970459,-0.6907491683959961,0.6206176280975342,0.25989434123039246,-0.3208194077014923,0.22764043509960175,0.47513535618782043,0.45904654264450073,0.8175625801086426,0.08770425617694855,-0.7277374863624573,0.05822846665978432,0.4082818925380707,0.2637203633785248,-0.6800124049186707,0.6809133887290955,0.5721924304962158,0.37223386764526367,-0.5215277671813965,0.2152310311794281,-0.522636890411377,-0.5073017477989197,-0.18422771990299225,-0.21156349778175354,0.56058269739151,-0.4221177399158478,-0.48328569531440735,-0.3353769779205322,0.13880057632923126,0.16684433817863464,-0.8001939654350281,0.40211692452430725,0.45284783840179443,-0.0787774845957756,-0.3291878402233124,-0.11939874291419983,-0.2757483422756195,-0.21853826940059662,0.849894106388092,1.1241685152053833,0.8889075517654419,1.1155134439468384,1.0176867246627808,-0.14797428250312805,0.14398561418056488,-0.10398968309164047,0.11451110988855362,-0.02052125707268715,-0.4447370767593384,0.5745317935943604,-0.717345654964447,0.12771552801132202,-0.2746167778968811,0.07468149065971375
-0.35043302178382874,-0.3666091561317444,0.6535256505012512,0.6622790098190308,-0.011882173828780651,0.47563430666923523,0.4520966708660126,-0.4993481934070587,-0.306705117225647,0.012555082328617573,-0.6994006633758545,-0.3282186985015869,-0.2545216679573059,0.4239142835140228,-0.33008629083633423,0.043746624141931534,-0.7262670397758484,0.45170050859451294,-0.09034482389688492,0.19869746267795563,-0.5152150392532349,0.20821207761764526,-0.8623149991035461,-0.2733137905597687,-0.1348339021205902,0.4528590142726898,-0.1592697948217392,0.14344695210456848,-0.3957480490207672,-0.6873448491096497,-0.07439566403627396,-0.7019785642623901,0.667104184627533,-0.6261699199676514,-0.29736700654029846,0.3301600217819214,-0.20754949748516083,0.4596126079559326,0.7464295029640198,-0.08344748616218567,0.7439365386962891,-0.3863433003425598,0.8086483478546143,-0.4964630901813507,-0.7212280035018921,-0.31874752044677734,-1.1008692979812622,-0.6804595589637756,0.726582407951355,0.08487586677074432,-0.3433026671409607,0.05473574623465538,-0.03934604302048683,0.3730340301990509,-0.1361415833234787,-0.1386890858411789,-0.34115174412727356,0.4392521381378174,-0.03301135078072548,-0.4251812994480133,1.002400517463684,0.8349602818489075,0.9104544520378113,0.8450597524642944,0.8797923922538757,1.141400933265686,1.0410819053649902,1.0917563438415527,1.0563416481018066,0.958512008190155,-0.00010465807281434536,-0.09936470538377762,-0.0393170565366745,-0.12617214024066925,-0.018156269565224648,0.14104901254177094,0.01857762783765793,0.093007892370224,0.10688206553459167,0.01005073357373476,0.4634120464324951,0.3682686686515808,0.6459039449691772,0.10355260223150253,0.31662020087242126,-0.6845290064811707,0.04403061047196388,0.7399266958236694,-0.4027441442012787,-0.08806411176919937,0.5885111093521118,-0.6090883016586304,-0.07160231471061707,0.29254376888275146,-0.23609745502471924,0.11840295791625977,-0.3370476961135864,0.21201282739639282,-0.6930595636367798,0.6198251247406006,0.2609267830848694,-0.3183000087738037,0.22703275084495544,0.4734629988670349,0.4574284851551056,0.8181899785995483,0.08658194541931152,-0.7283041477203369,0.0583232119679451,0.40908005833625793,0.26071736216545105,-0.6776797771453857,0.682386577129364,0.5693942904472351,0.37523987889289856,-0.5208945274353027,0.21655772626399994,-0.5250047445297241,-0.5052193403244019,-0.18692700564861298,-0.21019247174263,0.5607547163963318,-0.42445454001426697,-0.4859703481197357,-0.33691200613975525,0.1395462155342102,0.16468164324760437,-0.799860954284668,0.4021124541759491,0.4504934251308441,-0.07892412692308426,-0.3291688561439514,-0.11921234428882599,-0.2756561040878296,-0.21851910650730133,0.8489992618560791,1.1236778497695923,0.8885437250137329,1.1166160106658936,1.0200189352035522,-0.1490391045808792,0.14472270011901855,-0.10397164523601532,0.11527702212333679,-0.017887035384774208,-0.44391968846321106,0.5741937160491943,-0.71695876121521,0.1282988041639328,-0.2768653929233551,0.07499247789382935
-0.3485524654388428,-0.3681952953338623,0.6554322838783264,0.66069495677948,-0.009586190804839134,0.4744647741317749,0.4499194025993347,-0.5009204149246216,-0.30855870246887207,0.010001031681895256,-0.6978787183761597,-0.3297332227230072,-0.2529236972332001,0.42547470331192017,-0.32845672965049744,0.0416874885559082,-0.7273038029670715,0.450967937707901,-0.09178324043750763,0.1974090188741684,-0.514641523361206,0.20678550004959106,-0.8637050986289978,-0.27331307530403137,-0.13503752648830414,0.45326223969459534,-0.15804143249988556,0.14228712022304535,-0.3950408399105072,-0.689073383808136,-0.07187958061695099,-0.7009989023208618,0.6668782234191895,-0.6268308758735657,-0.2992234528064728,0.32794514298439026,-0.21004718542099,0.46257883310317993,0.7454269528388977,-0.08269041776657104,0.7430492639541626,-0.3870745599269867,0.8069484233856201,-0.49752652645111084,-0.7228924632072449,-0.3174019157886505,-1.1002001762390137,-0.6816398501396179,0.7266273498535156,0.08370595425367355,-0.34342384338378906,0.054833825677633286,-0.03940471634268761,0.37312787771224976,-0.13604897260665894,-0.13887324929237366,-0.34130385518074036,0.4392129182815552,-0.03308325260877609,-0.4252510070800781,1.0038800239562988,0.8336435556411743,0.9110553860664368,0.8443302512168884,0.8790109157562256,1.1417192220687866,1.0395550727844238,1.091748833656311,1.059065580368042,0.9576257467269897,0.001000409247353673,-0.10060524195432663,-0.03752298280596733,-0.1246582493185997,-0.016036324203014374,0.14110605418682098,0.017168866470456123,0.09222494810819626,0.1092531606554985,0.010672060772776604,0.4658730924129486,0.36617517471313477,0.6467695832252502,0.10571476817131042,0.31634971499443054,-0.6845933794975281,0.04590247943997383,0.7389930486679077,-0.4023715853691101,-0.08620945364236832,0.5877053141593933,-0.6116891503334045,-0.07116175442934036,0.29110684990882874,-0.23489898443222046,0.1165042594075203,-0.336637020111084,0.21355880796909332,-0.6954557299613953,0.6190923452377319,0.26203614473342896,-0.3158072829246521,0.22651290893554688,0.4717923402786255,0.4558914303779602,0.8187379240989685,0.08535218983888626,-0.7288828492164612,0.058222055435180664,0.4099920690059662,0.25768688321113586,-0.6752558350563049,0.6837999224662781,0.5667684674263,0.3782636225223541,-0.5200778245925903,0.21806053817272186,-0.5274438858032227,-0.5030293464660645,-0.18963544070720673,-0.20892469584941864,0.5609915256500244,-0.4266955256462097,-0.4886886775493622,-0.3384074866771698,0.1402226984500885,0.16247552633285522,-0.7995108366012573,0.401857852935791,0.4482418894767761,-0.07915986329317093,-0.3291582763195038,-0.11915483325719833,-0.2755783200263977,-0.21851076185703278,0.8481723666191101,1.1231054067611694,0.888175368309021,1.1176984310150146,1.022309422492981,-0.1500536948442459,0.1453748643398285,-0.10394871234893799,0.11600253731012344,-0.015236428938806057,-0.4431729316711426,0.5737723112106323,-0.7165678143501282,0.12885500490665436,-0.27906686067581177,0.07523665577173233
-0.34764426946640015,-0.36904069781303406,0.6563435792922974,0.6598396301269531,-0.00843807216733694,0.4738307297229767,0.44884923100471497,-0.5017051100730896,-0.30946263670921326,0.008746101520955563,-0.6970817446708679,-0.33047017455101013,-0.2521560788154602,0.4262610673904419,-0.32763582468032837,0.04063475504517555,-0.7278454303741455,0.4505630135536194,-0.09251952916383743,0.1967644989490509,-0.5143678784370422,0.20610107481479645,-0.8643903136253357,-0.27328819036483765,-0.1351257860660553,0.4533698260784149,-0.15745224058628082,0.14160777628421783,-0.3947242200374603,-0.6900225281715393,-0.07062423974275589,-0.700462281703949,0.6667949557304382,-0.6271358132362366,-0.3001445531845093,0.32687780261039734,-0.21128644049167633,0.4640564024448395,0.7448680400848389,-0.08235768228769302,0.7427368760108948,-0.38730117678642273,0.8061795830726624,-0.4979628622531891,-0.7236588001251221,-0.31676316261291504,-1.099861979484558,-0.6822359561920166,0.7266353368759155,0.083119697868824,-0.3434580862522125,0.05486248806118965,-0.03944963961839676,0.37319913506507874,-0.13602468371391296,-0.13892142474651337,-0.341369092464447,0.43924015760421753,-0.033047743141651154,-0.4252684414386749,1.004593849182129,0.8330172896385193,0.9113600850105286,0.8440382480621338,0.8786191940307617,1.1418311595916748,1.038711667060852,1.0917574167251587,1.0603930950164795,0.9572737812995911,0.0014900886453688145,-0.10119308531284332,-0.03663474693894386,-0.12383786588907242,-0.014984048902988434,0.1410897970199585,0.016384828835725784,0.09181588888168335,0.11035920679569244,0.011108116246759892,0.4670923948287964,0.36515140533447266,0.647199273109436,0.10676320642232895,0.31621110439300537,-0.6845626831054688,0.046828269958496094,0.7385606169700623,-0.4020968973636627,-0.08529536426067352,0.5872352123260498,-0.6129937171936035,-0.07090246677398682,0.29045569896698,-0.23423433303833008,0.1155877485871315,-0.3363288640975952,0.21427927911281586,-0.6966867446899414,0.6187540292739868,0.2626262307167053,-0.31457915902137756,0.22629714012145996,0.4709579348564148,0.4551650285720825,0.8189722895622253,0.08469051122665405,-0.7291761636734009,0.05807333067059517,0.41050246357917786,0.2561628222465515,-0.6740040183067322,0.6844636797904968,0.5655542612075806,0.37977954745292664,-0.5195894837379456,0.21888457238674164,-0.5286889672279358,-0.5018861293792725,-0.19099396467208862,-0.20834246277809143,0.5611379742622375,-0.42776602506637573,-0.4900626838207245,-0.33913150429725647,0.14052832126617432,0.16135473549365997,-0.7993305921554565,0.4016112685203552,0.44717007875442505,-0.07924872636795044,-0.32914209365844727,-0.11912144720554352,-0.27555060386657715,-0.21845094859600067,0.847790539264679,1.1227834224700928,0.8879885077476501,1.1182307004928589,1.0234320163726807,-0.15053759515285492,0.1456604152917862,-0.10393643379211426,0.116346575319767,-0.013906114734709263,-0.44283241033554077,0.5735248923301697,-0.7163700461387634,0.1291208118200302,-0.2801426351070404,0.07532818615436554
-0.3467424511909485,-0.36991041898727417,0.657234251499176,0.6589574813842773,-0.007291189394891262,0.4731611907482147,0.4478023052215576,-0.5024818778038025,-0.3103408217430115,0.007512859534472227,-0.6962286233901978,-0.331184983253479,-0.25140756368637085,0.4270569086074829,-0.3268112242221832,0.039567165076732635,-0.7284027338027954,0.4501325190067291,-0.09326283633708954,0.19611309468746185,-0.5141064524650574,0.20544283092021942,-0.8650667071342468,-0.2732398211956024,-0.13520324230194092,0.45335862040519714,-0.1569148153066635,0.14082616567611694,-0.3944641351699829,-0.6910514831542969,-0.0693914145231247,-0.6999587416648865,0.6666955947875977,-0.6274117231369019,-0.30106866359710693,0.32587137818336487,-0.2125045657157898,0.46552592515945435,0.7442529201507568,-0.08207689225673676,0.7425320744514465,-0.3874160349369049,0.8054807782173157,-0.4983176589012146,-0.7243675589561462,-0.3161603808403015,-1.0995242595672607,-0.6828408241271973,0.7266234755516052,0.08253486454486847,-0.34349822998046875,0.05490371212363243,-0.03948301821947098,0.37323278188705444,-0.13602010905742645,-0.1389474868774414,-0.34140607714653015,0.4393000900745392,-0.03303493186831474,-0.42530715465545654,1.0052807331085205,0.8324223160743713,0.9116623401641846,0.8438142538070679,0.8782190084457397,1.141900658607483,1.0377987623214722,1.0917876958847046,1.0616751909255981,0.9570106267929077,0.001937319990247488,-0.10174860805273056,-0.03576799854636192,-0.12296729534864426,-0.013948163017630577,0.14101988077163696,0.015557987615466118,0.09140365570783615,0.1113693043589592,0.011663523502647877,0.4682947099208832,0.3641560673713684,0.6476179361343384,0.10777603834867477,0.3160582184791565,-0.6844830513000488,0.047726184129714966,0.7381715774536133,-0.40173497796058655,-0.08439899235963821,0.5867056846618652,-0.6142995357513428,-0.07060791552066803,0.2898715138435364,-0.2335119992494583,0.1147025004029274,-0.33592867851257324,0.21495099365711212,-0.6979440450668335,0.6184414625167847,0.2632487714290619,-0.3133704364299774,0.2261236160993576,0.4701243042945862,0.45447930693626404,0.8191688656806946,0.08398750424385071,-0.7294724583625793,0.057831794023513794,0.41106340289115906,0.2546333372592926,-0.6727182269096375,0.6850799322128296,0.5644404292106628,0.3812966048717499,-0.5190311074256897,0.2197694629430771,-0.5299529433250427,-0.5007011890411377,-0.19235634803771973,-0.20783518254756927,0.5613037943840027,-0.42878061532974243,-0.4914505183696747,-0.33979710936546326,0.14079678058624268,0.16022148728370667,-0.7991594076156616,0.40123775601387024,0.4461638927459717,-0.07935797423124313,-0.3290598392486572,-0.11908286064863205,-0.2755325436592102,-0.21836696565151215,0.8474385738372803,1.1224297285079956,0.8877990245819092,1.1187552213668823,1.0245327949523926,-0.15099599957466125,0.14590829610824585,-0.10392405092716217,0.11667389422655106,-0.0125630097463727,-0.4425221085548401,0.5732446312904358,-0.7161700129508972,0.12937551736831665,-0.2811943292617798,0.07539182901382446
