hidden1.weight_weight_0 ,hidden1.weight_weight_1 ,hidden1.weight_weight_2 ,hidden1.weight_weight_3 ,hidden1.weight_weight_4 ,hidden1.weight_weight_5 ,hidden1.weight_weight_6 ,hidden1.weight_weight_7 ,hidden1.weight_weight_8 ,hidden1.weight_weight_9 ,hidden1.weight_weight_10 ,hidden1.weight_weight_11 ,hidden1.weight_weight_12 ,hidden1.weight_weight_13 ,hidden1.weight_weight_14 ,hidden1.weight_weight_15 ,hidden1.weight_weight_16 ,hidden1.weight_weight_17 ,hidden1.weight_weight_18 ,hidden1.weight_weight_19 ,hidden1.weight_weight_20 ,hidden1.weight_weight_21 ,hidden1.weight_weight_22 ,hidden1.weight_weight_23 ,hidden1.weight_weight_24 ,hidden1.weight_weight_25 ,hidden1.weight_weight_26 ,hidden1.weight_weight_27 ,hidden1.weight_weight_28 ,hidden1.weight_weight_29 ,hidden1.weight_weight_30 ,hidden1.weight_weight_31 ,hidden1.weight_weight_32 ,hidden1.weight_weight_33 ,hidden1.weight_weight_34 ,hidden1.weight_weight_35 ,hidden1.weight_weight_36 ,hidden1.weight_weight_37 ,hidden1.weight_weight_38 ,hidden1.weight_weight_39 ,hidden1.weight_weight_40 ,hidden1.weight_weight_41 ,hidden1.weight_weight_42 ,hidden1.weight_weight_43 ,hidden1.weight_weight_44 ,hidden1.weight_weight_45 ,hidden1.weight_weight_46 ,hidden1.weight_weight_47 ,hidden1.weight_weight_48 ,hidden1.weight_weight_49 ,hidden1.bias_weight_0  ,hidden1.bias_weight_1 ,hidden1.bias_weight_2 ,hidden1.bias_weight_3 ,hidden1.bias_weight_4  ,hidden1.bias_weight_5 ,hidden1.bias_weight_6 ,hidden1.bias_weight_7 ,hidden1.bias_weight_8  ,hidden1.bias_weight_9 ,bn1.weight_weight_0 ,bn1.weight_weight_1 ,bn1.weight_weight_2 ,bn1.weight_weight_3 ,bn1.weight_weight_4 ,bn1.weight_weight_5 ,bn1.weight_weight_6 ,bn1.weight_weight_7 ,bn1.weight_weight_8 ,bn1.weight_weight_9 ,bn1.bias_weight_0     ,bn1.bias_weight_1      ,bn1.bias_weight_2    ,bn1.bias_weight_3     ,bn1.bias_weight_4      ,bn1.bias_weight_5      ,bn1.bias_weight_6     ,bn1.bias_weight_7     ,bn1.bias_weight_8      ,bn1.bias_weight_9     ,hidden2.weight_weight_0 ,hidden2.weight_weight_1 ,hidden2.weight_weight_2 ,hidden2.weight_weight_3 ,hidden2.weight_weight_4 ,hidden2.weight_weight_5 ,hidden2.weight_weight_6 ,hidden2.weight_weight_7 ,hidden2.weight_weight_8 ,hidden2.weight_weight_9 ,hidden2.weight_weight_10 ,hidden2.weight_weight_11 ,hidden2.weight_weight_12 ,hidden2.weight_weight_13 ,hidden2.weight_weight_14 ,hidden2.weight_weight_15 ,hidden2.weight_weight_16 ,hidden2.weight_weight_17 ,hidden2.weight_weight_18 ,hidden2.weight_weight_19 ,hidden2.weight_weight_20 ,hidden2.weight_weight_21 ,hidden2.weight_weight_22 ,hidden2.weight_weight_23 ,hidden2.weight_weight_24 ,hidden2.weight_weight_25 ,hidden2.weight_weight_26 ,hidden2.weight_weight_27 ,hidden2.weight_weight_28 ,hidden2.weight_weight_29 ,hidden2.weight_weight_30 ,hidden2.weight_weight_31 ,hidden2.weight_weight_32 ,hidden2.weight_weight_33 ,hidden2.weight_weight_34 ,hidden2.weight_weight_35 ,hidden2.weight_weight_36 ,hidden2.weight_weight_37 ,hidden2.weight_weight_38 ,hidden2.weight_weight_39 ,hidden2.weight_weight_40 ,hidden2.weight_weight_41 ,hidden2.weight_weight_42 ,hidden2.weight_weight_43 ,hidden2.weight_weight_44 ,hidden2.weight_weight_45 ,hidden2.weight_weight_46 ,hidden2.weight_weight_47 ,hidden2.weight_weight_48 ,hidden2.weight_weight_49 ,hidden2.bias_weight_0 ,hidden2.bias_weight_1 ,hidden2.bias_weight_2 ,hidden2.bias_weight_3 ,hidden2.bias_weight_4 ,bn2.weight_weight_0 ,bn2.weight_weight_1 ,bn2.weight_weight_2 ,bn2.weight_weight_3 ,bn2.weight_weight_4 ,bn2.bias_weight_0     ,bn2.bias_weight_1     ,bn2.bias_weight_2     ,bn2.bias_weight_3     ,bn2.bias_weight_4     ,output.weight_weight_0 ,output.weight_weight_1 ,output.weight_weight_2 ,output.weight_weight_3 ,output.weight_weight_4 ,output.bias_weight_0
-0.030861366540193558   ,-0.20085185766220093    ,-0.3165055811405182     ,1.074398398399353       ,-0.403533011674881      ,0.42608803510665894     ,0.8175771832466125      ,-0.2338470220565796     ,    0.05223095044493675 ,0.03594456613063812     ,0.5606174468994141       ,1.0053790807724          ,0.650696337223053        ,1.0353951454162598       ,-0.24273541569709778     ,0.2536909580230713       ,-1.069595456123352       ,-0.4972444772720337      ,0.9412307143211365       ,     0.6648239493370056  ,-0.7641094326972961      ,-0.5104674100875854      ,0.47036099433898926      ,-0.8820817470550537      ,-0.4002811908721924      ,0.1860412061214447       ,0.9678666591644287       ,0.7483513355255127       ,0.12674590945243835      ,     1.0633257627487183  ,0.6167595386505127       ,0.5922179818153381       ,    0.8445001244544983   ,-1.047879934310913       ,-0.6409969329833984      ,-0.02003801055252552     ,     1.0303291082382202  ,-0.15928813815116882     ,     0.7544820308685303  ,0.5483952760696411       ,-0.7327661514282227      ,0.49914324283599854      ,     0.8213409185409546  ,0.12574146687984467      ,-1.079532504081726       ,-0.9708287119865417      ,-0.9409581422805786      ,1.0720113515853882       ,0.7126063108444214       ,-0.1411542445421219      ,-0.01184515468776226   ,0.047094013541936874  ,0.396433562040329     ,0.11474058032035828   ,0.3332815170288086     ,0.28155168890953064   ,-0.14794662594795227  ,-0.23186475038528442  ,-0.3183668255805969    ,0.4205847978591919    , 0.9898999929428101 , 1.0098999738693237 , 1.0098999738693237 , 0.9898999929428101 , 1.0098999738693237 , 0.9898999929428101 , 0.9898999929428101 , 0.9899000525474548 , 1.0098999738693237 , 1.0098999738693237 ,0.009999998845160007  ,0.009999994188547134   ,0.009999999776482582 ,-0.009999998845160007 ,0.009999996051192284   ,-0.009999998845160007  ,-0.009999996982514858 ,-0.009999996982514858 ,0.009999996051192284   ,-0.009999996051192284 ,-0.7017903327941895     ,-0.4506332576274872     ,-0.48894795775413513    ,0.18169307708740234     ,-0.007343524135649204   ,0.3691243529319763      ,-0.14664097130298615    ,0.2106446921825409      ,-0.11091078817844391    ,-0.32152026891708374    ,0.6732935905456543       ,0.39623692631721497      ,-0.6717638969421387      ,0.3105526864528656       ,-0.5605205297470093      ,-0.49138206243515015     ,-0.6394640803337097      ,0.537973165512085        ,-0.5735954642295837      ,0.5550311207771301       ,0.5489028096199036       ,-0.3646470010280609      ,0.6444862484931946       ,0.3488437235355377       ,0.15187931060791016      ,0.23355931043624878      ,0.15527474880218506      ,0.26368898153305054      ,-0.7046750783920288      ,     0.5693690180778503  ,0.706433117389679        ,0.5711893439292908       ,0.39258772134780884      ,0.13772408664226532      ,     0.4979175329208374  ,0.012081850320100784     ,     0.40137654542922974 ,0.7662636637687683       ,0.7478342652320862       ,-0.33269190788269043     ,-0.3369075059890747      ,0.2342725396156311       ,0.40443021059036255      ,0.7419791221618652       ,-0.66619873046875        ,-0.6624874472618103      ,-0.07345449924468994     ,0.016140487045049667     ,     0.29543590545654297 ,0.5080230236053467       ,-0.2484026402235031   ,0.1037655919790268    ,-0.11982771009206772  ,0.23113946616649628   ,-0.2581675350666046   , 0.9898999929428101 , 1.0098999738693237 , 0.9898999929428101 , 0.9898999929428101 , 0.9898999929428101 ,-0.009999999776482582 ,0.009999997913837433  ,-0.009999992325901985 ,-0.00999999325722456  ,-0.009999999776482582 ,-0.9843032956123352    ,0.44493913650512695    ,-0.035339463502168655  ,0.30432286858558655    ,-0.6950652003288269    ,0.06789463013410568
-0.029218772426247597   ,-0.19536063075065613    ,-0.3065662980079651     ,1.0841758251190186      ,-0.3935457170009613     ,0.4358081817626953      ,0.81676185131073        ,-0.22395411133766174    ,    0.06221534311771393 ,0.045950233936309814    ,0.5705689787864685       ,0.9952651262283325       ,0.6406183242797852       ,1.0452555418014526       ,-0.25268539786338806     ,0.26235881447792053      ,-1.0621180534362793      ,-0.5068619847297668      ,0.9497735500335693       ,     0.6550377011299133  ,-0.7740465998649597      ,-0.5204299092292786      ,0.46085286140441895      ,-0.8720421195030212      ,-0.390247106552124       ,0.17601174116134644      ,0.9577601552009583       ,0.738481342792511        ,0.11686573922634125      ,     1.0731489658355713  ,0.6266569495201111       ,0.6020672917366028       ,    0.854203999042511    ,-1.0378156900405884      ,-0.6314221620559692      ,-0.030045202001929283    ,     1.0202209949493408  ,-0.14926554262638092     ,     0.7444578409194946  ,0.5582892298698425       ,-0.7227180004119873      ,0.5090484619140625       ,     0.8310132026672363  ,0.1357126384973526       ,-1.0698171854019165      ,-0.9607263803482056      ,-0.9308881163597107      ,1.081904411315918        ,0.7225152254104614       ,-0.1311279833316803      ,-0.010447200387716293  ,0.04477764293551445   ,0.39415743947029114   ,0.11037123203277588   ,0.33329305052757263    ,0.28270456194877625   ,-0.14980077743530273  ,-0.23119254410266876  ,-0.3213711082935333    ,0.42035406827926636   , 0.9797982573509216 , 1.019734501838684  , 1.019798755645752  , 0.9798041582107544 , 1.0198111534118652 , 0.979800283908844  , 0.9798058867454529 , 0.9798595309257507 , 1.0197950601577759 , 1.0179141759872437 ,0.019879983738064766  ,0.019812971353530884   ,0.019952040165662766 ,-0.019970357418060303 ,0.019757069647312164   ,-0.019965071231126785  ,-0.02000405639410019  ,-0.019902512431144714 ,0.02001255378127098    ,-0.020010078325867653 ,-0.7116696834564209     ,-0.44114378094673157    ,-0.49875956773757935    ,0.17169611155986786     ,0.0025847596116364002   ,0.35916298627853394     ,-0.13661304116249084    ,0.2007189393043518      ,-0.10090254247188568    ,-0.3314894139766693     ,0.6632198095321655       ,0.38619646430015564      ,-0.6817057728767395      ,0.3204819858074188       ,-0.5704673528671265      ,-0.48136579990386963     ,-0.649040937423706       ,0.5279123783111572       ,-0.5835455060005188      ,0.5649386644363403       ,0.5585726499557495       ,-0.3546266555786133      ,0.6544004082679749       ,0.3389216363430023       ,0.16133911907672882      ,0.24298013746738434      ,0.164789617061615        ,0.27365642786026         ,-0.694972038269043       ,     0.5593573451042175  ,0.7161233425140381       ,0.5612363219261169       ,0.4024515151977539       ,0.14767158031463623      ,     0.48796358704566956 ,0.021997902542352676     ,     0.3913692831993103  ,0.776107907295227        ,0.7379288673400879       ,-0.3226882815361023      ,-0.3269213140010834      ,0.24425546824932098      ,0.41440171003341675      ,0.7318983674049377       ,-0.6761447191238403      ,-0.6715438365936279      ,-0.06345579773187637     ,0.025953467935323715     ,     0.30537131428718567 ,0.4979608654975891       ,-0.2416801005601883   ,0.10559148341417313   ,-0.11960893124341965  ,0.23253163695335388   ,-0.2605563998222351   , 0.9798310399055481 , 1.01979660987854   , 0.9800677299499512 , 0.9798626899719238 , 0.9798576831817627 ,-0.019982270896434784 ,0.01998000219464302   ,-0.019730299711227417 ,-0.020012266933918    ,-0.019960667937994003 ,-0.9742406606674194    ,0.45489126443862915    ,-0.025402287021279335  ,0.29434436559677124    ,-0.6850539445877075    ,0.07788243889808655
-0.030134499073028564   ,-0.1944836974143982     ,-0.2967602014541626     ,1.0937086343765259      ,-0.3837577700614929     ,0.44538217782974243     ,0.8110507130622864      ,-0.21426397562026978    ,    0.07209426164627075 ,0.05544772744178772     ,0.5805445313453674       ,0.9856229424476624       ,0.6305274367332458       ,1.0548532009124756       ,-0.26261821389198303     ,0.2715889811515808       ,-1.0534909963607788      ,-0.5162197351455688      ,0.9588941931724548       ,     0.6457502245903015  ,-0.7839093208312988      ,-0.5304021239280701      ,0.4517790675163269       ,-0.8619558811187744      ,-0.3802235722541809      ,0.1659935861825943       ,0.9476339817047119       ,0.7290449142456055       ,0.10714102536439896      ,     1.082847237586975   ,0.6364417672157288       ,0.6117925047874451       ,    0.8637754917144775   ,-1.0278517007827759      ,-0.6219094395637512      ,-0.039992980659008026    ,     1.0103188753128052  ,-0.13923561573028564     ,     0.7352521419525146  ,0.5679636597633362       ,-0.7128085494041443      ,0.51875239610672         ,     0.8381749391555786  ,0.1454773247241974       ,-1.0672650337219238      ,-0.9508999586105347      ,-0.9217892289161682      ,1.0915241241455078       ,0.7316169142723083       ,-0.12112147361040115     ,-0.009529704228043556  ,0.04141931235790253   ,0.3932168781757355    ,0.1070653647184372    ,0.3338943421840668     ,0.28224459290504456   ,-0.1504875272512436   ,-0.2305983006954193   ,-0.32405245304107666   ,0.4197176694869995    , 0.9697464108467102 , 1.0290679931640625 , 1.029564380645752  , 0.9697503447532654 , 1.0297205448150635 , 0.9702876210212708 , 0.9697696566581726 , 0.9769027233123779 , 1.0295981168746948 , 1.02250075340271   ,0.029452499002218246  ,0.028366446495056152   ,0.029716914519667625 ,-0.0298171304166317   ,0.02962903305888176    ,-0.02967372164130211   ,-0.029926152899861336 ,-0.02956792153418064  ,0.030028585344552994   ,-0.029535673558712006 ,-0.7213054895401001     ,-0.43190479278564453    ,-0.5080527067184448     ,0.16182246804237366     ,0.012229543179273605    ,0.349549800157547       ,-0.12660130858421326    ,0.19129027426242828     ,-0.09093891829252243    ,-0.34141772985458374    ,0.6532556414604187       ,0.3762058615684509       ,-0.6915931105613708      ,0.3302708566188812       ,-0.5804283022880554      ,-0.4715670645236969      ,-0.6569435000419617      ,0.5178331136703491       ,-0.5930335521697998      ,0.5747780203819275       ,0.5677127242088318       ,-0.3448132872581482      ,0.6640803217887878       ,0.3293588161468506       ,0.17010976374149323      ,0.2526153326034546       ,0.17450565099716187      ,0.28337782621383667      ,-0.6858149170875549      ,     0.5495948791503906  ,0.7258946895599365       ,0.5512351989746094       ,0.412095844745636        ,0.15751050412654877      ,     0.47824588418006897 ,0.03174108266830444      ,     0.38142216205596924 ,0.7857788801193237       ,0.728438138961792        ,-0.3126501441001892      ,-0.3170793652534485      ,0.25419989228248596      ,0.4243502914905548       ,0.7218255996704102       ,-0.6860463619232178      ,-0.6806991100311279      ,-0.053510185331106186    ,0.03576746582984924      ,     0.31519046425819397 ,0.4878806471824646       ,-0.24073763191699982  ,0.10806747525930405   ,-0.11954716593027115  ,0.23331496119499207   ,-0.25687476992607117  , 0.9698041081428528 , 1.029675841331482  , 0.9707449674606323 , 0.9700236320495605 , 0.9699406027793884 ,-0.029882580041885376 ,0.029943883419036865  ,-0.028990592807531357 ,-0.02993989735841751  ,-0.029845871031284332 ,-0.9642283916473389    ,0.4648240804672241     ,-0.015581928193569183  ,0.28454408049583435    ,-0.675171434879303     ,0.08786182850599289
-0.02838514745235443    ,-0.19502761960029602    ,-0.2870218753814697     ,1.1030384302139282      ,-0.37417057156562805    ,0.4550704061985016      ,0.8037058711051941      ,-0.2049194723367691     ,    0.08180196583271027 ,0.06447504460811615     ,0.5905457735061646       ,0.9759950041770935       ,0.6204392910003662       ,1.0643442869186401       ,-0.27248603105545044     ,0.28108862042427063      ,-1.0443040132522583      ,-0.5253056287765503      ,0.9683204889297485       ,     0.6369673609733582  ,-0.7937312722206116      ,-0.5403456091880798      ,0.4431651532649994       ,-0.8518301844596863      ,-0.37022992968559265     ,0.15597568452358246      ,0.9374931454658508       ,0.7202216982841492       ,0.09821838140487671      ,     1.0923672914505005  ,0.6460956931114197       ,0.6213406324386597       ,    0.8731462359428406   ,-1.0180072784423828      ,-0.6126102805137634      ,-0.04988360032439232     ,     1.0005000829696655  ,-0.1292000412940979      ,     0.726966142654419   ,0.5774978995323181       ,-0.7031421661376953      ,0.5280867218971252       ,     0.8409547805786133  ,0.15492965281009674      ,-1.0705198049545288      ,-0.9412311911582947      ,-0.9136054515838623      ,1.1009838581085205       ,0.7399346232414246       ,-0.11113334447145462     ,-0.005750720854848623  ,0.03907117620110512   ,0.39232951402664185   ,0.10467756539583206   ,0.33407333493232727    ,0.28158044815063477   ,-0.15114839375019073  ,-0.23004314303398132  ,-0.32639962434768677   ,0.4188561737537384    , 0.9597389698028564 , 1.0379164218902588 , 1.0391488075256348 , 0.9597991108894348 , 1.039570927619934  , 0.9615363478660583 , 0.9598310589790344 , 0.9804953336715698 , 1.0392076969146729 , 1.0229060649871826 ,0.03850768506526947   ,0.036030352115631104   ,0.03920867666602135  ,-0.03951503708958626  ,0.03949582204222679    ,-0.03909018635749817   ,-0.03970074653625488  ,-0.03878326714038849  ,0.040034662932157516   ,-0.03885132446885109  ,-0.7306061387062073     ,-0.4224125146865845     ,-0.5167667865753174     ,0.152139350771904       ,0.02153027430176735     ,0.3402816951274872      ,-0.11663124710321426    ,0.18237921595573425     ,-0.08105380088090897    ,-0.3512628972530365     ,0.6433868408203125       ,0.36629778146743774      ,-0.7013810276985168      ,0.3398674428462982       ,-0.5904213786125183      ,-0.4618058502674103      ,-0.6627295613288879      ,0.5078572034835815       ,-0.6020131707191467      ,0.5845189094543457       ,0.5760417580604553       ,-0.33559727668762207     ,0.6730861067771912       ,0.320531964302063        ,0.1783411055803299       ,0.26158371567726135      ,0.1839345395565033       ,0.2923746705055237       ,-0.6778002381324768      ,     0.5404496788978577  ,0.7357518672943115       ,0.5411827564239502       ,0.42160308361053467      ,0.16734355688095093      ,     0.46865788102149963 ,0.04137744754552841      ,     0.3715084195137024  ,0.7953318953514099       ,0.7192049026489258       ,-0.30257448554039        ,-0.3074707090854645      ,0.2640707790851593       ,0.4342200756072998       ,0.7118038535118103       ,-0.6958043575286865      ,-0.6900083422660828      ,-0.043649982661008835    ,0.045292928814888        ,     0.32480883598327637 ,0.47779080271720886      ,-0.24149765074253082  ,0.11008615791797638   ,-0.11961688101291656  ,0.2336660772562027    ,-0.253628671169281    , 0.9598312377929688 , 1.039504885673523  , 0.9622084498405457 , 0.9606217741966248 , 0.9602326154708862 ,-0.03970900550484657  ,0.03982757031917572   ,-0.03749236464500427  ,-0.03944886103272438  ,-0.03962911292910576  ,-0.9542818665504456    ,0.47470295429229736    ,-0.005944535136222839  ,0.2751518785953522     ,-0.6655049324035645    ,0.09782503545284271
-0.023310814052820206   ,-0.19588603079319       ,-0.27733442187309265    ,1.112152338027954       ,-0.3648258149623871     ,0.46473750472068787     ,0.7954361438751221      ,-0.19572672247886658    ,    0.09146470576524734 ,0.07360251247882843     ,0.60056471824646         ,0.9661852121353149       ,0.610386312007904        ,1.0739678144454956       ,-0.28220468759536743     ,0.2903292775154114       ,-1.034979224205017       ,-0.5343140363693237      ,0.9775416851043701       ,     0.6285200715065002  ,-0.8034193515777588      ,-0.5501738786697388      ,0.4352003037929535       ,-0.8417006134986877      ,-0.3603774607181549      ,0.1461322009563446       ,0.9276657104492188       ,0.7146148681640625       ,0.09023046493530273      ,     1.1007767915725708  ,0.6556078195571899       ,0.6306940913200378       ,    0.8824521899223328   ,-1.008236289024353       ,-0.6035083532333374      ,-0.05974584072828293     ,     0.9905418753623962  ,-0.11917714774608612     ,     0.7190757989883423  ,0.5869249701499939       ,-0.6938371062278748      ,0.5368291735649109       ,     0.8398570418357849  ,0.16395947337150574      ,-1.07634437084198        ,-0.9319168329238892      ,-0.9075099229812622      ,1.1100342273712158       ,0.7468575239181519       ,-0.10121912509202957     ,-0.0039351461455225945 ,0.03814511001110077   ,0.3917311131954193    ,0.10375170409679413   ,0.33459797501564026    ,0.28143179416656494   ,-0.15155984461307526  ,-0.2295621931552887   ,-0.3269931972026825    ,0.41964563727378845   , 0.950092613697052  , 1.0458641052246094 , 1.0485413074493408 , 0.9500438570976257 , 1.0492254495620728 , 0.9540877938270569 , 0.9500194191932678 , 0.9859359860420227 , 1.0484015941619873 , 1.0200800895690918 ,0.04717974737286568   ,0.0421726331114769     ,0.04817117750644684  ,-0.04903727024793625  ,0.04913532733917236    ,-0.04767075181007385   ,-0.049283742904663086 ,-0.04748328775167465  ,0.049953944981098175   ,-0.04768864065408707  ,-0.7396352291107178     ,-0.41273805499076843    ,-0.5251545906066895     ,0.1427362710237503      ,0.030255768448114395    ,0.3313296437263489      ,-0.1066659539937973     ,0.17380154132843018     ,-0.07125761359930038    ,-0.36095303297042847    ,0.6336086392402649       ,0.3564702272415161       ,-0.7111340761184692      ,0.34917160868644714      ,-0.6003982424736023      ,-0.45214924216270447     ,-0.667752742767334       ,0.49802646040916443      ,-0.6105101704597473      ,0.5941035747528076       ,0.5833451747894287       ,-0.3273731470108032      ,0.6810535192489624       ,0.3127487301826477       ,0.18570812046527863      ,0.26942336559295654      ,0.1925317496061325       ,0.30030882358551025      ,-0.6708964109420776      ,     0.5323090553283691  ,0.7456871271133423       ,0.5310723185539246       ,0.4309346675872803       ,0.1770559847354889       ,     0.45933613181114197 ,0.05084395781159401      ,     0.3616447448730469  ,0.8047150373458862       ,0.7103120684623718       ,-0.2924548387527466      ,-0.29829487204551697     ,0.27382439374923706      ,0.44389045238494873      ,0.7019213438034058       ,-0.7052538990974426      ,-0.6995071172714233      ,-0.033929720520973206    ,0.05395394563674927      ,     0.3340315520763397  ,0.46772003173828125      ,-0.23902344703674316  ,0.11206385493278503   ,-0.11964884400367737  ,0.2343786656856537    ,-0.250988245010376    , 0.949929416179657  , 1.0492271184921265 , 0.9547019600868225 , 0.9519391655921936 , 0.9508311152458191 ,-0.049411650747060776 ,0.049555785953998566  ,-0.044990334659814835 ,-0.04841211065649986  ,-0.049209315329790115 ,-0.9444198608398438    ,0.4844689667224884     ,0.00341482600197196    ,0.26645854115486145    ,-0.6561537981033325    ,0.1077481359243393
-0.01757931336760521    ,-0.1984836608171463     ,-0.2678549289703369     ,1.1208122968673706      ,-0.3559728264808655     ,0.4742344915866852      ,0.7865774631500244      ,-0.18698036670684814    ,    0.10087542235851288 ,0.08265037834644318     ,0.6106122136116028       ,0.9565019607543945       ,0.6004246473312378       ,1.083177089691162        ,-0.2916676998138428      ,0.29859229922294617      ,-1.0264592170715332      ,-0.5432814955711365      ,0.9854315519332886       ,     0.6201925277709961  ,-0.8128268718719482      ,-0.5599818229675293      ,0.426612913608551        ,-0.8315632343292236      ,-0.351344496011734       ,0.136562779545784        ,0.9178654551506042       ,0.7121725678443909       ,0.08751320093870163      ,     1.1080795526504517  ,0.6649591326713562       ,0.6397628784179688       ,    0.891701877117157    ,-0.9986022114753723      ,-0.5943666100502014      ,-0.06968601793050766     ,     0.9806370735168457  ,-0.10917432606220245     ,     0.7106680870056152  ,0.5963637828826904       ,-0.685039758682251       ,0.5449393391609192       ,     0.8362129330635071  ,0.17230141162872314      ,-1.0834704637527466      ,-0.9233869910240173      ,-0.9053545594215393      ,1.118202805519104        ,0.7510499358177185       ,-0.09154452383518219     ,-0.0012111684773117304 ,0.03686243295669556   ,0.39128726720809937   ,0.10378969460725784   ,0.3351815938949585     ,0.28114554286003113   ,-0.15180157124996185  ,-0.2291761189699173   ,-0.32690662145614624   ,0.4205404222011566    , 0.940585732460022  , 1.0532665252685547 , 1.057685136795044  , 0.9405871033668518 , 1.0585362911224365 , 0.9482152462005615 , 0.94052654504776   , 0.9916435480117798 , 1.0570660829544067 , 1.015116572380066  ,0.05527210980653763   ,0.04606209695339203    ,0.05660136789083481  ,-0.05832723155617714  ,0.05762345343828201    ,-0.05543980002403259   ,-0.058359719812870026 ,-0.0551593080163002   ,0.05980599671602249    ,-0.05641406029462814  ,-0.7482141852378845     ,-0.4029444754123688     ,-0.533207356929779      ,0.13374286890029907     ,0.0383196696639061      ,0.3226594924926758      ,-0.096761554479599      ,0.165535107254982       ,-0.061555035412311554   ,-0.3703942894935608     ,0.623879075050354        ,0.34667423367500305      ,-0.7209612131118774      ,0.3578181862831116       ,-0.6103867888450623      ,-0.44263744354248047     ,-0.6743356585502625      ,0.4881567060947418       ,-0.6187632083892822      ,0.6033994555473328       ,0.5894961953163147       ,-0.32049256563186646     ,0.6877566576004028       ,0.30617228150367737      ,0.19177190959453583      ,0.2761930227279663       ,0.1996714025735855       ,0.30701521039009094      ,-0.6648837924003601      ,     0.5254899263381958  ,0.7556543946266174       ,0.520921528339386        ,0.44005537033081055      ,0.18651936948299408      ,     0.45023462176322937 ,0.06014770269393921      ,     0.35192811489105225 ,0.8138973712921143       ,0.7016751766204834       ,-0.2823069095611572      ,-0.28975746035575867     ,0.28338414430618286      ,0.4531783163547516       ,0.6923040151596069       ,-0.714154064655304       ,-0.7091584205627441      ,-0.02437753602862358     ,0.06065569072961807      ,     0.3427528142929077  ,0.4577309191226959       ,-0.2387266606092453   ,0.11432316154241562   ,-0.11967416852712631  ,0.2351813018321991    ,-0.2484816163778305   , 0.9401201009750366 , 1.0587462186813354 , 0.948340117931366  , 0.9442631006240845 , 0.9418373703956604 ,-0.05898405238986015  ,0.05923892930150032   ,-0.05130476504564285  ,-0.05636528879404068  ,-0.05835060402750969  ,-0.9346672296524048    ,0.49403366446495056    ,0.012379392981529236   ,0.25877103209495544    ,-0.6472153067588806    ,0.11759334057569504
-0.010460764169692993   ,-0.19813087582588196    ,-0.25860726833343506    ,1.1289937496185303      ,-0.34776440262794495    ,0.4836501181125641      ,0.77731853723526        ,-0.17880995571613312    ,    0.10989022254943848 ,0.09128888696432114     ,0.6207147836685181       ,0.9469207525253296       ,0.590563178062439        ,1.0914758443832397       ,-0.3009493947029114      ,0.3071671426296234       ,-1.0178112983703613      ,-0.5517773032188416      ,0.9928593635559082       ,     0.6127206683158875  ,-0.8221089243888855      ,-0.5698174238204956      ,0.4175877273082733       ,-0.821382462978363       ,-0.34323909878730774     ,0.12726826965808868      ,0.908187747001648        ,0.7121161222457886       ,0.08914792537689209      ,     1.114243745803833   ,0.6740577220916748       ,0.6484158039093018       ,    0.9007325172424316   ,-0.9891853332519531      ,-0.5855509042739868      ,-0.07968279719352722     ,     0.9706905484199524  ,-0.09919089078903198     ,     0.7018154859542847  ,0.6058566570281982       ,-0.6765863299369812      ,0.552266538143158        ,     0.8312398791313171  ,0.1796884983778          ,-1.0914311408996582      ,-0.9155636429786682      ,-0.9057760834693909      ,1.1257460117340088       ,0.7527837753295898       ,-0.08202166855335236     ,0.001091705751605332   ,0.035651300102472305  ,0.3908414840698242    ,0.10417088121175766   ,0.33532992005348206    ,0.2806423306465149    ,-0.15192054212093353  ,-0.22881685197353363  ,-0.3270816206932068    ,0.42179998755455017   , 0.9313771724700928 , 1.059995174407959  , 1.0664597749710083 , 0.9314364194869995 , 1.0675212144851685 , 0.9437510371208191 , 0.9314549565315247 , 0.998502254486084  , 1.065272569656372  , 1.0086307525634766 ,0.0628933534026146    ,0.04743364825844765    ,0.0643877163529396   ,-0.06733545660972595  ,0.06490061432123184    ,-0.06266333907842636   ,-0.06684356927871704  ,-0.061557404696941376 ,0.06964149326086044    ,-0.06510202586650848  ,-0.756331205368042      ,-0.3930375576019287     ,-0.540631890296936      ,0.12521497905254364     ,0.045544661581516266    ,0.3145381808280945      ,-0.08695361763238907    ,0.15786480903625488     ,-0.05205835402011871    ,-0.37953981757164       ,0.6141976714134216       ,0.3369600474834442       ,-0.7307828068733215      ,0.36565256118774414      ,-0.6203653216362         ,-0.43308326601982117     ,-0.6819708347320557      ,0.4785468578338623       ,-0.6270986199378967      ,0.6123095750808716       ,0.5944383144378662       ,-0.315067321062088       ,0.6932756304740906       ,0.3007271885871887       ,0.1959371715784073       ,0.2826709449291229       ,0.2054283618927002       ,0.3126506805419922       ,-0.6591440439224243      ,     0.520110011100769   ,0.7655683159828186       ,0.5107370615005493       ,0.44890689849853516      ,0.19557876884937286      ,     0.44165584444999695 ,0.06923659145832062      ,     0.34239256381988525 ,0.8228230476379395       ,0.6934637427330017       ,-0.272151917219162       ,-0.282147616147995       ,0.2927294671535492       ,0.46200838685035706      ,0.6829671263694763       ,-0.7225357890129089      ,-0.7188054323196411      ,-0.014993284828960896    ,0.06551578640937805      ,     0.35092538595199585 ,0.44783926010131836      ,-0.23712341487407684  ,0.11614739894866943   ,-0.11967762559652328  ,0.23590779304504395   ,-0.24593237042427063  , 0.9304302334785461 , 1.0679298639297485 , 0.9430636763572693 , 0.9378061294555664 , 0.9333493113517761 ,-0.06833849847316742  ,0.06878530234098434   ,-0.05640938878059387  ,-0.06352134048938751  ,-0.06688711792230606  ,-0.9250497817993164    ,0.5032687187194824     ,0.020816462114453316   ,0.25235500931739807    ,-0.6387835741043091    ,0.12730485200881958
-0.0026260213926434517  ,-0.19728203117847443    ,-0.24940726161003113    ,1.1368929147720337      ,-0.33990147709846497    ,0.49290919303894043     ,0.767760157585144       ,-0.17107723653316498    ,    0.11860261112451553 ,0.09988722205162048     ,0.63080894947052         ,0.9371089935302734       ,0.5808795094490051       ,1.099780559539795        ,-0.30985185503959656     ,0.3158048689365387       ,-1.0092109441757202      ,-0.5598174333572388      ,0.9996796250343323       ,     0.6060658097267151  ,-0.8309927582740784      ,-0.5795602798461914      ,0.40821030735969543      ,-0.8112945556640625      ,-0.33631476759910583     ,0.11831211298704147      ,0.8990972638130188       ,0.7141130566596985       ,0.09312071651220322      ,     1.1188756227493286  ,0.6829225420951843       ,0.6567361950874329       ,    0.909494936466217    ,-0.9799747467041016      ,-0.5770530700683594      ,-0.0897301509976387      ,     0.9607852697372437  ,-0.08926849067211151     ,     0.6926285028457642  ,0.615329384803772        ,-0.6685196161270142      ,0.5586825609207153       ,     0.8250856399536133  ,0.18591564893722534      ,-1.0999916791915894      ,-0.9086354970932007      ,-0.9082626104354858      ,1.1324315071105957       ,0.7525007128715515       ,-0.07265978306531906     ,0.003860136028379202   ,0.034309037029743195  ,0.39074522256851196   ,0.10460013151168823   ,0.3354475498199463     ,0.2802901864051819    ,-0.15215662121772766  ,-0.22829464077949524  ,-0.32751479744911194   ,0.42256999015808105   , 0.9224019646644592 , 1.0653072595596313 , 1.0748666524887085 , 0.9227185249328613 , 1.076021671295166  , 0.940783679485321  , 0.9229592680931091 , 1.004260540008545  , 1.072884440422058  , 1.0014196634292603 ,0.07097549736499786   ,0.04643102362751961    ,0.0714934840798378   ,-0.07596522569656372  ,0.07070091366767883    ,-0.06930430233478546   ,-0.07435528188943863  ,-0.06724722683429718  ,0.0793846920132637     ,-0.07301004976034164  ,-0.7640967965126038     ,-0.38303807377815247    ,-0.5476763248443604     ,0.11714839935302734     ,0.05183408036828041     ,0.306749165058136       ,-0.07722385227680206    ,0.1505114883184433      ,-0.042672693729400635   ,-0.3883785009384155     ,0.6045846343040466       ,0.3272787034511566       ,-0.7406629920005798      ,0.37247416377067566      ,-0.6301496624946594      ,-0.4236641824245453      ,-0.6902417540550232      ,0.4690576195716858       ,-0.6355990767478943      ,0.6207111477851868       ,0.5982452630996704       ,-0.3108850121498108      ,0.698011040687561        ,0.29609808325767517      ,0.19754737615585327      ,0.28981584310531616      ,0.21101734042167664      ,0.3176705241203308       ,-0.6527132987976074      ,     0.5159804821014404  ,0.7751211524009705       ,0.5005331039428711       ,0.4572207033634186       ,0.20388099551200867      ,     0.43404802680015564 ,0.07796203345060349      ,     0.33316880464553833 ,0.8313404321670532       ,0.6865506768226624       ,-0.2620655298233032      ,-0.2754295766353607      ,0.30176830291748047      ,0.470208078622818        ,0.6741158962249756       ,-0.7302859425544739      ,-0.7285134792327881      ,-0.005872108042240143    ,0.06813347339630127      ,     0.3583343029022217  ,0.43812742829322815      ,-0.23519428074359894  ,0.11779714375734329   ,-0.11969815939664841  ,0.23661039769649506   ,-0.24475154280662537  , 0.9208976626396179 , 1.076593041419983  , 0.938649594783783  , 0.9326398372650146 , 0.9254738688468933 ,-0.0774446502327919   ,0.07811439037322998   ,-0.06048544868826866  ,-0.06998228281736374  ,-0.07472368329763412  ,-0.915607213973999     ,0.5120000243186951     ,0.028572477400302887   ,0.24732336401939392    ,-0.6309635639190674    ,0.13680393993854523
0.00576101616024971     ,-0.19495786726474762    ,-0.2403346300125122     ,1.1444573402404785      ,-0.3324555456638336     ,0.5018766522407532      ,0.7579776048660278      ,-0.16373811662197113    ,    0.12704771757125854 ,0.10860337316989899     ,0.6408658027648926       ,0.9271050691604614       ,0.5714006423950195       ,1.1081961393356323       ,-0.31827619671821594     ,0.32432711124420166      ,-1.0007797479629517      ,-0.5673789978027344      ,1.0058037042617798       ,     0.6002454161643982  ,-0.839026689529419       ,-0.5890591144561768      ,0.398549348115921        ,-0.8017255663871765      ,-0.3308691680431366      ,0.10975625365972519      ,0.8911985754966736       ,0.7177770137786865       ,0.0985688865184784       ,     1.1216977834701538  ,0.691442608833313        ,0.6646155714988708       ,    0.9175639748573303   ,-0.9711772799491882      ,-0.5693010687828064      ,-0.09983750432729721     ,     0.9509447813034058  ,-0.07946532964706421     ,     0.6831779479980469  ,0.6247327327728271       ,-0.6612349152565002      ,0.5636698007583618       ,     0.8178733587265015  ,0.1908162534236908       ,-1.108997106552124       ,-0.902687668800354       ,-0.9123632907867432      ,1.1381468772888184       ,0.7505282163619995       ,-0.0635460689663887      ,0.006766175851225853   ,0.03353215381503105   ,0.3901563584804535    ,0.10517098754644394   ,0.335806667804718      ,0.280103862285614     ,-0.15248370170593262  ,-0.22774864733219147  ,-0.3281508684158325    ,0.4234284460544586    , 0.9136898517608643 , 1.0687711238861084 , 1.0827844142913818 , 0.9145550727844238 , 1.0837812423706055 , 0.9395474791526794 , 0.9152524471282959 , 1.0089024305343628 , 1.0798513889312744 , 0.9942296147346497 ,0.07922644913196564   ,0.043370090425014496   ,0.07779315859079361  ,-0.08413833379745483  ,0.07519180327653885    ,-0.07526270300149918   ,-0.08063217997550964  ,-0.0722476989030838   ,0.08895324170589447    ,-0.0792960599064827   ,-0.7715100646018982     ,-0.37303969264030457    ,-0.5543801784515381     ,0.10957147181034088     ,0.05715592950582504     ,0.29922428727149963     ,-0.06760744005441666    ,0.14337855577468872     ,-0.03339667245745659    ,-0.39686059951782227    ,0.5950863361358643       ,0.3176208436489105       ,-0.7505203485488892      ,0.37827032804489136      ,-0.6394505500793457      ,-0.41425737738609314     ,-0.6988664269447327      ,0.4600321352481842       ,-0.6442266702651978      ,0.6285445690155029       ,0.6009527444839478       ,-0.3074091672897339      ,0.7026312351226807       ,0.29180997610092163      ,0.19643563032150269      ,0.29781368374824524      ,0.2179243266582489       ,0.3226815164089203       ,-0.6452205181121826      ,     0.5127142071723938  ,0.7841698527336121       ,0.4903000295162201       ,0.4648534953594208       ,0.21122968196868896      ,     0.4280073344707489  ,0.08626167476177216      ,     0.3242660462856293  ,0.8394070267677307       ,0.6813326478004456       ,-0.2520892322063446      ,-0.26955166459083557     ,0.31038182973861694      ,0.4775369465351105       ,0.6659252643585205       ,-0.7372109889984131      ,-0.7383429408073425      ,0.0028760326094925404    ,0.06823325902223587      ,     0.3649081885814667  ,0.42873620986938477      ,-0.23413707315921783  ,0.11897958815097809   ,-0.11977305263280869  ,0.2372005730867386    ,-0.24385547637939453  , 0.9115749001502991 , 1.0844882726669312 , 0.934755265712738  , 0.9286535382270813 , 0.9183168411254883 ,-0.08626886457204819  ,0.08698122203350067   ,-0.06376167386770248  ,-0.07647380232810974  ,-0.08163530379533768  ,-0.9063940048217773    ,0.5199858546257019     ,0.03547223284840584    ,0.24360933899879456    ,-0.6238505840301514    ,0.1459687054157257
0.014506664127111435    ,-0.19114381074905396    ,-0.2314615547657013     ,1.1516292095184326      ,-0.32550325989723206    ,0.5105229020118713      ,0.7480871081352234      ,-0.15706276893615723    ,    0.13509854674339294 ,0.11702051013708115     ,0.6508136987686157       ,0.9169302582740784       ,0.5621398687362671       ,1.1169015169143677       ,-0.3262227475643158      ,0.33272430300712585      ,-0.9925509691238403      ,-0.5743694305419922      ,1.011275053024292        ,     0.5953224301338196  ,-0.8459855318069458      ,-0.5981541275978088      ,0.3886565864086151       ,-0.792967677116394       ,-0.3272271156311035      ,0.10169682651758194      ,0.885185182094574        ,0.7227504253387451       ,0.10492017865180969      ,     1.122616171836853   ,0.6995080709457397       ,0.671863317489624        ,    0.9247563481330872   ,-0.9629395008087158      ,-0.5626868605613708      ,-0.10997186601161957     ,     0.9412834644317627  ,-0.0697740763425827      ,     0.6734814643859863  ,0.6340602040290833       ,-0.6548388004302979      ,0.5671403408050537       ,     0.8098850846290588  ,0.19432497024536133      ,-1.1183542013168335      ,-0.8977245688438416      ,-0.9175630807876587      ,1.1429362297058105       ,0.7472854852676392       ,-0.05463450402021408     ,0.007923080585896969   ,0.03271696716547012   ,0.38964778184890747   ,0.10541176050901413   ,0.3358539640903473     ,0.2799031138420105    ,-0.15288323163986206  ,-0.22721590101718903  ,-0.3284285068511963    ,0.4238814115524292    , 0.9053293466567993 , 1.0699694156646729 , 1.0901471376419067 , 0.9070647954940796 , 1.0907074213027954 , 0.9400218725204468 , 0.9084336757659912 , 1.0123567581176758 , 1.0861016511917114 , 0.9873787760734558 ,0.08749296516180038   ,0.03911120444536209    ,0.08328165858983994  ,-0.0917658731341362   ,0.07849165052175522    ,-0.08053197711706161   ,-0.08579294383525848  ,-0.07661591470241547  ,0.0983162671327591     ,-0.0835939422249794   ,-0.7786576151847839     ,-0.36299940943717957    ,-0.5605648159980774     ,0.1024801954627037      ,0.061427049338817596    ,0.29213181138038635     ,-0.05810604989528656    ,0.1365623027086258      ,-0.024290697649121284   ,-0.40496826171875       ,0.5857150554656982       ,0.30801066756248474      ,-0.7603598833084106      ,0.3829771876335144       ,-0.6480734348297119      ,-0.4049164354801178      ,-0.7078971862792969      ,0.451552152633667        ,-0.6530864834785461      ,0.6356747150421143       ,0.6027013063430786       ,-0.30419403314590454     ,0.707628071308136        ,0.28741857409477234      ,0.19312383234500885      ,0.30636313557624817      ,0.22568495571613312      ,0.328101247549057        ,-0.6369696855545044      ,     0.5098921060562134  ,0.7923941016197205       ,0.4800334572792053       ,0.4717176556587219       ,0.21738854050636292      ,     0.4236660599708557  ,0.09407524764537811      ,     0.31581974029541016 ,0.8469348549842834       ,0.6783061027526855       ,-0.24228060245513916     ,-0.2644560933113098      ,0.3185180425643921       ,0.4839233458042145       ,0.6585966944694519       ,-0.7433097958564758      ,-0.7482364177703857      ,0.01118516642600298      ,0.06639798730611801      ,     0.37048807740211487 ,0.41975072026252747      ,-0.23255383968353271  ,0.1208251342177391    ,-0.11983904987573624  ,0.23758003115653992   ,-0.24351127445697784  , 0.9025285840034485 , 1.0913212299346924 , 0.9309740662574768 , 0.9256690740585327 , 0.9119582176208496 ,-0.09472189843654633  ,0.09514462202787399   ,-0.06661731004714966  ,-0.08304715156555176  ,-0.08749832957983017  ,-0.8974730968475342    ,0.5269439220428467     ,0.04134577885270119    ,0.24102383852005005    ,-0.6175166964530945    ,0.15463480353355408
0.018825870007276535    ,-0.1888505220413208     ,-0.22717618942260742    ,1.1549708843231201      ,-0.3223310708999634     ,0.5145511031150818      ,0.7430691719055176      ,-0.15415607392787933    ,    0.13897591829299927 ,0.12126754969358444     ,0.6556875109672546       ,0.9117640852928162       ,0.5576028823852539       ,1.1214672327041626       ,-0.32981348037719727     ,0.33687350153923035      ,-0.9885212779045105      ,-0.5775392651557922      ,1.0137521028518677       ,     0.5933315753936768  ,-0.8488820791244507      ,-0.6025619506835938      ,0.38366639614105225      ,-0.7887775897979736      ,-0.3264843821525574      ,0.09803096204996109      ,0.8834086060523987       ,0.725811243057251        ,0.1085033193230629       ,     1.1220574378967285  ,0.7033136487007141       ,0.6751526594161987       ,    0.927864134311676    ,-0.9591321349143982      ,-0.5599733591079712      ,-0.11505930870771408     ,     0.936511218547821   ,-0.06502291560173035     ,     0.6685278415679932  ,0.6386823654174805       ,-0.6522014141082764      ,0.5680417418479919       ,     0.8055806159973145  ,0.1953752189874649       ,-1.1231770515441895      ,-0.8957217335700989      ,-0.9205737709999084      ,1.14487624168396         ,0.7451708912849426       ,-0.050273530185222626    ,0.008490164764225483   ,0.03238702937960625   ,0.38954097032546997   ,0.10556284338235855   ,0.33593133091926575    ,0.27974143624305725   ,-0.1531410962343216   ,-0.22708091139793396  ,-0.32876625657081604   ,0.4240265190601349    , 0.9013022184371948 , 1.0696083307266235 , 1.0935887098312378 , 0.9036791920661926 , 1.0937330722808838 , 0.9408515691757202 , 0.9055483341217041 , 1.0128544569015503 , 1.0889153480529785 , 0.9839458465576172 ,0.09154079109430313   ,0.036430466920137405   ,0.08569864183664322  ,-0.09530092030763626  ,0.07921731472015381    ,-0.08293505012989044   ,-0.0877263993024826   ,-0.07870084047317505  ,0.10292752832174301    ,-0.08495108783245087  ,-0.7821393013000488     ,-0.3580102026462555     ,-0.5633986592292786     ,0.09917118400335312     ,0.06305180490016937     ,0.288729727268219       ,-0.05338944122195244    ,0.13321653008460999     ,-0.019687747582793236   ,-0.408830463886261      ,0.5810596346855164       ,0.30320096015930176      ,-0.7653298377990723      ,0.38463422656059265      ,-0.6518338322639465      ,-0.4003649353981018      ,-0.7125560641288757      ,0.44737982749938965      ,-0.6577230095863342      ,0.6386875510215759       ,0.6031737327575684       ,-0.30250975489616394     ,0.7104796767234802       ,0.284990131855011        ,0.1906425803899765       ,0.3108472228050232       ,0.22983068227767944      ,0.3311350345611572       ,-0.6325880885124207      ,     0.5084917545318604  ,0.7960801124572754       ,0.47489118576049805      ,0.4747883975505829       ,0.21986697614192963      ,     0.4222753345966339  ,0.0977512001991272       ,     0.3118169903755188  ,0.8504377603530884       ,0.6777791976928711       ,-0.23745979368686676     ,-0.26225319504737854     ,0.3223338723182678       ,0.4866383373737335       ,0.6554399132728577       ,-0.7459848523139954      ,-0.7531768083572388      ,0.015096122398972511     ,0.06477583199739456      ,     0.3727297782897949  ,0.41549497842788696      ,-0.23153305053710938  ,0.12161001563072205   ,-0.11986230313777924  ,0.2376697063446045    ,-0.24341942369937897  , 0.8981806635856628 , 1.0940568447113037 , 0.9289438724517822 , 0.9245623350143433 , 0.9092053771018982 ,-0.09871267527341843  ,0.09887787699699402   ,-0.06804046034812927  ,-0.08645611256361008  ,-0.08985089510679245  ,-0.8931922316551208    ,0.5297769904136658     ,0.04370266571640968    ,0.24017222225666046    ,-0.6147619485855103    ,0.15862081944942474
0.0231915470212698      ,-0.18600796163082123    ,-0.22300821542739868    ,1.1581084728240967      ,-0.3194257915019989     ,0.5183042883872986      ,0.7379963994026184      ,-0.15164372324943542    ,    0.1427130401134491  ,0.1255550980567932      ,0.6604698300361633       ,0.9065262675285339       ,0.5531620979309082       ,1.1261953115463257       ,-0.33303725719451904     ,0.34094178676605225      ,-0.9845933318138123      ,-0.5804174542427063      ,1.015980839729309        ,     0.591752827167511   ,-0.8512201905250549      ,-0.60683673620224        ,0.3786472678184509       ,-0.7847731709480286      ,-0.32664963603019714     ,0.09470584988594055      ,0.882736086845398        ,0.7293040156364441       ,0.1123882308602333       ,     1.1206737756729126  ,0.7069008946418762       ,0.6781081557273865       ,    0.9305018782615662   ,-0.9556296467781067      ,-0.5578568577766418      ,-0.12016306817531586     ,     0.931789755821228   ,-0.06036469340324402     ,     0.663493275642395   ,0.6432555913925171       ,-0.6500840187072754      ,0.568223774433136        ,     0.801045835018158   ,0.19580908119678497      ,-1.1281142234802246      ,-0.8940708637237549      ,-0.923820972442627       ,1.1465301513671875       ,0.7426983118057251       ,-0.04594329372048378     ,0.00933841709047556    ,0.032099124044179916  ,0.38939139246940613   ,0.10583044588565826   ,0.33588188886642456    ,0.27939513325691223   ,-0.15352575480937958  ,-0.22690384089946747  ,-0.328853964805603     ,0.42412689328193665   , 0.897316575050354  , 1.0685666799545288 , 1.0968388319015503 , 0.9006518125534058 , 1.0963642597198486 , 0.9420984983444214 , 0.9031702876091003 , 1.012246012687683  , 1.091425895690918  , 0.9804196953773499 ,0.0953654795885086    ,0.033357277512550354   ,0.08787202090024948  ,-0.09855525940656662  ,0.0791640505194664     ,-0.08515610545873642   ,-0.08903924375772476  ,-0.0807315856218338   ,0.10745992511510849    ,-0.08569629490375519  ,-0.7854819893836975     ,-0.35311341285705566    ,-0.566102921962738      ,0.09610050916671753     ,0.06426557153463364     ,0.2854147255420685      ,-0.048722174018621445   ,0.12987227737903595     ,-0.015071365982294083   ,-0.412494957447052      ,0.5764347910881042       ,0.2983941435813904       ,-0.7703409194946289      ,0.38565921783447266      ,-0.6550281047821045      ,-0.3959430456161499      ,-0.7173752784729004      ,0.44327688217163086      ,-0.6625267267227173      ,0.6411606669425964       ,0.6033048629760742       ,-0.30067142844200134     ,0.7136858701705933       ,0.2822890877723694       ,0.18756103515625         ,0.3155297636985779       ,0.23423469066619873      ,0.33448150753974915      ,-0.6279788613319397      ,     0.5070076584815979  ,0.7993429899215698       ,0.46974173188209534      ,0.47751811146736145      ,0.22177216410636902      ,     0.4216131567955017  ,0.10120736062526703      ,     0.3080217242240906  ,0.8536913394927979       ,0.6781198382377625       ,-0.2327207326889038      ,-0.26035040616989136     ,0.3259141147136688       ,0.48890969157218933      ,0.6527860760688782       ,-0.7483319640159607      ,-0.7580907344818115      ,0.018771879374980927     ,0.06262349337339401      ,     0.37443891167640686 ,0.41147395968437195      ,-0.23103433847427368  ,0.1221681460738182    ,-0.11988937854766846  ,0.23784120380878448   ,-0.2431894838809967   , 0.8940131068229675 , 1.0961086750030518 , 0.9267057180404663 , 0.9237651824951172 , 0.9068577885627747 ,-0.10244931280612946  ,0.10222648084163666   ,-0.06955384463071823  ,-0.0900387093424797   ,-0.09164195507764816  ,-0.8890923857688904    ,0.5319579243659973     ,0.04549696668982506    ,0.23968127369880676    ,-0.6123968958854675    ,0.1622369885444641
0.02747957780957222     ,-0.18275977671146393    ,-0.2189645916223526     ,1.1610270738601685      ,-0.3168257176876068     ,0.5218092799186707      ,0.7328805923461914      ,-0.14949950575828552    ,    0.1463131606578827  ,0.12988068163394928     ,0.6651712656021118       ,0.9012448191642761       ,0.5487940311431885       ,1.1310325860977173       ,-0.33594799041748047     ,0.3448309898376465       ,-0.9808327555656433      ,-0.5830941796302795      ,1.0177898406982422       ,     0.5905696749687195  ,-0.8529527187347412      ,-0.6109805703163147      ,0.37366199493408203      ,-0.7809432148933411      ,-0.3276260197162628      ,0.09168311953544617      ,0.8829348683357239       ,0.7331377267837524       ,0.11650168150663376      ,     1.118634819984436   ,0.7102861404418945       ,0.6807368397712708       ,    0.9326887726783752   ,-0.9524195790290833      ,-0.5563275218009949      ,-0.12528185546398163     ,     0.9270427823066711  ,-0.05578630417585373     ,     0.6584013104438782  ,0.647790789604187        ,-0.6484612226486206      ,0.567771315574646        ,     0.7963331937789917  ,0.1957000195980072       ,-1.1331409215927124      ,-0.892810046672821       ,-0.9272822141647339      ,1.1478607654571533       ,0.7399004697799683       ,-0.04172302037477493     ,0.009859583340585232   ,0.03191368654370308   ,0.38925856351852417   ,0.10615257918834686   ,0.3358914256095886     ,0.2790016531944275    ,-0.153912752866745    ,-0.226748526096344    ,-0.32885992527008057   ,0.4239872992038727    , 0.8933106660842896 , 1.0668655633926392 , 1.0999270677566528 , 0.8979816436767578 , 1.0985602140426636 , 0.9438039064407349 , 0.9013292193412781 , 1.0106163024902344 , 1.0937154293060303 , 0.976735532283783  ,0.0990155041217804    ,0.029923107475042343   ,0.08982013165950775  ,-0.10150917619466782  ,0.07835866510868073    ,-0.08715824037790298   ,-0.08966383337974548  ,-0.082756906747818    ,0.11196122318506241    ,-0.08593318611383438  ,-0.788704514503479      ,-0.34827721118927       ,-0.5685884356498718     ,0.09328503161668777     ,0.0650617852807045      ,0.2822469472885132      ,-0.044103704392910004   ,0.12658262252807617     ,-0.010544389486312866   ,-0.4159773886203766     ,0.5718129873275757       ,0.2935574948787689       ,-0.7754254341125488      ,0.3861113488674164       ,-0.6573571562767029      ,-0.3918488025665283      ,-0.7223324179649353      ,0.4390602707862854       ,-0.6674745678901672      ,0.6430314779281616       ,0.6031748056411743       ,-0.2986103892326355      ,0.7172334790229797       ,0.2792966067790985       ,0.18400079011917114      ,0.32038530707359314      ,0.2388598769903183       ,0.33812472224235535      ,-0.6231779456138611      ,     0.5053352117538452  ,0.8021988868713379       ,0.4645853042602539       ,0.4799216389656067       ,0.22313983738422394      ,     0.4216204285621643  ,0.10445238649845123      ,     0.30442124605178833 ,0.8567056059837341       ,0.6792106032371521       ,-0.2280614674091339      ,-0.2587135434150696      ,0.32927578687667847      ,0.4907733201980591       ,0.650621235370636        ,-0.7503928542137146      ,-0.7629579901695251      ,0.022221639752388        ,0.06006961315870285      ,     0.37563663721084595 ,0.4076842665672302       ,-0.23049898445606232  ,0.12238039076328278   ,-0.11988172680139542  ,0.2379492223262787    ,-0.24312281608581543  , 0.8900285959243774 , 1.097486138343811  , 0.924220085144043  , 0.9232146143913269 , 0.9048942923545837 ,-0.10595385730266571  ,0.10523711144924164   ,-0.07124941796064377  ,-0.09381909668445587  ,-0.09289392828941345  ,-0.8851767778396606    ,0.5334985256195068     ,0.04675562307238579    ,0.2394845336675644     ,-0.6103994250297546    ,0.1654628962278366
0.03163890540599823     ,-0.17923301458358765    ,-0.21504667401313782    ,1.163736343383789       ,-0.31451261043548584    ,0.5250229239463806      ,0.7277335524559021      ,-0.14766021072864532    ,    0.14979708194732666 ,0.13428908586502075     ,0.66975337266922         ,0.8959182500839233       ,0.5445262789726257       ,1.1359859704971313       ,-0.3384746313095093      ,0.3485625684261322       ,-0.9772070050239563      ,-0.5855718851089478      ,1.0192447900772095       ,     0.5897653698921204  ,-0.8541153073310852      ,-0.6149983406066895      ,0.36871466040611267      ,-0.7772908210754395      ,-0.3292630910873413      ,0.08893615752458572      ,0.8838913440704346       ,0.7372382283210754       ,0.1207934319972992       ,     1.1160587072372437  ,0.7134779691696167       ,0.6830374002456665       ,    0.9344365000724792   ,-0.9494991302490234      ,-0.5553785562515259      ,-0.130411297082901       ,     0.922287106513977   ,-0.05129293352365494     ,     0.6532668471336365  ,0.6522750854492188       ,-0.6472755670547485      ,0.5667805075645447       ,     0.7914830446243286  ,0.19511587917804718      ,-1.1382365226745605      ,-0.8919145464897156      ,-0.9309259653091431      ,1.1488772630691528       ,0.7368307709693909       ,-0.03760858625173569     ,0.0099340146407485     ,0.031761251389980316  ,0.3894151747226715    ,0.10645695775747299   ,0.33589765429496765    ,0.2785715162754059    ,-0.154326930642128    ,-0.22661149501800537  ,-0.3287297785282135    ,0.423949271440506     , 0.889320433139801  , 1.0646189451217651 , 1.1028636693954468 , 0.8956480622291565 , 1.100348949432373  , 0.945824921131134  , 0.8999898433685303 , 1.0081419944763184 , 1.0958038568496704 , 0.9729989767074585 ,0.10253254324197769   ,0.02618516981601715    ,0.09154540300369263  ,-0.1041802391409874   ,0.07691926509141922    ,-0.08898995816707611   ,-0.08966857194900513  ,-0.08483526855707169  ,0.11642804741859436    ,-0.08563464134931564  ,-0.7918459177017212     ,-0.3434823453426361     ,-0.5708412528038025     ,0.090691477060318       ,0.06544830650091171     ,0.27917933464050293     ,-0.03952234983444214    ,0.12330805510282516     ,-0.006058513652533293   ,-0.4193056523799896     ,0.5672003030776978       ,0.28870442509651184      ,-0.7805684804916382      ,0.386051744222641        ,-0.6588795185089111      ,-0.3880815804004669      ,-0.7274130582809448      ,0.43475648760795593      ,-0.6725476980209351      ,0.6443308591842651       ,0.6028289198875427       ,-0.29631516337394714     ,0.7210744619369507       ,0.276028573513031        ,0.18008314073085785      ,0.325389564037323        ,0.2436809092760086       ,0.34201520681381226      ,-0.6182070374488831      ,     0.5034350156784058  ,0.8045629858970642       ,0.45943012833595276      ,0.48201027512550354      ,0.223979189991951        ,     0.42214131355285645 ,0.10747233033180237      ,     0.3010402023792267  ,0.859464704990387        ,0.6810197234153748       ,-0.22349324822425842     ,-0.2573130130767822      ,0.3324367105960846       ,0.4922671318054199       ,0.6489225625991821       ,-0.7522053122520447      ,-0.767758846282959       ,0.02545565366744995      ,0.05721522122621536      ,     0.3763501048088074  ,0.40411970019340515      ,-0.23001062870025635  ,0.12247638404369354   ,-0.11981265991926193  ,0.23801001906394958   ,-0.24306227266788483  , 0.8862348198890686 , 1.0982275009155273 , 0.9214767813682556 , 0.9228686690330505 , 0.9032909274101257 ,-0.10920996218919754  ,0.10788436233997345   ,-0.07317019999027252  ,-0.09772510081529617  ,-0.0936376303434372   ,-0.8814495801925659    ,0.5344289541244507     ,0.04751516506075859    ,0.23952922224998474    ,-0.6087453961372375    ,0.16828389465808868
0.03562271595001221     ,-0.17552882432937622    ,-0.21125657856464386    ,1.1662441492080688      ,-0.3124710023403168     ,0.5279733538627625      ,0.7225651144981384      ,-0.14611047506332397    ,    0.15316185355186462 ,0.1387600302696228      ,0.6742278337478638       ,0.8905572295188904       ,0.5403613448143005       ,1.1410259008407593       ,-0.3406350910663605      ,0.35216888785362244      ,-0.9736690521240234      ,-0.5878416895866394      ,1.0204288959503174       ,     0.5893356204032898  ,-0.854747474193573       ,-0.6188963055610657      ,0.36380890011787415      ,-0.7738153338432312      ,-0.33143970370292664     ,0.08643525838851929      ,0.8854890465736389       ,0.7415504455566406       ,0.1252264529466629       ,     1.1130412817001343  ,0.716485857963562        ,0.6850098371505737       ,    0.935757577419281    ,-0.9468649625778198      ,-0.55499267578125        ,-0.13553115725517273     ,     0.9176489114761353  ,-0.04690854251384735     ,     0.6481090784072876  ,0.6566591858863831       ,-0.6464931964874268      ,0.5653297901153564       ,     0.7865307331085205  ,0.19412478804588318      ,-1.1433773040771484      ,-0.891356885433197       ,-0.9347243309020996      ,1.149593472480774        ,0.7335336804389954       ,-0.033597104251384735    ,0.010053664445877075   ,0.03170117363333702   ,0.3896459639072418    ,0.10670360177755356   ,0.335798054933548      ,0.27806952595710754   ,-0.1546897292137146   ,-0.22657132148742676  ,-0.3284836709499359    ,0.4235454201698303    , 0.8853309154510498 , 1.061945915222168  , 1.10565984249115   , 0.893632173538208  , 1.1017705202102661 , 0.9480853080749512 , 0.8991149663925171 , 1.0050731897354126 , 1.0976914167404175 , 0.9692150354385376 ,0.105918288230896     ,0.0222097747027874     ,0.09307890385389328  ,-0.10658618807792664  ,0.07495924085378647    ,-0.09067703783512115   ,-0.0891195759177208   ,-0.08691567927598953  ,0.12085200101137161    ,-0.08487004786729813  ,-0.7948989272117615     ,-0.3387386202812195     ,-0.5728668570518494     ,0.08830183744430542     ,0.06546797603368759     ,0.27620700001716614     ,-0.03498378023505211    ,0.12005661427974701     ,-0.001623137854039669   ,-0.42249104380607605    ,0.5626034140586853       ,0.2838476896286011       ,-0.7857564687728882      ,0.38553863763809204      ,-0.6596688628196716      ,-0.38463839888572693     ,-0.7325951457023621      ,0.4303910434246063       ,-0.6777244806289673      ,0.6450895667076111       ,0.6023083329200745       ,-0.2937915325164795      ,0.7251613736152649       ,0.2725120484828949       ,0.1758943647146225       ,0.33051639795303345      ,0.24867212772369385      ,0.3461056649684906       ,-0.6130883097648621      ,     0.5012853145599365  ,0.8064746260643005       ,0.4542732536792755       ,0.48379456996917725      ,0.2243414670228958       ,     0.42313411831855774 ,0.11027650535106659      ,     0.29786235094070435 ,0.8619810342788696       ,0.6834176182746887       ,-0.21901196241378784     ,-0.25612545013427734     ,0.335414320230484        ,0.4934276342391968       ,0.6476612687110901       ,-0.7538027763366699      ,-0.77247554063797        ,0.028485039249062538     ,0.05413767695426941      ,     0.3766099512577057  ,0.4007728099822998       ,-0.22982275485992432  ,0.12271157652139664   ,-0.11975852400064468  ,0.2380995899438858    ,-0.24301058053970337  , 0.8826376795768738 , 1.0983824729919434 , 0.9184851050376892 , 0.9226897954940796 , 0.9020225405693054 ,-0.11222110688686371  ,0.11015172302722931   ,-0.07533740252256393  ,-0.10176688432693481  ,-0.09390877187252045  ,-0.8779153823852539    ,0.5347913503646851     ,0.04781800135970116    ,0.23977649211883545    ,-0.6074101328849792    ,0.17069078981876373
0.03935465216636658     ,-0.17175564169883728    ,-0.20759889483451843    ,1.1685560941696167      ,-0.3106875717639923     ,0.5306870937347412      ,0.7173842787742615      ,-0.1448366641998291     ,    0.15640388429164886 ,0.14327473938465118     ,0.6786060333251953       ,0.8851734399795532       ,0.5363004803657532       ,1.1461257934570312       ,-0.34244951605796814     ,0.35565292835235596      ,-0.970203161239624       ,-0.589913547039032       ,1.0213817358016968       ,     0.5892552137374878  ,-0.8548953533172607      ,-0.6226821541786194      ,0.3589470088481903       ,-0.7705084085464478      ,-0.3340577483177185      ,0.08414924889802933      ,0.8876216411590576       ,0.746032178401947        ,0.12977334856987         ,     1.109660029411316   ,0.7193190455436707       ,0.6866539120674133       ,    0.9366638660430908   ,-0.9445149302482605      ,-0.5551468133926392      ,-0.14063963294029236     ,     0.9131149649620056  ,-0.04263567551970482     ,     0.6429404616355896  ,0.6609377861022949       ,-0.6460558176040649      ,0.5635021924972534       ,     0.7815112471580505  ,0.19278588891029358      ,-1.1485397815704346      ,-0.8911216855049133      ,-0.9386601448059082      ,1.150009036064148        ,0.7300431132316589       ,-0.029692435637116432    ,0.010107405483722687   ,0.031585246324539185  ,0.3898472785949707    ,0.10690028965473175   ,0.3358088433742523     ,0.2776918113231659    ,-0.15493318438529968  ,-0.2264309972524643   ,-0.32811760902404785   ,0.4232257008552551    , 0.8813378214836121 , 1.0589475631713867 , 1.108319640159607  , 0.8919148445129395 , 1.102866291999817  , 0.9505152702331543 , 0.8986639380455017 , 1.0015485286712646 , 1.0993876457214355 , 0.9653933644294739 ,0.10918281972408295   ,0.018052589148283005   ,0.09443823248147964  ,-0.10873981565237045  ,0.07257372885942459    ,-0.09224624931812286   ,-0.08808469027280807  ,-0.08900651335716248  ,0.1252194195985794     ,-0.08369532227516174  ,-0.797856867313385      ,-0.33405452966690063    ,-0.5746699571609497     ,0.08610004186630249     ,0.0651608407497406      ,0.27332642674446106     ,-0.030492309480905533   ,0.11683537811040878     ,0.0027522663585841656   ,-0.4255433678627014     ,0.5580294728279114       ,0.27899986505508423      ,-0.7909759283065796      ,0.38462701439857483      ,-0.6598083972930908      ,-0.3815111219882965      ,-0.7378560900688171      ,0.4259902536869049       ,-0.6829831004142761      ,0.6453381776809692       ,0.6016966700553894       ,-0.2912314832210541      ,0.7293422818183899       ,0.2688373923301697       ,0.1716342717409134       ,0.3356796205043793       ,0.2537756562232971       ,0.3502119481563568       ,-0.6078790426254272      ,     0.4990186393260956  ,0.8079769611358643       ,0.4491119682788849       ,0.48528385162353516      ,0.2242794781923294       ,     0.424554705619812   ,0.1128740906715393       ,     0.29487144947052    ,0.8642669320106506       ,0.6862990856170654       ,-0.21461336314678192     ,-0.2551328241825104      ,0.33822569251060486      ,0.49428942799568176      ,0.6468037366867065       ,-0.7552143931388855      ,-0.7770925760269165      ,0.031321775168180466     ,0.050897665321826935     ,     0.376449316740036   ,0.397634893655777        ,-0.22967387735843658  ,0.12303476780653      ,-0.11969993263483047  ,0.23824429512023926   ,-0.24284791946411133  , 0.8792429566383362 , 1.098008394241333  , 0.9152746796607971 , 0.9226521849632263 , 0.9010632634162903 ,-0.11499008536338806  ,0.11203226447105408   ,-0.077609583735466    ,-0.10594021528959274  ,-0.09374669194221497  ,-0.8745785355567932    ,0.5346355438232422     ,0.04770824313163757    ,0.24019977450370789    ,-0.6063686013221741    ,0.17268097400665283
0.042800284922122955    ,-0.16798412799835205    ,-0.20407411456108093    ,1.1706804037094116      ,-0.3091471493244171     ,0.5331927537918091      ,0.7121984958648682      ,-0.14382703602313995    ,    0.15951819717884064 ,0.14781585335731506     ,0.6829000115394592       ,0.8797792196273804       ,0.5323426723480225       ,1.151260495185852        ,-0.3439406156539917      ,0.35903245210647583      ,-0.9667913317680359      ,-0.5917948484420776      ,1.0221383571624756       ,     0.5895015597343445  ,-0.854583203792572       ,-0.6264238953590393      ,0.3541611433029175       ,-0.7673274874687195      ,-0.33699265122413635     ,0.0820462554693222       ,0.8901937007904053       ,0.75065016746521         ,0.134414404630661        ,     1.1059784889221191  ,0.721983015537262        ,0.6879717111587524       ,    0.9371610283851624   ,-0.9424492716789246      ,-0.5558228492736816      ,-0.14573395252227783     ,     0.9086705446243286  ,-0.03847791254520416     ,     0.6377736926078796  ,0.6651054620742798       ,-0.6459831595420837      ,0.5613458752632141       ,     0.7764194011688232  ,0.19112350046634674      ,-1.1537176370620728      ,-0.8911803364753723      ,-0.942711353302002       ,1.150141954421997        ,0.7263903617858887       ,-0.025893211364746094    ,0.010102769359946251   ,0.03148222714662552   ,0.3901589810848236    ,0.10703281313180923   ,0.33567091822624207    ,0.2772585451602936    ,-0.15517155826091766  ,-0.22618182003498077  ,-0.32790642976760864   ,0.4229593575000763    , 0.8773600459098816 , 1.0556716918945312 , 1.1108368635177612 , 0.8904597759246826 , 1.1036572456359863 , 0.9531311988830566 , 0.89859938621521   , 0.9976766705513    , 1.1009712219238281 , 0.9614735245704651 ,0.11234457045793533   ,0.01374158076941967    ,0.09562209248542786  ,-0.11067579686641693  ,0.06979750841856003    ,-0.09368596225976944   ,-0.08661843091249466  ,-0.0911087840795517   ,0.12954391539096832    ,-0.08221638202667236  ,-0.8007140159606934     ,-0.329437255859375      ,-0.576255202293396      ,0.08407151699066162     ,0.06456424295902252     ,0.2705351710319519      ,-0.026051126420497894   ,0.11365068703889847     ,0.0070576658472418785   ,-0.428471177816391      ,0.5534864068031311       ,0.27417370676994324      ,-0.7962129712104797      ,0.38336846232414246      ,-0.6593844890594482      ,-0.37868544459342957     ,-0.7431743741035461      ,0.4215823709964752       ,-0.6883020997047424      ,0.6451074481010437       ,0.6010406017303467       ,-0.2885993421077728      ,0.7336180210113525       ,0.26502496004104614      ,0.16735444962978363      ,0.3408603072166443       ,0.2589849829673767       ,0.354325532913208        ,-0.6025794148445129      ,     0.4965915381908417  ,0.8091156482696533       ,0.44394373893737793      ,0.4864862859249115       ,0.22384607791900635      ,     0.4263591170310974  ,0.11527413874864578      ,     0.29205116629600525 ,0.8663352727890015       ,0.6895784139633179       ,-0.21029311418533325     ,-0.254345566034317       ,0.3408745527267456       ,0.4948549270629883       ,0.6462973952293396       ,-0.7564422488212585      ,-0.7816335558891296      ,0.03397733345627785      ,0.0474962517619133       ,     0.375953733921051   ,0.3946855664253235       ,-0.2295137643814087   ,0.12372906506061554   ,-0.11965098232030869  ,0.2383737862110138    ,-0.24253608286380768  , 0.876055896282196  , 1.097165584564209  , 0.9118711352348328 , 0.9227418303489685 , 0.9003886580467224 ,-0.11751972138881683  ,0.11352843046188354   ,-0.08002295345067978  ,-0.1102309376001358   ,-0.09316585212945938  ,-0.8714429140090942    ,0.5340158343315125     ,0.04723063483834267    ,0.24078422784805298    ,-0.6055954694747925    ,0.17425885796546936
0.045906856656074524    ,-0.16422539949417114    ,-0.2006784975528717     ,1.1726329326629639      ,-0.30782365798950195    ,0.5354920625686646      ,0.7070221900939941      ,-0.1430499404668808     ,    0.16247986257076263 ,0.15240857005119324     ,0.6871467232704163       ,0.8744402527809143       ,0.528512716293335        ,1.1563669443130493       ,-0.3450513482093811      ,0.3623318076133728       ,-0.9634374380111694      ,-0.5934968590736389      ,1.0227011442184448       ,     0.5900412201881409  ,-0.8538509607315063      ,-0.6301224827766418      ,0.3494446277618408       ,-0.7642702460289001      ,-0.34019508957862854     ,0.08007845282554626      ,0.8931199908256531       ,0.7553802132606506       ,0.13916099071502686      ,     1.1020455360412598  ,0.7244879603385925       ,0.6889676451683044       ,    0.9372648000717163   ,-0.9406662583351135      ,-0.5569723844528198      ,-0.15080983936786652     ,     0.9042598605155945  ,-0.03443939983844757     ,     0.6326665282249451  ,0.6691302061080933       ,-0.6462201476097107      ,0.5589275360107422       ,     0.7712906002998352  ,0.1891992688179016       ,-1.1588828563690186      ,-0.8914886116981506      ,-0.9468347430229187      ,1.150037407875061        ,0.7226179242134094       ,-0.022174783051013947    ,0.009890471585094929   ,0.03133470565080643   ,0.39052215218544006   ,0.10719068348407745   ,0.33540695905685425    ,0.27676376700401306   ,-0.15535782277584076  ,-0.2258404642343521   ,-0.3277477025985718    ,0.4228382706642151    , 0.8733348846435547 , 1.0522816181182861 , 1.1132453680038452 , 0.8892483115196228 , 1.1041908264160156 , 0.9557799696922302 , 0.898886501789093  , 0.9934871792793274 , 1.102437138557434  , 0.9573876857757568 ,0.11540010571479797   ,0.009356869384646416   ,0.09671396762132645  ,-0.11241094768047333  ,0.06669867783784866    ,-0.09505082666873932   ,-0.08477350324392319  ,-0.09324026107788086  ,0.13383494317531586    ,-0.08050095289945602  ,-0.8034244179725647     ,-0.325008749961853      ,-0.5777566432952881     ,0.08221639692783356     ,0.06376930326223373     ,0.2677048444747925      ,-0.02167501114308834    ,0.11040043830871582     ,0.011326581239700317    ,-0.4312671422958374     ,0.5489827394485474       ,0.2693823277950287       ,-0.8014532327651978      ,0.38181057572364807      ,-0.6584843993186951      ,-0.376139372587204       ,-0.7485297918319702      ,0.4171994924545288       ,-0.6936602592468262      ,0.6444274187088013       ,0.6003363132476807       ,-0.2859370708465576      ,0.7379416823387146       ,0.2611127197742462       ,0.1630965918302536       ,0.3460310101509094       ,0.2642645239830017       ,0.3584190905094147       ,-0.59722501039505        ,     0.4940422773361206  ,0.8099368214607239       ,0.4387662708759308       ,0.487408846616745        ,0.2230929285287857       ,     0.428505003452301   ,0.11748567968606949      ,     0.28938522934913635 ,0.868199348449707        ,0.6931858658790588       ,-0.20604678988456726     ,-0.25375428795814514     ,0.3433775007724762       ,0.49515604972839355      ,0.6461068987846375       ,-0.7575053572654724      ,-0.7860921025276184      ,0.03646593168377876      ,0.043963003903627396     ,     0.37515002489089966 ,0.39191362261772156      ,-0.2292330414056778   ,0.12408579885959625   ,-0.1195807158946991   ,0.2384040206670761    ,-0.24214646220207214  , 0.8730751872062683 , 1.0959147214889526 , 0.9083072543144226 , 0.9229550957679749 , 0.8999713659286499 ,-0.11985376477241516  ,0.11465158313512802   ,-0.08257169276475906  ,-0.11461804062128067  ,-0.09221623837947845  ,-0.868511438369751     ,0.5329880118370056     ,0.046430427581071854   ,0.24152538180351257    ,-0.6050654649734497    ,0.17543621361255646
0.048479367047548294    ,-0.16064225137233734    ,-0.19741423428058624    ,1.174423336982727       ,-0.3066942095756531     ,0.5376554131507874      ,0.7018646597862244      ,-0.14260703325271606    ,    0.1652412712574005  ,0.15699656307697296     ,0.6913363933563232       ,0.8691580891609192       ,0.5248100161552429       ,1.1614465713500977       ,-0.34579628705978394     ,0.3656485676765442       ,-0.960148274898529       ,-0.5950377583503723      ,1.0230604410171509       ,     0.590806245803833   ,-0.8527423143386841      ,-0.6337830424308777      ,0.3448003828525543       ,-0.7613255381584167      ,-0.3436145484447479      ,0.07821113616228104      ,0.8963260650634766       ,0.7601991295814514       ,0.14399757981300354      ,     1.0979068279266357  ,0.726843535900116        ,0.6896403431892395       ,    0.936969518661499    ,-0.9391720294952393      ,-0.5585753917694092      ,-0.15586836636066437     ,     0.8998568654060364  ,-0.030527833849191666    ,     0.6276242136955261  ,0.6730144619941711       ,-0.6465739607810974      ,0.5563820600509644       ,     0.7660688757896423  ,0.1869170218706131       ,-1.1641044616699219      ,-0.8920201659202576      ,-0.9510146975517273      ,1.1497145891189575       ,0.7187472581863403       ,-0.018536444753408432    ,0.009699985384941101   ,0.031268563121557236  ,0.3907979726791382    ,0.10733067989349365   ,0.33521735668182373    ,0.2764562964439392    ,-0.155498668551445    ,-0.22563394904136658  ,-0.32770591974258423   ,0.42263171076774597   , 0.8693101406097412 , 1.0488260984420776 , 1.1155214309692383 , 0.8882317543029785 , 1.10456120967865   , 0.9585395455360413 , 0.8994913101196289 , 0.9890565872192383 , 1.1037095785140991 , 0.9530961513519287 ,0.11844603717327118   ,0.004943764768540859   ,0.09767094999551773  ,-0.11399786919355392  ,0.06339530646800995    ,-0.09630531817674637   ,-0.08259506523609161  ,-0.09540025144815445  ,0.13818752765655518    ,-0.07864590734243393  ,-0.8059982061386108     ,-0.3207550644874573     ,-0.5791621208190918     ,0.08051887899637222     ,0.06279529631137848     ,0.2648364305496216      ,-0.01735534518957138    ,0.10709023475646973     ,0.01556103490293026     ,-0.4339419901371002     ,0.5445283651351929       ,0.26463958621025085      ,-0.8066806793212891      ,0.37999776005744934      ,-0.6571943163871765      ,-0.37384018301963806     ,-0.7539034485816956      ,0.41288381814956665      ,-0.6990352869033813      ,0.6433275938034058       ,0.5996025204658508       ,-0.2832595109939575      ,0.7422909140586853       ,0.25713032484054565      ,0.1588691920042038       ,0.35117271542549133      ,0.26959744095802307      ,0.36247625946998596      ,-0.5918312072753906      ,     0.4913739562034607  ,0.810484766960144        ,0.4335772693157196       ,0.4880559742450714       ,0.22207072377204895      ,     0.4309503436088562  ,0.11951765418052673      ,     0.2868586778640747  ,0.8698736429214478       ,0.697064220905304        ,-0.20186999440193176     ,-0.25339069962501526     ,0.3457545340061188       ,0.49517372250556946      ,0.6461681127548218       ,-0.7584948539733887      ,-0.7905188202857971      ,0.03882530331611633      ,0.040260717272758484     ,     0.37403666973114014 ,0.38929039239883423      ,-0.22882424294948578  ,0.12455233186483383   ,-0.11950325220823288  ,0.2384004294872284    ,-0.2418370246887207   , 0.8703050017356873 , 1.094315528869629  , 0.9046205282211304 , 0.923301100730896  , 0.8997867107391357 ,-0.12198881804943085  ,0.11542131006717682   ,-0.08523597568273544  ,-0.11907108873128891  ,-0.09090176969766617  ,-0.8657861351966858    ,0.5316082239151001     ,0.04535367339849472    ,0.24243050813674927    ,-0.6047523021697998    ,0.17623227834701538
0.05050341412425041     ,-0.1572941392660141     ,-0.1942804902791977     ,1.1760594844818115      ,-0.30574554204940796    ,0.5397126078605652      ,0.6967336535453796      ,-0.14248044788837433    ,    0.16779905557632446 ,0.1615600287914276      ,0.6954840421676636       ,0.8639488220214844       ,0.5212340354919434       ,1.1664628982543945       ,-0.34621548652648926     ,0.3689892590045929       ,-0.9569005966186523      ,-0.5964189171791077      ,1.023253083229065        ,     0.5917900800704956  ,-0.851299524307251       ,-0.6374096274375916      ,0.34022700786590576      ,-0.7584814429283142      ,-0.34720951318740845     ,0.07641027867794037      ,0.8997478485107422       ,0.7650865912437439       ,0.1489112824201584       ,     1.093601107597351   ,0.7290595769882202       ,0.6899904608726501       ,    0.9362916350364685   ,-0.9379630088806152      ,-0.5605972409248352      ,-0.1609116941690445      ,     0.8954270482063293  ,-0.026752203702926636    ,     0.6226539015769958  ,0.6767627000808716       ,-0.6472456455230713      ,0.5536772012710571       ,     0.7607141733169556  ,0.18426473438739777      ,-1.1693906784057617      ,-0.8927469849586487      ,-0.9552336931228638      ,1.149195671081543        ,0.7148001194000244       ,-0.014976339414715767    ,0.009632481262087822   ,0.031164709478616714  ,0.3910413384437561    ,0.10744497179985046   ,0.3350013494491577     ,0.2759849727153778    ,-0.1556461900472641   ,-0.2254023253917694   ,-0.327706903219223     ,0.4224068522453308    , 0.8652936816215515 , 1.0453550815582275 , 1.1176689863204956 , 0.8873896598815918 , 1.1048007011413574 , 0.9613659381866455 , 0.9003779292106628 , 0.9844628572463989 , 1.1048177480697632 , 0.9486061334609985 ,0.12148542702198029   ,0.0005279448814690113  ,0.09850071370601654  ,-0.11544891446828842  ,0.059930261224508286   ,-0.09747117757797241   ,-0.08013003319501877  ,-0.09756755083799362  ,0.14247126877307892    ,-0.07669583708047867  ,-0.808430552482605      ,-0.316678524017334      ,-0.5804714560508728     ,0.07896830886602402     ,0.061671338975429535    ,0.2619411051273346      ,-0.013095429167151451   ,0.10373613238334656     ,0.01974210888147354     ,-0.4365007281303406     ,0.5401332378387451       ,0.25995969772338867      ,-0.8118788599967957      ,0.37797093391418457      ,-0.6555982232093811      ,-0.3717542886734009      ,-0.7592761516571045      ,0.4086775481700897       ,-0.7044070959091187      ,0.6418356895446777       ,0.5988595485687256       ,-0.2806066572666168      ,0.7466257810592651       ,0.2531171441078186       ,0.15468670427799225      ,0.35625171661376953      ,0.27495673298835754      ,0.36646339297294617      ,-0.5864280462265015      ,     0.4886114299297333  ,0.8108022809028625       ,0.42837467789649963      ,0.4884316325187683       ,0.22082819044589996      ,     0.4336547553539276  ,0.12137826532125473      ,     0.2844584584236145  ,0.871371865272522        ,0.7011661529541016       ,-0.19775867462158203     ,-0.2532423138618469      ,0.3480209410190582       ,0.49494436383247375      ,0.6464470028877258       ,-0.7594220042228699      ,-0.7948958873748779      ,0.041065625846385956     ,0.03643026947975159      ,     0.3726448118686676  ,0.3868068754673004       ,-0.2285812497138977   ,0.12480714172124863   ,-0.1194659098982811   ,0.2383100390434265    ,-0.24155808985233307  , 0.8677467107772827 , 1.0924251079559326 , 0.9008506536483765 , 0.9237953424453735 , 0.8998057246208191 ,-0.12393017113208771  ,0.11586305499076843   ,-0.08797411620616913  ,-0.123554527759552    ,-0.08927536010742188  ,-0.8632675409317017    ,0.529930830001831      ,0.044044919312000275   ,0.2435120791196823     ,-0.6046298742294312    ,0.1766718477010727
0.0512419268488884      ,-0.15576505661010742    ,-0.1927778571844101     ,1.1768046617507935      ,-0.30535510182380676    ,0.5407022833824158      ,0.6941854953765869      ,-0.14256668090820312    ,    0.16897442936897278 ,0.16382001340389252     ,0.6975433826446533       ,0.8613905310630798       ,0.519508957862854        ,1.1689199209213257       ,-0.34628164768218994     ,0.3706740736961365       ,-0.9552872776985168      ,-0.5970303416252136      ,1.023282766342163        ,     0.5923880934715271  ,-0.8504304885864258      ,-0.639208197593689       ,0.33797499537467957      ,-0.7571033239364624      ,-0.34907689690589905     ,0.07552671432495117      ,0.9015368819236755       ,0.7675559520721436       ,0.15140177309513092      ,     1.0913816690444946  ,0.7301023602485657       ,0.6900052428245544       ,    0.9357696771621704   ,-0.9374993443489075      ,-0.5618003606796265      ,-0.16342629492282867     ,     0.8931813836097717  ,-0.024936238303780556    ,     0.6202093362808228  ,0.6785715818405151       ,-0.64767986536026        ,0.5522932410240173       ,     0.7579963207244873  ,0.18280960619449615      ,-1.1720424890518188      ,-0.8932361006736755      ,-0.9573962688446045      ,1.1487771272659302       ,0.7127847671508789       ,-0.013255623169243336    ,0.009425495751202106   ,0.031091192737221718  ,0.3911595940589905    ,0.10754980891942978   ,0.33499476313591003    ,0.2758355438709259    ,-0.15575680136680603  ,-0.22532203793525696  ,-0.3276866376399994    ,0.4222487509250641    , 0.8632952570915222 , 1.0436360836029053 , 1.1186798810958862 , 0.8870452642440796 , 1.1048705577850342 , 0.9627927541732788 , 0.9009450078010559 , 0.9821187257766724 , 1.1052857637405396 , 0.9462723135948181 ,0.12300372123718262   ,-0.0016693093348294497 ,0.09885415434837341  ,-0.11611314117908478  ,0.058135468512773514   ,-0.0980197936296463    ,-0.07877582311630249  ,-0.09864355623722076  ,0.1446075439453125     ,-0.07560756057500839  ,-0.8095738887786865     ,-0.31473013758659363    ,-0.5810787081718445     ,0.07826172560453415     ,0.06104815751314163     ,0.26048487424850464     ,-0.010996726341545582   ,0.1020440012216568      ,0.02179650589823723     ,-0.43772435188293457    ,0.5379705429077148       ,0.2576584815979004       ,-0.8144543766975403      ,0.37686967849731445      ,-0.654687762260437       ,-0.3707990348339081      ,-0.761952817440033       ,0.4066517651081085       ,-0.70708167552948        ,0.6409077048301697       ,0.5984950661659241       ,-0.2793138027191162      ,0.748765230178833        ,0.25111398100852966      ,0.15261872112751007      ,0.3587419092655182       ,0.27763521671295166      ,0.3684066832065582       ,-0.5837346911430359      ,     0.48720139265060425 ,0.8108682632446289       ,0.42576590180397034      ,0.4884863495826721       ,0.2201206535100937       ,     0.43511712551116943 ,0.12222711741924286      ,     0.2833152115345001  ,0.8720401525497437       ,0.7033081650733948       ,-0.19573381543159485     ,-0.25327056646347046     ,0.349106103181839        ,0.49472299218177795      ,0.6466779708862305       ,-0.7598587274551392      ,-0.7970519065856934      ,0.0421314500272274       ,0.034467484802007675     ,     0.3718251883983612  ,0.3856302797794342       ,-0.22839227318763733  ,0.12480051815509796   ,-0.11944663524627686  ,0.23826631903648376   ,-0.24140508472919464  , 0.8665733933448792 , 1.0913612842559814 , 0.8989442586898804 , 0.924126386642456  , 0.899902880191803  ,-0.12480722367763519  ,0.11593475937843323   ,-0.08935718983411789  ,-0.12579134106636047  ,-0.08833108097314835  ,-0.8621111512184143    ,0.5289693474769592     ,0.043295931071043015   ,0.24414841830730438    ,-0.6046510934829712    ,0.17672762274742126
0.05162898451089859     ,-0.15445956587791443    ,-0.19133427739143372    ,1.1774872541427612      ,-0.30502864718437195    ,0.5416638255119324      ,0.691655158996582       ,-0.14279131591320038    ,    0.17004939913749695 ,0.16605575382709503     ,0.6995901465415955       ,0.8588799238204956       ,0.5178417563438416       ,1.171321988105774        ,-0.34622082114219666     ,0.3723199665546417       ,-0.9537256360054016      ,-0.597601056098938       ,1.0231868028640747       ,     0.5930680632591248  ,-0.8494202494621277      ,-0.6409904360771179      ,0.33576488494873047      ,-0.7557685375213623      ,-0.3510092794895172      ,0.07464993745088577      ,0.9033850431442261       ,0.7700451612472534       ,0.15392236411571503      ,     1.089107871055603   ,0.7310876250267029       ,0.6898695230484009       ,    0.9350786209106445   ,-0.937166690826416       ,-0.563175618648529       ,-0.16593599319458008     ,     0.8908917307853699  ,-0.02319283038377762     ,     0.6178086996078491  ,0.6803200244903564       ,-0.6482075452804565      ,0.5508787035942078       ,     0.7552462220191956  ,0.1812436729669571       ,-1.1746982336044312      ,-0.8938659429550171      ,-0.959623396396637       ,1.148180603981018        ,0.7107188701629639       ,-0.011595575138926506    ,0.009391523897647858   ,0.031035171821713448  ,0.3912961781024933    ,0.10765793919563293   ,0.33498796820640564    ,0.27569082379341125   ,-0.1559104472398758   ,-0.22529606521129608  ,-0.3276088237762451    ,0.4222380518913269    , 0.8613088726997375 , 1.0419352054595947 , 1.1196403503417969 , 0.8867707848548889 , 1.1048736572265625 , 0.9642356634140015 , 0.90163254737854   , 0.9797223210334778 , 1.1056900024414062 , 0.9438551068305969 ,0.12447303533554077   ,-0.0038559501990675926 ,0.09916151314973831  ,-0.11671312898397446  ,0.05627793073654175    ,-0.09853515028953552   ,-0.0772995799779892   ,-0.09972977638244629  ,0.14675050973892212    ,-0.07440321892499924  ,-0.8106470704078674     ,-0.31286728382110596    ,-0.5816413760185242     ,0.07761846482753754     ,0.060372792184352875    ,0.25902193784713745     ,-0.008927588351070881   ,0.10033982992172241     ,0.023812593892216682    ,-0.43889641761779785    ,0.5358344316482544       ,0.2553853988647461       ,-0.8170188665390015      ,0.3756970465183258       ,-0.6536117792129517      ,-0.36997130513191223     ,-0.7646266222000122      ,0.4046633541584015       ,-0.7097575664520264      ,0.6398090720176697       ,0.59816974401474         ,-0.27809178829193115     ,0.7508692741394043       ,0.2491346299648285       ,0.1506112813949585       ,0.3611604869365692       ,0.2802327573299408       ,0.37031251192092896      ,-0.5810313820838928      ,     0.4857844412326813  ,0.8108566403388977       ,0.42315003275871277      ,0.4884151220321655       ,0.21934211254119873      ,     0.43667447566986084 ,0.12300051003694534      ,     0.2822226583957672  ,0.8726348876953125       ,0.7055252194404602       ,-0.19373661279678345     ,-0.25339481234550476     ,0.35014933347702026      ,0.49440711736679077      ,0.646988034248352        ,-0.7602716088294983      ,-0.7991746068000793      ,0.04314849153161049      ,0.03246620297431946      ,     0.37089529633522034 ,0.3845130205154419       ,-0.22822389006614685  ,0.12474450469017029   ,-0.11940749734640121  ,0.2382715344429016    ,-0.2414093017578125   , 0.8655005693435669 , 1.090196132659912  , 0.8970248103141785 , 0.9245439767837524 , 0.9000769257545471 ,-0.1255967766046524   ,0.11589039862155914   ,-0.09077246487140656  ,-0.1280127316713333   ,-0.08727411180734634  ,-0.8610522747039795    ,0.5279035568237305     ,0.042466677725315094   ,0.24488072097301483    ,-0.6047449707984924    ,0.1766345500946045
0.05166210979223251     ,-0.1534002274274826     ,-0.18994498252868652    ,1.178110122680664       ,-0.3047657012939453     ,0.5426130294799805      ,0.6891405582427979      ,-0.1431473195552826     ,    0.17102667689323425 ,0.16826315224170685     ,0.7016178369522095       ,0.8564245104789734       ,0.5162312388420105       ,1.173664927482605        ,-0.346047967672348       ,0.37393081188201904      ,-0.9522039294242859      ,-0.5981304049491882      ,1.0229846239089966       ,     0.5938282608985901  ,-0.848296046257019       ,-0.6427544355392456      ,0.33364933729171753      ,-0.7544199228286743      ,-0.35300785303115845     ,0.07376708835363388      ,0.9052786231040955       ,0.7725494503974915       ,0.15646927058696747      ,     1.0867893695831299  ,0.7320201396942139       ,0.6895903944969177       ,    0.9342309236526489   ,-0.936958909034729       ,-0.5647040009498596      ,-0.16844509541988373     ,     0.888558030128479   ,-0.021517863497138023    ,     0.6154521107673645  ,0.6820089221000671       ,-0.6487768292427063      ,0.5494716763496399       ,     0.7524701952934265  ,0.1795780211687088       ,-1.1773580312728882      ,-0.8946091532707214      ,-0.9618893265724182      ,1.1474394798278809       ,0.7086246609687805       ,-0.009959964081645012    ,0.0093609057366848     ,0.03103848546743393   ,0.39141717553138733   ,0.10775443911552429   ,0.334970086812973      ,0.2755567729473114    ,-0.1560693234205246   ,-0.225260928273201    ,-0.32749950885772705   ,0.4221814274787903    , 0.8593335151672363 , 1.0403000116348267 , 1.1205687522888184 , 0.8865706920623779 , 1.1048483848571777 , 0.9656159281730652 , 0.9024272561073303 , 0.977308452129364  , 1.1059606075286865 , 0.9413405060768127 ,0.1259104460477829    ,-0.00600945670157671   ,0.09944753348827362  ,-0.11724095046520233  ,0.0544077530503273     ,-0.09905591607093811   ,-0.07571800798177719  ,-0.1008111760020256   ,0.14888080954551697    ,-0.07313399761915207  ,-0.811652421951294      ,-0.31108638644218445    ,-0.5821623206138611     ,0.07703372091054916     ,0.05965379625558853     ,0.2575538158416748      ,-0.006886523682624102   ,0.09862618893384933     ,0.025788182392716408    ,-0.4400206208229065     ,0.5337263345718384       ,0.2531432509422302       ,-0.8195669054985046      ,0.37446391582489014      ,-0.6524048447608948      ,-0.3692513108253479      ,-0.7672922611236572      ,0.40272483229637146      ,-0.7124284505844116      ,0.6385570168495178       ,0.5979457497596741       ,-0.2769714593887329      ,0.7529760599136353       ,0.24715787172317505      ,0.14859117567539215      ,0.36356034874916077      ,0.28270360827445984      ,0.37227022647857666      ,-0.578245997428894       ,     0.48450160026550293 ,0.8107824921607971       ,0.42052745819091797      ,0.4882245361804962       ,0.21850717067718506      ,     0.4383130967617035  ,0.12370402365922928      ,     0.28117504715919495 ,0.8731629252433777       ,0.70780348777771         ,-0.19176428020000458     ,-0.25360316038131714     ,0.35116854310035706      ,0.4940366744995117       ,0.6473798751831055       ,-0.7606965899467468      ,-0.8012236952781677      ,0.0441308431327343       ,0.030474286526441574     ,     0.36983683705329895 ,0.38343214988708496      ,-0.22813017666339874  ,0.12464021146297455   ,-0.11937076598405838  ,0.23830044269561768   ,-0.2414526492357254   , 0.8645231127738953 , 1.0889471769332886 , 0.8951067328453064 , 0.9250516891479492 , 0.9003158807754517 ,-0.12630468606948853  ,0.11574248224496841   ,-0.09215866774320602  ,-0.13020718097686768  ,-0.08614341169595718  ,-0.8600859045982361    ,0.5267507433891296     ,0.041570864617824554   ,0.245710089802742      ,-0.6049022078514099    ,0.1764073371887207
0.05138233304023743     ,-0.1525813639163971     ,-0.1886061131954193     ,1.1786777973175049      ,-0.3045607805252075     ,0.5435436964035034      ,0.6866298317909241      ,-0.1436261385679245     ,    0.17192107439041138 ,0.17045724391937256     ,0.7036179304122925       ,0.8539992570877075       ,0.5146727561950684       ,1.175987958908081        ,-0.3457506597042084      ,0.37551385164260864      ,-0.9507126212120056      ,-0.5986186861991882      ,1.022691249847412        ,     0.5946649312973022  ,-0.8470714688301086      ,-0.6444505453109741      ,0.3316909670829773       ,-0.7531039714813232      ,-0.3550538122653961      ,0.07288461923599243      ,0.9072226285934448       ,0.7750673890113831       ,0.1590343862771988       ,     1.084427833557129   ,0.7329040765762329       ,0.6891741156578064       ,    0.9332382678985596   ,-0.9368704557418823      ,-0.566368579864502       ,-0.17094747722148895     ,     0.8862205743789673  ,-0.01990240439772606     ,     0.6131322979927063  ,0.6836326122283936       ,-0.6493861675262451      ,0.5480709671974182       ,     0.7496749758720398  ,0.177827388048172        ,-1.1800168752670288      ,-0.8954498767852783      ,-0.9641839861869812      ,1.1465727090835571       ,0.7065097093582153       ,-0.00834654550999403     ,0.009283351711928844   ,0.030993204563856125  ,0.39156636595726013   ,0.10777498036623001   ,0.3349531888961792     ,0.2754075229167938    ,-0.15619979798793793  ,-0.22518421709537506  ,-0.32740074396133423   ,0.4221753180027008    , 0.8574124574661255 , 1.0387135744094849 , 1.1214553117752075 , 0.8864346146583557 , 1.1047996282577515 , 0.9669291973114014 , 0.9033153057098389 , 0.97488933801651   , 1.1061084270477295 , 0.9387559294700623 ,0.12735065817832947   ,-0.008142281323671341  ,0.09968942403793335  ,-0.11770590394735336  ,0.05258574336767197    ,-0.09957537055015564   ,-0.07404813170433044  ,-0.1018679067492485   ,0.1510012149810791     ,-0.07178610563278198  ,-0.8126182556152344     ,-0.30935361981391907    ,-0.5826007723808289     ,0.07649675756692886     ,0.0588827058672905      ,0.2560792863368988      ,-0.004860976245254278   ,0.09689197689294815     ,0.027752254158258438    ,-0.4411078989505768     ,0.5316483378410339       ,0.25093546509742737      ,-0.8220922350883484      ,0.3731808364391327       ,-0.6511023640632629      ,-0.3686169981956482      ,-0.7699443697929382      ,0.4008514881134033       ,-0.7150875329971313      ,0.6371662616729736       ,0.5978139638900757       ,-0.2759501338005066      ,0.7550764083862305       ,0.24519245326519012      ,0.14656516909599304      ,0.36593517661094666      ,0.28505679965019226      ,0.37426459789276123      ,-0.5753824710845947      ,     0.48333805799484253 ,0.8106605410575867       ,0.41789862513542175      ,0.48792096972465515      ,0.21762989461421967      ,     0.44002005457878113 ,0.1243428885936737       ,     0.2801671028137207  ,0.873630940914154        ,0.7101308703422546       ,-0.18981437385082245     ,-0.2538909912109375      ,0.3521679639816284       ,0.49361974000930786      ,0.6478409767150879       ,-0.7611332535743713      ,-0.8032013773918152      ,0.04508290812373161      ,0.028493711724877357     ,     0.3686651289463043  ,0.3823838233947754       ,-0.22786001861095428  ,0.12447115778923035   ,-0.11933539807796478  ,0.23834621906280518   ,-0.2415044754743576   , 0.8636384010314941 , 1.0876306295394897 , 0.8932002186775208 , 0.9256536364555359 , 0.9006101489067078 ,-0.12692353129386902  ,0.1155025064945221    ,-0.0935109406709671   ,-0.1323619782924652   ,-0.08495216816663742  ,-0.8592074513435364    ,0.5255268216133118     ,0.04062153026461601    ,0.2466379851102829     ,-0.6051138639450073    ,0.17606015503406525
0.0508381612598896      ,-0.1519920974969864     ,-0.18731901049613953    ,1.1791913509368896      ,-0.3044135272502899     ,0.5444695949554443      ,0.6841251254081726      ,-0.14423523843288422    ,    0.17273198068141937 ,0.17262357473373413     ,0.7055834531784058       ,0.851603090763092        ,0.5131861567497253       ,1.178285837173462        ,-0.34532415866851807     ,0.3770752251148224       ,-0.9492437839508057      ,-0.5990665555000305      ,1.0223188400268555       ,     0.5955747365951538  ,-0.8457431197166443      ,-0.6460869312286377      ,0.32988983392715454      ,-0.7518270015716553      ,-0.35714033246040344     ,0.07199320197105408      ,0.9091988801956177       ,0.7775952816009521       ,0.16161611676216125      ,     1.0820326805114746  ,0.7337318658828735       ,0.6886215806007385       ,    0.932163417339325    ,-0.9368869066238403      ,-0.5681061148643494      ,-0.17343541979789734     ,     0.8839176893234253  ,-0.018370943143963814    ,     0.6108537316322327  ,0.6851783394813538       ,-0.64998859167099        ,0.5467079877853394       ,     0.7469015121459961  ,0.17602171003818512      ,-1.182644248008728       ,-0.8964130878448486      ,-0.9665241837501526      ,1.1455533504486084       ,0.7043596506118774       ,-0.006768574472516775    ,0.009313375689089298   ,0.030958522111177444  ,0.3916351795196533    ,0.10779071599245071   ,0.33488351106643677    ,0.2752992808818817    ,-0.15634870529174805  ,-0.22510389983654022  ,-0.3272729516029358    ,0.422267884016037     , 0.8555328845977783 , 1.037178874015808  , 1.1223140954971313 , 0.8863499164581299 , 1.1047130823135376 , 0.9682109951972961 , 0.9042980074882507 , 0.9724261164665222 , 1.1061640977859497 , 0.9360947608947754 ,0.12878592312335968   ,-0.010254953056573868  ,0.09990201145410538  ,-0.11812010407447815  ,0.05079931020736694    ,-0.1000831127166748    ,-0.07228758186101913  ,-0.10291266441345215  ,0.15309569239616394    ,-0.07037725299596786  ,-0.8135437965393066     ,-0.30766913294792175    ,-0.5829631090164185     ,0.07600438594818115     ,0.05806910619139671     ,0.2546001970767975      ,-0.0028509865514934063  ,0.09514083713293076     ,0.02969970367848873     ,-0.4421602785587311     ,0.5295955538749695       ,0.2487560659646988       ,-0.8246113657951355      ,0.3718413710594177       ,-0.6496714353561401      ,-0.3682057857513428      ,-0.7725912928581238      ,0.3989434838294983       ,-0.7177427411079407      ,0.6356358528137207       ,0.5977348685264587       ,-0.2750120759010315      ,0.7571638226509094       ,0.24323603510856628      ,0.14450661838054657      ,0.36830681562423706      ,0.2872854769229889       ,0.3763040602207184       ,-0.5724596977233887      ,     0.4822657108306885  ,0.8105047345161438       ,0.4152638912200928       ,0.48751041293144226      ,0.21672393381595612      ,     0.4417833089828491  ,0.1249222457408905       ,     0.2791939377784729  ,0.8740453124046326       ,0.7124965786933899       ,-0.1878846436738968      ,-0.2542540729045868      ,0.3531515598297119       ,0.4931638836860657       ,0.6483592987060547       ,-0.7615806460380554      ,-0.805109977722168       ,0.046008799225091934     ,0.026525821536779404     ,     0.3673940896987915  ,0.3813644349575043       ,-0.22761951386928558  ,0.12431908398866653   ,-0.119293712079525    ,0.23837698996067047   ,-0.24161730706691742  , 0.8628417253494263 , 1.086259365081787  , 0.8913172483444214 , 0.926353931427002  , 0.9009506702423096 ,-0.1274597942829132   ,0.11520882695913315   ,-0.0947955772280693   ,-0.13446371257305145  ,-0.08371269702911377  ,-0.8584124445915222    ,0.5242466330528259     ,0.0396309569478035     ,0.24766556918621063    ,-0.6053714156150818    ,0.17560657858848572
