hidden1.weight_weight_0,hidden1.weight_weight_1,hidden1.weight_weight_2,hidden1.weight_weight_3,hidden1.weight_weight_4,hidden1.weight_weight_5,hidden1.weight_weight_6,hidden1.weight_weight_7,hidden1.weight_weight_8,hidden1.weight_weight_9,hidden1.weight_weight_10,hidden1.weight_weight_11,hidden1.weight_weight_12,hidden1.weight_weight_13,hidden1.weight_weight_14,hidden1.weight_weight_15,hidden1.weight_weight_16,hidden1.weight_weight_17,hidden1.weight_weight_18,hidden1.weight_weight_19,hidden1.weight_weight_20,hidden1.weight_weight_21,hidden1.weight_weight_22,hidden1.weight_weight_23,hidden1.weight_weight_24,hidden1.weight_weight_25,hidden1.weight_weight_26,hidden1.weight_weight_27,hidden1.weight_weight_28,hidden1.weight_weight_29,hidden1.weight_weight_30,hidden1.weight_weight_31,hidden1.weight_weight_32,hidden1.weight_weight_33,hidden1.weight_weight_34,hidden1.weight_weight_35,hidden1.weight_weight_36,hidden1.weight_weight_37,hidden1.weight_weight_38,hidden1.weight_weight_39,hidden1.weight_weight_40,hidden1.weight_weight_41,hidden1.weight_weight_42,hidden1.weight_weight_43,hidden1.weight_weight_44,hidden1.weight_weight_45,hidden1.weight_weight_46,hidden1.weight_weight_47,hidden1.weight_weight_48,hidden1.weight_weight_49,hidden1.bias_weight_0,hidden1.bias_weight_1,hidden1.bias_weight_2,hidden1.bias_weight_3,hidden1.bias_weight_4,hidden1.bias_weight_5,hidden1.bias_weight_6,hidden1.bias_weight_7,hidden1.bias_weight_8,hidden1.bias_weight_9,bn1.weight_weight_0,bn1.weight_weight_1,bn1.weight_weight_2,bn1.weight_weight_3,bn1.weight_weight_4,bn1.weight_weight_5,bn1.weight_weight_6,bn1.weight_weight_7,bn1.weight_weight_8,bn1.weight_weight_9,bn1.bias_weight_0,bn1.bias_weight_1,bn1.bias_weight_2,bn1.bias_weight_3,bn1.bias_weight_4,bn1.bias_weight_5,bn1.bias_weight_6,bn1.bias_weight_7,bn1.bias_weight_8,bn1.bias_weight_9,hidden2.weight_weight_0,hidden2.weight_weight_1,hidden2.weight_weight_2,hidden2.weight_weight_3,hidden2.weight_weight_4,hidden2.weight_weight_5,hidden2.weight_weight_6,hidden2.weight_weight_7,hidden2.weight_weight_8,hidden2.weight_weight_9,hidden2.weight_weight_10,hidden2.weight_weight_11,hidden2.weight_weight_12,hidden2.weight_weight_13,hidden2.weight_weight_14,hidden2.weight_weight_15,hidden2.weight_weight_16,hidden2.weight_weight_17,hidden2.weight_weight_18,hidden2.weight_weight_19,hidden2.weight_weight_20,hidden2.weight_weight_21,hidden2.weight_weight_22,hidden2.weight_weight_23,hidden2.weight_weight_24,hidden2.weight_weight_25,hidden2.weight_weight_26,hidden2.weight_weight_27,hidden2.weight_weight_28,hidden2.weight_weight_29,hidden2.weight_weight_30,hidden2.weight_weight_31,hidden2.weight_weight_32,hidden2.weight_weight_33,hidden2.weight_weight_34,hidden2.weight_weight_35,hidden2.weight_weight_36,hidden2.weight_weight_37,hidden2.weight_weight_38,hidden2.weight_weight_39,hidden2.weight_weight_40,hidden2.weight_weight_41,hidden2.weight_weight_42,hidden2.weight_weight_43,hidden2.weight_weight_44,hidden2.weight_weight_45,hidden2.weight_weight_46,hidden2.weight_weight_47,hidden2.weight_weight_48,hidden2.weight_weight_49,hidden2.bias_weight_0,hidden2.bias_weight_1,hidden2.bias_weight_2,hidden2.bias_weight_3,hidden2.bias_weight_4,bn2.weight_weight_0,bn2.weight_weight_1,bn2.weight_weight_2,bn2.weight_weight_3,bn2.weight_weight_4,bn2.bias_weight_0,bn2.bias_weight_1,bn2.bias_weight_2,bn2.bias_weight_3,bn2.bias_weight_4,output.weight_weight_0,output.weight_weight_1,output.weight_weight_2,output.weight_weight_3,output.weight_weight_4,output.bias_weight_0
-0.5433398485183716,-0.593896210193634,-1.0276591777801514,0.7925555109977722,0.834402322769165,-0.9380021691322327,-0.36548763513565063,1.020232915878296,-0.40847647190093994,0.9357429146766663,-0.678697943687439,-0.824933648109436,0.005851999390870333,1.1012623310089111,-0.6214627623558044,-0.6246798634529114,0.49351781606674194,-0.981260359287262,0.9362778663635254,-0.1367758959531784,0.08777616918087006,-0.028895355761051178,-0.3810670077800751,0.23788245022296906,-1.0435357093811035,-0.8448851704597473,-0.2942081093788147,0.8741046786308289,-0.24548016488552094,1.0716675519943237,-0.21937601268291473,0.991870105266571,0.006650305353105068,-0.050518713891506195,-0.799283504486084,-0.6072708368301392,1.015903115272522,0.20028309524059296,1.0228469371795654,-0.8904644846916199,-0.653333306312561,0.35279035568237305,-0.7372850775718689,-0.3737368881702423,-0.3541264832019806,-0.07505837827920914,0.5671564936637878,0.9394456148147583,0.46184101700782776,-0.5434451103210449,0.061856549233198166,0.1528254896402359,-0.03754387050867081,0.38196566700935364,0.3673141896724701,0.10185006260871887,0.27485403418540955,-0.12009993940591812,0.14052022993564606,0.3149346709251404,0.9898999929428101,1.0098999738693237,1.0098999738693237,1.0098999738693237,1.0098999738693237,0.9898999929428101,0.9898999929428101,1.0098999738693237,1.0098999738693237,0.9898999929428101,-0.009999982081353664,0.009999994188547134,0.00999999139457941,0.009999992325901985,-0.009999986737966537,-0.009999997913837433,0.009999995119869709,0.009999996982514858,0.009999994188547134,-0.009999996051192284,-0.0652407854795456,0.5297681093215942,0.0053106993436813354,-0.4153594672679901,-0.3832128047943115,0.05456859618425369,-0.2177249789237976,-0.22400298714637756,-0.48856407403945923,0.05882163718342781,-0.24304762482643127,0.6625916957855225,-0.5922490358352661,0.548301637172699,0.36297109723091125,-0.36070680618286133,-0.5127551555633545,0.6972458958625793,0.0038894666358828545,-0.1773279309272766,0.5158454179763794,0.35689812898635864,-0.6466265916824341,-0.4888804852962494,0.3556973934173584,0.4142780900001526,-0.7698451280593872,-0.5748915076255798,0.399058997631073,0.6722217202186584,0.040051206946372986,-0.773292601108551,-0.30909204483032227,0.5615237355232239,0.7523723244667053,-0.008283952251076698,0.7553678750991821,0.08109238743782043,-0.027974363416433334,0.2720279097557068,0.602340817451477,0.5770918726921082,-0.2543524205684662,0.7376289963722229,-0.40676218271255493,-0.7590138912200928,0.7212480902671814,0.4345633387565613,0.5304186940193176,-0.10804841667413712,0.01786527968943119,0.25360772013664246,-0.2450990527868271,0.03248485177755356,0.1494598537683487,0.9898999929428101,1.0098999738693237,0.9898999929428101,0.9898999929428101,0.9898999929428101,-0.009999999776482582,0.009999998845160007,-0.009999997913837433,-0.009999998845160007,-0.009999998845160007,-0.7334551811218262,0.5212357044219971,-0.278843492269516,-0.979634702205658,-0.34438571333885193,-0.4222482740879059
-0.5491317510604858,-0.6031460762023926,-1.0373679399490356,0.7827367186546326,0.8245223760604858,-0.9445896744728088,-0.35549962520599365,1.029345154762268,-0.41841331124305725,0.9256483316421509,-0.6687077283859253,-0.8293675780296326,0.015302537009119987,1.111083745956421,-0.612635612487793,-0.6343870759010315,0.48351457715034485,-0.9908258318901062,0.9262204766273499,-0.14676760137081146,0.07837337255477905,-0.019837919622659683,-0.3908037543296814,0.22788700461387634,-1.0335478782653809,-0.8547228574752808,-0.3033466041088104,0.8640509843826294,-0.23672130703926086,1.0716526508331299,-0.21062462031841278,1.0017331838607788,-0.0032379887998104095,-0.05753244087100029,-0.7892423272132874,-0.6163886785507202,1.0062063932418823,0.20611609518527985,1.0130914449691772,-0.9003178477287292,-0.6631935238838196,0.362754225730896,-0.7279991507530212,-0.36370739340782166,-0.3440815210342407,-0.06530709564685822,0.577068567276001,0.9293491840362549,0.45178791880607605,-0.5534006953239441,0.06098468601703644,0.150912806391716,-0.036760471761226654,0.3798069357872009,0.36805710196495056,0.10372872650623322,0.27727052569389343,-0.12086757272481918,0.14042353630065918,0.3165511190891266,0.9812021255493164,1.0196634531021118,1.0192475318908691,1.0150870084762573,1.0196425914764404,0.9798899292945862,0.9797883033752441,1.0197644233703613,1.0197885036468506,0.9797874093055725,-0.00905813928693533,0.01917092315852642,0.019763559103012085,0.013418050482869148,-0.019831545650959015,-0.019913624972105026,0.019789420068264008,0.020001104101538658,0.019948525354266167,-0.02000635303556919,-0.07523103058338165,0.5197210907936096,-0.004667531233280897,-0.4253067672252655,-0.39290353655815125,0.044569231569767,-0.22687150537967682,-0.2139950394630432,-0.49851393699645996,0.0688144713640213,-0.24461323022842407,0.6724209189414978,-0.5986263155937195,0.5414541959762573,0.35293757915496826,-0.3507992923259735,-0.5027115941047668,0.7071501612663269,-0.006086420267820358,-0.1673484593629837,0.506159782409668,0.3468700051307678,-0.6564083099365234,-0.49864462018013,0.36565449833869934,0.40425369143486023,-0.7796117663383484,-0.5848450064659119,0.4089929461479187,0.6621431708335876,0.030119067057967186,-0.7831853628158569,-0.3190610706806183,0.5514897704124451,0.7622197866439819,-0.018241481855511665,0.745302140712738,0.07109138369560242,-0.018092310056090355,0.26202312111854553,0.592286229133606,0.5672926902770996,-0.26433876156806946,0.7475495338439941,-0.4167049825191498,-0.7686812877655029,0.7111828327178955,0.4249665141105652,0.5402982831001282,-0.1178482174873352,0.02368360012769699,0.25046950578689575,-0.24347491562366486,0.03675819933414459,0.1510968804359436,0.9798097610473633,1.0198057889938354,0.9798210859298706,0.9798130393028259,0.979821503162384,-0.019992724061012268,0.020009566098451614,-0.019987624138593674,-0.019997982308268547,-0.019980736076831818,-0.7233927845954895,0.5311909914016724,-0.26882994174957275,-0.9695515632629395,-0.33436810970306396,-0.41220444440841675
-0.5532933473587036,-0.6123734712600708,-1.0468995571136475,0.7730752825737,0.8147764205932617,-0.9491550326347351,-0.3456512987613678,1.0388063192367554,-0.4283256232738495,0.9155676364898682,-0.6587350964546204,-0.8283649682998657,0.024384107440710068,1.1208957433700562,-0.6037206649780273,-0.6438563466072083,0.4735057055950165,-1.000546932220459,0.9161220192909241,-0.15678133070468903,0.0689796432852745,-0.010593181475996971,-0.4006420969963074,0.21928301453590393,-1.0235317945480347,-0.864616870880127,-0.31284886598587036,0.8539596199989319,-0.22940151393413544,1.066359281539917,-0.20177963376045227,1.0116015672683716,-0.01091084722429514,-0.052842624485492706,-0.779295027256012,-0.6246298551559448,0.9968097805976868,0.21381337940692902,1.0047223567962646,-0.9102121591567993,-0.6730862259864807,0.37261173129081726,-0.7186030745506287,-0.3536892235279083,-0.33401405811309814,-0.056201424449682236,0.5867977738380432,0.9193278551101685,0.4418732821941376,-0.5633028149604797,0.05997733026742935,0.1501641869544983,-0.0376574769616127,0.37690895795822144,0.3685230016708374,0.10438283532857895,0.27894797921180725,-0.1201961562037468,0.1401701122522354,0.31655460596084595,0.9731569290161133,1.0293174982070923,1.0288333892822266,1.017189383506775,1.0292407274246216,0.9700735211372375,0.9697099924087524,1.0293775796890259,1.0296149253845215,0.9697591066360474,-0.0032656770199537277,0.026357585564255714,0.029607322067022324,0.013464407995343208,-0.029239021241664886,-0.02965833619236946,0.029594972729682922,0.029886554926633835,0.02976204827427864,-0.029837513342499733,-0.08519736677408218,0.5097055435180664,-0.014625162817537785,-0.43520545959472656,-0.4016960561275482,0.034609317779541016,-0.23568248748779297,-0.2039555311203003,-0.5084158778190613,0.07863812148571014,-0.24928002059459686,0.6821281909942627,-0.6064400672912598,0.5333424210548401,0.34308627247810364,-0.3410530090332031,-0.4926949739456177,0.7165202498435974,-0.015471553429961205,-0.1575029194355011,0.4972061812877655,0.33691921830177307,-0.6636554002761841,-0.5078580975532532,0.37555593252182007,0.39432355761528015,-0.7892400026321411,-0.5947303175926208,0.41883543133735657,0.6521025896072388,0.020263150334358215,-0.7930389046669006,-0.3290441334247589,0.5414503812789917,0.7719296216964722,-0.028147384524345398,0.7352587580680847,0.061111707240343094,-0.008477362804114819,0.2520943880081177,0.5822909474372864,0.5574416518211365,-0.2741260230541229,0.7573655247688293,-0.4252236485481262,-0.7784333825111389,0.7012848854064941,0.4209744930267334,0.5500186681747437,-0.1257641464471817,0.022991638630628586,0.250270277261734,-0.24225783348083496,0.040694624185562134,0.14983303844928741,0.9697369337081909,1.029722809791565,0.9697778224945068,0.969744861125946,0.9697715640068054,-0.029984042048454285,0.030028413981199265,-0.029958121478557587,-0.029992027208209038,-0.02992626093327999,-0.7133520841598511,0.5411584377288818,-0.2588422894477844,-0.9594920873641968,-0.3243729770183563,-0.4021598696708679
-0.5501258373260498,-0.6216667294502258,-1.0560897588729858,0.7638037800788879,0.805328369140625,-0.9450708031654358,-0.3358088433742523,1.0482996702194214,-0.437953919172287,0.9063506722450256,-0.649103045463562,-0.8273577690124512,0.03349805250763893,1.1306467056274414,-0.5943947434425354,-0.6527917385101318,0.46345585584640503,-1.0102328062057495,0.9062429666519165,-0.16670744121074677,0.06037135422229767,-0.0012644361704587936,-0.41013938188552856,0.2114003300666809,-1.013580083847046,-0.8744626641273499,-0.3225458562374115,0.8438277840614319,-0.23146243393421173,1.059268832206726,-0.1925612837076187,1.0214492082595825,-0.014740196987986565,-0.04589487612247467,-0.7693888545036316,-0.629332423210144,0.9891735315322876,0.22171556949615479,1.008538007736206,-0.9062668681144714,-0.682980477809906,0.3822742700576782,-0.7099042534828186,-0.3436819016933441,-0.323933482170105,-0.04863404110074043,0.5963640213012695,0.909269392490387,0.4318775534629822,-0.573162853717804,0.05975009500980377,0.14961060881614685,-0.03766254708170891,0.37505635619163513,0.36896997690200806,0.10513061285018921,0.2807999849319458,-0.1188841462135315,0.14001303911209106,0.31665128469467163,0.9691212177276611,1.0387835502624512,1.038562536239624,1.0160696506500244,1.0385679006576538,0.9603253602981567,0.9597508311271667,1.0381863117218018,1.0394006967544556,0.9598247408866882,0.004232549108564854,0.03328859806060791,0.039543673396110535,0.0098508195951581,-0.038830600678920746,-0.03942845016717911,0.03948023542761803,0.03977018594741821,0.039543360471725464,-0.03955111652612686,-0.09516929090023041,0.49970969557762146,-0.02459215559065342,-0.44506749510765076,-0.4095008671283722,0.02468603104352951,-0.24151313304901123,-0.19394144415855408,-0.5183045268058777,0.08852311968803406,-0.25598493218421936,0.6916919946670532,-0.6150608658790588,0.5245206952095032,0.33322253823280334,-0.3314380347728729,-0.48305580019950867,0.7247903347015381,-0.024971336126327515,-0.14763525128364563,0.4886111915111542,0.32700204849243164,-0.6710429191589355,-0.5164890885353088,0.3854638934135437,0.3844504654407501,-0.7984150648117065,-0.6045742034912109,0.42864787578582764,0.6420899629592896,0.01044120080769062,-0.8027584552764893,-0.33894509077072144,0.531410276889801,0.781518280506134,-0.037841442972421646,0.7252994775772095,0.05130043625831604,-0.0010158177465200424,0.24242256581783295,0.5735895037651062,0.549257218837738,-0.2825479805469513,0.7670595645904541,-0.43344780802726746,-0.7865490913391113,0.691486120223999,0.41732755303382874,0.5593143701553345,-0.13407592475414276,0.022781409323215485,0.25393426418304443,-0.24005219340324402,0.040219470858573914,0.14871488511562347,0.959689736366272,1.0396549701690674,0.9597867131233215,0.9597012996673584,0.9597580432891846,-0.039966244250535965,0.04007231816649437,-0.039906568825244904,-0.03999878466129303,-0.039791807532310486,-0.703343391418457,0.5511426329612732,-0.24889300763607025,-0.9494651556015015,-0.31440469622612,-0.39211463928222656
-0.5446721315383911,-0.6308103203773499,-1.0649187564849854,0.7549273371696472,0.7962040305137634,-0.9390823245048523,-0.32610058784484863,1.0578449964523315,-0.44743865728378296,0.8977002501487732,-0.6396759748458862,-0.8260161876678467,0.04293399676680565,1.1403892040252686,-0.5848042964935303,-0.661479651927948,0.4533537030220032,-1.0199697017669678,0.8964263200759888,-0.17659451067447662,0.051891110837459564,0.0061723776161670685,-0.4195883572101593,0.203441321849823,-1.0035762786865234,-0.8843330144882202,-0.33175137639045715,0.8338287472724915,-0.23512540757656097,1.0512133836746216,-0.18304471671581268,1.031357765197754,-0.01395197119563818,-0.037883657962083817,-0.7593913078308105,-0.632141649723053,0.9818560481071472,0.23026958107948303,1.0145870447158813,-0.9003180265426636,-0.6929383277893066,0.3915673792362213,-0.7008669972419739,-0.33368346095085144,-0.3138182759284973,-0.042986489832401276,0.6054896116256714,0.8995868563652039,0.42187291383743286,-0.5828356146812439,0.05957473814487457,0.1498875468969345,-0.03766562044620514,0.37495720386505127,0.3694058358669281,0.10584527999162674,0.28300580382347107,-0.11720603704452515,0.1401418298482895,0.3166308104991913,0.965907871723175,1.0479904413223267,1.0482935905456543,1.015375018119812,1.047698974609375,0.9507416486740112,0.9499464631080627,1.0451213121414185,1.0491317510604858,0.9502315521240234,0.012469075620174408,0.03906842693686485,0.049480970948934555,0.004864302463829517,-0.048435963690280914,-0.049046047031879425,0.04942250996828079,0.04952242597937584,0.049263086169958115,-0.049130309373140335,-0.1051737442612648,0.4897210896015167,-0.03458815813064575,-0.45490339398384094,-0.4159674048423767,0.014794162474572659,-0.2423618882894516,-0.18396754562854767,-0.5281929969787598,0.09849760681390762,-0.26230934262275696,0.7010807394981384,-0.6235120296478271,0.5166987180709839,0.3235016167163849,-0.32202425599098206,-0.47391268610954285,0.7308599948883057,-0.033664822578430176,-0.13811613619327545,0.4799104332923889,0.31710565090179443,-0.6792594790458679,-0.524541974067688,0.3953048884868622,0.37464797496795654,-0.8072530031204224,-0.6142009496688843,0.43834543228149414,0.6322882771492004,0.0006285281851887703,-0.8123665452003479,-0.3488548994064331,0.5213363170623779,0.7909117341041565,-0.047383759170770645,0.7154329419136047,0.04163282737135887,0.0037781833671033382,0.2330423891544342,0.5652565956115723,0.5420293807983398,-0.29042908549308777,0.7763434052467346,-0.4414331316947937,-0.7938094139099121,0.6818799376487732,0.4152621030807495,0.5682888031005859,-0.14200513064861298,0.022947896271944046,0.2558923065662384,-0.23766100406646729,0.040020525455474854,0.14890368282794952,0.9496791958808899,1.0496060848236084,0.9498671293258667,0.9496855735778809,0.9497819542884827,-0.04993095621466637,0.05013333261013031,-0.04980750009417534,-0.050013136118650436,-0.04959767311811447,-0.6933802366256714,0.561147153377533,-0.2389967143535614,-0.9394764304161072,-0.30446213483810425,-0.38206973671913147
-0.5377679467201233,-0.6401553153991699,-1.0735024213790894,0.7461912631988525,0.7872835993766785,-0.9330179691314697,-0.3200113773345947,1.0663689374923706,-0.4569924771785736,0.8890277743339539,-0.6303521990776062,-0.82281494140625,0.05226695537567139,1.1502268314361572,-0.5751007199287415,-0.6701158881187439,0.44319063425064087,-1.0297999382019043,0.8865489959716797,-0.18641412258148193,0.04422623664140701,0.013697749003767967,-0.4288874864578247,0.1953268051147461,-0.9935874938964844,-0.8941259384155273,-0.34036460518836975,0.8240658044815063,-0.23938891291618347,1.0426335334777832,-0.17332570254802704,1.0413163900375366,-0.009703177027404308,-0.029250703752040863,-0.7493366599082947,-0.6340774297714233,0.9742125272750854,0.23878493905067444,1.021690011024475,-0.8937772512435913,-0.7026669383049011,0.400886595249176,-0.6915079951286316,-0.32381120324134827,-0.30374035239219666,-0.03859033063054085,0.6142768859863281,0.8901577591896057,0.4119131863117218,-0.5923554301261902,0.059612683951854706,0.1501070261001587,-0.03814021125435829,0.37432897090911865,0.36965084075927734,0.10620158165693283,0.28525248169898987,-0.11468130350112915,0.1402190923690796,0.3166867792606354,0.9615724682807922,1.0569199323654175,1.0579396486282349,1.016323447227478,1.0568056106567383,0.9413877129554749,0.9403560161590576,1.0497254133224487,1.0587327480316162,0.9411032795906067,0.02035164088010788,0.043077122420072556,0.05929157882928848,0.0003610551357269287,-0.05774253234267235,-0.058471549302339554,0.05934780836105347,0.05900411680340767,0.05859854444861412,-0.05844326689839363,-0.11510810256004333,0.4798012673854828,-0.04445208981633186,-0.46458423137664795,-0.42043524980545044,0.0049907490611076355,-0.24136772751808167,-0.1740274727344513,-0.537990391254425,0.10813898593187332,-0.2662231922149658,0.7102488875389099,-0.6305282115936279,0.5123540163040161,0.31416088342666626,-0.31288862228393555,-0.4654218554496765,0.733862042427063,-0.03989323601126671,-0.1293632537126541,0.4708578884601593,0.3071957528591156,-0.6875848174095154,-0.5323693752288818,0.40507981181144714,0.36487722396850586,-0.815491795539856,-0.6235596537590027,0.44788858294487,0.6228460073471069,-0.0091794952750206,-0.8218574523925781,-0.3588043749332428,0.51121985912323,0.8000689744949341,-0.056791745126247406,0.7056728601455688,0.03209035471081734,0.005763169378042221,0.22393988072872162,0.5568018555641174,0.5352907776832581,-0.2982836961746216,0.7848438024520874,-0.44920602440834045,-0.8007340431213379,0.6725651025772095,0.41559985280036926,0.5769848823547363,-0.14869798719882965,0.0250480305403471,0.26004764437675476,-0.23669984936714172,0.04172813147306442,0.15025776624679565,0.9397174119949341,1.059576153755188,0.9400389194488525,0.9397026300430298,0.939848005771637,-0.059866562485694885,0.060211941599845886,-0.05962975695729256,-0.0600331611931324,-0.05934973061084747,-0.6834773421287537,0.5711727142333984,-0.22916775941848755,-0.9295338988304138,-0.2945474684238434,-0.372026652097702
-0.5299975872039795,-0.6496565341949463,-1.0817162990570068,0.7377477884292603,0.778628945350647,-0.9281178116798401,-0.31867000460624695,1.072676181793213,-0.4665907025337219,0.8802750110626221,-0.621309757232666,-0.8193206191062927,0.061845697462558746,1.1600205898284912,-0.5652163624763489,-0.6788918375968933,0.4329742193222046,-1.0397013425827026,0.8766012191772461,-0.19620966911315918,0.03754810616374016,0.020490460097789764,-0.43816637992858887,0.1869136095046997,-0.9835313558578491,-0.9037327766418457,-0.3482327163219452,0.8145961761474609,-0.24479827284812927,1.0337789058685303,-0.16346649825572968,1.0513505935668945,-0.003635056782513857,-0.0201772041618824,-0.7391842007637024,-0.6357887387275696,0.9660027623176575,0.2467724233865738,1.0295236110687256,-0.8869574069976807,-0.7124307751655579,0.4096950888633728,-0.6826286911964417,-0.3139345049858093,-0.29374822974205017,-0.03531568869948387,0.6227641701698303,0.8809020519256592,0.40187469124794006,-0.6019015312194824,0.059642493724823,0.14986442029476166,-0.038811251521110535,0.37430062890052795,0.36959463357925415,0.10696246474981308,0.2869005501270294,-0.11193527281284332,0.1403195858001709,0.31651240587234497,0.9559304714202881,1.065488338470459,1.0673210620880127,1.0201716423034668,1.0658166408538818,0.9323070049285889,0.9309694766998291,1.0520217418670654,1.0681771039962769,0.9325356483459473,0.027568303048610687,0.044532593339681625,0.0689132884144783,-0.003810491180047393,-0.06701807677745819,-0.06772475689649582,0.06927468627691269,0.06820575892925262,0.06750352680683136,-0.06738778203725815,-0.12503592669963837,0.4699302315711975,-0.05427510291337967,-0.47415345907211304,-0.422513872385025,-0.004740295000374317,-0.23772139847278595,-0.1640058308839798,-0.5477279424667358,0.11771686375141144,-0.26647382974624634,0.7191394567489624,-0.6347649097442627,0.512349545955658,0.3052573800086975,-0.30407363176345825,-0.45778584480285645,0.7342990040779114,-0.043120820075273514,-0.12158127129077911,0.46150416135787964,0.2973058819770813,-0.6963075995445251,-0.5403907299041748,0.4147912859916687,0.3551729917526245,-0.8227651715278625,-0.632599413394928,0.45712777972221375,0.6138061285018921,-0.01898672804236412,-0.8312198519706726,-0.3688112497329712,0.5010619759559631,0.8089517951011658,-0.06606795638799667,0.6960185170173645,0.022661730647087097,0.00519774341955781,0.21509426832199097,0.5482077598571777,0.5293115377426147,-0.3053867220878601,0.7924728393554688,-0.4565303921699524,-0.8072542548179626,0.6637133955955505,0.41777920722961426,0.5854606032371521,-0.15450038015842438,0.026209929957985878,0.26416105031967163,-0.23618343472480774,0.04313526302576065,0.15057051181793213,0.9298153519630432,1.069562315940857,0.9303200244903564,0.9297608733177185,0.9299672245979309,-0.06976783275604248,0.07030105590820312,-0.06938710808753967,-0.07005400955677032,-0.06900318711996078,-0.6736485958099365,0.5812166333198547,-0.21942152082920074,-0.9196493029594421,-0.28466662764549255,-0.36198729276657104
-0.5217632055282593,-0.6591977477073669,-1.0894240140914917,0.7298315167427063,0.7703063488006592,-0.9259995818138123,-0.3209383189678192,1.0749281644821167,-0.47626399993896484,0.8714892268180847,-0.6124623417854309,-0.8134403228759766,0.0712314024567604,1.1699448823928833,-0.5552911758422852,-0.6877735257148743,0.422684907913208,-1.0496127605438232,0.866634726524353,-0.2059711515903473,0.03146609291434288,0.024978436529636383,-0.44753724336624146,0.17809459567070007,-0.9733718037605286,-0.9132093787193298,-0.35604074597358704,0.8052424788475037,-0.2515032887458801,1.0246539115905762,-0.15353542566299438,1.061442255973816,0.003578528296202421,-0.010825291275978088,-0.7289375066757202,-0.6371051669120789,0.9574034810066223,0.2543051540851593,1.0379360914230347,-0.8796719312667847,-0.7220306396484375,0.41767242550849915,-0.6741486191749573,-0.3041173219680786,-0.2849341928958893,-0.03300969675183296,0.6310077905654907,0.8717053532600403,0.39173492789268494,-0.6115695834159851,0.059740230441093445,0.15016824007034302,-0.03975297510623932,0.37461215257644653,0.3699072599411011,0.107969731092453,0.2882903516292572,-0.10985314846038818,0.14050881564617157,0.31675490736961365,0.9490950107574463,1.073728322982788,1.0764154195785522,1.0256811380386353,1.074779987335205,0.9234941601753235,0.9218356013298035,1.0524890422821045,1.0773869752883911,0.9244581460952759,0.0343763567507267,0.043841879814863205,0.078620046377182,-0.007859064266085625,-0.07585775852203369,-0.07688075304031372,0.07924064993858337,0.07716313004493713,0.07557609677314758,-0.07593775540590286,-0.13486090302467346,0.46018171310424805,-0.06410793215036392,-0.4834802448749542,-0.4227418005466461,-0.014315972104668617,-0.23222635686397552,-0.15394607186317444,-0.5573464632034302,0.1271505355834961,-0.2636377215385437,0.7276952862739563,-0.6363002061843872,0.5153845548629761,0.2966943085193634,-0.29561999440193176,-0.451294869184494,0.7327413558959961,-0.04352542757987976,-0.11478125303983688,0.45197993516921997,0.2874630391597748,-0.705424964427948,-0.5482097268104553,0.4244527816772461,0.3455633223056793,-0.8289827108383179,-0.6413072347640991,0.46608278155326843,0.6051417589187622,-0.02878141589462757,-0.8404247760772705,-0.37887948751449585,0.490876168012619,0.8175544142723083,-0.07518702745437622,0.6864635348320007,0.013331497088074684,0.0025970719289034605,0.20643141865730286,0.5393503904342651,0.5252063274383545,-0.3115335702896118,0.7990952134132385,-0.46424469351768494,-0.8125720024108887,0.6555388569831848,0.42210856080055237,0.5932977795600891,-0.15830855071544647,0.026294291019439697,0.2693992853164673,-0.2357744425535202,0.04400533437728882,0.15083317458629608,0.9199839234352112,1.079559326171875,0.9207291007041931,0.9198727607727051,0.9201546907424927,-0.07961826771497726,0.0803980901837349,-0.07907404005527496,-0.08006997406482697,-0.07853159308433533,-0.6639072299003601,0.5912742614746094,-0.20977365970611572,-0.9098392128944397,-0.27483001351356506,-0.35195407271385193
-0.5142409801483154,-0.6688289642333984,-1.096747875213623,0.7221556901931763,0.7621604800224304,-0.9258171319961548,-0.32552817463874817,1.0739524364471436,-0.48575106263160706,0.8633284568786621,-0.6034165024757385,-0.8063235878944397,0.08071037381887436,1.179992914199829,-0.5452530384063721,-0.6967906951904297,0.4123537540435791,-1.059567928314209,0.8565829396247864,-0.21559996902942657,0.026414837688207626,0.029320186004042625,-0.45693495869636536,0.1688651591539383,-0.963184118270874,-0.9225944876670837,-0.3639155328273773,0.7959833145141602,-0.2591695487499237,1.015238642692566,-0.14385461807250977,1.0713251829147339,0.011461176909506321,-0.0013354672119021416,-0.7187947630882263,-0.6371598839759827,0.9495728015899658,0.26207730174064636,1.0468335151672363,-0.8715572953224182,-0.7305662631988525,0.4261167049407959,-0.6666969060897827,-0.29452773928642273,-0.27994653582572937,-0.03183833509683609,0.6389710903167725,0.8625391125679016,0.3815823793411255,-0.621321439743042,0.05982149764895439,0.15088379383087158,-0.04054958373308182,0.3748718500137329,0.37001025676727295,0.10869192332029343,0.289570689201355,-0.10797271132469177,0.14066579937934875,0.3171977400779724,0.9412743449211121,1.0816080570220947,1.085792899131775,1.031854271888733,1.0834717750549316,0.9150011539459229,0.913061797618866,1.0508009195327759,1.0863505601882935,0.9168280959129333,0.04042315483093262,0.04228239506483078,0.08852284401655197,-0.012688739225268364,-0.08425693213939667,-0.08590911328792572,0.08914783596992493,0.08588921278715134,0.08180392533540726,-0.08406119048595428,-0.14399051666259766,0.4507012963294983,-0.0736936628818512,-0.4922425448894501,-0.42174431681632996,-0.02355032227933407,-0.22675961256027222,-0.1447683572769165,-0.566807210445404,0.1347663700580597,-0.25890421867370605,0.73583984375,-0.6380366683006287,0.5201979875564575,0.2882084846496582,-0.2875784635543823,-0.44622570276260376,0.729078471660614,-0.041694264858961105,-0.10901280492544174,0.44221097230911255,0.2776610553264618,-0.71473628282547,-0.5561190247535706,0.4340065121650696,0.3360408842563629,-0.8339426517486572,-0.6494393944740295,0.4746268391609192,0.5971437096595764,-0.03853703290224075,-0.8494272232055664,-0.38900530338287354,0.48069173097610474,0.825911283493042,-0.08410069346427917,0.6769919395446777,0.004073052667081356,-0.001497568329796195,0.19782842695713043,0.5301398634910583,0.5223574638366699,-0.31738847494125366,0.8044991493225098,-0.4718961715698242,-0.8172668218612671,0.6480885744094849,0.4279102087020874,0.600753664970398,-0.16027586162090302,0.027085911482572556,0.27329397201538086,-0.23546409606933594,0.04334379732608795,0.152169868350029,0.9102312922477722,1.0895605087280273,0.911293625831604,0.9100556373596191,0.9104290008544922,-0.08940639346837997,0.09049215912818909,-0.0886325091123581,-0.09007363021373749,-0.08793856203556061,-0.6542637348175049,0.6013390421867371,-0.20024411380290985,-0.9001258611679077,-0.2650531232357025,-0.34192967414855957
-0.5076650977134705,-0.6784403920173645,-1.103660225868225,0.7147841453552246,0.7542302012443542,-0.9269971251487732,-0.3313694894313812,1.0706443786621094,-0.49490299820899963,0.8564980626106262,-0.594130277633667,-0.798313558101654,0.0904063954949379,1.1901155710220337,-0.5353061556816101,-0.7058590650558472,0.4021036624908447,-1.0694739818572998,0.8465126156806946,-0.2249438315629959,0.02165146730840206,0.03216492757201195,-0.4664609432220459,0.15931661427021027,-0.9528940320014954,-0.9318941831588745,-0.37171870470046997,0.786834180355072,-0.2674482464790344,1.0056041479110718,-0.1350405514240265,1.08066987991333,0.019488535821437836,0.00787360966205597,-0.7090463042259216,-0.6353340744972229,0.9429250359535217,0.2702941298484802,1.0561022758483887,-0.8628612756729126,-0.7375704646110535,0.4350261390209198,-0.6584809422492981,-0.28509190678596497,-0.2780507802963257,-0.03208843246102333,0.6466414928436279,0.8533838391304016,0.37135565280914307,-0.631189227104187,0.06014615297317505,0.15138322114944458,-0.04134523496031761,0.3757747709751129,0.36983704566955566,0.10948300361633301,0.290671169757843,-0.10557456314563751,0.14078086614608765,0.31768688559532166,0.9327550530433655,1.0888930559158325,1.0954350233078003,1.0387394428253174,1.09137761592865,0.9068929553031921,0.9046173095703125,1.0476833581924438,1.095071792602539,0.9095540642738342,0.04571268707513809,0.040253475308418274,0.09859847277402878,-0.017912769690155983,-0.09276313334703445,-0.09481336176395416,0.09891079366207123,0.09448221325874329,0.08643607795238495,-0.09182333201169968,-0.15260323882102966,0.441482275724411,-0.08311638236045837,-0.5005357265472412,-0.419158011674881,-0.032458510249853134,-0.2208920121192932,-0.13631244003772736,-0.5760917663574219,0.14080311357975006,-0.2527325749397278,0.7434432506561279,-0.6403762102127075,0.5262455344200134,0.2795780301094055,-0.28003638982772827,-0.44268956780433655,0.7241818904876709,-0.03827035427093506,-0.1038539856672287,0.4322322607040405,0.2679317593574524,-0.7242268323898315,-0.5641667246818542,0.4434356689453125,0.32663604617118835,-0.8369845747947693,-0.6569426655769348,0.4827151894569397,0.5898293256759644,-0.04822339490056038,-0.8581722974777222,-0.39917194843292236,0.47055235505104065,0.8340960144996643,-0.09275537729263306,0.6675808429718018,-0.005133466329425573,-0.006647838745266199,0.18916423618793488,0.5205949544906616,0.5206182599067688,-0.32368043065071106,0.8084340691566467,-0.4777941405773163,-0.8215182423591614,0.6418243050575256,0.43448370695114136,0.6079916954040527,-0.16167888045310974,0.027327056974172592,0.2781493663787842,-0.2350769340991974,0.0437641516327858,0.15433673560619354,0.9005637168884277,1.0995566844940186,0.9020388722419739,0.9003307223320007,0.9008120894432068,-0.09913531690835953,0.10058475285768509,-0.09806426614522934,-0.10005497187376022,-0.09723081439733505,-0.6447281241416931,0.6114031076431274,-0.19085752964019775,-0.890535831451416,-0.25535568594932556,-0.33191826939582825
-0.5056341290473938,-0.6832225322723389,-1.106898307800293,0.7112179398536682,0.750373125076294,-0.9263332486152649,-0.33326441049575806,1.0693535804748535,-0.49857157468795776,0.8547110557556152,-0.5895272493362427,-0.7942439913749695,0.09532255679368973,1.1949398517608643,-0.5307757258415222,-0.7101981043815613,0.3971327543258667,-1.0743379592895508,0.8415583968162537,-0.22943460941314697,0.020006496459245682,0.03438027575612068,-0.4711558520793915,0.15464657545089722,-0.9477384090423584,-0.9365644454956055,-0.375813364982605,0.7822471857070923,-0.2718682587146759,1.000649094581604,-0.13143666088581085,1.0849463939666748,0.023392148315906525,0.012145007029175758,-0.7044894099235535,-0.6333217620849609,0.9406552314758301,0.2746637165546417,1.0608834028244019,-0.8582929968833923,-0.739933431148529,0.43968436121940613,-0.654085099697113,-0.2803686261177063,-0.2784782946109772,-0.03326528146862984,0.6502394080162048,0.8488738536834717,0.3662065863609314,-0.6361640691757202,0.060223352164030075,0.15138517320156097,-0.04179644212126732,0.37611550092697144,0.36982059478759766,0.11007226258516312,0.2911471426486969,-0.10440078377723694,0.1409212350845337,0.3178398311138153,0.9282344579696655,1.0922033786773682,1.1003564596176147,1.0422924757003784,1.094717264175415,0.9030973315238953,0.9005373120307922,1.0458980798721313,1.0992306470870972,0.905975878238678,0.04823525995016098,0.03955746814608574,0.10371381789445877,-0.021111764013767242,-0.09726838767528534,-0.09919595718383789,0.10374555736780167,0.0987965390086174,0.08765112608671188,-0.09556932747364044,-0.15661033987998962,0.43707114458084106,-0.0877537876367569,-0.5044641494750977,-0.41715967655181885,-0.0367048978805542,-0.21822628378868103,-0.13288934528827667,-0.5804893374443054,0.14262205362319946,-0.24925728142261505,0.7468989491462708,-0.641950786113739,0.5296099185943604,0.2751036584377289,-0.2765583395957947,-0.44152534008026123,0.7215911149978638,-0.0364861935377121,-0.1012759581208229,0.4271598160266876,0.2632236182689667,-0.7290924191474915,-0.5682786703109741,0.4480628967285156,0.32209572196006775,-0.8377202153205872,-0.6602718830108643,0.4864870011806488,0.5865141153335571,-0.053015440702438354,-0.8623862862586975,-0.4042666554450989,0.46553295850753784,0.8381438851356506,-0.09692768007516861,0.6628910899162292,-0.009722099639475346,-0.00957335066050291,0.18475209176540375,0.5156800150871277,0.5202330946922302,-0.3272465169429779,0.8095681071281433,-0.48000606894493103,-0.8234917521476746,0.6392806768417358,0.4380928575992584,0.6114920973777771,-0.16206489503383636,0.02737223543226719,0.2802274823188782,-0.2352524846792221,0.04368779435753822,0.15536539256572723,0.8957769274711609,1.104544758796692,0.897521436214447,0.8955257534980774,0.896070659160614,-0.10396537184715271,0.10562314838171005,-0.10268964618444443,-0.10502832382917404,-0.10181926190853119,-0.6400201916694641,0.6164275407791138,-0.18625298142433167,-0.8858166933059692,-0.25055843591690063,-0.3269222378730774
-0.5048536062240601,-0.6880106925964355,-1.1099728345870972,0.7076860666275024,0.746580958366394,-0.9245555996894836,-0.33388495445251465,1.068706750869751,-0.5011723637580872,0.8543835282325745,-0.585117518901825,-0.7905229330062866,0.10021661967039108,1.1993179321289062,-0.5267747044563293,-0.7142590284347534,0.3923459053039551,-1.0791038274765015,0.8367109298706055,-0.23375104367733002,0.019325099885463715,0.03739692643284798,-0.47576814889907837,0.15027929842472076,-0.9425652623176575,-0.9412364363670349,-0.38003799319267273,0.7776610851287842,-0.2765103280544281,0.9955824017524719,-0.1288536936044693,1.08878493309021,0.0270717591047287,0.01602054201066494,-0.7002938985824585,-0.6305297613143921,0.9393002390861511,0.27924656867980957,1.0657976865768433,-0.8535267114639282,-0.74095618724823,0.44450992345809937,-0.6495884656906128,-0.2756210267543793,-0.2799449861049652,-0.0351509153842926,0.6536431312561035,0.8444417715072632,0.36100754141807556,-0.6411601305007935,0.06040501594543457,0.15128538012504578,-0.04207933694124222,0.3764561116695404,0.36980387568473816,0.11057616025209427,0.29121214151382446,-0.10389772802591324,0.14087240397930145,0.317850261926651,0.9235146641731262,1.0951377153396606,1.1053645610809326,1.0458579063415527,1.097385287284851,0.899549663066864,0.8965528607368469,1.044173240661621,1.103184461593628,0.9024270176887512,0.05064668878912926,0.03899180889129639,0.10890371352434158,-0.02474798448383808,-0.10197760164737701,-0.10347660630941391,0.10852024704217911,0.10318785160779953,0.08795809745788574,-0.09919438511133194,-0.16034643352031708,0.4328584372997284,-0.09232877939939499,-0.508190393447876,-0.4146120846271515,-0.040750350803136826,-0.21595129370689392,-0.13011670112609863,-0.5846191048622131,0.14355313777923584,-0.24555103480815887,0.749995768070221,-0.6438560485839844,0.5331814289093018,0.2704741656780243,-0.2733730971813202,-0.4408087134361267,0.7191498279571533,-0.034982677549123764,-0.09857260435819626,0.42200571298599243,0.25863054394721985,-0.734073281288147,-0.5725108981132507,0.4525834023952484,0.3176807165145874,-0.8377528786659241,-0.6632634401321411,0.48995646834373474,0.5835119485855103,-0.05775278061628342,-0.8664406538009644,-0.4093659520149231,0.46057263016700745,0.8421744704246521,-0.100948266685009,0.6582081317901611,-0.014304304495453835,-0.012746782973408699,0.18025048077106476,0.5106435418128967,0.5202252864837646,-0.3311743140220642,0.8099518418312073,-0.48139074444770813,-0.825409471988678,0.6372511982917786,0.441927045583725,0.6149572730064392,-0.16222281754016876,0.0274598840624094,0.2823840379714966,-0.23549695312976837,0.04349055513739586,0.15600809454917908,0.8910335898399353,1.109519600868225,0.8931131362915039,0.8907772302627563,0.8913955688476562,-0.10876857489347458,0.11065129935741425,-0.107215516269207,-0.1099831610918045,-0.1063530445098877,-0.635368824005127,0.6214412450790405,-0.18173617124557495,-0.8811721205711365,-0.24581289291381836,-0.32193654775619507
-0.5051450133323669,-0.6928257346153259,-1.112930178642273,0.7041161060333252,0.7428269386291504,-0.921927273273468,-0.3332970142364502,1.0688296556472778,-0.50266033411026,0.8552370667457581,-0.5817278027534485,-0.7883768081665039,0.10481227934360504,1.2024738788604736,-0.5235894322395325,-0.7181233167648315,0.3881179094314575,-1.0833295583724976,0.8322775363922119,-0.2376299500465393,0.019084788858890533,0.04082923009991646,-0.48023664951324463,0.14746905863285065,-0.9373713731765747,-0.9459185600280762,-0.38442134857177734,0.7730507254600525,-0.2813359797000885,0.990416944026947,-0.12745824456214905,1.0920571088790894,0.030362192541360855,0.019207321107387543,-0.6966302990913391,-0.6271770000457764,0.9386730790138245,0.28400149941444397,1.0708292722702026,-0.8485912680625916,-0.7409048080444336,0.44947677850723267,-0.6450098752975464,-0.27084121108055115,-0.2821580171585083,-0.03763217106461525,0.6568626165390015,0.8400576114654541,0.3557444214820862,-0.6462056636810303,0.06053442507982254,0.1508309692144394,-0.04232579469680786,0.37670695781707764,0.36989787220954895,0.1110781580209732,0.29132887721061707,-0.10329506546258926,0.1409124732017517,0.3178573250770569,0.9186422824859619,1.0976537466049194,1.110365867614746,1.0496764183044434,1.0998718738555908,0.8962451815605164,0.8925987482070923,1.0427478551864624,1.1069689989089966,0.8988444209098816,0.052972692996263504,0.03835766389966011,0.11411814391613007,-0.02823035605251789,-0.10664349049329758,-0.1076563373208046,0.11310472339391708,0.10767862200737,0.08749411255121231,-0.10277718305587769,-0.16386212408542633,0.4288252592086792,-0.09686829149723053,-0.5117368698120117,-0.41158339381217957,-0.04461456462740898,-0.21398241817951202,-0.12792974710464478,-0.5884987115859985,0.14375679194927216,-0.24171362817287445,0.7527294754981995,-0.6459407210350037,0.5368755459785461,0.26570427417755127,-0.27047744393348694,-0.44042786955833435,0.7171310186386108,-0.03402404114603996,-0.095681332051754,0.41678711771965027,0.25413623452186584,-0.7391504645347595,-0.5768074989318848,0.4570156931877136,0.31337636709213257,-0.8371257185935974,-0.6659441590309143,0.4931671619415283,0.5808042287826538,-0.06226126104593277,-0.870330274105072,-0.41416120529174805,0.455838680267334,0.8463711738586426,-0.10481804609298706,0.6534940004348755,-0.018896441906690598,-0.015775524079799652,0.17558199167251587,0.5055011510848999,0.5204989314079285,-0.33541056513786316,0.8096600770950317,-0.48186665773391724,-0.8273637294769287,0.6356841325759888,0.4459187686443329,0.6184425354003906,-0.1622142642736435,0.027360964566469193,0.28402677178382874,-0.2357209026813507,0.04248025640845299,0.15662240982055664,0.8863325119018555,1.1144770383834839,0.8888128995895386,0.8860844969749451,0.8867875337600708,-0.11354568600654602,0.11566608399152756,-0.11164797842502594,-0.11491866409778595,-0.11083316802978516,-0.6307727694511414,0.6264399886131287,-0.17730794847011566,-0.8766014575958252,-0.24112027883529663,-0.3169625997543335
-0.5060510039329529,-0.6976686716079712,-1.1157422065734863,0.7005640864372253,0.7391456365585327,-0.9187037348747253,-0.3318403959274292,1.0696170330047607,-0.5030838847160339,0.8569998741149902,-0.5795124173164368,-0.7878560423851013,0.10896950215101242,1.20426607131958,-0.5213974118232727,-0.7214284539222717,0.38461464643478394,-1.0871003866195679,0.8283028602600098,-0.24111224710941315,0.01933361403644085,0.04458096995949745,-0.4845181107521057,0.14610883593559265,-0.9321923851966858,-0.9505869150161743,-0.3888997435569763,0.7684285640716553,-0.2863180339336395,0.9851747155189514,-0.12712806463241577,1.0947800874710083,0.03318478539586067,0.021596401929855347,-0.6935008764266968,-0.6234374642372131,0.9384883642196655,0.2888704538345337,1.0759600400924683,-0.8435170650482178,-0.7402303814888,0.45453181862831116,-0.6404355764389038,-0.26598456501960754,-0.2848668396472931,-0.04056856036186218,0.6599177122116089,0.8357149958610535,0.3504331111907959,-0.6512807607650757,0.06080466881394386,0.15061387419700623,-0.04251633584499359,0.3770122826099396,0.3700312077999115,0.11151722818613052,0.2915496230125427,-0.10253414511680603,0.1409061849117279,0.3178490400314331,0.9137282967567444,1.0997811555862427,1.1152558326721191,1.053753137588501,1.1021499633789062,0.8931506872177124,0.8886528015136719,1.0418274402618408,1.1105422973632812,0.8952234983444214,0.05531543120741844,0.037680383771657944,0.11932478845119476,-0.03202647715806961,-0.11130242794752121,-0.1117490604519844,0.11753625422716141,0.11229216307401657,0.08636114001274109,-0.1063532754778862,-0.16720269620418549,0.42495211958885193,-0.1013948991894722,-0.5151211023330688,-0.4081454873085022,-0.04831624776124954,-0.21224138140678406,-0.12625326216220856,-0.5921438336372375,0.14337880909442902,-0.23779894411563873,0.7551063895225525,-0.6479824781417847,0.5406543612480164,0.2608143091201782,-0.267864465713501,-0.4402690827846527,0.7157726883888245,-0.03376119211316109,-0.09257795661687851,0.4115889370441437,0.24977903068065643,-0.7442423701286316,-0.5811964869499207,0.46131494641304016,0.30922338366508484,-0.8360680341720581,-0.6683738827705383,0.49600479006767273,0.5783547163009644,-0.0665590688586235,-0.8740578293800354,-0.41868576407432556,0.4513157606124878,0.8507081866264343,-0.10854592174291611,0.6487517356872559,-0.023499101400375366,-0.018645532429218292,0.17077742516994476,0.500332772731781,0.5214853882789612,-0.3396013677120209,0.8091062903404236,-0.48186445236206055,-0.8288283348083496,0.6344469785690308,0.4499908685684204,0.6218535900115967,-0.16220593452453613,0.027237847447395325,0.28462979197502136,-0.2357771396636963,0.04176759347319603,0.1575469970703125,0.8816739916801453,1.119412899017334,0.8846207857131958,0.8814464807510376,0.882248044013977,-0.11829599738121033,0.12066314369440079,-0.1159856766462326,-0.11983291804790497,-0.11524992436170578,-0.6262323260307312,0.6314196586608887,-0.17296919226646423,-0.8721035122871399,-0.23648133873939514,-0.3120019733905792
-0.5073500871658325,-0.7025322914123535,-1.1183791160583496,0.6970749497413635,0.7355744242668152,-0.9150354862213135,-0.3297175467014313,1.070974349975586,-0.5025998950004578,0.8594522476196289,-0.5785416960716248,-0.788727879524231,0.11249132454395294,1.2047333717346191,-0.5202414989471436,-0.7242313623428345,0.38177064061164856,-1.090445876121521,0.8247579336166382,-0.2442246526479721,0.02003330923616886,0.048598311841487885,-0.4886164963245392,0.14590466022491455,-0.9270356893539429,-0.9552172422409058,-0.39346054196357727,0.7638190984725952,-0.291428804397583,0.9798767566680908,-0.12765493988990784,1.0970287322998047,0.035599783062934875,0.023239292204380035,-0.6908303499221802,-0.6194186806678772,0.9386302828788757,0.293767511844635,1.0811550617218018,-0.8383563160896301,-0.7390207648277283,0.459661602973938,-0.635837197303772,-0.26105958223342896,-0.2879636287689209,-0.043863020837306976,0.6627598404884338,0.8314932584762573,0.3451221287250519,-0.6563191413879395,0.0610414482653141,0.1502498984336853,-0.043078627437353134,0.3774469792842865,0.37019792199134827,0.1119508445262909,0.29182130098342896,-0.10182203352451324,0.14074522256851196,0.3178459405899048,0.9087764024734497,1.101508617401123,1.119996428489685,1.058066487312317,1.1042131185531616,0.8902868032455444,0.8847137093544006,1.0414799451828003,1.1139049530029297,0.8915832042694092,0.057692501693964005,0.036837950348854065,0.12449686229228973,-0.036027297377586365,-0.11596894264221191,-0.1157311275601387,0.12184690684080124,0.11700189113616943,0.08462686091661453,-0.10988090932369232,-0.17041590809822083,0.42121341824531555,-0.105928435921669,-0.5183624029159546,-0.40434709191322327,-0.05187791585922241,-0.21063677966594696,-0.12500502169132233,-0.5955786108970642,0.14255237579345703,-0.23381760716438293,0.7571264505386353,-0.6498076319694519,0.5445276498794556,0.25583615899086,-0.26553407311439514,-0.44027581810951233,0.7151235342025757,-0.03409035876393318,-0.08930088579654694,0.4063999056816101,0.2455969899892807,-0.749286413192749,-0.5857095718383789,0.4654548764228821,0.30525025725364685,-0.8347151875495911,-0.670585036277771,0.4984307587146759,0.5761395692825317,-0.07066396623849869,-0.8776286244392395,-0.4229680895805359,0.4469853639602661,0.8551596999168396,-0.11214351654052734,0.6439862251281738,-0.02810855768620968,-0.021366236731410027,0.16586457192897797,0.49512505531311035,0.5230417847633362,-0.3438366949558258,0.8082193732261658,-0.4814205467700958,-0.8299338221549988,0.633528470993042,0.4541529417037964,0.6252004504203796,-0.16211895644664764,0.02731197513639927,0.2852895259857178,-0.23588471114635468,0.04152242839336395,0.15861256420612335,0.8770596385002136,1.1243230104446411,0.8805379271507263,0.8768618702888489,0.8777768611907959,-0.12301667779684067,0.1256391704082489,-0.12021584808826447,-0.12472376227378845,-0.1196051612496376,-0.6217490434646606,0.6363760828971863,-0.1687196046113968,-0.8676769733428955,-0.23189616203308105,-0.30705660581588745
-0.5089465379714966,-0.7074063420295715,-1.120847225189209,0.6936506032943726,0.7321166396141052,-0.9114081859588623,-0.3275892436504364,1.0720914602279663,-0.5016323924064636,0.8622844219207764,-0.5785674452781677,-0.7905793786048889,0.11545083671808243,1.2041939496994019,-0.5198727250099182,-0.7265903949737549,0.3795243501663208,-1.0934008359909058,0.8216047286987305,-0.24699872732162476,0.021142223849892616,0.05280369147658348,-0.4925350248813629,0.14660640060901642,-0.9219122529029846,-0.95979905128479,-0.39808037877082825,0.7592379450798035,-0.2966424822807312,0.9745356440544128,-0.12877696752548218,1.098946213722229,0.03776092454791069,0.02425972744822502,-0.6884557604789734,-0.6151182055473328,0.939226508140564,0.29880398511886597,1.086429238319397,-0.8330792784690857,-0.7373558282852173,0.46484997868537903,-0.6311964988708496,-0.25607916712760925,-0.2913665771484375,-0.04750509187579155,0.6653751134872437,0.8273709416389465,0.3398267924785614,-0.6613330245018005,0.06124954670667648,0.14960867166519165,-0.04339374601840973,0.37761786580085754,0.37039315700531006,0.11230865865945816,0.2920604944229126,-0.10138462483882904,0.1406278908252716,0.3178234100341797,0.9037960767745972,1.1028283834457397,1.1245629787445068,1.0625826120376587,1.10621178150177,0.8876591920852661,0.8807727098464966,1.0415593385696411,1.117086410522461,0.8879613280296326,0.060066547244787216,0.035487737506628036,0.12959930300712585,-0.040170662105083466,-0.12051018327474594,-0.11959276348352432,0.1260979026556015,0.12185520678758621,0.08240754157304764,-0.11337395757436752,-0.17354191839694977,0.417585551738739,-0.11048544943332672,-0.521472692489624,-0.4002515971660614,-0.055320244282484055,-0.2090793251991272,-0.12407808005809784,-0.5988190770149231,0.14140751957893372,-0.22973816096782684,0.758794367313385,-0.6512227654457092,0.5485384464263916,0.2508124113082886,-0.2634820342063904,-0.4404316842556,0.7151064276695251,-0.03478335961699486,-0.08592506498098373,0.4012533724308014,0.24159295856952667,-0.7542553544044495,-0.5902581214904785,0.4694874882698059,0.3014552593231201,-0.83305424451828,-0.6725197434425354,0.5005521178245544,0.5741819143295288,-0.07459396868944168,-0.8810504078865051,-0.4270327687263489,0.4428257644176483,0.8597001433372498,-0.1156248226761818,0.6392038464546204,-0.03271712362766266,-0.023970548063516617,0.16086994111537933,0.4898684620857239,0.5250685811042786,-0.3481764793395996,0.8069283962249756,-0.4806148409843445,-0.8307905793190002,0.6329279541969299,0.4584333300590515,0.6284605860710144,-0.16183820366859436,0.027117513120174408,0.2858200967311859,-0.23602618277072906,0.04158911108970642,0.15961630642414093,0.8724920749664307,1.129202961921692,0.8765597343444824,0.8723291754722595,0.8733738660812378,-0.1277046650648117,0.1305902600288391,-0.12435705214738846,-0.12958890199661255,-0.12389996647834778,-0.6173256635665894,0.6413049697875977,-0.1645577996969223,-0.8633202910423279,-0.2273646742105484,-0.3021286725997925
-0.5106738209724426,-0.7122743725776672,-1.1231406927108765,0.6903207302093506,0.728789210319519,-0.9080044031143188,-0.3258345127105713,1.0727734565734863,-0.5003913044929504,0.8653029203414917,-0.579399049282074,-0.7930681109428406,0.11788833886384964,1.202951431274414,-0.5199894309043884,-0.7287078499794006,0.3776937425136566,-1.0960172414779663,0.8187559247016907,-0.24947142601013184,0.02269381657242775,0.057174090296030045,-0.4961991310119629,0.1480088233947754,-0.9169050455093384,-0.9642786383628845,-0.4026120603084564,0.7547390460968018,-0.301896333694458,0.9692246317863464,-0.13037653267383575,1.1005473136901855,0.039772193878889084,0.024697013199329376,-0.6863768696784973,-0.6106200218200684,0.9400846362113953,0.30390092730522156,1.0917304754257202,-0.8277602195739746,-0.7353091835975647,0.4700872600078583,-0.6265112161636353,-0.2510414719581604,-0.2950010895729065,-0.05141138285398483,0.6678080558776855,0.8234204649925232,0.3346482217311859,-0.6661727428436279,0.06148235872387886,0.14880895614624023,-0.04371577128767967,0.3779275715351105,0.3705882430076599,0.11252963542938232,0.2922140061855316,-0.10118366777896881,0.14057298004627228,0.31768500804901123,0.8987557291984558,1.1037442684173584,1.1289738416671753,1.0672125816345215,1.1082966327667236,0.8853025436401367,0.8769304752349854,1.0419893264770508,1.1199860572814941,0.8843476176261902,0.06221522018313408,0.033736761659383774,0.1345832794904709,-0.044367555528879166,-0.124692901968956,-0.12322948127985,0.13037672638893127,0.12680646777153015,0.07965249568223953,-0.11682164669036865,-0.1765604466199875,0.41409048438072205,-0.11504670232534409,-0.5244038701057434,-0.3960023820400238,-0.05863181874155998,-0.2084663361310959,-0.12357625365257263,-0.6017818450927734,0.13978533446788788,-0.22555172443389893,0.7601154446601868,-0.6521170139312744,0.5527116060256958,0.2458006888628006,-0.26171037554740906,-0.4407857358455658,0.7155400514602661,-0.03558671474456787,-0.08256402611732483,0.396148681640625,0.23775021731853485,-0.7591599225997925,-0.5948321223258972,0.4734014570713043,0.29782238602638245,-0.8311671614646912,-0.6741901636123657,0.5023680925369263,0.5724740624427795,-0.07836727797985077,-0.8843328356742859,-0.4309014081954956,0.4388144016265869,0.8643044829368591,-0.11900439113378525,0.6344115138053894,-0.037314027547836304,-0.026504429057240486,0.15581881999969482,0.4845253527164459,0.5272314548492432,-0.3527347445487976,0.8049448728561401,-0.47930940985679626,-0.831763744354248,0.6330440044403076,0.4629686176776886,0.631337583065033,-0.16058556735515594,0.02668808586895466,0.28581199049949646,-0.23605085909366608,0.04178289324045181,0.16036105155944824,0.8679729104042053,1.1340473890304565,0.8726863861083984,0.8678470849990845,0.8690410256385803,-0.13236677646636963,0.13551419973373413,-0.1283993422985077,-0.13442565500736237,-0.12811948359012604,-0.6129657626152039,0.6462013125419617,-0.1604824662208557,-0.8590319156646729,-0.22288702428340912,-0.2972206771373749
-0.5128902792930603,-0.7171335816383362,-1.1254539489746094,0.6868543028831482,0.7254133224487305,-0.904255747795105,-0.3245648741722107,1.0738691091537476,-0.4985942542552948,0.8686065673828125,-0.5813637971878052,-0.7962471842765808,0.11871835589408875,1.2007087469100952,-0.5213411450386047,-0.7303181886672974,0.37632620334625244,-1.0983710289001465,0.8162001967430115,-0.2518220543861389,0.024623598903417587,0.0616517998278141,-0.4996397793292999,0.14997804164886475,-0.9119926691055298,-0.9687950611114502,-0.4071504771709442,0.7501509785652161,-0.307260662317276,0.9638532400131226,-0.13232459127902985,1.1019576787948608,0.041771017014980316,0.024706851691007614,-0.6844310164451599,-0.605979859828949,0.9405317902565002,0.3091464638710022,1.0971285104751587,-0.8223257064819336,-0.7329366207122803,0.475361168384552,-0.6217656135559082,-0.2459573894739151,-0.29881900548934937,-0.055529944598674774,0.6701383590698242,0.8195059299468994,0.32947418093681335,-0.6709672808647156,0.061736561357975006,0.14798176288604736,-0.044388484209775925,0.3782009184360504,0.3708314597606659,0.11278194189071655,0.2921607792377472,-0.10107755661010742,0.14041554927825928,0.31754904985427856,0.8936753273010254,1.1047165393829346,1.132895827293396,1.0717494487762451,1.1103910207748413,0.8830739259719849,0.8732659816741943,1.0425446033477783,1.1226204633712769,0.8807846307754517,0.06372752785682678,0.032583482563495636,0.13925695419311523,-0.04889015108346939,-0.12867124378681183,-0.12672673165798187,0.1348269134759903,0.13186798989772797,0.07646680623292923,-0.1202450841665268,-0.1795114427804947,0.410701721906662,-0.11962827295064926,-0.5271714329719543,-0.39161431789398193,-0.061837099492549896,-0.20854264497756958,-0.12335523217916489,-0.6044924259185791,0.13783365488052368,-0.22128243744373322,0.761437714099884,-0.6513437628746033,0.5569198131561279,0.2407601922750473,-0.25997141003608704,-0.44166675209999084,0.7162194848060608,-0.036691442131996155,-0.07939914613962173,0.39107686281204224,0.23405170440673828,-0.7640154361724854,-0.5994229912757874,0.4772075414657593,0.29433438181877136,-0.8290597796440125,-0.6756086349487305,0.5039026141166687,0.5710112452507019,-0.08198226988315582,-0.8874750137329102,-0.43457457423210144,0.4349423944950104,0.868963897228241,-0.12228737771511078,0.6296165585517883,-0.041897550225257874,-0.02896599844098091,0.15072305500507355,0.4791010618209839,0.5295194387435913,-0.35749781131744385,0.8023258447647095,-0.47765013575553894,-0.8329123854637146,0.6338019371032715,0.4677332043647766,0.6337829232215881,-0.15848949551582336,0.026213983073830605,0.2855395972728729,-0.23594839870929718,0.04188327491283417,0.1612519919872284,0.8635061383247375,1.1388472318649292,0.8689161539077759,0.8634142875671387,0.8647792935371399,-0.13699711859226227,0.14042440056800842,-0.13234563171863556,-0.13923387229442596,-0.13226476311683655,-0.6086733937263489,0.6510593295097351,-0.15649263560771942,-0.8548107743263245,-0.2184641808271408,-0.29233548045158386
-0.5154303908348083,-0.7219602465629578,-1.1277495622634888,0.6833257079124451,0.7220271229743958,-0.9008901119232178,-0.32482293248176575,1.074193000793457,-0.4967176020145416,0.8718879818916321,-0.5840688943862915,-0.7998737096786499,0.11851275712251663,1.197823405265808,-0.5234297513961792,-0.7314855456352234,0.37536630034446716,-1.1005257368087769,0.8138651251792908,-0.2540847659111023,0.02685975283384323,0.06610876321792603,-0.5028875470161438,0.1523895114660263,-0.907164990901947,-0.9733442068099976,-0.4117323160171509,0.7454854249954224,-0.31271809339523315,0.9584199786186218,-0.1345117837190628,1.1033258438110352,0.04393230378627777,0.02449275553226471,-0.6824170351028442,-0.6012539863586426,0.9405041337013245,0.31448498368263245,1.1025903224945068,-0.8168195486068726,-0.7303096652030945,0.48065492510795593,-0.6169413924217224,-0.24082961678504944,-0.3027845323085785,-0.059820935130119324,0.6723635196685791,0.8156444430351257,0.32432305812835693,-0.6756935119628906,0.061961665749549866,0.14692839980125427,-0.04490663483738899,0.3783630132675171,0.37100866436958313,0.11295990645885468,0.29211172461509705,-0.100838303565979,0.14035840332508087,0.3173925578594208,0.8885613679885864,1.1056780815124512,1.1363654136657715,1.076265573501587,1.1126985549926758,0.8809917569160461,0.8697827458381653,1.0430824756622314,1.1250041723251343,0.8773016333580017,0.06458757817745209,0.030715325847268105,0.14361128211021423,-0.05364057794213295,-0.13218103349208832,-0.13003264367580414,0.13944478332996368,0.1369951367378235,0.0729234367609024,-0.12362415343523026,-0.18242745101451874,0.4074009656906128,-0.12423774600028992,-0.52978515625,-0.3871012330055237,-0.06495491415262222,-0.20914031565189362,-0.12328037619590759,-0.6069712042808533,0.13566648960113525,-0.21689748764038086,0.762715756893158,-0.6494778394699097,0.5612431168556213,0.23577174544334412,-0.2582928538322449,-0.4430416226387024,0.7169537544250488,-0.037705156952142715,-0.07656078785657883,0.3860650956630707,0.23047079145908356,-0.7687702178955078,-0.6039332747459412,0.4809524118900299,0.2909672260284424,-0.8267899751663208,-0.6768208146095276,0.5052452683448792,0.5697606801986694,-0.08545207977294922,-0.89048832654953,-0.43806377053260803,0.43118879199028015,0.8736587762832642,-0.12548986077308655,0.6248244643211365,-0.046456824988126755,-0.03140519931912422,0.14560379087924957,0.4736000597476959,0.5319377779960632,-0.3624483048915863,0.7991345524787903,-0.47579264640808105,-0.8342851400375366,0.6351368427276611,0.4727068543434143,0.6357177495956421,-0.15567050874233246,0.025445496663451195,0.28549814224243164,-0.23575513064861298,0.04210614040493965,0.16213728487491608,0.8590967655181885,1.143596887588501,0.8652486205101013,0.8590291142463684,0.8605892658233643,-0.14158932864665985,0.14531420171260834,-0.13619060814380646,-0.1440109759569168,-0.13633643090724945,-0.6044535040855408,0.6558734178543091,-0.15258707106113434,-0.8506551384925842,-0.2140968292951584,-0.28747615218162537
-0.5180890560150146,-0.726759135723114,-1.1300086975097656,0.6797767877578735,0.7186547517776489,-0.898181676864624,-0.32634344696998596,1.0735403299331665,-0.49491435289382935,0.8750450015068054,-0.5872940421104431,-0.8038004040718079,0.11757291853427887,1.1944948434829712,-0.5260010957717896,-0.7322917580604553,0.3748343586921692,-1.1024643182754517,0.8117345571517944,-0.25625115633010864,0.029314128682017326,0.07052101939916611,-0.5059569478034973,0.15517224371433258,-0.9024150967597961,-0.9778817892074585,-0.4163070023059845,0.7407803535461426,-0.3182293176651001,0.9529728889465332,-0.13675963878631592,1.1048427820205688,0.04646442458033562,0.024357754737138748,-0.6800974607467651,-0.5964892506599426,0.9399800300598145,0.31985199451446533,1.1080763339996338,-0.8112977147102356,-0.7274574637413025,0.4859551787376404,-0.612044095993042,-0.23567211627960205,-0.30687254667282104,-0.06422418355941772,0.6744922399520874,0.8118634223937988,0.3192503750324249,-0.6802930235862732,0.06227698549628258,0.1461213082075119,-0.045446500182151794,0.3785833418369293,0.3711759150028229,0.11308679729700089,0.2921764552593231,-0.10069586336612701,0.1402602642774582,0.3172403872013092,0.8834172487258911,1.106666088104248,1.1394625902175903,1.0808334350585938,1.1150354146957397,0.8790364265441895,0.8664507865905762,1.043529748916626,1.1271305084228516,0.8739455938339233,0.06485611945390701,0.028346458449959755,0.14763635396957397,-0.05857719108462334,-0.13549447059631348,-0.13313409686088562,0.14422698318958282,0.1421593278646469,0.06908050179481506,-0.12691624462604523,-0.18533392250537872,0.4041753113269806,-0.12887786328792572,-0.5322512984275818,-0.38247615098953247,-0.06799977272748947,-0.21013781428337097,-0.12323033809661865,-0.6092352867126465,0.1333743780851364,-0.21237461268901825,0.7639265656471252,-0.6467931866645813,0.5657510757446289,0.23086802661418915,-0.2566854953765869,-0.44481563568115234,0.7176494002342224,-0.038298580795526505,-0.0741170272231102,0.38110238313674927,0.22699673473834991,-0.7734412550926208,-0.6083741784095764,0.4846389889717102,0.28770899772644043,-0.8243628740310669,-0.6778318881988525,0.5064049363136292,0.5687208771705627,-0.08887354284524918,-0.8934420943260193,-0.44146251678466797,0.4274771809577942,0.8782932758331299,-0.12867049872875214,0.6200392842292786,-0.05092136189341545,-0.0340883806347847,0.14052307605743408,0.4680294692516327,0.5347930788993835,-0.3675515651702881,0.7954502701759338,-0.4738438129425049,-0.8355495929718018,0.6369879841804504,0.4778761565685272,0.6370912790298462,-0.1522352695465088,0.02465667575597763,0.2850842773914337,-0.23564419150352478,0.042456239461898804,0.1631179302930832,0.854749858379364,1.1482900381088257,0.8616824150085449,0.8546936511993408,0.8564727902412415,-0.14613725244998932,0.15017254650592804,-0.13993680477142334,-0.1487376093864441,-0.14033600687980652,-0.6003113389015198,0.6606367230415344,-0.14876507222652435,-0.8465637564659119,-0.20978708565235138,-0.28264614939689636
-0.5193889141082764,-0.7291184067726135,-1.1311004161834717,0.6780372262001038,0.7170001864433289,-0.897236168384552,-0.32759198546409607,1.0727328062057495,-0.4941137731075287,0.8765208125114441,-0.589094877243042,-0.805844783782959,0.11685943603515625,1.1926859617233276,-0.5274239778518677,-0.7325314283370972,0.3747427463531494,-1.103363275527954,0.8107377290725708,-0.2573044002056122,0.030639737844467163,0.07269283384084702,-0.5074157118797302,0.15671782195568085,-0.9000683426856995,-0.9800834655761719,-0.4184563457965851,0.7384835481643677,-0.3209720849990845,0.950301468372345,-0.13790860772132874,1.1056883335113525,0.04791779816150665,0.024355551227927208,-0.6787754893302917,-0.5941005945205688,0.939484179019928,0.32251471281051636,1.1108157634735107,-0.8085538744926453,-0.7259755730628967,0.48860257863998413,-0.6095768213272095,-0.23306377232074738,-0.3089262545108795,-0.0664648488163948,0.6755111217498779,0.810035228729248,0.3167734146118164,-0.6824958920478821,0.062381863594055176,0.1456388533115387,-0.04560813680291176,0.3786807656288147,0.37123456597328186,0.11310698091983795,0.29217728972435,-0.10052681714296341,0.14023928344249725,0.31718283891677856,0.880841076374054,1.1071232557296753,1.1408783197402954,1.0831974744796753,1.1162667274475098,0.8781433701515198,0.8648470044136047,1.043630599975586,1.1280537843704224,0.8723543882369995,0.06472854316234589,0.026871196925640106,0.1494951844215393,-0.06108191981911659,-0.13697391748428345,-0.13454219698905945,0.14667528867721558,0.1447429656982422,0.06703431904315948,-0.12849560379981995,-0.18679369986057281,0.4025949537754059,-0.13121375441551208,-0.5334146022796631,-0.38010290265083313,-0.06949210911989212,-0.21080411970615387,-0.12317797541618347,-0.6102685928344727,0.13219283521175385,-0.21004903316497803,0.764472484588623,-0.6451684236526489,0.5681003332138062,0.22848981618881226,-0.2559320330619812,-0.4458775818347931,0.7179156541824341,-0.03824446722865105,-0.07312314957380295,0.37862852215766907,0.22530809044837952,-0.7757582068443298,-0.6105865240097046,0.4864429831504822,0.28612324595451355,-0.8230867981910706,-0.6782240867614746,0.5068774223327637,0.5683252215385437,-0.0905572921037674,-0.8948913216590881,-0.44311389327049255,0.4256407916545868,0.880580723285675,-0.13025245070457458,0.6176506876945496,-0.05310571938753128,-0.03554318845272064,0.138004332780838,0.46522819995880127,0.5363077521324158,-0.37015315890312195,0.7934374809265137,-0.4729267656803131,-0.8362648487091064,0.6380862593650818,0.48053041100502014,0.6374863982200623,-0.15030890703201294,0.024339834228157997,0.28486767411231995,-0.23561635613441467,0.04261360689997673,0.16350610554218292,0.8526102304458618,1.150604248046875,0.8599507212638855,0.8525509238243103,0.8544542789459229,-0.14838574826717377,0.15258215367794037,-0.14175616204738617,-0.15107473731040955,-0.1422891914844513,-0.5982815027236938,0.6629890203475952,-0.1468961387872696,-0.844550371170044,-0.20766280591487885,-0.28024762868881226
-0.5206422209739685,-0.7314313650131226,-1.1321483850479126,0.6763456463813782,0.7153849005699158,-0.8966776132583618,-0.3292005956172943,1.071531891822815,-0.49342912435531616,0.8778913617134094,-0.5910428762435913,-0.8079349994659424,0.1159595400094986,1.1907728910446167,-0.5289329886436462,-0.7326249480247498,0.3748006522655487,-1.1042125225067139,0.809787929058075,-0.258341521024704,0.032048288732767105,0.07481340318918228,-0.5088087320327759,0.1583901345729828,-0.8977453112602234,-0.9822218418121338,-0.42047709226608276,0.7362397313117981,-0.32369837164878845,0.9476792812347412,-0.139076828956604,1.1066254377365112,0.04954368621110916,0.024430932477116585,-0.6772957444190979,-0.5917026400566101,0.9387944936752319,0.32515066862106323,1.113545536994934,-0.8058348298072815,-0.7244436740875244,0.49124687910079956,-0.6070879101753235,-0.2304307073354721,-0.31098541617393494,-0.06874188035726547,0.6764857769012451,0.8082672953605652,0.3143533170223236,-0.6846059560775757,0.06245209649205208,0.14541353285312653,-0.04567498341202736,0.37868979573249817,0.37134844064712524,0.11307555437088013,0.29211410880088806,-0.10034026205539703,0.14028248190879822,0.3171306252479553,0.8782627582550049,1.1075266599655151,1.142195224761963,1.0856297016143799,1.1175824403762817,0.8773348927497864,0.8632974028587341,1.0436015129089355,1.1288411617279053,0.8708464503288269,0.06436305493116379,0.02513900026679039,0.15121661126613617,-0.0636129379272461,-0.1382463276386261,-0.13581354916095734,0.1491728127002716,0.14732229709625244,0.06488070636987686,-0.1300109475851059,-0.18826325237751007,0.401044636964798,-0.13356342911720276,-0.5345116853713989,-0.3776768147945404,-0.07095777988433838,-0.21161404252052307,-0.12307918071746826,-0.6112101674079895,0.13098856806755066,-0.2076716274023056,0.7649486660957336,-0.6433370113372803,0.5705317258834839,0.22619205713272095,-0.2552344501018524,-0.4470910429954529,0.7180849313735962,-0.037834521383047104,-0.07235091924667358,0.3761616349220276,0.22366265952587128,-0.778059184551239,-0.6127898693084717,0.4882121980190277,0.28457605838775635,-0.8217509984970093,-0.6785096526145935,0.5072522759437561,0.5680454969406128,-0.09221319854259491,-0.8963152766227722,-0.4447175860404968,0.4238232970237732,0.8828420042991638,-0.13182762265205383,0.6152651309967041,-0.055245980620384216,-0.03709537535905838,0.13550536334514618,0.46241140365600586,0.5379106998443604,-0.3728013038635254,0.7912735342979431,-0.4720972776412964,-0.837062418460846,0.6393396258354187,0.48324695229530334,0.6375921964645386,-0.14820657670497894,0.02394229546189308,0.284714937210083,-0.23561546206474304,0.042712897062301636,0.16378764808177948,0.8505029678344727,1.1528862714767456,0.8582673668861389,0.8504316806793213,0.8524739146232605,-0.15060955286026,0.15497173368930817,-0.1435256153345108,-0.1533869057893753,-0.144198477268219,-0.596291184425354,0.665311872959137,-0.14506682753562927,-0.8425672650337219,-0.2055681347846985,-0.2778652310371399
-0.5218468904495239,-0.7336927056312561,-1.1331491470336914,0.6747105717658997,0.713813304901123,-0.8964797258377075,-0.3310873210430145,1.0700078010559082,-0.4928731918334961,0.8791540265083313,-0.5931069850921631,-0.8100396394729614,0.11491887271404266,1.1887890100479126,-0.5304847955703735,-0.7325878739356995,0.37498342990875244,-1.1050323247909546,0.808864951133728,-0.2593754529953003,0.03352724760770798,0.07686833292245865,-0.5101454257965088,0.16016782820224762,-0.8954413533210754,-0.9842915534973145,-0.4223494231700897,0.7340571880340576,-0.3263961374759674,0.9451169371604919,-0.14030145108699799,1.1076183319091797,0.051292236894369125,0.024541182443499565,-0.675705075263977,-0.5892952680587769,0.9379349946975708,0.32775282859802246,1.1162612438201904,-0.803147554397583,-0.7228665351867676,0.4938884973526001,-0.6045771241188049,-0.22777625918388367,-0.3130435049533844,-0.0710512101650238,0.6774186491966248,0.8065595626831055,0.3119872212409973,-0.6866241097450256,0.062468986958265305,0.145185187458992,-0.04577266424894333,0.37869688868522644,0.37147030234336853,0.1130148395895958,0.292146235704422,-0.10024295747280121,0.14032626152038574,0.31706681847572327,0.8756945133209229,1.107865571975708,1.1434398889541626,1.0881291627883911,1.1189771890640259,0.8766003251075745,0.8617878556251526,1.0434296131134033,1.129514217376709,0.8694244027137756,0.06381523609161377,0.02318972535431385,0.15281198918819427,-0.06615208089351654,-0.13933029770851135,-0.13695909082889557,0.15169493854045868,0.14989115297794342,0.06264399737119675,-0.13146184384822845,-0.18974453210830688,0.3995230495929718,-0.13592450320720673,-0.5355453491210938,-0.37520429491996765,-0.07239897549152374,-0.2125501036643982,-0.1229201927781105,-0.6120661497116089,0.12977005541324615,-0.20525769889354706,0.7653447985649109,-0.6413590312004089,0.5730298161506653,0.22397714853286743,-0.2545994520187378,-0.4484338164329529,0.7181538343429565,-0.03709295392036438,-0.07178570330142975,0.37370172142982483,0.22205579280853271,-0.7803460955619812,-0.6149823069572449,0.489950954914093,0.28306320309638977,-0.820358157157898,-0.6786947250366211,0.5075392127037048,0.5678741335868835,-0.09383874386548996,-0.8977156281471252,-0.4462722837924957,0.4220263659954071,0.8850817084312439,-0.13339659571647644,0.6128813028335571,-0.05734656751155853,-0.038725845515728,0.13302314281463623,0.45959383249282837,0.5396658182144165,-0.3754691183567047,0.7890127897262573,-0.4712192416191101,-0.8378289937973022,0.6406928300857544,0.48599573969841003,0.6375132203102112,-0.14602935314178467,0.02370491623878479,0.2847510576248169,-0.23557983338832855,0.04279923439025879,0.1639237254858017,0.848426878452301,1.1551357507705688,0.8566297888755798,0.8483350276947021,0.8505298495292664,-0.15280941128730774,0.1573406606912613,-0.14524832367897034,-0.15567488968372345,-0.14607250690460205,-0.5943388938903809,0.6676049828529358,-0.14327536523342133,-0.8406132459640503,-0.20350281894207,-0.27549880743026733
-0.523007869720459,-0.7358964681625366,-1.1341009140014648,0.6731380820274353,0.7122882604598999,-0.8965867757797241,-0.3331892490386963,1.0682265758514404,-0.4924425482749939,0.8803213238716125,-0.5952637791633606,-0.8121306896209717,0.1137734055519104,1.1867613792419434,-0.5320422053337097,-0.7323523759841919,0.375338613986969,-1.1058322191238403,0.8079748749732971,-0.26041969656944275,0.03512629494071007,0.07896823436021805,-0.5113741159439087,0.16205039620399475,-0.8931986689567566,-0.9863000512123108,-0.4240952730178833,0.7319290041923523,-0.3290673494338989,0.9426050782203674,-0.14158454537391663,1.1086845397949219,0.053148314356803894,0.024707946926355362,-0.6739891767501831,-0.5868734121322632,0.9369444847106934,0.3303253948688507,1.1189671754837036,-0.8004801273345947,-0.721247673034668,0.4965288043022156,-0.6020448803901672,-0.22510254383087158,-0.31509363651275635,-0.07338956743478775,0.6783066987991333,0.804892361164093,0.3096541464328766,-0.6885852217674255,0.06246144697070122,0.14494553208351135,-0.04582211747765541,0.37862691283226013,0.37158381938934326,0.11299514770507812,0.2922009229660034,-0.10025914758443832,0.1402876228094101,0.31702518463134766,0.8731515407562256,1.1081326007843018,1.144636631011963,1.090688705444336,1.1204782724380493,0.8759273290634155,0.860283374786377,1.0431116819381714,1.1300983428955078,0.8680930733680725,0.06314592063426971,0.021068166941404343,0.15429289638996124,-0.06873538345098495,-0.14015483856201172,-0.13800682127475739,0.15422950685024261,0.1524447500705719,0.06034692004323006,-0.13284412026405334,-0.19123847782611847,0.39802995324134827,-0.13829436898231506,-0.5365177989006042,-0.37269049882888794,-0.07381676882505417,-0.2136000245809555,-0.12269187718629837,-0.6128416061401367,0.12854212522506714,-0.20282518863677979,0.7656509280204773,-0.6392865777015686,0.5755773782730103,0.2218431681394577,-0.2540348172187805,-0.4498850703239441,0.7181296348571777,-0.03606026619672775,-0.07140650600194931,0.37124907970428467,0.22048324346542358,-0.7826204299926758,-0.6171610951423645,0.4916633665561676,0.2815808951854706,-0.818910539150238,-0.6787847280502319,0.5077479481697083,0.567804217338562,-0.09542995691299438,-0.8990933299064636,-0.44777530431747437,0.4202534556388855,0.8873052000999451,-0.13495907187461853,0.6104974150657654,-0.05941242724657059,-0.04041287302970886,0.13055367767810822,0.4567941427230835,0.541631281375885,-0.3781226575374603,0.7867159843444824,-0.4704514443874359,-0.8384425640106201,0.6419976353645325,0.48874178528785706,0.63736891746521,-0.1439419835805893,0.02342633157968521,0.28484106063842773,-0.2355061173439026,0.042959362268447876,0.16407592594623566,0.8463807702064514,1.1573524475097656,0.8550360798835754,0.8462605476379395,0.8486204743385315,-0.15498606860637665,0.15968821942806244,-0.14692696928977966,-0.1579390913248062,-0.14792048931121826,-0.5924232006072998,0.6698678731918335,-0.14152057468891144,-0.838687539100647,-0.20146702229976654,-0.2731482982635498
-0.5241386890411377,-0.7380401492118835,-1.1350061893463135,0.6716271638870239,0.7108076810836792,-0.8968130946159363,-0.33543023467063904,1.0663039684295654,-0.4920594096183777,0.881462574005127,-0.5974956750869751,-0.8141821622848511,0.11255183070898056,1.1847127676010132,-0.5335719585418701,-0.7319394946098328,0.37583738565444946,-1.1066287755966187,0.8071009516716003,-0.26148366928100586,0.03682412952184677,0.08109217137098312,-0.5125080347061157,0.164020836353302,-0.8910073041915894,-0.9882537722587585,-0.42574813961982727,0.7298463582992554,-0.331718385219574,0.9401328563690186,-0.14294187724590302,1.1098034381866455,0.055086709558963776,0.024906907230615616,-0.6721757650375366,-0.5844268798828125,0.9358596801757812,0.33287519216537476,1.121660590171814,-0.7978359460830688,-0.7195883393287659,0.49916961789131165,-0.5994901657104492,-0.22241123020648956,-0.31713107228279114,-0.0757574513554573,0.679154098033905,0.8032641410827637,0.3073561191558838,-0.6904871463775635,0.06248791515827179,0.14481700956821442,-0.04579116031527519,0.37856316566467285,0.37170112133026123,0.11294273287057877,0.2922757863998413,-0.10034158825874329,0.1403600126504898,0.3169763386249542,0.8706415295600891,1.1083120107650757,1.1458148956298828,1.0932897329330444,1.1220794916152954,0.8753137588500977,0.858776867389679,1.0426567792892456,1.1306055784225464,0.866845965385437,0.062404487282037735,0.01887793466448784,0.15567664802074432,-0.07135855406522751,-0.1407383382320404,-0.13896045088768005,0.15676960349082947,0.15498127043247223,0.05800072103738785,-0.13416197896003723,-0.19274532794952393,0.39656582474708557,-0.14067044854164124,-0.5374306440353394,-0.3701397478580475,-0.07521144300699234,-0.21475453674793243,-0.12238799035549164,-0.6135407090187073,0.12730742990970612,-0.2003937065601349,0.7658575177192688,-0.6371678709983826,0.5781562328338623,0.21978548169136047,-0.2535487413406372,-0.4514261782169342,0.7180257439613342,-0.034780412912368774,-0.07118933647871017,0.3688042461872101,0.21894118189811707,-0.7848831415176392,-0.6193231344223022,0.4933531582355499,0.2801259160041809,-0.8174104690551758,-0.6787845492362976,0.5078877210617065,0.5678293704986572,-0.09698192775249481,-0.9004488587379456,-0.44922274351119995,0.4185093939304352,0.8895180225372314,-0.13651421666145325,0.6081117391586304,-0.06144844740629196,-0.04213393107056618,0.1280926913022995,0.45401719212532043,0.5437836647033691,-0.3807525336742401,0.7844031453132629,-0.46972355246543884,-0.8388633131980896,0.6432501077651978,0.49146533012390137,0.6371971368789673,-0.14196395874023438,0.023068534210324287,0.28510782122612,-0.23543216288089752,0.04309312254190445,0.16419629752635956,0.8443635702133179,1.1595356464385986,0.8534847497940063,0.8442081212997437,0.8467453122138977,-0.15714021027088165,0.16201353073120117,-0.14856378734111786,-0.16017965972423553,-0.1497456431388855,-0.5905427932739258,0.6720998287200928,-0.13980166614055634,-0.8367897868156433,-0.19946134090423584,-0.27081379294395447
-0.525250256061554,-0.7402030825614929,-1.1358723640441895,0.6701473593711853,0.7093386650085449,-0.8973661065101624,-0.3378116488456726,1.0641266107559204,-0.4916691482067108,0.8827247619628906,-0.5996692776679993,-0.8160687685012817,0.1114886924624443,1.1826776266098022,-0.5352539420127869,-0.7314165234565735,0.37643012404441833,-1.107436180114746,0.8062740564346313,-0.26237499713897705,0.03861795738339424,0.08325767517089844,-0.5135593414306641,0.16607536375522614,-0.8888487219810486,-0.9900968074798584,-0.42706236243247986,0.7279933094978333,-0.3342999517917633,0.9376984238624573,-0.14437605440616608,1.1109694242477417,0.05709023028612137,0.025129791349172592,-0.6702755093574524,-0.5819511413574219,0.9347151517868042,0.3354133367538452,1.1243410110473633,-0.7952097058296204,-0.7179036736488342,0.5017783641815186,-0.5970372557640076,-0.21971511840820312,-0.3191322088241577,-0.07815597206354141,0.679962694644928,0.8016725778579712,0.30509060621261597,-0.6923322677612305,0.06248931959271431,0.1447354555130005,-0.045726001262664795,0.37854239344596863,0.3718107044696808,0.11290077865123749,0.2923775017261505,-0.10044938325881958,0.14040057361125946,0.31692105531692505,0.8680856227874756,1.1084892749786377,1.1468698978424072,1.0960105657577515,1.1237083673477173,0.8746811151504517,0.8572947382926941,1.0419167280197144,1.1310354471206665,0.8656976819038391,0.06154299154877663,0.017304211854934692,0.15687355399131775,-0.0739009827375412,-0.14123280346393585,-0.13991311192512512,0.1593504697084427,0.1574465036392212,0.05561783164739609,-0.13539820909500122,-0.19426509737968445,0.39513134956359863,-0.14305035769939423,-0.5382853150367737,-0.3675556480884552,-0.07658295333385468,-0.21600587666034698,-0.1220041811466217,-0.6141672730445862,0.1260678470134735,-0.19779755175113678,0.7660290002822876,-0.6349012851715088,0.5808529257774353,0.21772955358028412,-0.253038614988327,-0.4531412422657013,0.7176560759544373,-0.03316909074783325,-0.07120290398597717,0.3663683831691742,0.21742625534534454,-0.7871347069740295,-0.6214642524719238,0.495023638010025,0.2786955237388611,-0.8158603310585022,-0.6786988973617554,0.5079675912857056,0.5679436922073364,-0.0984894335269928,-0.9017821550369263,-0.4506104588508606,0.41679975390434265,0.8917253017425537,-0.1380607634782791,0.6057224869728088,-0.06345918029546738,-0.0438663624227047,0.1256359964609146,0.45133230090141296,0.5460971593856812,-0.3833431303501129,0.7821114659309387,-0.4690897762775421,-0.8389647006988525,0.6443870663642883,0.4941125810146332,0.6370151042938232,-0.14018131792545319,0.02278878167271614,0.2851596176624298,-0.23537606000900269,0.043151650577783585,0.1642206907272339,0.8423743844032288,1.161682367324829,0.8519744277000427,0.8421780467033386,0.8449063897132874,-0.15927250683307648,0.1643262803554535,-0.15016067028045654,-0.16239650547504425,-0.15153799951076508,-0.5886965990066528,0.6743001341819763,-0.13811814785003662,-0.8349198698997498,-0.1974867582321167,-0.26849547028541565
-0.5263336896896362,-0.742355465888977,-1.1366972923278809,0.668711245059967,0.7078943252563477,-0.8981783390045166,-0.3403053879737854,1.0617530345916748,-0.4912693500518799,0.8841052651405334,-0.601777970790863,-0.8177647590637207,0.11060555279254913,1.1806707382202148,-0.5370622277259827,-0.7307803630828857,0.3770986795425415,-1.108272910118103,0.8054714202880859,-0.2631412744522095,0.040472570806741714,0.08542101830244064,-0.5145425200462341,0.1681986153125763,-0.8867164850234985,-0.9918410778045654,-0.42805981636047363,0.726344108581543,-0.3368128538131714,0.9353042244911194,-0.14590394496917725,1.1121597290039062,0.059123191982507706,0.02534143626689911,-0.6683164238929749,-0.579412043094635,0.9335336089134216,0.33797788619995117,1.1270252466201782,-0.7925845980644226,-0.7162644863128662,0.5043517351150513,-0.5946999192237854,-0.21700097620487213,-0.32101306319236755,-0.08059407025575638,0.6807268261909485,0.8001312017440796,0.30286625027656555,-0.694106936454773,0.06251237541437149,0.14484630525112152,-0.0455578938126564,0.37841254472732544,0.3718966841697693,0.11287342011928558,0.2923279404640198,-0.10061340034008026,0.14048372209072113,0.3168126940727234,0.8655220866203308,1.1086435317993164,1.1478196382522583,1.0988311767578125,1.125340461730957,0.8740449547767639,0.8558398485183716,1.0409650802612305,1.13140869140625,0.8646238446235657,0.0606260746717453,0.01625145599246025,0.15790031850337982,-0.07640029489994049,-0.14168401062488556,-0.14084646105766296,0.16197045147418976,0.15983335673809052,0.0532083697617054,-0.13657967746257782,-0.19579686224460602,0.3937283456325531,-0.14543145895004272,-0.5390825271606445,-0.3649410307407379,-0.07793022692203522,-0.2173510193824768,-0.12154177576303482,-0.6147240400314331,0.12482155859470367,-0.1950737088918686,0.766149640083313,-0.6325410604476929,0.5836369395256042,0.21567191183567047,-0.25252264738082886,-0.45499590039253235,0.7170748710632324,-0.03131021931767464,-0.07140455394983292,0.36401891708374023,0.21594934165477753,-0.7893325686454773,-0.6234511733055115,0.49664604663848877,0.2773074209690094,-0.8143442869186401,-0.6785619854927063,0.5080264806747437,0.5681160092353821,-0.09994596987962723,-0.9030924439430237,-0.4519333839416504,0.4151320457458496,0.8939328789710999,-0.13959698379039764,0.6033276915550232,-0.06545013934373856,-0.04558271914720535,0.12317857891321182,0.4487350881099701,0.5485451221466064,-0.38589292764663696,0.7798493504524231,-0.4685163199901581,-0.8387526273727417,0.6454131603240967,0.4966771900653839,0.6368411183357239,-0.13860633969306946,0.022490212693810463,0.2854573726654053,-0.23530054092407227,0.043281085789203644,0.16413713991641998,0.8404123187065125,1.1637922525405884,0.8505052924156189,0.8401708006858826,0.8431040048599243,-0.16138364374637604,0.1666242629289627,-0.1517135202884674,-0.1645893007516861,-0.1532994508743286,-0.586883544921875,0.6764680743217468,-0.13646970689296722,-0.8330780267715454,-0.19554443657398224,-0.26619356870651245
-0.5274319648742676,-0.7444983720779419,-1.1374812126159668,0.6673057675361633,0.7064781188964844,-0.8991912007331848,-0.34289178252220154,1.0592259168624878,-0.4908705949783325,0.8855926990509033,-0.6036772131919861,-0.8190492987632751,0.11004502326250076,1.1788794994354248,-0.538824737071991,-0.7300798892974854,0.3777860999107361,-1.1091606616973877,0.8046621084213257,-0.2637988328933716,0.04241688922047615,0.08764839172363281,-0.5154401659965515,0.1704189032316208,-0.8846035599708557,-0.9934850931167603,-0.4286973476409912,0.7249079346656799,-0.3392254710197449,0.9329718351364136,-0.14754509925842285,1.113355040550232,0.06115931645035744,0.025511207059025764,-0.6663191914558411,-0.576805055141449,0.9323643445968628,0.3405741751194,1.1297097206115723,-0.789961576461792,-0.714734673500061,0.5068703889846802,-0.5924705266952515,-0.21427711844444275,-0.32272839546203613,-0.0830717608332634,0.6814476847648621,0.7986392378807068,0.30068767070770264,-0.6958087682723999,0.06251099705696106,0.144912451505661,-0.04542509838938713,0.3784050941467285,0.37202170491218567,0.11281201243400574,0.29222241044044495,-0.10076070576906204,0.14056839048862457,0.31669893860816956,0.862977921962738,1.1087656021118164,1.148675560951233,1.1017210483551025,1.127000331878662,0.8733885288238525,0.8543945550918579,1.0398460626602173,1.1317434310913086,0.8636135458946228,0.05971312150359154,0.015666736289858818,0.1589280366897583,-0.07887779176235199,-0.14212243258953094,-0.14177998900413513,0.16461209952831268,0.16214978694915771,0.0507810115814209,-0.13771408796310425,-0.19733919203281403,0.39235934615135193,-0.14781108498573303,-0.5398225784301758,-0.3622981011867523,-0.07925152778625488,-0.2187899649143219,-0.12100640684366226,-0.6152129769325256,0.12356403470039368,-0.1922564059495926,0.7662032842636108,-0.6301374435424805,0.5864792466163635,0.213606595993042,-0.25202012062072754,-0.4569586217403412,0.7163419127464294,-0.02927141636610031,-0.0717490166425705,0.3617514669895172,0.21450796723365784,-0.7914782762527466,-0.6252833604812622,0.49822375178337097,0.27595892548561096,-0.8128752708435059,-0.6783739328384399,0.5080684423446655,0.5683385729789734,-0.10134400427341461,-0.9043784737586975,-0.4531857967376709,0.4135151207447052,0.8961467146873474,-0.14112061262130737,0.6009250283241272,-0.06742765754461288,-0.047251611948013306,0.12071493268013,0.44625213742256165,0.5511527061462402,-0.3883970379829407,0.7775981426239014,-0.468197762966156,-0.8380481600761414,0.6462792158126831,0.499119371175766,0.6367533802986145,-0.13730156421661377,0.02228870801627636,0.2858105003833771,-0.23524110019207,0.04329794645309448,0.16408678889274597,0.8384764790534973,1.1658644676208496,0.8490762710571289,0.8381870985031128,0.841340184211731,-0.16347435116767883,0.1689053177833557,-0.15322521328926086,-0.16675759851932526,-0.15502190589904785,-0.5851026773452759,0.6786027550697327,-0.13485629856586456,-0.8312647342681885,-0.19363577663898468,-0.26390838623046875
-0.5285511016845703,-0.7466154098510742,-1.1382241249084473,0.6659326553344727,0.7050979733467102,-0.9002711176872253,-0.345523864030838,1.0566126108169556,-0.49041783809661865,0.887201189994812,-0.6054261922836304,-0.8199852705001831,0.10974348336458206,1.1772805452346802,-0.540496289730072,-0.7292946577072144,0.3784955143928528,-1.110098958015442,0.8038455247879028,-0.2643842399120331,0.04443219304084778,0.08992350101470947,-0.5162604451179504,0.17272242903709412,-0.8825051784515381,-0.9950791597366333,-0.42912912368774414,0.7236183881759644,-0.3415485620498657,0.9306493997573853,-0.14931738376617432,1.1145339012145996,0.06316747516393661,0.025606658309698105,-0.6643059253692627,-0.574126660823822,0.9312511086463928,0.3432070016860962,1.1323931217193604,-0.7873401045799255,-0.7133066654205322,0.5093443989753723,-0.5903393030166626,-0.21154208481311798,-0.32427310943603516,-0.08559008687734604,0.6821257472038269,0.7971906065940857,0.2985475957393646,-0.6974466443061829,0.062487855553627014,0.1450698971748352,-0.0452333465218544,0.3783974349498749,0.37211084365844727,0.11276183277368546,0.29204997420310974,-0.10085907578468323,0.1406073421239853,0.316633015871048,0.860482931137085,1.1088041067123413,1.1494933366775513,1.104636311531067,1.1287063360214233,0.8727381825447083,0.8529383540153503,1.038639783859253,1.1320453882217407,0.8626512289047241,0.058856572955846786,0.015420781448483467,0.15999609231948853,-0.08138585090637207,-0.14251559972763062,-0.1426651030778885,0.16725705564022064,0.16441710293293,0.04833683744072914,-0.13881418108940125,-0.19889025390148163,0.3910273313522339,-0.15018689632415771,-0.5405053496360779,-0.3596285879611969,-0.08054469525814056,-0.22032368183135986,-0.12040732055902481,-0.6156354546546936,0.12228916585445404,-0.1893979161977768,0.7661553025245667,-0.62775719165802,0.5893425941467285,0.21153485774993896,-0.2515723705291748,-0.45898619294166565,0.7155532240867615,-0.027126966044306755,-0.07217562943696976,0.35955944657325745,0.2130984216928482,-0.7935767769813538,-0.6269646883010864,0.49976253509521484,0.2746465802192688,-0.8114446401596069,-0.6781367063522339,0.508100152015686,0.5686088800430298,-0.10267534106969833,-0.905638575553894,-0.4543614983558655,0.41195884346961975,0.8983728885650635,-0.1426289975643158,0.5985122323036194,-0.06939829140901566,-0.04883872717618942,0.11823954433202744,0.4438745379447937,0.5538913011550903,-0.39086127281188965,0.775359034538269,-0.4681219756603241,-0.8369355201721191,0.6469882726669312,0.501443088054657,0.6367464065551758,-0.13626568019390106,0.02218305505812168,0.2861582040786743,-0.23520924150943756,0.043328166007995605,0.16408699750900269,0.836566150188446,1.167898416519165,0.847686767578125,0.8362277746200562,0.8396158218383789,-0.16554531455039978,0.17116570472717285,-0.15469704568386078,-0.16890086233615875,-0.1567055583000183,-0.5833531022071838,0.6807029247283936,-0.1332782506942749,-0.8294806480407715,-0.19176244735717773,-0.2616403102874756
-0.5296964645385742,-0.7486928701400757,-1.1389274597167969,0.6645951271057129,0.7037569284439087,-0.9013326168060303,-0.3481740653514862,1.0539538860321045,-0.48988398909568787,0.8889369368553162,-0.6070543527603149,-0.820644199848175,0.109633669257164,1.1758371591567993,-0.5420936346054077,-0.7284277081489563,0.3792116343975067,-1.1110917329788208,0.8030169606208801,-0.2649139165878296,0.04643762856721878,0.09211952984333038,-0.5170336365699768,0.17505545914173126,-0.8804312348365784,-0.9966320395469666,-0.4293784499168396,0.7224560379981995,-0.3437940776348114,0.9283329248428345,-0.1512383073568344,1.115661859512329,0.06510621309280396,0.025583524256944656,-0.6623127460479736,-0.5713779330253601,0.9302225112915039,0.3458777368068695,1.135072946548462,-0.7847228050231934,-0.711981475353241,0.5118077397346497,-0.5880289673805237,-0.208844855427742,-0.3256755471229553,-0.08814456313848495,0.6827711462974548,0.7957926392555237,0.2964484691619873,-0.6990033984184265,0.06251019239425659,0.1452765017747879,-0.045134108513593674,0.37846168875694275,0.3721679747104645,0.11270609498023987,0.29196298122406006,-0.10094738751649857,0.14062440395355225,0.3165678083896637,0.8580480217933655,1.1087403297424316,1.1503112316131592,1.1075382232666016,1.1304702758789062,0.8721016049385071,0.851460874080658,1.0374058485031128,1.1323076486587524,0.8617252111434937,0.05808018147945404,0.015466568991541862,0.1611500382423401,-0.08395316451787949,-0.14273247122764587,-0.14349931478500366,0.1698930859565735,0.16664715111255646,0.04589986801147461,-0.139885812997818,-0.20044293999671936,0.3897402882575989,-0.15255697071552277,-0.5411242246627808,-0.3569435775279999,-0.08180426806211472,-0.22199462354183197,-0.11978402733802795,-0.6159822344779968,0.12096057832241058,-0.18653249740600586,0.7659916877746582,-0.6254505515098572,0.5921962857246399,0.2094477117061615,-0.25119903683662415,-0.4610518515110016,0.7147804498672485,-0.024933399632573128,-0.07263809442520142,0.35742902755737305,0.21171998977661133,-0.7956423759460449,-0.6285138726234436,0.5012602806091309,0.2733655571937561,-0.8100472092628479,-0.6778444647789001,0.5081167221069336,0.5689340829849243,-0.10393164306879044,-0.9068708419799805,-0.455454558134079,0.41047340631484985,0.9006167650222778,-0.1441192477941513,0.5960873365402222,-0.07136841863393784,-0.05030835047364235,0.11574745923280716,0.4415965676307678,0.5567393898963928,-0.3932892084121704,0.7731354832649231,-0.46827641129493713,-0.8354782462120056,0.6475403904914856,0.5036471486091614,0.6368197798728943,-0.13550236821174622,0.022000771015882492,0.2865435779094696,-0.2351764291524887,0.04338261857628822,0.16402682662010193,0.8346801400184631,1.1698927879333496,0.8463371396064758,0.8342938423156738,0.8379321098327637,-0.16759862005710602,0.17340326309204102,-0.15612705051898956,-0.17101836204528809,-0.15835034847259521,-0.5816341042518616,0.6827671527862549,-0.1317361742258072,-0.8277264833450317,-0.18992634117603302,-0.25938981771469116
-0.5302855372428894,-0.7497062683105469,-1.1392604112625122,0.6639445424079895,0.7031067609786987,-0.9016944169998169,-0.349465548992157,1.0526701211929321,-0.48950815200805664,0.8898998498916626,-0.6078225374221802,-0.8208435773849487,0.10965920984745026,1.1751890182495117,-0.5428462028503418,-0.7279548048973083,0.37956610321998596,-1.1116162538528442,0.8025954365730286,-0.26515790820121765,0.047432754188776016,0.09318076074123383,-0.517398476600647,0.1762361377477646,-0.8794039487838745,-0.9973929524421692,-0.42942583560943604,0.7219276428222656,-0.34488430619239807,0.9271747469902039,-0.15227515995502472,1.1161900758743286,0.06602440029382706,0.025497060269117355,-0.6613367199897766,-0.5699691772460938,0.9297672510147095,0.34723377227783203,1.1364105939865112,-0.7834151387214661,-0.7113655209541321,0.5130367875099182,-0.586799681186676,-0.2075115442276001,-0.32630354166030884,-0.08944007009267807,0.6830775737762451,0.7951152920722961,0.29541534185409546,-0.6997464895248413,0.06251475214958191,0.1455034464597702,-0.04509846866130829,0.3785080909729004,0.3722277283668518,0.11270170658826828,0.29193198680877686,-0.1009700670838356,0.14063997566699982,0.3165328800678253,0.8568684458732605,1.108647346496582,1.1507360935211182,1.1089617013931274,1.1313813924789429,0.8717940449714661,0.8507052659988403,1.0368043184280396,1.1324217319488525,0.8612744808197021,0.05775013193488121,0.0157183688133955,0.16177749633789062,-0.08527615666389465,-0.14275771379470825,-0.1438898742198944,0.17120181024074554,0.16774971783161163,0.04468395560979843,-0.1404123455286026,-0.20121963322162628,0.38912004232406616,-0.15373845398426056,-0.5414018630981445,-0.3555934727191925,-0.0824165940284729,-0.22289477288722992,-0.11946407705545425,-0.6161186099052429,0.12026826292276382,-0.18511320650577545,0.7658467888832092,-0.6243585348129272,0.5936026573181152,0.20839212834835052,-0.2510581910610199,-0.4620918035507202,0.7144379019737244,-0.0238396767526865,-0.072865791618824,0.3563930094242096,0.2110447734594345,-0.7966598868370056,-0.6292221546173096,0.5019912123680115,0.27273955941200256,-0.8093618154525757,-0.6776721477508545,0.5081211924552917,0.5691223740577698,-0.10451826453208923,-0.9074720144271851,-0.4559570848941803,0.40977102518081665,0.9017496705055237,-0.14485381543636322,0.594868004322052,-0.07235607504844666,-0.05096695199608803,0.1144910678267479,0.4405052065849304,0.5582096576690674,-0.3944863975048065,0.7720335721969604,-0.4684619903564453,-0.8346031904220581,0.6477376818656921,0.5046876668930054,0.6368973851203918,-0.1352587342262268,0.021945727989077568,0.28663796186447144,-0.23515838384628296,0.04335183650255203,0.16397330164909363,0.8337490558624268,1.1708694696426392,0.8456820845603943,0.8333401083946228,0.8371111154556274,-0.1686166524887085,0.17450957000255585,-0.15682169795036316,-0.17206382751464844,-0.15915322303771973,-0.5807895064353943,0.6837806105613708,-0.13098344206809998,-0.8268647789955139,-0.1890278160572052,-0.2582736313343048
-0.5308868288993835,-0.7506932616233826,-1.139575481414795,0.6633124947547913,0.7024771571159363,-0.9018841981887817,-0.3507206439971924,1.0514378547668457,-0.48902931809425354,0.8909456729888916,-0.6085543036460876,-0.8209245204925537,0.1097530722618103,1.1746078729629517,-0.5435522198677063,-0.7274450063705444,0.37991437315940857,-1.1121671199798584,0.8021672964096069,-0.2653845250606537,0.048385702073574066,0.09413547813892365,-0.5177770256996155,0.17742185294628143,-0.8783609867095947,-0.9981343746185303,-0.4293800890445709,0.7214555740356445,-0.345938503742218,0.9260258078575134,-0.1533830314874649,1.1166678667068481,0.06688469648361206,0.025320634245872498,-0.6603988409042358,-0.5685286521911621,0.9293788075447083,0.3486090302467346,1.1377424001693726,-0.7821148633956909,-0.7107908129692078,0.5142645835876465,-0.5855074524879456,-0.20619164407253265,-0.3268633782863617,-0.09075191617012024,0.683372437953949,0.7944625616073608,0.29440489411354065,-0.7004448175430298,0.06252949684858322,0.1456764042377472,-0.045021653175354004,0.37854936718940735,0.37232232093811035,0.11269761621952057,0.29184070229530334,-0.10099036991596222,0.14065895974636078,0.31650111079216003,0.855721116065979,1.1084877252578735,1.151187539100647,1.1103389263153076,1.1323119401931763,0.8715042471885681,0.8499437570571899,1.0362379550933838,1.1325099468231201,0.8608272671699524,0.05746416375041008,0.016147155314683914,0.1624596118927002,-0.08664409816265106,-0.14273236691951752,-0.14425255358219147,0.17250387370586395,0.16884514689445496,0.043462906032800674,-0.14093495905399323,-0.20199686288833618,0.3885219991207123,-0.15491649508476257,-0.541649341583252,-0.35423657298088074,-0.08301237970590591,-0.22385317087173462,-0.11913730949163437,-0.6162200570106506,0.11954907327890396,-0.18371422588825226,0.7656399607658386,-0.6233352422714233,0.5949825644493103,0.20732341706752777,-0.25096461176872253,-0.46313372254371643,0.7141533493995667,-0.02276100032031536,-0.07308121770620346,0.35538381338119507,0.21038198471069336,-0.7976636290550232,-0.6298670768737793,0.5027063488960266,0.272126704454422,-0.8086876273155212,-0.6774752736091614,0.5081236362457275,0.5693344473838806,-0.1050635427236557,-0.9080585837364197,-0.45641642808914185,0.4091091752052307,0.9028937816619873,-0.14557784795761108,0.593641996383667,-0.0733475536108017,-0.051545023918151855,0.11322434991598129,0.4394407868385315,0.5597065687179565,-0.39569273591041565,0.7709064483642578,-0.46867790818214417,-0.8336321115493774,0.6479405760765076,0.5057013630867004,0.6369508504867554,-0.13502997159957886,0.02183760702610016,0.28677302598953247,-0.23512639105319977,0.04332548379898071,0.16394174098968506,0.832828938961029,1.1718266010284424,0.8450456857681274,0.8323989510536194,0.8363108038902283,-0.16962677240371704,0.1756037175655365,-0.15749740600585938,-0.1730967015028,-0.15993301570415497,-0.5799587368965149,0.6847760677337646,-0.13024809956550598,-0.8260177373886108,-0.18814808130264282,-0.2571659982204437
