hidden1.weight_weight_0,hidden1.weight_weight_1,hidden1.weight_weight_2,hidden1.weight_weight_3,hidden1.weight_weight_4,hidden1.weight_weight_5,hidden1.weight_weight_6,hidden1.weight_weight_7,hidden1.weight_weight_8,hidden1.weight_weight_9,hidden1.weight_weight_10,hidden1.weight_weight_11,hidden1.weight_weight_12,hidden1.weight_weight_13,hidden1.weight_weight_14,hidden1.weight_weight_15,hidden1.weight_weight_16,hidden1.weight_weight_17,hidden1.weight_weight_18,hidden1.weight_weight_19,hidden1.weight_weight_20,hidden1.weight_weight_21,hidden1.weight_weight_22,hidden1.weight_weight_23,hidden1.weight_weight_24,hidden1.weight_weight_25,hidden1.weight_weight_26,hidden1.weight_weight_27,hidden1.weight_weight_28,hidden1.weight_weight_29,hidden1.weight_weight_30,hidden1.weight_weight_31,hidden1.weight_weight_32,hidden1.weight_weight_33,hidden1.weight_weight_34,hidden1.weight_weight_35,hidden1.weight_weight_36,hidden1.weight_weight_37,hidden1.weight_weight_38,hidden1.weight_weight_39,hidden1.weight_weight_40,hidden1.weight_weight_41,hidden1.weight_weight_42,hidden1.weight_weight_43,hidden1.weight_weight_44,hidden1.weight_weight_45,hidden1.weight_weight_46,hidden1.weight_weight_47,hidden1.weight_weight_48,hidden1.weight_weight_49,hidden1.bias_weight_0,hidden1.bias_weight_1,hidden1.bias_weight_2,hidden1.bias_weight_3,hidden1.bias_weight_4,hidden1.bias_weight_5,hidden1.bias_weight_6,hidden1.bias_weight_7,hidden1.bias_weight_8,hidden1.bias_weight_9,bn1.weight_weight_0,bn1.weight_weight_1,bn1.weight_weight_2,bn1.weight_weight_3,bn1.weight_weight_4,bn1.weight_weight_5,bn1.weight_weight_6,bn1.weight_weight_7,bn1.weight_weight_8,bn1.weight_weight_9,bn1.bias_weight_0,bn1.bias_weight_1,bn1.bias_weight_2,bn1.bias_weight_3,bn1.bias_weight_4,bn1.bias_weight_5,bn1.bias_weight_6,bn1.bias_weight_7,bn1.bias_weight_8,bn1.bias_weight_9,hidden2.weight_weight_0,hidden2.weight_weight_1,hidden2.weight_weight_2,hidden2.weight_weight_3,hidden2.weight_weight_4,hidden2.weight_weight_5,hidden2.weight_weight_6,hidden2.weight_weight_7,hidden2.weight_weight_8,hidden2.weight_weight_9,hidden2.weight_weight_10,hidden2.weight_weight_11,hidden2.weight_weight_12,hidden2.weight_weight_13,hidden2.weight_weight_14,hidden2.weight_weight_15,hidden2.weight_weight_16,hidden2.weight_weight_17,hidden2.weight_weight_18,hidden2.weight_weight_19,hidden2.weight_weight_20,hidden2.weight_weight_21,hidden2.weight_weight_22,hidden2.weight_weight_23,hidden2.weight_weight_24,hidden2.weight_weight_25,hidden2.weight_weight_26,hidden2.weight_weight_27,hidden2.weight_weight_28,hidden2.weight_weight_29,hidden2.weight_weight_30,hidden2.weight_weight_31,hidden2.weight_weight_32,hidden2.weight_weight_33,hidden2.weight_weight_34,hidden2.weight_weight_35,hidden2.weight_weight_36,hidden2.weight_weight_37,hidden2.weight_weight_38,hidden2.weight_weight_39,hidden2.weight_weight_40,hidden2.weight_weight_41,hidden2.weight_weight_42,hidden2.weight_weight_43,hidden2.weight_weight_44,hidden2.weight_weight_45,hidden2.weight_weight_46,hidden2.weight_weight_47,hidden2.weight_weight_48,hidden2.weight_weight_49,hidden2.bias_weight_0,hidden2.bias_weight_1,hidden2.bias_weight_2,hidden2.bias_weight_3,hidden2.bias_weight_4,bn2.weight_weight_0,bn2.weight_weight_1,bn2.weight_weight_2,bn2.weight_weight_3,bn2.weight_weight_4,bn2.bias_weight_0,bn2.bias_weight_1,bn2.bias_weight_2,bn2.bias_weight_3,bn2.bias_weight_4,output.weight_weight_0,output.weight_weight_1,output.weight_weight_2,output.weight_weight_3,output.weight_weight_4,output.bias_weight_0
0.9146535992622375,0.9375423789024353,1.0621341466903687,0.6036757230758667,0.9415441155433655,0.3757372796535492,0.8414150476455688,-0.3858240842819214,1.0981870889663696,0.022091280668973923,0.19841448962688446,0.8100151419639587,0.21526378393173218,-0.957076370716095,-0.029645584523677826,0.27903109788894653,-0.6847867965698242,-0.4621080458164215,0.7545841932296753,0.5150195360183716,-1.0673807859420776,0.45757412910461426,-0.47393304109573364,-0.1614837348461151,-0.9872912168502808,-0.6799665689468384,-0.8587504625320435,0.09710661321878433,0.7005867958068848,0.6226394772529602,-0.14256227016448975,1.0098012685775757,0.8778157830238342,1.079878807067871,-0.369791716337204,1.0499745607376099,0.7760697603225708,-0.06457319855690002,0.8443719148635864,0.9324687123298645,1.022459864616394,-0.012782888486981392,0.29679372906684875,0.9753361940383911,0.23148734867572784,0.22485941648483276,0.21619412302970886,0.42743468284606934,-0.619606614112854,-0.4235832095146179,-0.24430857598781586,0.19116583466529846,0.32223182916641235,0.2796151041984558,-0.22151786088943481,0.010161668062210083,0.27320048213005066,0.33180704712867737,0.07670804113149643,0.0639357715845108,0.9898999929428101,0.9898999929428101,0.9899000525474548,0.9898999929428101,0.9899001121520996,0.9898999929428101,1.0098999738693237,0.9898999929428101,1.0098999738693237,1.0098999738693237,-0.009999995119869709,-0.00999999325722456,-0.009999995119869709,-0.009999997913837433,0.009999994188547134,-0.009999995119869709,0.009999997913837433,-0.009999996051192284,0.009999996982514858,-0.009999986737966537,0.1388184130191803,-0.17095500230789185,-0.7481763362884521,-0.04212387278676033,0.014247173443436623,0.3395496904850006,-0.49815642833709717,0.5955327153205872,0.07273182272911072,-0.2312801033258438,0.05976391211152077,-0.2843221426010132,-0.5225529670715332,0.3838375508785248,0.7721171975135803,-0.015920929610729218,0.5774727463722229,-0.028521645814180374,-0.6887698769569397,0.04655090719461441,-0.23236441612243652,0.5258609056472778,0.32676470279693604,0.08803730458021164,0.6153176426887512,-0.07845784723758698,-0.7512669563293457,-0.0928909033536911,-0.3554544746875763,0.40992140769958496,-0.0669957846403122,0.42673107981681824,-0.08083326369524002,0.20524869859218597,0.2316591739654541,-0.5789349675178528,-0.7754800915718079,-0.5314692854881287,-0.26032865047454834,0.6289774179458618,-0.6723195314407349,-0.49489688873291016,0.3776679039001465,-0.7528976202011108,0.5662288665771484,0.0025975406169891357,0.10555219650268555,0.5112593173980713,0.18999747931957245,-0.718894898891449,-0.16478238999843597,0.07996170222759247,0.1183149665594101,-0.0870705172419548,0.22342301905155182,0.9898999929428101,1.0098999738693237,0.9898999929428101,0.9898999929428101,0.9898999929428101,-0.009999990463256836,0.009999996982514858,-0.009999998845160007,-0.009999999776482582,-0.009999998845160007,-0.49862802028656006,-0.17472468316555023,0.8390704989433289,0.3130810260772705,0.46087944507598877,0.21846731007099152
0.9168474078178406,0.9274741411209106,1.0520492792129517,0.6134725213050842,0.95097416639328,0.36569663882255554,0.8313210010528564,-0.3956950604915619,1.1080818176269531,0.03209199383854866,0.20831339061260223,0.8199204206466675,0.22522209584712982,-0.9469852447509766,-0.019642062485218048,0.28857338428497314,-0.6758889555931091,-0.4550004005432129,0.7615936398506165,0.5076722502708435,-1.0772337913513184,0.44756147265434265,-0.4838470220565796,-0.15148164331912994,-0.9772181510925293,-0.6899113655090332,-0.8686765432357788,0.08708519488573074,0.6905031204223633,0.6125636100769043,-0.1524709165096283,1.0017601251602173,0.8877071738243103,1.0894808769226074,-0.3597612679004669,1.0598701238632202,0.7860054969787598,-0.054593563079833984,0.834274411201477,0.9223653078079224,1.0123648643493652,-0.022677697241306305,0.30674776434898376,0.9852199554443359,0.2414439618587494,0.2294246256351471,0.2237851321697235,0.4323727786540985,-0.6189298629760742,-0.4144662916660309,-0.24394547939300537,0.18925786018371582,0.3185567259788513,0.27912184596061707,-0.2225472629070282,0.009494519792497158,0.27114567160606384,0.3307811915874481,0.0758790522813797,0.06535416841506958,0.9798422455787659,0.9798243641853333,0.9802860021591187,0.98252934217453,0.9807127118110657,0.9797889590263367,1.0198113918304443,0.9797914624214172,1.0197805166244507,1.0194091796875,-0.019964348524808884,-0.019733097404241562,-0.020002521574497223,-0.019781701266765594,0.019999096170067787,-0.020002681761980057,0.020012442022562027,-0.020009905099868774,0.020001061260700226,-0.01979912258684635,0.12879638373851776,-0.18094804883003235,-0.7580296993255615,-0.05213218182325363,0.024255776777863503,0.3295024335384369,-0.5081198215484619,0.5854652523994446,0.06271103769540787,-0.2409401834011078,0.05002618953585625,-0.2940885126590729,-0.5125033259391785,0.37379756569862366,0.7820242643356323,-0.0259258896112442,0.5675406455993652,-0.03823663294315338,-0.6984896659851074,0.056535229086875916,-0.24233047664165497,0.5158194899559021,0.31672751903533936,0.09802122414112091,0.6052637696266174,-0.06843703985214233,-0.7611881494522095,-0.10286939144134521,-0.3654192090034485,0.39986714720726013,-0.07700106501579285,0.41667529940605164,-0.09083870053291321,0.2152406871318817,0.22166764736175537,-0.5688730478286743,-0.7854160666465759,-0.5414268374443054,-0.2703152298927307,0.6189044713973999,-0.6622750759124756,-0.4848642647266388,0.3679359555244446,-0.762805163860321,0.5561586618423462,0.0125986747443676,0.11554233729839325,0.5211918950080872,0.1999439299106598,-0.7287291884422302,-0.16644072532653809,0.07975681126117706,0.11274482309818268,-0.09242673963308334,0.2291242629289627,0.9799453020095825,1.019810676574707,0.9798128008842468,0.9798152446746826,0.9798237085342407,-0.019531503319740295,0.02000807598233223,-0.019994355738162994,-0.019984234124422073,-0.019958291202783585,-0.4887150824069977,-0.18472078442573547,0.8290010690689087,0.3030596077442169,0.4508551061153412,0.20844674110412598
0.9233373999595642,0.9174386262893677,1.0419286489486694,0.6230683922767639,0.9593150615692139,0.35563817620277405,0.8212361931800842,-0.40562695264816284,1.1179949045181274,0.04211854934692383,0.21826541423797607,0.8298495411872864,0.23519936203956604,-0.9368652701377869,-0.00961740780621767,0.29797255992889404,-0.6676065325737,-0.45081648230552673,0.766350269317627,0.4991893470287323,-1.0870389938354492,0.4375511705875397,-0.49379763007164,-0.14151433110237122,-0.9671745896339417,-0.6998656988143921,-0.8785960674285889,0.07704765349626541,0.6804054975509644,0.6024783253669739,-0.16224217414855957,0.9947465658187866,0.8975303769111633,1.0990248918533325,-0.34975287318229675,1.0697057247161865,0.7959567904472351,-0.04493279010057449,0.8241555094718933,0.912278413772583,1.0022690296173096,-0.0324956476688385,0.31673499941825867,0.9950738549232483,0.25138795375823975,0.22982652485370636,0.2321767657995224,0.436368852853775,-0.6196900606155396,-0.4055969715118408,-0.2437775880098343,0.18747158348560333,0.31546732783317566,0.2792752683162689,-0.22350260615348816,0.008626854978501797,0.2693846523761749,0.3303423225879669,0.0755038633942604,0.06580477952957153,0.9697422981262207,0.9697626233100891,0.9708796143531799,0.9822903871536255,0.9716150760650635,0.9696574211120605,1.0297446250915527,0.9696651101112366,1.0296484231948853,1.0286322832107544,-0.02996544912457466,-0.029339753091335297,-0.030028894543647766,-0.02938465029001236,0.02975478023290634,-0.030011367052793503,0.030045876279473305,-0.030039075762033463,0.02999708242714405,-0.02969268336892128,0.11875153332948685,-0.1909634917974472,-0.767833948135376,-0.062152717262506485,0.0342872254550457,0.3194381892681122,-0.51810222864151,0.5753743052482605,0.052679046988487244,-0.24596479535102844,0.04094912111759186,-0.30335813760757446,-0.5024628043174744,0.3637555241584778,0.7918988466262817,-0.03593875467777252,0.5579280853271484,-0.04726187139749527,-0.7078010439872742,0.06650596112012863,-0.25227054953575134,0.5058040618896484,0.30667364597320557,0.10800288617610931,0.5952544212341309,-0.058398254215717316,-0.7710962295532227,-0.11282102018594742,-0.3753780424594879,0.3897930085659027,-0.08700327575206757,0.40663543343544006,-0.1008349284529686,0.2252306491136551,0.2117072343826294,-0.5587856769561768,-0.7953608632087708,-0.5513692498207092,-0.28031742572784424,0.6088085174560547,-0.65219646692276,-0.47480496764183044,0.35827895998954773,-0.7727326154708862,0.5460678339004517,0.022603578865528107,0.12553805112838745,0.5311505794525146,0.20992618799209595,-0.7385633587837219,-0.16616801917552948,0.08004570752382278,0.10610274970531464,-0.09474305063486099,0.23345652222633362,0.9703449606895447,1.0297424793243408,0.9697468876838684,0.9697561264038086,0.9697908759117126,-0.018266096711158752,0.03002920374274254,-0.02997910976409912,-0.029940953478217125,-0.029845593497157097,-0.4791316092014313,-0.19473768770694733,0.8189578056335449,0.2930562198162079,0.44087210297584534,0.19842977821826935
0.93116295337677,0.9075863361358643,1.0317717790603638,0.6323325037956238,0.9659897089004517,0.3455476462841034,0.8111099004745483,-0.4155796766281128,1.1279374361038208,0.05216464027762413,0.22825603187084198,0.8397498726844788,0.24514611065387726,-0.9267354607582092,0.00040086451917886734,0.3071969449520111,-0.6601177453994751,-0.4505774676799774,0.7683899998664856,0.4902524948120117,-1.0968376398086548,0.4275657832622528,-0.5034769177436829,-0.1315624862909317,-0.9571197628974915,-0.70985347032547,-0.888547956943512,0.06698742508888245,0.6702750325202942,0.5923586487770081,-0.1716027557849884,0.9867266416549683,0.9072640538215637,1.108638048171997,-0.3398321568965912,1.079514741897583,0.8059401512145996,-0.03518185392022133,0.8140062093734741,0.9021891355514526,0.9921788573265076,-0.04164963960647583,0.32675862312316895,1.0048909187316895,0.26125600934028625,0.22562703490257263,0.2394716888666153,0.43432340025901794,-0.624613344669342,-0.3992103934288025,-0.24380911886692047,0.1861652433872223,0.3144397735595703,0.2789818048477173,-0.22453181445598602,0.007999347522854805,0.2672390639781952,0.330140620470047,0.07523270696401596,0.06652970612049103,0.9596043229103088,0.9596657752990723,0.9623026847839355,0.9850693941116333,0.9622808694839478,0.9594998359680176,1.039701223373413,0.9599141478538513,1.039559006690979,1.0374095439910889,-0.03998624160885811,-0.03904319182038307,-0.040084030479192734,-0.03893620893359184,0.03951236605644226,-0.04005890712141991,0.04010981321334839,-0.03997930884361267,0.04003474861383438,-0.03962332010269165,0.10871993005275726,-0.20098340511322021,-0.7774747014045715,-0.07220584154129028,0.04434201121330261,0.30934298038482666,-0.5281036496162415,0.5652949810028076,0.042618077248334885,-0.2445862591266632,0.03235281631350517,-0.31237372756004333,-0.4924020767211914,0.35371315479278564,0.8017306923866272,-0.04596583545207977,0.5484418272972107,-0.055718794465065,-0.7168595790863037,0.07652374356985092,-0.2622114419937134,0.4957856833934784,0.2966069281101227,0.11799511313438416,0.5852439999580383,-0.04832916334271431,-0.7810195088386536,-0.12277502566576004,-0.38535594940185547,0.37970060110092163,-0.09702257066965103,0.39657503366470337,-0.11086897552013397,0.23522987961769104,0.20184533298015594,-0.5486661195755005,-0.8053336143493652,-0.5613259077072144,-0.29035085439682007,0.5987252593040466,-0.642081081867218,-0.4647141695022583,0.3486841917037964,-0.7824198603630066,0.5359469652175903,0.03263848274946213,0.13555841147899628,0.5411396622657776,0.21992501616477966,-0.748424768447876,-0.1669011116027832,0.08013913780450821,0.10071505606174469,-0.0978449359536171,0.23370133340358734,0.9613473415374756,1.0397053956985474,0.9597134590148926,0.9597352147102356,0.9598262310028076,-0.012817761860787868,0.04008473828434944,-0.03993552550673485,-0.0398537702858448,-0.03968348354101181,-0.47011399269104004,-0.20478136837482452,0.8089539408683777,0.28307974338531494,0.4309551417827606,0.18842241168022156
0.9396986961364746,0.8980824947357178,1.0215784311294556,0.6411260366439819,0.9704896211624146,0.33541440963745117,0.8009379506111145,-0.42555782198905945,1.1379185914993286,0.062243249267339706,0.23823405802249908,0.8494901061058044,0.25498709082603455,-0.9166696667671204,0.010346956551074982,0.31584471464157104,-0.6556651592254639,-0.45487508177757263,0.7656896114349365,0.4812910258769989,-1.1065607070922852,0.4176243543624878,-0.5127385258674622,-0.121816486120224,-0.9471222162246704,-0.7198774814605713,-0.8985310196876526,0.05688919872045517,0.6601042747497559,0.5821998119354248,-0.17902958393096924,0.97801673412323,0.916992723941803,1.1182712316513062,-0.33015695214271545,1.089221715927124,0.8159635066986084,-0.02532150223851204,0.8038239479064941,0.8921120166778564,0.9822171926498413,-0.04575832933187485,0.33680179715156555,1.0145442485809326,0.27078020572662354,0.21930132806301117,0.24676454067230225,0.42927443981170654,-0.631147027015686,-0.3967534899711609,-0.24360547959804535,0.18525134027004242,0.31381893157958984,0.27840784192085266,-0.22510331869125366,0.007134360261261463,0.2655724585056305,0.3301861584186554,0.07491894066333771,0.06709197163581848,0.9495432376861572,0.9495216608047485,0.9534655213356018,0.9909249544143677,0.9536195397377014,0.9493269324302673,1.0496782064437866,0.9511098861694336,1.0495091676712036,1.0435837507247925,-0.049868423491716385,-0.04889070987701416,-0.05014001578092575,-0.048144616186618805,0.048659395426511765,-0.050097160041332245,0.05020976811647415,-0.04964366555213928,0.050116267055273056,-0.049388475716114044,0.0987873375415802,-0.21093161404132843,-0.7867765426635742,-0.08229728043079376,0.05438291281461716,0.29921483993530273,-0.5380637049674988,0.5553112030029297,0.0325593575835228,-0.23983469605445862,0.02501463145017624,-0.320757120847702,-0.48235079646110535,0.3436863124370575,0.811491847038269,-0.05599794536828995,0.5394265651702881,-0.06285297870635986,-0.7249636650085449,0.0865715965628624,-0.2721870541572571,0.4857291281223297,0.2865316867828369,0.12804074585437775,0.5751736760139465,-0.038226157426834106,-0.7909891605377197,-0.13276706635951996,-0.39537838101387024,0.3696015179157257,-0.107042595744133,0.38650643825531006,-0.12094629555940628,0.24525414407253265,0.19219502806663513,-0.5385085344314575,-0.8153278827667236,-0.571282684803009,-0.3004142642021179,0.5886414051055908,-0.6319389939308167,-0.45459112524986267,0.33981215953826904,-0.7921999096870422,0.5257879495620728,0.042621079832315445,0.14562645554542542,0.5511640310287476,0.22997581958770752,-0.7581619024276733,-0.16844061017036438,0.08077050000429153,0.09627053141593933,-0.10029631853103638,0.23329758644104004,0.9532687664031982,1.0497075319290161,0.9497266411781311,0.9497660994529724,0.9499648809432983,-0.005760130472481251,0.050178706645965576,-0.049828194081783295,-0.0497141033411026,-0.04941277205944061,-0.46199122071266174,-0.21485544741153717,0.7990050911903381,0.27313998341560364,0.42113783955574036,0.17843222618103027
0.9486790299415588,0.8888741135597229,1.0113606452941895,0.649287223815918,0.9724665880203247,0.32524046301841736,0.7907320857048035,-0.4356005787849426,1.1478716135025024,0.07237482070922852,0.24799929559230804,0.8591110706329346,0.264706015586853,-0.9066693186759949,0.020258847624063492,0.3237757384777069,-0.6546854972839355,-0.4612157940864563,0.7603392601013184,0.47214895486831665,-1.1161584854125977,0.40775877237319946,-0.5215812921524048,-0.11233113706111908,-0.9372240304946899,-0.7299485802650452,-0.9085368514060974,0.04674110934138298,0.649886965751648,0.5719946622848511,-0.18632811307907104,0.9707785844802856,0.9268447160720825,1.127966284751892,-0.3206304609775543,1.0988497734069824,0.8260215520858765,-0.015373351983726025,0.7936353087425232,0.8820278644561768,0.9723120927810669,-0.04724495857954025,0.3468787670135498,1.0241105556488037,0.2800033688545227,0.21188384294509888,0.25463882088661194,0.4225340187549591,-0.6386660933494568,-0.3967192471027374,-0.24324916303157806,0.1846465766429901,0.315022349357605,0.2776413559913635,-0.22604809701442719,0.0063595958054065704,0.26392626762390137,0.3301699757575989,0.07529227435588837,0.06638557463884354,0.9394625425338745,0.9393950700759888,0.9442402124404907,0.9981414675712585,0.9446538686752319,0.9391511082649231,1.0596697330474854,0.9432368278503418,1.0594745874404907,1.046976923942566,-0.05971481278538704,-0.05870721489191055,-0.0602390393614769,-0.057144299149513245,0.05678817257285118,-0.0601399727165699,0.060337506234645844,-0.05912534147500992,0.06022819131612778,-0.05927760899066925,0.08891940116882324,-0.22084654867649078,-0.7956709265708923,-0.09243132919073105,0.06443257629871368,0.2890452444553375,-0.5480259656906128,0.5453940629959106,0.02248103730380535,-0.23320938646793365,0.01930505968630314,-0.3284786641597748,-0.4723178744316101,0.3336707353591919,0.821155846118927,-0.06603211164474487,0.5310424566268921,-0.06837363541126251,-0.7318863272666931,0.09665130078792572,-0.2821202278137207,0.4757348597049713,0.27639272809028625,0.13814252614974976,0.5650325417518616,-0.02807818353176117,-0.800945520401001,-0.14271441102027893,-0.4053892195224762,0.3594476282596588,-0.1170092225074768,0.3764770030975342,-0.13099713623523712,0.2552880644798279,0.18273340165615082,-0.5283246040344238,-0.8253365159034729,-0.5811681151390076,-0.3104875683784485,0.5785053968429565,-0.6217550039291382,-0.4444165825843811,0.3317844569683075,-0.8018473386764526,0.5155817866325378,0.052552178502082825,0.15574896335601807,0.5612375140190125,0.240081325173378,-0.7678335309028625,-0.1701543927192688,0.08075195550918579,0.0936352014541626,-0.10241367667913437,0.2340228408575058,0.946467936038971,1.0597541332244873,0.9398020505905151,0.939864993095398,0.9402478337287903,0.0022515193559229374,0.060317739844322205,-0.05965311452746391,-0.05949674919247627,-0.059014417231082916,-0.45514941215515137,-0.22495976090431213,0.7891295552253723,0.26324859261512756,0.41146120429039,0.16846974194049835
0.9579325914382935,0.8801978230476379,1.0011482238769531,0.6562602519989014,0.9709988832473755,0.31503787636756897,0.7804656624794006,-0.44571635127067566,1.1578774452209473,0.08256250619888306,0.25755640864372253,0.8686246275901794,0.274334192276001,-0.8967108726501465,0.03016204759478569,0.33074212074279785,-0.6568169593811035,-0.46869608759880066,0.7534521818161011,0.46286851167678833,-1.1256103515625,0.397999107837677,-0.5297689437866211,-0.10307257622480392,-0.9274467825889587,-0.7400081157684326,-0.9184980392456055,0.03656108304858208,0.6396695375442505,0.5617754459381104,-0.19093488156795502,0.9627707004547119,0.9367137551307678,1.1353580951690674,-0.31163978576660156,1.108461618423462,0.8361175656318665,-0.005332117900252342,0.783412516117096,0.8719089031219482,0.962736964225769,-0.045273978263139725,0.35702085494995117,1.0331635475158691,0.2884857654571533,0.20366011559963226,0.26220235228538513,0.4148271679878235,-0.6469159126281738,-0.3997868597507477,-0.24278110265731812,0.18381652235984802,0.3158011734485626,0.27673470973968506,-0.2274312525987625,0.00557281356304884,0.2625350058078766,0.33015066385269165,0.07551687210798264,0.06631409376859665,0.9293379187583923,0.9292962551116943,0.9348101019859314,1.0061928033828735,0.9353356957435608,0.9289885759353638,1.0696500539779663,0.9375245571136475,1.0694706439971924,1.0475051403045654,-0.06957586109638214,-0.06853631883859634,-0.07037492096424103,-0.065822072327137,0.06394391506910324,-0.0701739490032196,0.07046832889318466,-0.06802883744239807,0.07038556784391403,-0.06928545981645584,0.0791793167591095,-0.2306736707687378,-0.8039179444313049,-0.10259822010993958,0.07444798946380615,0.27885010838508606,-0.5579478740692139,0.5356102585792542,0.01242069061845541,-0.22552962601184845,0.015013769268989563,-0.33560559153556824,-0.46228381991386414,0.3236829936504364,0.8306965231895447,-0.07606605440378189,0.5230383276939392,-0.07233279198408127,-0.7376677989959717,0.10679174959659576,-0.29197609424591064,0.46589869260787964,0.26618731021881104,0.1483047902584076,0.5548669099807739,-0.017887543886899948,-0.8108377456665039,-0.15258003771305084,-0.4153549373149872,0.349232017993927,-0.12696585059165955,0.3664526641368866,-0.1411115527153015,0.26538553833961487,0.1735050529241562,-0.5180878043174744,-0.8353853225708008,-0.5910379886627197,-0.32059913873672485,0.568363606929779,-0.6115171909332275,-0.43418169021606445,0.3246338665485382,-0.8109753727912903,0.505324125289917,0.0624217689037323,0.16593188047409058,0.5713702440261841,0.25024163722991943,-0.7774558663368225,-0.1717418134212494,0.08142086863517761,0.09307064861059189,-0.10315806418657303,0.2349555492401123,0.9412482976913452,1.069846272468567,0.9299582242965698,0.9300515055656433,0.9307247400283813,0.010836092755198479,0.07051019370555878,-0.06940266489982605,-0.06917174160480499,-0.06846805661916733,-0.4499427378177643,-0.23508970439434052,0.7793488502502441,0.2534198760986328,0.40197625756263733,0.1585455983877182
0.967450737953186,0.8723644018173218,0.9909546375274658,0.6621074080467224,0.9670267701148987,0.304770827293396,0.7701295018196106,-0.4558718204498291,1.1679611206054688,0.09279707819223404,0.2669171392917633,0.8778677582740784,0.28370580077171326,-0.8869212865829468,0.039880551397800446,0.3360159695148468,-0.6612441539764404,-0.47692978382110596,0.7455954551696777,0.45331960916519165,-1.1347988843917847,0.38842540979385376,-0.5370302200317383,-0.09408348798751831,-0.9179338216781616,-0.7500273585319519,-0.9283719062805176,0.026367219164967537,0.6294789910316467,0.5515639185905457,-0.1940801590681076,0.9550732970237732,0.9465602040290833,1.140782356262207,-0.30316662788391113,1.1180181503295898,0.8462343215942383,0.0048013064078986645,0.7731567025184631,0.8617920279502869,0.9533650279045105,-0.040817659348249435,0.36721035838127136,1.0418856143951416,0.2964877784252167,0.19487252831459045,0.2681221067905426,0.40641698241233826,-0.6556167006492615,-0.40433168411254883,-0.2424374222755432,0.18337023258209229,0.31665685772895813,0.27597150206565857,-0.22864826023578644,0.004847204778343439,0.26136985421180725,0.3300912082195282,0.07555728405714035,0.0660189762711525,0.9191450476646423,0.919186532497406,0.9251227378845215,1.0148017406463623,0.9257612228393555,0.9188530445098877,1.0795937776565552,0.935121476650238,1.0794962644577026,1.045889973640442,-0.07948046177625656,-0.07851656526327133,-0.08035892248153687,-0.07454578578472137,0.06864944845438004,-0.08021808415651321,0.08057226240634918,-0.07593268156051636,0.0805869996547699,-0.07929162681102753,0.06964318454265594,-0.24034784734249115,-0.8113117814064026,-0.11278362572193146,0.08438440412282944,0.26864567399024963,-0.5677775740623474,0.5260406136512756,0.002429305575788021,-0.21713881194591522,0.012129598297178745,-0.342195600271225,-0.45227327942848206,0.3136996924877167,0.8400737643241882,-0.0861092209815979,0.515365481376648,-0.07473556697368622,-0.7424031496047974,0.11700243502855301,-0.30169400572776794,0.45624688267707825,0.25592589378356934,0.15851472318172455,0.544701337814331,-0.007678911089897156,-0.8206217288970947,-0.1623237431049347,-0.4252057671546936,0.33894598484039307,-0.136915922164917,0.3564298748970032,-0.1513022482395172,0.2755674421787262,0.16443337500095367,-0.5077844858169556,-0.8454757928848267,-0.6009079813957214,-0.3307512402534485,0.5581867098808289,-0.6012166738510132,-0.42387843132019043,0.31891533732414246,-0.8186951279640198,0.4950072467327118,0.0721292495727539,0.17618149518966675,0.5815712213516235,0.2604612410068512,-0.7870428562164307,-0.1729779988527298,0.08095981925725937,0.09158279746770859,-0.10262776911258698,0.23574897646903992,0.9377413988113403,1.0799819231033325,0.9202169179916382,0.9203503131866455,0.9214627742767334,0.019707007333636284,0.08075316250324249,-0.07905949652194977,-0.07870188355445862,-0.07769043743610382,-0.44653573632240295,-0.2452372908592224,0.7696873545646667,0.24367263913154602,0.392749160528183,0.14867040514945984
0.9771755337715149,0.866085410118103,0.9806953072547913,0.66645747423172,0.9611843228340149,0.2944244146347046,0.7597344517707825,-0.4660686254501343,1.178073763847351,0.10310815274715424,0.27588406205177307,0.8866889476776123,0.29267874360084534,-0.8774575591087341,0.049293402582407,0.3401349186897278,-0.6669787168502808,-0.4856968820095062,0.7370910048484802,0.44352486729621887,-1.1435823440551758,0.3792407810688019,-0.5432643294334412,-0.08557446300983429,-0.9088037014007568,-0.7599157691001892,-0.9380658268928528,0.01624438166618347,0.6193942427635193,0.5414333343505859,-0.19570744037628174,0.9483374953269958,0.9563490748405457,1.1431137323379517,-0.29551276564598083,1.1274384260177612,0.8563105463981628,0.01503640878945589,0.7629202604293823,0.8517431616783142,0.943997323513031,-0.035088397562503815,0.3774547874927521,1.0504745244979858,0.3043583333492279,0.18587812781333923,0.27197039127349854,0.3975975513458252,-0.6646440029144287,-0.40981146693229675,-0.242047980427742,0.18319466710090637,0.3178510367870331,0.2748630940914154,-0.2294769287109375,0.004648895468562841,0.26057443022727966,0.33000069856643677,0.07532304525375366,0.0656566396355629,0.9090737700462341,0.9092475771903992,0.9152116775512695,1.0238330364227295,0.9161478281021118,0.908781886100769,1.0894279479980469,0.9349545836448669,1.0894774198532104,1.041864275932312,-0.08921665698289871,-0.0884091854095459,-0.0901869684457779,-0.08307063579559326,0.07243026047945023,-0.09024620056152344,0.09058844298124313,-0.08302916586399078,0.0907692089676857,-0.08936552703380585,0.06042603775858879,-0.24977533519268036,-0.8177568316459656,-0.12296594679355621,0.0941900834441185,0.2584451138973236,-0.5774316191673279,0.5168032050132751,-0.007404370233416557,-0.20822468400001526,0.010526725091040134,-0.34837937355041504,-0.44229239225387573,0.30370032787323,0.8492543697357178,-0.0961698442697525,0.507921576499939,-0.0757175013422966,-0.7462933659553528,0.12728604674339294,-0.31120792031288147,0.44685566425323486,0.24562136828899384,0.16876395046710968,0.5346499085426331,0.002525408286601305,-0.8302298784255981,-0.1718936562538147,-0.4348786771297455,0.32858824729919434,-0.14682430028915405,0.34644386172294617,-0.16157029569149017,0.28583285212516785,0.1556609719991684,-0.49742087721824646,-0.8555881977081299,-0.6107532382011414,-0.3409237265586853,0.5479363799095154,-0.5909640192985535,-0.4136439263820648,0.3153001368045807,-0.824951708316803,0.4847261309623718,0.08168192207813263,0.18645422160625458,0.5917204022407532,0.27070382237434387,-0.7963149547576904,-0.1747916340827942,0.07983791083097458,0.09013911336660385,-0.10246963053941727,0.23590712249279022,0.9358306527137756,1.0901527404785156,0.9106037020683289,0.9107910394668579,0.9125345349311829,0.02865833044052124,0.09103930741548538,-0.0886128768324852,-0.08804869651794434,-0.08664246648550034,-0.44481220841407776,-0.2553876042366028,0.7601743340492249,0.23403042554855347,0.383855938911438,0.13885974884033203
0.9870886206626892,0.8618673086166382,0.9703946709632874,0.6691834330558777,0.9540575742721558,0.28400692343711853,0.749312698841095,-0.47612330317497253,1.1882123947143555,0.11348515748977661,0.28426334261894226,0.8950985670089722,0.3013853430747986,-0.8682914972305298,0.05847588926553726,0.34279513359069824,-0.6736841797828674,-0.4948490858078003,0.7281242609024048,0.43353965878486633,-1.1518487930297852,0.3705083131790161,-0.5483196377754211,-0.07788333296775818,-0.9002115726470947,-0.7696759700775146,-0.9475715160369873,0.0061741238459944725,0.6093955636024475,0.5313962697982788,-0.19702233374118805,0.9412953853607178,0.966316819190979,1.1426458358764648,-0.28799575567245483,1.1367703676223755,0.8663152456283569,0.025131653994321823,0.7527210712432861,0.8417288064956665,0.9346411824226379,-0.028567925095558167,0.3877260982990265,1.0589370727539062,0.31207284331321716,0.1769850105047226,0.2761209309101105,0.3887062072753906,-0.6736156344413757,-0.41509830951690674,-0.2417811006307602,0.18274180591106415,0.3184593915939331,0.2741375267505646,-0.2302408516407013,0.004294444341212511,0.2599364221096039,0.3299521803855896,0.07493556290864944,0.0653446614742279,0.8991901874542236,0.8996016383171082,0.9051131010055542,1.0331777334213257,0.906823992729187,0.8988164067268372,1.099109172821045,0.9364266395568848,1.0993894338607788,1.0362471342086792,-0.09867800027132034,-0.09795797616243362,-0.1000073030591011,-0.09119046479463577,0.0759175568819046,-0.10020358115434647,0.10048381239175797,-0.0893879160284996,0.1009257435798645,-0.09944384545087814,0.0514986626803875,-0.25889071822166443,-0.8231421113014221,-0.133143812417984,0.103844553232193,0.24824562668800354,-0.5869313478469849,0.5079140663146973,-0.01708194613456726,-0.19890621304512024,0.009705349802970886,-0.3545849621295929,-0.4323066473007202,0.29367634654045105,0.8581861257553101,-0.1062508299946785,0.5003121495246887,-0.07576434314250946,-0.750064492225647,0.1376517117023468,-0.320453941822052,0.43780025839805603,0.23529063165187836,0.17904238402843475,0.5248537063598633,0.012701882049441338,-0.839592456817627,-0.18124091625213623,-0.44430768489837646,0.31816011667251587,-0.15661989152431488,0.33657121658325195,-0.17189720273017883,0.2961673140525818,0.14743655920028687,-0.4870266616344452,-0.8656639456748962,-0.6205161213874817,-0.3510624170303345,0.5375787615776062,-0.5808245539665222,-0.4035590887069702,0.3127926290035248,-0.8291528820991516,0.474544495344162,0.09105110168457031,0.19669325649738312,0.6017482280731201,0.280914306640625,-0.8052912950515747,-0.17678265273571014,0.07771684229373932,0.08891978114843369,-0.10245560109615326,0.23575741052627563,0.9352556467056274,1.1003402471542358,0.9011500477790833,0.9014056921005249,0.9040005803108215,0.0376669317483902,0.10137300193309784,-0.09804327040910721,-0.09719362109899521,-0.09528887271881104,-0.44450053572654724,-0.26551714539527893,0.7508445978164673,0.22452139854431152,0.37536126375198364,0.1291365921497345
0.9921309947967529,0.860797643661499,0.9652337431907654,0.6697444319725037,0.9500502943992615,0.27876776456832886,0.7441354393959045,-0.4810701310634613,1.1932486295700073,0.11862420290708542,0.2881285548210144,0.8991732001304626,0.30562177300453186,-0.8638059496879578,0.0629967600107193,0.343448281288147,-0.677431046962738,-0.49959850311279297,0.7234408259391785,0.4284546971321106,-1.1556973457336426,0.3663722276687622,-0.5502638220787048,-0.07453668117523193,-0.8962306380271912,-0.7744452357292175,-0.9521853923797607,0.001222208607941866,0.6044827699661255,0.5264660120010376,-0.1975569874048233,0.9380108714103699,0.9713737964630127,1.1410752534866333,-0.28441429138183594,1.1413698196411133,0.8712281584739685,0.03007287159562111,0.7476617693901062,0.8367825746536255,0.9299654960632324,-0.025050699710845947,0.3928631544113159,1.0631089210510254,0.3158729076385498,0.17266887426376343,0.27872055768966675,0.38422033190727234,-0.6779629588127136,-0.4176705777645111,-0.24162159860134125,0.18256743252277374,0.31893470883369446,0.2736176550388336,-0.23056790232658386,0.004142097197473049,0.25959640741348267,0.3299999237060547,0.0747985914349556,0.0651087611913681,0.8943892121315002,0.8949935436248779,0.8999770879745483,1.0379589796066284,0.9024686217308044,0.8939062356948853,1.1038520336151123,0.9377560615539551,1.1042674779891968,1.03287672996521,-0.10322573781013489,-0.10216697305440903,-0.10499881953001022,-0.09489231556653976,0.07760269939899445,-0.10514888167381287,0.10536852478981018,-0.09228558838367462,0.10596834868192673,-0.10439612716436386,0.04720183089375496,-0.2632794976234436,-0.8253501653671265,-0.13822045922279358,0.10855947434902191,0.24314403533935547,-0.5915995240211487,0.5036664009094238,-0.02182539738714695,-0.19408613443374634,0.009801181964576244,-0.35760554671287537,-0.42731979489326477,0.2886494994163513,0.8625124096870422,-0.11130120605230331,0.49652406573295593,-0.07522644102573395,-0.7517260909080505,0.1428741067647934,-0.3249123692512512,0.4334765672683716,0.23012331128120422,0.18418988585472107,0.5201605558395386,0.01776398904621601,-0.8441150188446045,-0.18577946722507477,-0.44886577129364014,0.3129134476184845,-0.16142751276493073,0.3317282497882843,-0.1770763099193573,0.3013579547405243,0.14371724426746368,-0.48183202743530273,-0.8706534504890442,-0.6253292560577393,-0.3560866713523865,0.5323441028594971,-0.5758525729179382,-0.39864134788513184,0.3118028938770294,-0.8300101161003113,0.46953436732292175,0.09566766768693924,0.20176227390766144,0.6066539883613586,0.28596723079681396,-0.809646487236023,-0.17826628684997559,0.07658011466264725,0.08830033242702484,-0.10258305817842484,0.23602929711341858,0.9354797005653381,1.105430006980896,0.8965226411819458,0.8968186974525452,0.8999587893486023,0.04222962260246277,0.10654225945472717,-0.10268234461545944,-0.10165093839168549,-0.09944028407335281,-0.4448903501033783,-0.27055519819259644,0.7462924718856812,0.21985045075416565,0.3713435232639313,0.12433669716119766
0.9972463846206665,0.8606183528900146,0.9600670337677002,0.6695924997329712,0.9457173943519592,0.27350905537605286,0.7389996647834778,-0.4859376847743988,1.1982381343841553,0.12371008843183517,0.29168185591697693,0.9031720161437988,0.30979710817337036,-0.8593642711639404,0.0674968957901001,0.34362030029296875,-0.6813300251960754,-0.5044437050819397,0.7186703681945801,0.4233396053314209,-1.1592539548873901,0.36243823170661926,-0.5518006086349487,-0.07173342257738113,-0.8925846219062805,-0.7790863513946533,-0.9566612839698792,-0.0036252341233193874,0.5996689796447754,0.5216309428215027,-0.19783253967761993,0.9355421662330627,0.9764706492424011,1.1385536193847656,-0.28102049231529236,1.1458854675292969,0.8760361671447754,0.03494783863425255,0.7426621317863464,0.8319128751754761,0.9252764582633972,-0.02138359472155571,0.39799168705940247,1.0672472715377808,0.3196587562561035,0.1685103327035904,0.281781941652298,0.37971585988998413,-0.682096004486084,-0.4202922284603119,-0.2414746880531311,0.18251271545886993,0.31926363706588745,0.2733706831932068,-0.23086348176002502,0.004038829356431961,0.25904566049575806,0.3300464451313019,0.07476599514484406,0.06480640172958374,0.8897694945335388,0.8906599879264832,0.8947606682777405,1.0428193807601929,0.8984830379486084,0.8890714049339294,1.1085022687911987,0.9393774271011353,1.109040379524231,1.0291061401367188,-0.10755810141563416,-0.10564576834440231,-0.11008019745349884,-0.09825018793344498,0.07938980311155319,-0.11006230860948563,0.11020279675722122,-0.09505464136600494,0.1109645813703537,-0.10916051268577576,0.043039046227931976,-0.2675408720970154,-0.8271022439002991,-0.14328759908676147,0.11315201967954636,0.23803922533988953,-0.5962110757827759,0.4995710253715515,-0.026501253247261047,-0.1891278475522995,0.010409685783088207,-0.36050787568092346,-0.4223414659500122,0.28360819816589355,0.8667035698890686,-0.1163603812456131,0.4927998185157776,-0.07414238154888153,-0.7530929446220398,0.14813232421875,-0.3292064666748047,0.42935648560523987,0.22496061027050018,0.18934133648872375,0.5156903862953186,0.022796694189310074,-0.8484755754470825,-0.19018426537513733,-0.45326459407806396,0.30763909220695496,-0.16613812744617462,0.32698631286621094,-0.18226121366024017,0.30656343698501587,0.14041338860988617,-0.4766487181186676,-0.87558513879776,-0.6300685405731201,-0.36105674505233765,0.5270587801933289,-0.5710128545761108,-0.3938921093940735,0.31089913845062256,-0.8297408223152161,0.4646190404891968,0.10024196654558182,0.2067505419254303,0.6114057302474976,0.2909219563007355,-0.8139017224311829,-0.1797250211238861,0.07562089711427689,0.08801282197237015,-0.10286859422922134,0.2364300787448883,0.9361031651496887,1.1105080842971802,0.8919959664344788,0.8923372030258179,0.896136462688446,0.04689028114080429,0.11169979721307755,-0.10724421590566635,-0.10599548369646072,-0.10342355072498322,-0.4457119107246399,-0.2755594253540039,0.7418540120124817,0.21526402235031128,0.3675502836704254,0.11960380524396896
1.0024240016937256,0.8612174987792969,0.9549028873443604,0.6687659621238708,0.9411326050758362,0.26824185252189636,0.73391193151474,-0.49069833755493164,1.20317804813385,0.1287483274936676,0.2950986921787262,0.9071045517921448,0.3139607906341553,-0.8549244403839111,0.07199008017778397,0.34338831901550293,-0.6853017210960388,-0.5093439817428589,0.7138583660125732,0.41823339462280273,-1.162521481513977,0.3587140142917633,-0.5529641509056091,-0.06948222219944,-0.8892722129821777,-0.7835955619812012,-0.9609969854354858,-0.008360987529158592,0.5949588418006897,0.5168969631195068,-0.1979663223028183,0.9337152242660522,0.9815884232521057,1.1354104280471802,-0.27776986360549927,1.1503124237060547,0.8807373642921448,0.039737194776535034,0.7377292513847351,0.827122151851654,0.920555830001831,-0.017674485221505165,0.40309616923332214,1.071386694908142,0.3234686553478241,0.16468051075935364,0.2852820158004761,0.37531134486198425,-0.6858412027359009,-0.4228157103061676,-0.24135296046733856,0.18241716921329498,0.3195505142211914,0.2732017934322357,-0.2310517132282257,0.003894161432981491,0.2585129737854004,0.33005547523498535,0.07469578832387924,0.06487021595239639,0.8853698968887329,0.8866466879844666,0.8894678354263306,1.047745943069458,0.8950279951095581,0.8843162655830383,1.1130635738372803,0.9410774111747742,1.113681435585022,1.0250446796417236,-0.11164645850658417,-0.10826113820075989,-0.11525008827447891,-0.1012527197599411,0.08138614147901535,-0.11494103074073792,0.1149957925081253,-0.0978100374341011,0.11590620875358582,-0.1137048527598381,0.038987189531326294,-0.27170148491859436,-0.8283419013023376,-0.14834851026535034,0.11765125393867493,0.2329295575618744,-0.6007862687110901,0.4956006705760956,-0.031132010743021965,-0.1840481013059616,0.011526389047503471,-0.3632572591304779,-0.41737425327301025,0.278553307056427,0.8707605004310608,-0.12142712622880936,0.4891887605190277,-0.07253627479076385,-0.75409334897995,0.1534225046634674,-0.33333438634872437,0.42544177174568176,0.21980971097946167,0.19449187815189362,0.5114632248878479,0.02779609151184559,-0.8526685833930969,-0.1944543868303299,-0.4574987292289734,0.3023424744606018,-0.17074410617351532,0.3223535716533661,-0.18744145333766937,0.31177493929862976,0.13754519820213318,-0.4714856743812561,-0.880449116230011,-0.634727418422699,-0.3659631609916687,0.5217313170433044,-0.5663385987281799,-0.3893415629863739,0.30990198254585266,-0.828535258769989,0.4598154127597809,0.10480157285928726,0.21163058280944824,0.6159588098526001,0.2957359850406647,-0.818080723285675,-0.18095415830612183,0.07496042549610138,0.08722122758626938,-0.10319401323795319,0.23678262531757355,0.9370366930961609,1.1155658960342407,0.8875738978385925,0.8879634141921997,0.8925274014472961,0.051626261323690414,0.11682993918657303,-0.11172549426555634,-0.1102268397808075,-0.10725201666355133,-0.4468711018562317,-0.28052136301994324,0.7375327944755554,0.21076525747776031,0.3639770746231079,0.11494601517915726
1.0076454877853394,0.862410843372345,0.9497590065002441,0.6674593687057495,0.9363510012626648,0.2630624771118164,0.7289929389953613,-0.4954605996608734,1.2078499794006348,0.13359233736991882,0.29834839701652527,0.9109652042388916,0.31811249256134033,-0.8504956364631653,0.07649017125368118,0.3428358733654022,-0.6893150806427002,-0.5143250226974487,0.7089851498603821,0.41310182213783264,-1.1654548645019531,0.35524627566337585,-0.5537337064743042,-0.06787773966789246,-0.8863602876663208,-0.7878928184509277,-0.9651446342468262,-0.01284683309495449,0.5904424786567688,0.5123173594474792,-0.19825264811515808,0.9332466721534729,0.9865874648094177,1.1317509412765503,-0.274806410074234,1.1545034646987915,0.8851655721664429,0.044616397470235825,0.7330711483955383,0.822544515132904,0.9157023429870605,-0.01445172168314457,0.40820419788360596,1.0756787061691284,0.3274278938770294,0.16176272928714752,0.2892582416534424,0.37125369906425476,-0.6887636780738831,-0.42459970712661743,-0.24127741158008575,0.1823519468307495,0.31966066360473633,0.2728673219680786,-0.2311888486146927,0.003848013235256076,0.258146196603775,0.33015182614326477,0.07458723336458206,0.06503667682409286,0.8812265396118164,0.882968008518219,0.8841192722320557,1.052674412727356,0.8920367360115051,0.8796693086624146,1.1174933910369873,0.942834734916687,1.1181836128234863,1.0208101272583008,-0.11548543721437454,-0.10996674746274948,-0.12048082798719406,-0.10404808074235916,0.08358824253082275,-0.11974070966243744,0.11964979022741318,-0.100520059466362,0.1207701787352562,-0.11781732738018036,0.035114262253046036,-0.275717556476593,-0.8292810320854187,-0.15336832404136658,0.12203192710876465,0.22783493995666504,-0.605243980884552,0.491811603307724,-0.035613831132650375,-0.17887237668037415,0.012921314686536789,-0.3660568296909332,-0.4123840630054474,0.27347812056541443,0.8746681213378906,-0.12650562822818756,0.48549991846084595,-0.07063280045986176,-0.7551249265670776,0.15875738859176636,-0.33727729320526123,0.42173057794570923,0.21473105251789093,0.1996271014213562,0.507341742515564,0.03275015205144882,-0.8566965460777283,-0.19855062663555145,-0.46155083179473877,0.29704174399375916,-0.17523787915706635,0.3178379535675049,-0.1926063746213913,0.3169839382171631,0.13512952625751495,-0.46635136008262634,-0.8852360248565674,-0.639299213886261,-0.37079668045043945,0.5163708925247192,-0.5618636012077332,-0.38503846526145935,0.3085619807243347,-0.8266010284423828,0.4551760256290436,0.10935744643211365,0.21637336909770966,0.6202530860900879,0.3003576397895813,-0.8221843838691711,-0.1821555197238922,0.07425398379564285,0.08662836253643036,-0.10325192660093307,0.23715680837631226,0.9381916522979736,1.1205919981002808,0.883264422416687,0.8837012052536011,0.8891286253929138,0.0564415417611599,0.12193751335144043,-0.1161014512181282,-0.11434249579906464,-0.11090997606515884,-0.4482790529727936,-0.2854316234588623,0.733333945274353,0.20635885000228882,0.36061930656433105,0.1103740707039833
1.0128787755966187,0.8640233874320984,0.9447339177131653,0.6656545400619507,0.9314360022544861,0.2579938471317291,0.7242810130119324,-0.5000905394554138,1.212270975112915,0.13830675184726715,0.30144932866096497,0.9147560596466064,0.3222390413284302,-0.8460824489593506,0.08098463714122772,0.34174075722694397,-0.6933981776237488,-0.5193021893501282,0.7040822505950928,0.4081503748893738,-1.168017029762268,0.3520453870296478,-0.5543484091758728,-0.0668853372335434,-0.8838931322097778,-0.7919661998748779,-0.9691231846809387,-0.017106998711824417,0.5861157178878784,0.5078884959220886,-0.19881129264831543,0.9340412020683289,0.9914058446884155,1.127686858177185,-0.2721649408340454,1.1585100889205933,0.8893197178840637,0.04942113161087036,0.7287178039550781,0.8181186318397522,0.9108132123947144,-0.011549772694706917,0.4132249355316162,1.0800338983535767,0.331363320350647,0.15940512716770172,0.29358166456222534,0.36782199144363403,-0.6910034418106079,-0.4252391755580902,-0.24121667444705963,0.18233157694339752,0.3197562098503113,0.27257105708122253,-0.2312505692243576,0.0038722206372767687,0.25787094235420227,0.33029142022132874,0.074459008872509,0.06531210243701935,0.8773833513259888,0.8795650005340576,0.8787280321121216,1.0575981140136719,0.8894307017326355,0.8751363158226013,1.1217812299728394,0.9446279406547546,1.1225234270095825,1.0164732933044434,-0.11908575892448425,-0.11100327223539352,-0.12575587630271912,-0.10677781701087952,0.08600788563489914,-0.12446094304323196,0.12416747212409973,-0.10312394052743912,0.1255413144826889,-0.12158183008432388,0.0314292386174202,-0.2795683741569519,-0.8299767374992371,-0.15833304822444916,0.12628498673439026,0.22276118397712708,-0.6095694899559021,0.48821741342544556,-0.039924122393131256,-0.17362359166145325,0.014569361694157124,-0.3687976002693176,-0.40739068388938904,0.2683948278427124,0.87840336561203,-0.13158302009105682,0.48186883330345154,-0.06849698722362518,-0.7561032772064209,0.1641281247138977,-0.34103459119796753,0.41822341084480286,0.20972386002540588,0.20474384725093842,0.5033578276634216,0.037656269967556,-0.8605526685714722,-0.20247453451156616,-0.4654163718223572,0.29173997044563293,-0.17961232364177704,0.31344661116600037,-0.19774523377418518,0.3221823573112488,0.13317501544952393,-0.4612535834312439,-0.8899369239807129,-0.6437774300575256,-0.37554851174354553,0.5109870433807373,-0.5576266646385193,-0.3809460401535034,0.3067665994167328,-0.8240858316421509,0.45070526003837585,0.11387883126735687,0.22095195949077606,0.6242673993110657,0.3047634959220886,-0.8262400031089783,-0.18299418687820435,0.07343364506959915,0.08611397445201874,-0.1033363863825798,0.23742511868476868,0.9394855499267578,1.1255749464035034,0.879073977470398,0.8795551061630249,0.885939359664917,0.06128179281949997,0.12701648473739624,-0.12036771327257156,-0.11833900213241577,-0.11436107009649277,-0.449847012758255,-0.2902800738811493,0.7292636632919312,0.20205023884773254,0.3574717044830322,0.10590025037527084
1.0181103944778442,0.8659785389900208,0.9398075342178345,0.663445770740509,0.926424503326416,0.2530583441257477,0.7197880148887634,-0.5045375823974609,1.2164500951766968,0.1428709775209427,0.30439648032188416,0.9184675216674805,0.32633060216903687,-0.8416976928710938,0.08546271175146103,0.3402191996574402,-0.6974397301673889,-0.5241429805755615,0.699249267578125,0.4036296606063843,-1.1701878309249878,0.3491078019142151,-0.5549346804618835,-0.06650972366333008,-0.8819006085395813,-0.7958137392997742,-0.9729171395301819,-0.021152302622795105,0.5819901823997498,0.5036286115646362,-0.19996444880962372,0.935308575630188,0.9961966872215271,1.1233068704605103,-0.2697952091693878,1.1623129844665527,0.8932081460952759,0.05407249182462692,0.7246665954589844,0.8138652443885803,0.9058648943901062,-0.009132534265518188,0.41817325353622437,1.084470272064209,0.33533984422683716,0.15763886272907257,0.2981937527656555,0.3652413487434387,-0.6924528479576111,-0.4246688187122345,-0.2411855012178421,0.1823682188987732,0.31995412707328796,0.2723977863788605,-0.23127254843711853,0.0037929366808384657,0.25750598311424255,0.3303523063659668,0.07428247481584549,0.06559774279594421,0.8739164471626282,0.8764426708221436,0.873305082321167,1.0625224113464355,0.8872342109680176,0.8707249164581299,1.125917673110962,0.9463470578193665,1.126656174659729,1.0120872259140015,-0.12239757925271988,-0.11131461709737778,-0.13106848299503326,-0.10949944704771042,0.0886061042547226,-0.1290789693593979,0.12852655351161957,-0.1056944876909256,0.13017821311950684,-0.12500245869159698,0.027942810207605362,-0.2832213044166565,-0.8304752111434937,-0.16323496401309967,0.13040313124656677,0.217706561088562,-0.6137533187866211,0.48484256863594055,-0.044045768678188324,-0.1683223992586136,0.016498848795890808,-0.3714325726032257,-0.40240079164505005,0.26330363750457764,0.881962776184082,-0.1366593837738037,0.47835657000541687,-0.06610533595085144,-0.7569243311882019,0.1695292443037033,-0.3446149528026581,0.4149085581302643,0.20479875802993774,0.20983435213565826,0.4994763731956482,0.04250820726156235,-0.8642373085021973,-0.20623035728931427,-0.46909573674201965,0.28644439578056335,-0.1838606297969818,0.30918583273887634,-0.20284709334373474,0.3273625075817108,0.1316836029291153,-0.45619988441467285,-0.8945433497428894,-0.6481555104255676,-0.38021013140678406,0.5055891275405884,-0.5536807775497437,-0.37713637948036194,0.3044828176498413,-0.8211467266082764,0.4464337229728699,0.11836867034435272,0.22531253099441528,0.6279204487800598,0.30885931849479675,-0.8302525877952576,-0.18410280346870422,0.07303531467914581,0.08542034775018692,-0.10323681682348251,0.23766274750232697,0.94083571434021,1.1305040121078491,0.8750109672546387,0.8755302429199219,0.8829548358917236,0.06608843803405762,0.1320449411869049,-0.12450999021530151,-0.12221220880746841,-0.11759354919195175,-0.45148590207099915,-0.2950555980205536,0.7253287434577942,0.19784557819366455,0.35452762246131897,0.10153867304325104
1.0233378410339355,0.8682414889335632,0.9349660873413086,0.6608763337135315,0.9213334918022156,0.2482786327600479,0.7155053019523621,-0.5088045001029968,1.2203879356384277,0.14728151261806488,0.3071855902671814,0.9220932126045227,0.33038070797920227,-0.8373501896858215,0.08991733193397522,0.3382529616355896,-0.7013489007949829,-0.5288364291191101,0.6945256590843201,0.39974918961524963,-1.1719609498977661,0.34641918540000916,-0.5555233359336853,-0.06673938781023026,-0.8804025650024414,-0.7994513511657715,-0.9765233397483826,-0.024965979158878326,0.5780630707740784,0.49953609704971313,-0.20094577968120575,0.9374902844429016,1.0010452270507812,1.1186182498931885,-0.26794400811195374,1.1658636331558228,0.8968571424484253,0.05862245708703995,0.7209369540214539,0.809802770614624,0.9008857607841492,-0.007116555701941252,0.4230678379535675,1.0889445543289185,0.339322954416275,0.1565917581319809,0.30304309725761414,0.36371728777885437,-0.6929078102111816,-0.42300644516944885,-0.24115826189517975,0.18247202038764954,0.32024118304252625,0.2722427546977997,-0.23126019537448883,0.0037598805502057076,0.2571471035480499,0.33036524057388306,0.0740644708275795,0.06582969427108765,0.8708512187004089,0.8736095428466797,0.8678674697875977,1.0675058364868164,0.8854748606681824,0.8664445281028748,1.129888653755188,0.9478775262832642,1.1305433511734009,1.0076566934585571,-0.12539559602737427,-0.11098702251911163,-0.13640694320201874,-0.11213203519582748,0.09142350405454636,-0.1335851550102234,0.13271063566207886,-0.1082511842250824,0.1346593052148819,-0.12824596464633942,0.024646541103720665,-0.2866654694080353,-0.8308330178260803,-0.1680651307106018,0.1343768835067749,0.212686687707901,-0.6177778840065002,0.48167264461517334,-0.04797600954771042,-0.16299021244049072,0.018727749586105347,-0.37391626834869385,-0.3974204957485199,0.25820475816726685,0.8853420615196228,-0.14173467457294464,0.4750247001647949,-0.0634431317448616,-0.7574887871742249,0.17495541274547577,-0.34801623225212097,0.4117867648601532,0.1999572366476059,0.2148955911397934,0.495724618434906,0.04730359837412834,-0.8677431344985962,-0.20981737971305847,-0.47258326411247253,0.28115907311439514,-0.18798711895942688,0.3051024377346039,-0.20791402459144592,0.33255693316459656,0.1305599957704544,-0.4511796534061432,-0.8990396857261658,-0.6524333953857422,-0.3847556412220001,0.5001784563064575,-0.550049364566803,-0.37364262342453003,0.30175191164016724,-0.817965030670166,0.4423827528953552,0.12278275191783905,0.22942978143692017,0.6311725378036499,0.31259584426879883,-0.8342005610466003,-0.1852281540632248,0.07270616292953491,0.08500109612941742,-0.10302936285734177,0.23787347972393036,0.9421655535697937,1.1353685855865479,0.8710825443267822,0.8716334700584412,0.8801676034927368,0.07082301378250122,0.13700160384178162,-0.1285235583782196,-0.12594284117221832,-0.12060995399951935,-0.4531150460243225,-0.2997475862503052,0.7215358018875122,0.19375108182430267,0.35177916288375854,0.09730418771505356
1.0285255908966064,0.8707671165466309,0.9301599264144897,0.6580963134765625,0.9162114858627319,0.24364526569843292,0.7114216089248657,-0.5128755569458008,1.2241077423095703,0.15155495703220367,0.3098408877849579,0.9256787300109863,0.33436471223831177,-0.8330162167549133,0.09438320249319077,0.3359594941139221,-0.7050551176071167,-0.5333514213562012,0.689950168132782,0.3965584933757782,-1.1733386516571045,0.3440236449241638,-0.5559770464897156,-0.06756797432899475,-0.8793953061103821,-0.8028873205184937,-0.9799465537071228,-0.028555914759635925,0.5743283033370972,0.49560949206352234,-0.20187494158744812,0.9403349161148071,1.0059343576431274,1.113680362701416,-0.266528457403183,1.1691842079162598,0.9002832174301147,0.0630631148815155,0.7175036668777466,0.8059156537055969,0.8958752155303955,-0.00552636431530118,0.4279053211212158,1.0934556722640991,0.3433264493942261,0.15655934810638428,0.30809375643730164,0.3632073700428009,-0.6923421025276184,-0.42059019207954407,-0.2411230504512787,0.18254205584526062,0.32088032364845276,0.27227646112442017,-0.23120608925819397,0.003706403076648712,0.25680193305015564,0.3303494155406952,0.07388334721326828,0.06611749529838562,0.8682501316070557,0.8711318969726562,0.8624098896980286,1.0725798606872559,0.8843311667442322,0.8622971773147583,1.1337040662765503,0.9489604830741882,1.1341389417648315,1.003150224685669,-0.12795762717723846,-0.10996198654174805,-0.1417844146490097,-0.11454904079437256,0.0945507287979126,-0.1379811316728592,0.13674506545066833,-0.11094477027654648,0.13896234333515167,-0.13140138983726501,0.02150264009833336,-0.2899417281150818,-0.8310284614562988,-0.1728372871875763,0.13821208477020264,0.2076934278011322,-0.6216865181922913,0.4786655902862549,-0.05176280811429024,-0.15759526193141937,0.02126362919807434,-0.376204252243042,-0.3924548327922821,0.25309818983078003,0.8885370492935181,-0.14680883288383484,0.4719383418560028,-0.06050284206867218,-0.7577019333839417,0.1804015040397644,-0.3512362837791443,0.4088582396507263,0.19520173966884613,0.21992447972297668,0.49212250113487244,0.052040062844753265,-0.8710635900497437,-0.21323469281196594,-0.475873738527298,0.2758886516094208,-0.19198456406593323,0.30119797587394714,-0.21293316781520844,0.33775198459625244,0.12980034947395325,-0.4462023973464966,-0.903418779373169,-0.6566041111946106,-0.38917800784111023,0.4947657287120819,-0.5467793941497803,-0.37053045630455017,0.2986529469490051,-0.8146706819534302,0.4386136531829834,0.12711602449417114,0.23324933648109436,0.6339507102966309,0.31587639451026917,-0.8380540013313293,-0.18612521886825562,0.07255490124225616,0.08438487350940704,-0.10280516743659973,0.23810619115829468,0.9433975219726562,1.1401582956314087,0.8672958612442017,0.8678697347640991,0.8775729537010193,0.07549487799406052,0.1418648362159729,-0.13240332901477814,-0.1295287013053894,-0.123390793800354,-0.4546583294868469,-0.3043454885482788,0.7178914546966553,0.1897730678319931,0.3492181897163391,0.09321338683366776
1.033686876296997,0.8735436201095581,0.9253575205802917,0.6551174521446228,0.9110556244850159,0.23918715119361877,0.7075881361961365,-0.516724169254303,1.227573275566101,0.15565431118011475,0.312361478805542,0.9292141795158386,0.33828213810920715,-0.8287045955657959,0.09884840995073318,0.3333576023578644,-0.7086390256881714,-0.5377715229988098,0.6854400038719177,0.3938750922679901,-1.1743292808532715,0.3419080674648285,-0.5563175678253174,-0.06895244866609573,-0.8788698315620422,-0.8061008453369141,-0.9831852316856384,-0.03191641345620155,0.5708059072494507,0.4918615520000458,-0.20291626453399658,0.9437628388404846,1.0108610391616821,1.1085278987884521,-0.26569312810897827,1.1721985340118408,0.9034072160720825,0.06738151609897614,0.7144985795021057,0.8022763133049011,0.890815258026123,-0.004450312349945307,0.43268945813179016,1.0980273485183716,0.34736818075180054,0.15738242864608765,0.3133147358894348,0.3635663390159607,-0.6909399032592773,-0.4175513982772827,-0.24106815457344055,0.18266160786151886,0.3214491009712219,0.2723049223423004,-0.23122739791870117,0.0035995584912598133,0.2565789818763733,0.33036622405052185,0.07363922148942947,0.06627077609300613,0.8660721182823181,0.8689547777175903,0.8569439649581909,1.07768976688385,0.8836860656738281,0.8583108186721802,1.1373639106750488,0.949614942073822,1.1374293565750122,0.9986482858657837,-0.1301184594631195,-0.10843100398778915,-0.14718924462795258,-0.1168559342622757,0.09788740426301956,-0.14221763610839844,0.14061734080314636,-0.11370979994535446,0.14308209717273712,-0.13430023193359375,0.018511034548282623,-0.293026328086853,-0.8311165571212769,-0.17751869559288025,0.14189821481704712,0.20273876190185547,-0.6254734396934509,0.4758279323577881,-0.055376388132572174,-0.1521637737751007,0.02410811185836792,-0.37825125455856323,-0.38750821352005005,0.24798372387886047,0.8915442228317261,-0.15188170969486237,0.4691677689552307,-0.057282619178295135,-0.7574760913848877,0.1858622431755066,-0.3542735278606415,0.40612271428108215,0.19053533673286438,0.224917933344841,0.4886825382709503,0.05671520531177521,-0.8741929531097412,-0.21648132801055908,-0.47896236181259155,0.27063846588134766,-0.1958312839269638,0.2974577248096466,-0.2178451418876648,0.34293127059936523,0.12932905554771423,-0.4412803053855896,-0.9076770544052124,-0.6606464385986328,-0.39347293972969055,0.48937952518463135,-0.5438518524169922,-0.36777985095977783,0.29520919919013977,-0.8112533092498779,0.4351133704185486,0.13139382004737854,0.23679247498512268,0.6362699270248413,0.31872838735580444,-0.8418323993682861,-0.18686595559120178,0.07246014475822449,0.0838870108127594,-0.10258004814386368,0.23837363719940186,0.9444696307182312,1.144862413406372,0.8636581301689148,0.8642445802688599,0.875164806842804,0.08006957173347473,0.146612286567688,-0.1361439973115921,-0.13295863568782806,-0.12593115866184235,-0.45604968070983887,-0.30883875489234924,0.7144021391868591,0.1859176754951477,0.34683698415756226,0.08928439021110535
1.0388152599334717,0.8765151500701904,0.9205499887466431,0.6519826054573059,0.9058845639228821,0.23500193655490875,0.7040393948554993,-0.5202675461769104,1.2307671308517456,0.15955224633216858,0.31474563479423523,0.9326903223991394,0.3421325981616974,-0.8244234323501587,0.10330302268266678,0.3304566740989685,-0.7122052907943726,-0.5420371890068054,0.6809832453727722,0.3916776776313782,-1.1749300956726074,0.3400929272174835,-0.556650698184967,-0.0708235651254654,-0.8788115382194519,-0.8091056942939758,-0.9861992001533508,-0.035049255937337875,0.5675272941589355,0.4883131682872772,-0.2030574232339859,0.9477413296699524,1.0159380435943604,1.1032092571258545,-0.2656848430633545,1.174743413925171,0.9062462449073792,0.07154089957475662,0.712037980556488,0.7989756464958191,0.8857284188270569,-0.003813017625361681,0.4374336898326874,1.102626085281372,0.3514210283756256,0.158951073884964,0.31868261098861694,0.3646602928638458,-0.6888298392295837,-0.4140062630176544,-0.24103383719921112,0.18280723690986633,0.3219201862812042,0.2720818519592285,-0.23121023178100586,0.0035045803524553776,0.25631314516067505,0.330409973859787,0.07333481311798096,0.06648724526166916,0.8642452359199524,0.8669994473457336,0.8515093922615051,1.08282470703125,0.8834148645401001,0.8545110821723938,1.1408673524856567,0.9498758316040039,1.1404178142547607,0.9941659569740295,-0.13195624947547913,-0.1066085621714592,-0.15259429812431335,-0.11902018636465073,0.10133831948041916,-0.14625945687294006,0.1443181335926056,-0.11639317870140076,0.1470356583595276,-0.1369236409664154,0.015643518418073654,-0.2958816885948181,-0.8311781883239746,-0.18208231031894684,0.14542920887470245,0.19784948229789734,-0.6291254758834839,0.47312813997268677,-0.05882182717323303,-0.14672483503818512,0.027257457375526428,-0.3800179362297058,-0.38258445262908936,0.24286018311977386,0.8943606615066528,-0.15695329010486603,0.46678242087364197,-0.05378599092364311,-0.7567421197891235,0.19133271276950836,-0.35712698101997375,0.40357983112335205,0.18596166372299194,0.22987355291843414,0.4854119122028351,0.06132669746875763,-0.8771260380744934,-0.21955634653568268,-0.4818447530269623,0.2654139995574951,-0.19952446222305298,0.29388439655303955,-0.22264604270458221,0.34808623790740967,0.1291385143995285,-0.4364200830459595,-0.9118083715438843,-0.6645563244819641,-0.3976338803768158,0.48402655124664307,-0.5412256121635437,-0.3653452396392822,0.29152539372444153,-0.8077977895736694,0.4318583309650421,0.13553155958652496,0.24010443687438965,0.6381881237030029,0.3212198317050934,-0.8455107808113098,-0.18744802474975586,0.07245565205812454,0.08359101414680481,-0.10241401195526123,0.2386271357536316,0.9453151226043701,1.1494700908660889,0.8601763248443604,0.8607621192932129,0.8729346990585327,0.08455284684896469,0.1512206345796585,-0.1397402137517929,-0.13623139262199402,-0.12825697660446167,-0.4572226107120514,-0.31321683526039124,0.7110739946365356,0.1821908801794052,0.3446297347545624,0.08553622663021088
1.041374921798706,0.8780916929244995,0.9181456565856934,0.650313675403595,0.9032827019691467,0.23300231993198395,0.7023809552192688,-0.5219039916992188,1.2322579622268677,0.16142909228801727,0.3158356249332428,0.9344326853752136,0.3440347909927368,-0.8222746849060059,0.10555112361907959,0.3288491666316986,-0.7139812707901001,-0.5440762639045715,0.6787900924682617,0.3908706605434418,-1.1750446557998657,0.33932942152023315,-0.5568116307258606,-0.07197524607181549,-0.8790037631988525,-0.8105082511901855,-0.9875945448875427,-0.036502543836832047,0.5660082697868347,0.4866395592689514,-0.20287704467773438,0.9499512314796448,1.0185132026672363,1.1004676818847656,-0.2659812271595001,1.1759032011032104,0.907524585723877,0.07357516884803772,0.7110002040863037,0.7974163293838501,0.8831918239593506,-0.0036523938179016113,0.43979233503341675,1.1049108505249023,0.35342830419540405,0.16002967953681946,0.3214303255081177,0.3655061721801758,-0.6874845027923584,-0.4120301902294159,-0.24100087583065033,0.18289151787757874,0.3221520483493805,0.2719017565250397,-0.23118476569652557,0.0034622997045516968,0.25618305802345276,0.33041635155677795,0.0732225775718689,0.06651370227336884,0.8635051250457764,0.8661772608757019,0.8487894535064697,1.0854195356369019,0.8833922743797302,0.8527034521102905,1.142554759979248,0.9497426748275757,1.1417531967163086,0.9919320344924927,-0.13272899389266968,-0.10548526793718338,-0.15531687438488007,-0.12003056704998016,0.10312516987323761,-0.14818920195102692,0.1460772305727005,-0.11770454049110413,0.14891481399536133,-0.13811086118221283,0.014245007187128067,-0.2972364127635956,-0.8311618566513062,-0.1843210607767105,0.1471075564622879,0.1954277753829956,-0.6309167146682739,0.471815824508667,-0.06048496812582016,-0.14397887885570526,0.02898089960217476,-0.3807426393032074,-0.38013550639152527,0.24029302597045898,0.8956723213195801,-0.15948855876922607,0.4658176898956299,-0.051903095096349716,-0.7560969591140747,0.19407051801681519,-0.3584682047367096,0.40241795778274536,0.18371924757957458,0.23233844339847565,0.48383650183677673,0.06360463052988052,-0.8784845471382141,-0.22101561725139618,-0.4831787347793579,0.26281532645225525,-0.20129327476024628,0.29218220710754395,-0.22498884797096252,0.35064783692359924,0.1291770190000534,-0.4340238571166992,-0.9138079881668091,-0.6664432287216187,-0.3996443450450897,0.4813700318336487,-0.5400635004043579,-0.3642870783805847,0.2895761728286743,-0.8060563802719116,0.430353045463562,0.1375427097082138,0.24164193868637085,0.638945996761322,0.3222799003124237,-0.847305417060852,-0.18779340386390686,0.07245789468288422,0.08343181014060974,-0.10233236849308014,0.23873271048069,0.945586621761322,1.151720404624939,0.8585176467895508,0.8590940237045288,0.8719063997268677,0.08680376410484314,0.15344327688217163,-0.14145825803279877,-0.13778862357139587,-0.12931469082832336,-0.45766958594322205,-0.31534311175346375,0.7094933986663818,0.18039463460445404,0.34361082315444946,0.08376246690750122
1.0439428091049194,0.8797823190689087,0.9157140254974365,0.6485303640365601,0.9006560444831848,0.23113246262073517,0.7008556723594666,-0.5234214067459106,1.2336152791976929,0.1632046103477478,0.3168463110923767,0.9361728429794312,0.3459220826625824,-0.8201161623001099,0.10782717168331146,0.32711541652679443,-0.7157531976699829,-0.5460789203643799,0.676596999168396,0.39026644825935364,-1.174996018409729,0.3387084901332855,-0.5569388270378113,-0.07329027354717255,-0.8793852925300598,-0.8118155002593994,-0.9888851642608643,-0.03783927112817764,0.564603328704834,0.485062837600708,-0.2026648223400116,0.9522716403007507,1.0211423635482788,1.0976663827896118,-0.2663123607635498,1.1769235134124756,0.9086558818817139,0.07561798393726349,0.7101718187332153,0.795971155166626,0.8806804418563843,-0.0036496794782578945,0.44216620922088623,1.1071488857269287,0.3553869128227234,0.1613565981388092,0.3242281973361969,0.3666006922721863,-0.6859062314033508,-0.409888356924057,-0.24096858501434326,0.18296049535274506,0.3223501443862915,0.2718207836151123,-0.23115859925746918,0.0034361248835921288,0.2560771703720093,0.3304331302642822,0.07310517132282257,0.06651747971773148,0.8629150390625,0.8655016422271729,0.8460631966590881,1.0880380868911743,0.8834190368652344,0.8509819507598877,1.14418625831604,0.9493410587310791,1.1429468393325806,0.9897210597991943,-0.1333826184272766,-0.1041937842965126,-0.15806244313716888,-0.1209903135895729,0.10498792678117752,-0.15003326535224915,0.1477462202310562,-0.11899472028017044,0.1506986767053604,-0.139126256108284,0.012869101949036121,-0.2985350787639618,-0.8310922384262085,-0.1865253746509552,0.1487097591161728,0.19302412867546082,-0.632678747177124,0.4705266058444977,-0.06210813298821449,-0.14120717346668243,0.030803533270955086,-0.38124606013298035,-0.377705454826355,0.23772837221622467,0.8968845009803772,-0.16201743483543396,0.4650975465774536,-0.049934204667806625,-0.755206823348999,0.19680728018283844,-0.3597280979156494,0.4013598561286926,0.18151964247226715,0.23479048907756805,0.482316792011261,0.06585598737001419,-0.8797397017478943,-0.22240038216114044,-0.48440971970558167,0.2602309286594391,-0.20298828184604645,0.29056018590927124,-0.2272764891386032,0.353193074464798,0.12933853268623352,-0.4316604733467102,-0.9157443642616272,-0.668265163898468,-0.40158751606941223,0.47873398661613464,-0.5390374660491943,-0.3633756637573242,0.28751957416534424,-0.8042740225791931,0.4289518892765045,0.13952167332172394,0.24308370053768158,0.6395129561424255,0.323184072971344,-0.8490695953369141,-0.18802334368228912,0.07244423776865005,0.08330413699150085,-0.10228867828845978,0.23887167870998383,0.9457024335861206,1.153916835784912,0.8569381833076477,0.8574958443641663,0.8709611296653748,0.08907514065504074,0.15559464693069458,-0.14309953153133392,-0.13927072286605835,-0.13026277720928192,-0.4579739570617676,-0.31740802526474,0.7079931497573853,0.1786629855632782,0.34267157316207886,0.08208881318569183
1.0465166568756104,0.8815703392028809,0.9132576584815979,0.6466473340988159,0.8980093598365784,0.22938185930252075,0.6994529962539673,-0.5248258709907532,1.234851360321045,0.1648891568183899,0.31778082251548767,0.9379068613052368,0.3477936089038849,-0.8179526925086975,0.11012396216392517,0.32527947425842285,-0.7175081372261047,-0.548039436340332,0.67441326379776,0.3898657560348511,-1.1747928857803345,0.3382209539413452,-0.5570387244224548,-0.07475444674491882,-0.8799442648887634,-0.8130347728729248,-0.9900776743888855,-0.03906644880771637,0.5633046627044678,0.48357754945755005,-0.20244809985160828,0.954680323600769,1.0238147974014282,1.0948165655136108,-0.2666686177253723,1.177815556526184,0.9096537232398987,0.07766741514205933,0.7095338702201843,0.7946301102638245,0.878189206123352,-0.003798671066761017,0.44455188512802124,1.109346866607666,0.3573063313961029,0.1628899872303009,0.3270662724971771,0.3679042458534241,-0.6841342449188232,-0.4076122045516968,-0.24095433950424194,0.18304046988487244,0.32255300879478455,0.27182647585868835,-0.23112617433071136,0.00339851388707757,0.25594446063041687,0.33042046427726746,0.07301449775695801,0.06646217405796051,0.8624668717384338,0.8649594187736511,0.8433323502540588,1.0906763076782227,0.8834832906723022,0.8493455648422241,1.1457620859146118,0.9487016201019287,1.1439989805221558,0.9875446557998657,-0.13392244279384613,-0.10276056081056595,-0.1608266681432724,-0.12190046906471252,0.10691064596176147,-0.15179084241390228,0.14932973682880402,-0.12026332318782806,0.15238982439041138,-0.1399529129266739,0.011518450453877449,-0.29977738857269287,-0.8309724926948547,-0.1886986345052719,0.150239959359169,0.19063755869865417,-0.6344085335731506,0.46926429867744446,-0.06368862837553024,-0.1384180784225464,0.03272119536995888,-0.3815308213233948,-0.37529343366622925,0.23516495525836945,0.898002028465271,-0.1645408570766449,0.46462538838386536,-0.04788268357515335,-0.7540801167488098,0.19954173266887665,-0.36091041564941406,0.400400310754776,0.17936162650585175,0.23722974956035614,0.48084786534309387,0.0680818185210228,-0.8808953762054443,-0.2237139493227005,-0.485541433095932,0.2576616406440735,-0.20461301505565643,0.28901445865631104,-0.22951094806194305,0.3557215631008148,0.1296125203371048,-0.4293290674686432,-0.9176198244094849,-0.6700248718261719,-0.40346574783325195,0.47611889243125916,-0.5381413698196411,-0.36260440945625305,0.2853708565235138,-0.8024550080299377,0.42764925956726074,0.14147423207759857,0.24443310499191284,0.6398985981941223,0.32393738627433777,-0.8508073091506958,-0.18802666664123535,0.07263755053281784,0.08321843296289444,-0.10223236680030823,0.2389809936285019,0.9456663131713867,1.1560602188110352,0.8554355502128601,0.8559646606445312,0.8700944185256958,0.09134380519390106,0.15767277777194977,-0.14466698467731476,-0.14068137109279633,-0.13110722601413727,-0.45813506841659546,-0.31941285729408264,0.7065703868865967,0.1769937127828598,0.3418077528476715,0.0805152952671051
1.0491011142730713,0.8834505081176758,0.9107853770256042,0.6446714997291565,0.8953344225883484,0.22772257030010223,0.698152482509613,-0.5261355042457581,1.2359801530838013,0.16652734577655792,0.3186925947666168,0.939639151096344,0.3496766686439514,-0.8157639503479004,0.11245425790548325,0.32332858443260193,-0.7192221283912659,-0.5499303936958313,0.6722632646560669,0.3897668421268463,-1.1744303703308105,0.3378758430480957,-0.5571346282958984,-0.07636301219463348,-0.8806813955307007,-0.8141701221466064,-0.9911780953407288,-0.04019312560558319,0.5621062517166138,0.4821804165840149,-0.20204734802246094,0.9571833610534668,1.0265214443206787,1.0919151306152344,-0.26721033453941345,1.1786013841629028,0.910535454750061,0.07972700893878937,0.7090656161308289,0.793368935585022,0.8757251501083374,-0.004094681236892939,0.44695714116096497,1.1115018129348755,0.3591470718383789,0.16459521651268005,0.32992851734161377,0.3693900406360626,-0.6822006702423096,-0.405233234167099,-0.24093647301197052,0.18309539556503296,0.3226509094238281,0.27183088660240173,-0.23110778629779816,0.003367736004292965,0.25583046674728394,0.330437570810318,0.07289694249629974,0.0663546621799469,0.8621277213096619,0.8645433783531189,0.8405835628509521,1.0933396816253662,0.8835862874984741,0.847787618637085,1.147301197052002,0.9478499889373779,1.1449284553527832,0.985379159450531,-0.13439805805683136,-0.10117802023887634,-0.16361306607723236,-0.12266477942466736,0.10882717370986938,-0.15347187221050262,0.15083223581314087,-0.1215248554944992,0.15399783849716187,-0.1406509429216385,0.010177556425333023,-0.3009832799434662,-0.8307555317878723,-0.19084951281547546,0.15172117948532104,0.1882631629705429,-0.6361270546913147,0.46801093220710754,-0.06525029242038727,-0.13560131192207336,0.034729890525341034,-0.3815995454788208,-0.3728988468647003,0.23260152339935303,0.8990291357040405,-0.16705970466136932,0.4644034504890442,-0.045751847326755524,-0.7527283430099487,0.20227265357971191,-0.36202472448349,0.39953309297561646,0.17723894119262695,0.23966084420681,0.4793773591518402,0.07028456777334213,-0.8819634914398193,-0.22496521472930908,-0.48657798767089844,0.2551053762435913,-0.20617064833641052,0.28754153847694397,-0.2316938191652298,0.3582330048084259,0.12998908758163452,-0.4270288646221161,-0.9194366335868835,-0.6717246174812317,-0.4052809476852417,0.4735254645347595,-0.5373499989509583,-0.36194029450416565,0.28316062688827515,-0.8005868792533875,0.4264424443244934,0.14338625967502594,0.24571597576141357,0.640138566493988,0.324582040309906,-0.8525105714797974,-0.18800652027130127,0.07290688902139664,0.083135686814785,-0.10213618725538254,0.2389964461326599,0.9454774856567383,1.1581515073776245,0.8540086150169373,0.8544977307319641,0.869300365447998,0.09363512694835663,0.159675732254982,-0.1461557000875473,-0.1420239359140396,-0.13186757266521454,-0.45815566182136536,-0.3213587999343872,0.7052227258682251,0.17538481950759888,0.34101560711860657,0.07904212921857834
1.0516928434371948,0.8854067325592041,0.9082970023155212,0.642616868019104,0.892638087272644,0.22614748775959015,0.6969457268714905,-0.5273560881614685,1.2370109558105469,0.1681242287158966,0.3195779621601105,0.9413655400276184,0.3515665829181671,-0.8135571479797363,0.11480982601642609,0.3212670385837555,-0.7209199070930481,-0.5517684817314148,0.6701297760009766,0.3899194896221161,-1.1739190816879272,0.337664395570755,-0.5572214126586914,-0.07810046523809433,-0.8815829753875732,-0.8152279257774353,-0.9921917915344238,-0.04122480750083923,0.5610014796257019,0.480866938829422,-0.2015514075756073,0.9597510695457458,1.029252529144287,1.0889769792556763,-0.2678806781768799,1.1792773008346558,0.9113068580627441,0.08179394155740738,0.708760142326355,0.7921927571296692,0.8732766509056091,-0.0045541683211922646,0.4493759870529175,1.11362624168396,0.36093711853027344,0.1664561778306961,0.3328133821487427,0.3710314631462097,-0.6801244020462036,-0.40276575088500977,-0.24092210829257965,0.18314196169376373,0.3227595388889313,0.2718147039413452,-0.23115140199661255,0.0033317781053483486,0.2556987404823303,0.33043453097343445,0.07282967865467072,0.06621982902288437,0.8618849515914917,0.8642348647117615,0.837820827960968,1.096020221710205,0.8836952447891235,0.8463101387023926,1.1488020420074463,0.9468216300010681,1.1457375288009644,0.9832444787025452,-0.13482020795345306,-0.09948001801967621,-0.1664169579744339,-0.12328077852725983,0.11071619391441345,-0.15507058799266815,0.15225490927696228,-0.1227726936340332,0.15552516281604767,-0.14120987057685852,0.00885121338069439,-0.30214980244636536,-0.8304499387741089,-0.19297999143600464,0.15315449237823486,0.18590080738067627,-0.6378283500671387,0.46677273511886597,-0.06678728759288788,-0.1327662616968155,0.03682561218738556,-0.38145533204078674,-0.37052130699157715,0.23003700375556946,0.8999694585800171,-0.1695747673511505,0.4644321799278259,-0.04354510083794594,-0.7511650323867798,0.20499876141548157,-0.3630734980106354,0.39875444769859314,0.17515161633491516,0.24208331108093262,0.477904349565506,0.07246484607458115,-0.882946252822876,-0.22615617513656616,-0.4875217080116272,0.25256356596946716,-0.20766416192054749,0.2861301302909851,-0.23381450772285461,0.3607243001461029,0.1304289698600769,-0.42476123571395874,-0.9211924076080322,-0.673365592956543,-0.4070340394973755,0.4709640145301819,-0.5366540551185608,-0.36137229204177856,0.28090158104896545,-0.7986637353897095,0.425320029258728,0.1452677994966507,0.24694040417671204,0.6402462124824524,0.3251301944255829,-0.8541848063468933,-0.18794269859790802,0.07322844862937927,0.08303191512823105,-0.10208400338888168,0.23905424773693085,0.9451454281806946,1.160191297531128,0.852655291557312,0.8530934453010559,0.8685750961303711,0.09592700749635696,0.1616014987230301,-0.14756861329078674,-0.14329655468463898,-0.13255156576633453,-0.4580407738685608,-0.3232469856739044,0.703947901725769,0.17383459210395813,0.34029173851013184,0.077669657766819
1.0542885065078735,0.8874244093894958,0.9057900905609131,0.6405017375946045,0.8899264931678772,0.2246444821357727,0.6958194971084595,-0.5285008549690247,1.2379554510116577,0.1696845293045044,0.3204478323459625,0.9430678486824036,0.35346123576164246,-0.8113455176353455,0.11717673391103745,0.31913888454437256,-0.7225499153137207,-0.5535274744033813,0.6680421829223633,0.3903547525405884,-1.1732672452926636,0.33757781982421875,-0.5573033690452576,-0.07995498180389404,-0.8826375007629395,-0.8162133693695068,-0.9931228756904602,-0.0421656109392643,0.5599853992462158,0.47963377833366394,-0.20097969472408295,0.9623726010322571,1.0320042371749878,1.0860079526901245,-0.26866504549980164,1.1798573732376099,0.9119823575019836,0.08387312293052673,0.7085931301116943,0.7910904288291931,0.8708421587944031,-0.005159870255738497,0.45180967450141907,1.1157194375991821,0.36268478631973267,0.16843697428703308,0.3357081115245819,0.37278661131858826,-0.677937924861908,-0.4002389907836914,-0.24089384078979492,0.18312273919582367,0.3228820860385895,0.27176088094711304,-0.23118436336517334,0.003307981649413705,0.25560659170150757,0.3304453492164612,0.0727929174900055,0.0661371499300003,0.8617281913757324,0.8640231490135193,0.8350518941879272,1.098718285560608,0.8837888240814209,0.844913125038147,1.1502634286880493,0.9456460475921631,1.1464260816574097,0.9811455011367798,-0.13519492745399475,-0.09769130498170853,-0.16922639310359955,-0.12372155487537384,0.11256248503923416,-0.1565854549407959,0.15360091626644135,-0.12399674952030182,0.15697507560253143,-0.14161784946918488,0.0075437286868691444,-0.3032743036746979,-0.8300635814666748,-0.19509190320968628,0.15454085171222687,0.18355044722557068,-0.6395070552825928,0.4655553102493286,-0.06829433888196945,-0.12992097437381744,0.03900463506579399,-0.3811013698577881,-0.3681604564189911,0.22747032344341278,0.9008263349533081,-0.17208682000637054,0.46471041440963745,-0.041265640407800674,-0.74940425157547,0.20771896839141846,-0.3640590012073517,0.3980608880519867,0.17309975624084473,0.24449677765369415,0.47642746567726135,0.07462325692176819,-0.883845865726471,-0.2272886037826538,-0.4883746802806854,0.25003743171691895,-0.20909619331359863,0.284777969121933,-0.23587526381015778,0.36319562792778015,0.13092666864395142,-0.4225252866744995,-0.922889232635498,-0.6749497056007385,-0.40872666239738464,0.4684341847896576,-0.5360455513000488,-0.3608986437320709,0.27861154079437256,-0.7966972589492798,0.42427435517311096,0.14712166786193848,0.24811170995235443,0.6402324438095093,0.3255886137485504,-0.8558277487754822,-0.18774059414863586,0.07353081554174423,0.08284910768270493,-0.10200485587120056,0.2390834093093872,0.944679856300354,1.1621805429458618,0.8513737916946411,0.8517494797706604,0.8679158687591553,0.0982002392411232,0.16344836354255676,-0.14890854060649872,-0.14450255036354065,-0.1331598311662674,-0.4577963352203369,-0.325078547000885,0.7027438282966614,0.17234136164188385,0.33963319659233093,0.07639804482460022
1.0568746328353882,0.8894556760787964,0.9032920002937317,0.6383507251739502,0.8872159719467163,0.22318994998931885,0.6947510838508606,-0.5295471549034119,1.2388490438461304,0.17123940587043762,0.32129916548728943,0.9447445869445801,0.35535410046577454,-0.8091346621513367,0.11954823136329651,0.31695714592933655,-0.724107563495636,-0.5552065968513489,0.6660031676292419,0.39104947447776794,-1.1724826097488403,0.3376082181930542,-0.5573834776878357,-0.0819159597158432,-0.8838343024253845,-0.8171310424804688,-0.9939748048782349,-0.04301873594522476,0.559053897857666,0.47847843170166016,-0.20029796659946442,0.9650580286979675,1.0347610712051392,1.0830116271972656,-0.269567608833313,1.180381178855896,0.9125957489013672,0.08591239899396896,0.7085221409797668,0.7900208830833435,0.8684350848197937,-0.005823400337249041,0.4542406499385834,1.117774248123169,0.3643723130226135,0.17047283053398132,0.33857306838035583,0.3746248185634613,-0.6756933927536011,-0.3976852297782898,-0.240870863199234,0.1831159144639969,0.3229828178882599,0.2715629041194916,-0.23121601343154907,0.0032894439063966274,0.25549978017807007,0.33042266964912415,0.0727570429444313,0.06604371219873428,0.8616439700126648,0.8638872504234314,0.8322839736938477,1.101440191268921,0.8838208913803101,0.843595564365387,1.1516844034194946,0.9443669319152832,1.1469945907592773,0.9790760278701782,-0.1355450302362442,-0.09584714472293854,-0.17203763127326965,-0.12396955490112305,0.11432567983865738,-0.15801744163036346,0.15487512946128845,-0.1251663714647293,0.1583571583032608,-0.14190883934497833,0.006258980371057987,-0.3043544292449951,-0.8296036124229431,-0.19718685746192932,0.1558811366558075,0.18121209740638733,-0.6411582827568054,0.4643636643886566,-0.06976666301488876,-0.1270724982023239,0.04126329347491264,-0.3805415630340576,-0.3658159375190735,0.22490043938159943,0.9016026258468628,-0.1745966076850891,0.4652346074581146,-0.03891664370894432,-0.7474607229232788,0.21043236553668976,-0.36498329043388367,0.39744916558265686,0.17108355462551117,0.2469010204076767,0.47494491934776306,0.07676035165786743,-0.8846642971038818,-0.22836408019065857,-0.48913881182670593,0.24752816557884216,-0.21046915650367737,0.2834829092025757,-0.23787808418273926,0.3656472861766815,0.13147680461406708,-0.42032015323638916,-0.9245290160179138,-0.6764786839485168,-0.41036027669906616,0.46593573689460754,-0.5355159044265747,-0.36049848794937134,0.2763271629810333,-0.7947220206260681,0.42328768968582153,0.14894145727157593,0.24923601746559143,0.6401200294494629,0.32596755027770996,-0.857430100440979,-0.18769621849060059,0.07376602292060852,0.08268596231937408,-0.1019122377038002,0.2391461580991745,0.9440910220146179,1.1641204357147217,0.850162148475647,0.8504635691642761,0.8673214912414551,0.10043811798095703,0.1652149260044098,-0.15017814934253693,-0.14564508199691772,-0.13368383049964905,-0.4574291408061981,-0.32685479521751404,0.7016085386276245,0.17090356349945068,0.339037150144577,0.07522732019424438
1.0594508647918701,0.891514003276825,0.900805652141571,0.6361842751502991,0.8844967484474182,0.22161680459976196,0.6936739087104797,-0.5306144952774048,1.2397165298461914,0.17295603454113007,0.32215186953544617,0.9464085698127747,0.3572532534599304,-0.8069116473197937,0.12192683666944504,0.31474214792251587,-0.7255845665931702,-0.5568066835403442,0.6640146970748901,0.3919745683670044,-1.1715705394744873,0.3377520740032196,-0.5574591755867004,-0.08398111909627914,-0.8851649165153503,-0.8179802298545837,-0.9947481155395508,-0.04378342255949974,0.5582091212272644,0.47740259766578674,-0.1996634304523468,0.9677829742431641,1.0374823808670044,1.0799965858459473,-0.27070459723472595,1.1808137893676758,0.913159191608429,0.0879063680768013,0.7085768580436707,0.7889925241470337,0.8660411238670349,-0.00652138888835907,0.4566701352596283,1.1198264360427856,0.36595115065574646,0.17256270349025726,0.34141576290130615,0.37654462456703186,-0.6733929514884949,-0.3950944244861603,-0.2408365160226822,0.1831248700618744,0.32306402921676636,0.2715161442756653,-0.2312057763338089,0.003293586429208517,0.2554033100605011,0.3304242193698883,0.07275217026472092,0.06604525446891785,0.8616139888763428,0.8638567924499512,0.8295089602470398,1.1041984558105469,0.8837009072303772,0.8423557877540588,1.1530755758285522,0.94295734167099,1.1474337577819824,0.9770498275756836,-0.13590317964553833,-0.09380432218313217,-0.1748569756746292,-0.12401135265827179,0.11593835800886154,-0.15937013924121857,0.15607205033302307,-0.12631136178970337,0.15964722633361816,-0.1420699506998062,0.004983933642506599,-0.30540719628334045,-0.8290385007858276,-0.1992713361978531,0.1571757048368454,0.17888233065605164,-0.6427997350692749,0.46318262815475464,-0.07122448831796646,-0.12421446293592453,0.04359826445579529,-0.3797813951969147,-0.36348751187324524,0.2223263829946518,0.9023008346557617,-0.17710480093955994,0.46599969267845154,-0.036501072347164154,-0.7453486323356628,0.21313801407814026,-0.3658358156681061,0.39692679047584534,0.16912759840488434,0.24931058287620544,0.4733749032020569,0.07887876778841019,-0.8854013681411743,-0.2293693572282791,-0.4897923469543457,0.24504488706588745,-0.211785227060318,0.2822432219982147,-0.23982460796833038,0.3680795133113861,0.13207395374774933,-0.4181451201438904,-0.9261135458946228,-0.6779541373252869,-0.4119361639022827,0.46346861124038696,-0.535062313079834,-0.360169380903244,0.2740473747253418,-0.792736291885376,0.42235666513442993,0.15073253214359283,0.25031474232673645,0.6399127840995789,0.3262690007686615,-0.8589967489242554,-0.18783308565616608,0.07392216473817825,0.08255793899297714,-0.10184188187122345,0.2391575127840042,0.9433827996253967,1.166011929512024,0.8490210175514221,0.8492336869239807,0.8667890429496765,0.10267080366611481,0.16689997911453247,-0.15136532485485077,-0.14672715961933136,-0.13412758708000183,-0.45694732666015625,-0.32857710123062134,0.7005400657653809,0.16951978206634521,0.3385007977485657,0.0741572380065918
1.0620181560516357,0.8935951590538025,0.8983274698257446,0.6340028047561646,0.8817705512046814,0.21994046866893768,0.6925883293151855,-0.531700074672699,1.240559458732605,0.17481082677841187,0.3229919970035553,0.9480493068695068,0.35914260149002075,-0.8046935796737671,0.12429958581924438,0.3125033378601074,-0.7269753217697144,-0.5583261847496033,0.6620806455612183,0.39311128854751587,-1.170538067817688,0.3380022644996643,-0.5575342774391174,-0.08614014089107513,-0.8866195678710938,-0.8187652230262756,-0.9954457879066467,-0.04446263983845711,0.5574470162391663,0.4764038324356079,-0.19908981025218964,0.9705385565757751,1.0401703119277954,1.076967477798462,-0.272040456533432,1.1811612844467163,0.9136782884597778,0.08986097574234009,0.7087454795837402,0.7880022525787354,0.8636557459831238,-0.0072626955807209015,0.4590977430343628,1.1218781471252441,0.36743786931037903,0.17471502721309662,0.3442525267601013,0.3785484731197357,-0.6710278391838074,-0.3924558460712433,-0.24080511927604675,0.183171346783638,0.32318753004074097,0.2714734375476837,-0.23117981851100922,0.003289026441052556,0.2553265392780304,0.33040499687194824,0.07271493226289749,0.06607002019882202,0.8616359233856201,0.8639196753501892,0.8267329335212708,1.1069862842559814,0.8834248781204224,0.8411952257156372,1.1544345617294312,0.9414365291595459,1.147742748260498,0.9750768542289734,-0.13626714050769806,-0.0916033685207367,-0.1776713877916336,-0.12386604398488998,0.11739487200975418,-0.1606399267911911,0.15719349682331085,-0.12742659449577332,0.16084691882133484,-0.1421307921409607,0.0037238076329231262,-0.30642881989479065,-0.8283789157867432,-0.20134606957435608,0.15842516720294952,0.17656168341636658,-0.6444246768951416,0.4620186984539032,-0.07266094535589218,-0.12135409563779831,0.04600680246949196,-0.3788262605667114,-0.361175000667572,0.21974720060825348,0.9029234051704407,-0.17961208522319794,0.46699970960617065,-0.034021396189928055,-0.7430810332298279,0.21583515405654907,-0.36661937832832336,0.39649084210395813,0.16722984611988068,0.2517235279083252,0.47172436118125916,0.08097875118255615,-0.8860588073730469,-0.230306938290596,-0.49033868312835693,0.24258780479431152,-0.21304644644260406,0.2810572385787964,-0.24171626567840576,0.37049248814582825,0.132712721824646,-0.41599947214126587,-0.9276442527770996,-0.6793774366378784,-0.413455605506897,0.46103280782699585,-0.5346817970275879,-0.359908789396286,0.2717715799808502,-0.7907379865646362,0.4214777946472168,0.1524997055530548,0.25134944915771484,0.6396146416664124,0.3264951705932617,-0.8605321049690247,-0.1881272792816162,0.07396084815263748,0.08251438289880753,-0.10180339217185974,0.23915229737758636,0.9425681829452515,1.1678565740585327,0.8479485511779785,0.8480578064918518,0.8663157820701599,0.10488175600767136,0.16850243508815765,-0.1524735689163208,-0.1477515995502472,-0.1344948261976242,-0.4563606083393097,-0.3302469849586487,0.6995365619659424,0.1681886464357376,0.33802157640457153,0.07318747788667679
1.0645774602890015,0.8956955075263977,0.8958542346954346,0.6318067908287048,0.8790389895439148,0.21817438304424286,0.6914947628974915,-0.5328013896942139,1.2413790225982666,0.1767837554216385,0.32381466031074524,0.949664831161499,0.361019492149353,-0.8024843335151672,0.12666302919387817,0.3102322816848755,-0.7283119559288025,-0.5597845315933228,0.6601800322532654,0.39441320300102234,-1.1693916320800781,0.3383522927761078,-0.5576122999191284,-0.08838389068841934,-0.888189435005188,-0.8194901347160339,-0.9960705637931824,-0.045059021562337875,0.5567641258239746,0.47548002004623413,-0.19858881831169128,0.9733175039291382,1.042826533317566,1.0739282369613647,-0.2735455334186554,1.181429147720337,0.9141582250595093,0.09178171306848526,0.709017276763916,0.7870475053787231,0.8612748384475708,-0.008055359125137329,0.4615232050418854,1.1239315271377563,0.3688476085662842,0.17691491544246674,0.3470785915851593,0.3806176483631134,-0.6686112880706787,-0.38978123664855957,-0.24076911807060242,0.18323394656181335,0.3233657479286194,0.27136150002479553,-0.23116670548915863,0.0032849274575710297,0.2552465796470642,0.33040377497673035,0.07269220054149628,0.06621217727661133,0.8617076277732849,0.8640648126602173,0.8239578008651733,1.109798789024353,0.8829889297485352,0.8401155471801758,1.155759334564209,0.939821183681488,1.147920846939087,0.9731694459915161,-0.1366351842880249,-0.08927618712186813,-0.18048030138015747,-0.1235215812921524,0.11868862807750702,-0.1618230640888214,0.15824122726917267,-0.12850748002529144,0.16195759177207947,-0.14206203818321228,0.0024831972550600767,-0.30741605162620544,-0.827634334564209,-0.20341172814369202,0.1596301645040512,0.17425070703029633,-0.6460270881652832,0.46087756752967834,-0.07406996935606003,-0.11849761009216309,0.04848632588982582,-0.37768179178237915,-0.3588780164718628,0.21716199815273285,0.9034723043441772,-0.18211917579174042,0.46822696924209595,-0.031479887664318085,-0.7406702637672424,0.21852315962314606,-0.36733657121658325,0.3961387574672699,0.16538840532302856,0.25413820147514343,0.4699992537498474,0.08306057006120682,-0.8866382241249084,-0.2311791032552719,-0.49078091979026794,0.2401570826768875,-0.2142547369003296,0.2799234092235565,-0.24355436861515045,0.3728864789009094,0.133387953042984,-0.4138824939727783,-0.9291227459907532,-0.6807499527931213,-0.41491979360580444,0.45862826704978943,-0.534371554851532,-0.3597141206264496,0.26949942111968994,-0.7887247204780579,0.42064762115478516,0.15424732863903046,0.25234177708625793,0.6392293572425842,0.32664844393730164,-0.8620404005050659,-0.18832416832447052,0.07401704788208008,0.08248633146286011,-0.10175023972988129,0.23917675018310547,0.9416592121124268,1.169655680656433,0.8469430804252625,0.8469340801239014,0.8658993244171143,0.1070566475391388,0.17002150416374207,-0.15350621938705444,-0.1487211436033249,-0.13478901982307434,-0.45567843317985535,-0.3318660259246826,0.6985964179039001,0.1669088453054428,0.3375973105430603,0.07231755554676056
1.0658533573150635,0.8967535495758057,0.8946186304092407,0.6307017207145691,0.8776710033416748,0.2172524482011795,0.690944254398346,-0.5333582758903503,1.2417776584625244,0.17782077193260193,0.32421520352363586,0.9504592418670654,0.3619505763053894,-0.8013857007026672,0.1278386414051056,0.30908462405204773,-0.7289520502090454,-0.5604789853096008,0.659247875213623,0.39514464139938354,-1.1687642335891724,0.3385743498802185,-0.5576531291007996,-0.08954416215419769,-0.8890278935432434,-0.8198281526565552,-0.9963483810424805,-0.045321274548769,0.5564581155776978,0.47505122423171997,-0.1983814835548401,0.9747070670127869,1.0441746711730957,1.0723884105682373,-0.2744157612323761,1.1815255880355835,0.9143809676170349,0.09272769838571548,0.7091999053955078,0.7865866422653198,0.8601035475730896,-0.008338013663887978,0.4627378284931183,1.124945878982544,0.3694639503955841,0.17803063988685608,0.3484831750392914,0.3816758096218109,-0.6673846244812012,-0.3884311318397522,-0.2407469004392624,0.1832757443189621,0.3234412968158722,0.2713199257850647,-0.2311418205499649,0.003280345816165209,0.2552129328250885,0.33039334416389465,0.07268461585044861,0.06630124896764755,0.8617662787437439,0.8641794919967651,0.8225729465484619,1.1112195253372192,0.8826666474342346,0.8396135568618774,1.1564005613327026,0.938974142074585,1.147952914237976,0.9722527265548706,-0.13682153820991516,-0.08805742114782333,-0.18188069760799408,-0.12325555831193924,0.119219571352005,-0.16237205266952515,0.15873593091964722,-0.12902788817882538,0.16246111690998077,-0.14195314049720764,0.0018746971618384123,-0.30789104104042053,-0.8272238969802856,-0.20444026589393616,0.1602107584476471,0.1731003224849701,-0.6468143463134766,0.4603208899497986,-0.07475804537534714,-0.11707404255867004,0.04973858222365379,-0.37706488370895386,-0.35774150490760803,0.21587499976158142,0.9037019610404968,-0.18336787819862366,0.4688971936702728,-0.030200401321053505,-0.7394200563430786,0.21986077725887299,-0.3676631450653076,0.39600345492362976,0.16449500620365143,0.2553456723690033,0.4691019356250763,0.08409253507852554,-0.886889636516571,-0.23158352077007294,-0.49095144867897034,0.23895499110221863,-0.2148333191871643,0.2793818414211273,-0.2444472312927246,0.3740740716457367,0.13374130427837372,-0.41283801198005676,-0.9298365712165833,-0.6814114451408386,-0.41562482714653015,0.4574415981769562,-0.5342501997947693,-0.35964837670326233,0.26836517453193665,-0.7877094745635986,0.42025506496429443,0.1551133096218109,0.25281763076782227,0.6389951705932617,0.3266899883747101,-0.862782895565033,-0.18837173283100128,0.07406173646450043,0.08246874064207077,-0.10172023624181747,0.23916512727737427,0.9411633610725403,1.1705323457717896,0.8464729189872742,0.846397340297699,0.865718424320221,0.1081198900938034,0.1707480251789093,-0.1539863497018814,-0.14917978644371033,-0.13490119576454163,-0.4552943706512451,-0.3326510488986969,0.6981571316719055,0.16629396378993988,0.33741164207458496,0.07193215191364288
1.0671260356903076,0.8978184461593628,0.893383264541626,0.6295900940895081,0.8763015270233154,0.21629630029201508,0.6903899312019348,-0.5339210033416748,1.2421660423278809,0.17890140414237976,0.3246046304702759,0.9512406587600708,0.36287441849708557,-0.8002933859825134,0.12900789082050323,0.3079274892807007,-0.7295637726783752,-0.5611401200294495,0.658333957195282,0.39594870805740356,-1.1680867671966553,0.33884015679359436,-0.557696521282196,-0.09073836356401443,-0.8899149894714355,-0.8201436400413513,-0.996593713760376,-0.04554951563477516,0.5561853647232056,0.4746537208557129,-0.19821766018867493,0.9760957360267639,1.0455390214920044,1.0708324909210205,-0.27538394927978516,1.1815873384475708,0.9145883917808533,0.09366140514612198,0.709425151348114,0.7861409783363342,0.8589485287666321,-0.008519589900970459,0.4639541506767273,1.1259499788284302,0.37000083923339844,0.1791582554578781,0.34987857937812805,0.3827524185180664,-0.6661435961723328,-0.38707172870635986,-0.2407187819480896,0.1833130568265915,0.3235132098197937,0.27138859033584595,-0.23112985491752625,0.003274862887337804,0.25516948103904724,0.33038878440856934,0.07268581539392471,0.06637206673622131,0.8618462085723877,0.8643320202827454,0.8211910128593445,1.112652063369751,0.8822466135025024,0.8391481637954712,1.1570215225219727,0.9380930066108704,1.1479300260543823,0.9713737964630127,-0.1370100975036621,-0.08679361641407013,-0.18327705562114716,-0.12290513515472412,0.11963893473148346,-0.16287942230701447,0.15920297801494598,-0.12952828407287598,0.16291563212871552,-0.14176711440086365,0.0012781718978658319,-0.30834779143333435,-0.8267788887023926,-0.20546507835388184,0.16077077388763428,0.17195473611354828,-0.6475873589515686,0.45977845788002014,-0.07542943209409714,-0.11565623432397842,0.05100388452410698,-0.3764033615589142,-0.35661593079566956,0.21459248661994934,0.9038895964622498,-0.18461254239082336,0.4696239233016968,-0.028911419212818146,-0.7381283044815063,0.22119231522083282,-0.3679596185684204,0.3959067165851593,0.16362707316875458,0.2565530836582184,0.468172550201416,0.08511631190776825,-0.8871047496795654,-0.23195815086364746,-0.4910741448402405,0.23776540160179138,-0.21538804471492767,0.2788640558719635,-0.24531565606594086,0.37525302171707153,0.13410857319831848,-0.41180649399757385,-0.9305266737937927,-0.6820498108863831,-0.41630446910858154,0.45626965165138245,-0.5341604351997375,-0.35961219668388367,0.2672325670719147,-0.7866854071617126,0.4198831021785736,0.15597298741340637,0.25327473878860474,0.6387220621109009,0.3266986012458801,-0.8635153770446777,-0.18840022385120392,0.07411882281303406,0.08241673558950424,-0.101691834628582,0.23916926980018616,0.9406307935714722,1.1713879108428955,0.8460333943367004,0.8458840250968933,0.865563154220581,0.10915764421224594,0.17144285142421722,-0.1544327288866043,-0.14961421489715576,-0.13498066365718842,-0.45487141609191895,-0.333413302898407,0.6977468132972717,0.16570250689983368,0.33725082874298096,0.07159394770860672
