hidden1.weight_weight_0,hidden1.weight_weight_1,hidden1.weight_weight_2,hidden1.weight_weight_3,hidden1.weight_weight_4,hidden1.weight_weight_5,hidden1.weight_weight_6,hidden1.weight_weight_7,hidden1.weight_weight_8,hidden1.weight_weight_9,hidden1.weight_weight_10,hidden1.weight_weight_11,hidden1.weight_weight_12,hidden1.weight_weight_13,hidden1.weight_weight_14,hidden1.weight_weight_15,hidden1.weight_weight_16,hidden1.weight_weight_17,hidden1.weight_weight_18,hidden1.weight_weight_19,hidden1.weight_weight_20,hidden1.weight_weight_21,hidden1.weight_weight_22,hidden1.weight_weight_23,hidden1.weight_weight_24,hidden1.weight_weight_25,hidden1.weight_weight_26,hidden1.weight_weight_27,hidden1.weight_weight_28,hidden1.weight_weight_29,hidden1.weight_weight_30,hidden1.weight_weight_31,hidden1.weight_weight_32,hidden1.weight_weight_33,hidden1.weight_weight_34,hidden1.weight_weight_35,hidden1.weight_weight_36,hidden1.weight_weight_37,hidden1.weight_weight_38,hidden1.weight_weight_39,hidden1.weight_weight_40,hidden1.weight_weight_41,hidden1.weight_weight_42,hidden1.weight_weight_43,hidden1.weight_weight_44,hidden1.weight_weight_45,hidden1.weight_weight_46,hidden1.weight_weight_47,hidden1.weight_weight_48,hidden1.weight_weight_49,hidden1.bias_weight_0,hidden1.bias_weight_1,hidden1.bias_weight_2,hidden1.bias_weight_3,hidden1.bias_weight_4,hidden1.bias_weight_5,hidden1.bias_weight_6,hidden1.bias_weight_7,hidden1.bias_weight_8,hidden1.bias_weight_9,bn1.weight_weight_0,bn1.weight_weight_1,bn1.weight_weight_2,bn1.weight_weight_3,bn1.weight_weight_4,bn1.weight_weight_5,bn1.weight_weight_6,bn1.weight_weight_7,bn1.weight_weight_8,bn1.weight_weight_9,bn1.bias_weight_0,bn1.bias_weight_1,bn1.bias_weight_2,bn1.bias_weight_3,bn1.bias_weight_4,bn1.bias_weight_5,bn1.bias_weight_6,bn1.bias_weight_7,bn1.bias_weight_8,bn1.bias_weight_9,hidden2.weight_weight_0,hidden2.weight_weight_1,hidden2.weight_weight_2,hidden2.weight_weight_3,hidden2.weight_weight_4,hidden2.weight_weight_5,hidden2.weight_weight_6,hidden2.weight_weight_7,hidden2.weight_weight_8,hidden2.weight_weight_9,hidden2.weight_weight_10,hidden2.weight_weight_11,hidden2.weight_weight_12,hidden2.weight_weight_13,hidden2.weight_weight_14,hidden2.weight_weight_15,hidden2.weight_weight_16,hidden2.weight_weight_17,hidden2.weight_weight_18,hidden2.weight_weight_19,hidden2.weight_weight_20,hidden2.weight_weight_21,hidden2.weight_weight_22,hidden2.weight_weight_23,hidden2.weight_weight_24,hidden2.weight_weight_25,hidden2.weight_weight_26,hidden2.weight_weight_27,hidden2.weight_weight_28,hidden2.weight_weight_29,hidden2.weight_weight_30,hidden2.weight_weight_31,hidden2.weight_weight_32,hidden2.weight_weight_33,hidden2.weight_weight_34,hidden2.weight_weight_35,hidden2.weight_weight_36,hidden2.weight_weight_37,hidden2.weight_weight_38,hidden2.weight_weight_39,hidden2.weight_weight_40,hidden2.weight_weight_41,hidden2.weight_weight_42,hidden2.weight_weight_43,hidden2.weight_weight_44,hidden2.weight_weight_45,hidden2.weight_weight_46,hidden2.weight_weight_47,hidden2.weight_weight_48,hidden2.weight_weight_49,hidden2.bias_weight_0,hidden2.bias_weight_1,hidden2.bias_weight_2,hidden2.bias_weight_3,hidden2.bias_weight_4,bn2.weight_weight_0,bn2.weight_weight_1,bn2.weight_weight_2,bn2.weight_weight_3,bn2.weight_weight_4,bn2.bias_weight_0,bn2.bias_weight_1,bn2.bias_weight_2,bn2.bias_weight_3,bn2.bias_weight_4,output.weight_weight_0,output.weight_weight_1,output.weight_weight_2,output.weight_weight_3,output.weight_weight_4,output.bias_weight_0
-0.7954107522964478,-0.23782913386821747,-0.12331009656190872,0.7252576947212219,0.40591225028038025,-0.8121377229690552,-0.14013981819152832,0.8771229982376099,-0.6429967880249023,0.7119742035865784,0.992401123046875,0.8219394087791443,-1.0351862907409668,-0.6878796219825745,-0.21228355169296265,0.4735322594642639,0.4911220967769623,0.5384608507156372,0.35357481241226196,-0.7347344160079956,-0.03332015872001648,0.13651621341705322,0.7473111748695374,0.8462612628936768,0.011113781481981277,-0.963580846786499,0.2989736497402191,0.9011216759681702,0.54534512758255,0.2911120653152466,0.08349127322435379,0.895147979259491,0.5589624643325806,0.967616081237793,-1.0990177392959595,-1.0568926334381104,0.48839765787124634,-0.49599844217300415,-0.7658436894416809,0.4192425608634949,0.9833473563194275,-0.4386945366859436,-0.8943418860435486,0.7953906655311584,0.18748509883880615,-0.5694776773452759,0.3755122125148773,0.874203085899353,-0.3479984700679779,-0.9609631896018982,0.09252792596817017,0.39208221435546875,-0.42626115679740906,-0.0929325520992279,0.34923404455184937,0.0030807284638285637,-0.027292540296912193,-0.1729176789522171,-0.237058624625206,-0.42660558223724365,1.0098999738693237,1.0098999738693237,1.0098999738693237,0.9898999929428101,1.0098999738693237,1.0098999738693237,1.0098999738693237,0.9898999929428101,0.9898999929428101,1.0098999738693237,-0.009999978356063366,-0.009999983012676239,0.009999997913837433,-0.009999995119869709,0.009999996051192284,0.009999998845160007,0.009999995119869709,-0.009999996982514858,-0.009999998845160007,-0.009999988600611687,-0.5013267397880554,-0.6631738543510437,-0.2462403029203415,0.2579900026321411,0.19969022274017334,-0.07399872690439224,0.32555463910102844,-0.36716702580451965,0.7470189332962036,0.7347167730331421,-0.04336116835474968,0.07610811293125153,0.5142489075660706,0.5265900492668152,-0.6438198685646057,-0.0508127324283123,-0.1587144434452057,-0.6913213133811951,-0.6366935968399048,0.7745204567909241,-0.45784828066825867,-0.34914225339889526,0.20127378404140472,0.0725051611661911,-0.5628213286399841,0.6997852325439453,-0.17855365574359894,0.25483790040016174,-0.16491763293743134,0.16237466037273407,-0.5688197612762451,-0.6878917217254639,0.13505524396896362,0.48980334401130676,0.10573828220367432,-0.3804447650909424,0.34896183013916016,0.330911248922348,0.6383024454116821,-0.5011546611785889,0.280808687210083,0.23823648691177368,0.7518053650856018,0.08674547076225281,-0.2964265048503876,-0.5885552167892456,-0.5572299361228943,-0.6668440103530884,0.3040629029273987,-0.10050151497125626,0.26155614852905273,-0.18649843335151672,0.23082657158374786,-0.23519518971443176,0.007762175984680653,0.9898999929428101,0.9898999929428101,0.9898999929428101,0.9898999929428101,0.9898999929428101,-0.009999998845160007,-0.009999987669289112,-0.009999378584325314,-0.009999999776482582,-0.009999999776482582,-0.23344846069812775,-0.13974788784980774,-0.07277554273605347,-0.6883808374404907,-0.7734964489936829,0.29872533679008484
-0.7853195071220398,-0.2278069108724594,-0.11329234391450882,0.7351959943771362,0.4158831834793091,-0.8020445704460144,-0.13013127446174622,0.8870484232902527,-0.6330193281173706,0.7216540575027466,0.9822999238967896,0.8118781447410583,-1.0450698137283325,-0.6977891325950623,-0.2222689539194107,0.4634714424610138,0.5010247826576233,0.5483910441398621,0.34381377696990967,-0.7446480989456177,-0.032783813774585724,0.12958303093910217,0.7372262477874756,0.8561848402023315,0.017841186374425888,-0.9715202450752258,0.28893038630485535,0.8914496898651123,0.5551000833511353,0.30108755826950073,0.09198151528835297,0.8854714035987854,0.5489275455474854,0.9575454592704773,-1.108920693397522,-1.0665925741195679,0.4983483552932739,-0.4861244559288025,-0.7557539343833923,0.4292140305042267,0.9929112792015076,-0.42864441871643066,-0.8861090540885925,0.7858919501304626,0.1776096224784851,-0.5793581604957581,0.36562052369117737,0.8839746713638306,-0.33820080757141113,-0.9509073495864868,0.09338489174842834,0.39314815402030945,-0.4240224063396454,-0.09356243908405304,0.3496130108833313,0.0026050906162708998,-0.02728980965912342,-0.17618334293365479,-0.2375432401895523,-0.42713209986686707,1.0193449258804321,1.0197875499725342,1.0194578170776367,0.9798175096511841,1.0197888612747192,1.0198112726211548,1.019710898399353,0.9798040390014648,0.9798206090927124,1.0193297863006592,-0.01928924210369587,-0.019770395010709763,0.019964493811130524,-0.02001112885773182,0.019992144778370857,0.019997743889689445,0.019871801137924194,-0.019985318183898926,-0.020008087158203125,-0.019952038303017616,-0.5112875699996948,-0.6731012463569641,-0.25622794032096863,0.24807697534561157,0.18970389664173126,-0.08398280292749405,0.31622636318206787,-0.35713475942611694,0.7369422316551208,0.7446556687355042,-0.05332811921834946,0.08592158555984497,0.5042018890380859,0.5165545344352722,-0.6537365913391113,-0.06079757586121559,-0.16869963705539703,-0.6812687516212463,-0.6465908288955688,0.7844205498695374,-0.4483298361301422,-0.33909472823143005,0.19128693640232086,0.06257784366607666,-0.5721958875656128,0.6903785467147827,-0.18847134709358215,0.264747679233551,-0.17476797103881836,0.17213983833789825,-0.5785954594612122,-0.6978138089179993,0.12585346400737762,0.4913005530834198,0.09571639448404312,-0.39039933681488037,0.3533409833908081,0.34089112281799316,0.628275990486145,-0.4911922514438629,0.27076783776283264,0.22820448875427246,0.7616308927536011,0.07679209858179092,-0.30639854073524475,-0.5985092520713806,-0.5671365857124329,-0.6567738652229309,0.29404526948928833,-0.09052057564258575,0.2586077153682709,-0.187113419175148,0.23132647573947906,-0.2410677820444107,-9.70582477748394e-05,0.9798449873924255,0.9799015522003174,0.9811720848083496,0.9798226356506348,0.9798271656036377,-0.019948337227106094,-0.019824311137199402,-0.005138102453202009,-0.019968770444393158,-0.01995856687426567,-0.22345776855945587,-0.12979646027088165,-0.063958540558815,-0.6783358454704285,-0.7634473443031311,0.3086833953857422
-0.7752378582954407,-0.21781744062900543,-0.10326492041349411,0.7451318502426147,0.4258754253387451,-0.7919678092002869,-0.12014942616224289,0.8969713449478149,-0.622983992099762,0.7314595580101013,0.9722005128860474,0.8018449544906616,-1.0549553632736206,-0.707627534866333,-0.2322390079498291,0.4534085690975189,0.5107567310333252,0.5580902695655823,0.33392640948295593,-0.753715991973877,-0.038211215287446976,0.12131636589765549,0.7272369265556335,0.8660241961479187,0.02581493929028511,-0.972203254699707,0.2789454758167267,0.8828524947166443,0.5646840929985046,0.31095701456069946,0.09390189498662949,0.8760204315185547,0.5388621091842651,0.9483433365821838,-1.1183953285217285,-1.0760730504989624,0.5082749724388123,-0.4761554002761841,-0.745644748210907,0.4392070472240448,1.0024713277816772,-0.4185788929462433,-0.8770862221717834,0.7778676152229309,0.16776207089424133,-0.5889646410942078,0.3583037555217743,0.8938297033309937,-0.32834336161613464,-0.9408353567123413,0.09475717693567276,0.39294934272766113,-0.4225338101387024,-0.09441488236188889,0.3500027358531952,0.0018720438238233328,-0.027039330452680588,-0.1774912178516388,-0.23647044599056244,-0.4276074171066284,1.0285717248916626,1.029670238494873,1.02839195728302,0.9697046875953674,1.029512643814087,1.0297396183013916,1.0293934345245361,0.9697536826133728,0.96976637840271,1.028894305229187,-0.028505295515060425,-0.029583480209112167,0.029969580471515656,-0.030042365193367004,0.029856499284505844,0.029982320964336395,0.02963600680232048,-0.029907535761594772,-0.030034735798835754,-0.029944168403744698,-0.5211801528930664,-0.6830582022666931,-0.26615211367607117,0.23834393918514252,0.17979475855827332,-0.09393662214279175,0.30715882778167725,-0.3470775783061981,0.7269037365913391,0.7545987963676453,-0.06318464130163193,0.09560523182153702,0.4941542148590088,0.5065992474555969,-0.6635077595710754,-0.0706796944141388,-0.17863701283931732,-0.6712517142295837,-0.6564329266548157,0.7942902445793152,-0.4390649199485779,-0.32907673716545105,0.181386336684227,0.05289303511381149,-0.5781581401824951,0.6831468939781189,-0.19813857972621918,0.2744823694229126,-0.18435998260974884,0.18168072402477264,-0.588375449180603,-0.7077385187149048,0.11629115045070648,0.48739302158355713,0.08569502830505371,-0.4003828167915344,0.34984487295150757,0.35089197754859924,0.61823570728302,-0.4811848998069763,0.2607060670852661,0.21820589900016785,0.771253228187561,0.06687159091234207,-0.3163295388221741,-0.6084675192832947,-0.5770215392112732,-0.6467176675796509,0.28410571813583374,-0.08050081878900528,0.25636711716651917,-0.18727365136146545,0.2320091426372528,-0.24737025797367096,-0.006999506149441004,0.9698757529258728,0.9701089859008789,0.9757187962532043,0.9697869420051575,0.9698046445846558,-0.029742129147052765,-0.029372459277510643,0.002266273368149996,-0.02989029884338379,-0.029784010723233223,-0.21353119611740112,-0.11998101323843002,-0.05880637839436531,-0.6683363318443298,-0.7534512877464294,0.3186178207397461
-0.7651985287666321,-0.20794253051280975,-0.09325550496578217,0.755042552947998,0.43587467074394226,-0.7818989157676697,-0.11020419001579285,0.9068512916564941,-0.6129589676856995,0.7412476539611816,0.9620799422264099,0.7918100357055664,-1.064847469329834,-0.7174537181854248,-0.24223092198371887,0.44334742426872253,0.5204666256904602,0.567543089389801,0.32412633299827576,-0.7631192803382874,-0.04552581161260605,0.11254880577325821,0.7172030806541443,0.8758975863456726,0.03453395888209343,-0.9665393233299255,0.2701369524002075,0.8782690167427063,0.574161171913147,0.32072946429252625,0.09209762513637543,0.86631178855896,0.5287596583366394,0.9387956261634827,-1.128051996231079,-1.0851874351501465,0.5182079076766968,-0.4668077230453491,-0.7355767488479614,0.44910183548927307,1.0119173526763916,-0.4085351526737213,-0.8687892556190491,0.7698380947113037,0.1578240692615509,-0.5954369902610779,0.3624764382839203,0.9029741287231445,-0.31868764758110046,-0.9307382702827454,0.09608127176761627,0.3919488787651062,-0.42101454734802246,-0.0950242355465889,0.35027122497558594,0.0028778149280697107,-0.027243852615356445,-0.17864638566970825,-0.23441119492053986,-0.4287911057472229,1.0379160642623901,1.0395989418029785,1.0348141193389893,0.9596564173698425,1.0391887426376343,1.0396897792816162,1.0389325618743896,0.9597241282463074,0.9597155451774597,1.0386074781417847,-0.03750276193022728,-0.03950047865509987,0.03991863876581192,-0.040104903280735016,0.03967584669589996,0.039953142404556274,0.03932521492242813,-0.03979698568582535,-0.04009169340133667,-0.03988337889313698,-0.5308274030685425,-0.6930444240570068,-0.2756209969520569,0.22856839001178741,0.16984166204929352,-0.1039426326751709,0.2978975772857666,-0.3369923532009125,0.7169497609138489,0.7645285129547119,-0.07284751534461975,0.10529078543186188,0.4841075539588928,0.4968472421169281,-0.6728107333183289,-0.08023705333471298,-0.18839290738105774,-0.6612924933433533,-0.6662077903747559,0.8041192889213562,-0.43111178278923035,-0.31910398602485657,0.17159219086170197,0.04355507716536522,-0.5787279605865479,0.6801111698150635,-0.2074073702096939,0.2839702069759369,-0.19365234673023224,0.19121679663658142,-0.5981900095939636,-0.717669665813446,0.10656227171421051,0.48075631260871887,0.07568977773189545,-0.41040104627609253,0.3433647155761719,0.36090826988220215,0.6081653833389282,-0.47121933102607727,0.2506418228149414,0.20868587493896484,0.7802684307098389,0.056934140622615814,-0.3262854218482971,-0.6184201836585999,-0.5869350433349609,-0.636631190776825,0.2741895914077759,-0.0704578161239624,0.25516510009765625,-0.1873108446598053,0.23286841809749603,-0.25222644209861755,-0.012464901432394981,0.960043728351593,0.960649847984314,0.9744886755943298,0.9598219394683838,0.9598584175109863,-0.03934827074408531,-0.03858451172709465,0.010653907433152199,-0.03972306847572327,-0.03942212834954262,-0.2037096917629242,-0.11040028929710388,-0.05876633897423744,-0.6584128141403198,-0.7435345649719238,0.32851743698120117
-0.7551028728485107,-0.1979769468307495,-0.08319154381752014,0.7650127410888672,0.44591817259788513,-0.7718102931976318,-0.10027962177991867,0.9166973829269409,-0.602958619594574,0.7510229349136353,0.951917290687561,0.7818189859390259,-1.074747920036316,-0.7272675633430481,-0.25226670503616333,0.43328624963760376,0.5299176573753357,0.5765199661254883,0.3142245411872864,-0.7725052833557129,-0.053763389587402344,0.10365675389766693,0.7071077227592468,0.8858361840248108,0.04369748756289482,-0.9592388868331909,0.26373159885406494,0.8757871985435486,0.5837445259094238,0.3304399847984314,0.08856361359357834,0.856439471244812,0.5186169743537903,0.9290281534194946,-1.137831687927246,-1.0941400527954102,0.5275427103042603,-0.45830249786376953,-0.7255855798721313,0.45892006158828735,1.0213494300842285,-0.39850178360939026,-0.8598841428756714,0.7625790238380432,0.14789016544818878,-0.6005431413650513,0.36849576234817505,0.9124053716659546,-0.3088800609111786,-0.9205858707427979,0.09723997861146927,0.39116644859313965,-0.4206073582172394,-0.09486321359872818,0.35030317306518555,0.003321716794744134,-0.027292529121041298,-0.1793741136789322,-0.2319997251033783,-0.4300537407398224,1.047464370727539,1.0495684146881104,1.039247751235962,0.9495369791984558,1.0486629009246826,1.0496329069137573,1.0483448505401611,0.9497573971748352,0.9496620893478394,1.0483086109161377,-0.04481048882007599,-0.04924120008945465,0.04979630559682846,-0.050192561000585556,0.04927314072847366,0.049913931638002396,0.04900173097848892,-0.049504831433296204,-0.05018991976976395,-0.049844373017549515,-0.5403459668159485,-0.7030105590820312,-0.2848314940929413,0.21866336464881897,0.15981195867061615,-0.11399652063846588,0.288363516330719,-0.32688212394714355,0.7070344686508179,0.7744439840316772,-0.08239272981882095,0.11429116129875183,0.4741028845310211,0.48752719163894653,-0.6812978982925415,-0.08952087163925171,-0.19765432178974152,-0.6514768004417419,-0.6758072972297668,0.8138546943664551,-0.4259669780731201,-0.3092080056667328,0.1618693619966507,0.03460163250565529,-0.5754295587539673,0.6807677745819092,-0.21618103981018066,0.29322731494903564,-0.2026834487915039,0.20084784924983978,-0.6080487370491028,-0.7275996208190918,0.09672881662845612,0.472914457321167,0.06565498560667038,-0.4204601049423218,0.3356395363807678,0.370967835187912,0.5980642437934875,-0.4612198770046234,0.24059909582138062,0.20011292397975922,0.7887691259384155,0.04700024798512459,-0.33619290590286255,-0.6282936930656433,-0.5968669056892395,-0.626533031463623,0.26432281732559204,-0.060375675559043884,0.2542486786842346,-0.18736834824085236,0.23351232707500458,-0.25630712509155273,-0.018148241564631462,0.9504095911979675,0.9516669511795044,0.9768317341804504,0.9499660134315491,0.9500198364257812,-0.04869155213236809,-0.04679600149393082,0.01939260959625244,-0.049433812499046326,-0.048814449459314346,-0.19404283165931702,-0.10117606073617935,-0.06240160018205643,-0.6486055254936218,-0.733728289604187,0.3383702039718628
-0.7449398040771484,-0.18792268633842468,-0.07306778430938721,0.7750464677810669,0.45599883794784546,-0.7617732286453247,-0.09047951549291611,0.9264470338821411,-0.5930230021476746,0.7606843709945679,0.9417270421981812,0.7718427777290344,-1.0846333503723145,-0.737057626247406,-0.26235800981521606,0.4232342541217804,0.5391198396682739,0.5849530696868896,0.3042461574077606,-0.7820639610290527,-0.06255235522985458,0.09470847994089127,0.6969462633132935,0.8958319425582886,0.05315335467457771,-0.9510498642921448,0.2602567970752716,0.8758902549743652,0.5934668183326721,0.34013307094573975,0.08419056236743927,0.8464888334274292,0.5084681510925293,0.9191176891326904,-1.1476725339889526,-1.1022448539733887,0.5367817878723145,-0.45059695839881897,-0.7156920433044434,0.4686528444290161,1.0309205055236816,-0.3883924186229706,-0.8509259223937988,0.7565410137176514,0.13795678317546844,-0.6058241128921509,0.3739868104457855,0.9216597080230713,-0.2996114194393158,-0.9105730056762695,0.09856069833040237,0.3911812901496887,-0.4205929934978485,-0.09473319351673126,0.35059672594070435,0.003123219357803464,-0.02751469984650612,-0.18028515577316284,-0.22945274412631989,-0.430376797914505,1.0571626424789429,1.0595273971557617,1.040823221206665,0.9394038915634155,1.0579557418823242,1.0595426559448242,1.0576095581054688,0.939907431602478,0.9396224617958069,1.0579653978347778,-0.049744702875614166,-0.059068918228149414,0.059597574174404144,-0.06024597957730293,0.05856354162096977,0.05985201150178909,0.058684445917606354,-0.059074804186820984,-0.06031760573387146,-0.059328220784664154,-0.5497326254844666,-0.7128899693489075,-0.29331061244010925,0.20866774022579193,0.14971445500850677,-0.124080128967762,0.2786213159561157,-0.3167755603790283,0.6971637606620789,0.7843235731124878,-0.09189538657665253,0.11962496489286423,0.4642004668712616,0.47884127497673035,-0.6883562207221985,-0.09831641614437103,-0.20610590279102325,-0.6418644189834595,-0.685133695602417,0.8234807252883911,-0.4272848665714264,-0.2993917465209961,0.15217870473861694,0.026109522208571434,-0.5697051286697388,0.6843169927597046,-0.224229097366333,0.30225038528442383,-0.21146808564662933,0.21064680814743042,-0.617916464805603,-0.7374720573425293,0.08689291030168533,0.46441367268562317,0.055551834404468536,-0.4305342435836792,0.32718732953071594,0.381040096282959,0.5879518389701843,-0.4511891305446625,0.23059815168380737,0.1924707442522049,0.7964087724685669,0.03713767230510712,-0.3460482358932495,-0.6380738019943237,-0.6067689657211304,-0.6164680123329163,0.25451815128326416,-0.05026677995920181,0.25409990549087524,-0.18744826316833496,0.2342798262834549,-0.2580111622810364,-0.023035962134599686,0.9410465955734253,0.9433110952377319,0.9816772937774658,0.940266489982605,0.9403272867202759,-0.05773847922682762,-0.05393939092755318,0.02839752659201622,-0.058990348130464554,-0.05791235715150833,-0.18459607660770416,-0.09246988594532013,-0.06821002811193466,-0.6389642357826233,-0.72407066822052,0.3481612503528595
-0.7348206639289856,-0.1779157817363739,-0.063124880194664,0.7849564552307129,0.4659280776977539,-0.7517551183700562,-0.08061951398849487,0.9361411929130554,-0.5830355286598206,0.7703808546066284,0.9315478801727295,0.761936366558075,-1.0944368839263916,-0.7467641830444336,-0.2724934220314026,0.41320884227752686,0.5479468703269958,0.5927751660346985,0.29418790340423584,-0.791790783405304,-0.07173836976289749,0.08539506047964096,0.6868124604225159,0.9057053923606873,0.0628347247838974,-0.9422671794891357,0.2590591311454773,0.8789021372795105,0.6033355593681335,0.3497002124786377,0.08039779216051102,0.8365182280540466,0.49837368726730347,0.9090768694877625,-1.157554030418396,-1.1093307733535767,0.5458055734634399,-0.4437025189399719,-0.7060755491256714,0.4781096875667572,1.040665864944458,-0.37821611762046814,-0.8420347571372986,0.7517972588539124,0.12801127135753632,-0.6091962456703186,0.38036835193634033,0.9311419725418091,-0.2902129888534546,-0.9005681276321411,0.09978777170181274,0.3911864757537842,-0.42113399505615234,-0.09493936598300934,0.35087019205093384,0.0032598429825156927,-0.02761116437613964,-0.18082714080810547,-0.22864188253879547,-0.430777907371521,1.066989541053772,1.0694365501403809,1.0398098230361938,0.9292767643928528,1.0669642686843872,1.0694016218185425,1.0665123462677002,0.9304406046867371,0.9296121001243591,1.0663551092147827,-0.047864265739917755,-0.06812162697315216,0.06931500136852264,-0.07025420665740967,0.06726861000061035,0.06975100189447403,0.06827018409967422,-0.0683826431632042,-0.07044694572687149,-0.06878950446844101,-0.558948814868927,-0.7225756645202637,-0.30073001980781555,0.1986479014158249,0.1395748108625412,-0.13415201008319855,0.26874274015426636,-0.30671966075897217,0.6873522400856018,0.7941396236419678,-0.10132738202810287,0.12178193777799606,0.45445680618286133,0.4710316061973572,-0.6937037110328674,-0.1066000759601593,-0.21329176425933838,-0.6325622797012329,-0.6940622925758362,0.8329470157623291,-0.4318448007106781,-0.28973203897476196,0.14249223470687866,0.018177486956119537,-0.562577486038208,0.6898093819618225,-0.23123310506343842,0.3110385835170746,-0.22001352906227112,0.220550999045372,-0.6278327107429504,-0.7472795248031616,0.07723316550254822,0.455437034368515,0.04537932574748993,-0.4406324028968811,0.3182274401187897,0.391152560710907,0.5778253078460693,-0.4410647451877594,0.22072339057922363,0.18518096208572388,0.8030199408531189,0.027458960190415382,-0.3557920455932617,-0.6477084755897522,-0.6165505051612854,-0.6064967513084412,0.24485333263874054,-0.04015464335680008,0.2545434236526489,-0.18759700655937195,0.23472380638122559,-0.26010721921920776,-0.02721148356795311,0.9320444464683533,0.9357354044914246,0.9881281852722168,0.9307854771614075,0.9308274984359741,-0.06642593443393707,-0.05936793237924576,0.03755709156394005,-0.06826527416706085,-0.06667383015155792,-0.17545568943023682,-0.08448128402233124,-0.07532765716314316,-0.6295485496520996,-0.7146081328392029,0.35787445306777954
-0.72475266456604,-0.1679953634738922,-0.05344245210289955,0.7947171926498413,0.4756833612918854,-0.74197918176651,-0.07108607888221741,0.9455049633979797,-0.5731863975524902,0.7799376845359802,0.9214286804199219,0.7521589398384094,-1.1040704250335693,-0.7563418745994568,-0.2826482951641083,0.40322601795196533,0.5564348101615906,0.5999225378036499,0.28406521677970886,-0.8016759753227234,-0.08112403750419617,0.0758141279220581,0.6766975522041321,0.9153782725334167,0.0726860985159874,-0.933246910572052,0.2588522136211395,0.8828011751174927,0.6132323741912842,0.3586317300796509,0.07456056773662567,0.8265161514282227,0.48819825053215027,0.8990069031715393,-1.1675488948822021,-1.116142988204956,0.5544654726982117,-0.43751752376556396,-0.6967041492462158,0.48721298575401306,1.0505590438842773,-0.3679650127887726,-0.8330780863761902,0.7495870590209961,0.11850254237651825,-0.6108397245407104,0.38732829689979553,0.9407916069030762,-0.2806137204170227,-0.8906105756759644,0.10051635652780533,0.39105188846588135,-0.42118707299232483,-0.09489306062459946,0.35116657614707947,0.00358976935967803,-0.027841970324516296,-0.18132519721984863,-0.22711612284183502,-0.4306390583515167,1.0769438743591309,1.0792744159698486,1.037000298500061,0.9192070364952087,1.0754070281982422,1.0791752338409424,1.0747202634811401,0.9216609001159668,0.9196742177009583,1.0721195936203003,-0.04315844178199768,-0.07529308646917343,0.07893159985542297,-0.08017714321613312,0.0749916359782219,0.07960210740566254,0.07735579460859299,-0.07713358849287033,-0.08057107776403427,-0.07848566770553589,-0.5679124593734741,-0.7319560647010803,-0.3070615530014038,0.18867896497249603,0.12944018840789795,-0.14414986968040466,0.2588064670562744,-0.2967859208583832,0.677635908126831,0.8038437366485596,-0.1106269508600235,0.12187525629997253,0.44491273164749146,0.46417859196662903,-0.6971815824508667,-0.11414293199777603,-0.219084694981575,-0.6236656308174133,-0.7025460600852966,0.8422039151191711,-0.4381333887577057,-0.2810576558113098,0.13278399407863617,0.010856658220291138,-0.5545666813850403,0.6960442066192627,-0.23700740933418274,0.3196216821670532,-0.22840693593025208,0.23053614795207977,-0.6378004550933838,-0.757013738155365,0.06773752719163895,0.44613227248191833,0.0351392924785614,-0.4507475793361664,0.30889585614204407,0.40127477049827576,0.5676928162574768,-0.4308468997478485,0.21092438697814941,0.1778535395860672,0.8087445497512817,0.01818075403571129,-0.36525362730026245,-0.6571563482284546,-0.6260167360305786,-0.5967288017272949,0.23550555109977722,-0.030078060925006866,0.2549422085285187,-0.18783365190029144,0.23497523367404938,-0.2624797224998474,-0.031414903700351715,0.9235033392906189,0.9290751814842224,0.9956291913986206,0.9215983748435974,0.9215705394744873,-0.0746615082025528,-0.06285162270069122,0.04663216322660446,-0.07713066041469574,-0.07505659759044647,-0.16672559082508087,-0.0774497240781784,-0.08330720663070679,-0.6204302310943604,-0.7053901553153992,0.36748895049095154
-0.7147846221923828,-0.15828725695610046,-0.04416225478053093,0.8042610883712769,0.4851820468902588,-0.733128547668457,-0.06286636739969254,0.9539100527763367,-0.5638824105262756,0.78899085521698,0.9112547636032104,0.7423214316368103,-1.1137171983718872,-0.7659174203872681,-0.2928836941719055,0.3932989537715912,0.5646392107009888,0.6063786149024963,0.2738810181617737,-0.8116886615753174,-0.09071115404367447,0.0661153793334961,0.6665083765983582,0.9249552488327026,0.08259060978889465,-0.92397141456604,0.2595755457878113,0.8875751495361328,0.6232057213783264,0.3669862151145935,0.06790080666542053,0.8167818784713745,0.47821933031082153,0.8887999057769775,-1.1775665283203125,-1.1226496696472168,0.5627585649490356,-0.4318651556968689,-0.6875622868537903,0.4960114061832428,1.0605788230895996,-0.35763028264045715,-0.8238213658332825,0.7499800324440002,0.10946246981620789,-0.6101124882698059,0.39518052339553833,0.9506303668022156,-0.27078568935394287,-0.8805567622184753,0.10096409916877747,0.39093202352523804,-0.42158249020576477,-0.09511774778366089,0.351480633020401,0.0040715415962040424,-0.027964284643530846,-0.1818038523197174,-0.22645626962184906,-0.4303010106086731,1.0870157480239868,1.088928461074829,1.0326449871063232,0.9092558026313782,1.0835767984390259,1.088922142982483,1.0823662281036377,0.9131781458854675,0.9098143577575684,1.0745586156845093,-0.03675452247262001,-0.07991103827953339,0.08859949558973312,-0.08998177200555801,0.0819779559969902,0.08948161453008652,0.08621654659509659,-0.08547224849462509,-0.09068278223276138,-0.0883815735578537,-0.5765438079833984,-0.7407494783401489,-0.3127674460411072,0.17892953753471375,0.11941418796777725,-0.15395298600196838,0.24896349012851715,-0.2870916724205017,0.6680730581283569,0.8133666515350342,-0.11984704434871674,0.11999289691448212,0.4356015622615814,0.458234578371048,-0.6991877555847168,-0.12112359702587128,-0.22360140085220337,-0.6151671409606934,-0.7105888724327087,0.8511991500854492,-0.44537556171417236,-0.2747175693511963,0.12308009713888168,0.004664244595915079,-0.5459913015365601,0.7032423615455627,-0.24030008912086487,0.32783329486846924,-0.23655888438224792,0.24039608240127563,-0.6478232145309448,-0.7666244506835938,0.058460935950279236,0.4366249442100525,0.024842403829097748,-0.46086108684539795,0.29928696155548096,0.4113558828830719,0.5575674176216125,-0.42053771018981934,0.20109248161315918,0.1699550598859787,0.8134838342666626,0.009230313822627068,-0.37457987666130066,-0.6665497422218323,-0.63524329662323,-0.5870254039764404,0.22642071545124054,-0.019993126392364502,0.2551274299621582,-0.18809208273887634,0.2351306527853012,-0.26435428857803345,-0.03542012348771095,0.9155188798904419,0.9234229922294617,1.0038601160049438,0.9127968549728394,0.9126229882240295,-0.08237425982952118,-0.06393532454967499,0.05602642148733139,-0.08541853725910187,-0.08280065655708313,-0.1585168093442917,-0.07159793376922607,-0.09189487248659134,-0.6116930842399597,-0.696473240852356,0.37698298692703247
-0.7048566341400146,-0.1487046331167221,-0.035252396017313004,0.8136523365974426,0.4944792091846466,-0.7249905467033386,-0.055560868233442307,0.9614894390106201,-0.5549306869506836,0.7978004813194275,0.9010318517684937,0.7323854565620422,-1.1233991384506226,-0.775486171245575,-0.30319470167160034,0.3834483325481415,0.5723922252655029,0.6119517087936401,0.2636263966560364,-0.8218241333961487,-0.10053231567144394,0.056273479014635086,0.65632563829422,0.9342437982559204,0.09263807535171509,-0.9144534468650818,0.2612192630767822,0.8934832215309143,0.6331993341445923,0.37469422817230225,0.06125731021165848,0.8073933124542236,0.4686291217803955,0.8785012364387512,-1.1875107288360596,-1.1284059286117554,0.5710214376449585,-0.4261392652988434,-0.6786971092224121,0.5045173764228821,1.0707144737243652,-0.34720534086227417,-0.8142488598823547,0.7520879507064819,0.1009533628821373,-0.6086670756340027,0.40301865339279175,0.9603977203369141,-0.26102444529533386,-0.8706567883491516,0.10170003026723862,0.39097142219543457,-0.42213866114616394,-0.09549354016780853,0.3516744077205658,0.0038832637947052717,-0.028200116008520126,-0.1819845288991928,-0.2263978123664856,-0.42983266711235046,1.0971609354019165,1.0981634855270386,1.0268765687942505,0.8997006416320801,1.0915772914886475,1.0985974073410034,1.0896446704864502,0.9048340916633606,0.9000889658927917,1.075053334236145,-0.02928389608860016,-0.08243396878242493,0.09830315411090851,-0.09954038262367249,0.08817630261182785,0.09934426844120026,0.09507453441619873,-0.09356951713562012,-0.10069099813699722,-0.09837405383586884,-0.584797739982605,-0.748810350894928,-0.3177603781223297,0.16950754821300507,0.10955394804477692,-0.16350142657756805,0.23931890726089478,-0.27771803736686707,0.6587094664573669,0.8226578831672668,-0.12893608212471008,0.11692941188812256,0.4265708327293396,0.45329704880714417,-0.6996674537658691,-0.1273198276758194,-0.22667357325553894,-0.6071686744689941,-0.718140184879303,0.8598935604095459,-0.4533221125602722,-0.2710367739200592,0.11340690404176712,-9.302236139774323e-05,-0.5369391441345215,0.7110843658447266,-0.24079768359661102,0.33556121587753296,-0.24441945552825928,0.25024059414863586,-0.6578232645988464,-0.77592933177948,0.049712635576725006,0.42731738090515137,0.014552198350429535,-0.470884770154953,0.2896668612957001,0.4212670624256134,0.5475097894668579,-0.4101773500442505,0.19127382338047028,0.16146203875541687,0.8168859481811523,0.000588039867579937,-0.38378241658210754,-0.6758842468261719,-0.6442531943321228,-0.5774003267288208,0.21763035655021667,-0.010009276680648327,0.25527530908584595,-0.18821048736572266,0.2354842722415924,-0.2662115693092346,-0.038980305194854736,0.9081760048866272,0.9188190698623657,1.0126311779022217,0.9044607877731323,0.9040665030479431,-0.08949713408946991,-0.06298385560512543,0.06567122787237167,-0.09313905984163284,-0.0896681696176529,-0.15094059705734253,-0.0671161636710167,-0.10092068463563919,-0.6034200191497803,-0.6879280805587769,0.3863409459590912
-0.6999611258506775,-0.1440383791923523,-0.03105016052722931,0.8182227611541748,0.49897217750549316,-0.7209246158599854,-0.05186609551310539,0.9651257991790771,-0.5505499839782715,0.8021999597549438,0.895939290523529,0.7274173498153687,-1.128188133239746,-0.7802309989929199,-0.30835768580436707,0.3786031901836395,0.5757457613945007,0.6141380667686462,0.25852182507514954,-0.8269477486610413,-0.10547618567943573,0.05141891539096832,0.6511588096618652,0.9389334321022034,0.09774167835712433,-0.9095777869224548,0.2627081573009491,0.8969610333442688,0.6381700038909912,0.3782044053077698,0.05906981602311134,0.8026420474052429,0.46430492401123047,0.8735045790672302,-1.1923027038574219,-1.131118893623352,0.574992835521698,-0.42354974150657654,-0.6744208335876465,0.5085602402687073,1.0758090019226074,-0.3419661223888397,-0.8093225359916687,0.7537533044815063,0.09676732867956161,-0.6071833372116089,0.40723907947540283,0.965355634689331,-0.2561081647872925,-0.8656444549560547,0.10173918306827545,0.3909856677055359,-0.4219539761543274,-0.0957132950425148,0.35181787610054016,0.0038339828606694937,-0.028269223868846893,-0.18203431367874146,-0.2263709008693695,-0.42949193716049194,1.102182149887085,1.1025464534759521,1.0235240459442139,0.8951112031936646,1.0954525470733643,1.1033655405044556,1.092954397201538,0.9007719159126282,0.8953370451927185,1.0750653743743896,-0.02520834468305111,-0.082062728703022,0.10315284132957458,-0.10417566448450089,0.09097539633512497,0.1042507141828537,0.0993737205862999,-0.09739019721746445,-0.10561028122901917,-0.10322406888008118,-0.5887453556060791,-0.7524553537368774,-0.31933626532554626,0.1650022268295288,0.10471877455711365,-0.16813918948173523,0.2346261590719223,-0.27323949337005615,0.6541494727134705,0.8271651268005371,-0.13338179886341095,0.11511751264333725,0.4222121238708496,0.4513772428035736,-0.6991356611251831,-0.12988054752349854,-0.22741112112998962,-0.6034721732139587,-0.7216429710388184,0.8640859127044678,-0.4575655162334442,-0.2705971598625183,0.1086111068725586,-0.0015877352561801672,-0.5322156548500061,0.7152020931243896,-0.23970617353916168,0.33909115195274353,-0.24815499782562256,0.255186527967453,-0.6627254486083984,-0.7803674936294556,0.04585965722799301,0.42273014783859253,0.009445521980524063,-0.4758076071739197,0.2848771810531616,0.4261009991168976,0.5425736904144287,-0.40502944588661194,0.18637791275978088,0.1570320576429367,0.8180555701255798,-0.0034968992695212364,-0.38829371333122253,-0.6804981827735901,-0.6485618352890015,-0.5726636052131653,0.2134002149105072,-0.005084073171019554,0.2553500235080719,-0.1882450431585312,0.23552940785884857,-0.2669505774974823,-0.040682222694158554,0.9048637747764587,0.9170430302619934,1.017223596572876,0.9005613327026367,0.9000197052955627,-0.09272682666778564,-0.061701785773038864,0.07060693949460983,-0.09675201028585434,-0.09264396131038666,-0.14752572774887085,-0.06562385708093643,-0.10558751970529556,-0.5995558500289917,-0.683875322341919,0.3909456729888916
-0.6951406598091125,-0.1395021378993988,-0.027103235945105553,0.8226664662361145,0.503309965133667,-0.7168489694595337,-0.04810178279876709,0.9686442017555237,-0.5462162494659424,0.8066129088401794,0.8908997774124146,0.7224908471107483,-1.1328827142715454,-0.7849022746086121,-0.3135034441947937,0.37383776903152466,0.5786125659942627,0.6157692074775696,0.25344303250312805,-0.8321134448051453,-0.11049599945545197,0.04656922444701195,0.6459202170372009,0.9436531662940979,0.10288702696561813,-0.9046184420585632,0.26471206545829773,0.9008039832115173,0.6431129574775696,0.38138946890830994,0.05789473280310631,0.7978665828704834,0.460492342710495,0.8686849474906921,-1.1968928575515747,-1.133682370185852,0.578804075717926,-0.4211641550064087,-0.6703034043312073,0.5124006271362305,1.0809177160263062,-0.3367137610912323,-0.8042888641357422,0.7558209300041199,0.09260360896587372,-0.6050688624382019,0.4116918444633484,0.970370352268219,-0.2511281669139862,-0.8605936169624329,0.10177246481180191,0.39099541306495667,-0.42159903049468994,-0.09595928341150284,0.35193926095962524,0.003760118968784809,-0.028238020837306976,-0.1821409910917282,-0.22650441527366638,-0.429220050573349,1.10715651512146,1.1066491603851318,1.01986825466156,0.8907458782196045,1.0991644859313965,1.108049750328064,1.0958725214004517,0.896855890750885,0.8906999230384827,1.0750007629394531,-0.02087319642305374,-0.08080705255270004,0.10797956585884094,-0.10865569114685059,0.09356462955474854,0.1091129407286644,0.10349421203136444,-0.10097267478704453,-0.1104363352060318,-0.10793425142765045,-0.5925168395042419,-0.7557178735733032,-0.3201698958873749,0.1607089638710022,0.09998492896556854,-0.17263764142990112,0.2300792932510376,-0.2689690887928009,0.6497123837471008,0.8315337896347046,-0.1377316266298294,0.11313491314649582,0.41800254583358765,0.44997864961624146,-0.6979386806488037,-0.1318977028131485,-0.22741243243217468,-0.6000727415084839,-0.7248848080635071,0.8681355714797974,-0.46205469965934753,-0.2713276743888855,0.1038665622472763,-0.0022129409480839968,-0.5273295044898987,0.719448447227478,-0.23760776221752167,0.34225326776504517,-0.2516775131225586,0.2602112293243408,-0.6675304770469666,-0.7845463752746582,0.04247944802045822,0.41828081011772156,0.004391912370920181,-0.48063239455223083,0.28017285466194153,0.4308052957057953,0.537736177444458,-0.3999291658401489,0.18150818347930908,0.15247905254364014,0.8188315629959106,-0.00730461161583662,-0.39269694685935974,-0.6850411295890808,-0.6526216268539429,-0.5680326223373413,0.20933789014816284,-0.00023396220058202744,0.2553887367248535,-0.18829914927482605,0.2354861944913864,-0.2675323784351349,-0.04212208092212677,0.9019021391868591,0.9157553911209106,1.0219757556915283,0.8969313502311707,0.8962000608444214,-0.09563931822776794,-0.05977211892604828,0.07565364986658096,-0.1001175120472908,-0.09520959109067917,-0.14448556303977966,-0.06483624875545502,-0.11036408692598343,-0.5959637761116028,-0.6800389885902405,0.395480751991272
-0.6904018521308899,-0.13507185876369476,-0.02342061698436737,0.8269915580749512,0.5074822306632996,-0.7128295302391052,-0.04431556537747383,0.9719901084899902,-0.5419778227806091,0.8110002875328064,0.8859542608261108,0.7176560759544373,-1.1374316215515137,-0.7894611358642578,-0.31860509514808655,0.3691684305667877,0.5810154676437378,0.6169788241386414,0.24842561781406403,-0.8372823596000671,-0.11561418324708939,0.041612256318330765,0.6406121253967285,0.9484012126922607,0.10810311883687973,-0.8996134996414185,0.2671261131763458,0.9048925042152405,0.6480152606964111,0.3842381238937378,0.057756222784519196,0.7930899858474731,0.45735785365104675,0.8641184568405151,-1.2012152671813965,-1.136150598526001,0.5824344754219055,-0.41898438334465027,-0.6663433909416199,0.5160377025604248,1.0860276222229004,-0.331466406583786,-0.7991710901260376,0.758201003074646,0.08847678452730179,-0.6024742722511292,0.4163365066051483,0.9754272103309631,-0.24609656631946564,-0.8554996252059937,0.10192947834730148,0.3910014033317566,-0.4211931526660919,-0.09620007872581482,0.3519832193851471,0.0036714747548103333,-0.028181826695799828,-0.18223294615745544,-0.22681130468845367,-0.4290577173233032,1.1120833158493042,1.1104726791381836,1.016040563583374,0.886650025844574,1.1026732921600342,1.112630844116211,1.0983333587646484,0.893085777759552,0.8861894607543945,1.0749439001083374,-0.016325905919075012,-0.07898102700710297,0.11276420950889587,-0.11295751482248306,0.09584342688322067,0.11390738189220428,0.10738582164049149,-0.10433545708656311,-0.11515692621469498,-0.1125410795211792,-0.5961068868637085,-0.7585891485214233,-0.32050442695617676,0.1566540002822876,0.09537570178508759,-0.17697574198246002,0.22571977972984314,-0.26491615176200867,0.6454031467437744,0.8357576131820679,-0.1419401317834854,0.11132096499204636,0.413936048746109,0.44911953806877136,-0.6960756778717041,-0.13319726288318634,-0.22667090594768524,-0.5970091819763184,-0.7278553247451782,0.8720661401748657,-0.46675413846969604,-0.27300870418548584,0.09918518364429474,-0.0020074471831321716,-0.5223101377487183,0.7237774133682251,-0.2347465604543686,0.34500548243522644,-0.25496014952659607,0.2653284966945648,-0.6722350120544434,-0.7884647846221924,0.03954901918768883,0.4140376150608063,-0.0005803261883556843,-0.48534148931503296,0.2756160795688629,0.4353373050689697,0.5330154299736023,-0.3948855996131897,0.17667774856090546,0.1478547602891922,0.8193410038948059,-0.010794136673212051,-0.3969722390174866,-0.689493715763092,-0.6563764214515686,-0.5635392665863037,0.20544999837875366,0.004534042440354824,0.255407452583313,-0.18834251165390015,0.23520252108573914,-0.26805275678634644,-0.043571628630161285,0.8992839455604553,0.9149183630943298,1.0268501043319702,0.8935739994049072,0.8926030397415161,-0.09823691844940186,-0.05739545822143555,0.08079996705055237,-0.10322178900241852,-0.09741420298814774,-0.14182162284851074,-0.06470075994729996,-0.11521343886852264,-0.5926445126533508,-0.6764160990715027,0.39995044469833374
-0.6857290863990784,-0.13069850206375122,-0.019960736855864525,0.8312290906906128,0.5114922523498535,-0.7088156938552856,-0.04041728377342224,0.9752410650253296,-0.5377991199493408,0.8153588771820068,0.8811158537864685,0.7129089832305908,-1.1418319940567017,-0.7939056158065796,-0.3236381411552429,0.3645935654640198,0.5830110311508179,0.6177955865859985,0.24347570538520813,-0.8424410223960876,-0.12083029747009277,0.03652375191450119,0.6352378129959106,0.9531778693199158,0.11339528858661652,-0.894584596157074,0.2698618769645691,0.9091589450836182,0.6528736352920532,0.38675180077552795,0.05818481743335724,0.7882086634635925,0.454257607460022,0.8595667481422424,-1.2055259943008423,-1.1385743618011475,0.5858104228973389,-0.41701358556747437,-0.6625357866287231,0.5194904208183289,1.0911365747451782,-0.326227068901062,-0.7939820885658264,0.7608413100242615,0.0843861848115921,-0.599557638168335,0.42109042406082153,0.9804835319519043,-0.24106861650943756,-0.8503981828689575,0.10216553509235382,0.39105525612831116,-0.4208340644836426,-0.09643653780221939,0.3519626557826996,0.0035584878642112017,-0.028104623779654503,-0.18230018019676208,-0.2272653877735138,-0.4288879334926605,1.1169519424438477,1.1140058040618896,1.0120786428451538,0.8828393816947937,1.1059191226959229,1.1170858144760132,1.1004446744918823,0.8894631266593933,0.8818102478981018,1.0751080513000488,-0.011630348861217499,-0.07690632343292236,0.11746756732463837,-0.11707865446805954,0.09780753403902054,0.11860612779855728,0.11108291149139404,-0.1074906513094902,-0.11975706368684769,-0.11697939038276672,-0.5995181202888489,-0.7610742449760437,-0.32046976685523987,0.15284396708011627,0.09089860320091248,-0.18114876747131348,0.2215641736984253,-0.2610819637775421,0.6412254571914673,0.8398340344429016,-0.14601868391036987,0.1097378134727478,0.41000327467918396,0.4487645626068115,-0.6936604380607605,-0.13381290435791016,-0.22527621686458588,-0.5942708253860474,-0.7305654883384705,0.875889241695404,-0.47163355350494385,-0.2754519283771515,0.0945793017745018,-0.0010322874877601862,-0.5171805620193481,0.7281622886657715,-0.23129895329475403,0.3473031222820282,-0.257964164018631,0.2705399990081787,-0.6768206357955933,-0.7921045422554016,0.036903951317071915,0.4100361466407776,-0.005464068613946438,-0.48993298411369324,0.2712439298629761,0.43969184160232544,0.528416097164154,-0.3899260461330414,0.1719135046005249,0.14323946833610535,0.8195975422859192,-0.014023381285369396,-0.40109118819236755,-0.6938179731369019,-0.65989089012146,-0.5591961741447449,0.20174188911914825,0.009170947596430779,0.25545069575309753,-0.18833604454994202,0.2349759042263031,-0.26846978068351746,-0.04488525539636612,0.8970001935958862,0.9144992828369141,1.0318151712417603,0.8904925584793091,0.8892212510108948,-0.10053305327892303,-0.05463635176420212,0.08602996170520782,-0.10605242103338242,-0.0993368923664093,-0.13953353464603424,-0.06515738368034363,-0.12010356038808823,-0.5895990133285522,-0.6730028390884399,0.4043588936328888
-0.6810621619224548,-0.1262848675251007,-0.016560208052396774,0.8354517817497253,0.5153806805610657,-0.7048320770263672,-0.036454152315855026,0.978373110294342,-0.5337002873420715,0.8196778297424316,0.8764166235923767,0.708288311958313,-1.14604651927948,-0.7982063293457031,-0.3285832405090332,0.36011388897895813,0.5846549868583679,0.6182531714439392,0.23860351741313934,-0.8475733399391174,-0.12613719701766968,0.03131742402911186,0.6297969818115234,0.957971453666687,0.11876372247934341,-0.8895502090454102,0.27285149693489075,0.9135525226593018,0.6576841473579407,0.38893043994903564,0.05800390616059303,0.7831590175628662,0.4506947100162506,0.8549687266349792,-1.2099831104278564,-1.1410683393478394,0.588824987411499,-0.41540414094924927,-0.6588510274887085,0.5227756500244141,1.096117615699768,-0.3210948705673218,-0.7888654470443726,0.7635663747787476,0.08032192289829254,-0.5964064002037048,0.42589858174324036,0.98549884557724,-0.2360856533050537,-0.8453288674354553,0.10228662192821503,0.3911001980304718,-0.42051512002944946,-0.09669498354196548,0.3518877625465393,0.0035393894650042057,-0.028036806732416153,-0.18235823512077332,-0.2277391105890274,-0.4287360608577728,1.121696949005127,1.117287516593933,1.0080729722976685,0.8793227076530457,1.1089026927947998,1.1213983297348022,1.1021019220352173,0.8859875202178955,0.8775823712348938,1.0757471323013306,-0.00680571049451828,-0.0746212750673294,0.12207668274641037,-0.1210181787610054,0.09934601187705994,0.12318837642669678,0.11474333703517914,-0.11043079197406769,-0.1241893321275711,-0.12115401774644852,-0.6027531623840332,-0.7631789445877075,-0.32019269466400146,0.1492842435836792,0.08656257390975952,-0.18515045940876007,0.21762830018997192,-0.25746825337409973,0.6371838450431824,0.8437598347663879,-0.14997830986976624,0.10844775289297104,0.4061945378780365,0.44887974858283997,-0.690782368183136,-0.13377957046031952,-0.2233102023601532,-0.5918481945991516,-0.7330247163772583,0.8796162009239197,-0.47666212916374207,-0.27856767177581787,0.09008613228797913,0.0007513927994295955,-0.511974036693573,0.7322847247123718,-0.22735704481601715,0.3490564227104187,-0.26063328981399536,0.275833398103714,-0.681219220161438,-0.795489490032196,0.03438688814640045,0.4063029885292053,-0.010252397507429123,-0.49440544843673706,0.26708585023880005,0.4438489079475403,0.5239652991294861,-0.38507771492004395,0.16722486913204193,0.1386670172214508,0.8196967840194702,-0.01696622185409069,-0.4050392210483551,-0.6979995965957642,-0.6631243228912354,-0.555029034614563,0.19822001457214355,0.01366992574185133,0.2555007338523865,-0.18833620846271515,0.23481392860412598,-0.2689099907875061,-0.04622573405504227,0.8950412273406982,0.9144682884216309,1.0368410348892212,0.887688934803009,0.8860486745834351,-0.10254018008708954,-0.05154833942651749,0.09134528785943985,-0.10859747231006622,-0.1010172888636589,-0.13761892914772034,-0.06614480912685394,-0.12500618398189545,-0.586826741695404,-0.6697946190834045,0.4087097644805908
-0.6763765215873718,-0.12180723249912262,-0.01317878719419241,0.8397071957588196,0.5191195011138916,-0.7008752226829529,-0.032422877848148346,0.981403648853302,-0.5296580791473389,0.8239618539810181,0.8718882203102112,0.7038314938545227,-1.1500383615493774,-0.8023382425308228,-0.3334205448627472,0.3557431995868683,0.5860590934753418,0.6184393167495728,0.23383641242980957,-0.8526301383972168,-0.13153086602687836,0.02600421942770481,0.6242874264717102,0.9628389477729797,0.12419810146093369,-0.8845354318618774,0.2760481834411621,0.9180440306663513,0.6624014377593994,0.3908137381076813,0.05717548355460167,0.7779633402824402,0.44679513573646545,0.8503930568695068,-1.2145345211029053,-1.1436885595321655,0.5914417505264282,-0.4141002297401428,-0.6552821397781372,0.525902509689331,1.1008888483047485,-0.3161616027355194,-0.7839259505271912,0.7662346959114075,0.07623401284217834,-0.5930047631263733,0.4307882487773895,0.9904922246932983,-0.23115700483322144,-0.8402633666992188,0.10244028270244598,0.3911862075328827,-0.42031916975975037,-0.09687075018882751,0.35181981325149536,0.003488787915557623,-0.027924079447984695,-0.1824551671743393,-0.22826562821865082,-0.4285520315170288,1.126335620880127,1.1202666759490967,1.0040922164916992,0.8761287927627563,1.111571192741394,1.1255571842193604,1.1032705307006836,0.8826695084571838,0.8735144138336182,1.0770386457443237,-0.0019192295148968697,-0.07250722497701645,0.126581609249115,-0.12476412951946259,0.10031353682279587,0.12767194211483002,0.1182899922132492,-0.11316762119531631,-0.12842683494091034,-0.12480133026838303,-0.6058163046836853,-0.7649129033088684,-0.3197922706604004,0.1459779441356659,0.08237648010253906,-0.18897485733032227,0.21392643451690674,-0.254076212644577,0.6332830786705017,0.8475313782691956,-0.15378981828689575,0.10770754516124725,0.4024958908557892,0.4494580030441284,-0.6874736547470093,-0.13304036855697632,-0.2208157479763031,-0.5897619128227234,-0.7352271676063538,0.8832709789276123,-0.4818037450313568,-0.28213343024253845,0.08569508045911789,0.0032847372349351645,-0.5066838264465332,0.7363184094429016,-0.22302968800067902,0.35014018416404724,-0.2630668580532074,0.28121426701545715,-0.6854199767112732,-0.7985846996307373,0.031803421676158905,0.4028873145580292,-0.014925707131624222,-0.49874821305274963,0.2631833553314209,0.4478093087673187,0.5196707248687744,-0.3803747594356537,0.16262011229991913,0.13416732847690582,0.8197210431098938,-0.019605254754424095,-0.4088042974472046,-0.7020257115364075,-0.6660453677177429,-0.5510601997375488,0.1948886513710022,0.018024127930402756,0.2556057572364807,-0.18834714591503143,0.23465973138809204,-0.269462525844574,-0.04755081981420517,0.8933959603309631,0.9147958159446716,1.0418998003005981,0.8851644396781921,0.8830778002738953,-0.10427086055278778,-0.04822267219424248,0.0967460498213768,-0.11083568632602692,-0.10249301791191101,-0.1360718458890915,-0.06760300695896149,-0.12989798188209534,-0.5843254327774048,-0.6667855381965637,0.4130072295665741
-0.6717153787612915,-0.1173190101981163,-0.009869968518614769,0.8439515233039856,0.5226825475692749,-0.6969678401947021,-0.028372326865792274,0.9843167066574097,-0.5256785154342651,0.8282037377357483,0.8675525784492493,0.6995610594749451,-1.1537861824035645,-0.8062846660614014,-0.3381369709968567,0.35148531198501587,0.5872744917869568,0.6183875799179077,0.22919365763664246,-0.8575907945632935,-0.13700763881206512,0.02059020847082138,0.6187090277671814,0.9677870273590088,0.12969587743282318,-0.879509449005127,0.2794857621192932,0.922676682472229,0.667026162147522,0.392386794090271,0.055690132081508636,0.772645890712738,0.44264596700668335,0.8458880186080933,-1.219136118888855,-1.1464323997497559,0.5936893820762634,-0.41305527091026306,-0.6518254280090332,0.5288757085800171,1.105446457862854,-0.31143322587013245,-0.7791805267333984,0.7687894105911255,0.0721178874373436,-0.5894646644592285,0.4356672465801239,0.9954086542129517,-0.2263750433921814,-0.83525151014328,0.10248184949159622,0.3910934031009674,-0.4203156530857086,-0.09697538614273071,0.35175782442092896,0.0033777847420424223,-0.027824511751532555,-0.18251684308052063,-0.2286609709262848,-0.4283985197544098,1.1308923959732056,1.1229500770568848,1.000195860862732,0.8732993006706238,1.1139044761657715,1.12954580783844,1.103950023651123,0.8794763088226318,0.8696144223213196,1.0789622068405151,0.003015361726284027,-0.07061560451984406,0.13097865879535675,-0.12830089032649994,0.10063401609659195,0.13204653561115265,0.1216789111495018,-0.11573850363492966,-0.13246606290340424,-0.12782499194145203,-0.6087108850479126,-0.7662892937660217,-0.3193812370300293,0.1429249346256256,0.07834886014461517,-0.19261622428894043,0.21047037839889526,-0.2509060204029083,0.6295276284217834,0.8511456251144409,-0.15752549469470978,0.10726949572563171,0.3988891839981079,0.4504251480102539,-0.6838585734367371,-0.13178537786006927,-0.21790941059589386,-0.5879737734794617,-0.7372031211853027,0.8868430852890015,-0.4870527684688568,-0.28610700368881226,0.08139552175998688,0.006470649503171444,-0.5013099908828735,0.740263044834137,-0.21839210391044617,0.3504767417907715,-0.26519137620925903,0.28667959570884705,-0.689423680305481,-0.8013848662376404,0.029150038957595825,0.3998836874961853,-0.01945454627275467,-0.5029367804527283,0.25964921712875366,0.4515517055988312,0.5155449509620667,-0.3758237361907959,0.15810620784759521,0.12976649403572083,0.8197370767593384,-0.02193327248096466,-0.4123776853084564,-0.7058857083320618,-0.6686333417892456,-0.5473073720932007,0.1917504370212555,0.022229518741369247,0.25562775135040283,-0.18838772177696228,0.23443664610385895,-0.2698354423046112,-0.048696331679821014,0.8920517563819885,0.9154581427574158,1.0469744205474854,0.8829131126403809,0.8802999258041382,-0.10573802888393402,-0.044623345136642456,0.10222893953323364,-0.1127871721982956,-0.10379832237958908,-0.13488297164440155,-0.06947434693574905,-0.13476517796516418,-0.5820899605751038,-0.6639683842658997,0.41725561022758484
-0.6671262383460999,-0.11286144703626633,-0.00667937844991684,0.8481428027153015,0.5260400772094727,-0.6932174563407898,-0.02440381422638893,0.9870251417160034,-0.5218051075935364,0.8323706984519958,0.8634211421012878,0.6954862475395203,-1.157285213470459,-0.8100346922874451,-0.34272754192352295,0.34734776616096497,0.5883757472038269,0.618145763874054,0.22469684481620789,-0.862421989440918,-0.14255763590335846,0.015091272071003914,0.613074004650116,0.9726735949516296,0.13525012135505676,-0.8744704127311707,0.28311583399772644,0.9274261593818665,0.6715746521949768,0.39367902278900146,0.053601618856191635,0.767243504524231,0.4383655786514282,0.8414871692657471,-1.2237348556518555,-1.1493028402328491,0.5955341458320618,-0.4123167097568512,-0.648489236831665,0.5316900014877319,1.1098250150680542,-0.3068769574165344,-0.7745978832244873,0.7712055444717407,0.06799072027206421,-0.5857177376747131,0.4405793845653534,1.0002671480178833,-0.22177501022815704,-0.8302813768386841,0.10235903412103653,0.39110174775123596,-0.420634925365448,-0.09709182381629944,0.3516753315925598,0.0033228390384465456,-0.02778758481144905,-0.18255914747714996,-0.22906489670276642,-0.4282369613647461,1.1353970766067505,1.1253349781036377,0.9964521527290344,0.8708803653717041,1.1158910989761353,1.1333403587341309,1.1041699647903442,0.8763917088508606,0.8658868670463562,1.0814285278320312,0.007986418902873993,-0.06917722523212433,0.13525862991809845,-0.13160935044288635,0.100559763610363,0.1362888365983963,0.1248919740319252,-0.11816693097352982,-0.13629451394081116,-0.13020552694797516,-0.6115043759346008,-0.7672438025474548,-0.31924718618392944,0.14017221331596375,0.07450202852487564,-0.19605256617069244,0.20729286968708038,-0.2479846179485321,0.625913679599762,0.8545981049537659,-0.16118939220905304,0.10720949620008469,0.39536502957344055,0.45175135135650635,-0.6799760460853577,-0.1300368458032608,-0.21464261412620544,-0.5864771008491516,-0.7389583587646484,0.8903429508209229,-0.4924097955226898,-0.29045620560646057,0.07720291614532471,0.01016977708786726,-0.4958832561969757,0.7436756491661072,-0.21350233256816864,0.35007038712501526,-0.26685675978660583,0.2922239601612091,-0.6932316422462463,-0.8038895130157471,0.026416420936584473,0.3973662257194519,-0.02381141483783722,-0.506949245929718,0.2565844655036926,0.45505833625793457,0.5116000771522522,-0.3714308440685272,0.15368935465812683,0.12548701465129852,0.819797694683075,-0.023951783776283264,-0.41575318574905396,-0.7095710635185242,-0.6708778142929077,-0.5437840819358826,0.18880656361579895,0.02628246322274208,0.25564295053482056,-0.18842554092407227,0.2341158539056778,-0.2701992988586426,-0.04957422614097595,0.8909990191459656,0.9164308905601501,1.0520610809326172,0.8809265494346619,0.8777055740356445,-0.10691837221384048,-0.040792301297187805,0.10778268426656723,-0.11447092890739441,-0.10496432334184647,-0.13404029607772827,-0.07170619070529938,-0.1396002322435379,-0.5801125764846802,-0.6613350510597229,0.42145925760269165
-0.6626778841018677,-0.10850976407527924,-0.0036782515235245228,0.8522199988365173,0.5291542410850525,-0.6896573305130005,-0.020550796762108803,0.9894939064979553,-0.5180584788322449,0.8364607095718384,0.8595067858695984,0.6916200518608093,-1.1605277061462402,-0.8135783076286316,-0.3471831977367401,0.34333980083465576,0.5894225239753723,0.6177606582641602,0.22037839889526367,-0.8670873045921326,-0.1481693834066391,0.00952698290348053,0.607388436794281,0.9774767160415649,0.14084427058696747,-0.8694129586219788,0.2869894504547119,0.9322865605354309,0.6760396957397461,0.3946470618247986,0.05104030668735504,0.7617785930633545,0.4340340793132782,0.8372133374214172,-1.2282989025115967,-1.1523011922836304,0.5969940423965454,-0.4118766486644745,-0.6452695727348328,0.5343469977378845,1.1140178442001343,-0.3025103509426117,-0.7701818346977234,0.7734726071357727,0.06388771533966064,-0.5818009376525879,0.4454943835735321,1.0050480365753174,-0.21739937365055084,-0.825374186038971,0.10209566354751587,0.3909822404384613,-0.4211488664150238,-0.09721855819225311,0.35162556171417236,0.0032632104121148586,-0.0277047511190176,-0.1825733184814453,-0.22931857407093048,-0.42804571986198425,1.1398508548736572,1.127439260482788,0.9928677082061768,0.8689079880714417,1.1175029277801514,1.1369305849075317,1.1039881706237793,0.87340247631073,0.8623403906822205,1.0843549966812134,0.012978523969650269,-0.06814881414175034,0.1394042819738388,-0.13467209041118622,0.1000177413225174,0.1403731107711792,0.12794335186481476,-0.12046297639608383,-0.1399061381816864,-0.13200800120830536,-0.6141871213912964,-0.7677696347236633,-0.3196030557155609,0.13771532475948334,0.07086688280105591,-0.19925904273986816,0.20439866185188293,-0.24532048404216766,0.6224589347839355,0.8578807711601257,-0.1647864729166031,0.10758814215660095,0.39191460609436035,0.4534054100513458,-0.6758609414100647,-0.12782393395900726,-0.21106299757957458,-0.5852645635604858,-0.7404987215995789,0.8937788605690002,-0.4978810250759125,-0.2950974106788635,0.0731176882982254,0.014278681017458439,-0.49040067195892334,0.746836245059967,-0.20840245485305786,0.3489523231983185,-0.2679770290851593,0.2978401482105255,-0.6968423128128052,-0.8061139583587646,0.023604055866599083,0.3953959047794342,-0.02796732261776924,-0.5107625126838684,0.25408387184143066,0.45830854773521423,0.5078490972518921,-0.36720043420791626,0.1493949592113495,0.12138628214597702,0.8198942542076111,-0.025685898959636688,-0.4189223647117615,-0.713068962097168,-0.6727990508079529,-0.540508508682251,0.18605391681194305,0.03017028607428074,0.2556052505970001,-0.18849875032901764,0.23371343314647675,-0.27065932750701904,-0.050342269241809845,0.8902241587638855,0.917689859867096,1.0571562051773071,0.8791938424110413,0.8752861618995667,-0.10781195759773254,-0.03676506504416466,0.11338814347982407,-0.11590898036956787,-0.10600241273641586,-0.13352812826633453,-0.07424893975257874,-0.1443977952003479,-0.5783834457397461,-0.6588770151138306,0.42562252283096313
-0.6585504412651062,-0.10444415360689163,-0.0010243128053843975,0.8560647964477539,0.5318785905838013,-0.6864314675331116,-0.016984883695840836,0.9916034936904907,-0.5145460963249207,0.8404131531715393,0.855840265750885,0.6880022883415222,-1.1634007692337036,-0.8169558048248291,-0.3515380024909973,0.33947324752807617,0.5905520915985107,0.6173102259635925,0.21632853150367737,-0.8715006113052368,-0.15383845567703247,0.003901769407093525,0.6016542315483093,0.982165515422821,0.14647512137889862,-0.8644250631332397,0.2909470200538635,0.9371657967567444,0.6803896427154541,0.3952159583568573,0.04815824329853058,0.7562791109085083,0.4300113022327423,0.8332141041755676,-1.2327018976211548,-1.1553113460540771,0.5981277823448181,-0.4117205739021301,-0.6421775221824646,0.5368644595146179,1.1180336475372314,-0.29831647872924805,-0.7659093737602234,0.775662899017334,0.059863004833459854,-0.5779454112052917,0.45020779967308044,1.009639024734497,-0.2133607119321823,-0.820631206035614,0.1018606573343277,0.3908291161060333,-0.4216825067996979,-0.09733062237501144,0.3515545427799225,0.0031043763738125563,-0.027582023292779922,-0.18249665200710297,-0.22946585714817047,-0.4279634356498718,1.1442499160766602,1.1292123794555664,0.9894993305206299,0.8675238490104675,1.1187089681625366,1.1402928829193115,1.1034899950027466,0.8704538941383362,0.8589907288551331,1.087705373764038,0.017987078055739403,-0.06788589805364609,0.1433860957622528,-0.13743184506893158,0.09897357225418091,0.14429675042629242,0.1307898610830307,-0.12269672751426697,-0.14328184723854065,-0.13323281705379486,-0.6167603135108948,-0.767899215221405,-0.3204911947250366,0.1355365365743637,0.06744542717933655,-0.2022353559732437,0.20178161561489105,-0.24290651082992554,0.619166374206543,0.8609936237335205,-0.16836269199848175,0.10827872157096863,0.388540118932724,0.4554179012775421,-0.671542763710022,-0.12524546682834625,-0.20714735984802246,-0.5843434929847717,-0.7417765855789185,0.8971682190895081,-0.5034576058387756,-0.2999674081802368,0.0691378191113472,0.01871822029352188,-0.48485809564590454,0.750037670135498,-0.2031257599592209,0.3471706211566925,-0.26847440004348755,0.303519070148468,-0.7002588510513306,-0.808016300201416,0.02074790932238102,0.3941971957683563,-0.031824469566345215,-0.5143073797225952,0.2524564564228058,0.46126705408096313,0.504327654838562,-0.36314475536346436,0.14522476494312286,0.11747686564922333,0.820060133934021,-0.027151023969054222,-0.42188379168510437,-0.7163754105567932,-0.6744043827056885,-0.5374847650527954,0.183491051197052,0.03388896957039833,0.25555193424224854,-0.18854083120822906,0.23333927989006042,-0.2710443437099457,-0.051033344119787216,0.8897097110748291,0.9192122220993042,1.0622583627700806,0.8776995539665222,0.8730310797691345,-0.10843757539987564,-0.032539717853069305,0.11902056634426117,-0.11713135242462158,-0.10694049298763275,-0.13332654535770416,-0.07705666869878769,-0.149154394865036,-0.5768890976905823,-0.656585156917572,0.4297506511211395
-0.6566914916038513,-0.10259135067462921,7.675355300307274e-05,0.8578392863273621,0.5330315232276917,-0.6850182414054871,-0.015356904827058315,0.9924418330192566,-0.5129029154777527,0.8423447608947754,0.8541293144226074,0.6863150000572205,-1.1646630764007568,-0.8185597062110901,-0.35366156697273254,0.3376157283782959,0.5911836624145508,0.6170675158500671,0.21445375680923462,-0.8735640048980713,-0.1566961109638214,0.0010640432592481375,0.5987659692764282,0.9844368696212769,0.1493048518896103,-0.8619810938835144,0.29294633865356445,0.9395800828933716,0.6825062036514282,0.39533063769340515,0.046673282980918884,0.7535313963890076,0.4280702769756317,0.831250786781311,-1.234867811203003,-1.1568281650543213,0.5985199213027954,-0.411771684885025,-0.640705406665802,0.5380470752716064,1.1199523210525513,-0.2963097393512726,-0.7638521194458008,0.7766938209533691,0.05788496881723404,-0.5760302543640137,0.4524935483932495,1.0118560791015625,-0.21146506071090698,-0.8183265924453735,0.1018209308385849,0.3907432556152344,-0.4219197630882263,-0.09739777445793152,0.3515219986438751,0.0030545610934495926,-0.027576079592108727,-0.18246746063232422,-0.22950097918510437,-0.4278545379638672,1.1464345455169678,1.1299324035644531,0.9879372715950012,0.8671240210533142,1.119105577468872,1.1418594121932983,1.103102207183838,0.8689759969711304,0.8574177622795105,1.0895500183105469,0.020498305559158325,-0.06805761158466339,0.14529529213905334,-0.13865531980991364,0.09819647669792175,0.14617887139320374,0.13214720785617828,-0.12379926443099976,-0.14484968781471252,-0.13359762728214264,-0.6179803609848022,-0.7677709460258484,-0.32120779156684875,0.13458645343780518,0.06584903597831726,-0.20360025763511658,0.20062123239040375,-0.24183166027069092,0.6176050305366516,0.8624660968780518,-0.17012658715248108,0.10868602246046066,0.3868803083896637,0.4565708041191101,-0.6693132519721985,-0.12380324304103851,-0.20505867898464203,-0.5840205550193787,-0.742296576499939,0.8988375067710876,-0.5062911510467529,-0.3024909794330597,0.06719949096441269,0.021071534603834152,-0.4820552468299866,0.7517792582511902,-0.20041319727897644,0.3459790349006653,-0.2683846950531006,0.30638355016708374,-0.7018885016441345,-0.8088058829307556,0.01932474412024021,0.3939756751060486,-0.03359018266201019,-0.5159372687339783,0.2520815134048462,0.4625847041606903,0.5026880502700806,-0.3612014353275299,0.14320255815982819,0.1156238466501236,0.8201906681060791,-0.027760330587625504,-0.423260360956192,-0.7179312705993652,-0.6750569343566895,-0.5360987782478333,0.18230314552783966,0.035660453140735626,0.2555069625377655,-0.18854030966758728,0.23308247327804565,-0.2712414860725403,-0.051344506442546844,0.889572262763977,0.9200927019119263,1.064813494682312,0.8770628571510315,0.8719808459281921,-0.10863279551267624,-0.030325694009661674,0.12183637917041779,-0.11765116453170776,-0.10737188160419464,-0.13336922228336334,-0.07857060432434082,-0.15151169896125793,-0.576251745223999,-0.6555180549621582,0.4317997694015503
-0.655065655708313,-0.10093370079994202,0.000935979769565165,0.8594474792480469,0.5339707732200623,-0.6838201284408569,-0.01389254443347454,0.9930624961853027,-0.511385440826416,0.8442187309265137,0.8525336384773254,0.6847416758537292,-1.165764570236206,-0.8200823664665222,-0.3557332456111908,0.33584073185920715,0.59189373254776,0.6168229579925537,0.21274186670780182,-0.8754693269729614,-0.15957380831241608,-0.0017947363667190075,0.5958593487739563,0.9866312742233276,0.15214431285858154,-0.8595879673957825,0.2949630320072174,0.9419697523117065,0.6845625042915344,0.3952776789665222,0.045176535844802856,0.7507858276367188,0.4262142777442932,0.8293261528015137,-1.236995816230774,-1.158357858657837,0.5987494587898254,-0.41194045543670654,-0.6393019556999207,0.5391588807106018,1.1217823028564453,-0.29439541697502136,-0.7618751525878906,0.7776562571525574,0.055948998779058456,-0.5741134285926819,0.4547194838523865,1.0140010118484497,-0.20968659222126007,-0.8160876035690308,0.10191080719232559,0.3906601369380951,-0.42209193110466003,-0.09743988513946533,0.3514920473098755,0.0029970582108944654,-0.027500521391630173,-0.18244633078575134,-0.2295275628566742,-0.42776164412498474,1.1486010551452637,1.1304987668991089,0.9864968657493591,0.8669878840446472,1.1193054914474487,1.1433180570602417,1.1025893688201904,0.8674879670143127,0.8559432625770569,1.0915374755859375,0.023003729060292244,-0.06853531301021576,0.14712803065776825,-0.1397281438112259,0.09718658030033112,0.1479833424091339,0.13344208896160126,-0.12489496171474457,-0.1463051736354828,-0.13373267650604248,-0.6191393733024597,-0.7674691081047058,-0.32217592000961304,0.13376297056674957,0.0643605887889862,-0.20484912395477295,0.19959746301174164,-0.2408800572156906,0.6161243915557861,0.8638589382171631,-0.17189811170101166,0.10903455317020416,0.38524821400642395,0.4578588008880615,-0.6670383810997009,-0.12226901203393936,-0.20285820960998535,-0.5838256478309631,-0.7426926493644714,0.900478720664978,-0.5091621279716492,-0.30508390069007874,0.06530828028917313,0.023532293736934662,-0.4792231321334839,0.7536903023719788,-0.19763948023319244,0.34452977776527405,-0.26797303557395935,0.3092665672302246,-0.7034407258033752,-0.8094477653503418,0.01788819581270218,0.39407655596733093,-0.035194266587495804,-0.5174283981323242,0.2520847022533417,0.4637470543384552,0.5011699199676514,-0.3593422770500183,0.14123964309692383,0.1138698011636734,0.8203703761100769,-0.028258882462978363,-0.42453813552856445,-0.7193941473960876,-0.6755720973014832,-0.534831702709198,0.181203231215477,0.03734656795859337,0.2554824650287628,-0.18852241337299347,0.23296965658664703,-0.27142104506492615,-0.05166690796613693,0.8895443081855774,0.9210798144340515,1.067373514175415,0.8765281438827515,0.8710019588470459,-0.10871978104114532,-0.028028741478919983,0.12464436143636703,-0.11808423697948456,-0.10777270793914795,-0.13354235887527466,-0.08017750084400177,-0.15384989976882935,-0.5757153630256653,-0.6545239686965942,0.4338366389274597
-0.6536586880683899,-0.09945930540561676,0.0015703521203249693,0.8608986139297485,0.5347155928611755,-0.6828179955482483,-0.012579084374010563,0.9934819936752319,-0.5099891424179077,0.8460408449172974,0.851044774055481,0.6832731366157532,-1.166719913482666,-0.8215286135673523,-0.35775506496429443,0.33414822816848755,0.5926274061203003,0.6165204644203186,0.21118639409542084,-0.8772603869438171,-0.16246744990348816,-0.004670386668294668,0.5929374098777771,0.9887462854385376,0.1549885869026184,-0.8572338223457336,0.2970018982887268,0.9443447589874268,0.6865645051002502,0.39507749676704407,0.043633878231048584,0.7480320334434509,0.4244215488433838,0.8274158835411072,-1.2391055822372437,-1.159901738166809,0.5988262295722961,-0.4122198820114136,-0.6379626393318176,0.5402041077613831,1.1235255002975464,-0.29257267713546753,-0.7599821090698242,0.7785384058952332,0.054040174931287766,-0.5721899271011353,0.4568961262702942,1.0160820484161377,-0.20801390707492828,-0.8139063119888306,0.10199089348316193,0.3905050456523895,-0.4221292734146118,-0.09749440848827362,0.3514764606952667,0.0029430517461150885,-0.027409976348280907,-0.18243233859539032,-0.2295508235692978,-0.4276667833328247,1.1507487297058105,1.1309276819229126,0.9851754307746887,0.8670860528945923,1.119316577911377,1.1446775197982788,1.1019666194915771,0.8659903407096863,0.8545598387718201,1.0936394929885864,0.025504928082227707,-0.06928376108407974,0.14888755977153778,-0.14065513014793396,0.09596643596887589,0.14971603453159332,0.13467372953891754,-0.12598396837711334,-0.14765813946723938,-0.13366666436195374,-0.620243489742279,-0.7670121192932129,-0.32337236404418945,0.1330539882183075,0.06297355145215988,-0.20598933100700378,0.1986989974975586,-0.24004322290420532,0.6147204637527466,0.8651760220527649,-0.17368236184120178,0.10933021456003189,0.3836413323879242,0.45926469564437866,-0.6647269129753113,-0.12065281718969345,-0.20056498050689697,-0.5837504267692566,-0.7429721355438232,0.9020928740501404,-0.5120628476142883,-0.3077300190925598,0.06345914304256439,0.026079120114445686,-0.47636380791664124,0.7557810544967651,-0.19481633603572845,0.3428598940372467,-0.2672594487667084,0.3121609687805176,-0.7049200534820557,-0.8099572062492371,0.01645214483141899,0.39444857835769653,-0.03665069118142128,-0.5187918543815613,0.25240984559059143,0.4647658169269562,0.4997645616531372,-0.3575628995895386,0.1393328160047531,0.11221235245466232,0.8205984830856323,-0.028659630566835403,-0.4257220923900604,-0.7207682132720947,-0.6759631633758545,-0.53367680311203,0.18018609285354614,0.038948602974414825,0.2554507851600647,-0.1884862780570984,0.23287761211395264,-0.2716076374053955,-0.05193638429045677,0.8896157741546631,0.9221614599227905,1.069939136505127,0.8760863542556763,0.8700889348983765,-0.10870768129825592,-0.025662655010819435,0.12743739783763885,-0.11844226717948914,-0.10814917832612991,-0.13383321464061737,-0.08186159282922745,-0.15617111325263977,-0.5752715468406677,-0.6535976529121399,0.4358639121055603
-0.652466893196106,-0.09816594421863556,0.001988175790756941,0.862196147441864,0.5352753400802612,-0.6820084452629089,-0.011417059227824211,0.9937082529067993,-0.5087133646011353,0.8478115200996399,0.8496390581130981,0.6818757057189941,-1.167566180229187,-0.8229169845581055,-0.35972487926483154,0.33253344893455505,0.59339839220047,0.6161683797836304,0.2097853422164917,-0.8789368271827698,-0.16536468267440796,-0.007555685937404633,0.5899910926818848,0.9908842444419861,0.15779660642147064,-0.8549147248268127,0.2990599572658539,0.9467070698738098,0.6885157227516174,0.3947412371635437,0.041941236704587936,0.7452247738838196,0.4225388765335083,0.8254112005233765,-1.2412885427474976,-1.16145920753479,0.5987616777420044,-0.4125975966453552,-0.6366828680038452,0.5411881804466248,1.1251815557479858,-0.29084232449531555,-0.7581722140312195,0.7793508768081665,0.05217825993895531,-0.5702587962150574,0.45903128385543823,1.018107533454895,-0.20643602311611176,-0.8117729425430298,0.10212317109107971,0.39041373133659363,-0.4222361147403717,-0.09754855185747147,0.35147354006767273,0.0028512657154351473,-0.027329040691256523,-0.1824086606502533,-0.22956684231758118,-0.4276130795478821,1.1528807878494263,1.1312319040298462,0.9839121699333191,0.8673965930938721,1.119113802909851,1.1459388732910156,1.1013275384902954,0.8644714951515198,0.8532609939575195,1.0958309173583984,0.028002005070447922,-0.07028011232614517,0.1505671590566635,-0.1414462924003601,0.09465067833662033,0.1513741910457611,0.13586747646331787,-0.12707962095737457,-0.1489180624485016,-0.13342152535915375,-0.6212989687919617,-0.7664172649383545,-0.3247743546962738,0.13244765996932983,0.06168154254555702,-0.20702816545963287,0.1979144960641861,-0.2393132448196411,0.6133894324302673,0.8664207458496094,-0.17548491060733795,0.10957378894090652,0.38205766677856445,0.46077245473861694,-0.6623875498771667,-0.11896541714668274,-0.19819551706314087,-0.5837868452072144,-0.7431421279907227,0.9036799669265747,-0.5149860382080078,-0.310415655374527,0.06164667382836342,0.02869386598467827,-0.4734792709350586,0.7580465078353882,-0.19195452332496643,0.34100112318992615,-0.2662666440010071,0.3150588572025299,-0.7063314318656921,-0.8103444576263428,0.015013634227216244,0.39505237340927124,-0.037967484444379807,-0.5200343728065491,0.2530112862586975,0.46565014123916626,0.4984663426876068,-0.35586273670196533,0.13748736679553986,0.11067356169223785,0.8208211660385132,-0.02902660332620144,-0.42680612206459045,-0.7220467329025269,-0.6763067841529846,-0.5326201319694519,0.1792425960302353,0.040433578193187714,0.25544825196266174,-0.18844301998615265,0.23278075456619263,-0.2717748284339905,-0.0521475225687027,0.8897770643234253,0.9233260750770569,1.0725120306015015,0.8757296204566956,0.8692358136177063,-0.10860515385866165,-0.02323916181921959,0.1302088499069214,-0.11873239278793335,-0.10851993411779404,-0.134229376912117,-0.08360831439495087,-0.1584775745868683,-0.5749125480651855,-0.6527342796325684,0.4378840923309326
-0.6514832973480225,-0.09704051911830902,0.0022051602136343718,0.8633482456207275,0.5356575846672058,-0.6813855171203613,-0.010398169979453087,0.9937534332275391,-0.5075541734695435,0.8495298624038696,0.848310112953186,0.6805431246757507,-1.1683140993118286,-0.8242502808570862,-0.36164525151252747,0.33099374175071716,0.5942230820655823,0.6157785058021545,0.20853929221630096,-0.8804934620857239,-0.16826492547988892,-0.01044618058949709,0.5870259404182434,0.9930288791656494,0.1605648547410965,-0.8526248335838318,0.3011261224746704,0.9490568041801453,0.6904222965240479,0.3942987322807312,0.040101829916238785,0.7423726916313171,0.4205857813358307,0.8233166337013245,-1.2435367107391357,-1.1630308628082275,0.5985644459724426,-0.41306743025779724,-0.6354585886001587,0.5421148538589478,1.126753807067871,-0.2892012596130371,-0.7564446330070496,0.780089795589447,0.05035829916596413,-0.568293035030365,0.46114492416381836,1.0200891494750977,-0.20494046807289124,-0.8096829056739807,0.1022413969039917,0.3902532458305359,-0.4222935140132904,-0.09758535027503967,0.3514788746833801,0.002781819785013795,-0.02730247564613819,-0.18240822851657867,-0.2295742779970169,-0.4275110960006714,1.1550030708312988,1.1314256191253662,0.9827075600624084,0.8678927421569824,1.1187303066253662,1.1471021175384521,1.1006830930709839,0.8629344701766968,0.8520410060882568,1.0980859994888306,0.03049580194056034,-0.07150128483772278,0.15217138826847076,-0.14211280643939972,0.0932474136352539,0.15295903384685516,0.1370270848274231,-0.1281796246767044,-0.15009303390979767,-0.13300664722919464,-0.6223121881484985,-0.7657005786895752,-0.32635998725891113,0.13193252682685852,0.06047835946083069,-0.20797280967235565,0.19723264873027802,-0.23868267238140106,0.6121279001235962,0.8675960898399353,-0.17731185257434845,0.10976021736860275,0.3804957866668701,0.46236708760261536,-0.6600292921066284,-0.11721867322921753,-0.19576449692249298,-0.5839271545410156,-0.7432094216346741,0.9052390456199646,-0.5179320573806763,-0.31314489245414734,0.05987350270152092,0.031356167048215866,-0.47058773040771484,0.7603858709335327,-0.18907034397125244,0.33898526430130005,-0.2649995982646942,0.3179419934749603,-0.7076794505119324,-0.8106188178062439,0.013570050708949566,0.39585137367248535,-0.03915264084935188,-0.5211626291275024,0.2538473606109619,0.4664090573787689,0.49726971983909607,-0.354242205619812,0.13569967448711395,0.10924870520830154,0.8210403919219971,-0.029367096722126007,-0.42779597640037537,-0.7232344150543213,-0.6766095757484436,-0.5316557884216309,0.17836852371692657,0.04180457442998886,0.2554433047771454,-0.1883922517299652,0.23260465264320374,-0.2718498110771179,-0.052369873970746994,0.890018880367279,0.9245624542236328,1.07509446144104,0.875450611114502,0.8684384822845459,-0.10842036455869675,-0.020768458023667336,0.1329372674226761,-0.11896119266748428,-0.10888802260160446,-0.1347188502550125,-0.0854041650891304,-0.16077128052711487,-0.5746310949325562,-0.6519297361373901,0.4398994445800781
-0.6506527662277222,-0.09603007137775421,0.002271458972245455,0.8644182085990906,0.5358538031578064,-0.6809324026107788,-0.009500102140009403,0.9936438202857971,-0.5064870715141296,0.8511993885040283,0.8470516800880432,0.6792691349983215,-1.16897451877594,-0.8255314230918884,-0.36351850628852844,0.3295189142227173,0.5951300859451294,0.6154636740684509,0.20750610530376434,-0.8818655610084534,-0.1711558848619461,-0.013333858922123909,0.5840534567832947,0.995176374912262,0.16326838731765747,-0.850428581237793,0.3031085431575775,0.9513163566589355,0.6922195553779602,0.393886536359787,0.03814281150698662,0.7394777536392212,0.418587327003479,0.8211405873298645,-1.2458430528640747,-1.164584994316101,0.5982600450515747,-0.4135662615299225,-0.634283721446991,0.5430046319961548,1.128250002861023,-0.2876417338848114,-0.7547862529754639,0.7807804942131042,0.04857444390654564,-0.5663456320762634,0.4631979763507843,1.0219955444335938,-0.20359750092029572,-0.8076577186584473,0.10238725692033768,0.39006471633911133,-0.4223809242248535,-0.09758983552455902,0.35145336389541626,0.0027399163227528334,-0.02726736105978489,-0.18239152431488037,-0.22957825660705566,-0.42738720774650574,1.1570985317230225,1.1314793825149536,0.9815594553947449,0.8685380816459656,1.1182507276535034,1.1481646299362183,1.100066900253296,0.86140376329422,0.8509002327919006,1.1003544330596924,0.03298648074269295,-0.07295715808868408,0.1537039875984192,-0.14268505573272705,0.0918053537607193,0.154473215341568,0.13817177712917328,-0.12926632165908813,-0.1511830985546112,-0.1324840635061264,-0.6232929229736328,-0.7648800015449524,-0.3281049132347107,0.1314954161643982,0.05935624986886978,-0.2088325470685959,0.19663922488689423,-0.23814259469509125,0.6109321117401123,0.8687041401863098,-0.17916984856128693,0.10987798869609833,0.3789548873901367,0.46403419971466064,-0.6576616764068604,-0.11542607098817825,-0.19328546524047852,-0.5841637253761292,-0.7431805729866028,0.9067683219909668,-0.5208722352981567,-0.3157237470149994,0.058138277381658554,0.03400060907006264,-0.46778154373168945,0.7626273036003113,-0.18622536957263947,0.33688196539878845,-0.263651043176651,0.32076355814933777,-0.7089681625366211,-0.8107888698577881,0.012119199149310589,0.39681097865104675,-0.04021429643034935,-0.5221834182739258,0.2548794746398926,0.4670516848564148,0.4961692988872528,-0.3527030944824219,0.1339663416147232,0.10793325304985046,0.8212565183639526,-0.029688794165849686,-0.42869704961776733,-0.7243357300758362,-0.676878809928894,-0.5307776927947998,0.17755982279777527,0.04306381195783615,0.25543755292892456,-0.18834897875785828,0.23237793147563934,-0.27191799879074097,-0.052655041217803955,0.8903322219848633,0.9258597493171692,1.0776869058609009,0.8752425312995911,0.8676931262016296,-0.10815968364477158,-0.018259640783071518,0.13561032712459564,-0.11913475394248962,-0.1092558205127716,-0.1352897435426712,-0.08723646402359009,-0.16305287182331085,-0.5744205117225647,-0.6511801481246948,0.44191214442253113
-0.6499926447868347,-0.09514747560024261,0.002176431706175208,0.865395724773407,0.5358608961105347,-0.680653989315033,-0.008729393593966961,0.9933785200119019,-0.5055162310600281,0.8528196215629578,0.8458586931228638,0.6780493259429932,-1.169556736946106,-0.8267621397972107,-0.3653455376625061,0.3281116187572479,0.5961197018623352,0.6152164340019226,0.20667655766010284,-0.883058488368988,-0.17402979731559753,-0.0162068922072649,0.5810831785202026,0.9972898960113525,0.1659345030784607,-0.8482544422149658,0.30508875846862793,0.9535709619522095,0.6939193606376648,0.3935551047325134,0.03650128096342087,0.7366189956665039,0.4166368246078491,0.8188625574111938,-1.2481722831726074,-1.1660491228103638,0.5978886485099792,-0.4140723943710327,-0.6331648230552673,0.543867826461792,1.1296700239181519,-0.2861623764038086,-0.7532019019126892,0.7814169526100159,0.04682587832212448,-0.5643855929374695,0.4651947617530823,1.0238386392593384,-0.20238952338695526,-0.8057020306587219,0.10247734934091568,0.3899468779563904,-0.42242130637168884,-0.09762702882289886,0.35142961144447327,0.002747851889580488,-0.027213478460907936,-0.18237344920635223,-0.22960670292377472,-0.42721322178840637,1.159182071685791,1.1314046382904053,0.9804205894470215,0.8693106174468994,1.1176979541778564,1.149138331413269,1.0995017290115356,0.8598716855049133,0.8498308658599854,1.1026183366775513,0.03547253832221031,-0.07463258504867554,0.15515214204788208,-0.14317257702350616,0.09029638022184372,0.15591499209403992,0.13927413523197174,-0.13035500049591064,-0.15219920873641968,-0.13185705244541168,-0.6242484450340271,-0.7639701962471008,-0.32998883724212646,0.13112549483776093,0.058308765292167664,-0.20961503684520721,0.1961229294538498,-0.23768651485443115,0.6097990870475769,0.8697468638420105,-0.1811061054468155,0.10960940271615982,0.3774406611919403,0.4657604694366455,-0.6553298830986023,-0.113700732588768,-0.1907774955034256,-0.5844900012016296,-0.7430559992790222,0.9082449674606323,-0.5238171815872192,-0.318190336227417,0.0564255490899086,0.036632832139730453,-0.46503591537475586,0.7648230791091919,-0.18341226875782013,0.33469530940055847,-0.26217183470726013,0.32351934909820557,-0.7102015614509583,-0.8108625411987305,0.010660731233656406,0.3978979289531708,-0.04116107150912285,-0.523103654384613,0.256071537733078,0.4675871729850769,0.4951596260070801,-0.35124802589416504,0.13229241967201233,0.10669321566820145,0.8214228749275208,-0.030012881383299828,-0.4295237958431244,-0.7253593802452087,-0.6771363615989685,-0.5299778580665588,0.17680850625038147,0.04420781508088112,0.25542744994163513,-0.18832342326641083,0.2320941984653473,-0.27197879552841187,-0.0529760867357254,0.8907079696655273,0.9272069334983826,1.080284833908081,0.8750988245010376,0.8669976592063904,-0.107830710709095,-0.01573328673839569,0.13824805617332458,-0.11925894767045975,-0.10960908979177475,-0.13593028485774994,-0.08909305930137634,-0.16532129049301147,-0.5742744207382202,-0.650482177734375,0.44392430782318115
-0.6494373679161072,-0.09432414174079895,0.00196654349565506,0.8663393259048462,0.5356981754302979,-0.6804766654968262,-0.00799829512834549,0.9930151700973511,-0.5045953392982483,0.8544136881828308,0.8447246551513672,0.6768770813941956,-1.1700711250305176,-0.8279457092285156,-0.36712878942489624,0.3267620801925659,0.5971611738204956,0.6149945259094238,0.20602907240390778,-0.8841147422790527,-0.17687420547008514,-0.01905607059597969,0.5781109929084778,0.9994304180145264,0.16852042078971863,-0.8461157083511353,0.3070387542247772,0.9558326005935669,0.6954678297042847,0.3933662474155426,0.03508162871003151,0.7337718605995178,0.41469311714172363,0.8164811730384827,-1.25054132938385,-1.1674102544784546,0.5974623560905457,-0.41451573371887207,-0.6320983171463013,0.5447192192077637,1.131005883216858,-0.28477469086647034,-0.7517114281654358,0.7819677591323853,0.04508381336927414,-0.562369167804718,0.46719059348106384,1.0256545543670654,-0.20126879215240479,-0.8037772178649902,0.1025579422712326,0.3898504376411438,-0.42238298058509827,-0.09764344245195389,0.3513930141925812,0.002757482696324587,-0.027165129780769348,-0.18234629929065704,-0.22962747514247894,-0.427066445350647,1.1612424850463867,1.1311914920806885,0.9792895913124084,0.8701587915420532,1.1171178817749023,1.150033712387085,1.0989888906478882,0.8583649396896362,0.8488271236419678,1.1048544645309448,0.03795679658651352,-0.07648404687643051,0.15651969611644745,-0.14359769225120544,0.08870929479598999,0.15730422735214233,0.140340194106102,-0.13142362236976624,-0.15314945578575134,-0.1311374306678772,-0.6251860857009888,-0.762985110282898,-0.3319922387599945,0.13081207871437073,0.05732928588986397,-0.2103281170129776,0.195672407746315,-0.23730824887752533,0.6087258458137512,0.8707259893417358,-0.1831224411725998,0.10897719860076904,0.3759532868862152,0.4675329029560089,-0.6530429720878601,-0.11205512285232544,-0.18825162947177887,-0.584898829460144,-0.7428424954414368,0.9096660614013672,-0.5267581343650818,-0.3202967643737793,0.054710470139980316,0.039224110543727875,-0.46240171790122986,0.7669999003410339,-0.18065975606441498,0.33246973156929016,-0.26063254475593567,0.32618001103401184,-0.711375892162323,-0.8108586072921753,0.00924758892506361,0.3990398943424225,-0.04201924428343773,-0.5239457488059998,0.257359117269516,0.46803268790245056,0.49422964453697205,-0.3498815596103668,0.1306740939617157,0.10552704334259033,0.8215422630310059,-0.03034587949514389,-0.43028005957603455,-0.7263088226318359,-0.6773884296417236,-0.5292507410049438,0.1761113554239273,0.04523786902427673,0.25542429089546204,-0.18829041719436646,0.2318332940340042,-0.27204185724258423,-0.05326613411307335,0.8911373019218445,0.928593635559082,1.0828826427459717,0.8750119209289551,0.8663491606712341,-0.10744082927703857,-0.013195325620472431,0.14088848233222961,-0.11935172230005264,-0.10995061695575714,-0.13662898540496826,-0.0909624844789505,-0.16757570207118988,-0.5741868615150452,-0.6498328447341919,0.4459379315376282
-0.6489817500114441,-0.09355572611093521,0.0016501029022037983,0.8672521710395813,0.5353761315345764,-0.6803960800170898,-0.007305426523089409,0.9925598502159119,-0.5037233829498291,0.8559812903404236,0.8436429500579834,0.6757456064224243,-1.1705278158187866,-0.8290853500366211,-0.3688706159591675,0.325469970703125,0.5982705950737,0.6148006916046143,0.20556074380874634,-0.8850305080413818,-0.1796904057264328,-0.021881721913814545,0.5751397609710693,1.0015863180160522,0.17102673649787903,-0.8440101742744446,0.30895671248435974,0.9580987095832825,0.6968745589256287,0.3933141231536865,0.03386684134602547,0.7309302091598511,0.41275647282600403,0.8140028119087219,-1.2529511451721191,-1.168678641319275,0.5969813466072083,-0.4149058163166046,-0.6310813426971436,0.5455584526062012,1.132260799407959,-0.2834755480289459,-0.7503129839897156,0.7824342846870422,0.04334920272231102,-0.5603044629096985,0.4691818654537201,1.0274423360824585,-0.20023423433303833,-0.8018839359283447,0.10272768884897232,0.38975775241851807,-0.4223840534687042,-0.09763580560684204,0.35137659311294556,0.00275608291849494,-0.027143973857164383,-0.1823214590549469,-0.2296498417854309,-0.426933616399765,1.1632829904556274,1.1308519840240479,0.9781668186187744,0.871061384677887,1.1165168285369873,1.1508549451828003,1.0985331535339355,0.8568840622901917,0.8478849530220032,1.1070505380630493,0.04043945297598839,-0.07849233597517014,0.1578109860420227,-0.14396920800209045,0.08705423027276993,0.15864291787147522,0.14137551188468933,-0.13247065246105194,-0.15403912961483002,-0.13033880293369293,-0.6261132955551147,-0.7619378566741943,-0.3340975046157837,0.13054491579532623,0.05641137808561325,-0.2109794169664383,0.19527655839920044,-0.2370019555091858,0.6077097654342651,0.8716428875923157,-0.18522056937217712,0.10800416022539139,0.37449344992637634,0.46933895349502563,-0.6508113145828247,-0.11050441861152649,-0.1857185959815979,-0.5853832960128784,-0.7425466179847717,0.9110277891159058,-0.5296945571899414,-0.32206910848617554,0.05299456790089607,0.04176192358136177,-0.4598788022994995,0.7691407799720764,-0.17797842621803284,0.3302125036716461,-0.2590387165546417,0.32873111963272095,-0.7124950289726257,-0.8107830286026001,0.007877307012677193,0.40021029114723206,-0.04279607534408569,-0.5247157216072083,0.25871479511260986,0.46839639544487,0.49337443709373474,-0.3486076295375824,0.12910781800746918,0.1044331043958664,0.8216167092323303,-0.03069423884153366,-0.4309694766998291,-0.72718745470047,-0.6776413917541504,-0.528590977191925,0.17546524107456207,0.04615489020943642,0.2554188370704651,-0.18826502561569214,0.2314925491809845,-0.27207833528518677,-0.05346328765153885,0.8916116952896118,0.9300095438957214,1.0854778289794922,0.8749762773513794,0.865744948387146,-0.10699697583913803,-0.010651256889104843,0.14352057874202728,-0.11941734701395035,-0.11028260737657547,-0.1373749077320099,-0.09283387660980225,-0.1698140949010849,-0.5741523504257202,-0.6492295861244202,0.4479548931121826
-0.6486191153526306,-0.09283451735973358,0.0012364854337647557,0.8681391477584839,0.5349043607711792,-0.6804077625274658,-0.0066505540162324905,0.9920182228088379,-0.5028995275497437,0.8575223684310913,0.8426073789596558,0.674648642539978,-1.1709362268447876,-0.830184280872345,-0.3705732226371765,0.32423487305641174,0.5994607210159302,0.6146360635757446,0.20526793599128723,-0.8858033418655396,-0.1824771910905838,-0.02467838115990162,0.5721732378005981,1.0037531852722168,0.17344485223293304,-0.8419356942176819,0.3108426332473755,0.9603668451309204,0.6981486678123474,0.39339208602905273,0.03284407779574394,0.728088915348053,0.4108276665210724,0.8114336729049683,-1.2554023265838623,-1.1698540449142456,0.596458375453949,-0.4152689278125763,-0.6301140785217285,0.5463793873786926,1.133437991142273,-0.28226175904273987,-0.7490041255950928,0.782818615436554,0.04162311926484108,-0.5581995844841003,0.4711642563343048,1.0292006731033325,-0.19928675889968872,-0.8000236749649048,0.10286018997430801,0.38969913125038147,-0.42238396406173706,-0.09762320667505264,0.3513581156730652,0.002779847476631403,-0.02711387537419796,-0.1822882741689682,-0.2296566665172577,-0.42684438824653625,1.1653063297271729,1.1303983926773071,0.9770485758781433,0.8719935417175293,1.1159090995788574,1.1516056060791016,1.0981409549713135,0.8554310202598572,0.8470016121864319,1.109183430671692,0.042920466512441635,-0.08063913881778717,0.15902864933013916,-0.14429812133312225,0.08533680438995361,0.15993240475654602,0.142387256026268,-0.1334943324327469,-0.15487158298492432,-0.12948459386825562,-0.6270372867584229,-0.760840892791748,-0.3362886905670166,0.13031414151191711,0.055548809468746185,-0.2115764021873474,0.19492456316947937,-0.23676219582557678,0.6067482233047485,0.8724987506866455,-0.18738552927970886,0.10687484592199326,0.37305065989494324,0.4711512625217438,-0.6486764550209045,-0.10910547524690628,-0.18320606648921967,-0.5859408974647522,-0.742186963558197,0.9123125672340393,-0.5326264500617981,-0.32353392243385315,0.05127996578812599,0.04423230513930321,-0.45747023820877075,0.7712171673774719,-0.1753808706998825,0.32793113589286804,-0.25739821791648865,0.3311557173728943,-0.7135626077651978,-0.8106414675712585,0.006548210978507996,0.4013831615447998,-0.0434986874461174,-0.5254196524620056,0.26011234521865845,0.46868613362312317,0.49258923530578613,-0.347430557012558,0.12759028375148773,0.10340963304042816,0.8216473460197449,-0.031064234673976898,-0.43159550428390503,-0.7279983758926392,-0.677901566028595,-0.5279935598373413,0.1748671978712082,0.046959564089775085,0.2554420232772827,-0.18827472627162933,0.23104976117610931,-0.27206575870513916,-0.05358731746673584,0.8921229243278503,0.9314448237419128,1.0880677700042725,0.8749868273735046,0.8651826977729797,-0.10650563985109329,-0.008081255480647087,0.14613434672355652,-0.11945970356464386,-0.11060677468776703,-0.1381576657295227,-0.09469681233167648,-0.1720340996980667,-0.5741658210754395,-0.6486701369285583,0.4499768614768982
-0.6484962105751038,-0.09251230210065842,0.0009718535002321005,0.8685622811317444,0.5345889329910278,-0.680467963218689,-0.006353187374770641,0.9917007088661194,-0.5025135278701782,0.8582775592803955,0.8421096205711365,0.6741143465042114,-1.1711207628250122,-0.8307148814201355,-0.3714059889316559,0.3236464262008667,0.6001043915748596,0.6145715117454529,0.20520849525928497,-0.8861142992973328,-0.18386295437812805,-0.026068508625030518,0.5706881284713745,1.004842758178711,0.17460957169532776,-0.8409072160720825,0.31177496910095215,0.9615139365196228,0.69870924949646,0.39351388812065125,0.03239315748214722,0.7266600728034973,0.40985187888145447,0.8101046085357666,-1.2566534280776978,-1.1703990697860718,0.5961756110191345,-0.41544079780578613,-0.6296542882919312,0.5467807054519653,1.1339855194091797,-0.28170040249824524,-0.7483996748924255,0.7829638123512268,0.04075799509882927,-0.5571096539497375,0.4721738398075104,1.0300806760787964,-0.19883504509925842,-0.7990930676460266,0.10289986431598663,0.389659583568573,-0.4223470091819763,-0.0976201668381691,0.35133230686187744,0.0028029968962073326,-0.027083884924650192,-0.18227313458919525,-0.2296658158302307,-0.42676833271980286,1.1663167476654053,1.1301182508468628,0.9764902591705322,0.872465968132019,1.115592122077942,1.1519514322280884,1.097975254058838,0.8547153472900391,0.8465865254402161,1.1102150678634644,0.04415714368224144,-0.08177836984395981,0.1596020609140396,-0.1444447636604309,0.08444350212812424,0.1605524867773056,0.14288048446178436,-0.13399741053581238,-0.15526317059993744,-0.12902329862117767,-0.6275011897087097,-0.7602733969688416,-0.3374197781085968,0.13021220266819,0.055142100900411606,-0.21185140311717987,0.19476522505283356,-0.23667298257350922,0.6062935590744019,0.8728966116905212,-0.18850354850292206,0.10622169822454453,0.37233904004096985,0.47205525636672974,-0.6476632356643677,-0.10849157720804214,-0.18196451663970947,-0.5862529277801514,-0.7419779300689697,0.9129141569137573,-0.5340978503227234,-0.3241147994995117,0.05041301250457764,0.045442357659339905,-0.45629939436912537,0.7722967267036438,-0.17411838471889496,0.3267744481563568,-0.25652769207954407,0.33229896426200867,-0.7140722870826721,-0.8105403780937195,0.005903773009777069,0.4019581973552704,-0.04381633922457695,-0.5257415175437927,0.26081958413124084,0.4687977731227875,0.49222931265830994,-0.34689265489578247,0.1268543154001236,0.10293219238519669,0.8216409683227539,-0.03126305341720581,-0.43187838792800903,-0.7283714413642883,-0.6780384182929993,-0.5277235507965088,0.1745907962322235,0.047305990010499954,0.25544461607933044,-0.18828323483467102,0.23080630600452423,-0.2720893323421478,-0.05363249406218529,0.892393171787262,0.932167112827301,1.0893566608428955,0.8750128149986267,0.8649215698242188,-0.10623931884765625,-0.006787034682929516,0.1474490910768509,-0.1194710060954094,-0.11076558381319046,-0.13856251537799835,-0.09561906009912491,-0.1731339395046234,-0.5741941332817078,-0.6484112739562988,0.45099106431007385
-0.6484264731407166,-0.09222424030303955,0.0006550977122969925,0.8689679503440857,0.5342009663581848,-0.6805779337882996,-0.006082682404667139,0.9913406372070312,-0.5021512508392334,0.859018862247467,0.8416296243667603,0.6735922694206238,-1.1712884902954102,-0.8312282562255859,-0.37222185730934143,0.32308563590049744,0.6007962226867676,0.6145234704017639,0.20523126423358917,-0.8863530158996582,-0.18524391949176788,-0.02745305374264717,0.5692014098167419,1.0059312582015991,0.1757378727197647,-0.8398792743682861,0.31270965933799744,0.9626785516738892,0.6992049813270569,0.39370477199554443,0.03200022503733635,0.7252243757247925,0.40886881947517395,0.8087366819381714,-1.2579271793365479,-1.170905351638794,0.5958720445632935,-0.4156053066253662,-0.6292166113853455,0.5471734404563904,1.1344943046569824,-0.2811826169490814,-0.7478426694869995,0.7830647230148315,0.03989393264055252,-0.5559816360473633,0.47320452332496643,1.030962347984314,-0.19839775562286377,-0.7981630563735962,0.10292559117078781,0.3896033465862274,-0.42228612303733826,-0.09761731326580048,0.35130587220191956,0.0028387235943228006,-0.027067910879850388,-0.18225671350955963,-0.22966952621936798,-0.42671993374824524,1.1673297882080078,1.1297916173934937,0.9759321808815002,0.872940719127655,1.1152633428573608,1.1522691249847412,1.0978362560272217,0.8540091514587402,0.8461952805519104,1.1112152338027954,0.045392103493213654,-0.082972452044487,0.16014282405376434,-0.14457619190216064,0.08351746946573257,0.16115127503871918,0.14336195588111877,-0.13449299335479736,-0.15563294291496277,-0.12852805852890015,-0.627968966960907,-0.7596904039382935,-0.338580459356308,0.13012082874774933,0.0547572523355484,-0.21210584044456482,0.19461923837661743,-0.2366119772195816,0.6058631539344788,0.8732659816741943,-0.18965567648410797,0.10548131912946701,0.3716372549533844,0.4729548394680023,-0.6467048525810242,-0.10796477645635605,-0.1807391494512558,-0.586595356464386,-0.7417421936988831,0.9134756326675415,-0.5355778336524963,-0.32457277178764343,0.04953717440366745,0.04663453996181488,-0.45515885949134827,0.7733963131904602,-0.17288298904895782,0.3256022036075592,-0.2555931806564331,0.33337825536727905,-0.7145599126815796,-0.8104113936424255,0.0052783554419875145,0.40251630544662476,-0.04410353675484657,-0.5260360240936279,0.26152899861335754,0.4688793420791626,0.4918994903564453,-0.3464043140411377,0.12613916397094727,0.1024869903922081,0.8216138482093811,-0.03147665411233902,-0.4321332573890686,-0.7287142276763916,-0.6781833171844482,-0.5274798274040222,0.1743353009223938,0.047599002718925476,0.25545066595077515,-0.18829700350761414,0.2306199073791504,-0.2721419930458069,-0.053727198392152786,0.8926756978034973,0.9328917860984802,1.0906387567520142,0.8750576972961426,0.8646791577339172,-0.10595455020666122,-0.005485945381224155,0.14877520501613617,-0.1194736436009407,-0.11092154681682587,-0.13897810876369476,-0.09653044492006302,-0.17422398924827576,-0.5742421746253967,-0.6481719613075256,0.4520089030265808
