hidden1.weight_weight_0,hidden1.weight_weight_1,hidden1.weight_weight_2,hidden1.weight_weight_3,hidden1.weight_weight_4,hidden1.weight_weight_5,hidden1.weight_weight_6,hidden1.weight_weight_7,hidden1.weight_weight_8,hidden1.weight_weight_9,hidden1.weight_weight_10,hidden1.weight_weight_11,hidden1.weight_weight_12,hidden1.weight_weight_13,hidden1.weight_weight_14,hidden1.weight_weight_15,hidden1.weight_weight_16,hidden1.weight_weight_17,hidden1.weight_weight_18,hidden1.weight_weight_19,hidden1.weight_weight_20,hidden1.weight_weight_21,hidden1.weight_weight_22,hidden1.weight_weight_23,hidden1.weight_weight_24,hidden1.weight_weight_25,hidden1.weight_weight_26,hidden1.weight_weight_27,hidden1.weight_weight_28,hidden1.weight_weight_29,hidden1.weight_weight_30,hidden1.weight_weight_31,hidden1.weight_weight_32,hidden1.weight_weight_33,hidden1.weight_weight_34,hidden1.weight_weight_35,hidden1.weight_weight_36,hidden1.weight_weight_37,hidden1.weight_weight_38,hidden1.weight_weight_39,hidden1.weight_weight_40,hidden1.weight_weight_41,hidden1.weight_weight_42,hidden1.weight_weight_43,hidden1.weight_weight_44,hidden1.weight_weight_45,hidden1.weight_weight_46,hidden1.weight_weight_47,hidden1.weight_weight_48,hidden1.weight_weight_49,hidden1.bias_weight_0,hidden1.bias_weight_1,hidden1.bias_weight_2,hidden1.bias_weight_3,hidden1.bias_weight_4,hidden1.bias_weight_5,hidden1.bias_weight_6,hidden1.bias_weight_7,hidden1.bias_weight_8,hidden1.bias_weight_9,bn1.weight_weight_0,bn1.weight_weight_1,bn1.weight_weight_2,bn1.weight_weight_3,bn1.weight_weight_4,bn1.weight_weight_5,bn1.weight_weight_6,bn1.weight_weight_7,bn1.weight_weight_8,bn1.weight_weight_9,bn1.bias_weight_0,bn1.bias_weight_1,bn1.bias_weight_2,bn1.bias_weight_3,bn1.bias_weight_4,bn1.bias_weight_5,bn1.bias_weight_6,bn1.bias_weight_7,bn1.bias_weight_8,bn1.bias_weight_9,hidden2.weight_weight_0,hidden2.weight_weight_1,hidden2.weight_weight_2,hidden2.weight_weight_3,hidden2.weight_weight_4,hidden2.weight_weight_5,hidden2.weight_weight_6,hidden2.weight_weight_7,hidden2.weight_weight_8,hidden2.weight_weight_9,hidden2.weight_weight_10,hidden2.weight_weight_11,hidden2.weight_weight_12,hidden2.weight_weight_13,hidden2.weight_weight_14,hidden2.weight_weight_15,hidden2.weight_weight_16,hidden2.weight_weight_17,hidden2.weight_weight_18,hidden2.weight_weight_19,hidden2.weight_weight_20,hidden2.weight_weight_21,hidden2.weight_weight_22,hidden2.weight_weight_23,hidden2.weight_weight_24,hidden2.weight_weight_25,hidden2.weight_weight_26,hidden2.weight_weight_27,hidden2.weight_weight_28,hidden2.weight_weight_29,hidden2.weight_weight_30,hidden2.weight_weight_31,hidden2.weight_weight_32,hidden2.weight_weight_33,hidden2.weight_weight_34,hidden2.weight_weight_35,hidden2.weight_weight_36,hidden2.weight_weight_37,hidden2.weight_weight_38,hidden2.weight_weight_39,hidden2.weight_weight_40,hidden2.weight_weight_41,hidden2.weight_weight_42,hidden2.weight_weight_43,hidden2.weight_weight_44,hidden2.weight_weight_45,hidden2.weight_weight_46,hidden2.weight_weight_47,hidden2.weight_weight_48,hidden2.weight_weight_49,hidden2.bias_weight_0,hidden2.bias_weight_1,hidden2.bias_weight_2,hidden2.bias_weight_3,hidden2.bias_weight_4,bn2.weight_weight_0,bn2.weight_weight_1,bn2.weight_weight_2,bn2.weight_weight_3,bn2.weight_weight_4,bn2.bias_weight_0,bn2.bias_weight_1,bn2.bias_weight_2,bn2.bias_weight_3,bn2.bias_weight_4,output.weight_weight_0,output.weight_weight_1,output.weight_weight_2,output.weight_weight_3,output.weight_weight_4,output.bias_weight_0
-0.7660639882087708,-0.9499254822731018,0.49119457602500916,-0.03240383416414261,0.991340160369873,0.22805598378181458,-0.1326104700565338,0.9419529438018799,0.47838687896728516,-1.0351299047470093,0.49130916595458984,-1.0534309148788452,0.735754132270813,-0.9642802476882935,0.8271387219429016,0.6102592945098877,0.9467335939407349,1.0778861045837402,0.20595118403434753,-0.20039522647857666,-1.063001036643982,-0.5684703588485718,-0.6072075963020325,0.23829376697540283,-0.17866194248199463,-0.28509321808815,0.016138657927513123,0.36986294388771057,0.19279596209526062,0.14211376011371613,-0.3484625518321991,-0.021485745906829834,-0.30323323607444763,0.6854110956192017,-0.9947086572647095,0.15131957828998566,-0.790646493434906,0.3790660798549652,0.4910626709461212,-1.06430184841156,-0.8206215500831604,-0.6179254055023193,-0.1299390345811844,-0.1447065770626068,0.8543527126312256,0.842756986618042,0.11311881989240646,0.40968120098114014,-0.42816489934921265,0.946264386177063,-0.3062620460987091,0.24774163961410522,-0.3809284567832947,0.3131585717201233,0.4291715919971466,-0.2922566831111908,0.16849416494369507,0.39209720492362976,-0.2452620416879654,-0.1958516538143158,0.9898999929428101,1.0098999738693237,1.0098999738693237,1.0098999738693237,1.0098999738693237,1.0098999738693237,1.0098999738693237,0.9898999929428101,1.0098999738693237,0.9898999929428101,-0.009999997913837433,0.009999999776482582,0.009999966248869896,0.009999997913837433,0.009999996982514858,0.009999996051192284,0.009999945759773254,-0.009999997913837433,0.009999986737966537,-0.009999998845160007,-0.14261268079280853,0.058664679527282715,0.7744619846343994,0.20981524884700775,0.3775588572025299,0.236357182264328,0.030918069183826447,-0.06583063304424286,0.14597952365875244,-0.6739287972450256,-0.5840598344802856,-0.36148664355278015,0.6935306191444397,-0.23268325626850128,0.19446294009685516,-0.10621850192546844,-0.16254822909832,-0.2713995575904846,0.3788200318813324,0.5581277012825012,-0.35108670592308044,0.5063388347625732,-0.5887805223464966,-0.004670311696827412,0.27990055084228516,-0.25911617279052734,-0.5257790684700012,-0.6575092673301697,-0.24305640161037445,0.36727750301361084,0.21780553460121155,0.35525375604629517,0.386797696352005,-0.3643682301044464,-0.6763890385627747,-0.6827834248542786,0.5110322833061218,-0.3833483159542084,0.639890730381012,-0.311153382062912,-0.4060996174812317,0.7219254374504089,0.7515905499458313,0.4120398759841919,-0.2817968428134918,-0.04130236431956291,0.2043951153755188,0.7197706699371338,-0.7155349254608154,0.7466166019439697,0.0887211486697197,0.10831184685230255,0.1684533953666687,0.30141380429267883,-0.004965200088918209,0.9898999929428101,0.9898999929428101,1.0098999738693237,0.9898999929428101,0.9898999929428101,-0.009999997913837433,0.009999992325901985,0.009999972768127918,-0.009999997913837433,-0.009999999776482582,-0.5826603770256042,0.8186783194541931,-0.06404504179954529,-0.3754217028617859,0.786185622215271,-0.38390687108039856
-0.7624689340591431,-0.9399762153625488,0.501152515411377,-0.022546891123056412,1.001121997833252,0.2380436658859253,-0.12374494224786758,0.9490814805030823,0.46836093068122864,-1.0439506769180298,0.48135995864868164,-1.063254475593567,0.7258095741271973,-0.9740589261054993,0.8170769214630127,0.6001981496810913,0.9366319179534912,1.0877914428710938,0.2148832380771637,-0.1903754025697708,-1.06144380569458,-0.5783904790878296,-0.5973391532897949,0.24752143025398254,-0.16866447031497955,-0.2759600579738617,0.007858977653086185,0.3744201362133026,0.18889270722866058,0.15204106271266937,-0.3384319543838501,-0.011486913077533245,-0.29319635033607483,0.6825472712516785,-1.0046027898788452,0.14129693806171417,-0.799551248550415,0.3804824948310852,0.5007961988449097,-1.0542248487472534,-0.8106629848480225,-0.627813458442688,-0.13985954225063324,-0.15460115671157837,0.8442825078964233,0.8327003717422485,0.10379631817340851,0.4001164734363556,-0.41811805963516235,0.956155002117157,-0.3104589283466339,0.2468506395816803,-0.3794935941696167,0.3142213821411133,0.42830735445022583,-0.29453909397125244,0.16919389367103577,0.3953397572040558,-0.24511125683784485,-0.20076830685138702,0.979842483997345,1.0197755098342896,1.0189532041549683,1.019787073135376,1.0197736024856567,1.0197430849075317,1.0197416543960571,0.9797874689102173,1.0197861194610596,0.9798706769943237,-0.01992034912109375,0.0199831984937191,0.01974092796444893,0.020010747015476227,0.019994672387838364,0.019990645349025726,0.013112612068653107,-0.02000395581126213,0.01912130042910576,-0.019983647391200066,-0.15258827805519104,0.06865638494491577,0.7843199968338013,0.21971052885055542,0.3675127327442169,0.22634819149971008,0.04048407822847366,-0.05584850162267685,0.13596513867378235,-0.6641240119934082,-0.5740342140197754,-0.37136727571487427,0.7028490900993347,-0.24260757863521576,0.20442962646484375,-0.09846275299787521,-0.15678751468658447,-0.2811751067638397,0.38875943422317505,0.5481191277503967,-0.361064612865448,0.5162807106971741,-0.5787093043327332,0.005340865347534418,0.26988911628723145,-0.2690737843513489,-0.5159808993339539,-0.6474473476409912,-0.25303858518600464,0.377218633890152,0.20779462158679962,0.3652275502681732,0.3844039738178253,-0.3543248772621155,-0.6863214373588562,-0.6926665902137756,0.5209885835647583,-0.3733454644680023,0.6298261284828186,-0.32096582651138306,-0.4137219786643982,0.7315564155578613,0.7415163516998291,0.4220104515552521,-0.29177892208099365,-0.031287699937820435,0.20023445785045624,0.7097085118293762,-0.7254681587219238,0.7561888694763184,0.08402348309755325,0.10395391285419464,0.16846342384815216,0.30033984780311584,-0.0012440246064215899,0.9798912405967712,0.9803204536437988,1.01980459690094,0.9799759387969971,0.9798243641853333,-0.01987633854150772,0.019998379051685333,0.019902566447854042,-0.019872959703207016,-0.01994449645280838,-0.5726930499076843,0.8091186285018921,-0.07398483157157898,-0.36555182933807373,0.7761316299438477,-0.37386006116867065
-0.757407009601593,-0.930618405342102,0.5111151337623596,-0.013327604159712791,1.008579134941101,0.2479962259531021,-0.1145244613289833,0.9574406147003174,0.45835399627685547,-1.0510343313217163,0.4715701639652252,-1.072920560836792,0.7160723805427551,-0.9834898710250854,0.8071883916854858,0.5914790630340576,0.9265256524085999,1.0976237058639526,0.21893954277038574,-0.1804065704345703,-1.0672563314437866,-0.5874406695365906,-0.5874842405319214,0.2562388479709625,-0.15871918201446533,-0.2680343687534332,-0.0009670574218034744,0.37527334690093994,0.1818506121635437,0.16201816499233246,-0.3285500109195709,-0.0016825990751385689,-0.2835383713245392,0.6758703589439392,-1.0144304037094116,0.13126331567764282,-0.8088175654411316,0.37763693928718567,0.5102542042732239,-1.0441592931747437,-0.800629734992981,-0.6362007856369019,-0.1497107446193695,-0.16417640447616577,0.835261344909668,0.8226556181907654,0.09502120316028595,0.390807181596756,-0.4080795347690582,0.966033399105072,-0.3153080344200134,0.24449297785758972,-0.3768475651741028,0.31442001461982727,0.42773714661598206,-0.2941848635673523,0.16839328408241272,0.3975170850753784,-0.24438710510730743,-0.2021455019712448,0.9698411226272583,1.0296088457107544,1.022143840789795,1.0296571254730225,1.0296709537506104,1.0294454097747803,1.029442310333252,0.9697365760803223,1.0297032594680786,0.9699690341949463,-0.02981337532401085,0.029957294464111328,0.015078121796250343,0.03000614233314991,0.02999095246195793,0.029971806332468987,0.01982022449374199,-0.029945868998765945,0.026036206632852554,-0.029751263558864594,-0.16252994537353516,0.07865311205387115,0.7939240336418152,0.2296622395515442,0.35746729373931885,0.21636657416820526,0.049884095788002014,-0.046038009226322174,0.12598572671413422,-0.6542731523513794,-0.5640554428100586,-0.38117703795433044,0.7056694626808167,-0.2524634897708893,0.21436384320259094,-0.0902007520198822,-0.15160633623600006,-0.2909662425518036,0.39867523312568665,0.5381914377212524,-0.371064156293869,0.5262305736541748,-0.5686162710189819,0.01535690389573574,0.25996649265289307,-0.2790229916572571,-0.5063329935073853,-0.6373748183250427,-0.2630101144313812,0.38707077503204346,0.19780856370925903,0.3751864433288574,0.3780277669429779,-0.34425774216651917,-0.6962661147117615,-0.7024455666542053,0.5308676362037659,-0.3634811341762543,0.6197654604911804,-0.33029380440711975,-0.41268154978752136,0.7406011819839478,0.7314429879188538,0.43200159072875977,-0.30177703499794006,-0.021257884800434113,0.19309698045253754,0.6996393799781799,-0.7354053854942322,0.765708863735199,0.08029532432556152,0.10185865312814713,0.16849394142627716,0.3004913330078125,0.001204635133035481,0.9700808525085449,0.9718005061149597,1.0296906232833862,0.970458984375,0.9697999954223633,-0.029600312933325768,0.029566457495093346,0.02917446196079254,-0.029548844322562218,-0.029769327491521835,-0.5629263520240784,0.8006515502929688,-0.08379138261079788,-0.3560807406902313,0.7661306858062744,-0.36380335688591003
-0.7554277181625366,-0.9226707816123962,0.5208230018615723,-0.0052977800369262695,1.0117172002792358,0.25797039270401,-0.10539091378450394,0.9660990834236145,0.4485326409339905,-1.052394151687622,0.4620916247367859,-1.082346796989441,0.7066540122032166,-0.9923075437545776,0.7975910305976868,0.5853899121284485,0.916700005531311,1.1071842908859253,0.2159077525138855,-0.17056916654109955,-1.0746887922286987,-0.5944600105285645,-0.5775760412216187,0.26528114080429077,-0.1487179398536682,-0.26669666171073914,-0.010123156011104584,0.37043052911758423,0.1739848107099533,0.17203748226165771,-0.31874358654022217,0.007947774603962898,-0.27396970987319946,0.6680105924606323,-1.0242745876312256,0.12119662016630173,-0.8182954788208008,0.37177690863609314,0.5190848708152771,-1.0342191457748413,-0.7913353443145752,-0.6404144167900085,-0.15927740931510925,-0.17255932092666626,0.8288886547088623,0.8126308917999268,0.08595799654722214,0.38125669956207275,-0.39809679985046387,0.9758654832839966,-0.3169451355934143,0.24274277687072754,-0.3756725490093231,0.31455427408218384,0.42684751749038696,-0.2918917238712311,0.16687338054180145,0.39871978759765625,-0.24340811371803284,-0.20370043814182281,0.9599732160568237,1.039406657218933,1.0194330215454102,1.0394772291183472,1.0395960807800293,1.0386308431625366,1.0388365983963013,0.9597625136375427,1.039599061012268,0.9602918028831482,-0.03959829360246658,0.039917584508657455,0.00816299021244049,0.03992939740419388,0.04001281410455704,0.03976903855800629,0.027685847133398056,-0.039765749126672745,0.034146156162023544,-0.039298564195632935,-0.17241168022155762,0.08860024064779282,0.803001344203949,0.2396407574415207,0.34750497341156006,0.20638784766197205,0.0590854212641716,-0.03649565577507019,0.11609438061714172,-0.6446139216423035,-0.5541903376579285,-0.3909231722354889,0.7027362585067749,-0.26223254203796387,0.22419999539852142,-0.0815136507153511,-0.14511051774024963,-0.3007647693157196,0.4084993004798889,0.5283875465393066,-0.3810913562774658,0.5362138152122498,-0.5584936141967773,0.02531478926539421,0.25074028968811035,-0.2889629304409027,-0.49670687317848206,-0.6272682547569275,-0.27277207374572754,0.39660465717315674,0.1878885179758072,0.3851505219936371,0.3702215254306793,-0.33415985107421875,-0.7062240242958069,-0.7119841575622559,0.5406368374824524,-0.3537638187408447,0.6097311973571777,-0.3384781777858734,-0.4072065055370331,0.7485928535461426,0.7213824391365051,0.4420238733291626,-0.31179094314575195,-0.011210431344807148,0.1849977970123291,0.6895352602005005,-0.745337188243866,0.7753084897994995,0.07750232517719269,0.09998335689306259,0.16852694749832153,0.3012732267379761,0.00268155662342906,0.9605922102928162,0.9648019075393677,1.0395327806472778,0.961687445640564,0.9598663449287415,-0.03904802352190018,0.03890855982899666,0.03703059256076813,-0.03878146409988403,-0.03938509151339531,-0.5534847378730774,0.7938103675842285,-0.09340128302574158,-0.34735307097435,0.756222128868103,-0.3537338078022003
-0.7596054077148438,-0.9170633554458618,0.5294284224510193,0.0011935317888855934,1.0103065967559814,0.2680025100708008,-0.09628555178642273,0.9748996496200562,0.43929165601730347,-1.0486743450164795,0.4528634250164032,-1.0914934873580933,0.6976870894432068,-0.9999804496765137,0.7885775566101074,0.5822777152061462,0.9078407287597656,1.1160223484039307,0.2102755457162857,-0.161076158285141,-1.0761523246765137,-0.6012389063835144,-0.5732166767120361,0.2745658755302429,-0.13865673542022705,-0.26745539903640747,-0.019293949007987976,0.3638279139995575,0.16556453704833984,0.18206271529197693,-0.30916231870651245,0.01723426580429077,-0.26476842164993286,0.6594147682189941,-1.0340296030044556,0.11108972132205963,-0.8279480338096619,0.36440157890319824,0.5268309116363525,-1.024641752243042,-0.7819287776947021,-0.6413480043411255,-0.16814208030700684,-0.17934122681617737,0.8262726664543152,0.8026983737945557,0.07655178010463715,0.37150463461875916,-0.38820406794548035,0.9855818152427673,-0.3188077211380005,0.2402673214673996,-0.37507233023643494,0.31475234031677246,0.4266763925552368,-0.289086252450943,0.16536320745944977,0.39973148703575134,-0.24331533908843994,-0.20402167737483978,0.9503113031387329,1.0490840673446655,1.014108419418335,1.0492357015609741,1.0494307279586792,1.04634690284729,1.0477889776229858,0.9498492479324341,1.0494539737701416,0.9511377811431885,-0.04917844384908676,0.049812108278274536,0.0002080993726849556,0.04976900666952133,0.04991834983229637,0.04953557625412941,0.03618471324443817,-0.04947114363312721,0.042883798480033875,-0.04824250936508179,-0.18218067288398743,0.09854230284690857,0.8114069700241089,0.24963964521884918,0.33754053711891174,0.1964104175567627,0.06822669506072998,-0.0272737517952919,0.10632213205099106,-0.6381352543830872,-0.5444877743721008,-0.40050172805786133,0.697470486164093,-0.2718229591846466,0.23378562927246094,-0.07277204096317291,-0.1409376859664917,-0.3104812204837799,0.418136328458786,0.5188263058662415,-0.39112940430641174,0.5462444424629211,-0.5483542680740356,0.035074274986982346,0.24352145195007324,-0.2989167273044586,-0.4870707094669342,-0.6171154379844666,-0.2818538248538971,0.4053041636943817,0.1781644970178604,0.39504775404930115,0.3616876006126404,-0.3240472972393036,-0.7161356210708618,-0.7210162878036499,0.5502125024795532,-0.344296932220459,0.599797785282135,-0.34538978338241577,-0.400052934885025,0.754367470741272,0.7113276124000549,0.45208364725112915,-0.32183733582496643,-0.0011414466425776482,0.1764850914478302,0.6793872714042664,-0.7552831768989563,0.784997820854187,0.07475434243679047,0.09900769591331482,0.168721541762352,0.3019709587097168,0.004671703092753887,0.951564371585846,0.9595335721969604,1.0492451190948486,0.9541012048721313,0.9500852227210999,-0.04782569035887718,0.04849512130022049,0.0423414520919323,-0.047145381569862366,-0.048545584082603455,-0.5444996356964111,0.7888017296791077,-0.10268641263246536,-0.3398250937461853,0.7464654445648193,-0.34364524483680725
-0.7658916115760803,-0.9151976108551025,0.5356520414352417,0.005471306387335062,1.0056252479553223,0.2780924439430237,-0.0869789645075798,0.9840277433395386,0.43083804845809937,-1.0426844358444214,0.44373637437820435,-1.1003674268722534,0.6890367269515991,-1.0065994262695312,0.780320405960083,0.5834062099456787,0.9002048969268799,1.1236568689346313,0.20314401388168335,-0.15257979929447174,-1.0736528635025024,-0.6080952882766724,-0.5719423890113831,0.2840559482574463,-0.12855401635169983,-0.2698915898799896,-0.02874482423067093,0.356092631816864,0.1588250696659088,0.19203506410121918,-0.2999001145362854,0.026041172444820404,-0.25621509552001953,0.6503409147262573,-1.0436394214630127,0.10094261914491653,-0.8377469778060913,0.3561649024486542,0.5334294438362122,-1.0153834819793701,-0.7722649574279785,-0.6390056610107422,-0.1757519245147705,-0.18399472534656525,0.8279280662536621,0.7928053736686707,0.06700371950864792,0.36160147190093994,-0.37844395637512207,0.9951961040496826,-0.31979653239250183,0.23825912177562714,-0.3742965757846832,0.314721018075943,0.4261893332004547,-0.2871323227882385,0.1645183116197586,0.3996341824531555,-0.24307063221931458,-0.20348429679870605,0.9408497214317322,1.0586016178131104,1.0072358846664429,1.058889389038086,1.0590676069259644,1.0522987842559814,1.0562626123428345,0.9401770234107971,1.0592612028121948,0.9428587555885315,-0.058448679745197296,0.059590019285678864,-0.008402848616242409,0.05935773625969887,0.059679485857486725,0.05933551490306854,0.04501082003116608,-0.058882880955934525,0.05204553157091141,-0.05607273802161217,-0.1918259859085083,0.10843920707702637,0.8185972571372986,0.2595813572406769,0.32769644260406494,0.18639078736305237,0.07764548063278198,-0.018290948122739792,0.0967223048210144,-0.638705313205719,-0.5349300503730774,-0.40992265939712524,0.6909016966819763,-0.2811868488788605,0.2429046779870987,-0.06415390968322754,-0.1436501294374466,-0.3201581537723541,0.4275241196155548,0.5096302628517151,-0.40118417143821716,0.5563273429870605,-0.5381962060928345,0.04451446607708931,0.23947635293006897,-0.30891624093055725,-0.47736257314682007,-0.6069121956825256,-0.28996360301971436,0.41275307536125183,0.168686643242836,0.4047839641571045,0.35266995429992676,-0.313948392868042,-0.7259180545806885,-0.7295804619789124,0.5593665242195129,-0.3352864980697632,0.5900376439094543,-0.3507371246814728,-0.3919626772403717,0.757569432258606,0.7013070583343506,0.4621623754501343,-0.3318706154823303,0.008935458958148956,0.1674993932247162,0.6691952347755432,-0.7652022242546082,0.794821560382843,0.07149668037891388,0.09749056398868561,0.16918691992759705,0.30190932750701904,0.007534894160926342,0.9431607723236084,0.955717146396637,1.05864417552948,0.9480764865875244,0.940536379814148,-0.055968429893255234,0.05815127491950989,0.04259581118822098,-0.054465558379888535,-0.057023655623197556,-0.536139965057373,0.7853279113769531,-0.111429363489151,-0.3339076638221741,0.7369366884231567,-0.3335360884666443
-0.7731869220733643,-0.9165757298469543,0.5377574563026428,0.006841843016445637,0.999167799949646,0.28824758529663086,-0.07747605443000793,0.9931927919387817,0.4228280484676361,-1.0359357595443726,0.43477457761764526,-1.1088305711746216,0.6810331344604492,-1.011535406112671,0.7732495665550232,0.5880882740020752,0.8952792286872864,1.128481149673462,0.1951112598180771,-0.14600181579589844,-1.068793535232544,-0.6154096722602844,-0.571217954158783,0.29375553131103516,-0.11841149628162384,-0.27294793725013733,-0.03829051926732063,0.34765875339508057,0.15482009947299957,0.20189502835273743,-0.29111447930336,0.034200552850961685,-0.24885307252407074,0.6409322619438171,-1.0530544519424438,0.09077496826648712,-0.8475898504257202,0.34741735458374023,0.5382776856422424,-1.0074080228805542,-0.7624951601028442,-0.6343737244606018,-0.1807224005460739,-0.18568649888038635,0.8325276970863342,0.7829447388648987,0.057345643639564514,0.35179081559181213,-0.3688432276248932,1.0046836137771606,-0.32076433300971985,0.2365943193435669,-0.37443071603775024,0.31436994671821594,0.425143301486969,-0.28509408235549927,0.163556769490242,0.39966222643852234,-0.24256955087184906,-0.20284602046012878,0.9315169453620911,1.0678986310958862,0.9994630813598633,1.068421721458435,1.0683321952819824,1.056303858757019,1.0643305778503418,0.9309681057929993,1.0690877437591553,0.9356982707977295,-0.06740285456180573,0.06911495327949524,-0.017385218292474747,0.06851961463689804,0.06917870044708252,0.0690447986125946,0.05418258160352707,-0.06781642138957977,0.06150500848889351,-0.06215142086148262,-0.2012956738471985,0.11821828782558441,0.824436366558075,0.2694394588470459,0.31808188557624817,0.1763416826725006,0.08718051016330719,-0.009689969010651112,0.08737607300281525,-0.6422023773193359,-0.5254518985748291,-0.4191708564758301,0.683761477470398,-0.2902509570121765,0.251326322555542,-0.05562947690486908,-0.14923095703125,-0.3298197090625763,0.43662720918655396,0.5009543895721436,-0.41124600172042847,0.5664514899253845,-0.5280207395553589,0.05343637615442276,0.2390943020582199,-0.3189845383167267,-0.4675331711769104,-0.5966647267341614,-0.2967086732387543,0.41851744055747986,0.15955504775047302,0.41420242190361023,0.3433714509010315,-0.3039599061012268,-0.7354390025138855,-0.737643837928772,0.5678719282150269,-0.32695063948631287,0.5805697441101074,-0.3546254336833954,-0.38326555490493774,0.7586039900779724,0.6913384199142456,0.4722326993942261,-0.3418430685997009,0.019005270674824715,0.1581570953130722,0.6589899659156799,-0.7750350832939148,0.8047567009925842,0.06927768886089325,0.09757045656442642,0.16979116201400757,0.30207526683807373,0.010234184563159943,0.9355962872505188,0.9526857733726501,1.067308783531189,0.9438415169715881,0.9313241839408875,-0.06329178810119629,0.0679679587483406,0.03890209645032883,-0.06036300212144852,-0.06457965821027756,-0.5286202430725098,0.7827619910240173,-0.11927585303783417,-0.32984229922294617,0.727735161781311,-0.3234107494354248
-0.781264066696167,-0.9200552701950073,0.5366974472999573,0.005945355631411076,0.9916536808013916,0.29842856526374817,-0.06780009716749191,1.0024359226226807,0.41597938537597656,-1.0283979177474976,0.4260597825050354,-1.1168216466903687,0.673734188079834,-1.0150065422058105,0.7672948837280273,0.5944051742553711,0.8934116959571838,1.1305242776870728,0.18671785295009613,-0.14081254601478577,-1.0625245571136475,-0.6228868365287781,-0.5705364942550659,0.3036215305328369,-0.1082511842250824,-0.2770412564277649,-0.04796770215034485,0.33872127532958984,0.152983158826828,0.211531862616539,-0.2829592823982239,0.04145793616771698,-0.2433311492204666,0.6312738656997681,-1.0622665882110596,0.08057655394077301,-0.8573845624923706,0.3382564187049866,0.5414597392082214,-1.0010126829147339,-0.7525543570518494,-0.6283561587333679,-0.18369166553020477,-0.1853388249874115,0.8386146426200867,0.7732353806495667,0.0474945604801178,0.34284958243370056,-0.3595028817653656,1.01390540599823,-0.3216727077960968,0.23455145955085754,-0.3744785785675049,0.31407320499420166,0.42433252930641174,-0.28336259722709656,0.16287270188331604,0.39989566802978516,-0.2426951825618744,-0.201955646276474,0.9224106073379517,1.0768429040908813,0.9911308288574219,1.077770709991455,1.0770994424819946,1.0592334270477295,1.0718079805374146,0.9223259687423706,1.0788743495941162,0.9295897483825684,-0.07602769136428833,0.0783134400844574,-0.026522241532802582,0.07711507380008698,0.07835499942302704,0.07873880118131638,0.06362365931272507,-0.0762815773487091,0.07094278186559677,-0.06614712625741959,-0.2105449140071869,0.12769544124603271,0.8291699290275574,0.2791174650192261,0.3088330924510956,0.16628515720367432,0.09646132588386536,-0.0016775624826550484,0.07836480438709259,-0.646835446357727,-0.516147255897522,-0.4281001091003418,0.6762833595275879,-0.2989455461502075,0.2589595913887024,-0.04667581617832184,-0.156209334731102,-0.3394007086753845,0.4453732967376709,0.4928540289402008,-0.4212189316749573,0.5765611529350281,-0.517853319644928,0.061328738927841187,0.2419590801000595,-0.32913658022880554,-0.4575437009334564,-0.586414635181427,-0.30096113681793213,0.4222307503223419,0.1508125364780426,0.4231896698474884,0.33401840925216675,-0.2941525876522064,-0.7445500493049622,-0.7453110814094543,0.5755524039268494,-0.31937727332115173,0.5714849233627319,-0.3571707308292389,-0.37412601709365845,0.758049726486206,0.6814367175102234,0.48225051164627075,-0.3516886830329895,0.029045231640338898,0.14855466783046722,0.6488313674926758,-0.7847075462341309,0.8147514462471008,0.06708906590938568,0.09732620418071747,0.17045342922210693,0.30296972393989563,0.011872652918100357,0.9290848970413208,0.9497067332267761,1.0744833946228027,0.9413923025131226,0.9225669503211975,-0.06975311785936356,0.07785829901695251,0.03310086950659752,-0.06466682255268097,-0.07096292823553085,-0.522162139415741,0.7803514003753662,-0.12578833103179932,-0.3276197016239166,0.7189719676971436,-0.3132818043231964
-0.7899024486541748,-0.9251622557640076,0.5331496000289917,0.0031264517456293106,0.9833792448043823,0.3085675835609436,-0.0579206682741642,1.0114631652832031,0.41038236021995544,-1.0204648971557617,0.41769862174987793,-1.1243230104446411,0.6671008467674255,-1.0170456171035767,0.762527346611023,0.6017777323722839,0.8943495154380798,1.130001425743103,0.17825354635715485,-0.13698764145374298,-1.055295467376709,-0.630562424659729,-0.5690692067146301,0.31359267234802246,-0.09818106889724731,-0.281841516494751,-0.05756942555308342,0.32962244749069214,0.15300491452217102,0.22031591832637787,-0.27558889985084534,0.047573354095220566,-0.2401403784751892,0.6214107275009155,-1.0712847709655762,0.07039996236562729,-0.8669354319572449,0.3288021385669708,0.543649435043335,-0.9958218336105347,-0.7424582242965698,-0.6213410496711731,-0.1849069446325302,-0.18325768411159515,0.8457586765289307,0.7636967301368713,0.03747636079788208,0.3351539373397827,-0.35044363141059875,1.0228315591812134,-0.32242611050605774,0.2328088879585266,-0.3750554025173187,0.31355056166648865,0.4236810803413391,-0.28244733810424805,0.1627577245235443,0.39938634634017944,-0.2421911507844925,-0.20102261006832123,0.9135600924491882,1.0853170156478882,0.9824562668800354,1.0868476629257202,1.0852152109146118,1.0615755319595337,1.0783783197402954,0.9144887924194336,1.088632345199585,0.9246188998222351,-0.08435935527086258,0.08708611130714417,-0.035580217838287354,0.08496914803981781,0.08710060268640518,0.08844803273677826,0.07312705367803574,-0.08409222215414047,0.08036289364099503,-0.06823159009218216,-0.219477117061615,0.1365918517112732,0.8329794406890869,0.28826308250427246,0.30023837089538574,0.1562688946723938,0.10529531538486481,0.005716577637940645,0.06982626765966415,-0.6522736549377441,-0.5070604085922241,-0.436668336391449,0.6686177849769592,-0.30720725655555725,0.26568150520324707,-0.03736436739563942,-0.1640947014093399,-0.3488866984844208,0.45369091629981995,0.48544004559516907,-0.43094807863235474,0.5865839123725891,-0.5077229738235474,0.06813632696866989,0.2467503845691681,-0.3393743932247162,-0.4474189281463623,-0.5762315988540649,-0.3030131459236145,0.4241979122161865,0.14256012439727783,0.43155303597450256,0.3250434100627899,-0.28472426533699036,-0.7530429363250732,-0.7526359558105469,0.5819839239120483,-0.3126979470252991,0.5629596710205078,-0.35881730914115906,-0.36465930938720703,0.7564412355422974,0.6716223955154419,0.4921521544456482,-0.3613245189189911,0.039027176797389984,0.13880564272403717,0.6388095617294312,-0.7941352128982544,0.8247243762016296,0.06580160558223724,0.09751567989587784,0.1708306521177292,0.3037533760070801,0.013640961609780788,0.9237918853759766,0.9461604952812195,1.079322099685669,0.9405515789985657,0.9143842458724976,-0.07513058930635452,0.08746281266212463,0.02601512521505356,-0.06730625778436661,-0.07596772909164429,-0.5169256925582886,0.7773884534835815,-0.1305888146162033,-0.3270392417907715,0.7107580900192261,-0.3031677007675171
-0.7989724278450012,-0.9316341280937195,0.5277945399284363,-0.0013834827113896608,0.9745261073112488,0.31855064630508423,-0.04790157079696655,1.0198739767074585,0.40530332922935486,-1.0127614736557007,0.409877747297287,-1.1311689615249634,0.6612969636917114,-1.0173929929733276,0.7594299912452698,0.6099268794059753,0.8973438739776611,1.127316951751709,0.16940872371196747,-0.13540133833885193,-1.047316074371338,-0.6382186412811279,-0.5672611594200134,0.3236148953437805,-0.0882953330874443,-0.2852845788002014,-0.06468325108289719,0.3213721513748169,0.1560966968536377,0.22779761254787445,-0.2692273259162903,0.05223359540104866,-0.23970790207386017,0.6113829612731934,-1.0801308155059814,0.060233257710933685,-0.8763391971588135,0.31916093826293945,0.5449238419532776,-0.9914750456809998,-0.7324339151382446,-0.6134445667266846,-0.183709979057312,-0.17937473952770233,0.8537408113479614,0.7543375492095947,0.027339836582541466,0.32866793870925903,-0.341624915599823,1.0314676761627197,-0.32280001044273376,0.23184481263160706,-0.37594839930534363,0.31297457218170166,0.42293667793273926,-0.2825258672237396,0.16244015097618103,0.39875295758247375,-0.241756409406662,-0.19974659383296967,0.9049865007400513,1.0932753086090088,0.9735819101333618,1.0956408977508545,1.0923678874969482,1.0632002353668213,1.084074854850769,0.9079172015190125,1.0983390808105469,0.9208338260650635,-0.09247361868619919,0.09534275531768799,-0.04403898864984512,0.09170833975076675,0.09509804844856262,0.09820660203695297,0.0825815498828888,-0.09107387065887451,0.09000227600336075,-0.06842773407697678,-0.22801998257637024,0.14463956654071808,0.8362442851066589,0.29663002490997314,0.2925252616405487,0.1463300734758377,0.11279144883155823,0.012331241741776466,0.061902210116386414,-0.6577364206314087,-0.49821555614471436,-0.44503170251846313,0.6605038642883301,-0.31497249007225037,0.2711551785469055,-0.027771446853876114,-0.1725945770740509,-0.3584001958370209,0.4614849388599396,0.47889989614486694,-0.44036632776260376,0.5964224934577942,-0.4976227581501007,0.07369723916053772,0.25296324491500854,-0.34968578815460205,-0.4372071921825409,-0.5661640167236328,-0.30304068326950073,0.42470142245292664,0.1350094974040985,0.4389488101005554,0.31864726543426514,-0.27616357803344727,-0.7607163190841675,-0.7594852447509766,0.5868078470230103,-0.30698084831237793,0.5552499890327454,-0.35972821712493896,-0.3549674451351166,0.7542901635169983,0.6619229316711426,0.5018558502197266,-0.3706560730934143,0.04891800880432129,0.1290544867515564,0.6290398240089417,-0.8032274842262268,0.8345648646354675,0.06474553793668747,0.0962693840265274,0.17111611366271973,0.30426397919654846,0.015345113351941109,0.919773280620575,0.9415755867958069,1.081284761428833,0.9410303831100464,0.9068931937217712,-0.07944084703922272,0.09710107743740082,0.018050789833068848,-0.0682729184627533,-0.07945258915424347,-0.5129709839820862,0.773411214351654,-0.1334148794412613,-0.3277806043624878,0.7032018303871155,-0.29308727383613586
-0.8036786913871765,-0.9353334307670593,0.5245420336723328,-0.0042322673834860325,0.9698769450187683,0.32348549365997314,-0.042849332094192505,1.0237963199615479,0.40304526686668396,-1.0089747905731201,0.4061615467071533,-1.134305477142334,0.6586941480636597,-1.0170048475265503,0.7585371732711792,0.6142918467521667,0.8994076251983643,1.1252096891403198,0.16479642689228058,-0.1355108618736267,-1.043060064315796,-0.6417906880378723,-0.566053569316864,0.3286789357662201,-0.08341442048549652,-0.28602465987205505,-0.06711184233427048,0.31776314973831177,0.15865464508533478,0.23096823692321777,-0.2666144073009491,0.05370723083615303,-0.2407216578722,0.6062920689582825,-1.0844924449920654,0.05521674454212189,-0.8808556795120239,0.31433919072151184,0.5452674627304077,-0.9896777868270874,-0.7273508310317993,-0.609161376953125,-0.18214693665504456,-0.17673726379871368,0.8580426573753357,0.7497656345367432,0.022279318422079086,0.3262811601161957,-0.3373059928417206,1.0356334447860718,-0.322679728269577,0.23132966458797455,-0.3761329650878906,0.3126073181629181,0.42265698313713074,-0.28235554695129395,0.16230186820030212,0.39842990040779114,-0.24156732857227325,-0.19900277256965637,0.900844931602478,1.0969765186309814,0.9691116809844971,1.099853515625,1.0953822135925293,1.0639855861663818,1.0867013931274414,0.9053851962089539,1.1031564474105835,0.9194034934043884,-0.09641134738922119,0.09920267760753632,-0.0479298010468483,0.09433795511722565,0.09869740158319473,0.10314813256263733,0.08743488043546677,-0.09411442279815674,0.094945527613163,-0.067646324634552,-0.23204566538333893,0.14798448979854584,0.8378485441207886,0.29997605085372925,0.2893126904964447,0.1414128988981247,0.11558935046195984,0.015230916440486908,0.05835817754268646,-0.6603917479515076,-0.49393537640571594,-0.44915419816970825,0.656201958656311,-0.31864336133003235,0.27322378754615784,-0.022843511775135994,-0.17708942294120789,-0.36318209767341614,0.4651072919368744,0.47599974274635315,-0.4448853135108948,0.6011819839477539,-0.4925919771194458,0.07578257471323013,0.2565823495388031,-0.35486990213394165,-0.4320848882198334,-0.5612226724624634,-0.3022233843803406,0.4243636131286621,0.13158553838729858,0.44210124015808105,0.3167906105518341,-0.27243146300315857,-0.7640334963798523,-0.7627403140068054,0.5885433554649353,-0.3045685291290283,0.5518519282341003,-0.36011865735054016,-0.3500531017780304,0.7531768083572388,0.6571503281593323,0.5065585374832153,-0.3751211166381836,0.05380241200327873,0.12426479160785675,0.6243507862091064,-0.8075610399246216,0.8393509387969971,0.06364791095256805,0.09612847864627838,0.17118652164936066,0.3046594560146332,0.015770824626088142,0.9183657765388489,0.9387539029121399,1.0809067487716675,0.9417648315429688,0.9035427570343018,-0.0811554491519928,0.10191326588392258,0.013745369389653206,-0.06806209683418274,-0.0804101824760437,-0.5116035342216492,0.7708817720413208,-0.13384336233139038,-0.3286398947238922,0.6997981667518616,-0.28807368874549866
-0.8085132241249084,-0.9393612146377563,0.5208777785301208,-0.0075256978161633015,0.9650582075119019,0.32835978269577026,-0.037785470485687256,1.0273929834365845,0.4009319841861725,-1.0053470134735107,0.40260031819343567,-1.1372159719467163,0.6563226580619812,-1.0161664485931396,0.7581644654273987,0.6188867688179016,0.9019028544425964,1.1225342750549316,0.16003060340881348,-0.13635016977787018,-1.0385634899139404,-0.6452004313468933,-0.5645268559455872,0.3337915539741516,-0.07860390841960907,-0.285825252532959,-0.06857400387525558,0.31473737955093384,0.16190221905708313,0.23354044556617737,-0.26454704999923706,0.05442928522825241,-0.24264732003211975,0.6011154055595398,-1.088795781135559,0.050260595977306366,-0.8851792216300964,0.30954357981681824,0.5454242825508118,-0.9881690144538879,-0.7221784591674805,-0.6046586632728577,-0.1799933761358261,-0.17366434633731842,0.8625586032867432,0.7452793121337891,0.01721559278666973,0.3245365619659424,-0.33307433128356934,1.0396677255630493,-0.3224188983440399,0.23087941110134125,-0.3764307200908661,0.3122876286506653,0.4225444793701172,-0.2821653187274933,0.1622561514377594,0.3980141878128052,-0.2413230687379837,-0.19849924743175507,0.8968502283096313,1.100402593612671,0.9646189212799072,1.1038893461227417,1.0978537797927856,1.0648502111434937,1.0891945362091064,0.9035574793815613,1.107937216758728,0.9183947443962097,-0.10023326426744461,0.10279344022274017,-0.05150361731648445,0.09630167484283447,0.10188756138086319,0.10815197974443436,0.0923972949385643,-0.09670720994472504,0.0998547375202179,-0.06617680937051773,-0.23584136366844177,0.15069875121116638,0.8393997550010681,0.3025790750980377,0.2867557406425476,0.13654403388500214,0.11745165288448334,0.01774343103170395,0.05520797520875931,-0.663103461265564,-0.48980021476745605,-0.4532054662704468,0.6517157554626465,-0.3221133053302765,0.27468350529670715,-0.017805911600589752,-0.18179090321063995,-0.36796805262565613,0.4684704840183258,0.4734424352645874,-0.4492119550704956,0.605739951133728,-0.48757970333099365,0.07716917246580124,0.2604660987854004,-0.3600633442401886,-0.42703136801719666,-0.5563933253288269,-0.30086302757263184,0.4235953092575073,0.1284852772951126,0.4447266757488251,0.3160709738731384,-0.26924949884414673,-0.7668361067771912,-0.7658650875091553,0.5896962881088257,-0.302562952041626,0.5488919615745544,-0.3605501651763916,-0.3450998365879059,0.7521311044692993,0.6524572968482971,0.511098325252533,-0.37938162684440613,0.05862537398934364,0.1196008250117302,0.6198772192001343,-0.811680257320404,0.8439781069755554,0.06263388693332672,0.09562821686267853,0.17120887339115143,0.30523672699928284,0.016225244849920273,0.9174859523773193,0.9355117082595825,1.0794981718063354,0.9428887963294983,0.9005773067474365,-0.0824911817908287,0.10665498673915863,0.009206179529428482,-0.06728491932153702,-0.08065533638000488,-0.5107713341712952,0.7679079174995422,-0.13343845307826996,-0.32988032698631287,0.6967588067054749,-0.28308695554733276
-0.8134324550628662,-0.9436808228492737,0.5168946385383606,-0.011195424944162369,0.9600892663002014,0.33328595757484436,-0.03264899551868439,1.030836820602417,0.3991122245788574,-1.0016117095947266,0.3991736173629761,-1.1399335861206055,0.6541293263435364,-1.0149781703948975,0.7582150101661682,0.6236677765846252,0.9044704437255859,1.1194279193878174,0.155107781291008,-0.13788668811321259,-1.0340172052383423,-0.6479623913764954,-0.5622799396514893,0.33897197246551514,-0.07382667064666748,-0.2844869792461395,-0.0691540464758873,0.31254854798316956,0.16564564406871796,0.2356356978416443,-0.2629965841770172,0.054501380771398544,-0.24526962637901306,0.5958585143089294,-1.0930379629135132,0.0454370342195034,-0.8892996907234192,0.3048706650733948,0.5455285906791687,-0.9867662191390991,-0.7169693112373352,-0.5999470949172974,-0.17729032039642334,-0.17019064724445343,0.8672506213188171,0.7408559322357178,0.012211678549647331,0.32344314455986023,-0.32890549302101135,1.0435928106307983,-0.32224395871162415,0.23052990436553955,-0.37675684690475464,0.3119524419307709,0.422549843788147,-0.2819197177886963,0.16231241822242737,0.39767953753471375,-0.24141082167625427,-0.19809067249298096,0.8929892778396606,1.1035692691802979,0.9601401686668396,1.1077649593353271,1.0997923612594604,1.0659183263778687,1.0916193723678589,0.9023276567459106,1.1126519441604614,0.9177711009979248,-0.1039542630314827,0.10612065345048904,-0.05475910007953644,0.09764212369918823,0.10474799573421478,0.1131880134344101,0.0974530503153801,-0.09876608848571777,0.10484118014574051,-0.06410115957260132,-0.23940452933311462,0.15277820825576782,0.84096759557724,0.30442216992378235,0.2848580777645111,0.13173262774944305,0.11836516112089157,0.019885025918483734,0.052461378276348114,-0.6658085584640503,-0.4858056902885437,-0.45721277594566345,0.6470679640769958,-0.3253900110721588,0.27554696798324585,-0.012670082040131092,-0.18666218221187592,-0.3727562129497528,0.47159281373023987,0.47118985652923584,-0.45333510637283325,0.6100713014602661,-0.4825911223888397,0.07792012393474579,0.2645730972290039,-0.3652596175670624,-0.4220544397830963,-0.5516840219497681,-0.2990474998950958,0.42249351739883423,0.1256839781999588,0.4468490183353424,0.31628257036209106,-0.2666053771972656,-0.7691418528556824,-0.7688890695571899,0.5903483033180237,-0.300932377576828,0.5463478565216064,-0.36108312010765076,-0.34010863304138184,0.7511079907417297,0.6478764414787292,0.5155419111251831,-0.3834807276725769,0.06339338421821594,0.11492783576250076,0.6155195832252502,-0.8155332207679749,0.8484851717948914,0.06177322566509247,0.09521831572055817,0.17137083411216736,0.30548638105392456,0.016664573922753334,0.9170601963996887,0.9319353699684143,1.0773229598999023,0.9443188309669495,0.897977888584137,-0.08350780606269836,0.11143150925636292,0.00448178593069315,-0.06604822725057602,-0.08036725223064423,-0.5103999972343445,0.7645913362503052,-0.13234998285770416,-0.3314177393913269,0.6940708160400391,-0.27812737226486206
-0.8184055089950562,-0.9482109546661377,0.5126782059669495,-0.015141421929001808,0.9550071954727173,0.33824312686920166,-0.02744363434612751,1.0341681241989136,0.3976607024669647,-0.9977415204048157,0.3958923816680908,-1.1424741744995117,0.652106761932373,-1.0134848356246948,0.7586236000061035,0.6286044120788574,0.907143235206604,1.1159882545471191,0.150094136595726,-0.13990579545497894,-1.0293829441070557,-0.6502463817596436,-0.5594794154167175,0.3442036807537079,-0.06909209489822388,-0.2823356091976166,-0.06902094930410385,0.31110724806785583,0.16975755989551544,0.23725156486034393,-0.26193344593048096,0.05402582883834839,-0.24842716753482819,0.5905330777168274,-1.09720778465271,0.04071652889251709,-0.8932285904884338,0.300304114818573,0.5456434488296509,-0.9854220747947693,-0.7117332816123962,-0.5950756669044495,-0.17417345941066742,-0.16641563177108765,0.8720723390579224,0.7365108728408813,0.007262388709932566,0.3229622542858124,-0.32480376958847046,1.0474013090133667,-0.3221060335636139,0.23022134602069855,-0.3767521381378174,0.311712384223938,0.42244967818260193,-0.28200075030326843,0.1625012755393982,0.39753061532974243,-0.24141450226306915,-0.19762319326400757,0.8892682790756226,1.1064656972885132,0.9557328224182129,1.111473560333252,1.1012502908706665,1.0672816038131714,1.0939782857894897,0.9016003608703613,1.1172837018966675,0.9174561500549316,-0.10756806284189224,0.10918367654085159,-0.05769382417201996,0.09839264303445816,0.10729493945837021,0.11826436966657639,0.10256319493055344,-0.10034291446208954,0.1098402589559555,-0.061559755355119705,-0.24273300170898438,0.1542392373085022,0.8426066637039185,0.3055192828178406,0.28359949588775635,0.12698669731616974,0.11838100105524063,0.021674152463674545,0.05012151226401329,-0.6684612035751343,-0.4819628894329071,-0.4611465036869049,0.6423250436782837,-0.3284924030303955,0.27588221430778503,-0.007461996749043465,-0.19166405498981476,-0.3775017261505127,0.47448331117630005,0.46920546889305115,-0.45724233984947205,0.6141536235809326,-0.47763022780418396,0.07810317724943161,0.2688666582107544,-0.3704529106616974,-0.4171631336212158,-0.5470990538597107,-0.2968541383743286,0.4211404323577881,0.12315818667411804,0.44849902391433716,0.3172423243522644,-0.2644707262516022,-0.7709827423095703,-0.7718332409858704,0.5905660390853882,-0.2996513843536377,0.5441923141479492,-0.36173391342163086,-0.33510729670524597,0.7501960396766663,0.6434081792831421,0.5198675990104675,-0.38741424679756165,0.0681060254573822,0.11029206216335297,0.6113026738166809,-0.8191220164299011,0.8528431057929993,0.061030611395835876,0.09451963007450104,0.17149412631988525,0.305722177028656,0.016912048682570457,0.9170181751251221,0.9281162619590759,1.0745826959609985,0.9459912776947021,0.8957257270812988,-0.08426252752542496,0.11623578518629074,-0.0003881417214870453,-0.06444058567285538,-0.0795992761850357,-0.5104185938835144,0.7610275745391846,-0.1307198852300644,-0.3331887125968933,0.691716194152832,-0.27319619059562683
-0.82340407371521,-0.9528890252113342,0.5082937479019165,-0.019289622083306313,0.9498451948165894,0.34321820735931396,-0.02219109795987606,1.0373985767364502,0.3965303599834442,-0.9937557578086853,0.3927309811115265,-1.144863247871399,0.6502147912979126,-1.011755108833313,0.759326159954071,0.6336596608161926,0.9098610281944275,1.1122994422912598,0.1450362503528595,-0.14227961003780365,-1.0246399641036987,-0.6521959900856018,-0.5562478303909302,0.34947073459625244,-0.06440643221139908,-0.27959197759628296,-0.06833207607269287,0.31030988693237305,0.1741502285003662,0.2383798211812973,-0.2613123059272766,0.05308784171938896,-0.25199851393699646,0.5851520299911499,-1.1013023853302002,0.0360964871942997,-0.8969739079475403,0.29586565494537354,0.545809268951416,-0.9840836524963379,-0.7064144015312195,-0.5901144742965698,-0.17082253098487854,-0.1624501496553421,0.8769834041595459,0.7322506904602051,0.0023785559460520744,0.3230307698249817,-0.32076698541641235,1.051093339920044,-0.3220910131931305,0.22973613440990448,-0.3764165937900543,0.31160610914230347,0.4224338233470917,-0.28185418248176575,0.16237179934978485,0.39737623929977417,-0.24123184382915497,-0.19732148945331573,0.8856882452964783,1.1090929508209229,0.9514200091362,1.1150007247924805,1.102285623550415,1.0689924955368042,1.096269965171814,0.9013363718986511,1.1218348741531372,0.9173866510391235,-0.111077219247818,0.1119890958070755,-0.06028783321380615,0.09859926253557205,0.10955235362052917,0.12338248640298843,0.10769737511873245,-0.10146807134151459,0.1145729199051857,-0.058667078614234924,-0.24582575261592865,0.15511545538902283,0.8443554639816284,0.30591151118278503,0.2829418480396271,0.12231280654668808,0.11759329587221146,0.023130830377340317,0.048184119164943695,-0.6710282564163208,-0.4782778322696686,-0.46499043703079224,0.6375088691711426,-0.3314298093318939,0.27575498819351196,-0.00220510084182024,-0.1967598795890808,-0.3821893036365509,0.4771569073200226,0.4674615263938904,-0.46091899275779724,0.6179676651954651,-0.47270023822784424,0.07778534293174744,0.2733154892921448,-0.37563806772232056,-0.41236624121665955,-0.5426404476165771,-0.29435068368911743,0.41960567235946655,0.12088549882173538,0.4497127830982208,0.31879284977912903,-0.2628033757209778,-0.7724012732505798,-0.7747116088867188,0.5904039144515991,-0.29870012402534485,0.5423941612243652,-0.3624829947948456,-0.330122709274292,0.7494652271270752,0.6390538811683655,0.5240541100502014,-0.39118054509162903,0.07276351004838943,0.10573580116033554,0.6072492599487305,-0.8224503993988037,0.8570243120193481,0.06010280176997185,0.09345006197690964,0.1716177612543106,0.30593377351760864,0.0168605949729681,0.9172928929328918,0.9241429567337036,1.0714367628097534,0.9478573799133301,0.8937968015670776,-0.08481072634458542,0.12102863192558289,-0.0053687067702412605,-0.06253749132156372,-0.07840744405984879,-0.5107595920562744,0.7573071718215942,-0.1286795437335968,-0.3351452946662903,0.6896724700927734,-0.26829493045806885
-0.8284046053886414,-0.9576645493507385,0.5037917494773865,-0.02358209900557995,0.9446322321891785,0.34820225834846497,-0.016901373863220215,1.040644645690918,0.3956522047519684,-0.9896082878112793,0.389682799577713,-1.1471165418624878,0.6484019160270691,-1.0098989009857178,0.7602317929267883,0.6387738585472107,0.912500262260437,1.1084591150283813,0.14012247323989868,-0.14493243396282196,-1.0197581052780151,-0.6540310978889465,-0.552730143070221,0.3547475039958954,-0.059788018465042114,-0.2764001488685608,-0.0672081708908081,0.3100632429122925,0.1787613183259964,0.23902225494384766,-0.26108884811401367,0.05177381634712219,-0.2558894455432892,0.5797315239906311,-1.1053117513656616,0.031560253351926804,-0.9005430936813354,0.2915782034397125,0.5460811853408813,-0.9826890230178833,-0.7010249495506287,-0.585082471370697,-0.16728846728801727,-0.15833987295627594,0.8819595575332642,0.7280840873718262,-0.002414655638858676,0.3235222399234772,-0.31678342819213867,1.0546722412109375,-0.3221294581890106,0.2291412204504013,-0.3759394884109497,0.3115746080875397,0.4224173426628113,-0.28172242641448975,0.16196279227733612,0.3973180949687958,-0.24120482802391052,-0.19695861637592316,0.8822588324546814,1.1114723682403564,0.9472306966781616,1.1182823181152344,1.1029930114746094,1.0711876153945923,1.098351240158081,0.9015284180641174,1.126224160194397,0.9174953103065491,-0.11446975916624069,0.11454983800649643,-0.06260976195335388,0.09827373921871185,0.11159412562847137,0.1285768747329712,0.1127505674958229,-0.102134108543396,0.1186671182513237,-0.05551929771900177,-0.24868327379226685,0.155452698469162,0.8462371230125427,0.3056584298610687,0.2828349471092224,0.11771579086780548,0.11611340939998627,0.024275386705994606,0.046637970954179764,-0.6734883785247803,-0.4747656583786011,-0.4687414765357971,0.6326336860656738,-0.33419060707092285,0.27519816160202026,0.0030692717991769314,-0.20192508399486542,-0.38680657744407654,0.4796084463596344,0.46596261858940125,-0.4643474817276001,0.621498167514801,-0.4678041934967041,0.0770292729139328,0.27789413928985596,-0.38081058859825134,-0.4076710343360901,-0.5383082628250122,-0.2915937602519989,0.41794824600219727,0.11882156133651733,0.4505508840084076,0.32096654176712036,-0.26140281558036804,-0.773518979549408,-0.7775981426239014,0.5897670984268188,-0.29810646176338196,0.5408772826194763,-0.36252039670944214,-0.3251817226409912,0.7489641904830933,0.6348164081573486,0.5280799865722656,-0.39478087425231934,0.07736649364233017,0.10129702091217041,0.6033804416656494,-0.825523853302002,0.861002504825592,0.05911509692668915,0.09258507192134857,0.17177391052246094,0.30613943934440613,0.016852369531989098,0.9178200960159302,0.9200862646102905,1.0680218935012817,0.9498862624168396,0.8921633958816528,-0.08520697057247162,0.12587390840053558,-0.010427553206682205,-0.06031079217791557,-0.07684721052646637,-0.5113584399223328,0.753521203994751,-0.12635332345962524,-0.33725205063819885,0.6879134774208069,-0.2634248733520508
-0.8334348797798157,-0.9625405073165894,0.49916088581085205,-0.028021570295095444,0.9393529295921326,0.3531465530395508,-0.01163756474852562,1.043600082397461,0.3946056067943573,-0.9856888055801392,0.3867664039134979,-1.1492382287979126,0.6466752886772156,-1.0079089403152466,0.7613303065299988,0.6439500451087952,0.9150612950325012,1.1044607162475586,0.1352158635854721,-0.14795057475566864,-1.014736294746399,-0.6558778882026672,-0.5490042567253113,0.3600182831287384,-0.05524484068155289,-0.2731088399887085,-0.06583679467439651,0.31002089381217957,0.1835346817970276,0.23909203708171844,-0.26120108366012573,0.05017423629760742,-0.26002568006515503,0.5742875337600708,-1.1092321872711182,0.027112361043691635,-0.9039369225502014,0.28745752573013306,0.5464722514152527,-0.9812228679656982,-0.6955608129501343,-0.5799494385719299,-0.16355790197849274,-0.15406782925128937,0.8870189189910889,0.7240071296691895,-0.007116158027201891,0.3243734836578369,-0.31284642219543457,1.0581450462341309,-0.32226747274398804,0.2285107672214508,-0.3756736218929291,0.31145811080932617,0.422471821308136,-0.2814987599849701,0.16181010007858276,0.3972046673297882,-0.2411905825138092,-0.19680874049663544,0.8789860010147095,1.1136208772659302,0.9431307315826416,1.1212579011917114,1.103383183479309,1.0738015174865723,1.1003750562667847,0.9021903872489929,1.1303770542144775,0.9178329110145569,-0.11777285486459732,0.11685440689325333,-0.06472694873809814,0.09743785113096237,0.11339554190635681,0.1338585764169693,0.11776230484247208,-0.1023218184709549,0.12240630388259888,-0.052138276398181915,-0.2513159215450287,0.1553344875574112,0.8482215404510498,0.3048422038555145,0.28318947553634644,0.11318622529506683,0.1141555979847908,0.025129718706011772,0.045447736978530884,-0.6759937405586243,-0.47143641114234924,-0.47238704562187195,0.6276912093162537,-0.33673033118247986,0.274228036403656,0.008368292823433876,-0.20715776085853577,-0.3913739025592804,0.48182937502861023,0.4647602438926697,-0.4675087034702301,0.624732255935669,-0.46294522285461426,0.07589530199766159,0.28258073329925537,-0.38596585392951965,-0.40308502316474915,-0.5341013073921204,-0.28863173723220825,0.4162242114543915,0.11694740504026413,0.4510524570941925,0.3235971927642822,-0.2602258622646332,-0.7743812203407288,-0.7804898023605347,0.5887158513069153,-0.29785454273223877,0.5396108627319336,-0.3618932366371155,-0.32031142711639404,0.7487310767173767,0.630700409412384,0.5319225788116455,-0.3982180655002594,0.08191527426242828,0.09701159596443176,0.5997164845466614,-0.8283501863479614,0.8647502064704895,0.05834557116031647,0.09216834604740143,0.17198893427848816,0.30630794167518616,0.016752539202570915,0.9185411334037781,0.916011393070221,1.0644673109054565,0.9520484805107117,0.8907946944236755,-0.08546996861696243,0.13084417581558228,-0.01553264632821083,-0.05783313512802124,-0.07497284561395645,-0.5121538639068604,0.749768853187561,-0.12386366724967957,-0.33948203921318054,0.6864104866981506,-0.258588045835495
-0.8384597301483154,-0.9674707651138306,0.4944378733634949,-0.032569520175457,0.934045672416687,0.3581361770629883,-0.006363636814057827,1.0462981462478638,0.39334583282470703,-0.9819122552871704,0.3838864862918854,-1.1512995958328247,0.6449435353279114,-1.005890965461731,0.7625048160552979,0.6491413712501526,0.9175010323524475,1.1003707647323608,0.13045229017734528,-0.15119776129722595,-1.0096030235290527,-0.6577827334403992,-0.5450489521026611,0.36527228355407715,-0.05079912021756172,-0.2698162794113159,-0.0643465667963028,0.3101060092449188,0.18842777609825134,0.2385983020067215,-0.2615751624107361,0.048377882689237595,-0.26435667276382446,0.5688304305076599,-1.1130701303482056,0.02284182980656624,-0.9071078300476074,0.2835164964199066,0.5469497442245483,-0.9797670841217041,-0.6901154518127441,-0.5748494267463684,-0.1597241759300232,-0.14972157776355743,0.8920463919639587,0.7200241684913635,-0.011716890148818493,0.325535386800766,-0.30895793437957764,1.0615111589431763,-0.32242366671562195,0.22795674204826355,-0.3755323886871338,0.3113776743412018,0.42249420285224915,-0.28112661838531494,0.16165313124656677,0.39714086055755615,-0.2414516806602478,-0.1965990960597992,0.8758560419082642,1.1155626773834229,0.9390971064567566,1.1239498853683472,1.103577971458435,1.0767818689346313,1.1022952795028687,0.9032212495803833,1.134330153465271,0.9183085560798645,-0.1209864616394043,0.11890779435634613,-0.06649745255708694,0.09614627063274384,0.1150209978222847,0.1392086297273636,0.12264948338270187,-0.10208478569984436,0.1264045089483261,-0.048612866550683975,-0.25373464822769165,0.15479464828968048,0.8502769470214844,0.3034903407096863,0.28398555517196655,0.10871562361717224,0.11191943287849426,0.025731680914759636,0.04458767920732498,-0.678663432598114,-0.46827518939971924,-0.47594836354255676,0.622678279876709,-0.3391096293926239,0.27296456694602966,0.013676617294549942,-0.21239939332008362,-0.3958168029785156,0.4838617742061615,0.4637815058231354,-0.470390647649765,0.6276390552520752,-0.458135187625885,0.0744309350848198,0.2873288691043854,-0.391094833612442,-0.3986407518386841,-0.5300303101539612,-0.28551873564720154,0.4144956171512604,0.11524399369955063,0.45125824213027954,0.3265535533428192,-0.2592222988605499,-0.7750375866889954,-0.7833808660507202,0.5872993469238281,-0.2979319393634796,0.5385624766349792,-0.36063292622566223,-0.31556272506713867,0.748710572719574,0.6267117857933044,0.53553706407547,-0.4015018939971924,0.08640557527542114,0.09297090768814087,0.5963080525398254,-0.8309650421142578,0.8682219386100769,0.05781277269124985,0.0918232724070549,0.17221517860889435,0.306548148393631,0.016645219177007675,0.9193996787071228,0.9119950532913208,1.0609078407287598,0.9543215036392212,0.8896580338478088,-0.08562243729829788,0.13595549762248993,-0.020635195076465607,-0.055166419595479965,-0.07281854003667831,-0.5130876898765564,0.746161699295044,-0.12133760005235672,-0.3418150842189789,0.6851314902305603,-0.25378766655921936
-0.8434523344039917,-0.9724155068397522,0.48966485261917114,-0.03718171268701553,0.9287381172180176,0.36315464973449707,-0.0010944795794785023,1.0488015413284302,0.3919287323951721,-0.978214681148529,0.3810429275035858,-1.1533098220825195,0.6431934833526611,-1.0038774013519287,0.7637200951576233,0.6543251276016235,0.9197624921798706,1.0962331295013428,0.12588295340538025,-0.15460367500782013,-1.0044546127319336,-0.6599995493888855,-0.5408105850219727,0.37041664123535156,-0.04649381339550018,-0.26665812730789185,-0.06280963867902756,0.3105977177619934,0.1932862401008606,0.23747457563877106,-0.26218944787979126,0.046415120363235474,-0.26886412501335144,0.5633972883224487,-1.1167622804641724,0.01870691403746605,-0.9101415276527405,0.279691606760025,0.5474346876144409,-0.9783130288124084,-0.6846760511398315,-0.5697845816612244,-0.15585751831531525,-0.14530128240585327,0.8970381021499634,0.7161392569541931,-0.016205858439207077,0.3269648253917694,-0.3051198124885559,1.0647703409194946,-0.32256144285202026,0.22744706273078918,-0.3755953907966614,0.3112240433692932,0.42255786061286926,-0.2806410789489746,0.1613440215587616,0.3971982002258301,-0.24168267846107483,-0.19639413058757782,0.8728696703910828,1.1172956228256226,0.9351332187652588,1.1263750791549683,1.103637456893921,1.0801262855529785,1.104029655456543,0.9045986533164978,1.1380667686462402,0.9188729524612427,-0.12410958111286163,0.12072128802537918,-0.06795834004878998,0.0944790169596672,0.11645836383104324,0.14459539949893951,0.12752707302570343,-0.10141553729772568,0.13059720396995544,-0.04499540105462074,-0.2559439241886139,0.15389010310173035,0.85240238904953,0.3016852140426636,0.28515949845314026,0.10430813580751419,0.10944989323616028,0.026098305359482765,0.0440325029194355,-0.6814644932746887,-0.4652869403362274,-0.47940823435783386,0.6176217198371887,-0.3413434326648712,0.2714560627937317,0.018971968442201614,-0.21762120723724365,-0.40011897683143616,0.48572105169296265,0.46298748254776,-0.4729742705821991,0.6302195191383362,-0.4533737897872925,0.07268809527158737,0.2921300530433655,-0.39619505405426025,-0.39433833956718445,-0.5260878801345825,-0.2822858691215515,0.4128049910068512,0.11367583274841309,0.4511803388595581,0.32965826988220215,-0.2584051787853241,-0.7755410075187683,-0.7862838506698608,0.585539698600769,-0.2983568012714386,0.5376898050308228,-0.35891878604888916,-0.3109659254550934,0.7489184737205505,0.6228545308113098,0.5389043688774109,-0.4046400785446167,0.0908384919166565,0.08920477330684662,0.5931693911552429,-0.8333784937858582,0.8713959455490112,0.05740746855735779,0.09123986214399338,0.17235314846038818,0.3069285452365875,0.016513120383024216,0.9203407168388367,0.9081401824951172,1.0574891567230225,0.956691324710846,0.8887169361114502,-0.0857187882065773,0.14117562770843506,-0.02570457011461258,-0.05230110138654709,-0.07043734937906265,-0.5141053199768066,0.7428212761878967,-0.11891026049852371,-0.34423577785491943,0.68404221534729,-0.24902792274951935
-0.8484116792678833,-0.977375328540802,0.48483920097351074,-0.041855338960886,0.9234288930892944,0.36821919679641724,0.004140740260481834,1.050962209701538,0.3901694715023041,-0.9747734069824219,0.37823906540870667,-1.155275821685791,0.6414169669151306,-1.0018935203552246,0.7649465799331665,0.6595286130905151,0.9218082427978516,1.0920374393463135,0.12140178680419922,-0.15818099677562714,-0.9992760419845581,-0.6626003980636597,-0.536362886428833,0.37543126940727234,-0.04231271892786026,-0.2637394964694977,-0.061340104788541794,0.3113868236541748,0.19809217751026154,0.23577819764614105,-0.2630075514316559,0.04434474557638168,-0.2734983265399933,0.5580084919929504,-1.1202962398529053,0.014718190766870975,-0.9130363464355469,0.27601608633995056,0.5479276180267334,-0.9768518209457397,-0.6792495846748352,-0.5647355914115906,-0.15193042159080505,-0.1407940536737442,0.9020026922225952,0.7123401165008545,-0.02057345025241375,0.3286689221858978,-0.301322340965271,1.067932367324829,-0.32261404395103455,0.22705170512199402,-0.37568727135658264,0.3110387623310089,0.42265766859054565,-0.28022223711013794,0.1609123796224594,0.3973238170146942,-0.24188721179962158,-0.1961277425289154,0.8700157403945923,1.1188372373580933,0.9312180876731873,1.1285332441329956,1.1035511493682861,1.0838098526000977,1.1058117151260376,0.9062900543212891,1.141595482826233,0.919495165348053,-0.12715628743171692,0.12229776382446289,-0.06920433789491653,0.09247102588415146,0.11770081520080566,0.1500217318534851,0.1324002891778946,-0.1003357395529747,0.1349775344133377,-0.041315916925668716,-0.25795045495033264,0.15267913043498993,0.8545896410942078,0.2995058000087738,0.2866467535495758,0.09996750950813293,0.10679614543914795,0.026246502995491028,0.0437527671456337,-0.6843652129173279,-0.4624635875225067,-0.48276159167289734,0.6125206351280212,-0.3434344530105591,0.26972052454948425,0.024263527244329453,-0.22282342612743378,-0.40429168939590454,0.4874270260334015,0.46236130595207214,-0.47524145245552063,0.6324793696403503,-0.4486599266529083,0.07071222364902496,0.29697704315185547,-0.40126481652259827,-0.39017558097839355,-0.5222650766372681,-0.27895936369895935,0.41118761897087097,0.11222247779369354,0.45085206627845764,0.33278506994247437,-0.2577384412288666,-0.7758929133415222,-0.7892071008682251,0.5835862159729004,-0.2990703880786896,0.536965012550354,-0.3567952811717987,-0.3065533936023712,0.7493544816970825,0.6191319227218628,0.5420073866844177,-0.4076421856880188,0.09521552175283432,0.08573921024799347,0.5903120040893555,-0.8356027603149414,0.8742542862892151,0.05719005689024925,0.09071594476699829,0.172459676861763,0.30717793107032776,0.016503077000379562,0.9213122129440308,0.9045359492301941,1.0543729066848755,0.959145724773407,0.8879338502883911,-0.08581049740314484,0.14651678502559662,-0.030709283426404,-0.049265824258327484,-0.06787914782762527,-0.5151554346084595,0.7398840188980103,-0.1167280375957489,-0.3467329740524292,0.6831070780754089,-0.24431398510932922
-0.8508564233779907,-0.9798567295074463,0.4824177920818329,-0.044210486114025116,0.9207804203033447,0.3707718551158905,0.006705038249492645,1.0518834590911865,0.38909828662872314,-0.9731845259666443,0.37683817744255066,-1.1562509536743164,0.6404865384101868,-1.000962257385254,0.7655288577079773,0.66214519739151,0.922601580619812,1.0899394750595093,0.11920065432786942,-0.1600395292043686,-0.9966774582862854,-0.6640650033950806,-0.534048855304718,0.37787753343582153,-0.04026470333337784,-0.26246190071105957,-0.060692574828863144,0.31187739968299866,0.2004590481519699,0.234671950340271,-0.26351305842399597,0.043268557637929916,-0.2758617699146271,0.5553403496742249,-1.1219813823699951,0.012796412222087383,-0.9144216775894165,0.2742633819580078,0.5481867790222168,-0.9760987162590027,-0.6765351891517639,-0.5622034668922424,-0.14992345869541168,-0.13848994672298431,0.9044820666313171,0.7104809880256653,-0.022671343758702278,0.3296284079551697,-0.2994418442249298,1.0694682598114014,-0.32272154092788696,0.22692447900772095,-0.37571799755096436,0.3109525442123413,0.4227234721183777,-0.2799921929836273,0.16064311563968658,0.3974168002605438,-0.24189554154872894,-0.19605711102485657,0.8686568140983582,1.1195276975631714,0.9292696714401245,1.1294827461242676,1.1034427881240845,1.0858019590377808,1.1067498922348022,0.9072651863098145,1.1432607173919678,0.9198063611984253,-0.1286388635635376,0.12297944724559784,-0.06980118900537491,0.09132540971040726,0.11826086044311523,0.15275362133979797,0.13483816385269165,-0.09961975365877151,0.1372823417186737,-0.039471838623285294,-0.2588563859462738,0.15194930136203766,0.8557079434394836,0.29826560616493225,0.28751519322395325,0.09783241897821426,0.10540004819631577,0.026219021528959274,0.04373498633503914,-0.6858516931533813,-0.4611363708972931,-0.48439130187034607,0.6099443435668945,-0.34441444277763367,0.2687602639198303,0.02690105512738228,-0.22540108859539032,-0.4063045382499695,0.4882136285305023,0.4621114134788513,-0.47620832920074463,0.6334531903266907,-0.4463258981704712,0.06962838768959045,0.29941990971565247,-0.4037836492061615,-0.3881630301475525,-0.520408570766449,-0.27726075053215027,0.4104331135749817,0.11154620349407196,0.45058146119117737,0.33429989218711853,-0.25745660066604614,-0.7760022282600403,-0.7906790375709534,0.5825535655021667,-0.2995541989803314,0.5366644859313965,-0.35553812980651855,-0.30445706844329834,0.7496828436851501,0.6173394322395325,0.5434190034866333,-0.4090802073478699,0.09737647324800491,0.08417009562253952,0.5890292525291443,-0.8366274833679199,0.8755174279212952,0.05693689361214638,0.0903596356511116,0.1724589765071869,0.30726662278175354,0.016498541459441185,0.9217885732650757,0.9029188752174377,1.053056001663208,0.9604106545448303,0.8876017928123474,-0.08587804436683655,0.14923731982707977,-0.03316216915845871,-0.0476786345243454,-0.06653621792793274,-0.5156723856925964,0.7386882901191711,-0.11583911627531052,-0.3480159640312195,0.6826978921890259,-0.24198348820209503
-0.8532621264457703,-0.9823300838470459,0.4799974262714386,-0.04657341539859772,0.9181450009346008,0.373332142829895,0.009218771941959858,1.0526772737503052,0.38788723945617676,-0.9716926217079163,0.37545138597488403,-1.1572096347808838,0.6395304799079895,-1.000086784362793,0.7660830616950989,0.6647712588310242,0.9231702089309692,1.0878496170043945,0.11704659461975098,-0.16194091737270355,-0.9940650463104248,-0.6656938791275024,-0.5316675901412964,0.38026079535484314,-0.038259249180555344,-0.2620263993740082,-0.06065423786640167,0.3118588924407959,0.2028195858001709,0.23327912390232086,-0.2640915513038635,0.04217737168073654,-0.2782498896121979,0.5527153015136719,-1.1235769987106323,0.010941904969513416,-0.9157528281211853,0.2725961208343506,0.5484665632247925,-0.9753100872039795,-0.6738324165344238,-0.5596709251403809,-0.1479005366563797,-0.13615332543849945,0.9069473743438721,0.7086595296859741,-0.02469567582011223,0.3306007981300354,-0.29757386445999146,1.070966362953186,-0.32276618480682373,0.22684459388256073,-0.3756980299949646,0.310886412858963,0.42275863885879517,-0.27980202436447144,0.1602831333875656,0.3974800407886505,-0.24190235137939453,-0.19589680433273315,0.8673624992370605,1.120160460472107,0.9273262023925781,1.1302987337112427,1.1033035516738892,1.0879226922988892,1.1076663732528687,0.9083574414253235,1.1448200941085815,0.9201013445854187,-0.13008205592632294,0.12357275187969208,-0.070420041680336,0.0900549665093422,0.11878767609596252,0.15543250739574432,0.1373118758201599,-0.09874613583087921,0.13963697850704193,-0.037622664123773575,-0.25967171788215637,0.1511148363351822,0.8568470478057861,0.29690060019493103,0.28848695755004883,0.09573107957839966,0.10394807159900665,0.026097645983099937,0.04382612556219101,-0.6873658299446106,-0.4598901569843292,-0.4859746992588043,0.6073508858680725,-0.34533798694610596,0.26772361993789673,0.029524214565753937,-0.22794757783412933,-0.4082415997982025,0.4889407455921173,0.46191108226776123,-0.4770122170448303,0.6342806816101074,-0.44401228427886963,0.06846197694540024,0.3018793761730194,-0.4062873423099518,-0.38621440529823303,-0.5186010003089905,-0.2755332291126251,0.40973761677742004,0.11090678721666336,0.45025572180747986,0.3357120454311371,-0.2571474313735962,-0.7760837078094482,-0.7921451330184937,0.5814453363418579,-0.3001694977283478,0.5364015698432922,-0.35407835245132446,-0.30247411131858826,0.7501133680343628,0.6156120300292969,0.544694185256958,-0.4104613959789276,0.09951204806566238,0.08276282995939255,0.5878875255584717,-0.8375728130340576,0.8766186833381653,0.056840915232896805,0.08980222791433334,0.17246080935001373,0.307247519493103,0.01658264547586441,0.9222448468208313,0.9015064239501953,1.0520131587982178,0.9617113471031189,0.8873167634010315,-0.08597742766141891,0.15199756622314453,-0.03556022793054581,-0.046012625098228455,-0.06514393538236618,-0.5161707401275635,0.7377820611000061,-0.11518172174692154,-0.349330872297287,0.6823350787162781,-0.23967963457107544
-0.8556186556816101,-0.9847886562347412,0.4775877594947815,-0.04893447831273079,0.9155308604240417,0.3758854269981384,0.011692428961396217,1.0534443855285645,0.38663843274116516,-0.9701803922653198,0.3740795850753784,-1.1581538915634155,0.6385495066642761,-0.9992678761482239,0.7666052579879761,0.6673821806907654,0.9235103130340576,1.0857969522476196,0.11501812934875488,-0.1638437658548355,-0.9914343357086182,-0.6674842834472656,-0.5292372107505798,0.3825797438621521,-0.036296453326940536,-0.26224586367607117,-0.06112142652273178,0.3114035427570343,0.20517025887966156,0.23164419829845428,-0.26472899317741394,0.04108726605772972,-0.28065255284309387,0.5501348376274109,-1.1250877380371094,0.00914987362921238,-0.9170352220535278,0.2710155248641968,0.5487765073776245,-0.9744744300842285,-0.6711532473564148,-0.557158887386322,-0.14590802788734436,-0.13381309807300568,0.9093786478042603,0.7068683505058289,-0.026646576821804047,0.3316023349761963,-0.2957138121128082,1.072432279586792,-0.3227548897266388,0.22678224742412567,-0.375651478767395,0.31086674332618713,0.42277783155441284,-0.2796810269355774,0.16006620228290558,0.39747920632362366,-0.24186769127845764,-0.1958332508802414,0.8661291003227234,1.1207393407821655,0.9253836870193481,1.130995750427246,1.1031550168991089,1.0901559591293335,1.1085411310195923,0.9095397591590881,1.1462767124176025,0.920376181602478,-0.131483256816864,0.12409583479166031,-0.07107530534267426,0.08868882060050964,0.11929686367511749,0.15806397795677185,0.13979308307170868,-0.09774576127529144,0.14199332892894745,-0.03577268496155739,-0.26040247082710266,0.1501932144165039,0.8580043315887451,0.2954328656196594,0.28954246640205383,0.09366262704133987,0.10245048999786377,0.02588917873799801,0.04401421546936035,-0.6888973116874695,-0.4587215185165405,-0.48751214146614075,0.6047480702400208,-0.34621286392211914,0.2666245400905609,0.032127927988767624,-0.23045668005943298,-0.4101005494594574,0.4896146059036255,0.4617484211921692,-0.4776569604873657,0.6349706053733826,-0.4417168200016022,0.06722419708967209,0.3043530285358429,-0.4087769091129303,-0.3843250572681427,-0.5168366432189941,-0.2737812399864197,0.409105122089386,0.11029869318008423,0.44988563656806946,0.33700624108314514,-0.25679895281791687,-0.7761519551277161,-0.793602705001831,0.5802664160728455,-0.3009086847305298,0.5361672043800354,-0.35243067145347595,-0.3005654215812683,0.7506158351898193,0.6139349341392517,0.5458495616912842,-0.4118261933326721,0.10164236277341843,0.08144920319318771,0.5868605375289917,-0.8384360671043396,0.8775864243507385,0.05683932080864906,0.0892113670706749,0.17247645556926727,0.3072667717933655,0.016658008098602295,0.9226720929145813,0.9003137350082397,1.051270604133606,0.963045060634613,0.8870692253112793,-0.0861174464225769,0.15478789806365967,-0.03789862245321274,-0.044283393770456314,-0.0636880099773407,-0.5166416764259338,0.7371733784675598,-0.11477925628423691,-0.3506758213043213,0.6820080280303955,-0.2374030500650406
-0.8579313158988953,-0.9872300028800964,0.47519123554229736,-0.051291324198246,0.9129361510276794,0.37843021750450134,0.014127119444310665,1.0542033910751343,0.38536715507507324,-0.9686304330825806,0.37273287773132324,-1.1590807437896729,0.6375501751899719,-0.9984965920448303,0.7671009302139282,0.6699737310409546,0.923625648021698,1.083788275718689,0.11312893778085709,-0.16573655605316162,-0.9887776374816895,-0.6694298982620239,-0.5267733931541443,0.38483721017837524,-0.0343710333108902,-0.2626707851886749,-0.061747707426548004,0.31093698740005493,0.20742808282375336,0.22988726198673248,-0.2654169499874115,0.040009863674640656,-0.2830609083175659,0.5475990176200867,-1.1265180110931396,0.007407851051539183,-0.918274462223053,0.2695191204547882,0.5491123199462891,-0.9735934138298035,-0.6684859991073608,-0.5546627640724182,-0.14394378662109375,-0.13146869838237762,0.9117822647094727,0.7051074504852295,-0.028522495180368423,0.33262506127357483,-0.2938622832298279,1.0738669633865356,-0.32269376516342163,0.22672943770885468,-0.3756638765335083,0.3108878433704376,0.42281579971313477,-0.27961331605911255,0.1597987711429596,0.397514671087265,-0.24177661538124084,-0.19577565789222717,0.8649540543556213,1.1212660074234009,0.9234454035758972,1.131576657295227,1.1030024290084839,1.092469334602356,1.1093920469284058,0.9108110666275024,1.1476352214813232,0.9206221699714661,-0.13283996284008026,0.12455391883850098,-0.0717766210436821,0.08723650872707367,0.11979035288095474,0.16071638464927673,0.1422659009695053,-0.09663042426109314,0.14432285726070404,-0.033932238817214966,-0.2610540986061096,0.14919978380203247,0.8591774106025696,0.29388129711151123,0.29066452383995056,0.0916266068816185,0.10091587156057358,0.025599883869290352,0.044288475066423416,-0.6904351711273193,-0.4576267898082733,-0.4889977276325226,0.6021439433097839,-0.3470398187637329,0.26546698808670044,0.034710176289081573,-0.2329344004392624,-0.41189196705818176,0.4902399182319641,0.461617112159729,-0.47814634442329407,0.6355311274528503,-0.43943727016448975,0.06592424213886261,0.3068390488624573,-0.41125351190567017,-0.3824906647205353,-0.5151100158691406,-0.27200838923454285,0.4085386395454407,0.10971709340810776,0.4494806230068207,0.33816927671432495,-0.2564008831977844,-0.7762196063995361,-0.7950494885444641,0.5790209174156189,-0.3017646372318268,0.53595370054245,-0.35061028599739075,-0.2987390458583832,0.7511851787567139,0.6123059988021851,0.5468870997428894,-0.41317546367645264,0.10376697778701782,0.0802333652973175,0.5859456658363342,-0.8392248749732971,0.8784224390983582,0.056791823357343674,0.08866594731807709,0.17246699333190918,0.3072948455810547,0.01663813926279545,0.9230629205703735,0.899355947971344,1.050846815109253,0.9644099473953247,0.8868491053581238,-0.08630497753620148,0.1575925648212433,-0.04017310217022896,-0.042503777891397476,-0.062183283269405365,-0.5170779824256897,0.7368617653846741,-0.11464861780405045,-0.35204964876174927,0.6817071437835693,-0.23515480756759644
-0.8602043986320496,-0.9896537065505981,0.47280728816986084,-0.05363808944821358,0.9103594422340393,0.3809651732444763,0.016523629426956177,1.0549709796905518,0.3840867877006531,-0.9670284986495972,0.37141087651252747,-1.1599926948547363,0.636532723903656,-0.9977749586105347,0.7675652503967285,0.6725419759750366,0.9235213398933411,1.0818296670913696,0.11139325052499771,-0.16760873794555664,-0.9860965609550476,-0.6715237498283386,-0.5242904424667358,0.3870270252227783,-0.03248130902647972,-0.2632971704006195,-0.06253133714199066,0.3104502558708191,0.20959815382957458,0.2280173897743225,-0.2661491930484772,0.038952670991420746,-0.28546828031539917,0.5451114177703857,-1.127867341041565,0.005703547969460487,-0.9194790124893188,0.2681000828742981,0.5494995713233948,-0.9726415872573853,-0.6658231616020203,-0.5521764755249023,-0.14200153946876526,-0.12912552058696747,0.9141634106636047,0.7033769488334656,-0.030321184545755386,0.3336620628833771,-0.29201987385749817,1.0752713680267334,-0.32263803482055664,0.22669842839241028,-0.37549641728401184,0.31087788939476013,0.4228595495223999,-0.27946966886520386,0.15955840051174164,0.3975732624530792,-0.24177338182926178,-0.19577133655548096,0.863837718963623,1.1217412948608398,0.9215177893638611,1.1320427656173706,1.1028441190719604,1.0948506593704224,1.110243797302246,0.9121767282485962,1.1488879919052124,0.9208323955535889,-0.13414902985095978,0.12495070695877075,-0.0725100189447403,0.0857052206993103,0.12026895582675934,0.1633855104446411,0.1447172313928604,-0.0954095721244812,0.1465955674648285,-0.03210972994565964,-0.26163145899772644,0.14814814925193787,0.8603646159172058,0.2922622859477997,0.2918379306793213,0.0896228551864624,0.0993511974811554,0.02523554116487503,0.04463928937911987,-0.6919682025909424,-0.4566052258014679,-0.4904247522354126,0.599548876285553,-0.3478180766105652,0.2642473876476288,0.03726973012089729,-0.23538954555988312,-0.4136330485343933,0.49081629514694214,0.46151241660118103,-0.4784838557243347,0.6359695792198181,-0.43717125058174133,0.06456983089447021,0.3093361556529999,-0.4137185513973236,-0.3807070255279541,-0.5134158134460449,-0.27021756768226624,0.40804117918014526,0.10915765166282654,0.4490492641925812,0.3391897976398468,-0.2559441924095154,-0.7762981057167053,-0.7964833974838257,0.5777119398117065,-0.30273061990737915,0.5357541441917419,-0.3486317992210388,-0.29700297117233276,0.751816987991333,0.610723078250885,0.5478091239929199,-0.41450998187065125,0.10588548332452774,0.07911920547485352,0.5851403474807739,-0.8399462699890137,0.879128634929657,0.056614670902490616,0.08813544362783432,0.17243674397468567,0.3073267936706543,0.016620254144072533,0.9234114289283752,0.8986438512802124,1.0507522821426392,0.9658045768737793,0.88664710521698,-0.086545430123806,0.160394549369812,-0.042379822582006454,-0.04068460687994957,-0.06064292788505554,-0.5174737572669983,0.7368395328521729,-0.11479967087507248,-0.35345152020454407,0.6814236044883728,-0.2329363375902176
-0.8624348640441895,-0.9920529723167419,0.47044244408607483,-0.05596834421157837,0.9078061580657959,0.3834896385669708,0.018883340060710907,1.0557626485824585,0.3828096389770508,-0.9653618931770325,0.37011322379112244,-1.1608916521072388,0.6354975700378418,-0.9971036911010742,0.7679948806762695,0.6750834584236145,0.923204243183136,1.0799264907836914,0.10982444137334824,-0.16945192217826843,-0.983388364315033,-0.673755943775177,-0.5218002796173096,0.3891478180885315,-0.03062848187983036,-0.26411890983581543,-0.06346846371889114,0.3099357485771179,0.2116854339838028,0.22604261338710785,-0.26691555976867676,0.03792737424373627,-0.28786784410476685,0.5426732301712036,-1.1291395425796509,0.004034567624330521,-0.920651376247406,0.26676082611083984,0.5499444603919983,-0.9716137647628784,-0.6631683111190796,-0.549703061580658,-0.1400892585515976,-0.12678924202919006,0.9165186882019043,0.7016769051551819,-0.03204010799527168,0.33470624685287476,-0.29018720984458923,1.076646327972412,-0.32265374064445496,0.2267013043165207,-0.3753804862499237,0.31087926030158997,0.42291927337646484,-0.2793315649032593,0.1594069004058838,0.3976617157459259,-0.24182821810245514,-0.1958305388689041,0.8627777695655823,1.1221710443496704,0.9196021556854248,1.132403016090393,1.102691650390625,1.0972892045974731,1.1110780239105225,0.9136226773262024,1.1500412225723267,0.9209946990013123,-0.13541170954704285,0.12529470026493073,-0.0732746422290802,0.08410874754190445,0.12073852121829987,0.1660672277212143,0.1471260040998459,-0.09409835189580917,0.14880266785621643,-0.03031783737242222,-0.26213890314102173,0.14705027639865875,0.8615646958351135,0.2905897796154022,0.29304948449134827,0.08765146881341934,0.09776200354099274,0.024801554158329964,0.045058269053697586,-0.6934846639633179,-0.45565396547317505,-0.4917953312397003,0.5969671010971069,-0.3485545814037323,0.2629777789115906,0.0398026704788208,-0.23781517148017883,-0.4153197109699249,0.4913487136363983,0.4614247679710388,-0.4786728024482727,0.636292576789856,-0.43491631746292114,0.06316719949245453,0.3118435740470886,-0.41617363691329956,-0.378970205783844,-0.5117489099502563,-0.2684110701084137,0.4076155424118042,0.10861653089523315,0.44859930872917175,0.3400585949420929,-0.25542107224464417,-0.7763977646827698,-0.7979022860527039,0.5763416290283203,-0.303800493478775,0.5355626344680786,-0.34650900959968567,-0.2953647971153259,0.7525073289871216,0.6091840863227844,0.5486180782318115,-0.4158304035663605,0.10799752175807953,0.07811033725738525,0.5844419598579407,-0.8406071066856384,0.879706859588623,0.05639783665537834,0.08755578845739365,0.17239932715892792,0.30726808309555054,0.016664640977978706,0.9237128496170044,0.8981758952140808,1.0509885549545288,0.9672279357910156,0.8864549398422241,-0.08684277534484863,0.1631881147623062,-0.04451543465256691,-0.03883512318134308,-0.05907859653234482,-0.5178242921829224,0.7370927929878235,-0.1152348667383194,-0.3548808991909027,0.681149423122406,-0.23074941337108612
-0.8646202683448792,-0.9944217205047607,0.46810242533683777,-0.05827641114592552,0.9052810668945312,0.385969340801239,0.0211845263838768,1.0566080808639526,0.3815823793411255,-0.9636232852935791,0.3688393235206604,-1.1617794036865234,0.634445309638977,-0.9964829683303833,0.7683872580528259,0.6775951385498047,0.9226824045181274,1.0780837535858154,0.10843557864427567,-0.17125870287418365,-0.9806510806083679,-0.6761163473129272,-0.5193126797676086,0.3911983072757721,-0.028813675045967102,-0.2649669349193573,-0.06452497094869614,0.30953365564346313,0.21369901299476624,0.22399434447288513,-0.26770710945129395,0.036944396793842316,-0.2902536392211914,0.540285587310791,-1.1303380727767944,0.002398973796516657,-0.9217926859855652,0.26550421118736267,0.5504530072212219,-0.9705063104629517,-0.6605247855186462,-0.5472453832626343,-0.1382143646478653,-0.1244649887084961,0.9188451170921326,0.7000076770782471,-0.03367621824145317,0.3357512950897217,-0.2883649468421936,1.07799232006073,-0.3226836621761322,0.22671648859977722,-0.3753194808959961,0.3108796775341034,0.42295005917549133,-0.27920663356781006,0.15924321115016937,0.39777687191963196,-0.24187681078910828,-0.1959465593099594,0.8617718815803528,1.1225590705871582,0.9177002310752869,1.1326661109924316,1.102555513381958,1.0997830629348755,1.1118760108947754,0.9151360988616943,1.1511014699935913,0.9210978746414185,-0.13662919402122498,0.12560658156871796,-0.07406922429800034,0.0824594646692276,0.12120429426431656,0.16872823238372803,0.14947180449962616,-0.09271031618118286,0.1509375125169754,-0.02856832556426525,-0.26258015632629395,0.1459166258573532,0.8627771139144897,0.2888758182525635,0.29428747296333313,0.08571287989616394,0.09615140408277512,0.024302704259753227,0.04553811997175217,-0.6949716806411743,-0.4547702968120575,-0.49311187863349915,0.5944023728370667,-0.3492558002471924,0.2616690695285797,0.04230547323822975,-0.24020493030548096,-0.41694799065589905,0.4918416738510132,0.461345374584198,-0.4787161946296692,0.6365058422088623,-0.43266987800598145,0.061721205711364746,0.314361035823822,-0.4186205565929413,-0.37727633118629456,-0.510104238986969,-0.2665904462337494,0.40726444125175476,0.10809038579463959,0.4481375813484192,0.3407686948776245,-0.2548251748085022,-0.7765275835990906,-0.7993041276931763,0.5749114155769348,-0.3049685060977936,0.535374104976654,-0.3442550599575043,-0.29383185505867004,0.7532528638839722,0.6076867580413818,0.5493167638778687,-0.41713717579841614,0.11010277271270752,0.07721012085676193,0.58384770154953,-0.8412137627601624,0.8801588416099548,0.056187134236097336,0.08700686693191528,0.1723085194826126,0.3072490990161896,0.016823269426822662,0.9239634871482849,0.8979449272155762,1.051548957824707,0.9686791896820068,0.886265218257904,-0.0871998518705368,0.16596746444702148,-0.04657716304063797,-0.036963172256946564,-0.05750054493546486,-0.5181260108947754,0.7376023530960083,-0.11594952642917633,-0.3563373386859894,0.680877685546875,-0.22859598696231842
-0.8667583465576172,-0.9967545866966248,0.46579238772392273,-0.06055723503232002,0.9027884602546692,0.38840824365615845,0.0234307162463665,1.0575165748596191,0.3804110288619995,-0.9618057012557983,0.36758843064308167,-1.1626574993133545,0.6333764791488647,-0.9959127306938171,0.7687403559684753,0.6800742745399475,0.9219650030136108,1.0763057470321655,0.10723890364170074,-0.1730225682258606,-0.9778833389282227,-0.6785946488380432,-0.5168360471725464,0.39317721128463745,-0.02703792415559292,-0.26584917306900024,-0.06569650024175644,0.3092319667339325,0.21564407646656036,0.22187526524066925,-0.26851603388786316,0.03601308539509773,-0.29262039065361023,0.5379496216773987,-1.1314663887023926,0.0007951721781864762,-0.9229033589363098,0.264333575963974,0.5510311722755432,-0.9693165421485901,-0.6578896641731262,-0.5448008179664612,-0.1363803893327713,-0.1221511960029602,0.9211450219154358,0.69837486743927,-0.03521672636270523,0.33680644631385803,-0.28655630350112915,1.0793063640594482,-0.32272636890411377,0.22669488191604614,-0.37538570165634155,0.3108627498149872,0.4231005907058716,-0.27907708287239075,0.15897271037101746,0.3978424668312073,-0.24197746813297272,-0.19614434242248535,0.8608178496360779,1.122910737991333,0.915813684463501,1.1328402757644653,1.1024450063705444,1.1023236513137817,1.1126185655593872,0.9167056083679199,1.152072787284851,0.9211322069168091,-0.1378026306629181,0.12589214742183685,-0.07489239424467087,0.0807684138417244,0.12167101353406906,0.17136868834495544,0.15173470973968506,-0.09125753492116928,0.15302002429962158,-0.02686261758208275,-0.2629586458206177,0.14475643634796143,0.8640020489692688,0.2871309518814087,0.2955414950847626,0.08380773663520813,0.09452065825462341,0.023743199184536934,0.04607249051332474,-0.696415901184082,-0.45395153760910034,-0.494377076625824,0.5918581485748291,-0.34992772340774536,0.26033106446266174,0.044774916023015976,-0.24255293607711792,-0.4185139834880829,0.49229925870895386,0.46126633882522583,-0.4786168038845062,0.6366145014762878,-0.43042925000190735,0.06023541837930679,0.316888689994812,-0.42106133699417114,-0.3756217062473297,-0.508476734161377,-0.2647567689418793,0.406990110874176,0.10757627338171005,0.44767022132873535,0.34131497144699097,-0.25415128469467163,-0.7766953706741333,-0.8006868958473206,0.5734220743179321,-0.3062293231487274,0.5351842641830444,-0.34188228845596313,-0.2924109697341919,0.7540504932403564,0.6062288880348206,0.5499082207679749,-0.41843053698539734,0.11220093816518784,0.07642153650522232,0.5833547711372375,-0.8417721390724182,0.8804866075515747,0.055945731699466705,0.08637474477291107,0.1722433865070343,0.307372510433197,0.017008213326334953,0.9241605997085571,0.8979393243789673,1.0524202585220337,0.9701577425003052,0.8860714435577393,-0.0876183956861496,0.16872674226760864,-0.04856271296739578,-0.03507537767291069,-0.05591779202222824,-0.5183762311935425,0.738345742225647,-0.11693323403596878,-0.3578205704689026,0.6806020736694336,-0.2264781892299652
-0.8688473105430603,-0.9990467429161072,0.46351683139801025,-0.06280632317066193,0.9003322720527649,0.39080989360809326,0.025624997913837433,1.0584957599639893,0.3793007731437683,-0.9599046111106873,0.3663597106933594,-1.1635273694992065,0.6322916150093079,-0.9953925013542175,0.7690526843070984,0.6825183629989624,0.9210622310638428,1.0745964050292969,0.10624556243419647,-0.17473770678043365,-0.9750843048095703,-0.6811809539794922,-0.5143774151802063,0.39508336782455444,-0.025302164256572723,-0.2667712867259979,-0.06697703897953033,0.3090207874774933,0.2175258994102478,0.21968790888786316,-0.2693355083465576,0.03514155372977257,-0.2949635088443756,0.5356663465499878,-1.1325275897979736,-0.0007781736203469336,-0.9239829182624817,0.2632524371147156,0.5516847968101501,-0.96804279088974,-0.655266284942627,-0.5423722863197327,-0.13459406793117523,-0.11985263228416443,0.9234154224395752,0.6967781186103821,-0.03665896877646446,0.33786463737487793,-0.2847616672515869,1.0805892944335938,-0.32276400923728943,0.22669635713100433,-0.375298410654068,0.31086868047714233,0.42325523495674133,-0.2789927124977112,0.15872904658317566,0.39797306060791016,-0.24212440848350525,-0.19630619883537292,0.8599133491516113,1.1232309341430664,0.9139444828033447,1.132933259010315,1.1023683547973633,1.104903221130371,1.1132862567901611,0.9183207750320435,1.1529616117477417,0.9210885167121887,-0.13893313705921173,0.12615664303302765,-0.07574246823787689,0.07904546707868576,0.12214289605617523,0.17398864030838013,0.15389510989189148,-0.08975084871053696,0.15504509210586548,-0.025211788713932037,-0.2632773220539093,0.1435777246952057,0.8652402758598328,0.2853640913963318,0.29680243134498596,0.08193685859441757,0.09286955744028091,0.023126836866140366,0.046655941754579544,-0.6978031992912292,-0.45319515466690063,-0.49559369683265686,0.5893375277519226,-0.35057589411735535,0.25897255539894104,0.04720808193087578,-0.2448536902666092,-0.4200139045715332,0.4927252233028412,0.4611804783344269,-0.47837716341018677,0.6366227865219116,-0.4281917214393616,0.05871210992336273,0.31942710280418396,-0.4234981834888458,-0.3740026652812958,-0.5068615078926086,-0.26291173696517944,0.40679457783699036,0.1070716455578804,0.4472026526927948,0.3416944146156311,-0.25339558720588684,-0.776907742023468,-0.8020488023757935,0.5718741416931152,-0.3075779378414154,0.5349896550178528,-0.3394019603729248,-0.29110851883888245,0.7548983693122864,0.6048083901405334,0.5503959059715271,-0.4197107255458832,0.11429174244403839,0.07574717700481415,0.5829603672027588,-0.8422871232032776,0.8806923627853394,0.05573097616434097,0.08577828109264374,0.172213613986969,0.3073711693286896,0.017089106142520905,0.9243024587631226,0.8981444239616394,1.0535842180252075,0.971663236618042,0.8858678340911865,-0.08809918910264969,0.1714598685503006,-0.05047028884291649,-0.033177364617586136,-0.0543382354080677,-0.5185731649398804,0.7392989993095398,-0.11817129701375961,-0.35933050513267517,0.680317223072052,-0.22439824044704437
-0.8708801865577698,-1.0013023614883423,0.4612720012664795,-0.06502489000558853,0.8979150056838989,0.39314258098602295,0.027778085321187973,1.0595771074295044,0.378282755613327,-0.9579132795333862,0.3651520609855652,-1.1643905639648438,0.6311910152435303,-0.9949218034744263,0.7693229913711548,0.6849213242530823,0.9199877977371216,1.0729610919952393,0.10546869784593582,-0.17639929056167603,-0.9722721576690674,-0.683849036693573,-0.5119053721427917,0.39692482352256775,-0.023605603724718094,-0.2676943838596344,-0.06837568432092667,0.3088865578174591,0.21935518085956573,0.21745525300502777,-0.27015331387519836,0.03432520851492882,-0.297286719083786,0.5334304571151733,-1.1335300207138062,-0.0023224754258990288,-0.9250307083129883,0.26226377487182617,0.5524179935455322,-0.9666851162910461,-0.6526504158973694,-0.5399677753448486,-0.13287079334259033,-0.11757718026638031,0.9256525635719299,0.6952173709869385,-0.03800002858042717,0.33891943097114563,-0.2829814553260803,1.0818419456481934,-0.3228302597999573,0.22667688131332397,-0.3750697672367096,0.3108895719051361,0.42333027720451355,-0.27894899249076843,0.15852734446525574,0.39817890524864197,-0.2422366887331009,-0.19635652005672455,0.8590563535690308,1.1235288381576538,0.9120973348617554,1.1329529285430908,1.1023290157318115,1.107499122619629,1.113867998123169,0.9199772477149963,1.153777837753296,0.920955240726471,-0.14002470672130585,0.12640854716300964,-0.07661107927560806,0.0773000568151474,0.12262769043445587,0.17658460140228271,0.15592065453529358,-0.08819526433944702,0.15700244903564453,-0.023629464209079742,-0.26353877782821655,0.1423872709274292,0.8664929270744324,0.2835827171802521,0.2980625629425049,0.08010122925043106,0.09119679778814316,0.022457104176282883,0.04728393629193306,-0.6991186141967773,-0.4524986147880554,-0.4967646896839142,0.5868433713912964,-0.3512052893638611,0.25760146975517273,0.04960235208272934,-0.24710217118263245,-0.4214443266391754,0.49312299489974976,0.46108147501945496,-0.47801920771598816,0.6365906596183777,-0.42597416043281555,0.057231876999139786,0.32193058729171753,-0.42589229345321655,-0.3724324405193329,-0.5052850842475891,-0.2611472010612488,0.40656524896621704,0.10657435655593872,0.44673946499824524,0.3419061303138733,-0.2525555491447449,-0.7771700024604797,-0.8033880591392517,0.5702678561210632,-0.30900949239730835,0.5347875952720642,-0.33682456612586975,-0.28993016481399536,0.7557951211929321,0.6034230589866638,0.5507833957672119,-0.42097780108451843,0.1163749173283577,0.07518914341926575,0.5826613903045654,-0.842763364315033,0.8807783126831055,0.05563799664378166,0.0852266475558281,0.17222486436367035,0.3073571026325226,0.017170337960124016,0.9243881702423096,0.898542582988739,1.055023431777954,0.9731954336166382,0.8856496214866638,-0.08864212781190872,0.17416058480739594,-0.05223894491791725,-0.031273867934942245,-0.05276860296726227,-0.518716037273407,0.7404370903968811,-0.11964543163776398,-0.36086708307266235,0.6800184845924377,-0.22235848009586334
-0.8718534111976624,-1.0024042129516602,0.46017691493034363,-0.06611248105764389,0.8967375159263611,0.3942766785621643,0.028833355754613876,1.0601660013198853,0.37781721353530884,-0.9568765163421631,0.3645508587360382,-1.1648238897323608,0.6306285858154297,-0.9947153329849243,0.769430935382843,0.6861128211021423,0.9193918108940125,1.072160005569458,0.10514873266220093,-0.1772138774394989,-0.9708683490753174,-0.6852015256881714,-0.5106724500656128,0.3978164494037628,-0.022784003987908363,-0.2681773900985718,-0.06913179159164429,0.3088386058807373,0.2202456146478653,0.21631328761577606,-0.27055421471595764,0.03395763784646988,-0.2984388470649719,0.5323353409767151,-1.1340045928955078,-0.003075388725847006,-0.9255353808403015,0.26181888580322266,0.5528298616409302,-0.9659643769264221,-0.651362419128418,-0.538786768913269,-0.13205666840076447,-0.11645834147930145,0.9267439246177673,0.6944547295570374,-0.0386190265417099,0.33944258093833923,-0.28209879994392395,1.0824534893035889,-0.3228762447834015,0.22662657499313354,-0.37495383620262146,0.31088221073150635,0.423358291387558,-0.2788563370704651,0.15839695930480957,0.3982619643211365,-0.24229639768600464,-0.1963789463043213,0.8586481213569641,1.1236668825149536,0.9111763834953308,1.132921814918518,1.102352261543274,1.1088006496429443,1.1140912771224976,0.9208041429519653,1.1541640758514404,0.9208526015281677,-0.14056019484996796,0.1265268474817276,-0.07706470787525177,0.07642105966806412,0.12289223074913025,0.17787225544452667,0.1568637639284134,-0.08740611374378204,0.1579781174659729,-0.022865263745188713,-0.2636445164680481,0.14177870750427246,0.8671050071716309,0.2826661169528961,0.29871147871017456,0.07919245213270187,0.09040826559066772,0.022094735875725746,0.047621823847293854,-0.6998276710510254,-0.4521767795085907,-0.4973289370536804,0.5856146216392517,-0.35151395201683044,0.25692617893218994,0.05077885836362839,-0.2481869012117386,-0.42210283875465393,0.4933142364025116,0.46102258563041687,-0.47778230905532837,0.6365541219711304,-0.42487308382987976,0.056510649621486664,0.32316768169403076,-0.42707109451293945,-0.37167003750801086,-0.5045128464698792,-0.26030227541923523,0.40643835067749023,0.10632850229740143,0.4465119540691376,0.3419286608695984,-0.25209277868270874,-0.7773281335830688,-0.8040456175804138,0.5694357752799988,-0.3097643554210663,0.5346818566322327,-0.3354921340942383,-0.2894054055213928,0.7562675476074219,0.602746844291687,0.5509290099143982,-0.4216046631336212,0.11741255968809128,0.07496906816959381,0.5825579762458801,-0.8429842591285706,0.88076251745224,0.05551847070455551,0.08496455103158951,0.17222081124782562,0.3073022961616516,0.017189957201480865,0.9244046211242676,0.8988282084465027,1.0558674335479736,0.9739747643470764,0.8855313062667847,-0.08892276883125305,0.17549149692058563,-0.05305512621998787,-0.030321341007947922,-0.05199151858687401,-0.5187604427337646,0.7410858869552612,-0.12049005925655365,-0.36164864897727966,0.6798603534698486,-0.22135983407497406
-0.8727860450744629,-1.0034809112548828,0.4591081142425537,-0.06717900931835175,0.8955897688865662,0.39538151025772095,0.029869161546230316,1.0608012676239014,0.3773939907550812,-0.9558010101318359,0.36395180225372314,-1.1652591228485107,0.6300547122955322,-0.9945360422134399,0.7695130109786987,0.6872941851615906,0.9187410473823547,1.0713756084442139,0.10489754378795624,-0.1780119687318802,-0.9694653749465942,-0.6865721940994263,-0.5094438791275024,0.3986802101135254,-0.02198749966919422,-0.268680602312088,-0.0699385404586792,0.30880874395370483,0.22111468017101288,0.2151474803686142,-0.2709468901157379,0.03362971171736717,-0.29958125948905945,0.5312619805335999,-1.134454369544983,-0.0038105363491922617,-0.9260213375091553,0.26142239570617676,0.5532861948013306,-0.9652038216590881,-0.6500931978225708,-0.5376258492469788,-0.13128872215747833,-0.11535785347223282,0.9278093576431274,0.6937088370323181,-0.03918806090950966,0.3399604558944702,-0.2812231481075287,1.0830512046813965,-0.32289648056030273,0.22657161951065063,-0.3748200237751007,0.31087520718574524,0.42339059710502625,-0.2787725031375885,0.15828382968902588,0.39830896258354187,-0.2423497885465622,-0.19638319313526154,0.8582586646080017,1.123795509338379,0.9102587103843689,1.1328532695770264,1.1024171113967896,1.1101051568984985,1.1142464876174927,0.9216288924217224,1.1545305252075195,0.9207135438919067,-0.14108598232269287,0.12663885951042175,-0.07753587514162064,0.07553756982088089,0.12317805737257004,0.17915019392967224,0.15773625671863556,-0.08660753071308136,0.15895017981529236,-0.022128991782665253,-0.26372668147087097,0.14115871489048004,0.8677051663398743,0.2817271947860718,0.29937639832496643,0.07829276472330093,0.0896620824933052,0.021706856787204742,0.04798182100057602,-0.7005776166915894,-0.45187968015670776,-0.49787387251853943,0.5844035744667053,-0.3518179655075073,0.25626140832901,0.05193547531962395,-0.2492336630821228,-0.4227072298526764,0.49349868297576904,0.4609535336494446,-0.47749063372612,0.6364977955818176,-0.42377814650535583,0.055805858224630356,0.32439228892326355,-0.4282342195510864,-0.3709282875061035,-0.5037540793418884,-0.25949153304100037,0.40630167722702026,0.10608487576246262,0.44628897309303284,0.34187236428260803,-0.2515891194343567,-0.7775128483772278,-0.8046916723251343,0.5685763359069824,-0.31055521965026855,0.5345712304115295,-0.3341219127178192,-0.2889432907104492,0.7567631602287292,0.6020855903625488,0.5510295629501343,-0.42222535610198975,0.11844660341739655,0.07480569928884506,0.5824979543685913,-0.8431897163391113,0.8806910514831543,0.05539276450872421,0.08476089686155319,0.17223189771175385,0.3072257339954376,0.017161279916763306,0.9243960976600647,0.8991908431053162,1.056819200515747,0.9747669100761414,0.8854033946990967,-0.08921270072460175,0.1768023818731308,-0.05380701273679733,-0.029368575662374496,-0.05122265964746475,-0.5187793374061584,0.7418034076690674,-0.12142883986234665,-0.36244314908981323,0.6796931028366089,-0.22038178145885468
