hidden1.weight_weight_0,hidden1.weight_weight_1,hidden1.weight_weight_2,hidden1.weight_weight_3,hidden1.weight_weight_4,hidden1.weight_weight_5,hidden1.weight_weight_6,hidden1.weight_weight_7,hidden1.weight_weight_8,hidden1.weight_weight_9,hidden1.weight_weight_10,hidden1.weight_weight_11,hidden1.weight_weight_12,hidden1.weight_weight_13,hidden1.weight_weight_14,hidden1.weight_weight_15,hidden1.weight_weight_16,hidden1.weight_weight_17,hidden1.weight_weight_18,hidden1.weight_weight_19,hidden1.weight_weight_20,hidden1.weight_weight_21,hidden1.weight_weight_22,hidden1.weight_weight_23,hidden1.weight_weight_24,hidden1.weight_weight_25,hidden1.weight_weight_26,hidden1.weight_weight_27,hidden1.weight_weight_28,hidden1.weight_weight_29,hidden1.weight_weight_30,hidden1.weight_weight_31,hidden1.weight_weight_32,hidden1.weight_weight_33,hidden1.weight_weight_34,hidden1.weight_weight_35,hidden1.weight_weight_36,hidden1.weight_weight_37,hidden1.weight_weight_38,hidden1.weight_weight_39,hidden1.weight_weight_40,hidden1.weight_weight_41,hidden1.weight_weight_42,hidden1.weight_weight_43,hidden1.weight_weight_44,hidden1.weight_weight_45,hidden1.weight_weight_46,hidden1.weight_weight_47,hidden1.weight_weight_48,hidden1.weight_weight_49,hidden1.bias_weight_0,hidden1.bias_weight_1,hidden1.bias_weight_2,hidden1.bias_weight_3,hidden1.bias_weight_4,hidden1.bias_weight_5,hidden1.bias_weight_6,hidden1.bias_weight_7,hidden1.bias_weight_8,hidden1.bias_weight_9,bn1.weight_weight_0,bn1.weight_weight_1,bn1.weight_weight_2,bn1.weight_weight_3,bn1.weight_weight_4,bn1.weight_weight_5,bn1.weight_weight_6,bn1.weight_weight_7,bn1.weight_weight_8,bn1.weight_weight_9,bn1.bias_weight_0,bn1.bias_weight_1,bn1.bias_weight_2,bn1.bias_weight_3,bn1.bias_weight_4,bn1.bias_weight_5,bn1.bias_weight_6,bn1.bias_weight_7,bn1.bias_weight_8,bn1.bias_weight_9,hidden2.weight_weight_0,hidden2.weight_weight_1,hidden2.weight_weight_2,hidden2.weight_weight_3,hidden2.weight_weight_4,hidden2.weight_weight_5,hidden2.weight_weight_6,hidden2.weight_weight_7,hidden2.weight_weight_8,hidden2.weight_weight_9,hidden2.weight_weight_10,hidden2.weight_weight_11,hidden2.weight_weight_12,hidden2.weight_weight_13,hidden2.weight_weight_14,hidden2.weight_weight_15,hidden2.weight_weight_16,hidden2.weight_weight_17,hidden2.weight_weight_18,hidden2.weight_weight_19,hidden2.weight_weight_20,hidden2.weight_weight_21,hidden2.weight_weight_22,hidden2.weight_weight_23,hidden2.weight_weight_24,hidden2.weight_weight_25,hidden2.weight_weight_26,hidden2.weight_weight_27,hidden2.weight_weight_28,hidden2.weight_weight_29,hidden2.weight_weight_30,hidden2.weight_weight_31,hidden2.weight_weight_32,hidden2.weight_weight_33,hidden2.weight_weight_34,hidden2.weight_weight_35,hidden2.weight_weight_36,hidden2.weight_weight_37,hidden2.weight_weight_38,hidden2.weight_weight_39,hidden2.weight_weight_40,hidden2.weight_weight_41,hidden2.weight_weight_42,hidden2.weight_weight_43,hidden2.weight_weight_44,hidden2.weight_weight_45,hidden2.weight_weight_46,hidden2.weight_weight_47,hidden2.weight_weight_48,hidden2.weight_weight_49,hidden2.bias_weight_0,hidden2.bias_weight_1,hidden2.bias_weight_2,hidden2.bias_weight_3,hidden2.bias_weight_4,bn2.weight_weight_0,bn2.weight_weight_1,bn2.weight_weight_2,bn2.weight_weight_3,bn2.weight_weight_4,bn2.bias_weight_0,bn2.bias_weight_1,bn2.bias_weight_2,bn2.bias_weight_3,bn2.bias_weight_4,output.weight_weight_0,output.weight_weight_1,output.weight_weight_2,output.weight_weight_3,output.weight_weight_4,output.bias_weight_0
-0.24838149547576904,-0.22028611600399017,-0.5766431093215942,-0.26545387506484985,0.33238235116004944,0.7917711734771729,-0.2526615858078003,-0.22564871609210968,0.7377960085868835,0.8797828555107117,0.9546962380409241,-0.28102824091911316,0.8566480278968811,-0.21866627037525177,-0.9500868916511536,0.1810874193906784,-0.22145070135593414,0.3083081543445587,-0.020841624587774277,0.4484880566596985,-0.3266977369785309,-0.40174171328544617,-0.6264947652816772,-0.600041925907135,-0.49176013469696045,-0.346387654542923,0.9903305768966675,-0.1521933227777481,0.5628473162651062,0.8413911461830139,0.7369323968887329,0.32950225472450256,-0.061043333262205124,0.39676523208618164,0.5334342122077942,-0.8967700004577637,0.4379645884037018,-0.42676475644111633,0.10907615721225739,-0.5781775116920471,-0.7482554316520691,0.6661112308502197,-0.4378724992275238,0.5127506256103516,-1.0195196866989136,-0.2175857275724411,0.4578760862350464,-0.43257376551628113,-0.2537977397441864,0.5710461139678955,0.2880290150642395,-0.12688452005386353,0.39253830909729004,0.14736533164978027,-0.42512547969818115,-0.22774986922740936,-0.3801769018173218,0.1526673287153244,0.218989759683609,-0.2305702418088913,1.0098999738693237,1.0098999738693237,1.0098999738693237,1.0098999738693237,0.9898999929428101,1.0098999738693237,0.9898999929428101,0.9898999929428101,1.0098999738693237,1.0098999738693237,0.009999996982514858,0.009999996051192284,0.009999996982514858,0.009999997913837433,-0.009999998845160007,0.009999997913837433,-0.009999997913837433,-0.009999997913837433,-0.009999925270676613,0.009999996982514858,0.4959961771965027,-0.5510680675506592,0.4751295745372772,-0.4829667806625366,0.24067635834217072,0.011226550675928593,0.4776029884815216,-0.4560154378414154,0.5158513188362122,0.693568766117096,0.6467351913452148,0.10302489250898361,-0.023680198937654495,-0.21717846393585205,-0.6215270757675171,0.007436411455273628,0.5046866536140442,-0.5457807183265686,-0.5112900733947754,0.032235804945230484,-0.24813315272331238,-0.4481869041919708,0.6400734186172485,-0.7684914469718933,-0.35731950402259827,-0.595438539981842,0.25057193636894226,-0.7311158180236816,-0.5827093720436096,0.678866982460022,-0.193357914686203,-0.3312464654445648,-0.04950109124183655,0.1446935087442398,0.05735529959201813,-0.6978544592857361,0.13393060863018036,-0.6245421767234802,-0.14231997728347778,0.5883970260620117,-0.0767926350235939,0.07823889702558517,-0.5981652140617371,0.1267017424106598,0.39747199416160583,0.3989749848842621,-0.6638650298118591,0.21959266066551208,0.09799088537693024,0.6981086730957031,-0.07952724397182465,0.241471529006958,-0.09767629951238632,0.2692754864692688,-0.13960418105125427,1.0098999738693237,0.9898999929428101,0.9898999929428101,1.0098999738693237,0.9898999929428101,0.009999995119869709,-0.009999998845160007,-0.009999996982514858,0.009999994188547134,-0.009999995119869709,-0.2934671938419342,-0.3448698818683624,-0.23866227269172668,0.1677461564540863,0.6754981279373169,-0.2247171401977539
-0.23841802775859833,-0.2102685421705246,-0.5864595174789429,-0.27543172240257263,0.3223506808280945,0.800956666469574,-0.24262940883636475,-0.2352113127708435,0.7475206255912781,0.871400773525238,0.9446179866790771,-0.2910135090351105,0.8465558290481567,-0.2286561131477356,-0.9600042700767517,0.19084665179252625,-0.21284011006355286,0.3039701581001282,-0.011116179637610912,0.4544634521007538,-0.3366479277610779,-0.41170793771743774,-0.6177674531936646,-0.5900212526321411,-0.48173579573631287,-0.3560252785682678,0.9802572727203369,-0.1621750444173813,0.5538259148597717,0.8504968881607056,0.7465304136276245,0.33754077553749084,-0.05110304802656174,0.38681620359420776,0.5237185955047607,-0.9065790176391602,0.4471465051174164,-0.4170992970466614,0.11898647248744965,-0.5681737661361694,-0.7576850652694702,0.6560688614845276,-0.4476470351219177,0.5027052164077759,-1.0292664766311646,-0.20992623269557953,0.4678356647491455,-0.422555148601532,-0.24378076195716858,0.5809632539749146,0.2853979170322418,-0.1283000111579895,0.3936008810997009,0.14889059960842133,-0.42632195353507996,-0.22782163321971893,-0.3789322078227997,0.15271656215190887,0.2195289134979248,-0.22860966622829437,1.0197415351867676,1.0197802782058716,1.0196436643600464,1.0198041200637817,0.9798676371574402,1.0197683572769165,0.9798247814178467,0.9798523187637329,1.0195415019989014,1.0194228887557983,0.01998070999979973,0.02000359632074833,0.019999027252197266,0.01999792829155922,-0.01990475505590439,0.0199136845767498,-0.019920844584703445,-0.019956320524215698,-0.019988372921943665,0.019688278436660767,0.5057393312454224,-0.5609567165374756,0.46526554226875305,-0.4928627014160156,0.25057339668273926,0.0013009943068027496,0.46761733293533325,-0.4460841715335846,0.525728166103363,0.6834934949874878,0.6566492915153503,0.09300624579191208,-0.013667425140738487,-0.22717027366161346,-0.6114668846130371,-0.0025005866773426533,0.49464043974876404,-0.5550637245178223,-0.5210604071617126,0.04224425554275513,-0.2385362982749939,-0.4580633044242859,0.6316543221473694,-0.7784206867218018,-0.3473326563835144,-0.6050525307655334,0.240621417760849,-0.7210292816162109,-0.5726572275161743,0.6887468695640564,-0.20322798192501068,-0.3213169276714325,-0.059290338307619095,0.15464183688163757,0.047401830554008484,-0.6888797283172607,0.14385585486888885,-0.6343713998794556,-0.1518198549747467,0.5788218975067139,-0.08675366640090942,0.08822192996740341,-0.6079192161560059,0.1366700828075409,0.3875039219856262,0.40887805819511414,-0.6538147330284119,0.209611713886261,0.08799339830875397,0.7079395055770874,-0.07768144458532333,0.24596582353115082,-0.09718537330627441,0.2698836624622345,-0.13715992867946625,1.0197936296463013,0.9798395037651062,0.979965329170227,1.0198062658309937,0.9806874394416809,0.019992686808109283,-0.019979408010840416,-0.019909147173166275,0.020012561231851578,-0.015596355311572552,-0.3034343719482422,-0.3348711431026459,-0.2287922352552414,0.1777414232492447,0.6663081645965576,-0.2146884799003601
-0.22845050692558289,-0.20031356811523438,-0.5962147116661072,-0.2854048013687134,0.31233274936676025,0.8103193044662476,-0.2326168715953827,-0.24359473586082458,0.7571943998336792,0.8623149394989014,0.9345316886901855,-0.3010144531726837,0.8364391922950745,-0.2386620193719864,-0.9699434638023376,0.20010553300380707,-0.20855051279067993,0.2970229387283325,-0.002009420655667782,0.45181798934936523,-0.3465486466884613,-0.4216567873954773,-0.6135594248771667,-0.5799989104270935,-0.4716756343841553,-0.36485451459884644,0.9707847833633423,-0.17205020785331726,0.5444656610488892,0.8582194447517395,0.7553086280822754,0.34620410203933716,-0.044552698731422424,0.377221018075943,0.514696478843689,-0.9163433909416199,0.45450204610824585,-0.40761685371398926,0.1287800818681717,-0.5582330822944641,-0.7632170915603638,0.6467268466949463,-0.4568195939064026,0.49348679184913635,-1.0389302968978882,-0.2021351009607315,0.4775398075580597,-0.4125121831893921,-0.23375055193901062,0.5908529758453369,0.28303205966949463,-0.12943358719348907,0.3945707678794861,0.15039950609207153,-0.42751312255859375,-0.22794191539287567,-0.3793889284133911,0.15417158603668213,0.2199459671974182,-0.22654247283935547,1.029394268989563,1.0292057991027832,1.0287071466445923,1.029707431793213,0.9699288010597229,1.0294634103775024,0.9698198437690735,0.9700570702552795,1.0286198854446411,1.028885006904602,0.029874008148908615,0.029853930696845055,0.02964281663298607,0.029921062290668488,-0.029720794409513474,0.02964337356388569,-0.02968650497496128,-0.029725071042776108,-0.025811564177274704,0.02915959618985653,0.5146627426147461,-0.5704392790794373,0.45572254061698914,-0.502601146697998,0.260196328163147,-0.00817679800093174,0.45796099305152893,-0.43654516339302063,0.5353354811668396,0.6735926866531372,0.6665179133415222,0.0829848200082779,-0.003634401597082615,-0.23717884719371796,-0.6014094352722168,-0.012293561361730099,0.48461875319480896,-0.5627059936523438,-0.530346155166626,0.052266012877225876,-0.22949627041816711,-0.4677562415599823,0.6362888813018799,-0.7883214950561523,-0.33747631311416626,-0.6138404011726379,0.23085181415081024,-0.710961103439331,-0.5625768899917603,0.6986715197563171,-0.2129788100719452,-0.3113347887992859,-0.06775464862585068,0.16456995904445648,0.03747953474521637,-0.6794343590736389,0.15382903814315796,-0.644225001335144,-0.16154339909553528,0.5690737962722778,-0.09665472060441971,0.09818734973669052,-0.6170527935028076,0.14661821722984314,0.37767350673675537,0.41868022084236145,-0.6437779664993286,0.19977153837680817,0.07807981222867966,0.7176052927970886,-0.07631095498800278,0.2485477179288864,-0.09609565138816833,0.2713046073913574,-0.1382933109998703,1.0297163724899292,0.9698551893234253,0.970359742641449,1.0297330617904663,0.973444402217865,0.02997380495071411,-0.029921866953372955,-0.029655523598194122,0.030000517144799232,-0.015860119834542274,-0.31342992186546326,-0.32494446635246277,-0.21923990547657013,0.18775874376296997,0.6590674519538879,-0.20465219020843506
-0.21842345595359802,-0.19088061153888702,-0.6060733199119568,-0.2954200804233551,0.3022713363170624,0.8197065591812134,-0.22301346063613892,-0.25147998332977295,0.765550971031189,0.8531737327575684,0.9244068264961243,-0.3110475242137909,0.8262931108474731,-0.248657688498497,-0.9799124002456665,0.2094278782606125,-0.2082740068435669,0.2935369312763214,0.006862631067633629,0.44560787081718445,-0.35641729831695557,-0.4316202700138092,-0.6068428754806519,-0.5700521469116211,-0.46157729625701904,-0.37266263365745544,0.961107075214386,-0.18144598603248596,0.5369872450828552,0.8656256794929504,0.7626708745956421,0.3542640507221222,-0.03987514600157738,0.36821243166923523,0.5061885118484497,-0.9260568022727966,0.45402050018310547,-0.39996668696403503,0.13794934749603271,-0.5484737753868103,-0.7652326822280884,0.6376339793205261,-0.4652606248855591,0.4839421212673187,-1.0486429929733276,-0.19369837641716003,0.4873524308204651,-0.40248194336891174,-0.22371168434619904,0.600760817527771,0.2810841500759125,-0.13053469359874725,0.3954942226409912,0.1525692343711853,-0.4282999336719513,-0.2276996374130249,-0.3793374001979828,0.1557355672121048,0.21999196708202362,-0.22557608783245087,1.0386077165603638,1.0381429195404053,1.0379098653793335,1.0395958423614502,0.9601491689682007,1.0388942956924438,0.9599146842956543,0.9607080221176147,1.0361132621765137,1.0379250049591064,0.03969336301088333,0.03944658115506172,0.038768112659454346,0.0398242324590683,-0.0393449068069458,0.039204150438308716,-0.039158519357442856,-0.0390644408762455,-0.03290868550539017,0.038541533052921295,0.5217467546463013,-0.5794059038162231,0.4479096233844757,-0.5120208859443665,0.2693282663822174,-0.016941159963607788,0.44880518317222595,-0.427774578332901,0.5443506240844727,0.6639624238014221,0.6762502789497375,0.07297220826148987,0.006375480443239212,-0.247198224067688,-0.5914214253425598,-0.021504195407032967,0.4746536612510681,-0.5672377943992615,-0.5387329459190369,0.06231573596596718,-0.2213127613067627,-0.4772079885005951,0.6427767276763916,-0.7981551885604858,-0.3278438150882721,-0.620883047580719,0.22132402658462524,-0.7009095549583435,-0.5524700284004211,0.7083989381790161,-0.22254694998264313,-0.30130165815353394,-0.07633933424949646,0.17455820739269257,0.027629602700471878,-0.6698951721191406,0.16384854912757874,-0.6541116833686829,-0.17139500379562378,0.559296190738678,-0.10642830282449722,0.10815995931625366,-0.6259536147117615,0.15658073127269745,0.36806508898735046,0.42827582359313965,-0.6337610483169556,0.19014684855937958,0.06828143447637558,0.7269104719161987,-0.07554487138986588,0.2505001425743103,-0.09411667287349701,0.27270811796188354,-0.14068205654621124,1.0396214723587036,0.9600021243095398,0.9613381028175354,1.039692759513855,0.969131588935852,0.03987453877925873,-0.03978444263339043,-0.03921934962272644,0.04001907631754875,-0.010685907676815987,-0.32340094447135925,-0.3151439428329468,-0.21028386056423187,0.19780416786670685,0.6546882390975952,-0.19461429119110107
-0.2084002047777176,-0.18130363523960114,-0.6159327030181885,-0.3054755926132202,0.2921607792377472,0.829299807548523,-0.2135871946811676,-0.25859421491622925,0.771582841873169,0.8438488245010376,0.9142428636550903,-0.32112082839012146,0.8161083459854126,-0.2587016820907593,-0.9899169206619263,0.21887317299842834,-0.21193447709083557,0.2898902893066406,0.015308085829019547,0.43806999921798706,-0.3661198914051056,-0.4414710998535156,-0.6042885184288025,-0.560231626033783,-0.451445072889328,-0.38048696517944336,0.9516491889953613,-0.1907850056886673,0.5298588871955872,0.8737747073173523,0.7681049108505249,0.3629404604434967,-0.03814014792442322,0.35973241925239563,0.4990363121032715,-0.9354628920555115,0.4503764808177948,-0.395241916179657,0.1464637815952301,-0.5390093326568604,-0.7656659483909607,0.6290928721427917,-0.47304022312164307,0.4741915166378021,-1.0584138631820679,-0.18489579856395721,0.49583590030670166,-0.39282718300819397,-0.21389196813106537,0.610525369644165,0.2788621187210083,-0.13132525980472565,0.3962920308113098,0.15148843824863434,-0.429275244474411,-0.22777672111988068,-0.37955939769744873,0.1567612588405609,0.22006076574325562,-0.2260722666978836,1.0469894409179688,1.0459787845611572,1.047266960144043,1.049439549446106,0.9507765173912048,1.0477131605148315,0.9503161311149597,0.952237606048584,1.0421875715255737,1.0454397201538086,0.049353815615177155,0.048485167324543,0.04808645695447922,0.04962270334362984,-0.0485551580786705,0.0479290634393692,-0.04804573953151703,-0.04781241714954376,-0.041008252650499344,0.047398388385772705,0.5261555314064026,-0.5878138542175293,0.44283828139305115,-0.5210238695144653,0.2777729034423828,-0.024740831926465034,0.4401693046092987,-0.4201013743877411,0.5524989366531372,0.6548687815666199,0.6857118606567383,0.06296362727880478,0.016190776601433754,-0.25722017884254456,-0.5815863609313965,-0.029962243512272835,0.46474742889404297,-0.5683388710021973,-0.5464323163032532,0.07239315658807755,-0.21438990533351898,-0.4863450229167938,0.6498183012008667,-0.8079119324684143,-0.31853410601615906,-0.625075101852417,0.21210157871246338,-0.6908763647079468,-0.542339026927948,0.7180190682411194,-0.23201224207878113,-0.29128286242485046,-0.08540429919958115,0.1845751404762268,0.017801746726036072,-0.6615509986877441,0.173916295170784,-0.6640705466270447,-0.18126103281974792,0.5500869750976562,-0.11558594554662704,0.11793293058872223,-0.6346604824066162,0.16637790203094482,0.3589915633201599,0.4372943639755249,-0.6240254044532776,0.1810559630393982,0.058940544724464417,0.7354195713996887,-0.07615523040294647,0.25137144327163696,-0.09175531566143036,0.2750920057296753,-0.1432330459356308,1.0493319034576416,0.9503566026687622,0.9532310366630554,1.0496829748153687,0.9672598242759705,0.04956332594156265,-0.04948153719305992,-0.04857902228832245,0.050068795680999756,-0.0037554758600890636,-0.3331679403781891,-0.3055441975593567,-0.20232263207435608,0.20786793529987335,0.6527419686317444,-0.18459445238113403
-0.19832967221736908,-0.17158260941505432,-0.6258471608161926,-0.3155738115310669,0.28199607133865356,0.8390210866928101,-0.20444774627685547,-0.2638292610645294,0.7745921611785889,0.8342498540878296,0.9040364027023315,-0.331241250038147,0.8058748841285706,-0.26879918575286865,-0.9999675154685974,0.22842493653297424,-0.21783320605754852,0.2846406102180481,0.023421350866556168,0.429768830537796,-0.3757007122039795,-0.45125144720077515,-0.6054977774620056,-0.5505374670028687,-0.4412596523761749,-0.38877829909324646,0.9427645802497864,-0.1997191607952118,0.5219883918762207,0.8820104002952576,0.7713766694068909,0.37204432487487793,-0.03958209604024887,0.35185620188713074,0.49396589398384094,-0.9444034695625305,0.4449852406978607,-0.39231112599372864,0.15377183258533478,-0.5302485823631287,-0.7637910842895508,0.6214639544487,-0.47942814230918884,0.46436697244644165,-1.0682238340377808,-0.1765536218881607,0.5011464357376099,-0.38401085138320923,-0.2044592648744583,0.6200108528137207,0.27714982628822327,-0.1318618655204773,0.3980090320110321,0.1494114249944687,-0.43010732531547546,-0.22825321555137634,-0.37961071729660034,0.15765930712223053,0.21981780230998993,-0.2275177538394928,1.0537693500518799,1.0520161390304565,1.0565931797027588,1.0591620206832886,0.9421218633651733,1.0553405284881592,0.9413169026374817,0.9451497793197632,1.0467753410339355,1.050798773765564,0.058609724044799805,0.05657658353447914,0.05764837563037872,0.05919630825519562,-0.05697230249643326,0.05502508953213692,-0.055892132222652435,-0.05561637133359909,-0.04942995682358742,0.055685631930828094,0.527442455291748,-0.5955878496170044,0.44114547967910767,-0.5295179486274719,0.2852890193462372,-0.031234612688422203,0.4320994019508362,-0.4138917624950409,0.5594334602355957,0.6467522382736206,0.6946904063224792,0.05301408842206001,0.025979813188314438,-0.2672235369682312,-0.5719934105873108,-0.03687001019716263,0.4549870193004608,-0.5663762092590332,-0.5530460476875305,0.08251302689313889,-0.2091103345155716,-0.49510446190834045,0.6528268456459045,-0.8174411058425903,-0.3097262680530548,-0.6262128353118896,0.2032398134469986,-0.6809943914413452,-0.5322673320770264,0.7277098894119263,-0.2405799925327301,-0.2812552750110626,-0.09478798508644104,0.19464802742004395,0.008032158017158508,-0.6539831757545471,0.18403784930706024,-0.6740977764129639,-0.19110551476478577,0.5406418442726135,-0.1230979785323143,0.12719005346298218,-0.6435843706130981,0.17573973536491394,0.3508618175983429,0.4453045725822449,-0.614948034286499,0.17293977737426758,0.05047135800123215,0.7425483465194702,-0.07735548913478851,0.25114691257476807,-0.09007004648447037,0.27798137068748474,-0.14548148214817047,1.0584497451782227,0.9410099983215332,0.9463617205619812,1.0596805810928345,0.9664505124092102,0.058842480182647705,-0.058939822018146515,-0.0575626976788044,0.06017347425222397,0.004122951999306679,-0.34234949946403503,-0.2962377965450287,-0.19575324654579163,0.21792355179786682,0.6518720388412476,-0.17462338507175446
-0.18825776875019073,-0.16170546412467957,-0.6357759833335876,-0.3256649672985077,0.2717829942703247,0.8487204313278198,-0.1962355524301529,-0.26812565326690674,0.7759062051773071,0.8244501948356628,0.8938178420066833,-0.3413526117801666,0.7956716418266296,-0.2788599729537964,-1.009942889213562,0.23753446340560913,-0.2250426709651947,0.2780349552631378,0.03094787895679474,0.42091456055641174,-0.3851465582847595,-0.4608883559703827,-0.6094922423362732,-0.5410513877868652,-0.43101492524147034,-0.397447407245636,0.9337559938430786,-0.20857234299182892,0.5134391188621521,0.8906059265136719,0.7725316882133484,0.3814598619937897,-0.042882297188043594,0.344449520111084,0.4910184442996979,-0.9529255032539368,0.43855011463165283,-0.3911195993423462,0.16013720631599426,-0.5219857096672058,-0.7595345377922058,0.6150763034820557,-0.4841502606868744,0.45452216267585754,-1.0780948400497437,-0.16996030509471893,0.5030463933944702,-0.3763520121574402,-0.1956460028886795,0.6290347576141357,0.2766839265823364,-0.1323760747909546,0.39927515387535095,0.14806273579597473,-0.43061563372612,-0.2289460301399231,-0.37964704632759094,0.15828341245651245,0.21945543587207794,-0.2291088104248047,1.057883858680725,1.056566834449768,1.0657275915145874,1.068632960319519,0.9345072507858276,1.0617083311080933,0.933201253414154,0.9397282004356384,1.0492554903030396,1.0530903339385986,0.0668971985578537,0.06355348229408264,0.06740757822990417,0.06828153878450394,-0.06410062313079834,0.060444753617048264,-0.062294330447912216,-0.06223278120160103,-0.05794242024421692,0.06336471438407898,0.5258352160453796,-0.602609395980835,0.44265294075012207,-0.5374611020088196,0.2916121482849121,-0.03610032796859741,0.42472440004348755,-0.4094783365726471,0.5647618174552917,0.6401301622390747,0.7025623917579651,0.04328964278101921,0.03535548225045204,-0.27706629037857056,-0.5631651878356934,-0.04042615368962288,0.4455298185348511,-0.563159704208374,-0.55886310338974,0.09267664700746536,-0.20649248361587524,-0.5034025311470032,0.656043291091919,-0.8266648054122925,-0.30146345496177673,-0.6251229047775269,0.19498459994792938,-0.6713778972625732,-0.5222191214561462,0.7375280857086182,-0.24606715142726898,-0.2711818218231201,-0.10439377278089523,0.2047567516565323,-0.0012457352131605148,-0.6525493860244751,0.1939692348241806,-0.6839802265167236,-0.20107533037662506,0.53105229139328,-0.12812329828739166,0.13566742837429047,-0.6528578400611877,0.18446652591228485,0.3439767062664032,0.45186570286750793,-0.606931209564209,0.16627247631549835,0.043423645198345184,0.747778594493866,-0.07857520133256912,0.2513732314109802,-0.08886943012475967,0.2796626687049866,-0.14652755856513977,1.0662702322006226,0.9320617318153381,0.9409121870994568,1.0696150064468384,0.9651033282279968,0.0675506740808487,-0.06805159151554108,-0.06625515967607498,0.07030610740184784,0.012625815346837044,-0.35031479597091675,-0.2873246669769287,-0.19086198508739471,0.2278883308172226,0.6504829525947571,-0.1647496521472931
-0.1782168447971344,-0.15170332789421082,-0.645637571811676,-0.3356010913848877,0.26161256432533264,0.8583248257637024,-0.18934357166290283,-0.27134695649147034,0.776421844959259,0.8144713044166565,0.8836455941200256,-0.3514014184474945,0.7855470776557922,-0.28884366154670715,-1.0197691917419434,0.24672256410121918,-0.23306973278522491,0.2707073390483856,0.03835583105683327,0.4116809368133545,-0.39443716406822205,-0.47039851546287537,-0.6150780320167542,-0.531852126121521,-0.4207051992416382,-0.40643540024757385,0.9245517253875732,-0.21768370270729065,0.5044062733650208,0.899400532245636,0.7718686461448669,0.3910622000694275,-0.047455914318561554,0.3374302387237549,0.49037277698516846,-0.9610587954521179,0.43130946159362793,-0.3915621042251587,0.16547740995883942,-0.5142213702201843,-0.7535130381584167,0.6103147864341736,-0.4881437420845032,0.44451799988746643,-1.0880399942398071,-0.16477301716804504,0.5025899410247803,-0.36980196833610535,-0.18728792667388916,0.6376417279243469,0.27723342180252075,-0.13261482119560242,0.4000670909881592,0.1471889764070511,-0.43110305070877075,-0.22972950339317322,-0.3801175653934479,0.15933683514595032,0.21912789344787598,-0.23026905953884125,1.0588217973709106,1.059667706489563,1.074902057647705,1.0777093172073364,0.9282867312431335,1.0668270587921143,0.9260668754577637,0.9362781643867493,1.050251841545105,1.052597999572754,0.07383094727993011,0.06933928281068802,0.07732170075178146,0.07639411091804504,-0.0695042610168457,0.0641406774520874,-0.06714523583650589,-0.06737186759710312,-0.06608333438634872,0.0706237182021141,0.522065281867981,-0.6088392734527588,0.4464786648750305,-0.544826090335846,0.2966119647026062,-0.039228878915309906,0.4180492162704468,-0.40693867206573486,0.5683470964431763,0.6353409886360168,0.708141028881073,0.03419586271047592,0.043619200587272644,-0.2863951027393341,-0.5562999248504639,-0.04066925495862961,0.4365171492099762,-0.5621771216392517,-0.5651355981826782,0.10286286473274231,-0.20669083297252655,-0.5108479261398315,0.6575514078140259,-0.835458517074585,-0.293974906206131,-0.6217853426933289,0.18759500980377197,-0.6621841788291931,-0.5122939348220825,0.7474830746650696,-0.24796099960803986,-0.26115554571151733,-0.11408992111682892,0.21485771238803864,-0.009768183343112469,-0.6553069353103638,0.2036176174879074,-0.693607747554779,-0.2111305296421051,0.5213094353675842,-0.13043777644634247,0.1432897001504898,-0.6623514890670776,0.19243967533111572,0.3384777903556824,0.4569195806980133,-0.6000457406044006,0.1612456887960434,0.037956297397613525,0.750895619392395,-0.07905317842960358,0.2523602247238159,-0.08761785924434662,0.28129130601882935,-0.14754611253738403,1.0721375942230225,0.9236056804656982,0.9369983673095703,1.0793414115905762,0.9620602130889893,0.07544024288654327,-0.07662973552942276,-0.07453621923923492,0.0803907960653305,0.02160567231476307,-0.3564811646938324,-0.2788911759853363,-0.18777909874916077,0.23762206733226776,0.6474294662475586,-0.1550394743680954
-0.16823741793632507,-0.14161765575408936,-0.6553551554679871,-0.3453711271286011,0.2514908015727997,0.8678356409072876,-0.1838243156671524,-0.27349916100502014,0.7771286964416504,0.8043524026870728,0.8735739588737488,-0.3612421452999115,0.7755833268165588,-0.2988584041595459,-1.029309868812561,0.255696564912796,-0.24169586598873138,0.2627277076244354,0.045607391744852066,0.40213271975517273,-0.4035211205482483,-0.4797597825527191,-0.6218030452728271,-0.5229113101959229,-0.4103493094444275,-0.4157024025917053,0.9151890873908997,-0.227034330368042,0.495013028383255,0.9081507325172424,0.7705928087234497,0.400823712348938,-0.051871154457330704,0.329988956451416,0.4903806746006012,-0.9690564274787903,0.4233708679676056,-0.3936297595500946,0.16978499293327332,-0.506639838218689,-0.746381402015686,0.6070203185081482,-0.49153831601142883,0.43438488245010376,-1.0980170965194702,-0.1609804481267929,0.500410795211792,-0.36429116129875183,-0.17944025993347168,0.6458016037940979,0.2771539092063904,-0.1329156458377838,0.40015918016433716,0.14626555144786835,-0.43147218227386475,-0.23035171627998352,-0.3809049427509308,0.1601337045431137,0.21912674605846405,-0.2319265455007553,1.0571956634521484,1.0614265203475952,1.0843052864074707,1.0862778425216675,0.9235406517982483,1.0708309412002563,0.9199692010879517,0.9347995519638062,1.0496937036514282,1.0499467849731445,0.07913278788328171,0.07378515601158142,0.08735249191522598,0.08337557315826416,-0.07304983586072922,0.06599674373865128,-0.07085390388965607,-0.07090073823928833,-0.07286085933446884,0.07710374146699905,0.516752302646637,-0.6142476201057434,0.45192402601242065,-0.5515908598899841,0.3002471625804901,-0.04068280756473541,0.4120713770389557,-0.40619128942489624,0.5702084302902222,0.6324561238288879,0.7112454175949097,0.025889631360769272,0.05115097761154175,-0.2951272130012512,-0.5515211224555969,-0.03820189833641052,0.42812713980674744,-0.5635133385658264,-0.5718558430671692,0.1130717545747757,-0.20926891267299652,-0.5171814560890198,0.6594921946525574,-0.8435289859771729,-0.28744927048683167,-0.6168199181556702,0.1812802255153656,-0.6536002159118652,-0.5026071071624756,0.7575619220733643,-0.24734808504581451,-0.25136277079582214,-0.12348149716854095,0.2248741090297699,-0.01735524646937847,-0.6604634523391724,0.21266715228557587,-0.7029686570167542,-0.22109141945838928,0.5114094018936157,-0.13024428486824036,0.14993396401405334,-0.6720539331436157,0.1995704621076584,0.334439754486084,0.4604712128639221,-0.5943765640258789,0.15795694291591644,0.034178394824266434,0.7520706653594971,-0.07915213704109192,0.2530210018157959,-0.08650374412536621,0.28277912735939026,-0.14829353988170624,1.0757805109024048,0.915713906288147,0.9346376657485962,1.088694453239441,0.9571643471717834,0.08232761919498444,-0.08459604531526566,-0.0822841003537178,0.09011875838041306,0.03089609369635582,-0.3605910539627075,-0.2710110545158386,-0.1864730566740036,0.24694272875785828,0.6425430178642273,-0.14556874334812164
-0.15827126801013947,-0.13151031732559204,-0.6648356914520264,-0.3550731837749481,0.2413414865732193,0.8754757046699524,-0.18009309470653534,-0.2771020829677582,0.7784062027931213,0.7945410013198853,0.8637312650680542,-0.3707353472709656,0.7659357190132141,-0.30883169174194336,-1.0383833646774292,0.26256635785102844,-0.2507808804512024,0.25434157252311707,0.0523599274456501,0.3923891484737396,-0.4123712182044983,-0.48890548944473267,-0.6294175982475281,-0.5142077803611755,-0.3999742567539215,-0.4251980483531952,0.9057289361953735,-0.23667775094509125,0.48536747694015503,0.9168696999549866,0.7687956690788269,0.4106414020061493,-0.05585375055670738,0.32232362031936646,0.49096402525901794,-0.9768143892288208,0.41513222455978394,-0.39729663729667664,0.17358815670013428,-0.4989807605743408,-0.7384092807769775,0.605060875415802,-0.4943621754646301,0.4241815209388733,-1.1080267429351807,-0.15849874913692474,0.49716052412986755,-0.3594513237476349,-0.17204444110393524,0.6535499095916748,0.2771834433078766,-0.13304002583026886,0.3995632529258728,0.14475983381271362,-0.431812047958374,-0.23071570694446564,-0.38194718956947327,0.16101187467575073,0.2189936488866806,-0.23284947872161865,1.0536226034164429,1.0619736909866333,1.0939462184906006,1.0942938327789307,0.9203492999076843,1.0736331939697266,0.9150368571281433,0.9352211356163025,1.0482579469680786,1.0453741550445557,0.08272402733564377,0.0769927129149437,0.09752544015645981,0.08958820253610611,-0.07484277337789536,0.06597074121236801,-0.073344886302948,-0.0727640762925148,-0.07697592675685883,0.08251222223043442,0.5103128552436829,-0.6190111041069031,0.4585793614387512,-0.557681679725647,0.30269432067871094,-0.041159000247716904,0.4069656729698181,-0.4071163833141327,0.570683479309082,0.6305412650108337,0.7120038270950317,0.018406368792057037,0.057864297181367874,-0.3032192587852478,-0.5489225387573242,-0.033859267830848694,0.4204441010951996,-0.5668109655380249,-0.5790420770645142,0.12328054010868073,-0.21341121196746826,-0.5226218700408936,0.6625773310661316,-0.8510357737541199,-0.28167691826820374,-0.6108015179634094,0.17588266730308533,-0.64546138048172,-0.4931074380874634,0.7676982879638672,-0.2451907843351364,-0.2418079525232315,-0.13265764713287354,0.23485949635505676,-0.024234041571617126,-0.6669384837150574,0.22105686366558075,-0.7122668623924255,-0.23107841610908508,0.5013465881347656,-0.1279616504907608,0.15540947020053864,-0.68195641040802,0.20569206774234772,0.33189308643341064,0.46254977583885193,-0.5900624990463257,0.15643976628780365,0.03217834606766701,0.7515338659286499,-0.07929614186286926,0.25297191739082336,-0.08538342267274857,0.28439030051231384,-0.14901946485042572,1.077516794204712,0.9084550738334656,0.9337543249130249,1.0974520444869995,0.950817883014679,0.08765914291143417,-0.09184873104095459,-0.08946120738983154,0.09951532632112503,0.040356218814849854,-0.36284202337265015,-0.26375219225883484,-0.1867978721857071,0.255684494972229,0.6362139582633972,-0.13642778992652893
-0.15332002937793732,-0.12646569311618805,-0.6694090962409973,-0.3598785698413849,0.23626157641410828,0.8785216808319092,-0.17900493741035461,-0.27941104769706726,0.7795528173446655,0.7896718382835388,0.8590376377105713,-0.37519460916519165,0.7613362669944763,-0.31374093890190125,-1.0426081418991089,0.26478490233421326,-0.2555079162120819,0.24987883865833282,0.05556374043226242,0.3874393105506897,-0.416679710149765,-0.49338117241859436,-0.6334781646728516,-0.509977400302887,-0.3947860598564148,-0.43001025915145874,0.9010158181190491,-0.2416195273399353,0.48041555285453796,0.9210959076881409,0.7677265405654907,0.41550976037979126,-0.05766377970576286,0.31842079758644104,0.49148255586624146,-0.9805619716644287,0.41097182035446167,-0.3996885418891907,0.17526239156723022,-0.495117723941803,-0.7341350317001343,0.6046251058578491,-0.4955146312713623,0.4190787374973297,-1.1130152940750122,-0.15797270834445953,0.49504467844963074,-0.35736536979675293,-0.16856998205184937,0.6572305560112,0.2775684595108032,-0.13310778141021729,0.39896899461746216,0.14398744702339172,-0.43200814723968506,-0.23093046247959137,-0.38240838050842285,0.1612415462732315,0.21891964972019196,-0.23277722299098969,1.051121473312378,1.0617339611053467,1.0988810062408447,1.0979650020599365,0.919488787651062,1.0745503902435303,0.9131563305854797,0.9361882209777832,1.0470744371414185,1.042426347732544,0.08370180428028107,0.0780314952135086,0.10267569869756699,0.09226561337709427,-0.07497107982635498,0.06520847231149673,-0.07402238994836807,-0.07298361510038376,-0.0779610201716423,0.08466921746730804,0.5066997408866882,-0.6210492849349976,0.4623272120952606,-0.5603640675544739,0.3033783435821533,-0.0409749336540699,0.40482914447784424,-0.408278226852417,0.5703142285346985,0.6300220489501953,0.7114021182060242,0.01521121896803379,0.06099974736571312,-0.3068418502807617,-0.5486122965812683,-0.031031804159283638,0.41707560420036316,-0.5692389011383057,-0.5827986598014832,0.1283559948205948,-0.21600887179374695,-0.5249490141868591,0.6633695363998413,-0.8545620441436768,-0.27912437915802,-0.6073824763298035,0.173605278134346,-0.6416042447090149,-0.4884456992149353,0.7727982997894287,-0.24337948858737946,-0.23728163540363312,-0.13704435527324677,0.23977935314178467,-0.027209118008613586,-0.670677125453949,0.22472380101680756,-0.7167561054229736,-0.23601758480072021,0.4962286651134491,-0.1260109543800354,0.15752841532230377,-0.6869974136352539,0.20821335911750793,0.33132365345954895,0.46292349696159363,-0.5885815024375916,0.15648771822452545,0.031981535255908966,0.7505508065223694,-0.07923053205013275,0.252984881401062,-0.08493990451097488,0.28501424193382263,-0.14921750128269196,1.077690839767456,0.9051669239997864,0.9339793920516968,1.1014318466186523,0.9471153020858765,0.08962937444448471,-0.09509254992008209,-0.09280892461538315,0.10393497347831726,0.04510584846138954,-0.3632735311985016,-0.2604599893093109,-0.18767514824867249,0.2596774995326996,0.632521390914917,-0.13207267224788666
-0.14836056530475616,-0.1213950514793396,-0.6738977432250977,-0.3646162152290344,0.23119018971920013,0.8809433579444885,-0.17850902676582336,-0.2820270359516144,0.781419575214386,0.7847723960876465,0.8545092344284058,-0.3794676959514618,0.7568897008895874,-0.31862112879753113,-1.0465730428695679,0.2657119333744049,-0.26037076115608215,0.24531632661819458,0.05876574665307999,0.38243478536605835,-0.42090192437171936,-0.49781879782676697,-0.6373206973075867,-0.5058662295341492,-0.38960137963294983,-0.4348125755786896,0.8963977098464966,-0.2466045618057251,0.4754302501678467,0.9248809814453125,0.7665287256240845,0.42030152678489685,-0.05940399318933487,0.3144332766532898,0.4922456741333008,-0.9842733144760132,0.40671077370643616,-0.40242302417755127,0.176703542470932,-0.4912167191505432,-0.7296460270881653,0.6046666502952576,-0.49642595648765564,0.41398629546165466,-1.1179780960083008,-0.15793974697589874,0.4926829934120178,-0.35548099875450134,-0.16522833704948425,0.6607370376586914,0.27810052037239075,-0.1331654191017151,0.39864227175712585,0.14377295970916748,-0.4322889745235443,-0.2309609055519104,-0.3828085958957672,0.16147924959659576,0.21875253319740295,-0.23256531357765198,1.0481159687042236,1.0611017942428589,1.1039081811904907,1.101314902305603,0.9192321300506592,1.0751314163208008,0.9117559194564819,0.9377338290214539,1.0453633069992065,1.039004921913147,0.083941750228405,0.07860198616981506,0.10787007957696915,0.09465926885604858,-0.07446418702602386,0.06398684531450272,-0.07423003017902374,-0.07259821146726608,-0.07838591188192368,0.0863979384303093,0.502801239490509,-0.6227588057518005,0.46637895703315735,-0.5626933574676514,0.30359336733818054,-0.04043596610426903,0.4030695855617523,-0.4100087285041809,0.5694307088851929,0.6298771500587463,0.7100712656974792,0.012576415203511715,0.06399248540401459,-0.3100537955760956,-0.5491051077842712,-0.027703534811735153,0.4142035245895386,-0.5721105933189392,-0.5865052342414856,0.13340796530246735,-0.21899914741516113,-0.5269127488136292,0.6630544066429138,-0.8578914403915405,-0.27687016129493713,-0.6036530137062073,0.17171317338943481,-0.6379549503326416,-0.4838722348213196,0.7779204249382019,-0.24098731577396393,-0.23304399847984314,-0.14118313789367676,0.24460957944393158,-0.02972504124045372,-0.6747819185256958,0.22782544791698456,-0.7210456728935242,-0.24087829887866974,0.4910360276699066,-0.1234918013215065,0.159152090549469,-0.6921107769012451,0.21028508245944977,0.3313259780406952,0.4627857506275177,-0.587617039680481,0.1571812927722931,0.032424017786979675,0.7489923238754272,-0.07915802299976349,0.25310415029525757,-0.08437198400497437,0.28557929396629333,-0.14968432486057281,1.0773648023605347,0.9022031426429749,0.9347806572914124,1.1049895286560059,0.9430290460586548,0.09101169556379318,-0.0980018824338913,-0.09593795239925385,0.10804354399442673,0.04987885430455208,-0.3631940484046936,-0.2574940621852875,-0.1891476958990097,0.26327645778656006,0.6284465193748474,-0.12794175744056702
-0.14340272545814514,-0.11631282418966293,-0.6782734990119934,-0.3692757785320282,0.22615063190460205,0.8828137516975403,-0.17848630249500275,-0.2848449945449829,0.783927321434021,0.7798492908477783,0.8501553535461426,-0.383555144071579,0.7525948882102966,-0.32346516847610474,-1.0502792596817017,0.265583336353302,-0.2653142809867859,0.2410677969455719,0.0614444836974144,0.3774026036262512,-0.4250357151031494,-0.502206563949585,-0.6408763527870178,-0.5018633604049683,-0.38443994522094727,-0.43957993388175964,0.8919067978858948,-0.2516196370124817,0.4704171121120453,0.9282149076461792,0.765235424041748,0.42499902844429016,-0.06106458231806755,0.31039029359817505,0.4932083189487457,-0.9879264831542969,0.40242958068847656,-0.40540897846221924,0.1779579371213913,-0.48728761076927185,-0.7249418497085571,0.605127215385437,-0.49691203236579895,0.4089396297931671,-1.1229758262634277,-0.15836264193058014,0.490133136510849,-0.3537871241569519,-0.16202297806739807,0.6640660762786865,0.27834299206733704,-0.13343103229999542,0.39871540665626526,0.1428450345993042,-0.4325720965862274,-0.23103412985801697,-0.3830063045024872,0.16185909509658813,0.21853621304035187,-0.23237726092338562,1.0447635650634766,1.0601286888122559,1.1089946031570435,1.1043189764022827,0.9194557070732117,1.075437068939209,0.9107929468154907,0.9397179484367371,1.0432274341583252,1.0352392196655273,0.08361642807722092,0.07876764982938766,0.11309380829334259,0.09701437503099442,-0.07346590608358383,0.06238623335957527,-0.07402385771274567,-0.07174346596002579,-0.07798855006694794,0.0877104327082634,0.4986986815929413,-0.6241560578346252,0.47065168619155884,-0.5646741986274719,0.30340608954429626,-0.03960742801427841,0.40164875984191895,-0.412202388048172,0.5681143999099731,0.6300422549247742,0.7082606554031372,0.010519756004214287,0.06576819717884064,-0.3128295838832855,-0.550128161907196,-0.023981207981705666,0.4118504524230957,-0.5750009417533875,-0.5901657342910767,0.1384422779083252,-0.22227661311626434,-0.5285460352897644,0.661529541015625,-0.861054539680481,-0.2748768627643585,-0.5996884703636169,0.17016956210136414,-0.6345106959342957,-0.47938811779022217,0.7830548286437988,-0.23815108835697174,-0.22912052273750305,-0.14501608908176422,0.24933776259422302,-0.03180614486336708,-0.6791620254516602,0.23035283386707306,-0.7251043915748596,-0.24564042687416077,0.4857860207557678,-0.12054496258497238,0.16032150387763977,-0.6972727179527283,0.21194016933441162,0.3318139612674713,0.4622122347354889,-0.587112307548523,0.15841303765773773,0.03340354561805725,0.7469742894172668,-0.07911685854196548,0.2531977593898773,-0.08393477648496628,0.285798579454422,-0.15023767948150635,1.0767195224761963,0.899547815322876,0.9360774755477905,1.1081069707870483,0.9386575222015381,0.09191295504570007,-0.10062821209430695,-0.09886748343706131,0.1118144616484642,0.054620347917079926,-0.36277538537979126,-0.25484564900398254,-0.19111394882202148,0.2664698362350464,0.624086320400238,-0.12404567003250122
-0.1384032666683197,-0.1112026795744896,-0.6825891137123108,-0.37381771206855774,0.22118835151195526,0.884282648563385,-0.17878971993923187,-0.28771260380744934,0.7870206832885742,0.7748701572418213,0.8461795449256897,-0.3872724771499634,0.7485650181770325,-0.3281790316104889,-1.0536177158355713,0.26462388038635254,-0.2702997922897339,0.237374410033226,0.063791923224926,0.3723444938659668,-0.42907533049583435,-0.5065281987190247,-0.6440427899360657,-0.49796363711357117,-0.37932848930358887,-0.4442647397518158,0.8876441121101379,-0.2566412687301636,0.4653899669647217,0.9310077428817749,0.7638776302337646,0.4295831620693207,-0.06263342499732971,0.30631572008132935,0.49433213472366333,-0.9915075898170471,0.3981948494911194,-0.4085768461227417,0.1790650486946106,-0.4833347201347351,-0.7200718522071838,0.6059393882751465,-0.49703142046928406,0.4039422869682312,-1.1279932260513306,-0.15922708809375763,0.48740354180336,-0.35229817032814026,-0.1589665412902832,0.6672171354293823,0.2784065306186676,-0.1337149292230606,0.39894694089889526,0.1421482414007187,-0.4328029453754425,-0.23117636144161224,-0.3832607567310333,0.16196733713150024,0.2183595448732376,-0.2320692539215088,1.0411642789840698,1.0588569641113281,1.1141101121902466,1.1069930791854858,0.9200782179832458,1.0755137205123901,0.9102094173431396,0.9420537352561951,1.0407317876815796,1.0312235355377197,0.08289895951747894,0.07857858389616013,0.11829110980033875,0.09931915998458862,-0.07207030057907104,0.060465943068265915,-0.07347331941127777,-0.07049580663442612,-0.07697996497154236,0.08858820050954819,0.4944572448730469,-0.625260055065155,0.47508206963539124,-0.5663093328475952,0.30287912487983704,-0.03855343908071518,0.4005291163921356,-0.41477346420288086,0.5664374232292175,0.6304510831832886,0.7061010599136353,0.008976451121270657,0.06643057614564896,-0.3152119517326355,-0.5515523552894592,-0.019973717629909515,0.4099609851837158,-0.577770471572876,-0.5937134027481079,0.14344221353530884,-0.22571848332881927,-0.5298736095428467,0.6588670015335083,-0.8640483021736145,-0.2731132507324219,-0.5955396294593811,0.168918177485466,-0.6313043832778931,-0.47501638531684875,0.7882155776023865,-0.23498941957950592,-0.22552086412906647,-0.14848832786083221,0.25395724177360535,-0.03349253162741661,-0.6837484240531921,0.23232528567314148,-0.7289087176322937,-0.25028783082962036,0.48049867153167725,-0.11727697402238846,0.16108249127864838,-0.7024574279785156,0.21321488916873932,0.3327116072177887,0.46127161383628845,-0.5870087742805481,0.1600918173789978,0.034832507371902466,0.7445885539054871,-0.07907672226428986,0.2533833682537079,-0.08367104828357697,0.2857542932033539,-0.15065430104732513,1.075927734375,0.8971894979476929,0.9378045201301575,1.1107773780822754,0.9340733885765076,0.09243588894605637,-0.10299158096313477,-0.10158541053533554,0.11523007601499557,0.05928347259759903,-0.36218106746673584,-0.25250595808029175,-0.19348983466625214,0.2692549526691437,0.6195124983787537,-0.1203947588801384
-0.13336770236492157,-0.10607170313596725,-0.68682861328125,-0.3782399296760559,0.2163158804178238,0.8852626085281372,-0.17931611835956573,-0.2905542254447937,0.7905548810958862,0.7699982523918152,0.8425850868225098,-0.3906554579734802,0.7447875738143921,-0.3327506184577942,-1.056601643562317,0.2628876864910126,-0.2753084897994995,0.23435424268245697,0.06571397930383682,0.36729225516319275,-0.4330919682979584,-0.5108494758605957,-0.6470834612846375,-0.49407514929771423,-0.37419021129608154,-0.44888219237327576,0.8836398124694824,-0.2616705596446991,0.4603041112422943,0.9333303570747375,0.7624830603599548,0.43403318524360657,-0.06406798958778381,0.3022440969944,0.49557504057884216,-0.9950202107429504,0.39402779936790466,-0.4118826985359192,0.18007837235927582,-0.4793512225151062,-0.715085506439209,0.607018768787384,-0.4968714118003845,0.39899709820747375,-1.133007287979126,-0.16056126356124878,0.48446130752563477,-0.35096025466918945,-0.15608066320419312,0.6702284812927246,0.27870288491249084,-0.13401438295841217,0.39902329444885254,0.1415281593799591,-0.432962566614151,-0.23128671944141388,-0.3833605945110321,0.16207338869571686,0.21821655333042145,-0.23200379312038422,1.0373992919921875,1.0572651624679565,1.1192424297332764,1.1093554496765137,0.9210513830184937,1.075369954109192,0.9099765419960022,0.9446791410446167,1.0379612445831299,1.0269914865493774,0.08186239749193192,0.078060582280159,0.12348031252622604,0.1015469953417778,-0.07025287300348282,0.05821046978235245,-0.07260750234127045,-0.06891018152236938,-0.07539378106594086,0.08904221653938293,0.49013152718544006,-0.6260953545570374,0.4796176552772522,-0.5676072835922241,0.3020703196525574,-0.03733673691749573,0.3996727168560028,-0.41765105724334717,0.564465343952179,0.6310363411903381,0.7036851048469543,0.007884333841502666,0.06613503396511078,-0.3172382712364197,-0.5532885789871216,-0.0157617274671793,0.40847858786582947,-0.5803552865982056,-0.5970928072929382,0.148390531539917,-0.2293374389410019,-0.5308133363723755,0.6554885506629944,-0.8668542504310608,-0.2716086506843567,-0.5913031101226807,0.16794738173484802,-0.6284301280975342,-0.4708198606967926,0.7933458685874939,-0.2316083163022995,-0.22223806381225586,-0.15154911577701569,0.25846654176712036,-0.03483680263161659,-0.6884821057319641,0.23378685116767883,-0.732442319393158,-0.2548072338104248,0.4751964509487152,-0.1137644574046135,0.1614420861005783,-0.70766681432724,0.21414794027805328,0.33395886421203613,0.45999178290367126,-0.5872859954833984,0.16213886439800262,0.036622025072574615,0.7418786287307739,-0.07893162220716476,0.25348055362701416,-0.08348825573921204,0.28603610396385193,-0.15091709792613983,1.075147271156311,0.895115315914154,0.9399100542068481,1.1130057573318481,0.9293332695960999,0.09267515689134598,-0.10511508584022522,-0.10403095930814743,0.1182827353477478,0.0639256089925766,-0.3615603446960449,-0.2504650354385376,-0.19620366394519806,0.27163851261138916,0.6147840023040771,-0.1169978678226471
-0.12832406163215637,-0.10095444321632385,-0.6909641623497009,-0.38251861929893494,0.21156154572963715,0.8860801458358765,-0.17986036837100983,-0.2931027114391327,0.7942883968353271,0.7652637958526611,0.839349091053009,-0.3937421441078186,0.7412418127059937,-0.33719441294670105,-1.0592514276504517,0.2605321407318115,-0.2803005278110504,0.2322291135787964,0.0674319937825203,0.3622581362724304,-0.43708354234695435,-0.5151617527008057,-0.6499946117401123,-0.4901607930660248,-0.3690513074398041,-0.45339348912239075,0.8799251914024353,-0.2666921019554138,0.45517632365226746,0.935221254825592,0.7610858082771301,0.43833231925964355,-0.06537561863660812,0.29818418622016907,0.49689623713493347,-0.9984380006790161,0.3900289833545685,-0.41528239846229553,0.18095329403877258,-0.47535717487335205,-0.7100453972816467,0.6082318425178528,-0.49652913212776184,0.3941613733768463,-1.137976050376892,-0.16225214302539825,0.48139601945877075,-0.34974437952041626,-0.15334562957286835,0.673095703125,0.2786848545074463,-0.13428986072540283,0.3992103934288025,0.1406312882900238,-0.43311333656311035,-0.23149490356445312,-0.3834867477416992,0.1624109148979187,0.21814151108264923,-0.2322131097316742,1.033547282218933,1.0554392337799072,1.1243482828140259,1.1114542484283447,0.9223104119300842,1.0750385522842407,0.9100311398506165,0.9475200772285461,1.0349781513214111,1.0225954055786133,0.08060793578624725,0.0772489532828331,0.12864385545253754,0.10372373461723328,-0.068097785115242,0.05567874386906624,-0.0714976042509079,-0.06706199049949646,-0.07327187806367874,0.08906151354312897,0.48577648401260376,-0.6267332434654236,0.4841996133327484,-0.5686558485031128,0.30104413628578186,-0.03605405613780022,0.39901334047317505,-0.42075759172439575,0.5622697472572327,0.6316924691200256,0.7011170983314514,0.007169841788709164,0.065040722489357,-0.3189622759819031,-0.5552288889884949,-0.01142471469938755,0.40734031796455383,-0.5825867652893066,-0.6002217531204224,0.15326441824436188,-0.23306035995483398,-0.5314212441444397,0.6515709757804871,-0.8695144653320312,-0.27031269669532776,-0.5870226621627808,0.16721861064434052,-0.6258761882781982,-0.46679115295410156,0.7984288334846497,-0.22810903191566467,-0.21925091743469238,-0.1541544497013092,0.26286786794662476,-0.035899657756090164,-0.6933072209358215,0.23479868471622467,-0.735698401927948,-0.25918862223625183,0.4699041247367859,-0.11007806658744812,0.16145697236061096,-0.7128689885139465,0.21477846801280975,0.3354966342449188,0.4584348499774933,-0.5878800749778748,0.16448870301246643,0.03871102258563042,0.7389150857925415,-0.07874958217144012,0.25367096066474915,-0.08332350850105286,0.2862444818019867,-0.15101145207881927,1.0745142698287964,0.8933103680610657,0.9423332214355469,1.1148096323013306,0.9244911670684814,0.09278745949268341,-0.10702408850193024,-0.10623198002576828,0.12097688764333725,0.06850814819335938,-0.3610518276691437,-0.24871079623699188,-0.1991923600435257,0.2736373841762543,0.6099539995193481,-0.11386094987392426
-0.12328851968050003,-0.09587834775447845,-0.6949492692947388,-0.3866518437862396,0.20694921910762787,0.8867350816726685,-0.18033677339553833,-0.295276015996933,0.798265278339386,0.7606902122497559,0.8364426493644714,-0.39657723903656006,0.7379052042961121,-0.34152305126190186,-1.0615895986557007,0.25768542289733887,-0.2852284908294678,0.23117519915103912,0.06915470212697983,0.3572598099708557,-0.4410381615161896,-0.5194406509399414,-0.6527330279350281,-0.486225962638855,-0.3639391362667084,-0.45775482058525085,0.8764787912368774,-0.2716963291168213,0.45003339648246765,0.9367684125900269,0.7597092390060425,0.4424612820148468,-0.06652939319610596,0.2941511571407318,0.49827271699905396,-1.0017344951629639,0.38621726632118225,-0.41876327991485596,0.18170341849327087,-0.4713781476020813,-0.7050943374633789,0.6095471382141113,-0.4962512254714966,0.38940081000328064,-1.1427778005599976,-0.16417652368545532,0.47827789187431335,-0.34859585762023926,-0.15072788298130035,0.675838053226471,0.2789139151573181,-0.13461720943450928,0.39905673265457153,0.14007052779197693,-0.4333066940307617,-0.23169587552547455,-0.38361629843711853,0.16273099184036255,0.21803604066371918,-0.2322654128074646,1.0296531915664673,1.053429126739502,1.129395604133606,1.1133317947387695,0.9238212704658508,1.0745339393615723,0.9103051424026489,0.9505415558815002,1.031798243522644,1.018084168434143,0.07916877418756485,0.0762162059545517,0.13377179205417633,0.10587982833385468,-0.06565393507480621,0.05289647728204727,-0.07021606713533401,-0.06497873365879059,-0.07100172340869904,0.08862172067165375,0.48143765330314636,-0.6272010803222656,0.48878857493400574,-0.5694601535797119,0.2998519539833069,-0.0347614549100399,0.39851486682891846,-0.42404454946517944,0.5599018335342407,0.6323553323745728,0.6984142065048218,0.006705878768116236,0.06388278305530548,-0.32048508524894714,-0.5573767423629761,-0.007059656549245119,0.40642207860946655,-0.5847377181053162,-0.6029497385025024,0.15801817178726196,-0.23680689930915833,-0.531750500202179,0.6472443342208862,-0.8720529675483704,-0.2691633701324463,-0.5827593803405762,0.16668900847434998,-0.6236289143562317,-0.46292898058891296,0.8034393787384033,-0.22460830211639404,-0.2165403813123703,-0.15630602836608887,0.2671594023704529,-0.03676977753639221,-0.6981544494628906,0.2354176938533783,-0.7386624217033386,-0.2634437680244446,0.46465784311294556,-0.10627751052379608,0.16118201613426208,-0.7180318832397461,0.21514494717121124,0.3372722566127777,0.4566561281681061,-0.5887311697006226,0.16708432137966156,0.04104625806212425,0.7357571125030518,-0.078579843044281,0.2538842558860779,-0.08316311985254288,0.2864474654197693,-0.15122976899147034,1.0741581916809082,0.8917630314826965,0.9450162053108215,1.1162141561508179,0.9195982813835144,0.09284104406833649,-0.1087084412574768,-0.10823051631450653,0.12334539741277695,0.07300178706645966,-0.36077752709388733,-0.24722789227962494,-0.20239967107772827,0.2752778232097626,0.6050734519958496,-0.1109861209988594
-0.11827574670314789,-0.09086154401302338,-0.6987398266792297,-0.3906393051147461,0.20250530540943146,0.8871151804924011,-0.1805591583251953,-0.29659366607666016,0.8024550676345825,0.7568502426147461,0.8338309526443481,-0.39920759201049805,0.7347540259361267,-0.34575214982032776,-1.0636398792266846,0.25454556941986084,-0.28999292850494385,0.2311275154352188,0.0712047666311264,0.35234248638153076,-0.44493019580841064,-0.5236437916755676,-0.6554757952690125,-0.48227354884147644,-0.35888800024986267,-0.4618247449398041,0.8734700083732605,-0.27669230103492737,0.44489237666130066,0.9379116296768188,0.7583805918693542,0.44640183448791504,-0.06752654165029526,0.2901574373245239,0.4996732771396637,-1.0048176050186157,0.3827372193336487,-0.42237144708633423,0.18236204981803894,-0.467436283826828,-0.7002575993537903,0.610927402973175,-0.49606913328170776,0.3847180902957916,-1.1474018096923828,-0.16624872386455536,0.47517937421798706,-0.3474923372268677,-0.14820913970470428,0.6784520745277405,0.27896586060523987,-0.1349303275346756,0.3989177942276001,0.13956820964813232,-0.43343767523765564,-0.23195616900920868,-0.38376832008361816,0.16299228370189667,0.21797892451286316,-0.23205126821994781,1.0257844924926758,1.0513036251068115,1.1343337297439575,1.1150236129760742,0.9255311489105225,1.0738908052444458,0.9107471704483032,0.953696608543396,1.0285028219223022,1.0134873390197754,0.0776355192065239,0.07511726766824722,0.13884390890598297,0.10798236727714539,-0.06299757212400436,0.049886252731084824,-0.06881851702928543,-0.06272097676992416,-0.06856044381856918,0.08772987872362137,0.47715872526168823,-0.6275308132171631,0.4933478832244873,-0.5700299143791199,0.2985436022281647,-0.03351510688662529,0.3981401026248932,-0.42746812105178833,0.5574091076850891,0.6329600811004639,0.6956642270088196,0.006442640908062458,0.0626751109957695,-0.32184359431266785,-0.5596379041671753,-0.002724745310842991,0.4056716859340668,-0.5866928100585938,-0.6052297949790955,0.16263143718242645,-0.24061544239521027,-0.5319466590881348,0.6426379084587097,-0.8745051622390747,-0.26817023754119873,-0.5786248445510864,0.1662597358226776,-0.6216670274734497,-0.4593195915222168,0.8082841634750366,-0.22120118141174316,-0.21406790614128113,-0.15797488391399384,0.27134713530540466,-0.03751208633184433,-0.7029668092727661,0.23571957647800446,-0.7413493394851685,-0.26756468415260315,0.45948565006256104,-0.10241423547267914,0.16066929697990417,-0.7231238484382629,0.215284064412117,0.3392387628555298,0.4547050893306732,-0.589783251285553,0.16987557709217072,0.04358092322945595,0.7324560284614563,-0.07843637466430664,0.25404593348503113,-0.08300648629665375,0.28626537322998047,-0.15149065852165222,1.0741794109344482,0.8904523253440857,0.947919487953186,1.117258906364441,0.9147050976753235,0.0928930714726448,-0.11019747704267502,-0.10995834320783615,0.12541282176971436,0.07738620787858963,-0.36083367466926575,-0.24599698185920715,-0.20577387511730194,0.27659398317337036,0.6001930236816406,-0.10837069898843765
-0.11329666525125504,-0.08592305332422256,-0.7022942900657654,-0.3944826126098633,0.19825519621372223,0.8872672319412231,-0.18052925169467926,-0.29722684621810913,0.8067551851272583,0.7537261247634888,0.8314751386642456,-0.4016684591770172,0.7317712306976318,-0.3498883545398712,-1.0654293298721313,0.251132994890213,-0.29456475377082825,0.23206326365470886,0.07361524552106857,0.3475286066532135,-0.4488191306591034,-0.5278355479240417,-0.657306969165802,-0.4782823324203491,-0.3538895845413208,-0.4657994210720062,0.8705901503562927,-0.28160494565963745,0.43975722789764404,0.9389438629150391,0.7571207880973816,0.45013555884361267,-0.06829388439655304,0.28621727228164673,0.5010790228843689,-1.007749080657959,0.37965649366378784,-0.4259631037712097,0.18299724161624908,-0.4634989798069,-0.6955657601356506,0.6123844385147095,-0.4959504306316376,0.38014480471611023,-1.1518137454986572,-0.16840152442455292,0.47218021750450134,-0.3464050590991974,-0.14576396346092224,0.6809341311454773,0.2789921760559082,-0.13520734012126923,0.3988683223724365,0.1394656002521515,-0.4335513412952423,-0.2322036176919937,-0.3838438093662262,0.1632666289806366,0.21795158088207245,-0.23179446160793304,1.0220086574554443,1.0490776300430298,1.1391675472259521,1.1165515184402466,0.9273802042007446,1.0730749368667603,0.9113397598266602,0.9569469690322876,1.0251524448394775,1.0088082551956177,0.0760997086763382,0.07398544996976852,0.143879696726799,0.11006573587656021,-0.06015247851610184,0.04671412333846092,-0.06731804460287094,-0.06031069904565811,-0.0659404918551445,0.08631206303834915,0.47298187017440796,-0.6277568340301514,0.49784332513809204,-0.5703790187835693,0.29716745018959045,-0.03237109258770943,0.3978520929813385,-0.4309881627559662,0.5548368692398071,0.6334421038627625,0.6929401755332947,0.006335386540740728,0.06143860146403313,-0.32305312156677246,-0.5619340538978577,0.0015250446740537882,0.4050358831882477,-0.5883984565734863,-0.6071117520332336,0.16708539426326752,-0.2445223182439804,-0.5320693254470825,0.6377736926078796,-0.8768875598907471,-0.26732906699180603,-0.5746700763702393,0.16589047014713287,-0.6199796795845032,-0.455966979265213,0.8129124641418457,-0.21797876060009003,-0.21179361641407013,-0.15914317965507507,0.2754363715648651,-0.03819062560796738,-0.7076837420463562,0.23577821254730225,-0.7437824010848999,-0.2715453803539276,0.4544180631637573,-0.09856925904750824,0.15991900861263275,-0.7281715273857117,0.21523888409137726,0.3413342237472534,0.45259326696395874,-0.5910272002220154,0.17281298339366913,0.046239085495471954,0.7290182709693909,-0.07810010015964508,0.2542245090007782,-0.08285583555698395,0.28610143065452576,-0.15162278711795807,1.0746402740478516,0.8893544673919678,0.950986921787262,1.1179914474487305,0.9098560214042664,0.09298471361398697,-0.11152011156082153,-0.11144667863845825,0.12721394002437592,0.08177655935287476,-0.3612820506095886,-0.2449948489665985,-0.20926158130168915,0.2776273190975189,0.5953672528266907,-0.10600613057613373
-0.10839822888374329,-0.0811242088675499,-0.7055017948150635,-0.3981926143169403,0.19423910975456238,0.8872146010398865,-0.1802181601524353,-0.29724350571632385,0.8111650347709656,0.7512766122817993,0.829211413860321,-0.40412139892578125,0.7288625836372375,-0.35397598147392273,-1.067054271697998,0.247545525431633,-0.2988707721233368,0.23388589918613434,0.07651227712631226,0.34284210205078125,-0.45266810059547424,-0.5319240093231201,-0.6587526202201843,-0.4742748439311981,-0.3489895462989807,-0.4696142077445984,0.8678833842277527,-0.2864130735397339,0.4346502423286438,0.939914345741272,0.7559468150138855,0.4536476135253906,-0.06880246847867966,0.28234243392944336,0.5024738907814026,-1.010534405708313,0.3770691752433777,-0.42950373888015747,0.18362952768802643,-0.4595484733581543,-0.6910471320152283,0.613890528678894,-0.4959282875061035,0.37568196654319763,-1.1559985876083374,-0.17054466903209686,0.4693599343299866,-0.3452853858470917,-0.1433703750371933,0.6832932829856873,0.2789958417415619,-0.13542909920215607,0.3986347019672394,0.13970640301704407,-0.43367999792099,-0.2325088530778885,-0.38392823934555054,0.1635313630104065,0.2179623544216156,-0.2314365953207016,1.0183783769607544,1.046820878982544,1.1438385248184204,1.1179484128952026,0.9292921423912048,1.072129249572754,0.9120133519172668,0.9602542519569397,1.0218462944030762,1.004095435142517,0.07465062290430069,0.07289107888936996,0.14888057112693787,0.112165667116642,-0.057201579213142395,0.043439507484436035,-0.06578898429870605,-0.057780321687459946,-0.06307557970285416,0.08453480154275894,0.4689486026763916,-0.6279157996177673,0.5022410750389099,-0.570527195930481,0.29577118158340454,-0.0313844159245491,0.3976142108440399,-0.43456602096557617,0.5522305965423584,0.6337381601333618,0.6902960538864136,0.00631571002304554,0.06005985662341118,-0.324115127325058,-0.5642015337944031,0.0056273359805345535,0.4044434130191803,-0.5900037288665771,-0.6087647080421448,0.1713540107011795,-0.24847401678562164,-0.5321587324142456,0.6326742172241211,-0.8792353868484497,-0.26659098267555237,-0.5709356665611267,0.16555047035217285,-0.6185507774353027,-0.4528639018535614,0.81729656457901,-0.2150265872478485,-0.20967842638492584,-0.1597994863986969,0.27943098545074463,-0.03886662796139717,-0.712241530418396,0.2356635332107544,-0.7459930777549744,-0.27538278698921204,0.44948744773864746,-0.0948140025138855,0.1590125560760498,-0.7331299781799316,0.2150786966085434,0.3434818983078003,0.4503878653049469,-0.5923828482627869,0.1758238673210144,0.04894949123263359,0.7255141139030457,-0.07787664979696274,0.25431618094444275,-0.08277153968811035,0.28580808639526367,-0.15199922025203705,1.0755667686462402,0.888446569442749,0.9541588425636292,1.1184641122817993,0.9051114916801453,0.0931435152888298,-0.1126856803894043,-0.11274401843547821,0.12879183888435364,0.08607426285743713,-0.3621518909931183,-0.24419517815113068,-0.21280868351459503,0.2784235179424286,0.590652346611023,-0.10387950390577316
-0.10599592328071594,-0.07879967242479324,-0.7069281935691833,-0.3999803960323334,0.192352756857872,0.8871942758560181,-0.17986464500427246,-0.2970554828643799,0.8132264018058777,0.750417172908783,0.8281593322753906,-0.40538591146469116,0.727425754070282,-0.35601404309272766,-1.0677610635757446,0.24572648108005524,-0.30083975195884705,0.23516052961349487,0.07816778868436813,0.3406035006046295,-0.45457953214645386,-0.5339008569717407,-0.6593868732452393,-0.4722539782524109,-0.34658586978912354,-0.4713170826435089,0.8666320443153381,-0.28872764110565186,0.43225517868995667,0.940342903137207,0.7554062008857727,0.4552862346172333,-0.06888963282108307,0.2804495394229889,0.5031623840332031,-1.0118541717529297,0.37603142857551575,-0.43124285340309143,0.18394801020622253,-0.4575675129890442,-0.6888927221298218,0.6146462559700012,-0.4959876537322998,0.37350571155548096,-1.1579704284667969,-0.17159289121627808,0.4680527150630951,-0.3447060286998749,-0.1421958953142166,0.6844128370285034,0.27904224395751953,-0.13552743196487427,0.39864081144332886,0.13992290198802948,-0.43375974893569946,-0.23262952268123627,-0.3839649558067322,0.16362778842449188,0.21801096200942993,-0.23130743205547333,1.0166590213775635,1.0457055568695068,1.1460685729980469,1.1185821294784546,0.9302704930305481,1.0716018676757812,0.9123681783676147,0.9619247913360596,1.0202836990356445,1.0017318725585938,0.07399681955575943,0.07237835973501205,0.15136902034282684,0.11322494596242905,-0.05567801371216774,0.04182497784495354,-0.06503220647573471,-0.056465476751327515,-0.061475057154893875,0.08347620069980621,0.4670274257659912,-0.6279875040054321,0.5043715834617615,-0.5705078840255737,0.2950892746448517,-0.030994165688753128,0.3974919021129608,-0.4363626539707184,0.550937831401825,0.6337640285491943,0.6890321373939514,0.006335968151688576,0.05930692330002785,-0.3245810270309448,-0.5653023719787598,0.007590542547404766,0.4041531980037689,-0.590746283531189,-0.6094985008239746,0.17339032888412476,-0.2504928410053253,-0.5322006940841675,0.6300215721130371,-0.8803507685661316,-0.2662941515445709,-0.5692463517189026,0.1653522402048111,-0.6180185079574585,-0.45148205757141113,0.8193067312240601,-0.21372093260288239,-0.2086840122938156,-0.15987205505371094,0.28138163685798645,-0.03922974690794945,-0.7144097685813904,0.2355494350194931,-0.7470049858093262,-0.2772292494773865,0.44710689783096313,-0.0929967537522316,0.15850357711315155,-0.7355502843856812,0.2149563431739807,0.34456655383110046,0.44925734400749207,-0.5930930972099304,0.1773485690355301,0.05031655728816986,0.7237487435340881,-0.07766929268836975,0.2544585168361664,-0.08271932601928711,0.2857852280139923,-0.15213491022586823,1.0762594938278198,0.8880738019943237,0.9557716250419617,1.1186003684997559,0.902818500995636,0.09324537217617035,-0.11320313066244125,-0.113276906311512,0.12949484586715698,0.08817251026630402,-0.36279481649398804,-0.24388206005096436,-0.2145831435918808,0.2787291705608368,0.5883787274360657,-0.10292594134807587
-0.10364192724227905,-0.07654786854982376,-0.7081853747367859,-0.401704877614975,0.19058190286159515,0.8871822357177734,-0.17932471632957458,-0.2966907024383545,0.8151520490646362,0.749891996383667,0.8271661996841431,-0.40676090121269226,0.7259540557861328,-0.358087420463562,-1.0683704614639282,0.24389581382274628,-0.3026203513145447,0.23673169314861298,0.08000899106264114,0.33847150206565857,-0.4564729630947113,-0.5358098745346069,-0.6599316596984863,-0.47022366523742676,-0.3442326486110687,-0.4728104770183563,0.865487813949585,-0.2909517288208008,0.43001317977905273,0.9407365918159485,0.7549123167991638,0.456811785697937,-0.06880757957696915,0.2786015272140503,0.5038390159606934,-1.0131155252456665,0.3752288520336151,-0.43295520544052124,0.18427784740924835,-0.45556971430778503,-0.6868345737457275,0.6154047250747681,-0.49610811471939087,0.3713785707950592,-1.159832239151001,-0.17260579764842987,0.466852068901062,-0.3441055715084076,-0.14104153215885162,0.6854758858680725,0.2791370749473572,-0.13563761115074158,0.3987535536289215,0.14000704884529114,-0.4338088929653168,-0.23275355994701385,-0.3840250074863434,0.1637343317270279,0.2179950773715973,-0.23115944862365723,1.0150409936904907,1.0446175336837769,1.148184061050415,1.119160532951355,0.9312549829483032,1.0710291862487793,0.9127293229103088,0.9636003971099854,1.0188257694244385,0.9993711113929749,0.07342275232076645,0.07191337645053864,0.15386353433132172,0.1142992228269577,-0.054117411375045776,0.040240027010440826,-0.06429386138916016,-0.05511035397648811,-0.059711895883083344,0.08228141814470291,0.46520501375198364,-0.6280604004859924,0.5064305663108826,-0.5704062581062317,0.29443269968032837,-0.030712861567735672,0.3973584771156311,-0.4381583631038666,0.5496652126312256,0.633661150932312,0.6878339052200317,0.006384211126714945,0.05844911187887192,-0.3249836266040802,-0.5663602352142334,0.00946919433772564,0.403866708278656,-0.5914050340652466,-0.6101644039154053,0.17533442378044128,-0.2525428831577301,-0.532248318195343,0.6272804141044617,-0.8814189434051514,-0.26605650782585144,-0.5677337646484375,0.16512160003185272,-0.6176533102989197,-0.45025938749313354,0.8211376667022705,-0.21259017288684845,-0.2077430784702301,-0.15970568358898163,0.2832883596420288,-0.039627619087696075,-0.7164590954780579,0.23539307713508606,-0.7479375004768372,-0.2790079712867737,0.44481360912323,-0.09125310927629471,0.1579560786485672,-0.7379096150398254,0.21480660140514374,0.34564539790153503,0.44811180233955383,-0.5938195586204529,0.17887617647647858,0.0516793355345726,0.7219833135604858,-0.07741120457649231,0.25466442108154297,-0.08265753090381622,0.2858174741268158,-0.15228842198848724,1.077158808708191,0.8877712488174438,0.9573938846588135,1.1186561584472656,0.9006142020225525,0.09336769580841064,-0.11366688460111618,-0.11371434479951859,0.13012970983982086,0.0902063325047493,-0.3636266589164734,-0.24364450573921204,-0.21634463965892792,0.27895984053611755,0.5861974358558655,-0.10207147896289825
-0.10134163498878479,-0.07436549663543701,-0.7092845439910889,-0.4033685028553009,0.18891827762126923,0.8871673941612244,-0.17859265208244324,-0.29612794518470764,0.8170393109321594,0.7496550679206848,0.8262183666229248,-0.408247709274292,0.7244428396224976,-0.36019623279571533,-1.0688923597335815,0.24206316471099854,-0.3041997253894806,0.23856213688850403,0.08203067630529404,0.33644893765449524,-0.45835018157958984,-0.5376499891281128,-0.6603841781616211,-0.4681830406188965,-0.3419320583343506,-0.4740909934043884,0.864454448223114,-0.2930842936038971,0.4279196560382843,0.9411152005195618,0.7544653415679932,0.45822903513908386,-0.06855164468288422,0.2767992913722992,0.5045004487037659,-1.014327049255371,0.37463679909706116,-0.4346436858177185,0.18462124466896057,-0.45355361700057983,-0.6848781704902649,0.6161556243896484,-0.4962993264198303,0.3692983090877533,-1.1615849733352661,-0.17357118427753448,0.4657461941242218,-0.34349197149276733,-0.1399126946926117,0.6864861249923706,0.2791403830051422,-0.1357126086950302,0.3988535702228546,0.14008240401744843,-0.4338339567184448,-0.23289451003074646,-0.384091854095459,0.16389058530330658,0.21797744929790497,-0.2309945821762085,1.0135222673416138,1.043570876121521,1.1501810550689697,1.1196906566619873,0.9322414398193359,1.0704166889190674,0.9130892157554626,0.9652770161628723,1.0174977779388428,0.9970172047615051,0.07292778044939041,0.0714980810880661,0.15636174380779266,0.1153884306550026,-0.05252806842327118,0.038687799125909805,-0.06358007341623306,-0.05372285842895508,-0.05779413506388664,0.08097288757562637,0.4634838104248047,-0.6281424760818481,0.5084152817726135,-0.5702335834503174,0.29380932450294495,-0.030544577166438103,0.3972073495388031,-0.4399451017379761,0.5484222769737244,0.6334248781204224,0.6867011189460754,0.00645510945469141,0.05750206485390663,-0.32532864809036255,-0.5673747062683105,0.011263363063335419,0.4035787284374237,-0.5919874310493469,-0.6107783317565918,0.1771894097328186,-0.25457900762557983,-0.532322347164154,0.6244613528251648,-0.8824469447135925,-0.26584845781326294,-0.5664150714874268,0.1648445874452591,-0.6174637675285339,-0.4492051601409912,0.8227871656417847,-0.2116335779428482,-0.20684827864170074,-0.159317284822464,0.28515303134918213,-0.04006653651595116,-0.7183830142021179,0.23520584404468536,-0.7488035559654236,-0.2807227671146393,0.442609965801239,-0.08958354592323303,0.15737929940223694,-0.7402068972587585,0.21463574469089508,0.34671440720558167,0.4469577670097351,-0.5945534706115723,0.18040059506893158,0.053033411502838135,0.7202244997024536,-0.07718475908041,0.25485917925834656,-0.08258427679538727,0.2857968807220459,-0.15244191884994507,1.078240156173706,0.8875290155410767,0.9590114951133728,1.1186516284942627,0.898506224155426,0.09350482374429703,-0.11408539116382599,-0.11405853927135468,0.1307142823934555,0.0921822115778923,-0.3646260201931,-0.24347195029258728,-0.2180798053741455,0.2791333794593811,0.5841171145439148,-0.10130525380373001
-0.0990975871682167,-0.07224972546100616,-0.7102352380752563,-0.40497371554374695,0.18735608458518982,0.8871846795082092,-0.1776784360408783,-0.2953825891017914,0.8188458681106567,0.7496768832206726,0.8252987265586853,-0.4098418354988098,0.7228915095329285,-0.36233654618263245,-1.069339394569397,0.24024440348148346,-0.305576890707016,0.24060122668743134,0.08420157432556152,0.33453720808029175,-0.4602104127407074,-0.5394237041473389,-0.6607550978660583,-0.4661342203617096,-0.3396826982498169,-0.4751552641391754,0.8635361790657043,-0.2951235771179199,0.4259711503982544,0.9414970874786377,0.7540624737739563,0.45954230427742004,-0.06811735779047012,0.2750476002693176,0.5051459074020386,-1.0154900550842285,0.37424328923225403,-0.43631085753440857,0.18497484922409058,-0.4515226483345032,-0.6830294132232666,0.6168895363807678,-0.49657002091407776,0.36726319789886475,-1.163228988647461,-0.17448779940605164,0.4647321403026581,-0.3428674042224884,-0.13880737125873566,0.6874462366104126,0.2791515290737152,-0.13575653731822968,0.3989422619342804,0.139936625957489,-0.43385228514671326,-0.23298008739948273,-0.384146124124527,0.1641147881746292,0.21796683967113495,-0.2307530790567398,1.0121028423309326,1.0425739288330078,1.1520572900772095,1.1201789379119873,0.933228611946106,1.0697661638259888,0.9134407639503479,0.9669482707977295,1.0163215398788452,0.9946746230125427,0.0725134015083313,0.07114322483539581,0.15886016190052032,0.11649743467569351,-0.05091464892029762,0.037168193608522415,-0.06289619207382202,-0.05231102555990219,-0.05573337525129318,0.07956331968307495,0.4618678689002991,-0.6282424926757812,0.5103195309638977,-0.5700030326843262,0.2932281494140625,-0.030488809570670128,0.3970275819301605,-0.44171375036239624,0.5472210645675659,0.6330537796020508,0.6856316924095154,0.006544664967805147,0.056479550898075104,-0.32562094926834106,-0.5683470368385315,0.012974132783710957,0.4032854437828064,-0.5925013422966003,-0.6113557815551758,0.17895841598510742,-0.2565996050834656,-0.5324271321296692,0.6215757131576538,-0.8834441900253296,-0.26566287875175476,-0.5652851462364197,0.16452008485794067,-0.6174339652061462,-0.4483093023300171,0.8242587447166443,-0.21084648370742798,-0.20599409937858582,-0.15872310101985931,0.2869769334793091,-0.04055020958185196,-0.7201766967773438,0.23499643802642822,-0.7496147155761719,-0.2823769748210907,0.440498024225235,-0.08798785507678986,0.1567811816930771,-0.7424415349960327,0.21444928646087646,0.3477703332901001,0.44580066204071045,-0.5952872037887573,0.18191640079021454,0.05437483638525009,0.7184781432151794,-0.07704201340675354,0.255067378282547,-0.0824800431728363,0.28579533100128174,-0.15259547531604767,1.0794799327850342,0.8873378038406372,0.9606080055236816,1.1186069250106812,0.8965015411376953,0.09363897889852524,-0.11446654796600342,-0.1143300011754036,0.13126611709594727,0.09410705417394638,-0.3657704293727875,-0.2433544397354126,-0.21977578103542328,0.2792675793170929,0.5821459889411926,-0.10061631351709366
-0.09691279381513596,-0.0701974406838417,-0.7110474705696106,-0.40652257204055786,0.1858893781900406,0.8872354626655579,-0.1766001433134079,-0.2944791913032532,0.8205572962760925,0.7499396800994873,0.8243953585624695,-0.41153520345687866,0.7213019132614136,-0.3645038604736328,-1.0697212219238281,0.2384464591741562,-0.30675628781318665,0.24280686676502228,0.08649592846632004,0.3327386677265167,-0.4620527923107147,-0.5411337018013,-0.6610549688339233,-0.4640793800354004,-0.337482750415802,-0.47600120306015015,0.8627361059188843,-0.2970673739910126,0.4241655766963959,0.9418993592262268,0.7537031173706055,0.46075689792633057,-0.0675029456615448,0.2733474671840668,0.5057722926139832,-1.0166064500808716,0.3740341067314148,-0.43796032667160034,0.18533417582511902,-0.44947993755340576,-0.6812938451766968,0.6175983548164368,-0.49692749977111816,0.3652718961238861,-1.1647639274597168,-0.17534944415092468,0.4638102948665619,-0.3422325551509857,-0.13772475719451904,0.6883586049079895,0.27925750613212585,-0.13583993911743164,0.39933621883392334,0.13983140885829926,-0.4338531196117401,-0.233067125082016,-0.3842124044895172,0.16424860060214996,0.21791164577007294,-0.23050427436828613,1.0107804536819458,1.0416334867477417,1.1538124084472656,1.1206313371658325,0.9342154264450073,1.0690795183181763,0.9137789011001587,0.968609094619751,1.0153121948242188,0.9923468232154846,0.07217790931463242,0.0708547830581665,0.161356121301651,0.11762918531894684,-0.049281276762485504,0.03568128123879433,-0.062245775014162064,-0.050881072878837585,-0.05354570224881172,0.07806594669818878,0.4603578448295593,-0.6283667683601379,0.512141227722168,-0.5697261095046997,0.2926948070526123,-0.030546419322490692,0.3968147337436676,-0.4434574544429779,0.5460700392723083,0.6325470209121704,0.6846222877502441,0.006650032941251993,0.05539338290691376,-0.32586467266082764,-0.5692800879478455,0.014603561721742153,0.4029843211174011,-0.5929546356201172,-0.6119115352630615,0.1806447058916092,-0.258605033159256,-0.5325656533241272,0.6186334490776062,-0.884419322013855,-0.26549452543258667,-0.5643371939659119,0.16414780914783478,-0.6175488829612732,-0.4475626051425934,0.8255569338798523,-0.21022091805934906,-0.20517674088478088,-0.15793836116790771,0.28876084089279175,-0.0410800538957119,-0.7218372821807861,0.23477117717266083,-0.7503814697265625,-0.28397336602211,0.43847939372062683,-0.08646517246961594,0.15616852045059204,-0.7446135878562927,0.2142520546913147,0.348810613155365,0.44464489817619324,-0.5960143804550171,0.18341881036758423,0.0557001493871212,0.7167490720748901,-0.07684032618999481,0.2552834749221802,-0.08240364491939545,0.2858020067214966,-0.15273311734199524,1.0808534622192383,0.8871889710426331,0.9621676802635193,1.118541955947876,0.8946064114570618,0.09375972300767899,-0.11481764167547226,-0.11454842239618301,0.13180212676525116,0.0959879532456398,-0.36703720688819885,-0.24328267574310303,-0.22142021358013153,0.27937981486320496,0.5802916288375854,-0.09999383240938187
-0.0948074609041214,-0.0682038962841034,-0.7117248773574829,-0.40800559520721436,0.18453779816627502,0.8873214721679688,-0.17537516355514526,-0.2934392988681793,0.8221567273139954,0.7504264712333679,0.8234581351280212,-0.4133370518684387,0.719659686088562,-0.3667055368423462,-1.0700675249099731,0.23667480051517487,-0.307743638753891,0.24514521658420563,0.08889070153236389,0.3310563862323761,-0.4638610780239105,-0.5427854061126709,-0.6612247228622437,-0.46203041076660156,-0.33535367250442505,-0.4766232371330261,0.862061619758606,-0.29891085624694824,0.4225030541419983,0.9423395395278931,0.7533876895904541,0.46187663078308105,-0.06671807169914246,0.2716977000236511,0.506377100944519,-1.0176546573638916,0.37404176592826843,-0.43955472111701965,0.18572184443473816,-0.4474498927593231,-0.6795860528945923,0.6183621287345886,-0.49720823764801025,0.36336031556129456,-1.16622793674469,-0.17616558074951172,0.46296584606170654,-0.3415987193584442,-0.13667050004005432,0.6892231106758118,0.2793607711791992,-0.13590309023857117,0.39949071407318115,0.1396574079990387,-0.4338413178920746,-0.23312774300575256,-0.38428017497062683,0.1643480509519577,0.21786729991436005,-0.2302488386631012,1.0095826387405396,1.0407607555389404,1.155444860458374,1.1210670471191406,0.9351688027381897,1.0683659315109253,0.914087176322937,0.9702314734458923,1.0144851207733154,0.9900421500205994,0.07195433974266052,0.07064275443553925,0.1638500988483429,0.11880143731832504,-0.047655265778303146,0.034236595034599304,-0.06164652854204178,-0.049463823437690735,-0.05136225000023842,0.0765124261379242,0.45895352959632874,-0.6285205483436584,0.5138785243034363,-0.5694143176078796,0.29221397638320923,-0.030716672539711,0.3965652883052826,-0.4451697766780853,0.5449769496917725,0.6319056749343872,0.6837430000305176,0.0067335255444049835,0.054137568920850754,-0.3261004090309143,-0.5700972676277161,0.016119809821248055,0.40263909101486206,-0.593004047870636,-0.6124988198280334,0.1822531521320343,-0.2605975568294525,-0.5327394604682922,0.6156428456306458,-0.8853798508644104,-0.26534000039100647,-0.5635630488395691,0.16372855007648468,-0.617794394493103,-0.4469567537307739,0.8266870975494385,-0.2097460776567459,-0.20439383387565613,-0.15697745978832245,0.29050520062446594,-0.04165543615818024,-0.7233638167381287,0.2345341295003891,-0.7511131167411804,-0.28551438450813293,0.43655508756637573,-0.08502893894910812,0.1555553525686264,-0.7467247247695923,0.21405825018882751,0.349818617105484,0.44350022077560425,-0.5967217683792114,0.18489062786102295,0.05699097365140915,0.7150483727455139,-0.07659558206796646,0.25553596019744873,-0.08235965669155121,0.28582480549812317,-0.15282438695430756,1.0823373794555664,0.8870778679847717,0.963675320148468,1.1184755563735962,0.8928290009498596,0.09385522454977036,-0.11512570083141327,-0.11473246663808823,0.13233813643455505,0.09780550003051758,-0.3684040904045105,-0.2432481050491333,-0.22300150990486145,0.2794865369796753,0.5785603523254395,-0.09942735731601715
-0.09278412908315659,-0.06626575440168381,-0.7122790217399597,-0.4094252586364746,0.18329285085201263,0.8874430656433105,-0.1740208864212036,-0.2922843098640442,0.8236229419708252,0.7511224746704102,0.8225393295288086,-0.4152345657348633,0.7180005311965942,-0.3689151108264923,-1.0703374147415161,0.2349109947681427,-0.3085695207118988,0.24753253161907196,0.09135661274194717,0.3295237123966217,-0.4656359553337097,-0.5443820953369141,-0.6612818837165833,-0.4599885046482086,-0.33329036831855774,-0.4770214259624481,0.8615159392356873,-0.3006511926651001,0.42098256945610046,0.9428311586380005,0.7531225085258484,0.4629102349281311,-0.06576085835695267,0.2700977027416229,0.5069416165351868,-1.018638253211975,0.37424343824386597,-0.44110387563705444,0.18612919747829437,-0.44543299078941345,-0.6779170632362366,0.6191670894622803,-0.49743327498435974,0.3615241050720215,-1.1676181554794312,-0.17693179845809937,0.46219825744628906,-0.34096670150756836,-0.1356441229581833,0.690041720867157,0.2794265151023865,-0.1359371393918991,0.39956557750701904,0.1392289251089096,-0.43383103609085083,-0.2331978976726532,-0.38432615995407104,0.16443686187267303,0.21781866252422333,-0.22995679080486298,1.0085023641586304,1.0399597883224487,1.1569620370864868,1.1214938163757324,0.936091959476471,1.0676263570785522,0.9143639802932739,0.971813440322876,1.0138529539108276,0.987762451171875,0.07183490693569183,0.07051011174917221,0.16632315516471863,0.11997714638710022,-0.04603585973381996,0.032833680510520935,-0.0610925555229187,-0.04806163161993027,-0.04916965216398239,0.07491057366132736,0.45765361189842224,-0.6287081837654114,0.5155302882194519,-0.5690787434577942,0.2917890250682831,-0.03099728934466839,0.39627692103385925,-0.4468449652194977,0.5439491271972656,0.6311326026916504,0.6829808354377747,0.006797626614570618,0.052737314254045486,-0.32632768154144287,-0.5708113312721252,0.017529794946312904,0.4022529423236847,-0.5927111506462097,-0.6131287217140198,0.1837872415781021,-0.26258158683776855,-0.5329486727714539,0.6126109957695007,-0.8863319754600525,-0.2651978135108948,-0.5629528164863586,0.16326424479484558,-0.6181574463844299,-0.4464839696884155,0.827655553817749,-0.20940835773944855,-0.20364445447921753,-0.1558542102575302,0.29221004247665405,-0.04227368161082268,-0.7247571349143982,0.23428712785243988,-0.7518178224563599,-0.2870021462440491,0.4347255527973175,-0.08367577940225601,0.15494561195373535,-0.7487761974334717,0.21387043595314026,0.35079431533813477,0.44236862659454346,-0.5974057912826538,0.18632939457893372,0.05824599787592888,0.7133786678314209,-0.07645000517368317,0.25576236844062805,-0.08233355730772018,0.28582704067230225,-0.152906134724617,1.0839087963104248,0.8869968056678772,0.9651167392730713,1.1184252500534058,0.891173243522644,0.09391217678785324,-0.1153983622789383,-0.11489986628293991,0.1328885704278946,0.09956896305084229,-0.3698491156101227,-0.24324263632297516,-0.2245090901851654,0.27960294485092163,0.5769574642181396,-0.09890688955783844
-0.09084571152925491,-0.06437961012125015,-0.7127213478088379,-0.4107835292816162,0.18214631080627441,0.8876007199287415,-0.17255394160747528,-0.29103362560272217,0.8249323964118958,0.7520133852958679,0.8216301798820496,-0.41721561551094055,0.7163270711898804,-0.37112849950790405,-1.070539951324463,0.23315848410129547,-0.3092438578605652,0.24995088577270508,0.0938752144575119,0.32813945412635803,-0.46737805008888245,-0.545927107334137,-0.6612430214881897,-0.45795509219169617,-0.3312876522541046,-0.47719740867614746,0.8611018657684326,-0.3022855818271637,0.4196033179759979,0.943385899066925,0.7529053092002869,0.46386364102363586,-0.06463350355625153,0.26854830980300903,0.507464587688446,-1.0195621252059937,0.3746883273124695,-0.4425108730792999,0.18662729859352112,-0.44343048334121704,-0.6762963533401489,0.6200010776519775,-0.4976210296154022,0.35975927114486694,-1.168932318687439,-0.17764510214328766,0.46150603890419006,-0.34033772349357605,-0.13464555144309998,0.6908162832260132,0.2794674038887024,-0.13596729934215546,0.3997251093387604,0.13909950852394104,-0.43383973836898804,-0.2332272082567215,-0.384366512298584,0.16447623074054718,0.21777868270874023,-0.22978751361370087,1.007532000541687,1.039233922958374,1.1583654880523682,1.1219137907028198,0.9369886517524719,1.0668617486953735,0.9146079421043396,0.9733526110649109,1.0134251117706299,0.9855093359947205,0.07181112468242645,0.07045887410640717,0.16877517104148865,0.12115910649299622,-0.04442168027162552,0.03147204592823982,-0.060583826154470444,-0.04670071229338646,-0.04695628210902214,0.07326721400022507,0.4564555883407593,-0.6289336085319519,0.5170958638191223,-0.5687305331230164,0.29142212867736816,-0.03138480335474014,0.3959479033946991,-0.448478102684021,0.5429924130439758,0.6302320957183838,0.6823225617408752,0.006845100317150354,0.05121395364403725,-0.32654574513435364,-0.5714355707168579,0.018840769305825233,0.40182939171791077,-0.5921269655227661,-0.6138112545013428,0.18525053560733795,-0.2645629048347473,-0.5331923365592957,0.6095438599586487,-0.8872805237770081,-0.2650681436061859,-0.5624956488609314,0.16275745630264282,-0.6186259388923645,-0.4461372196674347,0.8284693956375122,-0.20919229090213776,-0.2029285579919815,-0.1545817255973816,0.29387515783309937,-0.04293050244450569,-0.7260197997093201,0.23403063416481018,-0.7525029182434082,-0.2884385883808136,0.4329906702041626,-0.08240170776844025,0.15434230864048004,-0.7507696151733398,0.21369053423404694,0.35173824429512024,0.44125136733055115,-0.5980638265609741,0.18773333728313446,0.05946451425552368,0.7117419242858887,-0.07626736909151077,0.25593554973602295,-0.08229322731494904,0.28581082820892334,-0.15301132202148438,1.0855454206466675,0.8869388103485107,0.9664791822433472,1.1184065341949463,0.8896415829658508,0.09391676634550095,-0.11564237624406815,-0.11506690084934235,0.13346602022647858,0.1012871265411377,-0.3713502883911133,-0.2432589828968048,-0.22593362629413605,0.27974244952201843,0.5754865407943726,-0.09842304140329361
-0.08898716419935226,-0.06255249679088593,-0.7130677103996277,-0.41208672523498535,0.18107444047927856,0.8878695368766785,-0.17100101709365845,-0.2896881103515625,0.8260532021522522,0.752997875213623,0.8207233548164368,-0.4192686975002289,0.7146421670913696,-0.3733416199684143,-1.070683240890503,0.23140056431293488,-0.30976927280426025,0.252379834651947,0.09643373638391495,0.3269336521625519,-0.469087153673172,-0.5474244356155396,-0.6611241102218628,-0.45593348145484924,-0.32933902740478516,-0.4770534038543701,0.8608927130699158,-0.30373600125312805,0.41847267746925354,0.9440540075302124,0.7526957392692566,0.464773952960968,-0.06330246478319168,0.2670568525791168,0.5079751014709473,-1.020371675491333,0.37506768107414246,-0.44395819306373596,0.18709570169448853,-0.44155997037887573,-0.6747037172317505,0.6207616329193115,-0.49795326590538025,0.3580290973186493,-1.1702070236206055,-0.1783308982849121,0.46088728308677673,-0.33972063660621643,-0.13368335366249084,0.6915397047996521,0.27961552143096924,-0.136015847325325,0.3998989462852478,0.13898231089115143,-0.4338562488555908,-0.23330412805080414,-0.3844018280506134,0.16445179283618927,0.21772845089435577,-0.22954301536083221,1.006653904914856,1.0385863780975342,1.1596592664718628,1.1223328113555908,0.9378747344017029,1.0660148859024048,0.914814293384552,0.9748463034629822,1.0132511854171753,0.9833078384399414,0.07184617221355438,0.07047846913337708,0.17120707035064697,0.12236480414867401,-0.04279842600226402,0.03012637421488762,-0.060109030455350876,-0.04541848972439766,-0.04477714002132416,0.07160577178001404,0.4553561210632324,-0.629199743270874,0.5185748934745789,-0.5683802962303162,0.29111436009407043,-0.03187420964241028,0.3955773115158081,-0.4500648081302643,0.5421116352081299,0.6292102336883545,0.6817222833633423,0.00685129314661026,0.04951276630163193,-0.3267824053764343,-0.5720280408859253,0.02007664367556572,0.4013488292694092,-0.5912942290306091,-0.6145907044410706,0.1866489052772522,-0.2665482461452484,-0.53346848487854,0.6064462661743164,-0.8882293701171875,-0.26495251059532166,-0.5621791481971741,0.16221144795417786,-0.6191880106925964,-0.4459103047847748,0.8291375637054443,-0.20911915600299835,-0.2022475004196167,-0.15323017537593842,0.2954910099506378,-0.043672315776348114,-0.727050244808197,0.23376114666461945,-0.7531757354736328,-0.2898751497268677,0.43141859769821167,-0.08120232820510864,0.1537477821111679,-0.7527070641517639,0.21352000534534454,0.3526514172554016,0.44014906883239746,-0.5986939072608948,0.18910109996795654,0.06064615026116371,0.7101393938064575,-0.07615641504526138,0.25609922409057617,-0.08232864737510681,0.28581300377845764,-0.1531216949224472,1.0872259140014648,0.8869003653526306,0.9677512049674988,1.118422508239746,0.8882346153259277,0.09385558217763901,-0.11584831774234772,-0.11524824798107147,0.13411937654018402,0.10296772420406342,-0.372886598110199,-0.24329078197479248,-0.22726714611053467,0.2799164950847626,0.5741493701934814,-0.09796734154224396
-0.08722054213285446,-0.06078805401921272,-0.7133184671401978,-0.4133380949497223,0.1800723671913147,0.8882451057434082,-0.16937482357025146,-0.2882629930973053,0.826964795589447,0.7540738582611084,0.8197445869445801,-0.4214209020137787,0.712960958480835,-0.37556228041648865,-1.070770502090454,0.22967614233493805,-0.31013980507850647,0.25480175018310547,0.09903044998645782,0.3259068727493286,-0.47074490785598755,-0.5488309860229492,-0.6613025665283203,-0.4539239704608917,-0.32745397090911865,-0.47660645842552185,0.8608897924423218,-0.30500099062919617,0.41758304834365845,0.9448421597480774,0.7524935007095337,0.4656433165073395,-0.06179026514291763,0.2656213045120239,0.5084732174873352,-1.0210360288619995,0.3754422664642334,-0.4454731047153473,0.18754331767559052,-0.4398181438446045,-0.6731472611427307,0.6214474439620972,-0.4984276592731476,0.35633280873298645,-1.1714386940002441,-0.17898379266262054,0.4603400230407715,-0.3391151428222656,-0.13275760412216187,0.6922146677970886,0.2797047197818756,-0.1360262930393219,0.400116503238678,0.1388269066810608,-0.4338657259941101,-0.23333194851875305,-0.38438650965690613,0.16437067091464996,0.21769939363002777,-0.22947706282138824,1.005859136581421,1.0380306243896484,1.160825252532959,1.1227526664733887,0.9387478232383728,1.0651077032089233,0.9149725437164307,0.976294755935669,1.013336181640625,0.9811685681343079,0.07193847745656967,0.07058056443929672,0.1736260950565338,0.12358733266592026,-0.04117738455533981,0.028818253427743912,-0.05968121066689491,-0.04421979561448097,-0.04260405898094177,0.06995825469493866,0.454351007938385,-0.6295087337493896,0.5199673175811768,-0.5680379271507263,0.2908656597137451,-0.03245905786752701,0.3951650857925415,-0.4516013562679291,0.5413106083869934,0.6280749440193176,0.6811701059341431,0.0068215434439480305,0.04766087979078293,-0.327034592628479,-0.5725978016853333,0.0212441124022007,0.4008174240589142,-0.5902451276779175,-0.6154687404632568,0.18798629939556122,-0.26854485273361206,-0.5337742567062378,0.6033219695091248,-0.8891813158988953,-0.26485344767570496,-0.5619897842407227,0.1616300493478775,-0.6198325157165527,-0.4457978904247284,0.8296706080436707,-0.20916852355003357,-0.20160242915153503,-0.1518007516860962,0.29705819487571716,-0.04448806121945381,-0.7278649210929871,0.23347720503807068,-0.7538423538208008,-0.29130908846855164,0.43000152707099915,-0.08006536960601807,0.15318045020103455,-0.7545732855796814,0.21335923671722412,0.35352981090545654,0.4390743672847748,-0.59927898645401,0.1904350221157074,0.06180505454540253,0.7085858583450317,-0.07608987390995026,0.2562331557273865,-0.082381471991539,0.2858317494392395,-0.15322072803974152,1.0889304876327515,0.8868762850761414,0.9689234495162964,1.1184837818145752,0.886957585811615,0.09371636062860489,-0.11602244526147842,-0.1154567301273346,0.1348530501127243,0.10456147789955139,-0.37443840503692627,-0.24333280324935913,-0.22850336134433746,0.28013381361961365,0.5729448795318604,-0.09753240644931793
-0.08638612180948257,-0.05993567407131195,-0.7134005427360535,-0.41393595933914185,0.17960885167121887,0.8885253667831421,-0.1685256063938141,-0.2875150442123413,0.8273329734802246,0.7545905709266663,0.8192206621170044,-0.4225381016731262,0.7121239304542542,-0.3766733705997467,-1.0707889795303345,0.22883827984333038,-0.31025177240371704,0.25600892305374146,0.10034097731113434,0.32547393441200256,-0.4715500771999359,-0.5494954586029053,-0.6615344285964966,-0.45292454957962036,-0.32653579115867615,-0.47624391317367554,0.8609888553619385,-0.3055424690246582,0.4172533452510834,0.9452944993972778,0.7523959279060364,0.46605944633483887,-0.06095092371106148,0.2649309039115906,0.5087147951126099,-1.02129328250885,0.37563562393188477,-0.4462584853172302,0.18775232136249542,-0.4390158951282501,-0.6723905801773071,0.6217533946037292,-0.4987337291240692,0.3555017411708832,-1.172031044960022,-0.17929762601852417,0.4600922465324402,-0.33882254362106323,-0.13231436908245087,0.692529559135437,0.27975746989250183,-0.13603080809116364,0.400198370218277,0.13871969282627106,-0.43388333916664124,-0.23336808383464813,-0.3843837380409241,0.16434380412101746,0.21769019961357117,-0.22946223616600037,1.0055004358291626,1.0377981662750244,1.161345362663269,1.1229616403579712,0.9391796588897705,1.0646263360977173,0.9150277972221375,0.9769967198371887,1.0134978294372559,0.9801314473152161,0.07201214134693146,0.07066291570663452,0.17482763528823853,0.12420549988746643,-0.04036584123969078,0.028182867914438248,-0.05949053540825844,-0.0436621829867363,-0.04152265936136246,0.06914415210485458,0.4538959562778473,-0.6296843886375427,0.5206167101860046,-0.567866325378418,0.2907703220844269,-0.032792266458272934,0.39493438601493835,-0.45234471559524536,0.540947675704956,0.6274642944335938,0.6809131503105164,0.006791363935917616,0.04667072743177414,-0.32716694474220276,-0.5728759765625,0.02179710566997528,0.4005294144153595,-0.589625895023346,-0.6159572601318359,0.18862654268741608,-0.2695524990558624,-0.5339400768280029,0.6017480492591858,-0.8896596431732178,-0.26481395959854126,-0.5619516968727112,0.1613239049911499,-0.6201908588409424,-0.44579648971557617,0.8298751711845398,-0.2092440277338028,-0.20129890739917755,-0.15104785561561584,0.2978176772594452,-0.04492713510990143,-0.728173017501831,0.23332656919956207,-0.7541749477386475,-0.2920234501361847,0.42936643958091736,-0.07952574640512466,0.15291017293930054,-0.7554729580879211,0.21328391134738922,0.3539527356624603,0.43855002522468567,-0.599549412727356,0.19108478724956512,0.06237282603979111,0.707832932472229,-0.07603868842124939,0.25632983446121216,-0.08240937441587448,0.285831093788147,-0.1532970368862152,1.0897843837738037,0.8868692517280579,0.969455897808075,1.1185413599014282,0.8863822817802429,0.09361261874437332,-0.11609626561403275,-0.11558008193969727,0.13526135683059692,0.10531995445489883,-0.37521272897720337,-0.24335676431655884,-0.22907055914402008,0.280267596244812,0.5724076628684998,-0.09732209891080856
-0.08559952676296234,-0.05910995230078697,-0.7134432792663574,-0.41450706124305725,0.1791815459728241,0.8888896703720093,-0.16764535009860992,-0.28673675656318665,0.8276111483573914,0.7550902366638184,0.8186647891998291,-0.4236897826194763,0.7112911939620972,-0.3777838349342346,-1.070784330368042,0.22802259027957916,-0.3102980852127075,0.2572079300880432,0.10165823996067047,0.3251160681247711,-0.4723334312438965,-0.5501248240470886,-0.6618949770927429,-0.451930433511734,-0.3256385922431946,-0.47576987743377686,0.861150324344635,-0.3060111999511719,0.41701754927635193,0.9458204507827759,0.7523015141487122,0.46645909547805786,-0.06003693491220474,0.2642662525177002,0.5089489221572876,-1.0214893817901611,0.37582191824913025,-0.4470789432525635,0.18794119358062744,-0.43826785683631897,-0.6716554164886475,0.6220247149467468,-0.4991040527820587,0.3546868860721588,-1.1726003885269165,-0.1795952022075653,0.4598737061023712,-0.33853650093078613,-0.13188761472702026,0.6928238272666931,0.27979162335395813,-0.1360238641500473,0.4003026485443115,0.13852708041667938,-0.43389788269996643,-0.23338955640792847,-0.3843761682510376,0.16435843706130981,0.21769124269485474,-0.22947897017002106,1.0051779747009277,1.0376075506210327,1.1618064641952515,1.1231707334518433,0.9396082162857056,1.0641188621520996,0.9150609970092773,0.9776791930198669,1.0137665271759033,0.9791229963302612,0.07211115211248398,0.0707741305232048,0.17602123320102692,0.12483127415180206,-0.03955235332250595,0.027568327262997627,-0.05932096019387245,-0.04314115643501282,-0.040447741746902466,0.06833741068840027,0.45348480343818665,-0.6298805475234985,0.5212218165397644,-0.5676965713500977,0.29070231318473816,-0.03316285088658333,0.39468055963516235,-0.4530639350414276,0.5406212210655212,0.6268143057823181,0.6806719899177551,0.006747752893716097,0.04562533274292946,-0.3273046910762787,-0.5731501579284668,0.022322604432702065,0.40022149682044983,-0.5889232754707336,-0.6164928078651428,0.18924082815647125,-0.2705710530281067,-0.5341172814369202,0.6001644134521484,-0.8901407122612,-0.26478517055511475,-0.561964213848114,0.16100406646728516,-0.6205815672874451,-0.4458464980125427,0.8300234079360962,-0.20938026905059814,-0.20101095736026764,-0.1502520740032196,0.2985568046569824,-0.04540172591805458,-0.7283895611763,0.23316995799541473,-0.7545166015625,-0.29272887110710144,0.4287954866886139,-0.07901231944561005,0.15265239775180817,-0.7563421130180359,0.21321336925029755,0.3543608784675598,0.4380374550819397,-0.5997990965843201,0.19171836972236633,0.06292961537837982,0.7071021199226379,-0.07596354186534882,0.2564028203487396,-0.08247114717960358,0.2858714163303375,-0.1533816009759903,1.0906357765197754,0.8868661522865295,0.9699358344078064,1.1186277866363525,0.8858662247657776,0.09347328543663025,-0.11615852266550064,-0.11572414636611938,0.13570505380630493,0.10604411363601685,-0.37598147988319397,-0.24338273704051971,-0.22958853840827942,0.28042683005332947,0.5719316005706787,-0.09711722284555435
